{"learner":{"attributes":{"best_iteration":"17","best_score":"0.00481900117929857"},"feature_names":[],"feature_types":[],"gradient_booster":{"model":{"gbtree_model_param":{"num_parallel_tree":"1","num_trees":"68"},"iteration_indptr":[0,1,2,3,4,5,6,7,8,9,10,11,12,13,14,15,16,17,18,19,20,21,22,23,24,25,26,27,28,29,30,31,32,33,34,35,36,37,38,39,40,41,42,43,44,45,46,47,48,49,50,51,52,53,54,55,56,57,58,59,60,61,62,63,64,65,66,67,68],"tree_info":[0,0,0,0,0,0,0,0,0,0,0,0,0,0,0,0,0,0,0,0,0,0,0,0,0,0,0,0,0,0,0,0,0,0,0,0,0,0,0,0,0,0,0,0,0,0,0,0,0,0,0,0,0,0,0,0,0,0,0,0,0,0,0,0,0,0,0,0],"trees":[{"base_weights":[-1.2364503E-4,-9.5699355E-4,7.741194E-3,-1.2698559E-3,9.912012E-3,-1.4162981E-3,6.678358E-4,2.906327E-4,2.2464355E-3,-1.556509E-3,1.3156346E-3,-1.7961324E-3,-1.020949E-3,-1.4407033E-4,4.0007685E-4,-1.8420628E-4,-8.809104E-5,-1.202234E-4,8.956626E-5,-8.207158E-5,1.2928362E-4],"categories":[],"categories_nodes":[],"categories_segments":[],"categories_sizes":[],"default_left":[0,0,0,0,0,0,0,0,0,0,0,0,0,0,0,0,0,0,0,0,0],"id":0,"left_children":[1,3,-1,5,7,9,-1,-1,-1,11,13,15,17,19,-1,-1,-1,-1,-1,-1,-1],"loss_changes":[1.7013857E-1,8.870898E-3,0E0,2.957752E-3,6.3541667E-3,9.55069E-4,0E0,0E0,0E0,3.019292E-4,4.7875574E-4,6.706547E-5,2.561072E-4,7.884315E-5,0E0,0E0,0E0,0E0,0E0,0E0,0E0],"parents":[2147483647,0,0,1,1,3,3,4,4,5,5,9,9,10,10,11,11,12,12,13,13],"right_children":[2,4,-1,6,8,10,-1,-1,-1,12,14,16,18,20,-1,-1,-1,-1,-1,-1,-1],"split_conditions":[7E0,3E0,7.741194E-3,3.0007591E-2,8.77602E-8,2E0,6.678358E-4,2.906327E-4,2.2464355E-3,7.3043864E-8,2E0,2E0,1E0,1E0,4.0007685E-4,-1.8420628E-4,-8.809104E-5,-1.202234E-4,8.956626E-5,-8.207158E-5,1.2928362E-4],"split_indices":[82,31,0,10,15,82,0,0,0,3,207,56,200,304,0,0,0,0,0,0,0],"split_type":[0,0,0,0,0,0,0,0,0,0,0,0,0,0,0,0,0,0,0,0,0],"sum_hessian":[2.631E3,2.604E3,2.7E1,2.532E3,7.2E1,2.487E3,4.5E1,4.7E1,2.5E1,2.366E3,1.21E2,1.633E3,7.33E2,7.9E1,4.2E1,1.554E3,7.9E1,6.7E2,6.3E1,5.4E1,2.5E1],"tree_param":{"num_deleted":"0","num_feature":"503","num_nodes":"21","size_leaf_vector":"1"}},{"base_weights":[1.0109958E-5,-8.45458E-4,7.1573905E-3,-1.2081997E-3,1.0138755E-2,-1.3499488E-3,2.1874977E-3,3.237616E-3,2.514365E-3,-1.4756367E-3,1.1865288E-4,-3.5802903E-5,6.569761E-4,-3.6751295E-5,6.8554183E-4,-1.6096414E-3,-9.072147E-4,-4.6074274E-4,3.011923E-4,-7.725006E-5,1.0442116E-4,-1.6891399E-4,-1.1892488E-4,-1.281381E-4,-3.7360587E-5,-9.965147E-5,4.733162E-5],"categories":[],"categories_nodes":[],"categories_segments":[],"categories_sizes":[],"default_left":[0,0,0,0,0,0,0,0,0,0,0,0,0,0,0,0,0,0,0,0,0,0,0,0,0,0,0],"id":1,"left_children":[1,3,-1,5,7,9,11,13,-1,15,17,19,-1,-1,-1,21,23,25,-1,-1,-1,-1,-1,-1,-1,-1,-1],"loss_changes":[1.6066076E-1,1.0343879E-2,0E0,1.2115906E-3,8.513316E-3,4.452113E-4,9.842872E-4,7.589928E-4,0E0,1.6771583E-4,3.215702E-4,5.491045E-5,0E0,0E0,0E0,5.8014877E-5,8.457576E-5,8.0542464E-5,0E0,0E0,0E0,0E0,0E0,0E0,0E0,0E0,0E0],"parents":[2147483647,0,0,1,1,3,3,4,4,5,5,6,6,7,7,9,9,10,10,11,11,15,15,16,16,17,17],"right_children":[2,4,-1,6,8,10,12,14,-1,16,18,20,-1,-1,-1,22,24,26,-1,-1,-1,-1,-1,-1,-1,-1,-1],"split_conditions":[7E0,6.260548E-3,7.1573905E-3,3E0,1.4281063E-7,1E0,1E0,8.6746525E-8,2.514365E-3,2E0,3.2823097E-2,1.0161568E-2,6.569761E-4,-3.6751295E-5,6.8554183E-4,1E0,7.4999E-8,8.0766746E-8,3.011923E-4,-7.725006E-5,1.0442116E-4,-1.6891399E-4,-1.1892488E-4,-1.281381E-4,-3.7360587E-5,-9.965147E-5,4.733162E-5],"split_indices":[82,16,0,164,3,200,35,3,0,81,7,7,0,0,0,204,3,3,0,0,0,0,0,0,0,0,0],"split_type":[0,0,0,0,0,0,0,0,0,0,0,0,0,0,0,0,0,0,0,0,0,0,0,0,0,0,0],"sum_hessian":[2.622E3,2.592E3,3E1,2.51E3,8.2E1,2.41E3,1E2,5.7E1,2.5E1,2.22E3,1.9E2,6.7E1,3.3E1,2.9E1,2.8E1,1.795E3,4.25E2,1.59E2,3.1E1,4E1,2.7E1,1.507E3,2.88E2,2.49E2,1.76E2,1.01E2,5.8E1],"tree_param":{"num_deleted":"0","num_feature":"503","num_nodes":"27","size_leaf_vector":"1"}},{"base_weights":[1.2898077E-5,-6.5885845E-4,6.656797E-3,-9.119207E-4,2.2402375E-3,-1.2431113E-3,3.5065967E-3,-1.455511E-3,-1.8279711E-4,1.5949858E-3,1.4620823E-3,-1.5177164E-3,-5.6051713E-4,-7.07406E-4,2.6096916E-3,-1.0342459E-4,6.0861045E-4,-1.5715185E-4,-1.01071935E-4,-8.295572E-5,4.0508963E-5,-9.3360155E-5,1.13961694E-4,-1.3325497E-5,5.271085E-4,9.1237096E-5,-4.861836E-5],"categories":[],"categories_nodes":[],"categories_segments":[],"categories_sizes":[],"default_left":[0,0,0,0,0,0,0,0,0,0,0,0,0,0,0,0,0,0,0,0,0,0,0,0,0,0,0],"id":2,"left_children":[1,3,-1,5,-1,7,9,11,13,15,-1,17,19,21,23,25,-1,-1,-1,-1,-1,-1,-1,-1,-1,-1,-1],"loss_changes":[1.1633146E-1,1.5053782E-2,0E0,3.734493E-3,0E0,5.3393305E-4,3.7584812E-3,1.0915985E-4,5.8343704E-4,1.1676771E-3,0E0,4.8793387E-5,3.4108336E-5,1.4102299E-4,4.6060627E-4,4.3989727E-5,0E0,0E0,0E0,0E0,0E0,0E0,0E0,0E0,0E0,0E0,0E0],"parents":[2147483647,0,0,1,1,3,3,5,5,6,6,7,7,8,8,9,9,11,11,12,12,13,13,14,14,15,15],"right_children":[2,4,-1,6,-1,8,10,12,14,16,-1,18,20,22,24,26,-1,-1,-1,-1,-1,-1,-1,-1,-1,-1,-1],"split_conditions":[3.6289353E-2,4E0,6.656797E-3,3.8237897E-1,2.2402375E-3,2.7868834E-1,6.1906977E-3,2E0,1E0,2E0,1.4620823E-3,2.4705572E-1,1E0,1E0,8.303743E-8,4.510639E-6,6.0861045E-4,-1.5715185E-4,-1.01071935E-4,-8.295572E-5,4.0508963E-5,-9.3360155E-5,1.13961694E-4,-1.3325497E-5,5.271085E-4,9.1237096E-5,-4.861836E-5],"split_indices":[16,200,0,4,0,4,16,204,200,164,0,4,23,213,3,5,0,0,0,0,0,0,0,0,0,0,0],"split_type":[0,0,0,0,0,0,0,0,0,0,0,0,0,0,0,0,0,0,0,0,0,0,0,0,0,0,0],"sum_hessian":[2.6E3,2.575E3,2.5E1,2.548E3,2.7E1,2.371E3,1.77E2,1.975E3,3.96E2,1.52E2,2.5E1,1.846E3,1.29E2,3.34E2,6.2E1,1.11E2,4.1E1,1.667E3,1.79E2,1.01E2,2.8E1,2.98E2,3.6E1,3.1E1,3.1E1,3E1,8.1E1],"tree_param":{"num_deleted":"0","num_feature":"503","num_nodes":"27","size_leaf_vector":"1"}},{"base_weights":[-8.0143625E-5,-6.9809053E-4,6.140866E-3,-9.384281E-4,7.831877E-3,-1.0302773E-3,5.604436E-4,2.4771946E-4,1.7004319E-3,-1.3309239E-3,-1.6425295E-4,-1.41917E-3,-9.7214873E-4,-4.1601097E-4,3.101226E-4,-1.4306803E-4,-7.9511716E-5,-1.08148844E-4,-5.598534E-5,-5.937937E-5,1.2121774E-4],"categories":[],"categories_nodes":[],"categories_segments":[],"categories_sizes":[],"default_left":[0,0,0,0,0,0,0,0,0,0,0,0,0,0,0,0,0,0,0,0,0],"id":3,"left_children":[1,3,-1,5,7,9,-1,-1,-1,11,13,15,17,19,-1,-1,-1,-1,-1,-1,-1],"loss_changes":[9.929055E-2,5.310884E-3,0E0,1.5183843E-3,3.4450786E-3,6.462729E-4,0E0,0E0,0E0,5.697063E-5,5.28263E-4,9.471551E-6,1.5938946E-5,1.7324017E-4,0E0,0E0,0E0,0E0,0E0,0E0,0E0],"parents":[2147483647,0,0,1,1,3,3,4,4,5,5,9,9,10,10,11,11,12,12,13,13],"right_children":[2,4,-1,6,8,10,-1,-1,-1,12,14,16,18,20,-1,-1,-1,-1,-1,-1,-1],"split_conditions":[7E0,4E0,6.140866E-3,3.3114545E-2,3E0,5.6E1,5.604436E-4,2.4771946E-4,1.7004319E-3,3.7E1,3E0,1E0,1E0,1E0,3.101226E-4,-1.4306803E-4,-7.9511716E-5,-1.08148844E-4,-5.598534E-5,-5.937937E-5,1.2121774E-4],"split_indices":[82,207,0,10,320,1,0,0,0,1,207,416,320,285,0,0,0,0,0,0,0],"split_type":[0,0,0,0,0,0,0,0,0,0,0,0,0,0,0,0,0,0,0,0,0],"sum_hessian":[2.611E3,2.586E3,2.5E1,2.516E3,7E1,2.482E3,3.4E1,4.5E1,2.5E1,1.842E3,6.4E2,1.476E3,3.66E2,5.95E2,4.5E1,1.448E3,2.8E1,2.88E2,7.8E1,5.37E2,5.8E1],"tree_param":{"num_deleted":"0","num_feature":"503","num_nodes":"21","size_leaf_vector":"1"}},{"base_weights":[2.5380248E-5,-5.760299E-4,5.377813E-3,-8.391486E-4,1.3689423E-3,-9.3830883E-4,4.5703942E-4,-1.2067701E-3,3.883779E-5,-1.3054856E-3,-8.7314524E-4,-3.9763388E-4,2.750264E-3,-1.3202327E-4,-6.0454367E-5,-9.945838E-5,5.5439934E-5,-5.7314384E-5,2.083656E-4,-1.0187398E-5,7.2778575E-4],"categories":[],"categories_nodes":[],"categories_segments":[],"categories_sizes":[],"default_left":[0,0,0,0,0,0,0,0,0,0,0,0,0,0,0,0,0,0,0,0,0],"id":4,"left_children":[1,3,-1,5,-1,7,-1,9,11,13,15,17,19,-1,-1,-1,-1,-1,-1,-1,-1],"loss_changes":[8.4728874E-2,9.740579E-3,0E0,1.3699925E-3,0E0,6.56124E-4,0E0,6.347662E-5,6.4016244E-4,1.4831079E-5,7.873631E-5,2.0413307E-4,9.6924056E-4,0E0,0E0,0E0,0E0,0E0,0E0,0E0,0E0],"parents":[2147483647,0,0,1,1,3,3,5,5,7,7,8,8,9,9,10,10,11,11,12,12],"right_children":[2,4,-1,6,-1,8,-1,10,12,14,16,18,20,-1,-1,-1,-1,-1,-1,-1,-1],"split_conditions":[3.2433074E-2,6E0,5.377813E-3,3.0007591E-2,1.3689423E-3,2.7868834E-1,4.5703942E-4,2.002469E-1,2E0,9E0,4.226095E-8,2E0,2E0,-1.3202327E-4,-6.0454367E-5,-9.945838E-5,5.5439934E-5,-5.7314384E-5,2.083656E-4,-1.0187398E-5,7.2778575E-4],"split_indices":[16,320,0,10,0,4,0,4,320,122,15,82,207,0,0,0,0,0,0,0,0],"split_type":[0,0,0,0,0,0,0,0,0,0,0,0,0,0,0,0,0,0,0,0,0],"sum_hessian":[2.619E3,2.591E3,2.8E1,2.545E3,4.6E1,2.5E3,4.5E1,1.961E3,5.39E2,1.511E3,4.5E2,4.65E2,7.4E1,1.479E3,3.2E1,4.15E2,3.5E1,4.35E2,3E1,4.6E1,2.8E1],"tree_param":{"num_deleted":"0","num_feature":"503","num_nodes":"21","size_leaf_vector":"1"}},{"base_weights":[6.810024E-5,-4.8546607E-4,5.584793E-3,-6.729632E-4,1.3795138E-3,-8.224607E-4,7.251966E-4,-1.0878883E-3,1.7904218E-4,-1.1181559E-3,9.548424E-5,-7.876564E-5,3.4466275E-4,-1.1906794E-4,-8.860166E-5,-4.1708598E-5,6.0438197E-5,-3.5289646E-5,4.1820254E-4],"categories":[],"categories_nodes":[],"categories_segments":[],"categories_sizes":[],"default_left":[0,0,0,0,0,0,0,0,0,0,0,0,0,0,0,0,0,0,0],"id":5,"left_children":[1,3,-1,5,-1,7,-1,9,11,13,15,17,-1,-1,-1,-1,-1,-1,-1],"loss_changes":[8.169899E-2,7.024523E-3,0E0,3.070931E-3,0E0,6.7539397E-4,0E0,7.202919E-5,4.4927554E-4,3.1908974E-5,1.3555215E-5,5.7964283E-4,0E0,0E0,0E0,0E0,0E0,0E0,0E0],"parents":[2147483647,0,0,1,1,3,3,5,5,7,7,8,8,9,9,10,10,11,11],"right_children":[2,4,-1,6,-1,8,-1,10,12,14,16,18,-1,-1,-1,-1,-1,-1,-1],"split_conditions":[2E0,5.4097605E-1,5.584793E-3,5E0,1.3795138E-3,2.8008884E-1,7.251966E-4,2E0,2.1441247E-2,2.002469E-1,3E0,1E1,3.4466275E-4,-1.1906794E-4,-8.860166E-5,-4.1708598E-5,6.0438197E-5,-3.5289646E-5,4.1820254E-4],"split_indices":[86,4,0,207,0,4,0,107,10,4,69,27,0,0,0,0,0,0,0],"split_type":[0,0,0,0,0,0,0,0,0,0,0,0,0,0,0,0,0,0,0],"sum_hessian":[2.644E3,2.619E3,2.5E1,2.586E3,3.3E1,2.539E3,4.7E1,2.007E3,5.32E2,1.957E3,5E1,4.94E2,3.8E1,1.488E3,4.69E2,2.5E1,2.5E1,4.65E2,2.9E1],"tree_param":{"num_deleted":"0","num_feature":"503","num_nodes":"19","size_leaf_vector":"1"}},{"base_weights":[1.7845476E-5,-4.9717963E-4,4.4549755E-3,-7.330656E-4,1.00146765E-2,-7.9511665E-4,4.0012668E-4,-1.1674498E-5,1.9136848E-3,-1.0190486E-3,1.0608025E-5,-1.0841175E-3,-6.6081434E-4,-2.0978799E-4,4.4265972E-4,-1.0549085E-4,-1.7414808E-4,-7.927097E-5,4.1757826E-6,-4.9041264E-5,1.6990774E-4],"categories":[],"categories_nodes":[],"categories_segments":[],"categories_sizes":[],"default_left":[0,0,0,0,0,0,0,0,0,0,0,0,0,0,0,0,0,0,0,0,0],"id":6,"left_children":[1,3,-1,5,7,9,-1,-1,-1,11,13,15,17,19,-1,-1,-1,-1,-1,-1,-1],"loss_changes":[6.0180794E-2,6.4394223E-3,0E0,7.487704E-4,5.2702064E-3,4.5216212E-4,0E0,0E0,0E0,4.499429E-5,5.323321E-4,2.99979E-5,2.820359E-5,2.799197E-4,0E0,0E0,0E0,0E0,0E0,0E0,0E0],"parents":[2147483647,0,0,1,1,3,3,4,4,5,5,9,9,10,10,11,11,12,12,13,13],"right_children":[2,4,-1,6,8,10,-1,-1,-1,12,14,16,18,20,-1,-1,-1,-1,-1,-1,-1],"split_conditions":[7E0,1.2641765E-2,4.4549755E-3,3E0,2E0,2.8008884E-1,4.0012668E-4,-1.1674498E-5,1.9136848E-3,1E0,2.0181399E-7,1E0,1E0,1E0,4.4265972E-4,-1.0549085E-4,-1.7414808E-4,-7.927097E-5,4.1757826E-6,-4.9041264E-5,1.6990774E-4],"split_indices":[204,16,0,258,331,4,0,0,0,56,9,295,200,200,0,0,0,0,0,0,0],"split_type":[0,0,0,0,0,0,0,0,0,0,0,0,0,0,0,0,0,0,0,0,0],"sum_hessian":[2.622E3,2.593E3,2.9E1,2.537E3,5.6E1,2.505E3,3.2E1,2.7E1,2.9E1,1.96E3,5.45E2,1.657E3,3.03E2,5.2E2,2.5E1,1.589E3,6.8E1,2.55E2,4.8E1,4.54E2,6.6E1],"tree_param":{"num_deleted":"0","num_feature":"503","num_nodes":"21","size_leaf_vector":"1"}},{"base_weights":[7.686637E-5,-4.386891E-4,5.162946E-3,-6.006834E-4,1.4463093E-3,-7.076693E-4,5.5646617E-4,-9.729043E-4,-2.8365568E-4,-9.840309E-4,-2.802989E-5,-4.3301497E-4,1.1720215E-3,-9.947424E-5,-3.9494797E-5,-7.058908E-5,2.0807513E-5,-2.4916691E-5,4.3785942E-4],"categories":[],"categories_nodes":[],"categories_segments":[],"categories_sizes":[],"default_left":[0,0,0,0,0,0,0,0,0,0,0,0,0,0,0,0,0,0,0],"id":7,"left_children":[1,3,-1,5,-1,7,-1,9,11,13,-1,15,17,-1,-1,-1,-1,-1,-1],"loss_changes":[6.979048E-2,6.285095E-3,0E0,1.7011027E-3,0E0,2.8425606E-4,0E0,1.17153395E-5,2.1249094E-4,9.267591E-6,0E0,1.5496698E-4,4.1579106E-4,0E0,0E0,0E0,0E0,0E0,0E0],"parents":[2147483647,0,0,1,1,3,3,5,5,7,7,8,8,9,9,11,11,12,12],"right_children":[2,4,-1,6,-1,8,-1,10,12,14,-1,16,18,-1,-1,-1,-1,-1,-1],"split_conditions":[3.6289353E-2,3.93E2,5.162946E-3,1.1724059E-2,1.4463093E-3,3.9E1,5.5646617E-4,1.6396592E-7,2.3414684E-3,1E0,-2.802989E-5,1E0,4.4555758E-8,-9.947424E-5,-3.9494797E-5,-7.058908E-5,2.0807513E-5,-2.4916691E-5,4.3785942E-4],"split_indices":[16,1,0,16,0,1,0,6,16,314,0,62,6,0,0,0,0,0,0],"split_type":[0,0,0,0,0,0,0,0,0,0,0,0,0,0,0,0,0,0,0],"sum_hessian":[2.624E3,2.599E3,2.5E1,2.572E3,2.7E1,2.529E3,4.3E1,1.555E3,9.74E2,1.53E3,2.5E1,8.84E2,9E1,1.502E3,2.8E1,6.2E2,2.64E2,6.3E1,2.7E1],"tree_param":{"num_deleted":"0","num_feature":"503","num_nodes":"19","size_leaf_vector":"1"}},{"base_weights":[-1.3872508E-6,-4.8408736E-4,3.6385723E-3,-6.1245286E-4,7.235482E-4,-6.681467E-4,2.9505216E-4,-7.052372E-4,2.2895377E-4,-8.984461E-4,-4.1023127E-4,-8.848294E-5,-1.5994614E-4,-5.6658366E-5,5.7294983E-5],"categories":[],"categories_nodes":[],"categories_segments":[],"categories_sizes":[],"default_left":[0,0,0,0,0,0,0,0,0,0,0,0,0,0,0],"id":8,"left_children":[1,3,-1,5,-1,7,-1,9,-1,11,13,-1,-1,-1,-1],"loss_changes":[4.561392E-2,2.5441758E-3,0E0,5.0242647E-4,0E0,2.741143E-4,0E0,1.3950397E-4,0E0,1.273118E-5,1.4989686E-4,0E0,0E0,0E0,0E0],"parents":[2147483647,0,0,1,1,3,3,5,5,7,7,9,9,10,10],"right_children":[2,4,-1,6,-1,8,-1,10,-1,12,14,-1,-1,-1,-1],"split_conditions":[3.2E1,3E0,3.6385723E-3,3E0,7.235482E-4,2E0,2.9505216E-4,3.7E1,2.2895377E-4,3.7600277E-8,3.2823097E-2,-8.848294E-5,-1.5994614E-4,-5.6658366E-5,5.7294983E-5],"split_indices":[27,180,0,258,0,366,0,1,0,17,7,0,0,0,0],"split_type":[0,0,0,0,0,0,0,0,0,0,0,0,0,0,0],"sum_hessian":[2.595E3,2.562E3,3.3E1,2.521E3,4.1E1,2.483E3,3.8E1,2.453E3,3E1,1.481E3,9.72E2,1.455E3,2.6E1,8.39E2,1.33E2],"tree_param":{"num_deleted":"0","num_feature":"503","num_nodes":"15","size_leaf_vector":"1"}},{"base_weights":[2.611365E-5,-3.9669435E-4,3.6006204E-3,-5.746539E-4,5.656927E-3,-7.3255826E-4,4.3906344E-4,-3.169614E-5,1.526914E-3,-7.0585025E-4,-2.7285746E-4,-3.8482025E-4,2.1051425E-3,-7.3775195E-4,4.6171033E-4,-8.202654E-4,2.5864734E-4,4.1782116E-3,-5.5186506E-6,-7.543951E-5,4.561481E-5,-1.039795E-4,1.667255E-4,-5.2774467E-5,-2.723854E-4,1.2344224E-4,6.6883484E-4,1.181948E-4,-1.0012804E-4],"categories":[],"categories_nodes":[],"categories_segments":[],"categories_sizes":[],"default_left":[0,0,0,0,0,0,0,0,0,0,0,0,0,0,0,0,0,0,0,0,0,0,0,0,0,0,0,0,0],"id":9,"left_children":[1,3,-1,5,7,9,11,-1,-1,13,-1,15,17,19,21,23,-1,25,27,-1,-1,-1,-1,-1,-1,-1,-1,-1,-1],"loss_changes":[3.9293397E-2,2.7535968E-3,0E0,3.974564E-4,4.196666E-3,1.1252973E-4,4.6064964E-4,0E0,0E0,7.930468E-5,0E0,2.9323454E-4,4.8570876E-4,4.1356194E-5,1.049111E-4,1.0825979E-4,0E0,4.0554546E-4,6.739976E-5,0E0,0E0,0E0,0E0,0E0,0E0,0E0,0E0,0E0,0E0],"parents":[2147483647,0,0,1,1,3,3,4,4,5,5,6,6,9,9,11,11,12,12,13,13,14,14,15,15,17,17,18,18],"right_children":[2,4,-1,6,8,10,12,-1,-1,14,-1,16,18,20,22,24,-1,26,28,-1,-1,-1,-1,-1,-1,-1,-1,-1,-1],"split_conditions":[1.0272283E-6,4E0,3.6006204E-3,3.2799807E-1,2.3414684E-3,1.6E1,1E0,-3.169614E-5,1.526914E-3,3E0,-2.7285746E-4,1E0,1E0,2E0,6.281354E-8,3.271425E-9,2.5864734E-4,3E0,1.5451607E-3,-7.543951E-5,4.561481E-5,-1.039795E-4,1.667255E-4,-5.2774467E-5,-2.723854E-4,1.2344224E-4,6.6883484E-4,1.181948E-4,-1.0012804E-4],"split_indices":[17,320,0,4,16,27,82,0,0,164,0,107,111,77,3,15,0,27,13,0,0,0,0,0,0,0,0,0,0],"split_type":[0,0,0,0,0,0,0,0,0,0,0,0,0,0,0,0,0,0,0,0,0,0,0,0,0,0,0,0,0],"sum_hessian":[2.581E3,2.552E3,2.9E1,2.48E3,7.2E1,2.146E3,3.34E2,4.5E1,2.7E1,2.119E3,2.7E1,2.24E2,1.1E2,2.063E3,5.6E1,1.96E2,2.8E1,5.5E1,5.5E1,2.035E3,2.8E1,2.5E1,3.1E1,1.71E2,2.5E1,2.6E1,2.9E1,2.5E1,3E1],"tree_param":{"num_deleted":"0","num_feature":"503","num_nodes":"29","size_leaf_vector":"1"}},{"base_weights":[-5.5364242E-5,-4.410594E-4,3.8516284E-3,-5.417922E-4,5.561628E-4,-5.8940187E-4,3.7811295E-4,-6.284817E-4,1.7415047E-4,-5.810495E-4,-4.253706E-4,-6.106056E-5,1.0937895E-4],"categories":[],"categories_nodes":[],"categories_segments":[],"categories_sizes":[],"default_left":[0,0,0,0,0,0,0,0,0,0,0,0,0],"id":10,"left_children":[1,3,-1,5,-1,7,-1,9,-1,11,-1,-1,-1],"loss_changes":[3.9068844E-2,1.5751487E-3,0E0,5.286976E-4,0E0,2.316467E-4,0E0,4.256894E-4,0E0,1.2239249E-4,0E0,0E0,0E0],"parents":[2147483647,0,0,1,1,3,3,5,5,7,7,9,9],"right_children":[2,4,-1,6,-1,8,-1,10,-1,12,-1,-1,-1],"split_conditions":[6E0,3E0,3.8516284E-3,4.1982094E-7,5.561628E-4,1E0,3.7811295E-4,1.8272237E-7,1.7415047E-4,1E0,-4.253706E-4,-6.106056E-5,1.0937895E-4],"split_indices":[366,258,0,9,0,433,0,15,0,435,0,0,0],"split_type":[0,0,0,0,0,0,0,0,0,0,0,0,0],"sum_hessian":[2.624E3,2.599E3,2.5E1,2.557E3,4.2E1,2.53E3,2.7E1,2.489E3,4.1E1,2.458E3,3.1E1,2.416E3,4.2E1],"tree_param":{"num_deleted":"0","num_feature":"503","num_nodes":"13","size_leaf_vector":"1"}},{"base_weights":[-3.3612555E-6,-3.3231673E-4,3.153994E-3,-4.6295754E-4,1.0121169E-3,-5.763357E-4,1.2174773E-3,-5.349344E-4,-4.060079E-4,3.07402E-5,4.7190487E-4,-6.8704225E-4,-9.299171E-5,-7.217024E-4,2.704953E-4,-6.624757E-5,-2.3027975E-4,-2.6516538E-5,2.3585037E-4,-2.0927789E-4,-2.0945325E-5],"categories":[],"categories_nodes":[],"categories_segments":[],"categories_sizes":[],"default_left":[0,0,0,0,0,0,0,0,0,0,0,0,0,0,0,0,0,0,0,0,0],"id":11,"left_children":[1,3,-1,5,-1,7,9,11,-1,13,-1,15,17,19,-1,-1,-1,-1,-1,-1,-1],"loss_changes":[2.714461E-2,3.5403583E-3,0E0,4.880636E-4,0E0,3.4355122E-4,6.7303696E-4,1.5925453E-4,0E0,2.4743957E-4,0E0,6.845425E-5,2.5725184E-4,6.698561E-5,0E0,0E0,0E0,0E0,0E0,0E0,0E0],"parents":[2147483647,0,0,1,1,3,3,5,5,6,6,7,7,9,9,11,11,12,12,13,13],"right_children":[2,4,-1,6,-1,8,10,12,-1,14,-1,16,18,20,-1,-1,-1,-1,-1,-1,-1],"split_conditions":[4E0,5.4097605E-1,3.153994E-3,3.8237897E-1,1.0121169E-3,1.8E1,3E0,2.4705572E-1,-4.060079E-4,1E0,4.7190487E-4,7.7079017E-7,1E0,6.4649475E-3,2.704953E-4,-6.624757E-5,-2.3027975E-4,-2.6516538E-5,2.3585037E-4,-2.0927789E-4,-2.0945325E-5],"split_indices":[23,4,0,4,0,27,207,4,0,107,0,11,402,7,0,0,0,0,0,0,0],"split_type":[0,0,0,0,0,0,0,0,0,0,0,0,0,0,0,0,0,0,0,0,0],"sum_hessian":[2.614E3,2.588E3,2.6E1,2.557E3,3.1E1,2.396E3,1.61E2,2.369E3,2.7E1,1.21E2,4E1,1.762E3,6.07E2,9.5E1,2.6E1,1.737E3,2.5E1,5.68E2,3.9E1,2.5E1,7E1],"tree_param":{"num_deleted":"0","num_feature":"503","num_nodes":"21","size_leaf_vector":"1"}},{"base_weights":[9.255374E-6,-3.48366E-4,3.5674756E-3,-4.3235903E-4,7.9609593E-4,-4.6879216E-4,3.147709E-4,-5.0651905E-4,1.9664578E-4,-4.6177572E-4,-3.9499105E-4,-4.9423492E-5,1.2248756E-4],"categories":[],"categories_nodes":[],"categories_segments":[],"categories_sizes":[],"default_left":[0,0,0,0,0,0,0,0,0,0,0,0,0],"id":12,"left_children":[1,3,-1,5,-1,7,-1,9,-1,11,-1,-1,-1],"loss_changes":[3.340435E-2,1.8131622E-3,0E0,3.3642765E-4,0E0,2.3463287E-4,0E0,3.8411852E-4,0E0,1.360501E-4,0E0,0E0,0E0],"parents":[2147483647,0,0,1,1,3,3,5,5,7,7,9,9],"right_children":[2,4,-1,6,-1,8,-1,10,-1,12,-1,-1,-1],"split_conditions":[2E0,4.8926033E-2,3.5674756E-3,4E0,7.9609593E-4,1E0,3.147709E-4,3.653962E-7,1.9664578E-4,1E0,-3.9499105E-4,-4.9423492E-5,1.2248756E-4],"split_indices":[86,10,0,62,0,214,0,17,0,318,0,0,0],"split_type":[0,0,0,0,0,0,0,0,0,0,0,0,0],"sum_hessian":[2.617E3,2.592E3,2.5E1,2.567E3,2.5E1,2.542E3,2.5E1,2.504E3,3.8E1,2.473E3,3.1E1,2.427E3,4.6E1],"tree_param":{"num_deleted":"0","num_feature":"503","num_nodes":"13","size_leaf_vector":"1"}},{"base_weights":[2.5063076E-5,-2.767017E-4,2.9060612E-3,-3.6956609E-4,7.6848094E-4,-4.3882115E-4,3.8077284E-4,-3.9939955E-4,-2.3845676E-4,-4.866337E-4,5.2617054E-4,-5.28216E-5,1.293971E-4,-2.1563834E-5,2.1569399E-4],"categories":[],"categories_nodes":[],"categories_segments":[],"categories_sizes":[],"default_left":[0,0,0,0,0,0,0,0,0,0,0,0,0,0,0],"id":13,"left_children":[1,3,-1,5,-1,7,-1,9,-1,11,13,-1,-1,-1,-1],"loss_changes":[2.2999283E-2,1.9236477E-3,0E0,7.448796E-4,0E0,1.9295648E-4,0E0,2.0041384E-4,0E0,1.6846188E-4,2.5934502E-4,0E0,0E0,0E0,0E0],"parents":[2147483647,0,0,1,1,3,3,5,5,7,7,9,9,10,10],"right_children":[2,4,-1,6,-1,8,-1,10,-1,12,14,-1,-1,-1,-1],"split_conditions":[6E0,4E0,2.9060612E-3,3E0,7.6848094E-4,2.17E2,3.8077284E-4,6E0,-2.3845676E-4,1E0,2E0,-5.28216E-5,1.293971E-4,-2.1563834E-5,2.1569399E-4],"split_indices":[366,211,0,258,0,1,0,27,0,302,207,0,0,0,0],"split_type":[0,0,0,0,0,0,0,0,0,0,0,0,0,0,0],"sum_hessian":[2.623E3,2.597E3,2.6E1,2.568E3,2.9E1,2.527E3,4.1E1,2.478E3,4.9E1,2.265E3,2.13E2,2.214E3,5.1E1,1.47E2,6.6E1],"tree_param":{"num_deleted":"0","num_feature":"503","num_nodes":"15","size_leaf_vector":"1"}},{"base_weights":[5.144948E-5,-2.4182584E-4,2.890325E-3,-3.453473E-4,6.283484E-4,-4.0930152E-4,1.9314225E-3,-3.6538212E-4,-3.7179142E-4,6.301582E-4,-6.948402E-5,-4.1284366E-4,1.6829701E-3,-4.441397E-5,2.216238E-4,3.951059E-4,-3.3880566E-5],"categories":[],"categories_nodes":[],"categories_segments":[],"categories_sizes":[],"default_left":[0,0,0,0,0,0,0,0,0,0,0,0,0,0,0,0,0],"id":14,"left_children":[1,3,-1,5,-1,7,9,11,-1,-1,-1,13,15,-1,-1,-1,-1],"loss_changes":[2.18631E-2,1.7301235E-3,0E0,3.675796E-4,0E0,3.5480186E-4,7.9630443E-4,2.3596219E-4,0E0,0E0,0E0,1.9565847E-4,2.5354477E-4,0E0,0E0,0E0,0E0],"parents":[2147483647,0,0,1,1,3,3,5,5,6,6,7,7,11,11,12,12],"right_children":[2,4,-1,6,-1,8,10,12,-1,-1,-1,14,16,-1,-1,-1,-1],"split_conditions":[3.5642564E-2,3E0,2.890325E-3,2.1441247E-2,6.283484E-4,9E0,6.161289E-7,2E0,-3.7179142E-4,6.301582E-4,-6.948402E-5,2E0,2.7E2,-4.441397E-5,2.216238E-4,3.951059E-4,-3.3880566E-5],"split_indices":[16,463,0,10,0,18,11,77,0,0,0,213,0,0,0,0,0],"split_type":[0,0,0,0,0,0,0,0,0,0,0,0,0,0,0,0,0],"sum_hessian":[2.582E3,2.557E3,2.5E1,2.518E3,3.9E1,2.45E3,6.8E1,2.419E3,3.1E1,2.5E1,4.3E1,2.365E3,5.4E1,2.338E3,2.7E1,2.5E1,2.9E1],"tree_param":{"num_deleted":"0","num_feature":"503","num_nodes":"17","size_leaf_vector":"1"}},{"base_weights":[1.8347917E-5,-2.820395E-4,2.8988363E-3,-3.5700074E-4,5.075114E-4,-3.0108835E-4,-3.713894E-4,-3.699501E-4,3.884988E-4,-3.3441148E-4,-3.4803292E-4,-3.8077054E-5,9.50281E-5],"categories":[],"categories_nodes":[],"categories_segments":[],"categories_sizes":[],"default_left":[0,0,0,0,0,0,0,0,0,0,0,0,0],"id":15,"left_children":[1,3,-1,5,-1,7,-1,9,-1,11,-1,-1,-1],"loss_changes":[2.2895036E-2,1.0475235E-3,0E0,4.810623E-4,0E0,7.301599E-4,0E0,2.7385622E-4,0E0,1.4693197E-4,0E0,0E0,0E0],"parents":[2147483647,0,0,1,1,3,3,5,5,7,7,9,9],"right_children":[2,4,-1,6,-1,8,-1,10,-1,12,-1,-1,-1],"split_conditions":[7E0,3.469118E-7,2.8988363E-3,9E0,5.075114E-4,5E0,-3.713894E-4,3.2368118E-7,3.884988E-4,3E0,-3.4803292E-4,-3.8077054E-5,9.50281E-5],"split_indices":[204,3,0,18,0,207,0,17,0,164,0,0,0],"split_type":[0,0,0,0,0,0,0,0,0,0,0,0,0],"sum_hessian":[2.629E3,2.603E3,2.6E1,2.568E3,3.5E1,2.527E3,4.1E1,2.487E3,4E1,2.46E3,2.7E1,2.375E3,8.5E1],"tree_param":{"num_deleted":"0","num_feature":"503","num_nodes":"13","size_leaf_vector":"1"}},{"base_weights":[-2.2852306E-5,-2.909747E-4,2.3197308E-3,-4.03038E-4,6.538473E-4,-3.4813868E-4,-5.534411E-4,-3.2053754E-4,-2.5636976E-4,-3.544521E-4,1.7749154E-4,-4.0601815E-5,5.7368703E-5],"categories":[],"categories_nodes":[],"categories_segments":[],"categories_sizes":[],"default_left":[0,0,0,0,0,0,0,0,0,0,0,0,0],"id":16,"left_children":[1,3,-1,5,-1,7,-1,9,-1,11,-1,-1,-1],"loss_changes":[1.6362045E-2,1.9909632E-3,0E0,7.1840256E-4,0E0,1.5395385E-4,0E0,1.7836594E-4,0E0,1.1806545E-4,0E0,0E0,0E0],"parents":[2147483647,0,0,1,1,3,3,5,5,7,7,9,9],"right_children":[2,4,-1,6,-1,8,-1,10,-1,12,-1,-1,-1],"split_conditions":[2E0,2E0,2.3197308E-3,3.04E2,6.538473E-4,3.653962E-7,-5.534411E-4,2.9566888E-7,-2.5636976E-4,1E0,1.7749154E-4,-4.0601815E-5,5.7368703E-5],"split_indices":[285,67,0,1,0,17,0,9,0,402,0,0,0],"split_type":[0,0,0,0,0,0,0,0,0,0,0,0,0],"sum_hessian":[2.626E3,2.597E3,2.9E1,2.556E3,4.1E1,2.53E3,2.6E1,2.5E3,3E1,2.461E3,3.9E1,2.332E3,1.29E2],"tree_param":{"num_deleted":"0","num_feature":"503","num_nodes":"13","size_leaf_vector":"1"}},{"base_weights":[-1.0096596E-5,-2.9736757E-4,1.940364E-3,-3.5628336E-4,4.3828427E-4,-3.1554166E-4,-4.2788545E-4,-3.6065062E-4,2.2228574E-4,-3.1028548E-4,-3.0068346E-4,-3.4912933E-5,1.8486973E-4],"categories":[],"categories_nodes":[],"categories_segments":[],"categories_sizes":[],"default_left":[0,0,0,0,0,0,0,0,0,0,0,0,0],"id":17,"left_children":[1,3,-1,5,-1,7,-1,9,-1,11,-1,-1,-1],"loss_changes":[1.4533863E-2,7.096574E-4,0E0,4.0409336E-4,0E0,2.8843706E-4,0E0,3.2812404E-4,0E0,2.039297E-4,0E0,0E0,0E0],"parents":[2147483647,0,0,1,1,3,3,5,5,7,7,9,9],"right_children":[2,4,-1,6,-1,8,-1,10,-1,12,-1,-1,-1],"split_conditions":[1E0,4E0,1.940364E-3,1.8533487E-2,4.3828427E-4,3.0007591E-2,-4.2788545E-4,2.17E2,2.2228574E-4,2E0,-3.0068346E-4,-3.4912933E-5,1.8486973E-4],"split_indices":[330,211,0,16,0,10,0,1,0,77,0,0,0],"split_type":[0,0,0,0,0,0,0,0,0,0,0,0,0],"sum_hessian":[2.604E3,2.567E3,3.7E1,2.536E3,3.1E1,2.511E3,2.5E1,2.468E3,4.3E1,2.423E3,4.5E1,2.381E3,4.2E1],"tree_param":{"num_deleted":"0","num_feature":"503","num_nodes":"13","size_leaf_vector":"1"}},{"base_weights":[3.9123097E-5,-2.5175963E-4,2.0949272E-3,-1.8017065E-4,-5.18266E-4,-2.6107478E-4,5.3261797E-4,-2.1877681E-4,-3.4370468E-4,-2.523251E-4,2.280592E-4,-3.076623E-5,1.2736687E-4],"categories":[],"categories_nodes":[],"categories_segments":[],"categories_sizes":[],"default_left":[0,0,0,0,0,0,0,0,0,0,0,0,0],"id":18,"left_children":[1,3,-1,5,-1,7,-1,9,-1,11,-1,-1,-1],"loss_changes":[1.5959414E-2,9.1262517E-4,0E0,1.1382722E-3,0E0,3.3724034E-4,0E0,2.088577E-4,0E0,2.074491E-4,0E0,0E0,0E0],"parents":[2147483647,0,0,1,1,3,3,5,5,7,7,9,9],"right_children":[2,4,-1,6,-1,8,-1,10,-1,12,-1,-1,-1],"split_conditions":[4E0,1E1,2.0949272E-3,3E0,-5.18266E-4,3.653962E-7,5.3261797E-4,3.3114545E-2,-3.4370468E-4,3E0,2.280592E-4,-3.076623E-5,1.2736687E-4],"split_indices":[350,18,0,180,0,17,0,10,0,207,0,0,0],"split_type":[0,0,0,0,0,0,0,0,0,0,0,0,0],"sum_hessian":[2.622E3,2.587E3,3.5E1,2.551E3,3.6E1,2.515E3,3.6E1,2.483E3,3.2E1,2.451E3,3.2E1,2.366E3,8.5E1],"tree_param":{"num_deleted":"0","num_feature":"503","num_nodes":"13","size_leaf_vector":"1"}},{"base_weights":[2.0582345E-5,-2.1390716E-4,1.5604588E-3,-1.5116425E-4,-5.228616E-4,-2.3296474E-4,5.144574E-4,-1.9433774E-4,-2.0294616E-3,-2.5384326E-4,5.201417E-4,-6.0797815E-5,-3.3757798E-4,-2.875178E-5,1.2425146E-4],"categories":[],"categories_nodes":[],"categories_segments":[],"categories_sizes":[],"default_left":[0,0,0,0,0,0,0,0,0,0,0,0,0,0,0],"id":19,"left_children":[1,3,-1,5,-1,7,-1,9,11,13,-1,-1,-1,-1,-1],"loss_changes":[9.614109E-3,8.147498E-4,0E0,1.1106083E-3,0E0,1.7468483E-4,0E0,7.9470215E-4,9.937734E-5,1.2355871E-4,0E0,0E0,0E0,0E0,0E0],"parents":[2147483647,0,0,1,1,3,3,5,5,7,7,8,8,9,9],"right_children":[2,4,-1,6,-1,8,-1,10,12,14,-1,-1,-1,-1,-1],"split_conditions":[4E0,2E1,1.5604588E-3,2.29E2,-5.228616E-4,6.2398516E-7,5.144574E-4,2.1441247E-2,3.27729E-2,2E0,5.201417E-4,-6.0797815E-5,-3.3757798E-4,-2.875178E-5,1.2425146E-4],"split_indices":[350,27,0,1,0,11,0,10,10,77,0,0,0,0,0],"split_type":[0,0,0,0,0,0,0,0,0,0,0,0,0,0,0],"sum_hessian":[2.629E3,2.591E3,3.8E1,2.56E3,3.1E1,2.522E3,3.8E1,2.47E3,5.2E1,2.444E3,2.6E1,2.6E1,2.6E1,2.391E3,5.3E1],"tree_param":{"num_deleted":"0","num_feature":"503","num_nodes":"15","size_leaf_vector":"1"}},{"base_weights":[-4.8314996E-6,-2.3991219E-4,2.353055E-3,-1.8801594E-4,-4.5395616E-4,-2.2879147E-4,3.2760153E-4,-2.6076066E-4,2.87733E-4,-2.2545633E-4,-3.1823272E-4,-2.5572812E-5,1.545046E-4],"categories":[],"categories_nodes":[],"categories_segments":[],"categories_sizes":[],"default_left":[0,0,0,0,0,0,0,0,0,0,0,0,0],"id":20,"left_children":[1,3,-1,5,-1,7,-1,9,-1,11,-1,-1,-1],"loss_changes":[1.4545616E-2,5.7996856E-4,0E0,3.6417978E-4,0E0,2.5336992E-4,0E0,2.5910206E-4,0E0,1.3384988E-4,0E0,0E0,0E0],"parents":[2147483647,0,0,1,1,3,3,5,5,7,7,9,9],"right_children":[2,4,-1,6,-1,8,-1,10,-1,12,-1,-1,-1],"split_conditions":[2E0,3E0,2.353055E-3,1E0,-4.5395616E-4,1E0,3.2760153E-4,1E1,2.87733E-4,2.9566888E-7,-3.1823272E-4,-2.5572812E-5,1.545046E-4],"split_indices":[86,28,0,356,0,240,0,18,0,9,0,0,0],"split_type":[0,0,0,0,0,0,0,0,0,0,0,0,0],"sum_hessian":[2.627E3,2.602E3,2.5E1,2.572E3,3E1,2.543E3,2.9E1,2.518E3,2.5E1,2.489E3,2.9E1,2.448E3,4.1E1],"tree_param":{"num_deleted":"0","num_feature":"503","num_nodes":"13","size_leaf_vector":"1"}},{"base_weights":[3.4236367E-5,-1.957986E-4,2.0617219E-3,-2.6680276E-4,3.2147567E-3,-2.2353727E-4,-4.4466383E-4,-1.0226284E-4,7.6544506E-4,-2.5124557E-4,1.9369034E-4,-2.9648736E-4,9.71072E-4,-2.7217484E-5,-2.5050036E-4,-3.3031607E-5,3.9716787E-4],"categories":[],"categories_nodes":[],"categories_segments":[],"categories_sizes":[],"default_left":[0,0,0,0,0,0,0,0,0,0,0,0,0,0,0,0,0],"id":21,"left_children":[1,3,-1,5,7,9,-1,-1,-1,11,-1,13,15,-1,-1,-1,-1],"loss_changes":[1.24234315E-2,6.292725E-4,0E0,4.5888894E-4,1.0049001E-3,1.5121953E-4,0E0,0E0,0E0,1.3781856E-4,0E0,1.2813155E-4,3.488528E-4,0E0,0E0,0E0,0E0],"parents":[2147483647,0,0,1,1,3,3,4,4,5,5,9,9,11,11,12,12],"right_children":[2,4,-1,6,8,10,-1,-1,-1,12,-1,14,16,-1,-1,-1,-1],"split_conditions":[1.5E1,2E0,2.0617219E-3,3E0,1E0,2E0,-4.4466383E-4,-1.0226284E-4,7.6544506E-4,1E0,1.9369034E-4,3E0,1E0,-2.7217484E-5,-2.5050036E-4,-3.3031607E-5,3.9716787E-4],"split_indices":[18,52,0,28,233,366,0,0,0,361,0,201,180,0,0,0,0],"split_type":[0,0,0,0,0,0,0,0,0,0,0,0,0,0,0,0,0],"sum_hessian":[2.622E3,2.594E3,2.8E1,2.542E3,5.2E1,2.517E3,2.5E1,2.7E1,2.5E1,2.486E3,3.1E1,2.398E3,8.8E1,2.373E3,2.5E1,6.2E1,2.6E1],"tree_param":{"num_deleted":"0","num_feature":"503","num_nodes":"17","size_leaf_vector":"1"}},{"base_weights":[-1.7675466E-6,-1.8803368E-4,1.4566556E-3,-2.7705415E-4,8.2429044E-4,-1.9868258E-4,-5.199699E-4,-2.9715203E-4,4.5908662E-4,-2.441396E-4,-2.1741407E-3,4.1994924E-4,-7.499573E-5,-2.7588014E-5,9.363195E-5,-8.235912E-5,-3.497237E-4,-4.6036363E-5,1.428557E-4],"categories":[],"categories_nodes":[],"categories_segments":[],"categories_sizes":[],"default_left":[0,0,0,0,0,0,0,0,0,0,0,0,0,0,0,0,0,0,0],"id":22,"left_children":[1,3,-1,5,-1,7,-1,9,11,13,15,-1,17,-1,-1,-1,-1,-1,-1],"loss_changes":[7.0933374E-3,1.9393914E-3,0E0,9.846743E-4,0E0,1.6309816E-4,0E0,2.1728284E-4,6.5555546E-4,8.006595E-5,1.0433415E-4,0E0,1.6753087E-4,0E0,0E0,0E0,0E0,0E0,0E0],"parents":[2147483647,0,0,1,1,3,3,5,5,7,7,8,8,9,9,10,10,12,12],"right_children":[2,4,-1,6,-1,8,-1,10,12,14,16,-1,18,-1,-1,-1,-1,-1,-1],"split_conditions":[2E0,5.7252717E-1,1.4566556E-3,3E0,8.2429044E-4,3.2799807E-1,-5.199699E-4,1.2E1,7.5E1,2E0,1.0725065E-7,4.1994924E-4,1E0,-2.7588014E-5,9.363195E-5,-8.235912E-5,-3.497237E-4,-4.6036363E-5,1.428557E-4],"split_indices":[285,4,0,180,0,4,0,27,0,62,3,0,21,0,0,0,0,0,0],"split_type":[0,0,0,0,0,0,0,0,0,0,0,0,0,0,0,0,0,0,0],"sum_hessian":[2.612E3,2.58E3,3.2E1,2.554E3,2.6E1,2.515E3,3.9E1,2.188E3,3.27E2,2.129E3,5.9E1,4E1,2.87E2,2.074E3,5.5E1,3E1,2.9E1,2.29E2,5.8E1],"tree_param":{"num_deleted":"0","num_feature":"503","num_nodes":"19","size_leaf_vector":"1"}},{"base_weights":[-5.3546686E-5,-1.8737347E-4,1.1881958E-3,-2.7167733E-4,5.3252827E-4,-1.9101187E-4,-3.857879E-3,-1.5781428E-4,-3.3348825E-4,-7.7477736E-5,-6.7016366E-4,-2.2985E-4,1.0326606E-3,-2.0877747E-5,-2.017966E-4,-7.592079E-7,4.8818486E-4],"categories":[],"categories_nodes":[],"categories_segments":[],"categories_sizes":[],"default_left":[0,0,0,0,0,0,0,0,0,0,0,0,0,0,0,0,0],"id":23,"left_children":[1,3,-1,5,-1,7,9,11,-1,-1,-1,13,15,-1,-1,-1,-1],"loss_changes":[4.177543E-3,1.2032597E-3,0E0,7.3635514E-4,0E0,2.5966542E-4,4.8579287E-4,2.1188492E-4,0E0,0E0,0E0,8.7298075E-5,5.646192E-4,0E0,0E0,0E0,0E0],"parents":[2147483647,0,0,1,1,3,3,5,5,6,6,7,7,11,11,12,12],"right_children":[2,4,-1,6,-1,8,10,12,-1,-1,-1,14,16,-1,-1,-1,-1],"split_conditions":[2E0,2E0,1.1881958E-3,9E0,5.3252827E-4,2.2714613E-7,1E0,1.01901506E-7,-3.3348825E-4,-7.7477736E-5,-6.7016366E-4,2.198705E-7,5.7144977E-2,-2.0877747E-5,-2.017966E-4,-7.592079E-7,4.8818486E-4],"split_indices":[285,213,0,81,0,15,77,6,0,0,0,17,7,0,0,0,0],"split_type":[0,0,0,0,0,0,0,0,0,0,0,0,0,0,0,0,0],"sum_hessian":[2.613E3,2.585E3,2.8E1,2.547E3,3.8E1,2.492E3,5.5E1,2.467E3,2.5E1,2.7E1,2.8E1,2.327E3,1.4E2,2.301E3,2.6E1,1.11E2,2.9E1],"tree_param":{"num_deleted":"0","num_feature":"503","num_nodes":"17","size_leaf_vector":"1"}},{"base_weights":[3.916658E-5,-1.6831962E-4,1.5837478E-3,-1.032247E-4,-3.9311225E-4,-1.5962798E-4,5.164904E-4,-1.906044E-4,1.6725196E-4,-2.190163E-4,1.463177E-4,-1.8691924E-5,-1.9611407E-4],"categories":[],"categories_nodes":[],"categories_segments":[],"categories_sizes":[],"default_left":[0,0,0,0,0,0,0,0,0,0,0,0,0],"id":24,"left_children":[1,3,-1,5,-1,7,-1,9,-1,11,-1,-1,-1],"loss_changes":[8.597402E-3,6.3374214E-4,0E0,7.573422E-4,0E0,1.4333733E-4,0E0,1.1680141E-4,0E0,1.359593E-4,0E0,0E0,0E0],"parents":[2147483647,0,0,1,1,3,3,5,5,7,7,9,9],"right_children":[2,4,-1,6,-1,8,-1,10,-1,12,-1,-1,-1],"split_conditions":[1.0272283E-6,3.04E2,1.5837478E-3,2E0,-3.9311225E-4,2.9566888E-7,5.164904E-4,1E0,1.6725196E-4,4.6973836E-1,1.463177E-4,-1.8691924E-5,-1.9611407E-4],"split_indices":[17,1,0,380,0,9,0,435,0,4,0,0,0],"split_type":[0,0,0,0,0,0,0,0,0,0,0,0,0],"sum_hessian":[2.621E3,2.588E3,3.3E1,2.545E3,4.3E1,2.519E3,2.6E1,2.478E3,4.1E1,2.437E3,4.1E1,2.394E3,4.3E1],"tree_param":{"num_deleted":"0","num_feature":"503","num_nodes":"13","size_leaf_vector":"1"}},{"base_weights":[6.8199784E-5,-1.4319814E-4,1.6529547E-3,-2.1616292E-4,3.197213E-3,-1.4792017E-4,-5.681819E-4,-6.266035E-5,7.486339E-4,-1.8083159E-4,2.9729615E-4,-1.4801396E-4,-3.1337983E-4,-1.8290917E-5,1.8939869E-4],"categories":[],"categories_nodes":[],"categories_segments":[],"categories_sizes":[],"default_left":[0,0,0,0,0,0,0,0,0,0,0,0,0,0,0],"id":25,"left_children":[1,3,-1,5,7,9,-1,-1,-1,11,-1,13,-1,-1,-1],"loss_changes":[9.057053E-3,6.2708335E-4,0E0,9.3760586E-4,9.0673665E-4,2.558812E-4,0E0,0E0,0E0,2.3803013E-4,0E0,1.7385487E-4,0E0,0E0,0E0],"parents":[2147483647,0,0,1,1,3,3,4,4,5,5,9,9,11,11],"right_children":[2,4,-1,6,8,10,-1,-1,-1,12,-1,14,-1,-1,-1],"split_conditions":[5.7252717E-1,2E0,1.6529547E-3,2E1,1.7695434E-8,3.91488E-7,-5.681819E-4,-6.266035E-5,7.486339E-4,1.8218796E-7,2.9729615E-4,1E0,-3.1337983E-4,-1.8290917E-5,1.8939869E-4],"split_indices":[4,213,0,27,17,9,0,0,0,15,0,435,0,0,0],"split_type":[0,0,0,0,0,0,0,0,0,0,0,0,0,0,0],"sum_hessian":[2.601E3,2.569E3,3.2E1,2.515E3,5.4E1,2.485E3,3E1,2.9E1,2.5E1,2.46E3,2.5E1,2.434E3,2.6E1,2.394E3,4E1],"tree_param":{"num_deleted":"0","num_feature":"503","num_nodes":"15","size_leaf_vector":"1"}},{"base_weights":[-1.144714E-5,-2.2423636E-4,2.125973E-3,-1.568691E-4,-5.154888E-4,-1.8331555E-4,2.2459151E-4,-1.5721605E-4,-2.6988809E-4,-1.3179213E-4,-2.1885194E-4,-1.8178904E-5,1.14080765E-4],"categories":[],"categories_nodes":[],"categories_segments":[],"categories_sizes":[],"default_left":[0,0,0,0,0,0,0,0,0,0,0,0,0],"id":26,"left_children":[1,3,-1,5,-1,7,-1,9,-1,11,-1,-1,-1],"loss_changes":[1.1881719E-2,8.6248684E-4,0E0,1.6340494E-4,0E0,1.6620799E-4,0E0,1.2949221E-4,0E0,1.5819083E-4,0E0,0E0,0E0],"parents":[2147483647,0,0,1,1,3,3,5,5,7,7,9,9],"right_children":[2,4,-1,6,-1,8,-1,10,-1,12,-1,-1,-1],"split_conditions":[3.6289353E-2,5E0,2.125973E-3,1.5339611E-2,-5.154888E-4,3.851463E-7,2.2459151E-4,1.4E1,-2.6988809E-4,1E0,-2.1885194E-4,-1.8178904E-5,1.14080765E-4],"split_indices":[16,31,0,16,0,9,0,122,0,75,0,0,0],"split_type":[0,0,0,0,0,0,0,0,0,0,0,0,0],"sum_hessian":[2.623E3,2.598E3,2.5E1,2.564E3,3.4E1,2.537E3,2.7E1,2.512E3,2.5E1,2.482E3,3E1,2.389E3,9.3E1],"tree_param":{"num_deleted":"0","num_feature":"503","num_nodes":"13","size_leaf_vector":"1"}},{"base_weights":[-1.7064149E-5,-1.6656397E-4,1.4853075E-3,-1.1691892E-4,-3.4923185E-4,-1.5718641E-4,2.0775746E-4,-1.2985288E-4,-2.485484E-4,-1.5616973E-4,1.4767476E-4,-1.9091223E-5,8.4394596E-5],"categories":[],"categories_nodes":[],"categories_segments":[],"categories_sizes":[],"default_left":[0,0,0,0,0,0,0,0,0,0,0,0,0],"id":27,"left_children":[1,3,-1,5,-1,7,-1,9,-1,11,-1,-1,-1],"loss_changes":[5.806944E-3,4.26559E-4,0E0,2.255734E-4,0E0,1.5903327E-4,0E0,1.04917555E-4,0E0,8.4838364E-5,0E0,0E0,0E0],"parents":[2147483647,0,0,1,1,3,3,5,5,7,7,9,9],"right_children":[2,4,-1,6,-1,8,-1,10,-1,12,-1,-1,-1],"split_conditions":[3.4649983E-2,3.1E1,1.4853075E-3,2.9566888E-7,-3.4923185E-4,1.3862066E-2,2.0775746E-4,3E0,-2.485484E-4,2E0,1.4767476E-4,-1.9091223E-5,8.4394596E-5],"split_indices":[16,32,0,9,0,16,0,31,0,35,0,0,0],"split_type":[0,0,0,0,0,0,0,0,0,0,0,0,0],"sum_hessian":[2.61E3,2.585E3,2.5E1,2.548E3,3.7E1,2.503E3,4.5E1,2.475E3,2.8E1,2.436E3,3.9E1,2.355E3,8.1E1],"tree_param":{"num_deleted":"0","num_feature":"503","num_nodes":"13","size_leaf_vector":"1"}},{"base_weights":[-1.2105459E-5,-1.4116814E-4,1.2909521E-3,-8.84367E-5,-4.5133248E-4,-1.5489601E-4,3.8254462E-4,-1.0937741E-4,-3.3065493E-4,-7.307129E-5,-2.1309576E-4,-1.0431582E-5,1.5641002E-4],"categories":[],"categories_nodes":[],"categories_segments":[],"categories_sizes":[],"default_left":[0,0,0,0,0,0,0,0,0,0,0,0,0],"id":28,"left_children":[1,3,-1,5,-1,7,-1,9,-1,11,-1,-1,-1],"loss_changes":[4.384537E-3,5.997229E-4,0E0,6.698658E-4,0E0,3.6273268E-4,0E0,1.8304003E-4,0E0,1.2564061E-4,0E0,0E0,0E0],"parents":[2147483647,0,0,1,1,3,3,5,5,7,7,9,9],"right_children":[2,4,-1,6,-1,8,-1,10,-1,12,-1,-1,-1],"split_conditions":[2E0,3E0,1.2909521E-3,3E0,-4.5133248E-4,3.653962E-7,3.8254462E-4,7.1947665E-7,-3.3065493E-4,3E0,-2.1309576E-4,-1.0431582E-5,1.5641002E-4],"split_indices":[166,487,0,180,0,17,0,11,0,82,0,0,0],"split_type":[0,0,0,0,0,0,0,0,0,0,0,0,0],"sum_hessian":[2.627E3,2.602E3,2.5E1,2.572E3,3E1,2.53E3,4.2E1,2.495E3,3.5E1,2.452E3,4.3E1,2.407E3,4.5E1],"tree_param":{"num_deleted":"0","num_feature":"503","num_nodes":"13","size_leaf_vector":"1"}},{"base_weights":[4.1846666E-5,-1.12528534E-4,1.5655883E-3,-3.7452846E-5,-3.5008143E-3,-1.0254142E-4,4.1959333E-4,-5.1111845E-5,-7.0457935E-4,-7.467053E-5,-2.7902823E-4,-4.07286E-5,-1.8154671E-4,-8.905946E-6,4.3248778E-4],"categories":[],"categories_nodes":[],"categories_segments":[],"categories_sizes":[],"default_left":[0,0,0,0,0,0,0,0,0,0,0,0,0,0,0],"id":29,"left_children":[1,3,-1,5,7,9,-1,-1,-1,11,-1,13,-1,-1,-1],"loss_changes":[6.4014266E-3,6.688827E-4,0E0,7.096832E-4,6.0050806E-4,1.8976272E-4,0E0,0E0,0E0,1.4829096E-4,0E0,5.202731E-4,0E0,0E0,0E0],"parents":[2147483647,0,0,1,1,3,3,4,4,5,5,9,9,11,11],"right_children":[2,4,-1,6,8,10,-1,-1,-1,12,-1,14,-1,-1,-1],"split_conditions":[2E0,2.8E1,1.5655883E-3,2.29E2,1E0,6E0,4.1959333E-4,-5.1111845E-5,-7.0457935E-4,7.378908E-7,-2.7902823E-4,1.8470656E-2,-1.8154671E-4,-8.905946E-6,4.3248778E-4],"split_indices":[86,30,0,1,47,320,0,0,0,11,0,10,0,0,0],"split_type":[0,0,0,0,0,0,0,0,0,0,0,0,0,0,0],"sum_hessian":[2.654E3,2.629E3,2.5E1,2.573E3,5.6E1,2.535E3,3.8E1,3.1E1,2.5E1,2.51E3,2.5E1,2.463E3,4.7E1,2.437E3,2.6E1],"tree_param":{"num_deleted":"0","num_feature":"503","num_nodes":"15","size_leaf_vector":"1"}},{"base_weights":[1.8679664E-5,-1.3202883E-4,1.4949695E-3,-5.7959172E-5,-6.2110386E-4,-1.2579585E-4,5.635471E-4,-9.5070805E-5,-2.8536379E-4,-1.3649925E-4,8.379662E-4,-1.0233406E-5,-1.4586949E-4,-7.349722E-5,2.2030357E-4],"categories":[],"categories_nodes":[],"categories_segments":[],"categories_sizes":[],"default_left":[0,0,0,0,0,0,0,0,0,0,0,0,0,0,0],"id":30,"left_children":[1,3,-1,5,-1,7,-1,9,-1,11,13,-1,-1,-1,-1],"loss_changes":[5.8548236E-3,1.1595361E-3,0E0,9.840337E-4,0E0,2.1068624E-4,0E0,9.636353E-5,0E0,1.0758851E-4,2.2921921E-4,0E0,0E0,0E0,0E0],"parents":[2147483647,0,0,1,1,3,3,5,5,7,7,9,9,10,10],"right_children":[2,4,-1,6,-1,8,-1,10,-1,12,14,-1,-1,-1,-1],"split_conditions":[3.6289353E-2,5E0,1.4949695E-3,2.077901E-7,-6.2110386E-4,2.66E2,5.635471E-4,2E0,-2.8536379E-4,4.397372E-7,1E0,-1.0233406E-5,-1.4586949E-4,-7.349722E-5,2.2030357E-4],"split_indices":[16,82,0,15,0,1,0,62,0,11,82,0,0,0,0],"split_type":[0,0,0,0,0,0,0,0,0,0,0,0,0,0,0],"sum_hessian":[2.6E3,2.575E3,2.5E1,2.545E3,3E1,2.516E3,2.9E1,2.489E3,2.7E1,2.384E3,1.05E2,2.325E3,5.9E1,4.9E1,5.6E1],"tree_param":{"num_deleted":"0","num_feature":"503","num_nodes":"15","size_leaf_vector":"1"}},{"base_weights":[-3.2239648E-5,-1.6538399E-4,1.2299028E-3,-1.01903956E-4,-5.976969E-4,-6.465488E-5,-1.9749843E-4,-1.3071617E-4,1.1299428E-3,-1.04152045E-4,-2.4477762E-4,2.560461E-4,4.0926566E-4,-1.6184526E-5,1.7314577E-4,-6.255968E-5,1.9142592E-4],"categories":[],"categories_nodes":[],"categories_segments":[],"categories_sizes":[],"default_left":[0,0,0,0,0,0,0,0,0,0,0,0,0,0,0,0,0],"id":31,"left_children":[1,3,-1,5,-1,7,-1,9,11,13,-1,15,-1,-1,-1,-1,-1],"loss_changes":[4.3036514E-3,9.559996E-4,0E0,1.7890346E-4,0E0,1.9878094E-4,0E0,1.4660499E-4,3.4071403E-4,2.5020944E-4,0E0,1.5177859E-4,0E0,0E0,0E0,0E0,0E0],"parents":[2147483647,0,0,1,1,3,3,5,5,7,7,8,8,9,9,11,11],"right_children":[2,4,-1,6,-1,8,-1,10,12,14,-1,16,-1,-1,-1,-1,-1],"split_conditions":[1E0,1.982712E-2,1.2299028E-3,8E0,-5.976969E-4,2.3414684E-3,-1.9749843E-4,2E0,1E0,3E0,-2.4477762E-4,1E0,4.0926566E-4,-1.6184526E-5,1.7314577E-4,-6.255968E-5,1.9142592E-4],"split_indices":[174,16,0,18,0,16,0,67,380,164,0,28,0,0,0,0,0],"split_type":[0,0,0,0,0,0,0,0,0,0,0,0,0,0,0,0,0],"sum_hessian":[2.619E3,2.592E3,2.7E1,2.565E3,2.7E1,2.516E3,4.9E1,2.385E3,1.31E2,2.359E3,2.6E1,1.02E2,2.9E1,2.288E3,7.1E1,6.7E1,3.5E1],"tree_param":{"num_deleted":"0","num_feature":"503","num_nodes":"17","size_leaf_vector":"1"}},{"base_weights":[2.1917782E-5,-1.2450009E-4,1.4764228E-3,-1.6874753E-4,2.46781E-4,-1.1903693E-4,-4.8555457E-4,-9.21468E-5,-2.2312345E-4,-1.349338E-4,1.757568E-3,-1.0163297E-5,-2.2565022E-4,-4.801905E-5,4.4441337E-4],"categories":[],"categories_nodes":[],"categories_segments":[],"categories_sizes":[],"default_left":[0,0,0,0,0,0,0,0,0,0,0,0,0,0,0],"id":32,"left_children":[1,3,-1,5,-1,7,-1,9,-1,11,13,-1,-1,-1,-1],"loss_changes":[5.706853E-3,3.0070907E-4,0E0,5.993545E-4,0E0,1.4457063E-4,0E0,1.9952112E-4,0E0,1.7371099E-4,3.4481144E-4,0E0,0E0,0E0,0E0],"parents":[2147483647,0,0,1,1,3,3,5,5,7,7,9,9,10,10],"right_children":[2,4,-1,6,-1,8,-1,10,-1,12,14,-1,-1,-1,-1],"split_conditions":[8E0,2E0,1.4764228E-3,1.982712E-2,2.46781E-4,5.179503E-1,-4.8555457E-4,6.260548E-3,-2.2312345E-4,2.8471226E-2,2.8631023E-1,-1.0163297E-5,-2.2565022E-4,-4.801905E-5,4.4441337E-4],"split_indices":[164,213,0,16,0,4,0,16,0,10,4,0,0,0,0],"split_type":[0,0,0,0,0,0,0,0,0,0,0,0,0,0,0],"sum_hessian":[2.642E3,2.617E3,2.5E1,2.574E3,4.3E1,2.548E3,2.6E1,2.517E3,3.1E1,2.461E3,5.6E1,2.424E3,3.7E1,3.1E1,2.5E1],"tree_param":{"num_deleted":"0","num_feature":"503","num_nodes":"15","size_leaf_vector":"1"}},{"base_weights":[3.6991543E-5,-1.09436434E-4,1.2231831E-3,-1.6538455E-4,4.3540975E-4,-1.0016247E-4,-5.296456E-4,-5.7970774E-5,-3.378755E-4,-1.13342205E-4,3.170773E-4,-8.287501E-6,-2.4110253E-4],"categories":[],"categories_nodes":[],"categories_segments":[],"categories_sizes":[],"default_left":[0,0,0,0,0,0,0,0,0,0,0,0,0],"id":33,"left_children":[1,3,-1,5,-1,7,-1,9,-1,11,-1,-1,-1],"loss_changes":[4.665497E-3,6.4551353E-4,0E0,8.53185E-4,0E0,3.4839413E-4,0E0,4.4534318E-4,0E0,1.7116987E-4,0E0,0E0,0E0],"parents":[2147483647,0,0,1,1,3,3,5,5,7,7,9,9],"right_children":[2,4,-1,6,-1,8,-1,10,-1,12,-1,-1,-1],"split_conditions":[5.829531E-2,6.253987E-2,1.2231831E-3,5.179503E-1,4.3540975E-4,4E0,-5.296456E-4,1E0,-3.378755E-4,3.9033216E-7,3.170773E-4,-8.287501E-6,-2.4110253E-4],"split_indices":[10,13,0,4,0,191,0,435,0,17,0,0,0],"split_type":[0,0,0,0,0,0,0,0,0,0,0,0,0],"sum_hessian":[2.611E3,2.581E3,3E1,2.55E3,3.1E1,2.519E3,3.1E1,2.488E3,3.1E1,2.447E3,4.1E1,2.416E3,3.1E1],"tree_param":{"num_deleted":"0","num_feature":"503","num_nodes":"13","size_leaf_vector":"1"}},{"base_weights":[2.5952186E-5,-1.11608744E-4,1.3675232E-3,-5.3536154E-5,-5.402599E-4,-1.0072157E-4,4.3646517E-4,-6.494213E-5,-2.4425657E-4,-1.0750721E-4,9.5343834E-4,-7.85185E-6,-1.853736E-4,-2.6944548E-5,3.3351965E-4],"categories":[],"categories_nodes":[],"categories_segments":[],"categories_sizes":[],"default_left":[0,0,0,0,0,0,0,0,0,0,0,0,0,0,0],"id":34,"left_children":[1,3,-1,5,-1,7,-1,9,-1,11,13,-1,-1,-1,-1],"loss_changes":[4.892694E-3,7.9244544E-4,0E0,5.3267373E-4,0E0,2.1157839E-4,0E0,1.0803764E-4,0E0,1.20889075E-4,2.9216E-4,0E0,0E0,0E0,0E0],"parents":[2147483647,0,0,1,1,3,3,5,5,7,7,9,9,10,10],"right_children":[2,4,-1,6,-1,8,-1,10,-1,12,14,-1,-1,-1,-1],"split_conditions":[3.6289353E-2,4E0,1.3675232E-3,2.077901E-7,-5.402599E-4,2.8E1,4.3646517E-4,1E0,-2.4425657E-4,4E0,1E0,-7.85185E-6,-1.853736E-4,-2.6944548E-5,3.3351965E-4],"split_indices":[16,200,0,15,0,30,0,75,0,207,180,0,0,0,0],"split_type":[0,0,0,0,0,0,0,0,0,0,0,0,0,0,0],"sum_hessian":[2.604E3,2.579E3,2.5E1,2.552E3,2.7E1,2.526E3,2.6E1,2.489E3,3.7E1,2.39E3,9.9E1,2.352E3,3.8E1,6.6E1,3.3E1],"tree_param":{"num_deleted":"0","num_feature":"503","num_nodes":"15","size_leaf_vector":"1"}},{"base_weights":[4.177052E-5,-8.841835E-5,1.2576928E-3,-1.5462047E-4,6.2261266E-4,-8.066793E-5,-7.398868E-4,-3.494677E-5,-1.3294833E-3,-6.862397E-5,2.8926096E-4,-3.5395345E-4,-2.540047E-4,-4.0176833E-6,-1.3453036E-4,2.9999943E-5,-9.942928E-5],"categories":[],"categories_nodes":[],"categories_segments":[],"categories_sizes":[],"default_left":[0,0,0,0,0,0,0,0,0,0,0,0,0,0,0,0,0],"id":35,"left_children":[1,3,-1,5,-1,7,-1,9,11,13,-1,15,-1,-1,-1,-1,-1],"loss_changes":[4.286581E-3,1.0878572E-3,0E0,1.3783735E-3,0E0,1.4549453E-4,0E0,2.427346E-4,1.05385596E-4,8.8307366E-5,0E0,2.1654625E-5,0E0,0E0,0E0,0E0,0E0],"parents":[2147483647,0,0,1,1,3,3,5,5,7,7,8,8,9,9,11,11],"right_children":[2,4,-1,6,-1,8,-1,10,12,14,-1,16,-1,-1,-1,-1,-1],"split_conditions":[2E0,5.7252717E-1,1.2576928E-3,3E0,6.2261266E-4,1.8E1,-7.398868E-4,3E0,1E0,4.3894935E-1,2.8926096E-4,1.737E3,-2.540047E-4,-4.0176833E-6,-1.3453036E-4,2.9999943E-5,-9.942928E-5],"split_indices":[478,4,0,28,0,30,0,258,77,4,0,2,0,0,0,0,0],"split_type":[0,0,0,0,0,0,0,0,0,0,0,0,0,0,0,0,0],"sum_hessian":[2.625E3,2.599E3,2.6E1,2.573E3,2.6E1,2.548E3,2.5E1,2.459E3,8.9E1,2.432E3,2.7E1,5E1,3.9E1,2.38E3,5.2E1,2.5E1,2.5E1],"tree_param":{"num_deleted":"0","num_feature":"503","num_nodes":"17","size_leaf_vector":"1"}},{"base_weights":[-3.5737972E-5,-1.5413681E-4,1.1728107E-3,-1.0405354E-4,-5.075632E-4,-6.660567E-5,-2.521094E-4,-9.604718E-5,2.1551235E-4,-5.430206E-5,-2.2169594E-4,1.5831592E-4,-7.327249E-6],"categories":[],"categories_nodes":[],"categories_segments":[],"categories_sizes":[],"default_left":[0,0,0,0,0,0,0,0,0,0,0,0,0],"id":36,"left_children":[1,3,-1,5,-1,7,-1,9,-1,11,-1,-1,-1],"loss_changes":[3.6342966E-3,6.361414E-4,0E0,2.3136433E-4,0E0,1.6504285E-4,0E0,2.2016147E-4,0E0,7.594161E-5,0E0,0E0,0E0],"parents":[2147483647,0,0,1,1,3,3,5,5,7,7,9,9],"right_children":[2,4,-1,6,-1,8,-1,10,-1,12,-1,-1,-1],"split_conditions":[8E0,2.1012079E-2,1.1728107E-3,3.4658459E-7,-5.075632E-4,3E0,-2.521094E-4,2.17E2,2.1551235E-4,1.205E3,-2.2169594E-4,1.5831592E-4,-7.327249E-6],"split_indices":[204,16,0,9,0,258,0,1,0,2,0,0,0],"split_type":[0,0,0,0,0,0,0,0,0,0,0,0,0],"sum_hessian":[2.607E3,2.582E3,2.5E1,2.557E3,2.5E1,2.519E3,3.8E1,2.487E3,3.2E1,2.44E3,4.7E1,2.7E1,2.413E3],"tree_param":{"num_deleted":"0","num_feature":"503","num_nodes":"13","size_leaf_vector":"1"}},{"base_weights":[2.9731838E-5,-1.0485709E-4,9.923092E-4,-3.6998514E-5,-6.271396E-4,-8.9928486E-5,4.7261306E-4,-3.4691602E-5,-4.671593E-4,2.280217E-6,-1.956488E-4,-5.2466153E-6,1.5798827E-4],"categories":[],"categories_nodes":[],"categories_segments":[],"categories_sizes":[],"default_left":[0,0,0,0,0,0,0,0,0,0,0,0,0],"id":37,"left_children":[1,3,-1,5,-1,7,-1,9,-1,11,-1,-1,-1],"loss_changes":[3.4723568E-3,1.0764465E-3,0E0,6.4230297E-4,0E0,6.373385E-4,0E0,1.769247E-4,0E0,2.1116628E-4,0E0,0E0,0E0],"parents":[2147483647,0,0,1,1,3,3,5,5,7,7,9,9],"right_children":[2,4,-1,6,-1,8,-1,10,-1,12,-1,-1,-1],"split_conditions":[5.7252717E-1,9E0,9.923092E-4,1.2E1,-6.271396E-4,1.9E1,4.7261306E-4,1E0,-4.671593E-4,3E0,-1.956488E-4,-5.2466153E-6,1.5798827E-4],"split_indices":[4,320,0,81,0,27,0,445,0,207,0,0,0],"split_type":[0,0,0,0,0,0,0,0,0,0,0,0,0],"sum_hessian":[2.606E3,2.572E3,3.4E1,2.545E3,2.7E1,2.518E3,2.7E1,2.489E3,2.9E1,2.443E3,4.6E1,2.362E3,8.1E1],"tree_param":{"num_deleted":"0","num_feature":"503","num_nodes":"13","size_leaf_vector":"1"}},{"base_weights":[-1.9976189E-5,-1.4968129E-4,6.652454E-4,-8.266491E-5,-5.825447E-4,-3.3619865E-5,-1.0640988E-3,-6.84403E-5,1.8079676E-4,-3.4330247E-4,-2.1916651E-4,-2.724415E-5,-2.4767042E-4,-9.066762E-5,6.9183145E-5,-4.6007817E-6,1.5237414E-4],"categories":[],"categories_nodes":[],"categories_segments":[],"categories_sizes":[],"default_left":[0,0,0,0,0,0,0,0,0,0,0,0,0,0,0,0,0],"id":38,"left_children":[1,3,-1,5,-1,7,9,11,-1,13,-1,15,-1,-1,-1,-1,-1],"loss_changes":[2.2693358E-3,9.778282E-4,0E0,1.2237017E-4,0E0,1.5549833E-4,9.758983E-5,2.3595596E-4,0E0,4.4364813E-5,0E0,6.816918E-5,0E0,0E0,0E0,0E0,0E0],"parents":[2147483647,0,0,1,1,3,3,5,5,6,6,7,7,9,9,11,11],"right_children":[2,4,-1,6,-1,8,10,12,-1,14,-1,16,-1,-1,-1,-1,-1],"split_conditions":[2E0,5E0,6.652454E-4,1.3E1,-5.825447E-4,2.6283277E-7,8E0,4.6973836E-1,1.8079676E-4,3E0,-2.1916651E-4,1E0,-2.4767042E-4,-9.066762E-5,6.9183145E-5,-4.6007817E-6,1.5237414E-4],"split_indices":[217,31,0,32,0,9,27,4,0,331,0,433,0,0,0,0,0],"split_type":[0,0,0,0,0,0,0,0,0,0,0,0,0,0,0,0,0],"sum_hessian":[2.62E3,2.571E3,4.9E1,2.542E3,2.9E1,2.422E3,1.2E2,2.378E3,4.4E1,7.4E1,4.6E1,2.339E3,3.9E1,4.8E1,2.6E1,2.312E3,2.7E1],"tree_param":{"num_deleted":"0","num_feature":"503","num_nodes":"17","size_leaf_vector":"1"}},{"base_weights":[-5.512689E-6,-1.1936872E-4,9.812856E-4,-1.8863009E-4,6.710132E-4,-1.05247374E-4,-5.7242287E-4,-6.28285E-5,-4.1799372E-4,-9.421928E-5,1.7330173E-4,-5.926294E-6,-2.0560867E-4],"categories":[],"categories_nodes":[],"categories_segments":[],"categories_sizes":[],"default_left":[0,0,0,0,0,0,0,0,0,0,0,0,0],"id":39,"left_children":[1,3,-1,5,-1,7,-1,9,-1,11,-1,-1,-1],"loss_changes":[2.9255468E-3,1.2249701E-3,0E0,1.1819483E-3,0E0,4.3616793E-4,0E0,1.4109578E-4,0E0,1.6844705E-4,0E0,0E0,0E0],"parents":[2147483647,0,0,1,1,3,3,5,5,7,7,9,9],"right_children":[2,4,-1,6,-1,8,-1,10,-1,12,-1,-1,-1],"split_conditions":[1E0,5.9530355E-2,9.812856E-4,5.179503E-1,6.710132E-4,2E0,-5.7242287E-4,6E0,-4.1799372E-4,2.01E2,1.7330173E-4,-5.926294E-6,-2.0560867E-4],"split_indices":[442,10,0,4,0,135,0,69,0,1,0,0,0],"split_type":[0,0,0,0,0,0,0,0,0,0,0,0,0],"sum_hessian":[2.615E3,2.586E3,2.9E1,2.561E3,2.5E1,2.524E3,3.7E1,2.499E3,2.5E1,2.457E3,4.2E1,2.415E3,4.2E1],"tree_param":{"num_deleted":"0","num_feature":"503","num_nodes":"13","size_leaf_vector":"1"}},{"base_weights":[2.8238463E-5,-8.1686834E-5,1.0981631E-3,-1.6437021E-5,-5.469528E-4,-6.849616E-5,3.8547965E-4,-1.9452007E-5,-4.1515913E-4,-6.111474E-5,3.4114285E-4,-3.4711427E-6,-1.8453083E-4],"categories":[],"categories_nodes":[],"categories_segments":[],"categories_sizes":[],"default_left":[0,0,0,0,0,0,0,0,0,0,0,0,0],"id":40,"left_children":[1,3,-1,5,-1,7,-1,9,-1,11,-1,-1,-1],"loss_changes":[3.1507045E-3,9.107907E-4,0E0,5.163903E-4,0E0,5.0615607E-4,0E0,3.574152E-4,0E0,1.1629425E-4,0E0,0E0,0E0],"parents":[2147483647,0,0,1,1,3,3,5,5,7,7,9,9],"right_children":[2,4,-1,6,-1,8,-1,10,-1,12,-1,-1,-1],"split_conditions":[2E0,4E0,1.0981631E-3,5.4097605E-1,-5.469528E-4,6E0,3.8547965E-4,3E0,-4.1515913E-4,4.5800847E-1,3.4114285E-4,-3.4711427E-6,-1.8453083E-4],"split_indices":[209,447,0,4,0,320,0,258,0,4,0,0,0],"split_type":[0,0,0,0,0,0,0,0,0,0,0,0,0],"sum_hessian":[2.615E3,2.59E3,2.5E1,2.56E3,3E1,2.527E3,3.3E1,2.498E3,2.9E1,2.469E3,2.9E1,2.434E3,3.5E1],"tree_param":{"num_deleted":"0","num_feature":"503","num_nodes":"13","size_leaf_vector":"1"}},{"base_weights":[5.3329627E-6,-9.2366354E-5,8.680175E-4,-3.7226127E-5,-4.2121927E-4,-6.530178E-5,2.6821447E-4,-3.7016787E-5,-2.773798E-4,-7.531063E-5,1.8347608E-4,-7.422188E-7,-7.716804E-5],"categories":[],"categories_nodes":[],"categories_segments":[],"categories_sizes":[],"default_left":[0,0,0,0,0,0,0,0,0,0,0,0,0],"id":41,"left_children":[1,3,-1,5,-1,7,-1,9,-1,11,-1,-1,-1],"loss_changes":[2.2069123E-3,5.848012E-4,0E0,1.9425205E-4,0E0,1.9272417E-4,0E0,1.7875864E-4,0E0,1.15488234E-4,0E0,0E0,0E0],"parents":[2147483647,0,0,1,1,3,3,5,5,7,7,9,9],"right_children":[2,4,-1,6,-1,8,-1,10,-1,12,-1,-1,-1],"split_conditions":[1.5E1,2E1,8.680175E-4,4.1982094E-7,-4.2121927E-4,1.9864434E-7,2.6821447E-4,3E0,-2.773798E-4,8.08951E-6,1.8347608E-4,-7.422188E-7,-7.716804E-5],"split_indices":[18,27,0,9,0,15,0,82,0,5,0,0,0],"split_type":[0,0,0,0,0,0,0,0,0,0,0,0,0],"sum_hessian":[2.602E3,2.574E3,2.8E1,2.541E3,3.3E1,2.516E3,2.5E1,2.491E3,2.5E1,2.442E3,4.9E1,2.226E3,2.16E2],"tree_param":{"num_deleted":"0","num_feature":"503","num_nodes":"13","size_leaf_vector":"1"}},{"base_weights":[-1.1450194E-5,-1.2162311E-4,6.565883E-4,-3.7170405E-5,-8.373821E-4,-9.831426E-5,3.889532E-4,-3.7496855E-5,-3.578178E-4,-5.773504E-6,-2.1751379E-4,-3.6621107E-6,2.638513E-4],"categories":[],"categories_nodes":[],"categories_segments":[],"categories_sizes":[],"default_left":[0,0,0,0,0,0,0,0,0,0,0,0,0],"id":42,"left_children":[1,3,-1,5,-1,7,-1,9,-1,11,-1,-1,-1],"loss_changes":[1.8913947E-3,1.7886835E-3,0E0,6.1070063E-4,0E0,5.29803E-4,0E0,1.6694338E-4,0E0,1.9806679E-4,0E0,0E0,0E0],"parents":[2147483647,0,0,1,1,3,3,5,5,7,7,9,9],"right_children":[2,4,-1,6,-1,8,-1,10,-1,12,-1,-1,-1],"split_conditions":[2.0034582E-7,5E0,6.565883E-4,3E0,-8.373821E-4,2.29E2,3.889532E-4,7.7079017E-7,-3.578178E-4,2.1441247E-2,-2.1751379E-4,-3.6621107E-6,2.638513E-4],"split_indices":[15,35,0,258,0,1,0,11,0,10,0,0,0],"split_type":[0,0,0,0,0,0,0,0,0,0,0,0,0],"sum_hessian":[2.608E3,2.566E3,4.2E1,2.541E3,2.5E1,2.503E3,3.8E1,2.461E3,4.2E1,2.426E3,3.5E1,2.399E3,2.7E1],"tree_param":{"num_deleted":"0","num_feature":"503","num_nodes":"13","size_leaf_vector":"1"}},{"base_weights":[-1.3516364E-5,5.308299E-5,-6.6063326E-4,-3.8414568E-5,9.0213213E-4,1.4870917E-5,-4.8365426E-4,-5.106404E-5,6.346591E-4,-1.2813844E-5,-2.9971238E-4,-6.3480597E-6,8.2309874E-5],"categories":[],"categories_nodes":[],"categories_segments":[],"categories_sizes":[],"default_left":[0,0,0,0,0,0,0,0,0,0,0,0,0],"id":43,"left_children":[1,3,-1,5,-1,7,-1,9,-1,11,-1,-1,-1],"loss_changes":[1.1415125E-3,2.1124987E-3,0E0,6.5177627E-4,0E0,1.0532128E-3,0E0,2.8134193E-4,0E0,1.04494684E-4,0E0,0E0,0E0],"parents":[2147483647,0,0,1,1,3,3,5,5,7,7,9,9],"right_children":[2,4,-1,6,-1,8,-1,10,-1,12,-1,-1,-1],"split_conditions":[4E0,1E0,-6.6063326E-4,1.8533487E-2,9.0213213E-4,1.3610548E-2,-4.8365426E-4,2E0,6.346591E-4,3.8237897E-1,-2.9971238E-4,-6.3480597E-6,8.2309874E-5],"split_indices":[77,330,0,16,0,16,0,217,0,4,0,0,0],"split_type":[0,0,0,0,0,0,0,0,0,0,0,0,0],"sum_hessian":[2.598E3,2.573E3,2.5E1,2.548E3,2.5E1,2.521E3,2.7E1,2.496E3,2.5E1,2.465E3,3.1E1,2.325E3,1.4E2],"tree_param":{"num_deleted":"0","num_feature":"503","num_nodes":"13","size_leaf_vector":"1"}},{"base_weights":[6.6677244E-6,-1.08354034E-4,1.1539555E-3,-5.783619E-5,-4.7593424E-4,-1.0972514E-4,4.0772502E-4,-5.325949E-5,-5.5870163E-4,-1.8171237E-5,-1.9430535E-4,-4.7156122E-6,1.284338E-4],"categories":[],"categories_nodes":[],"categories_segments":[],"categories_sizes":[],"default_left":[0,0,0,0,0,0,0,0,0,0,0,0,0],"id":44,"left_children":[1,3,-1,5,-1,7,-1,9,-1,11,-1,-1,-1],"loss_changes":[3.4926848E-3,6.1225996E-4,0E0,5.540258E-4,0E0,7.8805414E-4,0E0,1.6733004E-4,0E0,9.3650444E-5,0E0,0E0,0E0],"parents":[2147483647,0,0,1,1,3,3,5,5,7,7,9,9],"right_children":[2,4,-1,6,-1,8,-1,10,-1,12,-1,-1,-1],"split_conditions":[8E0,1.5034112E-6,1.1539555E-3,2E0,-4.7593424E-4,1.8533487E-2,4.0772502E-4,9E0,-5.5870163E-4,6.260548E-3,-1.9430535E-4,-4.7156122E-6,1.284338E-4],"split_indices":[164,11,0,108,0,16,0,81,0,16,0,0,0],"split_type":[0,0,0,0,0,0,0,0,0,0,0,0,0],"sum_hessian":[2.631E3,2.606E3,2.5E1,2.579E3,2.7E1,2.548E3,3.1E1,2.523E3,2.5E1,2.478E3,4.5E1,2.425E3,5.3E1],"tree_param":{"num_deleted":"0","num_feature":"503","num_nodes":"13","size_leaf_vector":"1"}},{"base_weights":[1.2094007E-5,-1.1255745E-4,9.4449206E-4,-4.516147E-5,-5.823985E-4,-1.0293853E-4,2.477549E-3,-4.6920784E-5,-2.778788E-3,5.7360903E-6,5.360952E-4,-7.803098E-5,1.9739875E-4,-1.1591007E-4,-4.2915993E-4,-5.053894E-6,-2.4944407E-4],"categories":[],"categories_nodes":[],"categories_segments":[],"categories_sizes":[],"default_left":[0,0,0,0,0,0,0,0,0,0,0,0,0,0,0,0,0],"id":45,"left_children":[1,3,-1,5,-1,7,9,11,13,-1,-1,15,-1,-1,-1,-1,-1],"loss_changes":[3.0652382E-3,9.901547E-4,0E0,3.7105524E-4,0E0,3.7280857E-4,3.9745998E-4,1.5343315E-4,1.1998991E-4,0E0,0E0,1.5944369E-4,0E0,0E0,0E0,0E0,0E0],"parents":[2147483647,0,0,1,1,3,3,5,5,6,6,7,7,8,8,11,11],"right_children":[2,4,-1,6,-1,8,10,12,14,-1,-1,16,-1,-1,-1,-1,-1],"split_conditions":[5.7252717E-1,2E0,9.4449206E-4,1E0,-5.823985E-4,2.29E2,1E0,1E0,1E0,5.7360903E-6,5.360952E-4,3.679783E-2,1.9739875E-4,-1.1591007E-4,-4.2915993E-4,-5.053894E-6,-2.4944407E-4],"split_indices":[4,75,0,44,0,1,207,318,312,0,0,10,0,0,0,0,0],"split_type":[0,0,0,0,0,0,0,0,0,0,0,0,0,0,0,0,0],"sum_hessian":[2.605E3,2.572E3,3.3E1,2.543E3,2.9E1,2.487E3,5.6E1,2.437E3,5E1,3.1E1,2.5E1,2.401E3,3.6E1,2.5E1,2.5E1,2.375E3,2.6E1],"tree_param":{"num_deleted":"0","num_feature":"503","num_nodes":"17","size_leaf_vector":"1"}},{"base_weights":[-3.2840323E-6,-1.0858641E-4,1.0012265E-3,-1.9794777E-5,-6.9287984E-4,-7.7520446E-5,2.9116598E-4,-4.146853E-5,-3.1330445E-4,2.1652691E-5,-7.706935E-4,-1.6558876E-6,1.557364E-4,-1.044772E-4,4.7645426E-5],"categories":[],"categories_nodes":[],"categories_segments":[],"categories_sizes":[],"default_left":[0,0,0,0,0,0,0,0,0,0,0,0,0,0,0],"id":46,"left_children":[1,3,-1,5,-1,7,-1,9,-1,11,13,-1,-1,-1,-1],"loss_changes":[2.7368779E-3,1.5549866E-3,0E0,4.2936805E-4,0E0,2.7394196E-4,0E0,1.13249436E-4,0E0,1.3294036E-4,6.7493784E-5,0E0,0E0,0E0,0E0],"parents":[2147483647,0,0,1,1,3,3,5,5,7,7,9,9,10,10],"right_children":[2,4,-1,6,-1,8,-1,10,-1,12,14,-1,-1,-1,-1],"split_conditions":[2E0,3E0,1.0012265E-3,1.2517336E-2,-6.9287984E-4,3E0,2.9116598E-4,8.623396E-6,-3.1330445E-4,3E0,1E0,-1.6558876E-6,1.557364E-4,-1.044772E-4,4.7645426E-5],"split_indices":[166,28,0,16,0,180,0,5,0,164,421,0,0,0,0],"split_type":[0,0,0,0,0,0,0,0,0,0,0,0,0,0,0],"sum_hessian":[2.593E3,2.567E3,2.6E1,2.535E3,3.2E1,2.487E3,4.8E1,2.459E3,2.8E1,2.264E3,1.95E2,2.21E3,5.4E1,1.6E2,3.5E1],"tree_param":{"num_deleted":"0","num_feature":"503","num_nodes":"15","size_leaf_vector":"1"}},{"base_weights":[-4.9110344E-7,-1.0648027E-4,8.2731026E-4,-3.7768412E-5,-4.820579E-4,-9.7684824E-5,5.759445E-4,-5.7358633E-5,-3.8115444E-4,-2.3560562E-5,-3.1383694E-4,1.728849E-6,-9.4107825E-5],"categories":[],"categories_nodes":[],"categories_segments":[],"categories_sizes":[],"default_left":[0,0,0,0,0,0,0,0,0,0,0,0,0],"id":47,"left_children":[1,3,-1,5,-1,7,-1,9,-1,11,-1,-1,-1],"loss_changes":[2.2878654E-3,8.3422166E-4,0E0,8.8282715E-4,0E0,3.7644233E-4,0E0,2.5911114E-4,0E0,9.232884E-5,0E0,0E0,0E0],"parents":[2147483647,0,0,1,1,3,3,5,5,7,7,9,9],"right_children":[2,4,-1,6,-1,8,-1,10,-1,12,-1,-1,-1],"split_conditions":[5.7252717E-1,2E0,8.2731026E-4,4E1,-4.820579E-4,1.9475924E-2,5.759445E-4,3.679783E-2,-3.8115444E-4,1E0,-3.1383694E-4,1.728849E-6,-9.4107825E-5],"split_indices":[4,202,0,30,0,16,0,10,0,166,0,0,0],"split_type":[0,0,0,0,0,0,0,0,0,0,0,0,0],"sum_hessian":[2.607E3,2.575E3,3.2E1,2.539E3,3.6E1,2.514E3,2.5E1,2.488E3,2.6E1,2.462E3,2.6E1,2.358E3,1.04E2],"tree_param":{"num_deleted":"0","num_feature":"503","num_nodes":"13","size_leaf_vector":"1"}},{"base_weights":[-2.1180855E-5,-1.20636454E-4,7.7791914E-4,-7.193785E-5,-4.4153878E-4,-4.456585E-5,-2.3035258E-4,-9.644623E-5,1.2303599E-3,-5.9902206E-5,-2.672113E-4,-1.1527531E-4,4.051386E-4,-3.0494018E-6,-1.4132343E-4,2.5591615E-5,-7.247353E-5],"categories":[],"categories_nodes":[],"categories_segments":[],"categories_sizes":[],"default_left":[0,0,0,0,0,0,0,0,0,0,0,0,0,0,0,0,0],"id":48,"left_children":[1,3,-1,5,-1,7,-1,9,11,13,-1,15,-1,-1,-1,-1,-1],"loss_changes":[2.0335102E-3,5.4095837E-4,0E0,1.5626989E-4,0E0,1.6746207E-4,0E0,2.2875248E-4,3.7627819E-4,9.5434814E-5,0E0,1.5568863E-5,0E0,0E0,0E0,0E0,0E0],"parents":[2147483647,0,0,1,1,3,3,5,5,7,7,8,8,9,9,11,11],"right_children":[2,4,-1,6,-1,8,-1,10,12,14,-1,16,-1,-1,-1,-1,-1],"split_conditions":[2E0,5E0,7.7791914E-4,1.4E1,-4.4153878E-4,1E0,-2.3035258E-4,3.653962E-7,1E0,1E0,-2.672113E-4,8.9435396E-8,4.051386E-4,-3.0494018E-6,-1.4132343E-4,2.5591615E-5,-7.247353E-5],"split_indices":[285,82,0,122,0,361,0,17,180,86,0,3,0,0,0,0,0],"split_type":[0,0,0,0,0,0,0,0,0,0,0,0,0,0,0,0,0],"sum_hessian":[2.619E3,2.587E3,3.2E1,2.559E3,2.8E1,2.529E3,3E1,2.431E3,9.8E1,2.398E3,3.3E1,6.7E1,3.1E1,2.348E3,5E1,4.2E1,2.5E1],"tree_param":{"num_deleted":"0","num_feature":"503","num_nodes":"17","size_leaf_vector":"1"}},{"base_weights":[4.972651E-5,-4.601749E-5,9.640627E-4,3.708827E-5,-7.9824525E-4,-2.1711101E-5,4.4390326E-4,9.414708E-6,-2.5472217E-4,3.2094613E-5,-2.0825253E-4,8.351627E-7,2.2818781E-4],"categories":[],"categories_nodes":[],"categories_segments":[],"categories_sizes":[],"default_left":[0,0,0,0,0,0,0,0,0,0,0,0,0],"id":49,"left_children":[1,3,-1,5,-1,7,-1,9,-1,11,-1,-1,-1],"loss_changes":[2.4154969E-3,1.7184587E-3,0E0,6.6762295E-4,0E0,2.0016138E-4,0E0,1.19438475E-4,0E0,1.3298822E-4,0E0,0E0,0E0],"parents":[2147483647,0,0,1,1,3,3,5,5,7,7,9,9],"right_children":[2,4,-1,6,-1,8,-1,10,-1,12,-1,-1,-1],"split_conditions":[3.7047166E-2,2E0,9.640627E-4,1.3862066E-2,-7.9824525E-4,3E0,4.4390326E-4,4.265659E-7,-2.5472217E-4,2.670627E-7,-2.0825253E-4,8.351627E-7,2.2818781E-4],"split_indices":[16,152,0,16,0,180,0,9,0,9,0,0,0],"split_type":[0,0,0,0,0,0,0,0,0,0,0,0,0],"sum_hessian":[2.629E3,2.604E3,2.5E1,2.578E3,2.6E1,2.545E3,3.3E1,2.515E3,3E1,2.489E3,2.6E1,2.464E3,2.5E1],"tree_param":{"num_deleted":"0","num_feature":"503","num_nodes":"13","size_leaf_vector":"1"}},{"base_weights":[-2.0140702E-5,-9.431987E-5,5.9750926E-4,-2.2629098E-5,-4.7756985E-4,-5.2123385E-5,2.0368646E-4,-2.1637707E-5,-2.4150398E-4,-4.6707813E-5,1.6830342E-4,-1.6148873E-6,-2.152194E-4],"categories":[],"categories_nodes":[],"categories_segments":[],"categories_sizes":[],"default_left":[0,0,0,0,0,0,0,0,0,0,0,0,0],"id":50,"left_children":[1,3,-1,5,-1,7,-1,9,-1,11,-1,-1,-1],"loss_changes":[1.1643994E-3,8.677836E-4,0E0,1.548801E-4,0E0,1.8097197E-4,0E0,1.06150124E-4,0E0,1.5740872E-4,0E0,0E0,0E0],"parents":[2147483647,0,0,1,1,3,3,5,5,7,7,9,9],"right_children":[2,4,-1,6,-1,8,-1,10,-1,12,-1,-1,-1],"split_conditions":[1E0,3.42E2,5.9750926E-4,2E0,-4.7756985E-4,3.1946564E-7,2.0368646E-4,6.260548E-3,-2.4150398E-4,2.9299596E-2,1.6830342E-4,-1.6148873E-6,-2.152194E-4],"split_indices":[431,1,0,366,0,17,0,16,0,10,0,0,0],"split_type":[0,0,0,0,0,0,0,0,0,0,0,0,0],"sum_hessian":[2.616E3,2.585E3,3.1E1,2.547E3,3.8E1,2.512E3,3.5E1,2.481E3,3.1E1,2.446E3,3.5E1,2.412E3,3.4E1],"tree_param":{"num_deleted":"0","num_feature":"503","num_nodes":"13","size_leaf_vector":"1"}},{"base_weights":[-3.7126315E-6,-1.2841227E-4,7.410332E-4,-4.1052368E-5,-8.829223E-4,-8.2221486E-5,3.1526698E-4,-4.7961636E-5,-3.0694445E-4,-1.5441716E-5,-2.7585242E-4,-4.7167605E-6,9.097641E-5],"categories":[],"categories_nodes":[],"categories_segments":[],"categories_sizes":[],"default_left":[0,0,0,0,0,0,0,0,0,0,0,0,0],"id":51,"left_children":[1,3,-1,5,-1,7,-1,9,-1,11,-1,-1,-1],"loss_changes":[2.4592732E-3,1.9880643E-3,0E0,3.4093097E-4,0E0,2.6174556E-4,0E0,2.2305814E-4,0E0,7.348406E-5,0E0,0E0,0E0],"parents":[2147483647,0,0,1,1,3,3,5,5,7,7,9,9],"right_children":[2,4,-1,6,-1,8,-1,10,-1,12,-1,-1,-1],"split_conditions":[2.077901E-7,8E0,7.410332E-4,1E0,-8.829223E-4,5.179503E-1,3.1526698E-4,5E0,-3.0694445E-4,1E0,-2.7585242E-4,-4.7167605E-6,9.097641E-5],"split_indices":[15,31,0,356,0,4,0,207,0,302,0,0,0],"split_type":[0,0,0,0,0,0,0,0,0,0,0,0,0],"sum_hessian":[2.658E3,2.615E3,4.3E1,2.59E3,2.5E1,2.558E3,3.2E1,2.53E3,2.8E1,2.501E3,2.9E1,2.419E3,8.2E1],"tree_param":{"num_deleted":"0","num_feature":"503","num_nodes":"13","size_leaf_vector":"1"}},{"base_weights":[-1.8449315E-5,-1.129924E-4,4.1321446E-3,-4.7814974E-5,-6.5386505E-4,-7.164637E-5,1.0313704E-3,-8.8183224E-5,1.1168487E-3,3.7271436E-6,-9.2664605E-4,-4.9852006E-5,3.296352E-4,-2.8851866E-5,2.7740528E-4,-5.886599E-4,-3.0068352E-4,5.33541E-5,-7.659567E-5,4.3475234E-7,-1.7434667E-4,-2.8649893E-5,-1.804871E-4],"categories":[],"categories_nodes":[],"categories_segments":[],"categories_sizes":[],"default_left":[0,0,0,0,0,0,0,0,0,0,0,0,0,0,0,0,0,0,0,0,0,0,0],"id":52,"left_children":[1,3,5,7,-1,-1,-1,9,11,13,15,17,-1,19,-1,21,-1,-1,-1,-1,-1,-1,-1],"loss_changes":[1.0395686E-3,1.0843996E-3,1.7757348E-3,1.2069308E-4,0E0,0E0,0E0,1.9112077E-4,2.1884752E-4,2.0188901E-4,1.7048338E-4,2.4221585E-5,0E0,1.2586692E-4,0E0,7.739112E-5,0E0,0E0,0E0,0E0,0E0,0E0,0E0],"parents":[2147483647,0,0,1,1,2,2,3,3,7,7,8,8,9,9,10,10,11,11,13,13,15,15],"right_children":[2,4,6,8,-1,-1,-1,10,12,14,16,18,-1,20,-1,22,-1,-1,-1,-1,-1,-1,-1],"split_conditions":[4.0886695E-7,3.4E1,2.84772E-9,1E0,-6.5386505E-4,-7.164637E-5,1.0313704E-3,9E0,1E0,4E0,4E0,8.440766E-8,3.296352E-4,4.4909552E-1,2.7740528E-4,2E0,-3.0068352E-4,5.33541E-5,-7.659567E-5,4.3475234E-7,-1.7434667E-4,-2.8649893E-5,-1.804871E-4],"split_indices":[12,27,9,131,0,0,0,32,82,207,207,3,0,4,0,51,0,0,0,0,0,0,0],"split_type":[0,0,0,0,0,0,0,0,0,0,0,0,0,0,0,0,0,0,0,0,0,0,0],"sum_hessian":[2.647E3,2.589E3,5.8E1,2.564E3,2.5E1,3.3E1,2.5E1,2.479E3,8.5E1,2.235E3,2.44E2,5.6E1,2.9E1,2.21E3,2.5E1,2.11E2,3.3E1,3.1E1,2.5E1,2.169E3,4.1E1,1.7E2,4.1E1],"tree_param":{"num_deleted":"0","num_feature":"503","num_nodes":"23","size_leaf_vector":"1"}},{"base_weights":[5.5994565E-6,-9.753864E-5,8.0033205E-4,-4.387211E-5,-5.128642E-4,-1.342254E-4,2.7282631E-3,-7.3690426E-5,-5.572917E-4,-2.2321314E-4,8.866838E-4,-4.895677E-5,-2.1919697E-4,2.0849298E-5,-7.127504E-5,-2.915314E-6,-1.5620359E-4],"categories":[],"categories_nodes":[],"categories_segments":[],"categories_sizes":[],"default_left":[0,0,0,0,0,0,0,0,0,0,0,0,0,0,0,0,0],"id":53,"left_children":[1,3,-1,5,-1,7,9,11,-1,13,-1,15,-1,-1,-1,-1,-1],"loss_changes":[2.1380181E-3,6.907098E-4,0E0,6.348106E-4,0E0,8.075224E-4,1.4514078E-3,1.2710238E-4,0E0,1.17720965E-5,0E0,7.189913E-5,0E0,0E0,0E0,0E0,0E0],"parents":[2147483647,0,0,1,1,3,3,5,5,6,6,7,7,9,9,11,11],"right_children":[2,4,-1,6,-1,8,10,12,-1,14,-1,16,-1,-1,-1,-1,-1],"split_conditions":[5.7252717E-1,2.3483863E-5,8.0033205E-4,1E0,-5.128642E-4,5.4260653E-7,3.342085E-1,3E0,-5.572917E-4,5.881954E-6,8.866838E-4,3E0,-2.1919697E-4,2.0849298E-5,-7.127504E-5,-2.915314E-6,-1.5620359E-4],"split_indices":[4,5,0,219,0,17,4,180,0,5,0,375,0,0,0,0,0],"split_type":[0,0,0,0,0,0,0,0,0,0,0,0,0,0,0,0,0],"sum_hessian":[2.59E3,2.558E3,3.2E1,2.532E3,2.6E1,2.453E3,7.9E1,2.427E3,2.6E1,5.4E1,2.5E1,2.4E3,2.7E1,2.9E1,2.5E1,2.37E3,3E1],"tree_param":{"num_deleted":"0","num_feature":"503","num_nodes":"17","size_leaf_vector":"1"}},{"base_weights":[1.3287426E-5,-7.652065E-5,8.934863E-4,-7.75176E-7,-7.525767E-4,-4.377294E-5,3.1E-4,-2.8807656E-6,-3.5618106E-4,2.2847882E-5,-2.3564689E-4,4.5887828E-6,-2.144672E-4],"categories":[],"categories_nodes":[],"categories_segments":[],"categories_sizes":[],"default_left":[0,0,0,0,0,0,0,0,0,0,0,0,0],"id":54,"left_children":[1,3,-1,5,-1,7,-1,9,-1,11,-1,-1,-1],"loss_changes":[2.0902902E-3,1.4574432E-3,0E0,3.4118458E-4,0E0,3.630929E-4,0E0,1.5119823E-4,0E0,1.2344909E-4,0E0,0E0,0E0],"parents":[2147483647,0,0,1,1,3,3,5,5,7,7,9,9],"right_children":[2,4,-1,6,-1,8,-1,10,-1,12,-1,-1,-1],"split_conditions":[2E0,2.3691839E-2,8.934863E-4,1.3673351E-2,-7.525767E-4,5.4097605E-1,3.1E-4,1.7032292E-7,-3.5618106E-4,5.3221345E-2,-2.3564689E-4,4.5887828E-6,-2.144672E-4],"split_indices":[166,16,0,16,0,4,0,15,0,13,0,0,0],"split_type":[0,0,0,0,0,0,0,0,0,0,0,0,0],"sum_hessian":[2.607E3,2.582E3,2.5E1,2.557E3,2.5E1,2.523E3,3.4E1,2.495E3,2.8E1,2.469E3,2.6E1,2.444E3,2.5E1],"tree_param":{"num_deleted":"0","num_feature":"503","num_nodes":"13","size_leaf_vector":"1"}},{"base_weights":[2.814021E-5,-5.1090672E-5,7.883105E-4,4.7226445E-6,-5.1342574E-4,-4.8106736E-5,3.9170656E-4,-1.7495242E-5,-2.2840318E-4,4.636976E-5,-4.2893234E-4,1.4241574E-6,2.174417E-4,1.815123E-5,-8.650006E-5],"categories":[],"categories_nodes":[],"categories_segments":[],"categories_sizes":[],"default_left":[0,0,0,0,0,0,0,0,0,0,0,0,0,0,0],"id":55,"left_children":[1,3,-1,5,-1,7,-1,9,-1,11,13,-1,-1,-1,-1],"loss_changes":[1.6203948E-3,7.3142454E-4,0E0,5.274461E-4,0E0,1.7230457E-4,0E0,6.531682E-5,0E0,1.4710192E-4,8.9066314E-5,0E0,0E0,0E0,0E0],"parents":[2147483647,0,0,1,1,3,3,5,5,7,7,9,9,10,10],"right_children":[2,4,-1,6,-1,8,-1,10,-1,12,14,-1,-1,-1,-1],"split_conditions":[3.6289353E-2,4E0,7.883105E-4,2E0,-5.1342574E-4,3E0,3.9170656E-4,3E0,-2.2840318E-4,2E0,1E0,1.4241574E-6,2.174417E-4,1.815123E-5,-8.650006E-5],"split_indices":[16,200,0,380,0,472,0,81,0,77,191,0,0,0,0],"split_type":[0,0,0,0,0,0,0,0,0,0,0,0,0,0,0],"sum_hessian":[2.602E3,2.577E3,2.5E1,2.55E3,2.7E1,2.517E3,3.3E1,2.484E3,3.3E1,2.151E3,3.33E2,2.12E3,3.1E1,1.39E2,1.94E2],"tree_param":{"num_deleted":"0","num_feature":"503","num_nodes":"15","size_leaf_vector":"1"}},{"base_weights":[-1.7334531E-7,-9.610982E-5,9.4790955E-4,-5.803733E-5,-3.81766E-4,-1.0785887E-4,2.8422306E-4,-6.759123E-5,-3.1185625E-4,-1.68201E-5,-1.7344621E-3,-5.227907E-6,1.9263927E-4,-6.0057508E-5,-3.761082E-4],"categories":[],"categories_nodes":[],"categories_segments":[],"categories_sizes":[],"default_left":[0,0,0,0,0,0,0,0,0,0,0,0,0,0,0],"id":56,"left_children":[1,3,-1,5,-1,7,-1,9,-1,11,13,-1,-1,-1,-1],"loss_changes":[2.3599146E-3,3.637767E-4,0E0,3.6790385E-4,0E0,3.0311645E-4,0E0,2.0900424E-4,0E0,1.6533327E-4,1.6549212E-4,0E0,0E0,0E0,0E0],"parents":[2147483647,0,0,1,1,3,3,5,5,7,7,9,9,10,10],"right_children":[2,4,-1,6,-1,8,-1,10,-1,12,14,-1,-1,-1,-1],"split_conditions":[8E0,1.5034112E-6,9.4790955E-4,2E0,-3.81766E-4,2.66E2,2.8422306E-4,2E0,-3.1185625E-4,3E0,9.46275E-9,-5.227907E-6,1.9263927E-4,-6.0057508E-5,-3.761082E-4],"split_indices":[164,11,0,213,0,1,0,201,0,82,17,0,0,0,0],"split_type":[0,0,0,0,0,0,0,0,0,0,0,0,0,0,0],"sum_hessian":[2.593E3,2.568E3,2.5E1,2.543E3,2.5E1,2.501E3,4.2E1,2.469E3,3.2E1,2.397E3,7.2E1,2.355E3,4.2E1,4.7E1,2.5E1],"tree_param":{"num_deleted":"0","num_feature":"503","num_nodes":"15","size_leaf_vector":"1"}},{"base_weights":[4.9785616E-5,-7.26397E-5,6.996996E-4,1.578384E-6,-7.018961E-4,-3.2804128E-5,2.9655336E-4,-6.1015403E-6,-1.9693478E-4,-2.975878E-5,1.9837644E-4,-6.610233E-6,8.484135E-5],"categories":[],"categories_nodes":[],"categories_segments":[],"categories_sizes":[],"default_left":[0,0,0,0,0,0,0,0,0,0,0,0,0],"id":57,"left_children":[1,3,-1,5,-1,7,-1,9,-1,11,-1,-1,-1],"loss_changes":[2.2101447E-3,1.316707E-3,0E0,2.577213E-4,0E0,1.292648E-4,0E0,1.16192394E-4,0E0,7.789896E-5,0E0,0E0,0E0],"parents":[2147483647,0,0,1,1,3,3,5,5,7,7,9,9],"right_children":[2,4,-1,6,-1,8,-1,10,-1,12,-1,-1,-1],"split_conditions":[2.0034582E-7,3E0,6.996996E-4,2E0,-7.018961E-4,5E0,2.9655336E-4,1E0,-1.9693478E-4,1E0,1.9837644E-4,-6.610233E-6,8.484135E-5],"split_indices":[15,23,0,23,0,26,0,356,0,79,0,0,0],"split_type":[0,0,0,0,0,0,0,0,0,0,0,0,0],"sum_hessian":[2.597E3,2.553E3,4.4E1,2.527E3,2.6E1,2.499E3,2.8E1,2.466E3,3.3E1,2.438E3,2.8E1,2.342E3,9.6E1],"tree_param":{"num_deleted":"0","num_feature":"503","num_nodes":"13","size_leaf_vector":"1"}},{"base_weights":[1.757989E-5,-6.0116006E-5,7.705809E-4,6.2322856E-6,-6.5599364E-4,-4.0976407E-5,3.4981038E-4,-1.4515453E-5,-1.7205355E-4,-3.8356135E-5,1.4029055E-4,9.944758E-6,-2.2263017E-5],"categories":[],"categories_nodes":[],"categories_segments":[],"categories_sizes":[],"default_left":[0,0,0,0,0,0,0,0,0,0,0,0,0],"id":58,"left_children":[1,3,-1,5,-1,7,-1,9,-1,11,-1,-1,-1],"loss_changes":[1.5523627E-3,1.1096522E-3,0E0,4.2017264E-4,0E0,1.1174851E-4,0E0,8.37573E-5,0E0,6.190645E-5,0E0,0E0,0E0],"parents":[2147483647,0,0,1,1,3,3,5,5,7,7,9,9],"right_children":[2,4,-1,6,-1,8,-1,10,-1,12,-1,-1,-1],"split_conditions":[3.7047166E-2,1.4E1,7.705809E-4,1.3862066E-2,-6.5599364E-4,5E0,3.4981038E-4,7E0,-1.7205355E-4,4.549931E-6,1.4029055E-4,9.944758E-6,-2.2263017E-5],"split_indices":[16,18,0,16,0,26,0,18,0,5,0,0,0],"split_type":[0,0,0,0,0,0,0,0,0,0,0,0,0],"sum_hessian":[2.597E3,2.572E3,2.5E1,2.547E3,2.5E1,2.514E3,3.3E1,2.476E3,3.8E1,2.436E3,4E1,1.394E3,1.042E3],"tree_param":{"num_deleted":"0","num_feature":"503","num_nodes":"13","size_leaf_vector":"1"}},{"base_weights":[-3.7875565E-5,3.410689E-5,-6.8988005E-4,-4.3998592E-5,6.2399864E-4,-9.338254E-6,-3.3990268E-4,-4.5600525E-5,2.564514E-4,1.1978567E-6,-4.469894E-4,-3.7558927E-6,1.3052649E-4],"categories":[],"categories_nodes":[],"categories_segments":[],"categories_sizes":[],"default_left":[0,0,0,0,0,0,0,0,0,0,0,0,0],"id":59,"left_children":[1,3,-1,5,-1,7,-1,9,-1,11,-1,-1,-1],"loss_changes":[1.2842877E-3,1.2479264E-3,0E0,2.956846E-4,0E0,2.3513126E-4,0E0,5.14317E-4,0E0,1.2433044E-4,0E0,0E0,0E0],"parents":[2147483647,0,0,1,1,3,3,5,5,7,7,9,9],"right_children":[2,4,-1,6,-1,8,-1,10,-1,12,-1,-1,-1],"split_conditions":[7E0,2E0,-6.8988005E-4,3E0,6.2399864E-4,2E0,-3.3990268E-4,5.179503E-1,2.564514E-4,1E0,-4.469894E-4,-3.7558927E-6,1.3052649E-4],"split_indices":[66,488,0,28,0,366,0,4,0,219,0,0,0],"split_type":[0,0,0,0,0,0,0,0,0,0,0,0,0],"sum_hessian":[2.599E3,2.573E3,2.6E1,2.542E3,3.1E1,2.517E3,2.5E1,2.483E3,3.4E1,2.458E3,2.5E1,2.388E3,7E1],"tree_param":{"num_deleted":"0","num_feature":"503","num_nodes":"13","size_leaf_vector":"1"}},{"base_weights":[3.6050053E-5,-5.877906E-5,7.6983013E-4,-1.0075002E-4,4.0776213E-4,-5.2572086E-5,-4.7960767E-4,-2.6374477E-5,-2.2400667E-4,-3.3313938E-6,-1.928854E-4,-5.7509837E-6,8.14644E-5],"categories":[],"categories_nodes":[],"categories_segments":[],"categories_sizes":[],"default_left":[0,0,0,0,0,0,0,0,0,0,0,0,0],"id":60,"left_children":[1,3,-1,5,-1,7,-1,9,-1,11,-1,-1,-1],"loss_changes":[1.9019763E-3,4.493629E-4,0E0,5.7907455E-4,0E0,1.452718E-4,0E0,1.09897934E-4,0E0,1.0986345E-4,0E0,0E0,0E0],"parents":[2147483647,0,0,1,1,3,3,5,5,7,7,9,9],"right_children":[2,4,-1,6,-1,8,-1,10,-1,12,-1,-1,-1],"split_conditions":[2E0,5.2645825E-2,7.6983013E-4,1.982712E-2,4.0776213E-4,5.179503E-1,-4.7960767E-4,2E0,-2.2400667E-4,2E0,-1.928854E-4,-5.7509837E-6,8.14644E-5],"split_indices":[285,10,0,16,0,4,0,217,0,320,0,0,0],"split_type":[0,0,0,0,0,0,0,0,0,0,0,0,0],"sum_hessian":[2.616E3,2.585E3,3.1E1,2.56E3,2.5E1,2.535E3,2.5E1,2.506E3,2.9E1,2.477E3,2.9E1,2.324E3,1.53E2],"tree_param":{"num_deleted":"0","num_feature":"503","num_nodes":"13","size_leaf_vector":"1"}},{"base_weights":[2.8381046E-5,-4.20764E-5,7.048645E-4,-3.8065068E-6,-3.5450025E-4,-3.5512785E-5,1.7718297E-4,1.1076149E-5,-1.7413894E-3,-1.5395392E-5,2.15049E-4,-1.2134607E-5,-4.1369596E-4,-4.870262E-6,1.0584032E-4],"categories":[],"categories_nodes":[],"categories_segments":[],"categories_sizes":[],"default_left":[0,0,0,0,0,0,0,0,0,0,0,0,0,0,0],"id":61,"left_children":[1,3,-1,5,-1,7,-1,9,11,13,-1,-1,-1,-1,-1],"loss_changes":[1.2942484E-3,3.4732718E-4,0E0,1.4441309E-4,0E0,2.0029623E-4,0E0,1.390119E-4,2.5952014E-4,8.6782275E-5,0E0,0E0,0E0,0E0,0E0],"parents":[2147483647,0,0,1,1,3,3,5,5,7,7,8,8,9,9],"right_children":[2,4,-1,6,-1,8,-1,10,12,14,-1,-1,-1,-1,-1],"split_conditions":[8E0,6E0,7.048645E-4,5E0,-3.5450025E-4,2E0,1.7718297E-4,3.3114545E-2,1E0,2E0,2.15049E-4,-1.2134607E-5,-4.1369596E-4,-4.870262E-6,1.0584032E-4],"split_indices":[164,164,0,207,0,201,0,10,35,35,0,0,0,0,0],"split_type":[0,0,0,0,0,0,0,0,0,0,0,0,0,0,0],"sum_hessian":[2.615E3,2.59E3,2.5E1,2.563E3,2.7E1,2.519E3,4.4E1,2.453E3,6.6E1,2.424E3,2.9E1,4E1,2.6E1,2.352E3,7.2E1],"tree_param":{"num_deleted":"0","num_feature":"503","num_nodes":"15","size_leaf_vector":"1"}},{"base_weights":[-2.46087E-5,-1.0770792E-4,7.1421353E-4,-4.2431297E-5,-5.670038E-4,-5.4593984E-6,-2.8711764E-4,-4.946204E-5,3.0394303E-4,-2.6398691E-5,-2.2350294E-4,8.4847255E-7,-1.10880086E-4],"categories":[],"categories_nodes":[],"categories_segments":[],"categories_sizes":[],"default_left":[0,0,0,0,0,0,0,0,0,0,0,0,0],"id":62,"left_children":[1,3,-1,5,-1,7,-1,9,-1,11,-1,-1,-1],"loss_changes":[1.5587303E-3,9.390736E-4,0E0,2.6751042E-4,0E0,3.385919E-4,0E0,1.255036E-4,0E0,9.3120354E-5,0E0,0E0,0E0],"parents":[2147483647,0,0,1,1,3,3,5,5,7,7,9,9],"right_children":[2,4,-1,6,-1,8,-1,10,-1,12,-1,-1,-1],"split_conditions":[3.78383E-7,9E0,7.1421353E-4,2.077901E-7,-5.670038E-4,3E0,-2.8711764E-4,3E0,3.0394303E-4,4.397372E-7,-2.2350294E-4,8.4847255E-7,-1.10880086E-4],"split_indices":[3,31,0,15,0,258,0,180,0,11,0,0,0],"split_type":[0,0,0,0,0,0,0,0,0,0,0,0,0],"sum_hessian":[2.615E3,2.586E3,2.9E1,2.557E3,2.9E1,2.525E3,3.2E1,2.49E3,3.5E1,2.465E3,2.5E1,2.389E3,7.6E1],"tree_param":{"num_deleted":"0","num_feature":"503","num_nodes":"13","size_leaf_vector":"1"}},{"base_weights":[1.09493085E-5,-4.9041435E-5,5.7274394E-4,1.50145115E-5,-5.8718055E-4,-5.7481793E-5,2.6577106E-3,-2.043502E-5,-3.186591E-4,-2.855666E-4,6.830623E-4,9.913334E-6,-1.7201735E-4,-4.8340203E-6,1.0837655E-4],"categories":[],"categories_nodes":[],"categories_segments":[],"categories_sizes":[],"default_left":[0,0,0,0,0,0,0,0,0,0,0,0,0,0,0],"id":63,"left_children":[1,3,-1,5,-1,7,9,11,-1,-1,-1,13,-1,-1,-1],"loss_changes":[8.9157285E-4,9.5977256E-4,0E0,4.8792994E-4,0E0,2.8730897E-4,1.5839709E-3,1.2645009E-4,0E0,0E0,0E0,1.5074904E-4,0E0,0E0,0E0],"parents":[2147483647,0,0,1,1,3,3,5,5,6,6,7,7,11,11],"right_children":[2,4,-1,6,-1,8,10,12,-1,-1,-1,14,-1,-1,-1],"split_conditions":[2E0,4E0,5.7274394E-4,3E0,-5.8718055E-4,5.179503E-1,2.8429684E-1,4E0,-3.186591E-4,-2.855666E-4,6.830623E-4,3.8237897E-1,-1.7201735E-4,-4.8340203E-6,1.0837655E-4],"split_indices":[478,447,0,31,0,4,4,207,0,0,0,4,0,0,0],"split_type":[0,0,0,0,0,0,0,0,0,0,0,0,0,0,0],"sum_hessian":[2.598E3,2.572E3,2.6E1,2.545E3,2.7E1,2.478E3,6.7E1,2.45E3,2.8E1,2.9E1,3.8E1,2.408E3,4.2E1,2.285E3,1.23E2],"tree_param":{"num_deleted":"0","num_feature":"503","num_nodes":"15","size_leaf_vector":"1"}},{"base_weights":[-1.8525092E-5,-9.323394E-5,5.173231E-4,-3.4534773E-5,-4.901664E-4,-8.978819E-5,4.4421066E-4,-3.586273E-5,-3.6945377E-4,-7.025304E-5,1.0506191E-3,-2.034972E-6,-6.856143E-5,-2.1474872E-5,2.5390426E-4],"categories":[],"categories_nodes":[],"categories_segments":[],"categories_sizes":[],"default_left":[0,0,0,0,0,0,0,0,0,0,0,0,0,0,0],"id":64,"left_children":[1,3,-1,5,-1,7,-1,9,-1,11,13,-1,-1,-1,-1],"loss_changes":[1.0116596E-3,7.2549767E-4,0E0,6.289145E-4,0E0,4.8797528E-4,0E0,9.255081E-5,0E0,7.368662E-5,1.436839E-4,0E0,0E0,0E0,0E0],"parents":[2147483647,0,0,1,1,3,3,5,5,7,7,9,9,10,10],"right_children":[2,4,-1,6,-1,8,-1,10,-1,12,14,-1,-1,-1,-1],"split_conditions":[5.2645825E-2,5E0,5.173231E-4,1.5853702E-6,-4.901664E-4,3.2368118E-7,4.4421066E-4,1E0,-3.6945377E-4,3E0,1E0,-2.034972E-6,-6.856143E-5,-2.1474872E-5,2.5390426E-4],"split_indices":[10,82,0,14,0,17,0,215,0,161,331,0,0,0,0],"split_type":[0,0,0,0,0,0,0,0,0,0,0,0,0,0,0],"sum_hessian":[2.606E3,2.57E3,3.6E1,2.54E3,3E1,2.51E3,3E1,2.474E3,3.6E1,2.399E3,7.5E1,2.22E3,1.79E2,4.1E1,3.4E1],"tree_param":{"num_deleted":"0","num_feature":"503","num_nodes":"15","size_leaf_vector":"1"}},{"base_weights":[3.6164958E-5,-4.2315776E-5,7.224269E-4,1.9091605E-5,-4.23845E-4,-7.872815E-5,2.3959207E-3,-3.9241546E-5,-3.0365292E-4,-1.7514713E-4,9.353814E-4,-1.48672325E-5,-1.900645E-4,3.269812E-5,-1.1147296E-4,-8.914437E-6,5.8797752E-5],"categories":[],"categories_nodes":[],"categories_segments":[],"categories_sizes":[],"default_left":[0,0,0,0,0,0,0,0,0,0,0,0,0,0,0,0,0],"id":65,"left_children":[1,3,-1,5,-1,7,9,11,-1,13,-1,15,-1,-1,-1,-1,-1],"loss_changes":[1.4625246E-3,6.610137E-4,0E0,5.881833E-4,0E0,2.836891E-4,1.7905596E-3,1.0881541E-4,0E0,3.5277026E-5,0E0,1.0613051E-4,0E0,0E0,0E0,0E0,0E0],"parents":[2147483647,0,0,1,1,3,3,5,5,6,6,7,7,9,9,11,11],"right_children":[2,4,-1,6,-1,8,10,12,-1,14,-1,16,-1,-1,-1,-1,-1],"split_conditions":[7E0,3.1E1,7.224269E-4,1E0,-4.23845E-4,2.0034582E-7,2E0,1E0,-3.0365292E-4,1.4521803E-3,9.353814E-4,7.205651E-8,-1.900645E-4,3.269812E-5,-1.1147296E-4,-8.914437E-6,5.8797752E-5],"split_indices":[53,32,0,361,0,15,320,243,0,13,0,6,0,0,0,0,0],"split_type":[0,0,0,0,0,0,0,0,0,0,0,0,0,0,0,0,0],"sum_hessian":[2.591E3,2.564E3,2.7E1,2.528E3,3.6E1,2.429E3,9.9E1,2.398E3,3.1E1,7.3E1,2.6E1,2.368E3,3E1,4.8E1,2.5E1,2.109E3,2.59E2],"tree_param":{"num_deleted":"0","num_feature":"503","num_nodes":"17","size_leaf_vector":"1"}},{"base_weights":[2.3522477E-6,-9.88828E-5,5.183515E-4,-1.7077486E-5,-4.1214447E-3,-5.922711E-5,2.1921056E-4,-1.2512128E-4,-6.83316E-4,-1.0193731E-5,-4.323016E-4,-3.758705E-5,1.5151505E-4,-2.0268046E-6,-1.6141693E-4],"categories":[],"categories_nodes":[],"categories_segments":[],"categories_sizes":[],"default_left":[0,0,0,0,0,0,0,0,0,0,0,0,0,0,0],"id":66,"left_children":[1,3,-1,5,7,9,-1,-1,-1,11,-1,13,-1,-1,-1],"loss_changes":[1.3684484E-3,8.4201194E-4,0E0,2.3375847E-4,3.8839615E-4,5.1489036E-4,0E0,0E0,0E0,1.0184338E-4,0E0,6.533506E-5,0E0,0E0,0E0],"parents":[2147483647,0,0,1,1,3,3,4,4,5,5,9,9,11,11],"right_children":[2,4,-1,6,8,10,-1,-1,-1,12,-1,14,-1,-1,-1],"split_conditions":[1.9546806E-7,3.679783E-2,5.183515E-4,2E0,1E0,5.179503E-1,2.1921056E-4,-1.2512128E-4,-6.83316E-4,1E0,-4.323016E-4,2E0,1.5151505E-4,-2.0268046E-6,-1.6141693E-4],"split_indices":[15,10,0,378,55,4,0,0,0,318,0,366,0,0,0],"split_type":[0,0,0,0,0,0,0,0,0,0,0,0,0,0,0],"sum_hessian":[2.607E3,2.558E3,4.9E1,2.508E3,5E1,2.462E3,4.6E1,2.5E1,2.5E1,2.435E3,2.7E1,2.393E3,4.2E1,2.368E3,2.5E1],"tree_param":{"num_deleted":"0","num_feature":"503","num_nodes":"15","size_leaf_vector":"1"}},{"base_weights":[-8.108785E-6,5.07392E-5,-4.0540865E-4,-2.6767102E-5,7.557956E-4,-5.942086E-5,2.5958774E-4,-3.7472635E-6,-1.693599E-3,-3.533539E-5,2.6825056E-4,-3.7684853E-4,-4.5151828E-4,8.1901334E-7,-1.2256487E-4,-1.2221484E-4,5.4228884E-5],"categories":[],"categories_nodes":[],"categories_segments":[],"categories_sizes":[],"default_left":[0,0,0,0,0,0,0,0,0,0,0,0,0,0,0,0,0],"id":67,"left_children":[1,3,-1,5,-1,7,-1,9,11,13,-1,15,-1,-1,-1,-1,-1],"loss_changes":[6.1449764E-4,1.4804456E-3,0E0,2.158794E-4,0E0,2.2644433E-4,0E0,2.0442248E-4,3.029548E-4,1.2336728E-4,0E0,4.4948723E-5,0E0,0E0,0E0,0E0,0E0],"parents":[2147483647,0,0,1,1,3,3,5,5,7,7,8,8,9,9,11,11],"right_children":[2,4,-1,6,-1,8,-1,10,12,14,-1,16,-1,-1,-1,-1,-1],"split_conditions":[2E0,7E0,-4.0540865E-4,3E0,7.557956E-4,4.3894935E-1,2.5958774E-4,4.179596E-1,3.6828105E-8,3E0,2.6825056E-4,2.84772E-9,-4.5151828E-4,8.1901334E-7,-1.2256487E-4,-1.2221484E-4,5.4228884E-5],"split_indices":[202,164,0,77,0,4,0,4,15,191,0,9,0,0,0,0,0],"split_type":[0,0,0,0,0,0,0,0,0,0,0,0,0,0,0,0,0],"sum_hessian":[2.579E3,2.543E3,3.6E1,2.518E3,2.5E1,2.488E3,3E1,2.407E3,8.1E1,2.38E3,2.7E1,5.6E1,2.5E1,2.297E3,8.3E1,2.9E1,2.7E1],"tree_param":{"num_deleted":"0","num_feature":"503","num_nodes":"17","size_leaf_vector":"1"}}]},"name":"gbtree"},"learner_model_param":{"base_score":"2.1802362E-3","boost_from_average":"1","num_class":"0","num_feature":"503","num_target":"1"},"objective":{"name":"reg:squarederror","reg_loss_param":{"scale_pos_weight":"1"}}},"version":[2,0,3]}