{"learner":{"attributes":{"best_iteration":"3","best_score":"0.25078504939322527"},"feature_names":[],"feature_types":[],"gradient_booster":{"model":{"gbtree_model_param":{"num_parallel_tree":"1","num_trees":"54"},"iteration_indptr":[0,1,2,3,4,5,6,7,8,9,10,11,12,13,14,15,16,17,18,19,20,21,22,23,24,25,26,27,28,29,30,31,32,33,34,35,36,37,38,39,40,41,42,43,44,45,46,47,48,49,50,51,52,53,54],"tree_info":[0,0,0,0,0,0,0,0,0,0,0,0,0,0,0,0,0,0,0,0,0,0,0,0,0,0,0,0,0,0,0,0,0,0,0,0,0,0,0,0,0,0,0,0,0,0,0,0,0,0,0,0,0,0],"trees":[{"base_weights":[-1.6868095E-9,-1.0018428E-1,4.7211844E-1,-1.14954844E-1,8.322882E-2,-1.3218832E-1,-4.3768853E-2,-1.3517995E-1,-6.65348E-2,1.2519899E-1,-7.2126314E-2,-1.4046884E-2,-1.1104381E-1,-2.095753E-3,-1.0379522E-2,2.953018E-2,-6.5770294E-3,-8.447402E-2,2.9987132E-4,-3.0665433E-3,-1.2190061E-1,-1.1908267E-2,-6.441893E-2,-1.2594449E-2,-7.1928687E-3,-8.455263E-3,-3.2708913E-3],"categories":[],"categories_nodes":[],"categories_segments":[],"categories_sizes":[],"default_left":[0,0,0,0,0,0,0,0,0,0,0,0,0,0,0,0,0,0,0,0,0,0,0,0,0,0,0],"id":0,"left_children":[1,3,-1,5,-1,7,9,11,13,15,17,-1,19,-1,-1,-1,-1,21,-1,-1,23,-1,25,-1,-1,-1,-1],"loss_changes":[1.8210054E2,5.288152E0,0E0,4.5057726E-1,0E0,4.9732685E-2,3.6360103E-1,2.0783424E-2,2.3298137E-2,3.7675053E-1,5.9621096E-2,0E0,4.513043E-2,0E0,0E0,0E0,0E0,3.0503184E-2,0E0,0E0,8.428693E-4,0E0,2.0856649E-2,0E0,0E0,0E0,0E0],"parents":[2147483647,0,0,1,1,3,3,5,5,6,6,7,7,8,8,9,9,10,10,12,12,17,17,20,20,22,22],"right_children":[2,4,-1,6,-1,8,10,12,14,16,18,-1,20,-1,-1,-1,-1,22,-1,-1,24,-1,26,-1,-1,-1,-1],"split_conditions":[1.0205391E-2,5E0,4.7211844E-1,2.4272526E-4,8.322882E-2,5E0,1.34E2,1.5315563E-4,3.625203E-4,1.0756843E-7,1E0,-1.4046884E-2,1.7911293E-4,-2.095753E-3,-1.0379522E-2,2.953018E-2,-6.5770294E-3,4E0,2.9987132E-4,-3.0665433E-3,1E0,-1.1908267E-2,1.0172919E-1,-1.2594449E-2,-7.1928687E-3,-8.455263E-3,-3.2708913E-3],"split_indices":[331,124,0,340,0,23,0,335,338,4,113,0,335,0,0,0,0,27,0,0,240,0,6,0,0,0,0],"split_type":[0,0,0,0,0,0,0,0,0,0,0,0,0,0,0,0,0,0,0,0,0,0,0,0,0,0,0],"sum_hessian":[3.83E2,3.76E2,7E0,3.71E2,5E0,2.98E2,7.3E1,2.84E2,1.4E1,1E1,6.3E1,2.29E2,5.5E1,7E0,7E0,5E0,5E0,5.4E1,9E0,7E0,4.8E1,1.8E1,3.6E1,4.3E1,5E0,2.1E1,1.5E1],"tree_param":{"num_deleted":"0","num_feature":"474","num_nodes":"27","size_leaf_vector":"1"}},{"base_weights":[1.3166437E-3,-8.4809996E-2,4.651967E-1,-1.0326102E-1,1.0763635E-1,-1.1025107E-1,4.072348E-2,-1.2160778E-1,-6.7522116E-2,-1.9724067E-2,1.6490592E-2,-1.2342783E-1,-5.308976E-3,5.4512927E-3,-8.050437E-2,2.7939542E-3,-5.3006266E-3,-5.433626E-3,-1.2478202E-1,-1.01771325E-1,-5.3575635E-2,-1.2588955E-2,-5.580723E-3,-1.0987722E-2,-4.0227002E-3,9.5486146E-4,-6.7956895E-3],"categories":[],"categories_nodes":[],"categories_segments":[],"categories_sizes":[],"default_left":[0,0,0,0,0,0,0,0,0,0,0,0,0,0,0,0,0,0,0,0,0,0,0,0,0,0,0],"id":1,"left_children":[1,3,-1,5,-1,7,9,11,13,15,-1,17,-1,-1,19,-1,-1,-1,21,23,25,-1,-1,-1,-1,-1,-1],"loss_changes":[1.5420377E2,8.209733E0,0E0,3.7989974E-1,0E0,1.6454124E-1,1.3837004E-1,2.8365135E-2,1.2637895E-1,2.2103515E-2,0E0,1.8669128E-2,0E0,0E0,3.463596E-2,0E0,0E0,0E0,1.3294697E-2,1.4537096E-2,3.06065E-2,0E0,0E0,0E0,0E0,0E0,0E0],"parents":[2147483647,0,0,1,1,3,3,5,5,6,6,7,7,8,8,9,9,11,11,14,14,18,18,19,19,20,20],"right_children":[2,4,-1,6,-1,8,10,12,14,16,-1,18,-1,-1,20,-1,-1,-1,22,24,26,-1,-1,-1,-1,-1,-1],"split_conditions":[1.3479142E-2,5E0,4.651967E-1,1.2748752E-3,1.0763635E-1,3.0024137E-4,1.019597E-3,2E0,1.3E2,3E0,1.6490592E-2,8.5E1,-5.308976E-3,5.4512927E-3,2E0,2.7939542E-3,-5.3006266E-3,-5.433626E-3,1E0,5.8307766E-4,4.3310443E-4,-1.2588955E-2,-5.580723E-3,-1.0987722E-2,-4.0227002E-3,9.5486146E-4,-6.7956895E-3],"split_indices":[329,124,0,336,0,336,318,191,0,49,0,0,0,0,17,0,0,0,71,333,338,0,0,0,0,0,0],"split_type":[0,0,0,0,0,0,0,0,0,0,0,0,0,0,0,0,0,0,0,0,0,0,0,0,0,0,0],"sum_hessian":[3.83E2,3.77E2,6E0,3.72E2,5E0,3.55E2,1.7E1,2.79E2,7.6E1,1.2E1,5E0,2.71E2,8E0,7E0,6.9E1,5E0,7E0,6E0,2.65E2,3.7E1,3.2E1,2.6E2,5E0,3.2E1,5E0,6E0,2.6E1],"tree_param":{"num_deleted":"0","num_feature":"474","num_nodes":"27","size_leaf_vector":"1"}},{"base_weights":[2.59775E-3,-7.274135E-2,4.7610846E-1,-9.4114065E-2,1.2716144E-1,-9.839853E-2,1.1420006E-2,-1.11457705E-1,-6.604867E-2,-1.1303848E-1,-3.8175546E-3,-7.369898E-2,3.8792614E-3,-1.13842385E-2,-6.8408954E-3,-8.11374E-2,-5.4631163E-3,-8.999481E-3,-1.532657E-3,4.864513E-3,-5.8660842E-3],"categories":[],"categories_nodes":[],"categories_segments":[],"categories_sizes":[],"default_left":[0,0,0,0,0,0,0,0,0,0,0,0,0,0,0,0,0,0,0,0,0],"id":2,"left_children":[1,3,-1,5,-1,7,-1,9,11,13,-1,15,-1,-1,-1,17,19,-1,-1,-1,-1],"loss_changes":[1.3801038E2,1.1009303E1,0E0,3.4503794E-1,0E0,1.4768171E-1,0E0,2.5804043E-2,8.94824E-2,1.3251305E-3,0E0,5.0821006E-2,0E0,0E0,0E0,5.1665723E-2,3.4516357E-2,0E0,0E0,0E0,0E0],"parents":[2147483647,0,0,1,1,3,3,5,5,7,7,8,8,9,9,11,11,15,15,16,16],"right_children":[2,4,-1,6,-1,8,-1,10,12,14,-1,16,-1,-1,-1,18,20,-1,-1,-1,-1],"split_conditions":[8E0,1.2511011E-2,4.7610846E-1,6.412332E-3,1.2716144E-1,1.8052594E-4,1.1420006E-2,1E0,1.2888896E-7,7.095337E-4,-3.8175546E-3,1E0,3.8792614E-3,-1.13842385E-2,-6.8408954E-3,1E0,1E0,-8.999481E-3,-1.532657E-3,4.864513E-3,-5.8660842E-3],"split_indices":[456,15,0,15,0,340,0,71,5,316,0,174,0,0,0,113,241,0,0,0,0],"split_type":[0,0,0,0,0,0,0,0,0,0,0,0,0,0,0,0,0,0,0,0,0],"sum_hessian":[3.83E2,3.78E2,5E0,3.73E2,5E0,3.66E2,7E0,2.59E2,1.07E2,2.53E2,6E0,1E2,7E0,2.47E2,6E0,9E1,1E1,7.9E1,1.1E1,5E0,5E0],"tree_param":{"num_deleted":"0","num_feature":"474","num_nodes":"21","size_leaf_vector":"1"}},{"base_weights":[3.8613912E-3,-7.262956E-2,4.1338214E-1,-8.8891275E-2,6.905859E-2,-9.899005E-2,-5.7189636E-2,-1.0052518E-1,-4.1596345E-3,-4.5329478E-2,-1.6153004E-2,-1.0176374E-1,-4.69321E-3,5.3163273E-3,-5.6396652E-2,-1.0274557E-2,-5.089831E-3,-6.467216E-2,1.2395682E-3,-7.13595E-3,3.7974244E-4],"categories":[],"categories_nodes":[],"categories_segments":[],"categories_sizes":[],"default_left":[0,0,0,0,0,0,0,0,0,0,0,0,0,0,0,0,0,0,0,0,0],"id":3,"left_children":[1,3,-1,5,-1,7,9,11,-1,13,-1,15,-1,-1,17,-1,-1,19,-1,-1,-1],"loss_changes":[1.216076E2,4.752816E0,0E0,1.1311364E-1,0E0,2.0488262E-2,1.065273E-1,1.3278961E-2,0E0,9.456131E-2,0E0,8.004904E-3,0E0,0E0,4.4067815E-2,0E0,0E0,3.140676E-2,0E0,0E0,0E0],"parents":[2147483647,0,0,1,1,3,3,5,5,6,6,7,7,9,9,11,11,14,14,17,17],"right_children":[2,4,-1,6,-1,8,10,12,-1,14,-1,16,-1,-1,18,-1,-1,20,-1,-1,-1],"split_conditions":[5.015143E-3,3E0,4.1338214E-1,3.0024137E-4,6.905859E-2,2E0,1.0080338E-3,1E0,-4.1596345E-3,1.3E2,-1.6153004E-2,3.5237434E-4,-4.69321E-3,5.3163273E-3,1E0,-1.0274557E-2,-5.089831E-3,1E0,1.2395682E-3,-7.13595E-3,3.7974244E-4],"split_indices":[335,131,0,336,0,191,321,75,0,0,0,333,0,0,113,0,0,202,0,0,0],"split_type":[0,0,0,0,0,0,0,0,0,0,0,0,0,0,0,0,0,0,0,0,0],"sum_hessian":[3.83E2,3.77E2,6E0,3.7E2,7E0,2.79E2,9.1E1,2.71E2,8E0,8.3E1,8E0,2.64E2,7E0,8E0,7.5E1,2.58E2,6E0,6.7E1,8E0,6.1E1,6E0],"tree_param":{"num_deleted":"0","num_feature":"474","num_nodes":"21","size_leaf_vector":"1"}},{"base_weights":[4.6259537E-3,-6.291363E-2,4.270105E-1,-7.784908E-2,8.785486E-2,-8.155775E-2,1.0201724E-2,-9.476441E-3,-6.517393E-2,-6.0094144E-2,-1.9146597E-2,-7.0058614E-2,-2.8978052E-2,-7.3104533E-3,1.0131212E-4,-4.161932E-3,5.169922E-3],"categories":[],"categories_nodes":[],"categories_segments":[],"categories_sizes":[],"default_left":[0,0,0,0,0,0,0,0,0,0,0,0,0,0,0,0,0],"id":4,"left_children":[1,3,-1,5,-1,7,-1,-1,9,11,-1,13,15,-1,-1,-1,-1],"loss_changes":[1.1089469E2,5.397577E0,0E0,2.5780225E-1,0E0,7.3233604E-2,0E0,0E0,9.5630705E-2,4.819882E-2,0E0,2.648437E-2,4.3966062E-2,0E0,0E0,0E0,0E0],"parents":[2147483647,0,0,1,1,3,3,5,5,8,8,9,9,11,11,12,12],"right_children":[2,4,-1,6,-1,8,-1,-1,10,12,-1,14,16,-1,-1,-1,-1],"split_conditions":[1.3E1,1.2511011E-2,4.270105E-1,6.412332E-3,8.785486E-2,9.55088E-5,1.0201724E-2,-9.476441E-3,2E0,4.4818775E-4,-1.9146597E-2,1E0,1E0,-7.3104533E-3,1.0131212E-4,-4.161932E-3,5.169922E-3],"split_indices":[470,15,0,15,0,336,0,0,452,337,0,310,213,0,0,0,0],"split_type":[0,0,0,0,0,0,0,0,0,0,0,0,0,0,0,0,0],"sum_hessian":[3.83E2,3.78E2,5E0,3.73E2,5E0,3.66E2,7E0,2E2,1.66E2,1.61E2,5E0,1.21E2,4E1,1.16E2,5E0,3.5E1,5E0],"tree_param":{"num_deleted":"0","num_feature":"474","num_nodes":"17","size_leaf_vector":"1"}},{"base_weights":[5.4400316E-3,-6.2281076E-2,3.6616027E-1,-7.116392E-2,5.0031614E-2,-7.4559756E-2,9.309074E-3,-7.172283E-2,-2.3282155E-2,-8.202716E-2,-4.4753715E-2,-8.327821E-2,-2.4913698E-3,-5.1923737E-2,5.997139E-3,-8.39775E-3,-4.6606786E-3,-5.8819065E-3,6.705499E-4],"categories":[],"categories_nodes":[],"categories_segments":[],"categories_sizes":[],"default_left":[0,0,0,0,0,0,0,0,0,0,0,0,0,0,0,0,0,0,0],"id":5,"left_children":[1,3,-1,5,-1,7,-1,9,-1,11,13,15,-1,17,-1,-1,-1,-1,-1],"loss_changes":[9.530621E1,1.9246464E0,0E0,2.1499312E-1,0E0,1.4762688E-1,0E0,9.665048E-2,0E0,1.6502619E-2,7.970381E-2,2.599597E-3,0E0,3.920409E-2,0E0,0E0,0E0,0E0,0E0],"parents":[2147483647,0,0,1,1,3,3,5,5,7,7,9,9,10,10,11,11,13,13],"right_children":[2,4,-1,6,-1,8,-1,10,-1,12,14,16,-1,18,-1,-1,-1,-1,-1],"split_conditions":[1E0,3.7948585E-3,3.6616027E-1,6.412332E-3,5.0031614E-2,2.35E2,9.309074E-3,1.8052594E-4,-2.3282155E-2,1E0,1E0,1E0,-2.4913698E-3,1.6E1,5.997139E-3,-8.39775E-3,-4.6606786E-3,-5.8819065E-3,6.705499E-4],"split_indices":[455,338,0,15,0,1,0,340,0,71,213,79,0,27,0,0,0,0,0],"split_type":[0,0,0,0,0,0,0,0,0,0,0,0,0,0,0,0,0,0,0],"sum_hessian":[3.83E2,3.77E2,6E0,3.72E2,5E0,3.65E2,7E0,3.6E2,5E0,2.59E2,1.01E2,2.53E2,6E0,9.5E1,6E0,2.47E2,6E0,8.5E1,1E1],"tree_param":{"num_deleted":"0","num_feature":"474","num_nodes":"19","size_leaf_vector":"1"}},{"base_weights":[5.9050303E-3,-5.318095E-2,3.7371856E-1,-6.4452365E-2,6.582671E-2,-6.753337E-2,8.494529E-3,-6.472361E-2,-2.258E-2,-7.388425E-2,-4.097127E-2,-7.527696E-2,-2.6678967E-3,-4.7462452E-2,5.483098E-3,-7.595786E-3,-4.059457E-3,-5.3688656E-3,6.095909E-4],"categories":[],"categories_nodes":[],"categories_segments":[],"categories_sizes":[],"default_left":[0,0,0,0,0,0,0,0,0,0,0,0,0,0,0,0,0,0,0],"id":6,"left_children":[1,3,-1,5,-1,7,-1,9,-1,11,13,15,-1,17,-1,-1,-1,-1,-1],"loss_changes":[8.4857834E1,3.081636E0,0E0,1.7788696E-1,0E0,1.4858699E-1,0E0,7.5739264E-2,0E0,1.5084982E-2,6.665498E-2,2.8675795E-3,0E0,3.267342E-2,0E0,0E0,0E0,0E0,0E0],"parents":[2147483647,0,0,1,1,3,3,5,5,7,7,9,9,10,10,11,11,13,13],"right_children":[2,4,-1,6,-1,8,-1,10,-1,12,14,16,-1,18,-1,-1,-1,-1,-1],"split_conditions":[8E0,1.2511011E-2,3.7371856E-1,6.412332E-3,6.582671E-2,6.9228527E-3,8.494529E-3,1.8052594E-4,-2.258E-2,5E0,1E0,1E0,-2.6678967E-3,1.6E1,5.483098E-3,-7.595786E-3,-4.059457E-3,-5.3688656E-3,6.095909E-4],"split_indices":[456,15,0,15,0,312,0,340,0,23,213,21,0,27,0,0,0,0,0],"split_type":[0,0,0,0,0,0,0,0,0,0,0,0,0,0,0,0,0,0,0],"sum_hessian":[3.83E2,3.78E2,5E0,3.73E2,5E0,3.66E2,7E0,3.61E2,5E0,2.59E2,1.02E2,2.51E2,8E0,9.6E1,6E0,2.45E2,6E0,8.6E1,1E1],"tree_param":{"num_deleted":"0","num_feature":"474","num_nodes":"19","size_leaf_vector":"1"}},{"base_weights":[6.387077E-3,-5.035026E-2,3.589231E-1,-6.028905E-2,3.6494326E-2,-5.7446044E-2,-2.2366447E-2,-6.4950846E-2,-2.420143E-2,-6.653052E-2,-1.7687583E-2,-4.0697757E-2,2.8651904E-2,-6.914134E-2,-4.0828995E-2,3.6251878E-3,-6.867911E-3,-4.960711E-2,8.370991E-4,1.0518851E-2,-3.5442566E-3,-6.9851554E-3,-2.743372E-3,-6.2945457E-3,-8.7667786E-4,-7.116206E-3,-3.526086E-3],"categories":[],"categories_nodes":[],"categories_segments":[],"categories_sizes":[],"default_left":[0,0,0,0,0,0,0,0,0,0,0,0,0,0,0,0,0,0,0,0,0,0,0,0,0,0,0],"id":7,"left_children":[1,3,-1,5,-1,7,-1,9,11,13,15,17,19,21,23,-1,-1,25,-1,-1,-1,-1,-1,-1,-1,-1,-1],"loss_changes":[7.824064E1,1.5863307E0,0E0,1.594727E-1,0E0,8.974302E-2,0E0,2.107203E-2,6.1326195E-2,1.65025E-2,3.2744754E-2,2.358532E-2,8.712288E-2,5.7851076E-3,2.0012148E-2,0E0,0E0,1.1406235E-2,0E0,0E0,0E0,0E0,0E0,0E0,0E0,0E0,0E0],"parents":[2147483647,0,0,1,1,3,3,5,5,7,7,8,8,9,9,10,10,11,11,12,12,13,13,14,14,17,17],"right_children":[2,4,-1,6,-1,8,-1,10,12,14,16,18,20,22,24,-1,-1,26,-1,-1,-1,-1,-1,-1,-1,-1,-1],"split_conditions":[1.4189756E-2,3E0,3.589231E-1,1.4429443E-3,3.6494326E-2,2.4272526E-4,-2.2366447E-2,1E0,1.1869683E-1,1E0,3.354719E-8,1E0,6.327629E-4,8.333333E-1,3.942915E-3,3.6251878E-3,-6.867911E-3,6.7E1,8.370991E-4,1.0518851E-2,-3.5442566E-3,-6.9851554E-3,-2.743372E-3,-6.2945457E-3,-8.7667786E-4,-7.116206E-3,-3.526086E-3],"split_indices":[329,131,0,312,0,340,0,75,6,469,11,113,317,446,12,0,0,1,0,0,0,0,0,0,0,0,0],"split_type":[0,0,0,0,0,0,0,0,0,0,0,0,0,0,0,0,0,0,0,0,0,0,0,0,0,0,0],"sum_hessian":[3.83E2,3.78E2,5E0,3.7E2,8E0,3.65E2,5E0,2.97E2,6.8E1,2.87E2,1E1,5.2E1,1.6E1,2.59E2,2.8E1,5E0,5E0,4.4E1,8E0,7E0,9E0,2.54E2,5E0,1.6E1,1.2E1,1.6E1,2.8E1],"tree_param":{"num_deleted":"0","num_feature":"474","num_nodes":"27","size_leaf_vector":"1"}},{"base_weights":[6.6600326E-3,-4.6182778E-2,3.3434543E-1,-5.603892E-2,4.1790076E-2,-5.1776234E-2,-3.0743334E-2,-5.8515515E-2,-2.182231E-2,-5.9923146E-2,-1.6213618E-2,6.2397183E-3,-3.0833645E-2,-6.224131E-2,-3.6993377E-2,3.3230886E-3,-6.295585E-3,-3.748756E-2,1.9597947E-3,-6.286756E-3,-2.5147577E-3,-5.2812123E-3,4.027402E-4,-6.314467E-3,-2.5646097E-3],"categories":[],"categories_nodes":[],"categories_segments":[],"categories_sizes":[],"default_left":[0,0,0,0,0,0,0,0,0,0,0,0,0,0,0,0,0,0,0,0,0,0,0,0,0],"id":8,"left_children":[1,3,-1,5,-1,7,-1,9,11,13,15,-1,17,19,21,-1,-1,23,-1,-1,-1,-1,-1,-1,-1],"loss_changes":[6.786343E1,1.7569926E0,0E0,3.827231E-1,0E0,7.280862E-2,0E0,1.683247E-2,5.4290112E-2,1.3059258E-2,2.7514692E-2,0E0,2.1875419E-2,4.48215E-3,1.9030713E-2,0E0,0E0,1.5394367E-2,0E0,0E0,0E0,0E0,0E0,0E0,0E0],"parents":[2147483647,0,0,1,1,3,3,5,5,7,7,8,8,9,9,10,10,12,12,13,13,14,14,17,17],"right_children":[2,4,-1,6,-1,8,-1,10,12,14,16,-1,18,20,22,-1,-1,24,-1,-1,-1,-1,-1,-1,-1],"split_conditions":[1.3E1,3E0,3.3434543E-1,1.7830133E-3,4.1790076E-2,2.4272526E-4,-3.0743334E-2,1E0,3.3E1,1E0,3.354719E-8,6.2397183E-3,1E0,8.333333E-1,4.5948554E-4,3.3230886E-3,-6.295585E-3,3E0,1.9597947E-3,-6.286756E-3,-2.5147577E-3,-5.2812123E-3,4.027402E-4,-6.314467E-3,-2.5646097E-3],"split_indices":[470,131,0,316,0,340,0,75,1,469,11,0,113,446,339,0,0,27,0,0,0,0,0,0,0],"split_type":[0,0,0,0,0,0,0,0,0,0,0,0,0,0,0,0,0,0,0,0,0,0,0,0,0],"sum_hessian":[3.83E2,3.78E2,5E0,3.71E2,7E0,3.66E2,5E0,2.98E2,6.8E1,2.88E2,1E1,6E0,6.2E1,2.6E2,2.8E1,5E0,5E0,5.5E1,7E0,2.55E2,5E0,2E1,8E0,1.6E1,3.9E1],"tree_param":{"num_deleted":"0","num_feature":"474","num_nodes":"25","size_leaf_vector":"1"}},{"base_weights":[6.84835E-3,-4.3908052E-2,3.2118198E-1,-5.0375286E-2,3.6653414E-2,-4.4847153E-2,-3.8195956E-2,-4.8337717E-2,1.1870677E-2,-5.386162E-2,-1.7191693E-2,-5.1373214E-2,-1.5316877E-2,-3.0623756E-2,8.120757E-3,-5.614306E-3,-2.9018212E-3,8.0820493E-4,-4.5900517E-3],"categories":[],"categories_nodes":[],"categories_segments":[],"categories_sizes":[],"default_left":[0,0,0,0,0,0,0,0,0,0,0,0,0,0,0,0,0,0,0],"id":9,"left_children":[1,3,-1,5,-1,7,-1,9,-1,11,13,15,-1,17,-1,-1,-1,-1,-1],"loss_changes":[6.2607388E1,1.0244915E0,0E0,6.6842794E-1,0E0,2.1639842E-1,0E0,6.1355293E-2,0E0,6.7996144E-2,7.650236E-2,3.0466437E-2,0E0,2.9935934E-2,0E0,0E0,0E0,0E0,0E0],"parents":[2147483647,0,0,1,1,3,3,5,5,7,7,9,9,10,10,11,11,13,13],"right_children":[2,4,-1,6,-1,8,-1,10,-1,12,14,16,-1,18,-1,-1,-1,-1,-1],"split_conditions":[2.7888222E-2,1.2511011E-2,3.2118198E-1,6E0,3.6653414E-2,1E0,-3.8195956E-2,7.123777E-8,1.1870677E-2,2.229688E-3,4.3433154E-4,3.0472386E-4,-1.5316877E-2,2.1415403E-4,8.120757E-3,-5.614306E-3,-2.9018212E-3,8.0820493E-4,-4.5900517E-3],"split_indices":[9,15,0,76,0,299,0,4,0,323,323,342,0,331,0,0,0,0,0],"split_type":[0,0,0,0,0,0,0,0,0,0,0,0,0,0,0,0,0,0,0],"sum_hessian":[3.83E2,3.78E2,5E0,3.73E2,5E0,3.68E2,5E0,3.61E2,7E0,3.06E2,5.5E1,3E2,6E0,4.9E1,6E0,2.46E2,5.4E1,1.4E1,3.5E1],"tree_param":{"num_deleted":"0","num_feature":"474","num_nodes":"19","size_leaf_vector":"1"}},{"base_weights":[6.9760587E-3,-4.12799E-2,3.0539817E-1,-4.8332043E-2,4.0518377E-2,-4.285735E-2,-3.7697043E-2,-4.549713E-2,1.0015666E-2,-4.3121435E-2,-1.7966423E-2,-4.8709847E-2,-1.6688574E-2,-4.7350805E-3,-1.0627854E-2,4.496411E-3,-2.8938407E-3],"categories":[],"categories_nodes":[],"categories_segments":[],"categories_sizes":[],"default_left":[0,0,0,0,0,0,0,0,0,0,0,0,0,0,0,0,0],"id":10,"left_children":[1,3,-1,5,-1,7,-1,9,-1,11,-1,13,15,-1,-1,-1,-1],"loss_changes":[5.6587955E1,1.2128748E0,0E0,6.56743E-1,0E0,1.4386386E-1,0E0,1.07955396E-1,0E0,5.2069962E-2,0E0,1.8047988E-2,4.963623E-2,0E0,0E0,0E0,0E0],"parents":[2147483647,0,0,1,1,3,3,5,5,7,7,9,9,11,11,12,12],"right_children":[2,4,-1,6,-1,8,-1,10,-1,12,-1,14,16,-1,-1,-1,-1],"split_conditions":[2E0,4.960447E-3,3.0539817E-1,2.35E2,4.0518377E-2,2.2946093E-3,-3.7697043E-2,2.5835854E-3,1.0015666E-2,2.4272526E-4,-1.7966423E-2,1E0,6.1522996E-6,-4.7350805E-3,-1.0627854E-2,4.496411E-3,-2.8938407E-3],"split_indices":[472,341,0,1,0,336,0,323,0,340,0,29,2,0,0,0,0],"split_type":[0,0,0,0,0,0,0,0,0,0,0,0,0,0,0,0,0],"sum_hessian":[3.83E2,3.78E2,5E0,3.73E2,5E0,3.68E2,5E0,3.62E2,6E0,3.57E2,5E0,2.94E2,6.3E1,2.89E2,5E0,1E1,5.3E1],"tree_param":{"num_deleted":"0","num_feature":"474","num_nodes":"17","size_leaf_vector":"1"}},{"base_weights":[7.02457E-3,-3.9239977E-2,2.928231E-1,-4.6998836E-2,2.0196836E-1,-3.983787E-2,-3.282153E-2,4.699568E-2,-5.658864E-3,2.6657798E-3,-4.1232E-2,-4.650614E-2,-2.4821172E-2,-4.5252804E-2,-9.327515E-3,3.013941E-3,-3.1464014E-2,-4.6379585E-3,-1.8007181E-3,-4.020746E-3,4.0028473E-5],"categories":[],"categories_nodes":[],"categories_segments":[],"categories_sizes":[],"default_left":[0,0,0,0,0,0,0,0,0,0,0,0,0,0,0,0,0,0,0,0,0],"id":11,"left_children":[1,3,-1,5,7,9,-1,-1,-1,-1,11,13,15,17,-1,-1,19,-1,-1,-1,-1],"loss_changes":[5.201185E1,7.1879125E-1,0E0,7.279959E-1,8.5807765E-1,3.4472346E-2,0E0,0E0,0E0,0E0,2.9398918E-2,1.1371195E-2,3.3076625E-2,7.177472E-3,0E0,0E0,2.2025786E-2,0E0,0E0,0E0,0E0],"parents":[2147483647,0,0,1,1,3,3,4,4,5,5,10,10,11,11,12,12,13,13,16,16],"right_children":[2,4,-1,6,8,10,-1,-1,-1,-1,12,14,16,18,-1,-1,20,-1,-1,-1,-1],"split_conditions":[9.384744E-2,6.412332E-3,2.928231E-1,1.7364025E-3,1.48E2,7.7E1,-3.282153E-2,4.699568E-2,-5.658864E-3,2.6657798E-3,3.0472386E-4,1.7313474E-7,3.2217277E-4,3.3414282E-4,-9.327515E-3,3.013941E-3,8E0,-4.6379585E-3,-1.8007181E-3,-4.020746E-3,4.0028473E-5],"split_indices":[12,15,0,318,0,0,0,0,0,0,342,10,342,333,0,0,27,0,0,0,0],"split_type":[0,0,0,0,0,0,0,0,0,0,0,0,0,0,0,0,0,0,0,0,0],"sum_hessian":[3.83E2,3.78E2,5E0,3.67E2,1.1E1,3.59E2,8E0,5E0,6E0,7E0,3.52E2,2.65E2,8.7E1,2.6E2,5E0,9E0,7.8E1,2.49E2,1.1E1,6.1E1,1.7E1],"tree_param":{"num_deleted":"0","num_feature":"474","num_nodes":"21","size_leaf_vector":"1"}},{"base_weights":[7.07021E-3,-3.6488395E-2,2.757344E-1,-3.1235851E-2,-3.1116137E-2,-3.6515884E-2,2.9781211E-2,-3.426518E-2,-1.4769283E-2,-3.571607E-2,5.777377E-3,-3.942336E-2,-1.0424941E-2,-4.081905E-3,6.668765E-4,7.704849E-3,-2.5105162E-3],"categories":[],"categories_nodes":[],"categories_segments":[],"categories_sizes":[],"default_left":[0,0,0,0,0,0,0,0,0,0,0,0,0,0,0,0,0],"id":12,"left_children":[1,3,-1,5,-1,7,-1,9,-1,11,-1,13,15,-1,-1,-1,-1],"loss_changes":[4.6103077E1,5.3707606E-1,0E0,6.58919E-1,0E0,8.702257E-2,0E0,5.040443E-2,0E0,3.306192E-2,0E0,2.02789E-2,6.228839E-2,0E0,0E0,0E0,0E0],"parents":[2147483647,0,0,1,1,3,3,5,5,7,7,9,9,11,11,12,12],"right_children":[2,4,-1,6,-1,8,-1,10,-1,12,-1,14,16,-1,-1,-1,-1],"split_conditions":[1.4189756E-2,9E0,2.757344E-1,6.5755304E-3,-3.1116137E-2,2.5835854E-3,2.9781211E-2,5.192493E-3,-1.4769283E-2,5.232096E-4,5.777377E-3,1E0,5.267209E-4,-4.081905E-3,6.668765E-4,7.704849E-3,-2.5105162E-3],"split_indices":[329,57,0,331,0,323,0,15,0,313,0,174,312,0,0,0,0],"split_type":[0,0,0,0,0,0,0,0,0,0,0,0,0,0,0,0,0],"sum_hessian":[3.83E2,3.78E2,5E0,3.72E2,6E0,3.67E2,5E0,3.61E2,6E0,3.56E2,5E0,3.1E2,4.6E1,3.01E2,9E0,6E0,4E1],"tree_param":{"num_deleted":"0","num_feature":"474","num_nodes":"17","size_leaf_vector":"1"}},{"base_weights":[7.0589897E-3,-3.4844846E-2,2.652808E-1,-2.8862143E-2,-3.0868486E-2,-3.2998774E-2,1.9154774E-2,-3.136012E-2,-1.2609142E-2,-3.829802E-2,-1.7107353E-2,-3.6831446E-2,-8.98447E-3,3.177382E-2,-2.4392985E-2,-3.8232028E-3,8.039251E-4,-3.4389633E-3,7.4910857E-3,-2.999788E-3,1.7579955E-3],"categories":[],"categories_nodes":[],"categories_segments":[],"categories_sizes":[],"default_left":[0,0,0,0,0,0,0,0,0,0,0,0,0,0,0,0,0,0,0,0,0],"id":13,"left_children":[1,3,-1,5,-1,7,-1,9,-1,11,13,15,-1,17,19,-1,-1,-1,-1,-1,-1],"loss_changes":[4.2665375E1,6.1200744E-1,0E0,3.4549344E-1,0E0,5.1877856E-2,0E0,3.5042048E-2,0E0,1.4985383E-2,4.351069E-2,1.5201658E-2,0E0,4.8241682E-2,2.5229022E-2,0E0,0E0,0E0,0E0,0E0,0E0],"parents":[2147483647,0,0,1,1,3,3,5,5,7,7,9,9,10,10,11,11,13,13,14,14],"right_children":[2,4,-1,6,-1,8,-1,10,-1,12,14,16,-1,18,20,-1,-1,-1,-1,-1,-1],"split_conditions":[6E0,9E0,2.652808E-1,2.6230435E-3,-3.0868486E-2,1.0371819E-2,1.9154774E-2,1.5315563E-4,-1.2609142E-2,7.405281E-4,1.9299447E-4,7.1549416E-4,-8.98447E-3,1.3105373E-4,1E0,-3.8232028E-3,8.039251E-4,-3.4389633E-3,7.4910857E-3,-2.999788E-3,1.7579955E-3],"split_indices":[448,57,0,336,0,9,0,335,0,317,335,315,0,336,170,0,0,0,0,0,0],"split_type":[0,0,0,0,0,0,0,0,0,0,0,0,0,0,0,0,0,0,0,0,0],"sum_hessian":[3.83E2,3.78E2,5E0,3.71E2,7E0,3.65E2,6E0,3.6E2,5E0,2.41E2,1.19E2,2.36E2,5E0,1.5E1,1.04E2,2.29E2,7E0,6E0,9E0,9.2E1,1.2E1],"tree_param":{"num_deleted":"0","num_feature":"474","num_nodes":"21","size_leaf_vector":"1"}},{"base_weights":[6.956647E-3,-3.2852042E-2,2.5203797E-1,-2.59278E-2,-3.9712206E-2,-3.0525124E-2,1.876407E-2,-2.7974436E-2,-1.5734266E-2,-3.35363E-2,-9.008501E-3,-3.219448E-2,-8.088461E-3,5.510427E-3,-1.5638681E-2,-3.3497082E-3,-1.18007476E-4,-2.1473404E-3,1.7269297E-3],"categories":[],"categories_nodes":[],"categories_segments":[],"categories_sizes":[],"default_left":[0,0,0,0,0,0,0,0,0,0,0,0,0,0,0,0,0,0,0],"id":14,"left_children":[1,3,-1,5,-1,7,-1,9,-1,11,13,15,-1,-1,17,-1,-1,-1,-1],"loss_changes":[3.850433E1,9.456527E-1,0E0,3.7195528E-1,0E0,1.13989145E-1,0E0,3.7672848E-2,0E0,1.50581E-2,3.6143333E-2,1.0949105E-2,0E0,0E0,1.4963511E-2,0E0,0E0,0E0,0E0],"parents":[2147483647,0,0,1,1,3,3,5,5,7,7,9,9,10,10,11,11,14,14],"right_children":[2,4,-1,6,-1,8,-1,10,-1,12,14,16,-1,-1,18,-1,-1,-1,-1],"split_conditions":[9.384744E-2,3.5E1,2.5203797E-1,2.5E-1,-3.9712206E-2,1.1968613E-3,1.876407E-2,3.0024137E-4,-1.5734266E-2,4.0864042E-4,3.3E1,6.0260296E-4,-8.088461E-3,5.510427E-3,1E0,-3.3497082E-3,-1.18007476E-4,-2.1473404E-3,1.7269297E-3],"split_indices":[12,39,0,443,0,313,0,336,0,337,1,318,0,0,38,0,0,0,0],"split_type":[0,0,0,0,0,0,0,0,0,0,0,0,0,0,0,0,0,0,0],"sum_hessian":[3.83E2,3.78E2,5E0,3.72E2,6E0,3.65E2,7E0,3.59E2,6E0,2.77E2,8.2E1,2.71E2,6E0,7E0,7.5E1,2.6E2,1.1E1,6.4E1,1.1E1],"tree_param":{"num_deleted":"0","num_feature":"474","num_nodes":"19","size_leaf_vector":"1"}},{"base_weights":[6.8049636E-3,-3.168027E-2,2.4366549E-1,-2.2936227E-2,-3.8860925E-2,-2.6176475E-2,1.785416E-2,-2.453898E-2,-1.2033624E-2,-3.0971136E-2,-1.4283342E-2,-3.1732287E-2,-9.515948E-4,-1.720756E-2,3.6482706E-3,-3.243889E-3,-9.570787E-4,-2.1318102E-3,1.2336664E-3],"categories":[],"categories_nodes":[],"categories_segments":[],"categories_sizes":[],"default_left":[0,0,0,0,0,0,0,0,0,0,0,0,0,0,0,0,0,0,0],"id":15,"left_children":[1,3,-1,5,-1,7,-1,9,-1,11,13,15,-1,17,-1,-1,-1,-1,-1],"loss_changes":[3.598632E1,1.1739469E0,0E0,2.4687652E-1,0E0,5.3479135E-2,0E0,2.3371294E-2,0E0,3.307104E-3,2.1559363E-2,3.0249804E-3,0E0,1.6536333E-2,0E0,0E0,0E0,0E0,0E0],"parents":[2147483647,0,0,1,1,3,3,5,5,7,7,9,9,10,10,11,11,13,13],"right_children":[2,4,-1,6,-1,8,-1,10,-1,12,14,16,-1,18,-1,-1,-1,-1,-1],"split_conditions":[2.7888222E-2,9E0,2.4366549E-1,6.5755304E-3,-3.8860925E-2,2.922952E-3,1.785416E-2,1.2450268E-4,-1.2033624E-2,7.1549416E-4,1.3628693E-7,1E0,-9.515948E-4,1E0,3.6482706E-3,-3.243889E-3,-9.570787E-4,-2.1318102E-3,1.2336664E-3],"split_indices":[9,57,0,331,0,331,0,336,0,315,5,228,0,170,0,0,0,0,0],"split_type":[0,0,0,0,0,0,0,0,0,0,0,0,0,0,0,0,0,0,0],"sum_hessian":[3.83E2,3.78E2,5E0,3.7E2,8E0,3.65E2,5E0,3.6E2,5E0,2.2E2,1.4E2,2.12E2,8E0,1.33E2,7E0,2.05E2,7E0,1.17E2,1.6E1],"tree_param":{"num_deleted":"0","num_feature":"474","num_nodes":"19","size_leaf_vector":"1"}},{"base_weights":[6.6667115E-3,-2.9884383E-2,2.3143664E-1,-2.2811668E-2,-4.024899E-2,-2.64859E-2,2.0634318E-2,-2.3448626E-2,-2.0582665E-2,-2.2044495E-2,-1.0332038E-2,-2.6222782E-2,-6.95633E-3,-2.7041868E-3,1.5689116E-3,5.100479E-3,-1.3299839E-3],"categories":[],"categories_nodes":[],"categories_segments":[],"categories_sizes":[],"default_left":[0,0,0,0,0,0,0,0,0,0,0,0,0,0,0,0,0],"id":16,"left_children":[1,3,-1,5,-1,7,-1,9,-1,11,-1,13,15,-1,-1,-1,-1],"loss_changes":[3.245916E1,9.896096E-1,0E0,3.1951928E-1,0E0,1.9562581E-1,0E0,3.843297E-2,0E0,2.2386864E-2,0E0,1.0036498E-2,2.9724825E-2,0E0,0E0,0E0,0E0],"parents":[2147483647,0,0,1,1,3,3,5,5,7,7,9,9,11,11,12,12],"right_children":[2,4,-1,6,-1,8,-1,10,-1,12,-1,14,16,-1,-1,-1,-1],"split_conditions":[2E0,9E0,2.3143664E-1,6.5755304E-3,-4.024899E-2,7.002835E-7,2.0634318E-2,1.6993408E-3,-2.0582665E-2,3.0876388E-4,-1.0332038E-2,1E0,3.3E1,-2.7041868E-3,1.5689116E-3,5.100479E-3,-1.3299839E-3],"split_indices":[472,57,0,331,0,10,0,342,0,336,0,174,1,0,0,0,0],"split_type":[0,0,0,0,0,0,0,0,0,0,0,0,0,0,0,0,0],"sum_hessian":[3.83E2,3.78E2,5E0,3.72E2,6E0,3.67E2,5E0,3.62E2,5E0,3.57E2,5E0,2.79E2,7.8E1,2.74E2,5E0,7E0,7.1E1],"tree_param":{"num_deleted":"0","num_feature":"474","num_nodes":"17","size_leaf_vector":"1"}},{"base_weights":[6.4780153E-3,2.2000921E-1,-2.8266476E-2,-2.1836128E-2,-3.237444E-2,-1.8969277E-2,-1.9355241E-2,-2.2619925E-2,1.01235315E-1,-2.0444999E-2,-1.4644566E-2,-6.379444E-3,2.4939252E-2,-2.140832E-2,3.8674579E-3,-2.2415132E-3,1.8893635E-3],"categories":[],"categories_nodes":[],"categories_segments":[],"categories_sizes":[],"default_left":[0,0,0,0,0,0,0,0,0,0,0,0,0,0,0,0,0],"id":17,"left_children":[1,-1,3,5,-1,7,-1,9,11,13,-1,-1,-1,15,-1,-1,-1],"loss_changes":[2.9329136E1,0E0,7.130407E-1,1.7945838E-1,0E0,1.6333857E-1,0E0,9.31503E-2,2.8486365E-1,2.0874768E-2,0E0,0E0,0E0,1.45035535E-2,0E0,0E0,0E0],"parents":[2147483647,0,0,2,2,3,3,5,5,7,7,8,8,9,9,13,13],"right_children":[2,-1,4,6,-1,8,-1,10,12,14,-1,-1,-1,16,-1,-1,-1],"split_conditions":[1.9586552E-7,2.2000921E-1,9E0,1.545539E-6,-3.237444E-2,6.412332E-3,-1.9355241E-2,1.5280398E-3,1E0,1E0,-1.4644566E-2,-6.379444E-3,2.4939252E-2,1.2815566E-3,3.8674579E-3,-2.2415132E-3,1.8893635E-3],"split_indices":[7,0,57,10,0,15,0,326,34,149,0,0,0,336,0,0,0],"split_type":[0,0,0,0,0,0,0,0,0,0,0,0,0,0,0,0,0],"sum_hessian":[3.83E2,5E0,3.78E2,3.71E2,7E0,3.66E2,5E0,3.56E2,1E1,3.51E2,5E0,5E0,5E0,3.46E2,5E0,3.38E2,8E0],"tree_param":{"num_deleted":"0","num_feature":"474","num_nodes":"17","size_leaf_vector":"1"}},{"base_weights":[6.2877927E-3,-2.7200699E-2,2.1205962E-1,-1.980629E-2,-4.835854E-2,-2.305239E-2,1.8313002E-2,-1.9978536E-2,-2.0569082E-2,-2.4423372E-2,8.921968E-5,-2.2426758E-2,-1.1785419E-2,-1.2940569E-2,4.2430457E-2,-8.995393E-3,-2.094207E-3,-2.0058255E-3,2.3294857E-3,9.782731E-3,-1.1525684E-3],"categories":[],"categories_nodes":[],"categories_segments":[],"categories_sizes":[],"default_left":[0,0,0,0,0,0,0,0,0,0,0,0,0,0,0,0,0,0,0,0,0],"id":18,"left_children":[1,3,-1,5,-1,7,-1,9,-1,11,13,15,-1,17,19,-1,-1,-1,-1,-1,-1],"loss_changes":[2.7246801E1,1.2694315E0,0E0,2.505948E-1,0E0,2.0304865E-1,0E0,3.247021E-2,0E0,5.2947447E-2,3.7512798E-2,2.749139E-2,0E0,1.3878701E-2,4.895153E-2,0E0,0E0,0E0,0E0,0E0,0E0],"parents":[2147483647,0,0,1,1,3,3,5,5,7,7,9,9,10,10,11,11,13,13,14,14],"right_children":[2,4,-1,6,-1,8,-1,10,-1,12,14,16,-1,18,20,-1,-1,-1,-1,-1,-1],"split_conditions":[9.384744E-2,5E0,2.1205962E-1,6.5755304E-3,-4.835854E-2,1.3264418E-3,1.8313002E-2,2.4272526E-4,-2.0569082E-2,1E0,1.1869683E-1,5.8393294E-7,-1.1785419E-2,1E0,4.889336E-4,-8.995393E-3,-2.094207E-3,-2.0058255E-3,2.3294857E-3,9.782731E-3,-1.1525684E-3],"split_indices":[12,58,0,331,0,313,0,340,0,29,6,7,0,38,312,0,0,0,0,0,0],"split_type":[0,0,0,0,0,0,0,0,0,0,0,0,0,0,0,0,0,0,0,0,0],"sum_hessian":[3.83E2,3.78E2,5E0,3.73E2,5E0,3.68E2,5E0,3.63E2,5E0,2.97E2,6.6E1,2.92E2,5E0,5.1E1,1.5E1,5E0,2.87E2,4.3E1,8E0,7E0,8E0],"tree_param":{"num_deleted":"0","num_feature":"474","num_nodes":"21","size_leaf_vector":"1"}},{"base_weights":[6.0431915E-3,-2.6078658E-2,2.0340662E-1,-1.9364597E-2,-3.8011663E-2,-1.6889246E-2,-1.6795872E-2,-1.9240893E-2,1.2820027E-2,-1.6961718E-2,-1.5202487E-2,-8.070223E-3,-1.583026E-2,-1.993374E-3,-4.7949524E-4],"categories":[],"categories_nodes":[],"categories_segments":[],"categories_sizes":[],"default_left":[0,0,0,0,0,0,0,0,0,0,0,0,0,0,0],"id":19,"left_children":[1,3,-1,5,-1,7,-1,9,-1,11,-1,-1,13,-1,-1],"loss_changes":[2.5068283E1,8.9353436E-1,0E0,1.3436116E-1,0E0,1.2802804E-1,0E0,1.0727896E-1,0E0,2.4541326E-2,0E0,0E0,1.5889376E-2,0E0,0E0],"parents":[2147483647,0,0,1,1,3,3,5,5,7,7,9,9,12,12],"right_children":[2,4,-1,6,-1,8,-1,10,-1,12,-1,-1,14,-1,-1],"split_conditions":[1.4189756E-2,9E0,2.0340662E-1,7.182689E-7,-3.8011663E-2,5E0,-1.6795872E-2,3.1040173E-3,1.2820027E-2,7.7275084E-3,-1.5202487E-2,-8.070223E-3,1.8052594E-4,-1.993374E-3,-4.7949524E-4],"split_indices":[329,57,0,10,0,127,0,331,0,6,0,0,340,0,0],"split_type":[0,0,0,0,0,0,0,0,0,0,0,0,0,0,0],"sum_hessian":[3.83E2,3.78E2,5E0,3.72E2,6E0,3.67E2,5E0,3.62E2,5E0,3.57E2,5E0,5E0,3.52E2,2.56E2,9.6E1],"tree_param":{"num_deleted":"0","num_feature":"474","num_nodes":"15","size_leaf_vector":"1"}},{"base_weights":[5.792191E-3,-2.7592156E-2,1.8077195E-1,-1.802669E-2,-5.3198654E-2,-1.5044864E-2,-1.974106E-2,-1.720046E-2,1.1751692E-2,-1.5099244E-2,-1.3935611E-2,-7.397704E-3,-1.405275E-2,-1.4872489E-3,3.5697606E-3],"categories":[],"categories_nodes":[],"categories_segments":[],"categories_sizes":[],"default_left":[0,0,0,0,0,0,0,0,0,0,0,0,0,0,0],"id":20,"left_children":[1,3,-1,5,-1,7,-1,9,-1,11,-1,-1,13,-1,-1],"loss_changes":[2.3149847E1,1.8141719E0,0E0,1.9600967E-1,0E0,1.0689147E-1,0E0,9.0812355E-2,0E0,2.0957075E-2,0E0,0E0,1.488629E-2,0E0,0E0],"parents":[2147483647,0,0,1,1,3,3,5,5,7,7,9,9,12,12],"right_children":[2,4,-1,6,-1,8,-1,10,-1,12,-1,-1,14,-1,-1],"split_conditions":[1E0,9E0,1.8077195E-1,1.545539E-6,-5.3198654E-2,5E0,-1.974106E-2,3.1040173E-3,1.1751692E-2,7.7275084E-3,-1.3935611E-2,-7.397704E-3,1E0,-1.4872489E-3,3.5697606E-3],"split_indices":[91,57,0,10,0,127,0,331,0,6,0,0,149,0,0],"split_type":[0,0,0,0,0,0,0,0,0,0,0,0,0,0,0],"sum_hessian":[3.83E2,3.77E2,6E0,3.71E2,6E0,3.66E2,5E0,3.61E2,5E0,3.56E2,5E0,5E0,3.51E2,3.46E2,5E0],"tree_param":{"num_deleted":"0","num_feature":"474","num_nodes":"15","size_leaf_vector":"1"}},{"base_weights":[5.4742577E-3,-2.4488902E-2,1.8972348E-1,-1.5393116E-2,-4.4438187E-2,-1.2637561E-2,-1.8137567E-2,-1.5668282E-2,1.723222E-2,-1.3891497E-2,-7.682199E-3,-1.2461389E-2,-4.7630437E-2,-1.6043432E-3,2.373557E-4,-9.055556E-3,-1.3721421E-3],"categories":[],"categories_nodes":[],"categories_segments":[],"categories_sizes":[],"default_left":[0,0,0,0,0,0,0,0,0,0,0,0,0,0,0,0,0],"id":21,"left_children":[1,3,-1,5,-1,7,-1,9,-1,11,-1,13,15,-1,-1,-1,-1],"loss_changes":[2.1812782E1,1.4406579E0,0E0,1.6785097E-1,0E0,2.0842606E-1,0E0,3.8266666E-2,0E0,1.6438827E-2,0E0,1.8105485E-2,1.9135132E-2,0E0,0E0,0E0,0E0],"parents":[2147483647,0,0,1,1,3,3,5,5,7,7,9,9,11,11,12,12],"right_children":[2,4,-1,6,-1,8,-1,10,-1,12,-1,14,16,-1,-1,-1,-1],"split_conditions":[8E0,9E0,1.8972348E-1,1.4797646E-2,-4.4438187E-2,3E0,-1.8137567E-2,3E0,1.723222E-2,7.459965E-4,-7.682199E-3,3.0024137E-4,3.9092975E-4,-1.6043432E-3,2.373557E-4,-9.055556E-3,-1.3721421E-3],"split_indices":[456,57,0,9,0,131,0,286,0,312,0,336,333,0,0,0,0],"split_type":[0,0,0,0,0,0,0,0,0,0,0,0,0,0,0,0,0],"sum_hessian":[3.83E2,3.78E2,5E0,3.71E2,7E0,3.66E2,5E0,3.61E2,5E0,3.52E2,9E0,3.39E2,1.3E1,2.73E2,6.6E1,5E0,8E0],"tree_param":{"num_deleted":"0","num_feature":"474","num_nodes":"17","size_leaf_vector":"1"}},{"base_weights":[5.2521024E-3,-2.3605376E-2,1.8272077E-1,-1.4084702E-2,-4.134459E-2,-1.10576E-2,-1.6991438E-2,-1.3923714E-2,1.6275218E-2,-1.2289051E-2,-6.9908015E-3,-1.5229803E-2,3.1462268E-3,-1.3766853E-3,-8.340076E-3,6.1697015E-3,-3.670138E-4],"categories":[],"categories_nodes":[],"categories_segments":[],"categories_sizes":[],"default_left":[0,0,0,0,0,0,0,0,0,0,0,0,0,0,0,0,0],"id":22,"left_children":[1,3,-1,5,-1,7,-1,9,-1,11,-1,13,15,-1,-1,-1,-1],"loss_changes":[2.0232714E1,1.400852E0,0E0,1.7312646E-1,0E0,1.8409401E-1,0E0,3.208646E-2,0E0,1.5980266E-2,0E0,2.827239E-2,2.2975335E-2,0E0,0E0,0E0,0E0],"parents":[2147483647,0,0,1,1,3,3,5,5,7,7,9,9,11,11,12,12],"right_children":[2,4,-1,6,-1,8,-1,10,-1,12,-1,14,16,-1,-1,-1,-1],"split_conditions":[2.7888222E-2,9E0,1.8272077E-1,2E0,-4.134459E-2,2E0,-1.6991438E-2,3E0,1.6275218E-2,4.1262832E-4,-6.9908015E-3,8.357763E-4,1.3875961E-4,-1.3766853E-3,-8.340076E-3,6.1697015E-3,-3.670138E-4],"split_indices":[9,57,0,452,0,131,0,286,0,336,0,314,315,0,0,0,0],"split_type":[0,0,0,0,0,0,0,0,0,0,0,0,0,0,0,0,0],"sum_hessian":[3.83E2,3.78E2,5E0,3.7E2,8E0,3.64E2,6E0,3.59E2,5E0,3.5E2,9E0,2.94E2,5.6E1,2.89E2,5E0,5E0,5.1E1],"tree_param":{"num_deleted":"0","num_feature":"474","num_nodes":"17","size_leaf_vector":"1"}},{"base_weights":[5.0647995E-3,-2.2975417E-2,1.7754278E-1,-1.6538741E-2,-4.2036563E-2,-1.2390876E-2,-2.6887601E-2,-9.199872E-3,-1.7609714E-2,-1.1608877E-2,1.3607079E-2,-1.004159E-2,-4.245614E-2,-1.1531361E-3,3.5835311E-3,-7.5857528E-3,-1.7341061E-3],"categories":[],"categories_nodes":[],"categories_segments":[],"categories_sizes":[],"default_left":[0,0,0,0,0,0,0,0,0,0,0,0,0,0,0,0,0],"id":23,"left_children":[1,3,-1,5,-1,7,-1,9,-1,11,-1,13,15,-1,-1,-1,-1],"loss_changes":[1.9103073E1,9.6248114E-1,0E0,3.8811964E-1,0E0,1.911409E-1,0E0,1.2861435E-1,0E0,1.688173E-2,0E0,2.3787607E-2,1.2945486E-2,0E0,0E0,0E0,0E0],"parents":[2147483647,0,0,1,1,3,3,5,5,7,7,9,9,11,11,12,12],"right_children":[2,4,-1,6,-1,8,-1,10,-1,12,-1,14,16,-1,-1,-1,-1],"split_conditions":[1.3326049E-2,1.8944444E2,1.7754278E-1,1.545539E-6,-4.2036563E-2,2.4E1,-2.6887601E-2,2.385631E-3,-1.7609714E-2,6.982817E-4,1.3607079E-2,7.692339E-4,3.1217342E-4,-1.1531361E-3,3.5835311E-3,-7.5857528E-3,-1.7341061E-3],"split_indices":[315,461,0,10,0,39,0,336,0,312,0,323,335,0,0,0,0],"split_type":[0,0,0,0,0,0,0,0,0,0,0,0,0,0,0,0,0],"sum_hessian":[3.83E2,3.78E2,5E0,3.73E2,5E0,3.68E2,5E0,3.62E2,6E0,3.57E2,5E0,3.41E2,1.6E1,3.31E2,1E1,6E0,1E1],"tree_param":{"num_deleted":"0","num_feature":"474","num_nodes":"17","size_leaf_vector":"1"}},{"base_weights":[4.8128176E-3,-2.172561E-2,1.6803548E-1,-1.4256469E-2,-4.8368115E-2,-1.1350135E-2,-1.9061994E-2,-8.505833E-3,-1.3863603E-2,-1.0722108E-2,1.2478018E-2,4.0540737E-3,-1.1713897E-2,-1.4966925E-3,4.6395167E-4],"categories":[],"categories_nodes":[],"categories_segments":[],"categories_sizes":[],"default_left":[0,0,0,0,0,0,0,0,0,0,0,0,0,0,0],"id":24,"left_children":[1,3,-1,5,-1,7,-1,9,-1,11,-1,-1,13,-1,-1],"loss_changes":[1.7111546E1,1.3008103E0,0E0,1.8953803E-1,0E0,1.3241336E-1,0E0,1.0827216E-1,0E0,1.8625453E-2,0E0,0E0,1.874198E-2,0E0,0E0],"parents":[2147483647,0,0,1,1,3,3,5,5,7,7,9,9,12,12],"right_children":[2,4,-1,6,-1,8,-1,10,-1,12,-1,-1,14,-1,-1],"split_conditions":[2E0,5E0,1.6803548E-1,1.0371819E-2,-4.8368115E-2,4.755021E-2,-1.9061994E-2,3E0,-1.3863603E-2,7.7E1,1.2478018E-2,4.0540737E-3,4.1262832E-4,-1.4966925E-3,4.6395167E-4],"split_indices":[472,108,0,9,0,12,0,131,0,0,0,0,336,0,0],"split_type":[0,0,0,0,0,0,0,0,0,0,0,0,0,0,0],"sum_hessian":[3.83E2,3.78E2,5E0,3.73E2,5E0,3.68E2,5E0,3.61E2,7E0,3.56E2,5E0,6E0,3.5E2,2.92E2,5.8E1],"tree_param":{"num_deleted":"0","num_feature":"474","num_nodes":"15","size_leaf_vector":"1"}},{"base_weights":[4.597786E-3,1.6101484E-1,-2.0832032E-2,-1.24135185E-2,-4.096889E-2,-8.720837E-3,-2.3621365E-2,-5.956203E-3,-1.5005109E-2,-8.10831E-3,1.2272818E-2,-1.0950123E-2,6.681522E-3,-1.210464E-3,2.362591E-3,-9.078162E-5,7.2607086E-3],"categories":[],"categories_nodes":[],"categories_segments":[],"categories_sizes":[],"default_left":[0,0,0,0,0,0,0,0,0,0,0,0,0,0,0,0,0],"id":25,"left_children":[1,-1,3,5,-1,7,-1,9,-1,11,-1,13,15,-1,-1,-1,-1],"loss_changes":[1.5711824E1,0E0,1.2356076E0,3.0536932E-1,0E0,1.4250281E-1,0E0,1.00971386E-1,0E0,1.5035817E-2,0E0,1.222166E-2,2.9085137E-2,0E0,0E0,0E0,0E0],"parents":[2147483647,0,0,2,2,3,3,5,5,7,7,9,9,11,11,12,12],"right_children":[2,-1,4,6,-1,8,-1,10,-1,12,-1,14,16,-1,-1,-1,-1],"split_conditions":[1.9586552E-7,1.6101484E-1,1.8944444E2,1.545539E-6,-4.096889E-2,2.4E1,-2.3621365E-2,2.385631E-3,-1.5005109E-2,1E0,1.2272818E-2,1E0,6.063935E-8,-1.210464E-3,2.362591E-3,-9.078162E-5,7.2607086E-3],"split_indices":[7,0,461,10,0,39,0,336,0,138,0,174,5,0,0,0,0],"split_type":[0,0,0,0,0,0,0,0,0,0,0,0,0,0,0,0,0],"sum_hessian":[3.83E2,5E0,3.78E2,3.71E2,7E0,3.66E2,5E0,3.6E2,6E0,3.55E2,5E0,2.98E2,5.7E1,2.89E2,9E0,5.2E1,5E0],"tree_param":{"num_deleted":"0","num_feature":"474","num_nodes":"17","size_leaf_vector":"1"}},{"base_weights":[4.40367E-3,-2.0346627E-2,1.5670636E-1,-1.1307959E-2,-4.9907185E-2,-8.747864E-3,-1.6644252E-2,-1.0934355E-2,1.2499282E-2,-8.304959E-3,-9.4320014E-2,-6.6262824E-3,-4.847961E-2,-1.6935311E-2,-3.5669233E-4,-7.6533976E-4,4.33284E-3,-1.00935185E-2,-8.1226026E-4],"categories":[],"categories_nodes":[],"categories_segments":[],"categories_sizes":[],"default_left":[0,0,0,0,0,0,0,0,0,0,0,0,0,0,0,0,0,0,0],"id":26,"left_children":[1,3,-1,5,-1,7,-1,9,-1,11,13,15,17,-1,-1,-1,-1,-1,-1],"loss_changes":[1.4883582E1,1.634304E0,0E0,1.4668445E-1,0E0,1.08978316E-1,0E0,7.8805834E-2,0E0,2.3485165E-2,7.430027E-2,1.7776739E-2,2.8817445E-2,0E0,0E0,0E0,0E0,0E0,0E0],"parents":[2147483647,0,0,1,1,3,3,5,5,7,7,9,9,10,10,11,11,12,12],"right_children":[2,4,-1,6,-1,8,-1,10,-1,12,14,16,18,-1,-1,-1,-1,-1,-1],"split_conditions":[9.384744E-2,7.7920146E-3,1.5670636E-1,1.0371819E-2,-4.9907185E-2,3E0,-1.6644252E-2,3E0,1.2499282E-2,8.357763E-4,2.0260284E-4,5E0,2.7376192E-4,-1.6935311E-2,-3.5669233E-4,-7.6533976E-4,4.33284E-3,-1.00935185E-2,-8.1226026E-4],"split_indices":[12,329,0,9,0,131,0,286,0,314,323,57,340,0,0,0,0,0,0],"split_type":[0,0,0,0,0,0,0,0,0,0,0,0,0,0,0,0,0,0,0],"sum_hessian":[3.83E2,3.78E2,5E0,3.72E2,6E0,3.67E2,5E0,3.62E2,5E0,3.52E2,1E1,3.39E2,1.3E1,5E0,5E0,3.33E2,6E0,5E0,8E0],"tree_param":{"num_deleted":"0","num_feature":"474","num_nodes":"19","size_leaf_vector":"1"}},{"base_weights":[4.1664895E-3,-2.0006498E-2,1.5303992E-1,-1.2658653E-2,-4.7468785E-2,-9.030332E-3,-2.3369059E-2,-5.893097E-3,-1.49861425E-2,-8.254916E-3,9.964928E-3,-6.7202267E-3,-5.156144E-2,4.2245607E-3,-7.71443E-4,-9.574889E-3,-6.320573E-4],"categories":[],"categories_nodes":[],"categories_segments":[],"categories_sizes":[],"default_left":[0,0,0,0,0,0,0,0,0,0,0,0,0,0,0,0,0],"id":27,"left_children":[1,3,-1,5,-1,7,-1,9,-1,11,-1,13,15,-1,-1,-1,-1],"loss_changes":[1.4197762E1,1.260203E0,0E0,2.9782826E-1,0E0,1.621485E-1,0E0,9.1059074E-2,0E0,2.324753E-2,0E0,1.7072503E-2,2.3383755E-2,0E0,0E0,0E0,0E0],"parents":[2147483647,0,0,1,1,3,3,5,5,7,7,9,9,11,11,12,12],"right_children":[2,4,-1,6,-1,8,-1,10,-1,12,-1,14,16,-1,-1,-1,-1],"split_conditions":[1.4189756E-2,1.65E2,1.5303992E-1,1.545539E-6,-4.7468785E-2,1E0,-2.3369059E-2,6.412332E-3,-1.49861425E-2,8.357763E-4,9.964928E-3,7.7E1,3.2014647E-4,4.2245607E-3,-7.71443E-4,-9.574889E-3,-6.320573E-4],"split_indices":[329,450,0,10,0,309,0,15,0,314,0,0,340,0,0,0,0],"split_type":[0,0,0,0,0,0,0,0,0,0,0,0,0,0,0,0,0],"sum_hessian":[3.83E2,3.78E2,5E0,3.73E2,5E0,3.68E2,5E0,3.61E2,7E0,3.54E2,7E0,3.43E2,1.1E1,6E0,3.37E2,5E0,6E0],"tree_param":{"num_deleted":"0","num_feature":"474","num_nodes":"17","size_leaf_vector":"1"}},{"base_weights":[3.9332467E-3,-2.104954E-2,1.3524419E-1,-1.1559225E-2,-5.22385E-2,-7.829768E-3,-2.0490522E-2,-9.643344E-3,1.0259203E-2,-7.959592E-3,-1.0793871E-2,-1.02198385E-2,-6.325996E-3,-4.5331684E-4,-5.25908E-3],"categories":[],"categories_nodes":[],"categories_segments":[],"categories_sizes":[],"default_left":[0,0,0,0,0,0,0,0,0,0,0,0,0,0,0],"id":28,"left_children":[1,3,-1,5,-1,7,-1,9,-1,11,-1,-1,13,-1,-1],"loss_changes":[1.2965239E1,1.7924223E0,0E0,2.6663572E-1,0E0,7.428387E-2,0E0,5.8888145E-2,0E0,5.415903E-2,0E0,0E0,2.887522E-2,0E0,0E0],"parents":[2147483647,0,0,1,1,3,3,5,5,7,7,9,9,12,12],"right_children":[2,4,-1,6,-1,8,-1,10,-1,12,-1,-1,14,-1,-1],"split_conditions":[1E0,9E0,1.3524419E-1,4.7553596E-3,-5.22385E-2,2.9728916E-3,-2.0490522E-2,1.6374469E-7,1.0259203E-2,7.7275084E-3,-1.0793871E-2,-1.02198385E-2,1E0,-4.5331684E-4,-5.25908E-3],"split_indices":[91,57,0,323,0,332,0,14,0,6,0,0,29,0,0],"split_type":[0,0,0,0,0,0,0,0,0,0,0,0,0,0,0],"sum_hessian":[3.83E2,3.77E2,6E0,3.71E2,6E0,3.65E2,6E0,3.6E2,5E0,3.55E2,5E0,5E0,3.5E2,3.38E2,1.2E1],"tree_param":{"num_deleted":"0","num_feature":"474","num_nodes":"15","size_leaf_vector":"1"}},{"base_weights":[3.6598432E-3,-2.0560741E-2,1.3110487E-1,-1.1557903E-2,-4.960601E-2,-7.699395E-3,-1.663289E-2,-9.956882E-3,1.2865682E-2,-7.5352467E-3,-1.5117389E-2,-9.368184E-3,-6.032625E-3,3.8307186E-3,-6.9199316E-4],"categories":[],"categories_nodes":[],"categories_segments":[],"categories_sizes":[],"default_left":[0,0,0,0,0,0,0,0,0,0,0,0,0,0,0],"id":29,"left_children":[1,3,-1,5,-1,7,-1,9,-1,11,-1,-1,13,-1,-1],"loss_changes":[1.2186593E1,1.6124258E0,0E0,2.2087224E-1,0E0,1.1332836E-1,0E0,1.21630296E-1,0E0,4.5258638E-2,0E0,0E0,1.3995788E-2,0E0,0E0],"parents":[2147483647,0,0,1,1,3,3,5,5,7,7,9,9,12,12],"right_children":[2,4,-1,6,-1,8,-1,10,-1,12,-1,-1,14,-1,-1],"split_conditions":[1E0,7.7920146E-3,1.3110487E-1,4.755021E-2,-4.960601E-2,3E0,-1.663289E-2,6.526266E-7,1.2865682E-2,7.7275084E-3,-1.5117389E-2,-9.368184E-3,7.7E1,3.8307186E-3,-6.9199316E-4],"split_indices":[180,329,0,12,0,131,0,10,0,6,0,0,0,0,0],"split_type":[0,0,0,0,0,0,0,0,0,0,0,0,0,0,0],"sum_hessian":[3.83E2,3.77E2,6E0,3.71E2,6E0,3.63E2,8E0,3.58E2,5E0,3.53E2,5E0,5E0,3.48E2,6E0,3.42E2],"tree_param":{"num_deleted":"0","num_feature":"474","num_nodes":"15","size_leaf_vector":"1"}},{"base_weights":[3.4406981E-3,-1.8304355E-2,1.3764298E-1,-9.061946E-3,-4.4578835E-2,-5.9430045E-3,-1.9832682E-2,-8.307139E-3,8.902005E-3,-6.1792233E-3,-9.037286E-3,-4.2112437E-3,-6.142371E-2,-5.63137E-4,3.5074824E-3,-9.708835E-3,-9.577688E-4],"categories":[],"categories_nodes":[],"categories_segments":[],"categories_sizes":[],"default_left":[0,0,0,0,0,0,0,0,0,0,0,0,0,0,0,0,0],"id":30,"left_children":[1,3,-1,5,-1,7,-1,9,-1,11,-1,13,15,-1,-1,-1,-1],"loss_changes":[1.148979E1,1.4933826E0,0E0,2.1841511E-1,0E0,8.313301E-2,0E0,6.213338E-2,0E0,3.7902057E-2,0E0,1.9166518E-2,2.125895E-2,0E0,0E0,0E0,0E0],"parents":[2147483647,0,0,1,1,3,3,5,5,7,7,9,9,11,11,12,12],"right_children":[2,4,-1,6,-1,8,-1,10,-1,12,-1,14,16,-1,-1,-1,-1],"split_conditions":[8E0,9E0,1.3764298E-1,1.545539E-6,-4.4578835E-2,2.0825984E-3,-1.9832682E-2,3E0,8.902005E-3,7.459965E-4,-9.037286E-3,7.692339E-4,1E0,-5.63137E-4,3.5074824E-3,-9.708835E-3,-9.577688E-4],"split_indices":[456,57,0,10,0,341,0,286,0,312,0,323,26,0,0,0,0],"split_type":[0,0,0,0,0,0,0,0,0,0,0,0,0,0,0,0,0],"sum_hessian":[3.83E2,3.78E2,5E0,3.71E2,7E0,3.66E2,5E0,3.58E2,8E0,3.5E2,8E0,3.39E2,1.1E1,3.28E2,1.1E1,6E0,5E0],"tree_param":{"num_deleted":"0","num_feature":"474","num_nodes":"17","size_leaf_vector":"1"}},{"base_weights":[3.2668689E-3,-1.7823204E-2,1.334912E-1,-8.380569E-3,-4.0508922E-2,-5.125149E-3,-2.055644E-2,-7.026492E-3,1.1012651E-2,-5.199695E-3,-7.0627118E-3,-3.457941E-3,-5.035328E-2,-6.879933E-4,1.3652651E-3,-8.9615973E-4,-9.714997E-3],"categories":[],"categories_nodes":[],"categories_segments":[],"categories_sizes":[],"default_left":[0,0,0,0,0,0,0,0,0,0,0,0,0,0,0,0,0],"id":31,"left_children":[1,3,-1,5,-1,7,-1,9,-1,11,-1,13,15,-1,-1,-1,-1],"loss_changes":[1.0808238E1,1.3825368E0,0E0,2.3709732E-1,0E0,8.097646E-2,0E0,4.1575707E-2,0E0,2.7509425E-2,0E0,2.0001717E-2,2.4310302E-2,0E0,0E0,0E0,0E0],"parents":[2147483647,0,0,1,1,3,3,5,5,7,7,9,9,11,11,12,12],"right_children":[2,4,-1,6,-1,8,-1,10,-1,12,-1,14,16,-1,-1,-1,-1],"split_conditions":[2.7888222E-2,9E0,1.334912E-1,9E0,-4.0508922E-2,3.3869965E-3,-2.055644E-2,3E0,1.1012651E-2,8.357763E-4,-7.0627118E-3,3.090834E-4,1E0,-6.879933E-4,1.3652651E-3,-8.9615973E-4,-9.714997E-3],"split_indices":[9,57,0,470,0,329,0,286,0,314,0,334,144,0,0,0,0],"split_type":[0,0,0,0,0,0,0,0,0,0,0,0,0,0,0,0,0],"sum_hessian":[3.83E2,3.78E2,5E0,3.7E2,8E0,3.65E2,5E0,3.6E2,5E0,3.51E2,9E0,3.39E2,1.2E1,2.83E2,5.6E1,7E0,5E0],"tree_param":{"num_deleted":"0","num_feature":"474","num_nodes":"17","size_leaf_vector":"1"}},{"base_weights":[3.1132023E-3,-1.7089875E-2,1.2787555E-1,-1.0540274E-2,-4.2250004E-2,-6.7398944E-3,-2.425069E-2,-3.813261E-3,-1.575439E-2,-5.6389645E-3,8.984239E-3,-8.204612E-3,-4.3205502E-3,-3.309791E-4,-4.2473967E-3],"categories":[],"categories_nodes":[],"categories_segments":[],"categories_sizes":[],"default_left":[0,0,0,0,0,0,0,0,0,0,0,0,0,0,0],"id":32,"left_children":[1,3,-1,5,-1,7,-1,9,-1,11,-1,-1,13,-1,-1],"loss_changes":[9.918262E0,1.001896E0,0E0,3.280694E-1,0E0,1.6225666E-1,0E0,6.2575065E-2,0E0,3.560837E-2,0E0,0E0,1.3433926E-2,0E0,0E0],"parents":[2147483647,0,0,1,1,3,3,5,5,7,7,9,9,12,12],"right_children":[2,4,-1,6,-1,8,-1,10,-1,12,-1,-1,14,-1,-1],"split_conditions":[1.4189756E-2,1.65E2,1.2787555E-1,1.545539E-6,-4.2250004E-2,2.4E1,-2.425069E-2,2.0825984E-3,-1.575439E-2,5.8364463E-7,8.984239E-3,-8.204612E-3,1.1616475E-3,-3.309791E-4,-4.2473967E-3],"split_indices":[329,450,0,10,0,39,0,341,0,7,0,0,342,0,0],"split_type":[0,0,0,0,0,0,0,0,0,0,0,0,0,0,0],"sum_hessian":[3.83E2,3.78E2,5E0,3.73E2,5E0,3.68E2,5E0,3.62E2,6E0,3.56E2,6E0,5E0,3.51E2,3.43E2,8E0],"tree_param":{"num_deleted":"0","num_feature":"474","num_nodes":"15","size_leaf_vector":"1"}},{"base_weights":[2.910796E-3,-1.6903084E-2,1.2540023E-1,-1.0165883E-2,-4.3403804E-2,-6.1188913E-3,-2.5736157E-2,-3.4423966E-3,-1.4404014E-2,-5.469583E-3,7.690133E-3,-7.414614E-3,-4.2766435E-3,-5.133734E-4,3.8454186E-3],"categories":[],"categories_nodes":[],"categories_segments":[],"categories_sizes":[],"default_left":[0,0,0,0,0,0,0,0,0,0,0,0,0,0,0],"id":33,"left_children":[1,3,-1,5,-1,7,-1,9,-1,11,-1,-1,13,-1,-1],"loss_changes":[9.540164E0,1.0606996E0,0E0,3.725744E-1,0E0,1.3571882E-1,0E0,5.954306E-2,0E0,2.8766986E-2,0E0,0E0,1.3015879E-2,0E0,0E0],"parents":[2147483647,0,0,1,1,3,3,5,5,7,7,9,9,12,12],"right_children":[2,4,-1,6,-1,8,-1,10,-1,12,-1,-1,14,-1,-1],"split_conditions":[1.3326049E-2,1.8944444E2,1.2540023E-1,1.545539E-6,-4.3403804E-2,2.4E1,-2.5736157E-2,6.412332E-3,-1.4404014E-2,7.7275084E-3,7.690133E-3,-7.414614E-3,5.109259E-3,-5.133734E-4,3.8454186E-3],"split_indices":[315,461,0,10,0,39,0,15,0,6,0,0,9,0,0],"split_type":[0,0,0,0,0,0,0,0,0,0,0,0,0,0,0],"sum_hessian":[3.83E2,3.78E2,5E0,3.73E2,5E0,3.68E2,5E0,3.62E2,6E0,3.54E2,8E0,5E0,3.49E2,3.43E2,6E0],"tree_param":{"num_deleted":"0","num_feature":"474","num_nodes":"15","size_leaf_vector":"1"}},{"base_weights":[2.7381114E-3,-1.7692115E-2,1.1055793E-1,-8.592092E-3,-4.3749418E-2,-5.652E-3,-1.8650569E-2,-3.1749532E-3,-1.5374568E-2,-5.0942325E-3,8.215004E-3,-6.7967298E-3,-3.998724E-3,-6.583626E-4,9.3587313E-4],"categories":[],"categories_nodes":[],"categories_segments":[],"categories_sizes":[],"default_left":[0,0,0,0,0,0,0,0,0,0,0,0,0,0,0],"id":34,"left_children":[1,3,-1,5,-1,7,-1,9,-1,11,-1,-1,13,-1,-1],"loss_changes":[8.671577E0,1.44028E0,0E0,1.9300944E-1,0E0,1.3377349E-1,0E0,5.9536755E-2,0E0,2.4111032E-2,0E0,0E0,1.2111786E-2,0E0,0E0],"parents":[2147483647,0,0,1,1,3,3,5,5,7,7,9,9,12,12],"right_children":[2,4,-1,6,-1,8,-1,10,-1,12,-1,-1,14,-1,-1],"split_conditions":[1E0,2.76E2,1.1055793E-1,7.1689524E-2,-4.3749418E-2,7.7121113E-3,-1.8650569E-2,2.2946093E-3,-1.5374568E-2,7.7275084E-3,8.215004E-3,-6.7967298E-3,1E0,-6.583626E-4,9.3587313E-4],"split_indices":[91,1,0,12,0,9,0,336,0,6,0,0,138,0,0],"split_type":[0,0,0,0,0,0,0,0,0,0,0,0,0,0,0],"sum_hessian":[3.83E2,3.77E2,6E0,3.7E2,7E0,3.65E2,5E0,3.6E2,5E0,3.53E2,7E0,5E0,3.48E2,2.92E2,5.6E1],"tree_param":{"num_deleted":"0","num_feature":"474","num_nodes":"15","size_leaf_vector":"1"}},{"base_weights":[2.554092E-3,-1.5723169E-2,1.1566421E-1,-8.435223E-3,-4.6738457E-2,-5.2680676E-3,-1.5267409E-2,-3.004916E-3,-1.4093353E-2,-5.0040805E-3,1.1644619E-2,-3.7539552E-3,-5.9071537E-3,-6.230335E-3,-2.724824E-4],"categories":[],"categories_nodes":[],"categories_segments":[],"categories_sizes":[],"default_left":[0,0,0,0,0,0,0,0,0,0,0,0,0,0,0],"id":35,"left_children":[1,3,-1,5,-1,7,-1,9,-1,11,-1,13,-1,-1,-1],"loss_changes":[8.118115E0,1.2436056E0,0E0,1.7004898E-1,0E0,1.12257056E-1,0E0,8.702916E-2,0E0,2.3908261E-2,0E0,2.0919492E-2,0E0,0E0,0E0],"parents":[2147483647,0,0,1,1,3,3,5,5,7,7,9,9,11,11],"right_children":[2,4,-1,6,-1,8,-1,10,-1,12,-1,14,-1,-1,-1],"split_conditions":[8E0,5E0,1.1566421E-1,2E0,-4.6738457E-2,1.0371819E-2,-1.5267409E-2,2E0,-1.4093353E-2,1E0,1.1644619E-2,7.7275084E-3,-5.9071537E-3,-6.230335E-3,-2.724824E-4],"split_indices":[456,108,0,445,0,9,0,131,0,172,0,6,0,0,0],"split_type":[0,0,0,0,0,0,0,0,0,0,0,0,0,0,0],"sum_hessian":[3.83E2,3.78E2,5E0,3.73E2,5E0,3.66E2,7E0,3.61E2,5E0,3.56E2,5E0,3.49E2,7E0,5E0,3.44E2],"tree_param":{"num_deleted":"0","num_feature":"474","num_nodes":"15","size_leaf_vector":"1"}},{"base_weights":[2.3997219E-3,-1.5200403E-2,1.11374095E-1,-8.467671E-3,-4.323406E-2,-4.9498943E-3,-2.2339968E-2,-2.8883973E-3,-1.2918907E-2,-4.897182E-3,1.0025921E-2,-2.69125E-3,-4.4114E-2,-3.6709668E-4,4.443969E-3,-8.24592E-4,-1.2045386E-2],"categories":[],"categories_nodes":[],"categories_segments":[],"categories_sizes":[],"default_left":[0,0,0,0,0,0,0,0,0,0,0,0,0,0,0,0,0],"id":36,"left_children":[1,3,-1,5,-1,7,-1,9,-1,11,-1,13,15,-1,-1,-1,-1],"loss_changes":[7.5278716E0,1.0607581E0,0E0,2.8166917E-1,0E0,9.413465E-2,0E0,7.591226E-2,0E0,3.0851725E-2,0E0,1.5862627E-2,5.103187E-2,0E0,0E0,0E0,0E0],"parents":[2147483647,0,0,1,1,3,3,5,5,7,7,9,9,11,11,12,12],"right_children":[2,4,-1,6,-1,8,-1,10,-1,12,-1,14,16,-1,-1,-1,-1],"split_conditions":[1.4189756E-2,1.65E2,1.11374095E-1,4E0,-4.323406E-2,1.0371819E-2,-2.2339968E-2,2.3373095E-3,-1.2918907E-2,3.2E1,1.0025921E-2,1E0,1.8460767E-2,-3.6709668E-4,4.443969E-3,-8.24592E-4,-1.2045386E-2],"split_indices":[329,450,0,286,0,9,0,329,0,461,0,283,12,0,0,0,0],"split_type":[0,0,0,0,0,0,0,0,0,0,0,0,0,0,0,0,0],"sum_hessian":[3.83E2,3.78E2,5E0,3.73E2,5E0,3.68E2,5E0,3.63E2,5E0,3.57E2,6E0,3.39E2,1.8E1,3.33E2,6E0,1.3E1,5E0],"tree_param":{"num_deleted":"0","num_feature":"474","num_nodes":"17","size_leaf_vector":"1"}},{"base_weights":[2.248586E-3,-1.4976502E-2,1.0899252E-1,-8.266582E-3,-4.307321E-2,-4.6945624E-3,-2.2656802E-2,-1.6622291E-3,-1.6127205E-2,-3.2058442E-3,7.7299597E-3,-1.7053639E-3,-4.620254E-2,-5.2489685E-3,-6.547886E-5,-7.933981E-3,1.580324E-5],"categories":[],"categories_nodes":[],"categories_segments":[],"categories_sizes":[],"default_left":[0,0,0,0,0,0,0,0,0,0,0,0,0,0,0,0,0],"id":37,"left_children":[1,3,-1,5,-1,7,-1,9,-1,11,-1,13,15,-1,-1,-1,-1],"loss_changes":[7.2106886E0,1.0537306E0,0E0,2.9057294E-1,0E0,1.7493133E-1,0E0,4.4492673E-2,0E0,2.2953313E-2,0E0,1.8425683E-2,1.8447688E-2,0E0,0E0,0E0,0E0],"parents":[2147483647,0,0,1,1,3,3,5,5,7,7,9,9,11,11,12,12],"right_children":[2,4,-1,6,-1,8,-1,10,-1,12,-1,14,16,-1,-1,-1,-1],"split_conditions":[1.3326049E-2,1.8944444E2,1.0899252E-1,1.545539E-6,-4.307321E-2,2.4E1,-2.2656802E-2,2.0825984E-3,-1.6127205E-2,7.459965E-4,7.7299597E-3,1.2266074E-8,1E0,-5.2489685E-3,-6.547886E-5,-7.933981E-3,1.580324E-5],"split_indices":[315,461,0,10,0,39,0,341,0,312,0,5,26,0,0,0,0],"split_type":[0,0,0,0,0,0,0,0,0,0,0,0,0,0,0,0,0],"sum_hessian":[3.83E2,3.78E2,5E0,3.73E2,5E0,3.68E2,5E0,3.62E2,6E0,3.56E2,6E0,3.45E2,1.1E1,6E0,3.39E2,6E0,5E0],"tree_param":{"num_deleted":"0","num_feature":"474","num_nodes":"17","size_leaf_vector":"1"}},{"base_weights":[2.0800594E-3,-1.569145E-2,9.614444E-2,-4.608994E-3,-3.8502347E-1,-2.8404405E-3,-1.1083831E-2,-1.8716551E-2,-5.1871087E-2,-5.023949E-3,4.8151884E-2,-2.5941695E-3,-3.0774133E-2,3.6268836E-4,8.66579E-3,-5.0815414E-3,1.8478474E-2,-1.1013418E-2,-9.412885E-3,-3.9975136E-4,-5.5183913E-3,3.796415E-4,6.5720617E-3,-2.6370713E-3,1.3123866E-3],"categories":[],"categories_nodes":[],"categories_segments":[],"categories_sizes":[],"default_left":[0,0,0,0,0,0,0,0,0,0,0,0,0,0,0,0,0,0,0,0,0,0,0,0,0],"id":38,"left_children":[1,3,-1,5,7,9,-1,-1,-1,11,13,15,17,-1,-1,19,21,23,-1,-1,-1,-1,-1,-1,-1],"loss_changes":[6.562038E0,1.5454195E0,0E0,6.882215E-2,1.9387746E-1,4.065912E-2,0E0,0E0,0E0,2.1756142E-2,2.5402907E-2,1.686686E-2,3.6521345E-2,0E0,0E0,1.5367046E-2,2.3333302E-2,9.242487E-3,0E0,0E0,0E0,0E0,0E0,0E0,0E0],"parents":[2147483647,0,0,1,1,3,3,4,4,5,5,9,9,10,10,11,11,12,12,15,15,16,16,17,17],"right_children":[2,4,-1,6,8,10,-1,-1,-1,12,14,16,18,-1,-1,20,22,24,-1,-1,-1,-1,-1,-1,-1],"split_conditions":[4E0,3.930109E-3,9.614444E-2,1.0371819E-2,3.4164783E-1,1E0,-1.1083831E-2,-1.8716551E-2,-5.1871087E-2,7.405281E-4,1.28E2,7.10742E-8,1E0,3.6268836E-4,8.66579E-3,1E0,1E0,2.4254096E-4,-9.412885E-3,-3.9975136E-4,-5.5183913E-3,3.796415E-4,6.5720617E-3,-2.6370713E-3,1.3123866E-3],"split_indices":[74,336,0,9,3,292,0,0,0,317,1,4,24,0,0,161,138,323,0,0,0,0,0,0,0],"split_type":[0,0,0,0,0,0,0,0,0,0,0,0,0,0,0,0,0,0,0,0,0,0,0,0,0],"sum_hessian":[3.83E2,3.77E2,6E0,3.67E2,1E1,3.62E2,5E0,5E0,5E0,3.48E2,1.4E1,3.19E2,2.9E1,7E0,7E0,2.86E2,3.3E1,2.3E1,6E0,2.81E2,5E0,2.6E1,7E0,1.4E1,9E0],"tree_param":{"num_deleted":"0","num_feature":"474","num_nodes":"25","size_leaf_vector":"1"}},{"base_weights":[1.9079845E-3,-1.4235987E-2,1.02135085E-1,-6.9173793E-3,-4.6805654E-2,-4.0789293E-3,-1.362666E-2,-5.780455E-3,9.9259615E-3,-3.8384707E-3,-1.2036513E-2,-2.7819371E-3,-5.626773E-3,-1.0833594E-4,-2.8134151E-3],"categories":[],"categories_nodes":[],"categories_segments":[],"categories_sizes":[],"default_left":[0,0,0,0,0,0,0,0,0,0,0,0,0,0,0],"id":39,"left_children":[1,3,-1,5,-1,7,-1,9,-1,11,-1,13,-1,-1,-1],"loss_changes":[6.334357E0,1.255548E0,0E0,1.3675877E-1,0E0,6.510455E-2,0E0,8.009082E-2,0E0,1.9618865E-2,0E0,1.5084529E-2,0E0,0E0,0E0],"parents":[2147483647,0,0,1,1,3,3,5,5,7,7,9,9,11,11],"right_children":[2,4,-1,6,-1,8,-1,10,-1,12,-1,14,-1,-1,-1],"split_conditions":[2E0,5E0,1.02135085E-1,4.755021E-2,-4.6805654E-2,3E0,-1.362666E-2,2.565484E-7,9.9259615E-3,3E0,-1.2036513E-2,7.251501E-4,-5.626773E-3,-1.0833594E-4,-2.8134151E-3],"split_indices":[472,108,0,12,0,131,0,8,0,286,0,320,0,0,0],"split_type":[0,0,0,0,0,0,0,0,0,0,0,0,0,0,0],"sum_hessian":[3.83E2,3.78E2,5E0,3.73E2,5E0,3.66E2,7E0,3.61E2,5E0,3.56E2,5E0,3.5E2,6E0,3.29E2,2.1E1],"tree_param":{"num_deleted":"0","num_feature":"474","num_nodes":"15","size_leaf_vector":"1"}},{"base_weights":[1.7980275E-3,9.870306E-2,-1.3804065E-2,-5.8961497E-3,-3.7979662E-2,-2.8745981E-3,-1.897317E-2,4.931754E-4,-1.7614484E-2,-1.1316566E-3,6.41679E-3,-2.4458533E-3,3.9950263E-2,-1.3569978E-4,-4.270371E-3,2.119839E-3,5.2043754E-3],"categories":[],"categories_nodes":[],"categories_segments":[],"categories_sizes":[],"default_left":[0,0,0,0,0,0,0,0,0,0,0,0,0,0,0,0,0],"id":40,"left_children":[1,-1,3,5,-1,7,-1,9,-1,11,-1,13,15,-1,-1,-1,-1],"loss_changes":[5.9163537E0,0E0,1.094677E0,2.060889E-1,0E0,2.1424419E-1,0E0,3.742194E-2,0E0,1.9156083E-2,0E0,1.4977451E-2,1.3912898E-3,0E0,0E0,0E0,0E0],"parents":[2147483647,0,0,2,2,3,3,5,5,7,7,9,9,11,11,12,12],"right_children":[2,-1,4,6,-1,8,-1,10,-1,12,-1,14,16,-1,-1,-1,-1],"split_conditions":[1.9586552E-7,9.870306E-2,1.8944444E2,1.545539E-6,-3.7979662E-2,2.4E1,-1.897317E-2,6.412332E-3,-1.7614484E-2,3.1607926E-2,6.41679E-3,1.0710288E-3,1E0,-1.3569978E-4,-4.270371E-3,2.119839E-3,5.2043754E-3],"split_indices":[7,0,461,10,0,39,0,15,0,12,0,342,58,0,0,0,0],"split_type":[0,0,0,0,0,0,0,0,0,0,0,0,0,0,0,0,0],"sum_hessian":[3.83E2,5E0,3.78E2,3.71E2,7E0,3.66E2,5E0,3.6E2,6E0,3.52E2,8E0,3.42E2,1E1,3.34E2,8E0,5E0,5E0],"tree_param":{"num_deleted":"0","num_feature":"474","num_nodes":"17","size_leaf_vector":"1"}},{"base_weights":[1.705388E-3,-1.3334278E-2,9.514268E-2,-5.2572107E-3,-4.4182166E-2,-6.9835866E-3,1.0150336E-2,-4.548639E-3,-1.5313399E-2,-2.7833553E-3,-6.658481E-3,-8.1442995E-3,-1.4230653E-3,-5.906634E-4,1.5908256E-3],"categories":[],"categories_nodes":[],"categories_segments":[],"categories_sizes":[],"default_left":[0,0,0,0,0,0,0,0,0,0,0,0,0,0,0],"id":41,"left_children":[1,3,-1,5,-1,7,-1,9,-1,11,-1,-1,13,-1,-1],"loss_changes":[5.497547E0,1.3093665E0,0E0,6.9456056E-2,0E0,1.3026306E-1,0E0,3.956732E-2,0E0,3.7762076E-2,0E0,0E0,2.7213419E-2,0E0,0E0],"parents":[2147483647,0,0,1,1,3,3,5,5,7,7,9,9,12,12],"right_children":[2,4,-1,6,-1,8,-1,10,-1,12,-1,-1,14,-1,-1],"split_conditions":[9.384744E-2,7.7920146E-3,9.514268E-2,3E0,-4.4182166E-2,1.5026331E-3,1.0150336E-2,1E0,-1.5313399E-2,7.7275084E-3,-6.658481E-3,-8.1442995E-3,2.1133716E-4,-5.906634E-4,1.5908256E-3],"split_indices":[12,329,0,131,0,318,0,172,0,6,0,0,340,0,0],"split_type":[0,0,0,0,0,0,0,0,0,0,0,0,0,0,0],"sum_hessian":[3.83E2,3.78E2,5E0,3.72E2,6E0,3.67E2,5E0,3.62E2,5E0,3.53E2,9E0,5E0,3.48E2,2.77E2,7.1E1],"tree_param":{"num_deleted":"0","num_feature":"474","num_nodes":"15","size_leaf_vector":"1"}},{"base_weights":[1.6181722E-3,-1.3066435E-2,9.289262E-2,-6.5851375E-3,-4.148896E-2,-3.467301E-3,-1.9723458E-2,-5.289825E-3,9.153891E-3,-3.6187784E-3,-1.0411397E-2,-9.554465E-4,-5.108794E-2,-2.7183798E-4,3.0732492E-3,-1.4565642E-2,-6.909451E-4],"categories":[],"categories_nodes":[],"categories_segments":[],"categories_sizes":[],"default_left":[0,0,0,0,0,0,0,0,0,0,0,0,0,0,0,0,0],"id":42,"left_children":[1,3,-1,5,-1,7,-1,9,-1,11,-1,13,15,-1,-1,-1,-1],"loss_changes":[5.2411246E0,9.8431116E-1,0E0,2.2162688E-1,0E0,6.437699E-2,0E0,5.9568956E-2,0E0,4.5211744E-2,0E0,1.907721E-2,7.837355E-2,0E0,0E0,0E0,0E0],"parents":[2147483647,0,0,1,1,3,3,5,5,7,7,9,9,11,11,12,12],"right_children":[2,4,-1,6,-1,8,-1,10,-1,12,-1,14,16,-1,-1,-1,-1],"split_conditions":[1.4189756E-2,1.65E2,9.289262E-2,4E0,-4.148896E-2,2.3373095E-3,-1.9723458E-2,6.526266E-7,9.153891E-3,3.2E1,-1.0411397E-2,2E0,1.9502052E-8,-2.7183798E-4,3.0732492E-3,-1.4565642E-2,-6.909451E-4],"split_indices":[329,450,0,286,0,329,0,10,0,461,0,191,5,0,0,0,0],"split_type":[0,0,0,0,0,0,0,0,0,0,0,0,0,0,0,0,0],"sum_hessian":[3.83E2,3.78E2,5E0,3.73E2,5E0,3.68E2,5E0,3.62E2,6E0,3.57E2,5E0,3.39E2,1.8E1,3.22E2,1.7E1,5E0,1.3E1],"tree_param":{"num_deleted":"0","num_feature":"474","num_nodes":"17","size_leaf_vector":"1"}},{"base_weights":[1.5031465E-3,-1.3818882E-2,8.2867794E-2,-5.862584E-3,-4.346652E-2,-3.291563E-3,-1.2243259E-2,-1.6906804E-3,-9.879593E-3,-6.8271565E-3,-3.6933325E-4,-1.8121246E-3,3.7615586E-2,-2.7574232E-4,3.7998767E-3,-5.7404296E-4,7.559795E-3],"categories":[],"categories_nodes":[],"categories_segments":[],"categories_sizes":[],"default_left":[0,0,0,0,0,0,0,0,0,0,0,0,0,0,0,0,0],"id":43,"left_children":[1,3,-1,5,-1,7,-1,9,-1,-1,11,13,15,-1,-1,-1,-1],"loss_changes":[4.878266E0,1.2631388E0,0E0,1.1108686E-1,0E0,5.5638283E-2,0E0,3.1646308E-2,0E0,0E0,1.9468892E-2,1.2975325E-2,2.1841897E-2,0E0,0E0,0E0,0E0],"parents":[2147483647,0,0,1,1,3,3,5,5,7,7,10,10,11,11,12,12],"right_children":[2,4,-1,6,-1,8,-1,10,-1,-1,12,14,16,-1,-1,-1,-1],"split_conditions":[4.3636365E0,3.930109E-3,8.2867794E-2,2.4E1,-4.346652E-2,2.565484E-7,-1.2243259E-2,5.8364463E-7,-9.879593E-3,-6.8271565E-3,1E0,1E0,3.0624866E-4,-2.7574232E-4,3.7998767E-3,-5.7404296E-4,7.559795E-3],"split_indices":[466,336,0,39,0,8,0,7,0,0,174,310,313,0,0,0,0],"split_type":[0,0,0,0,0,0,0,0,0,0,0,0,0,0,0,0,0],"sum_hessian":[3.83E2,3.77E2,6E0,3.71E2,6E0,3.64E2,7E0,3.59E2,5E0,6E0,3.53E2,3.41E2,1.2E1,3.34E2,7E0,6E0,6E0],"tree_param":{"num_deleted":"0","num_feature":"474","num_nodes":"17","size_leaf_vector":"1"}},{"base_weights":[1.4074226E-3,-1.3489525E-2,8.0564156E-2,-5.425627E-3,-4.40101E-2,-1.8097601E-3,-2.2569187E-2,-4.0248795E-3,5.8819257E-2,-2.2781387E-3,-9.053742E-3,1.2421176E-3,8.626541E-3,-6.800736E-3,-1.1250763E-3,-1.9715645E-4,3.4673878E-3],"categories":[],"categories_nodes":[],"categories_segments":[],"categories_sizes":[],"default_left":[0,0,0,0,0,0,0,0,0,0,0,0,0,0,0,0,0],"id":44,"left_children":[1,3,-1,5,-1,7,-1,9,11,13,-1,-1,-1,-1,15,-1,-1],"loss_changes":[4.611431E0,1.2979894E0,0E0,2.9587224E-1,0E0,4.952503E-2,0E0,5.3439565E-2,1.5483316E-2,2.637416E-2,0E0,0E0,0E0,0E0,1.0492729E-2,0E0,0E0],"parents":[2147483647,0,0,1,1,3,3,5,5,7,7,8,8,9,9,14,14],"right_children":[2,4,-1,6,-1,8,-1,10,12,14,-1,-1,-1,-1,16,-1,-1],"split_conditions":[1E0,9E0,8.0564156E-2,3.930109E-3,-4.40101E-2,1.31E2,-2.2569187E-2,1.7313474E-7,2.476845E-3,7.7275084E-3,-9.053742E-3,1.2421176E-3,8.626541E-3,-6.800736E-3,1E0,-1.9715645E-4,3.4673878E-3],"split_indices":[91,57,0,336,0,1,0,8,12,6,0,0,0,0,310,0,0],"split_type":[0,0,0,0,0,0,0,0,0,0,0,0,0,0,0,0,0],"sum_hessian":[3.83E2,3.77E2,6E0,3.71E2,6E0,3.66E2,5E0,3.54E2,1.2E1,3.48E2,6E0,5E0,7E0,5E0,3.43E2,3.36E2,7E0],"tree_param":{"num_deleted":"0","num_feature":"474","num_nodes":"17","size_leaf_vector":"1"}},{"base_weights":[1.296026E-3,-1.2061109E-2,8.448057E-2,-3.5233519E-3,-3.626663E-2,-8.3912606E-4,-1.666739E-2,-2.6022524E-3,8.995582E-3,-6.555092E-4,-7.067272E-3,-2.39418E-3,5.3302877E-2,-2.2687719E-3,1.0889403E-4,8.291702E-3,1.480492E-3],"categories":[],"categories_nodes":[],"categories_segments":[],"categories_sizes":[],"default_left":[0,0,0,0,0,0,0,0,0,0,0,0,0,0,0,0,0],"id":45,"left_children":[1,3,-1,5,-1,7,-1,9,-1,11,-1,13,15,-1,-1,-1,-1],"loss_changes":[4.336668E0,1.1332139E0,0E0,1.6233325E-1,0E0,5.8824457E-2,0E0,4.7659334E-2,0E0,3.3056986E-2,0E0,2.4128236E-2,1.1313345E-2,0E0,0E0,0E0,0E0],"parents":[2147483647,0,0,1,1,3,3,5,5,7,7,9,9,11,11,12,12],"right_children":[2,4,-1,6,-1,8,-1,10,-1,12,-1,14,16,-1,-1,-1,-1],"split_conditions":[2.7888222E-2,9E0,8.448057E-2,1.06E2,-3.626663E-2,5.109259E-3,-1.666739E-2,1E0,8.995582E-3,1.29E2,-7.067272E-3,1.6675562E-8,1.36757535E-5,-2.2687719E-3,1.0889403E-4,8.291702E-3,1.480492E-3],"split_indices":[9,57,0,461,0,9,0,172,0,1,0,5,2,0,0,0,0],"split_type":[0,0,0,0,0,0,0,0,0,0,0,0,0,0,0,0,0],"sum_hessian":[3.83E2,3.78E2,5E0,3.7E2,8E0,3.65E2,5E0,3.59E2,6E0,3.5E2,9E0,3.4E2,1E1,4.9E1,2.91E2,5E0,5E0],"tree_param":{"num_deleted":"0","num_feature":"474","num_nodes":"17","size_leaf_vector":"1"}},{"base_weights":[1.2734204E-3,-1.162692E-2,8.159327E-2,-5.123426E-3,-3.1258598E-2,-2.6878603E-3,-1.15605695E-2,-7.7282934E-4,-1.1714174E-2,-1.751769E-2,3.1159876E-3,-6.9158897E-3,-1.2591699E-2,-1.696084E-3,1.5518954E-2,-3.3976385E-4,-3.4576522E-3,-3.2867305E-4,5.3463895E-3,5.467246E-4,3.695851E-3],"categories":[],"categories_nodes":[],"categories_segments":[],"categories_sizes":[],"default_left":[0,0,0,0,0,0,0,0,0,0,0,0,0,0,0,0,0,0,0,0,0],"id":46,"left_children":[1,3,-1,5,-1,7,-1,9,-1,11,13,15,-1,17,19,-1,-1,-1,-1,-1,-1],"loss_changes":[4.045089E0,7.402096E-1,0E0,9.9789575E-2,0E0,7.9911165E-2,0E0,2.3496956E-2,0E0,7.727666E-2,1.7513722E-2,6.0134963E-3,0E0,1.8776607E-2,1.7469276E-2,0E0,0E0,0E0,0E0,0E0,0E0],"parents":[2147483647,0,0,1,1,3,3,5,5,7,7,9,9,10,10,11,11,13,13,14,14],"right_children":[2,4,-1,6,-1,8,-1,10,-1,12,14,16,-1,18,20,-1,-1,-1,-1,-1,-1],"split_conditions":[6E0,3.882046E-3,8.159327E-2,2.4E1,-3.1258598E-2,2.565484E-7,-1.15605695E-2,1.7702437E-8,-1.1714174E-2,1.9402763E-1,3E0,4.1270853E-4,-1.2591699E-2,6.712738E-4,1E0,-3.3976385E-4,-3.4576522E-3,-3.2867305E-4,5.3463895E-3,5.467246E-4,3.695851E-3],"split_indices":[448,340,0,39,0,8,0,5,0,3,23,338,0,323,468,0,0,0,0,0,0],"split_type":[0,0,0,0,0,0,0,0,0,0,0,0,0,0,0,0,0,0,0,0,0],"sum_hessian":[3.83E2,3.78E2,5E0,3.71E2,7E0,3.64E2,7E0,3.59E2,5E0,6.7E1,2.92E2,6.2E1,5E0,2.11E2,8.1E1,5.6E1,6E0,2.06E2,5E0,5.6E1,2.5E1],"tree_param":{"num_deleted":"0","num_feature":"474","num_nodes":"21","size_leaf_vector":"1"}},{"base_weights":[1.1979814E-3,-1.1379616E-2,7.954833E-2,-5.2548447E-3,-3.912605E-2,-2.4348362E-3,-1.7780958E-2,-8.699145E-4,-9.696762E-3,1.2538354E-3,-3.949873E-2,-4.6970526E-4,5.921177E-3,-2.897266E-3,-1.1831903E-2,1.0802915E-4,-3.630751E-3,-1.7927727E-3,1.0616546E-3],"categories":[],"categories_nodes":[],"categories_segments":[],"categories_sizes":[],"default_left":[0,0,0,0,0,0,0,0,0,0,0,0,0,0,0,0,0,0,0],"id":47,"left_children":[1,3,-1,5,-1,7,-1,9,-1,11,13,15,-1,17,-1,-1,-1,-1,-1],"loss_changes":[3.8452897E0,8.7975705E-1,0E0,1.8155763E-1,0E0,5.4504186E-2,0E0,2.9911336E-2,0E0,3.459074E-2,5.447103E-2,1.875906E-2,0E0,3.0339942E-3,0E0,0E0,0E0,0E0,0E0],"parents":[2147483647,0,0,1,1,3,3,5,5,7,7,9,9,10,10,11,11,13,13],"right_children":[2,4,-1,6,-1,8,-1,10,-1,12,14,16,-1,18,-1,-1,-1,-1,-1],"split_conditions":[1.4189756E-2,1.65E2,7.954833E-2,4E0,-3.912605E-2,7.182689E-7,-1.7780958E-2,3.2E1,-9.696762E-3,1.29E2,1.8460767E-2,7.381329E-4,5.921177E-3,4.131794E-4,-1.1831903E-2,1.0802915E-4,-3.630751E-3,-1.7927727E-3,1.0616546E-3],"split_indices":[329,450,0,286,0,10,0,461,0,1,12,312,0,316,0,0,0,0,0],"split_type":[0,0,0,0,0,0,0,0,0,0,0,0,0,0,0,0,0,0,0],"sum_hessian":[3.83E2,3.78E2,5E0,3.73E2,5E0,3.68E2,5E0,3.63E2,5E0,3.45E2,1.8E1,3.36E2,9E0,1.3E1,5E0,3.23E2,1.3E1,6E0,7E0],"tree_param":{"num_deleted":"0","num_feature":"474","num_nodes":"19","size_leaf_vector":"1"}},{"base_weights":[1.0854244E-3,-1.1204457E-2,7.7721536E-2,-3.6740277E-3,-4.1086815E-2,-2.2254318E-3,-9.19089E-3,-3.0575084E-4,-5.9150487E-2,-2.535278E-3,5.8885988E-2,3.6810298E-4,-1.2259551E-2,-1.2605028E-3,-7.4349986E-3,1.4420163E-3,9.493954E-3,-2.2581406E-5,-4.417186E-3],"categories":[],"categories_nodes":[],"categories_segments":[],"categories_sizes":[],"default_left":[0,0,0,0,0,0,0,0,0,0,0,0,0,0,0,0,0,0,0],"id":48,"left_children":[1,3,-1,5,-1,7,-1,9,11,13,15,-1,-1,17,-1,-1,-1,-1,-1],"loss_changes":[3.6715093E0,1.1391436E0,0E0,4.7471084E-2,0E0,4.01962E-2,0E0,4.7262434E-2,4.8287444E-2,3.1490203E-2,1.9471917E-2,0E0,0E0,1.5085992E-2,0E0,0E0,0E0,0E0,0E0],"parents":[2147483647,0,0,1,1,3,3,5,5,7,7,8,8,9,9,10,10,13,13],"right_children":[2,4,-1,6,-1,8,-1,10,12,14,16,-1,-1,18,-1,-1,-1,-1,-1],"split_conditions":[9.384744E-2,7.7920146E-3,7.7721536E-2,1.0371819E-2,-4.1086815E-2,3E0,-9.19089E-3,1.31E2,1.8697208E-1,3E0,6.5636635E-4,3.6810298E-4,-1.2259551E-2,1E0,-7.4349986E-3,1.4420163E-3,9.493954E-3,-2.2581406E-5,-4.417186E-3],"split_indices":[12,329,0,9,0,210,0,1,3,286,313,0,0,303,0,0,0,0,0],"split_type":[0,0,0,0,0,0,0,0,0,0,0,0,0,0,0,0,0,0,0],"sum_hessian":[3.83E2,3.78E2,5E0,3.72E2,6E0,3.67E2,5E0,3.56E2,1.1E1,3.44E2,1.2E1,6E0,5E0,3.39E2,5E0,6E0,6E0,3.32E2,7E0],"tree_param":{"num_deleted":"0","num_feature":"474","num_nodes":"19","size_leaf_vector":"1"}},{"base_weights":[1.0149344E-3,-1.2600355E-2,6.425086E-2,-6.1818697E-3,-4.0844638E-2,-2.8386365E-3,-1.5794415E-2,-1.3237712E-3,-8.0124065E-3,-1.0040369E-4,-7.3281825E-3,-1.1922523E-3,5.4194415E-3,-6.276913E-4,6.876707E-4],"categories":[],"categories_nodes":[],"categories_segments":[],"categories_sizes":[],"default_left":[0,0,0,0,0,0,0,0,0,0,0,0,0,0,0],"id":49,"left_children":[1,3,-1,5,-1,7,-1,9,-1,11,-1,13,-1,-1,-1],"loss_changes":[3.3619986E0,9.55331E-1,0E0,1.8829578E-1,0E0,4.2627048E-2,0E0,3.1595826E-2,0E0,2.1050341E-2,0E0,1.432088E-2,0E0,0E0,0E0],"parents":[2147483647,0,0,1,1,3,3,5,5,7,7,9,9,11,11],"right_children":[2,4,-1,6,-1,8,-1,10,-1,12,-1,14,-1,-1,-1],"split_conditions":[2E1,7.7920146E-3,6.425086E-2,4.755021E-2,-4.0844638E-2,2.565484E-7,-1.5794415E-2,3E0,-8.0124065E-3,2E0,-7.3281825E-3,2.5719274E-8,5.4194415E-3,-6.276913E-4,6.876707E-4],"split_indices":[27,329,0,12,0,8,0,286,0,464,0,5,0,0,0],"split_type":[0,0,0,0,0,0,0,0,0,0,0,0,0,0,0],"sum_hessian":[3.83E2,3.76E2,7E0,3.71E2,5E0,3.64E2,7E0,3.58E2,6E0,3.53E2,5E0,3.47E2,6E0,2.13E2,1.34E2],"tree_param":{"num_deleted":"0","num_feature":"474","num_nodes":"15","size_leaf_vector":"1"}},{"base_weights":[9.0758456E-4,-1.0663736E-2,7.316781E-2,-3.7932766E-3,-3.2880716E-2,-7.515805E-4,-1.8921148E-2,8.807093E-4,-5.91124E-3,-1.04512146E-4,5.869779E-3,-1.1829762E-3,4.124822E-3,-2.509011E-5,-4.041528E-3],"categories":[],"categories_nodes":[],"categories_segments":[],"categories_sizes":[],"default_left":[0,0,0,0,0,0,0,0,0,0,0,0,0,0,0],"id":50,"left_children":[1,3,-1,5,-1,7,-1,9,-1,11,-1,13,-1,-1,-1],"loss_changes":[3.2548985E0,8.2716763E-1,0E0,2.0966052E-1,0E0,3.5013128E-2,0E0,2.0398755E-2,0E0,1.5791692E-2,0E0,1.260563E-2,0E0,0E0,0E0],"parents":[2147483647,0,0,1,1,3,3,5,5,7,7,9,9,11,11],"right_children":[2,4,-1,6,-1,8,-1,10,-1,12,-1,14,-1,-1,-1],"split_conditions":[8E0,9E0,7.316781E-2,1.545539E-6,-3.2880716E-2,3E0,-1.8921148E-2,5.6628883E-3,-5.91124E-3,6.412332E-3,5.869779E-3,1E0,4.124822E-3,-2.509011E-5,-4.041528E-3],"split_indices":[456,57,0,10,0,286,0,9,0,15,0,303,0,0,0],"split_type":[0,0,0,0,0,0,0,0,0,0,0,0,0,0,0],"sum_hessian":[3.83E2,3.78E2,5E0,3.71E2,7E0,3.66E2,5E0,3.57E2,9E0,3.52E2,5E0,3.44E2,8E0,3.37E2,7E0],"tree_param":{"num_deleted":"0","num_feature":"474","num_nodes":"15","size_leaf_vector":"1"}},{"base_weights":[8.7251293E-4,-1.0396598E-2,7.125592E-2,-4.497779E-3,-3.7635684E-2,-1.7767637E-3,-1.710906E-2,-3.3172409E-3,6.8151928E-3,-1.4803967E-3,-1.120566E-2,-2.1019318E-4,-6.4960546E-3,-4.8005162E-4,6.995133E-4],"categories":[],"categories_nodes":[],"categories_segments":[],"categories_sizes":[],"default_left":[0,0,0,0,0,0,0,0,0,0,0,0,0,0,0],"id":51,"left_children":[1,3,-1,5,-1,7,-1,9,-1,11,-1,13,-1,-1,-1],"loss_changes":[3.0871174E0,8.1646705E-1,0E0,1.6923086E-1,0E0,3.9976068E-2,0E0,7.2139E-2,0E0,2.8772224E-2,0E0,1.1642826E-2,0E0,0E0,0E0],"parents":[2147483647,0,0,1,1,3,3,5,5,7,7,9,9,11,11],"right_children":[2,4,-1,6,-1,8,-1,10,-1,12,-1,14,-1,-1,-1],"split_conditions":[1.4189756E-2,1.65E2,7.125592E-2,4E0,-3.7635684E-2,2E0,-1.710906E-2,4.2268195E-7,6.8151928E-3,1E0,-1.120566E-2,2.5719274E-8,-6.4960546E-3,-4.8005162E-4,6.995133E-4],"split_indices":[329,450,0,286,0,464,0,10,0,309,0,5,0,0,0],"split_type":[0,0,0,0,0,0,0,0,0,0,0,0,0,0,0],"sum_hessian":[3.83E2,3.78E2,5E0,3.73E2,5E0,3.68E2,5E0,3.61E2,7E0,3.56E2,5E0,3.5E2,6E0,2.14E2,1.36E2],"tree_param":{"num_deleted":"0","num_feature":"474","num_nodes":"15","size_leaf_vector":"1"}},{"base_weights":[8.004828E-4,-1.1019655E-2,6.3897364E-2,-2.46119E-3,-3.2572504E-2,-5.805904E-4,-8.7250685E-3,6.472267E-4,-7.3538944E-3,-8.696392E-4,4.8438612E-2,-1.9480083E-3,2.9397165E-2,-2.1584034E-4,9.096253E-3,-4.901595E-5,-3.5443518E-3,-4.682655E-4,6.425743E-3],"categories":[],"categories_nodes":[],"categories_segments":[],"categories_sizes":[],"default_left":[0,0,0,0,0,0,0,0,0,0,0,0,0,0,0,0,0,0,0],"id":52,"left_children":[1,3,-1,5,-1,7,-1,9,-1,11,13,15,17,-1,-1,-1,-1,-1,-1],"loss_changes":[2.903666E0,1.0173016E0,0E0,5.8788273E-2,0E0,3.247538E-2,0E0,2.5922168E-2,0E0,1.1382924E-2,2.3863746E-2,1.6389975E-2,1.4557274E-2,0E0,0E0,0E0,0E0,0E0,0E0],"parents":[2147483647,0,0,1,1,3,3,5,5,7,7,9,9,10,10,11,11,12,12],"right_children":[2,4,-1,6,-1,8,-1,10,-1,12,14,16,18,-1,-1,-1,-1,-1,-1],"split_conditions":[1E0,3.930109E-3,6.3897364E-2,1E0,-3.2572504E-2,1.0371819E-2,-8.7250685E-3,1E0,-7.3538944E-3,1E0,4E0,7.381329E-4,3.0624866E-4,-2.1584034E-4,9.096253E-3,-4.901595E-5,-3.5443518E-3,-4.682655E-4,6.425743E-3],"split_indices":[91,336,0,309,0,9,0,310,0,174,23,312,313,0,0,0,0,0,0],"split_type":[0,0,0,0,0,0,0,0,0,0,0,0,0,0,0,0,0,0,0],"sum_hessian":[3.83E2,3.77E2,6E0,3.68E2,9E0,3.61E2,7E0,3.56E2,5E0,3.46E2,1E1,3.35E2,1.1E1,5E0,5E0,3.22E2,1.3E1,6E0,5E0],"tree_param":{"num_deleted":"0","num_feature":"474","num_nodes":"19","size_leaf_vector":"1"}},{"base_weights":[7.8941806E-4,-1.0002088E-2,6.8232134E-2,-3.8643405E-3,-2.941571E-2,-1.377305E-3,-1.1685229E-2,3.2684802E-5,-8.574714E-3,-1.0641749E-3,4.2928453E-3,-1.7018646E-2,1.7579955E-3,-2.5837412E-4,-7.8830365E-3,6.0713584E-5,3.5072216E-3],"categories":[],"categories_nodes":[],"categories_segments":[],"categories_sizes":[],"default_left":[0,0,0,0,0,0,0,0,0,0,0,0,0,0,0,0,0],"id":53,"left_children":[1,3,-1,5,-1,7,-1,9,-1,11,-1,13,15,-1,-1,-1,-1],"loss_changes":[2.8310509E0,6.598665E-1,0E0,1.0437294E-1,0E0,4.3423425E-2,0E0,1.6983915E-2,0E0,1.5879154E-2,0E0,4.7085375E-2,1.1480704E-2,0E0,0E0,0E0,0E0],"parents":[2147483647,0,0,1,1,3,3,5,5,7,7,9,9,11,11,12,12],"right_children":[2,4,-1,6,-1,8,-1,10,-1,12,-1,14,16,-1,-1,-1,-1],"split_conditions":[6E0,3.882046E-3,6.8232134E-2,2.4E1,-2.941571E-2,2.565484E-7,-1.1685229E-2,6.412332E-3,-8.574714E-3,1.6850855E-8,4.2928453E-3,2.1155614E-4,3.1607926E-2,-2.5837412E-4,-7.8830365E-3,6.0713584E-5,3.5072216E-3],"split_indices":[448,340,0,39,0,8,0,15,0,5,0,332,12,0,0,0,0],"split_type":[0,0,0,0,0,0,0,0,0,0,0,0,0,0,0,0,0],"sum_hessian":[3.83E2,3.78E2,5E0,3.71E2,7E0,3.64E2,7E0,3.59E2,5E0,3.51E2,8E0,5.2E1,2.99E2,4.3E1,9E0,2.9E2,9E0],"tree_param":{"num_deleted":"0","num_feature":"474","num_nodes":"17","size_leaf_vector":"1"}}]},"name":"gbtree"},"learner_model_param":{"base_score":"-1.7592999E-9","boost_from_average":"1","num_class":"0","num_feature":"474","num_target":"1"},"objective":{"name":"reg:squarederror","reg_loss_param":{"scale_pos_weight":"1"}}},"version":[2,0,3]}