{"learner":{"attributes":{"best_iteration":"15","best_score":"0.00476817326959411"},"feature_names":[],"feature_types":[],"gradient_booster":{"model":{"gbtree_model_param":{"num_parallel_tree":"1","num_trees":"66"},"iteration_indptr":[0,1,2,3,4,5,6,7,8,9,10,11,12,13,14,15,16,17,18,19,20,21,22,23,24,25,26,27,28,29,30,31,32,33,34,35,36,37,38,39,40,41,42,43,44,45,46,47,48,49,50,51,52,53,54,55,56,57,58,59,60,61,62,63,64,65,66],"tree_info":[0,0,0,0,0,0,0,0,0,0,0,0,0,0,0,0,0,0,0,0,0,0,0,0,0,0,0,0,0,0,0,0,0,0,0,0,0,0,0,0,0,0,0,0,0,0,0,0,0,0,0,0,0,0,0,0,0,0,0,0,0,0,0,0,0,0],"trees":[{"base_weights":[-1.2364503E-4,-9.5699355E-4,7.741194E-3,-1.2707373E-3,1.7333201E-3,-1.3935918E-3,1.0315545E-3,-1.65507E-3,6.5313815E-4,-1.8751329E-3,-1.2240233E-3,1.4247792E-4,5.5842433E-4,-1.9409943E-3,-1.5669237E-3,-1.3453184E-3,5.6075798E-5,-4.820949E-4,1.4043439E-3,-1.9643459E-4,-1.6057992E-4,-1.7447594E-4,-1.1294236E-4,-1.4334945E-4,-1.2323893E-5,-5.534107E-5,1.0384741E-4,-7.8352175E-5,1.0728452E-4,3.945187E-6,2.6773664E-4],"categories":[],"categories_nodes":[],"categories_segments":[],"categories_sizes":[],"default_left":[0,0,0,0,0,0,0,0,0,0,0,0,0,0,0,0,0,0,0,0,0,0,0,0,0,0,0,0,0,0,0],"id":0,"left_children":[1,3,-1,5,-1,7,-1,9,11,13,15,17,-1,19,21,23,25,27,29,-1,-1,-1,-1,-1,-1,-1,-1,-1,-1,-1,-1],"loss_changes":[1.7013857E-1,1.4970649E-2,0E0,3.6611934E-3,0E0,1.358286E-3,0E0,2.1103909E-4,7.244227E-4,2.7143396E-5,1.1854619E-4,2.0716635E-4,0E0,6.4028427E-6,1.8802879E-5,7.493084E-5,4.0691513E-5,8.3331906E-5,1.5106025E-4,0E0,0E0,0E0,0E0,0E0,0E0,0E0,0E0,0E0,0E0,0E0,0E0],"parents":[2147483647,0,0,1,1,3,3,5,5,7,7,8,8,9,9,10,10,11,11,13,13,14,14,15,15,16,16,17,17,18,18],"right_children":[2,4,-1,6,-1,8,-1,10,12,14,16,18,-1,20,22,24,26,28,30,-1,-1,-1,-1,-1,-1,-1,-1,-1,-1,-1,-1],"split_conditions":[7E0,1.3862066E-2,7.741194E-3,3.8333333E0,1.7333201E-3,1E2,1.0315545E-3,3.7E1,7E0,4.43783E-8,1.3333334E0,3.3333334E-1,5.5842433E-4,5.5190907E-3,8.333333E-1,1E0,9.195197E-5,2.17E2,6.814797E-3,-1.9643459E-4,-1.6057992E-4,-1.7447594E-4,-1.1294236E-4,-1.4334945E-4,-1.2323893E-5,-5.534107E-5,1.0384741E-4,-7.8352175E-5,1.0728452E-4,3.945187E-6,2.6773664E-4],"split_indices":[82,16,0,710,0,1,0,1,530,509,823,580,0,513,710,402,10,1,7,0,0,0,0,0,0,0,0,0,0,0,0],"split_type":[0,0,0,0,0,0,0,0,0,0,0,0,0,0,0,0,0,0,0,0,0,0,0,0,0,0,0,0,0,0,0],"sum_hessian":[2.631E3,2.604E3,2.7E1,2.561E3,4.3E1,2.535E3,2.6E1,2.248E3,2.87E2,1.486E3,7.62E2,2.61E2,2.6E1,1.22E3,2.66E2,6.96E2,6.6E1,1.75E2,8.6E1,1.136E3,8.4E1,1.87E2,7.9E1,6.49E2,4.7E1,4.1E1,2.5E1,1.47E2,2.8E1,4.2E1,4.4E1],"tree_param":{"num_deleted":"0","num_feature":"1006","num_nodes":"31","size_leaf_vector":"1"}},{"base_weights":[6.39635E-6,-8.492146E-4,7.1573905E-3,-1.086816E-3,1.8822447E-3,-1.2256388E-3,8.1698474E-4,-1.4428835E-3,5.291709E-4,-1.4945022E-3,1.96236E-4,-2.7063058E-4,4.1976743E-4,-1.6068901E-3,-6.0068106E-4,-5.7110627E-4,1.7515777E-4,-1.7421984E-4,-1.3287825E-4,-1.0639251E-4,2.7414038E-5,-1.0675001E-4,2.0898915E-5],"categories":[],"categories_nodes":[],"categories_segments":[],"categories_sizes":[],"default_left":[0,0,0,0,0,0,0,0,0,0,0,0,0,0,0,0,0,0,0,0,0,0,0],"id":1,"left_children":[1,3,-1,5,-1,7,-1,9,11,13,-1,15,-1,17,19,21,-1,-1,-1,-1,-1,-1,-1],"loss_changes":[1.6067742E-1,1.21401725E-2,0E0,3.3035607E-3,0E0,9.637333E-4,0E0,3.9807335E-4,8.197428E-4,2.2154208E-4,0E0,1.4075395E-4,0E0,7.1703456E-5,1.0120036E-4,7.805724E-5,0E0,0E0,0E0,0E0,0E0,0E0,0E0],"parents":[2147483647,0,0,1,1,3,3,5,5,7,7,8,8,9,9,11,11,13,13,14,14,15,15],"right_children":[2,4,-1,6,-1,8,-1,10,12,14,-1,16,-1,18,20,22,-1,-1,-1,-1,-1,-1,-1],"split_conditions":[7E0,1.5E0,7.1573905E-3,1.3234929E-2,1.8822447E-3,6E0,8.1698474E-4,2E0,6.666667E-1,3.127749E-1,1.96236E-4,5E-1,4.1976743E-4,1.8849611E-1,3.3333334E-1,2.0243354E-1,1.7515777E-4,-1.7421984E-4,-1.3287825E-4,-1.0639251E-4,2.7414038E-5,-1.0675001E-4,2.0898915E-5],"split_indices":[82,761,0,16,0,27,0,77,878,507,0,703,0,507,524,507,0,0,0,0,0,0,0],"split_type":[0,0,0,0,0,0,0,0,0,0,0,0,0,0,0,0,0,0,0,0,0,0,0],"sum_hessian":[2.622E3,2.592E3,3E1,2.562E3,3E1,2.525E3,3.7E1,2.247E3,2.78E2,2.214E3,3.3E1,2.29E2,4.9E1,1.966E3,2.48E2,2E2,2.9E1,1.319E3,6.47E2,1.62E2,8.6E1,1.22E2,7.8E1],"tree_param":{"num_deleted":"0","num_feature":"1006","num_nodes":"23","size_leaf_vector":"1"}},{"base_weights":[1.4752033E-5,-7.5524626E-4,5.8171838E-3,-9.562362E-4,1.893216E-3,-1.0915223E-3,1.0809307E-3,-1.1944042E-3,4.456518E-4,-1.3825498E-3,9.2456845E-5,-1.5253021E-3,-8.145973E-4,-3.5260458E-4,4.195525E-4,-1.5747493E-4,-1.1392039E-4,-1.11396206E-4,2.8104264E-6,-8.9759335E-5,3.666355E-5],"categories":[],"categories_nodes":[],"categories_segments":[],"categories_sizes":[],"default_left":[0,0,0,0,0,0,0,0,0,0,0,0,0,0,0,0,0,0,0,0,0],"id":2,"left_children":[1,3,-1,5,-1,7,-1,9,-1,11,13,15,17,19,-1,-1,-1,-1,-1,-1,-1],"loss_changes":[1.16518945E-1,1.01796035E-2,0E0,4.059528E-3,0E0,1.4408669E-3,0E0,5.981575E-4,0E0,1.7347699E-4,5.785324E-4,3.1062867E-5,1.09771034E-4,1.1243472E-4,0E0,0E0,0E0,0E0,0E0,0E0,0E0],"parents":[2147483647,0,0,1,1,3,3,5,5,7,7,9,9,10,10,11,11,12,12,13,13],"right_children":[2,4,-1,6,-1,8,-1,10,-1,12,14,16,18,20,-1,-1,-1,-1,-1,-1,-1],"split_conditions":[2.3333333E0,4.1666665E0,5.8171838E-3,5.4097605E-1,1.893216E-3,3.1254165E-2,1.0809307E-3,3.226821E-1,4.456518E-4,6.1E1,3E0,2.6247326E-1,2.4705572E-1,5.7E1,4.195525E-4,-1.5747493E-4,-1.1392039E-4,-1.11396206E-4,2.8104264E-6,-8.9759335E-5,3.666355E-5],"split_indices":[526,710,0,4,0,10,0,4,0,1,207,4,4,1,0,0,0,0,0,0,0],"split_type":[0,0,0,0,0,0,0,0,0,0,0,0,0,0,0,0,0,0,0,0,0],"sum_hessian":[2.6E3,2.567E3,3.3E1,2.542E3,2.5E1,2.514E3,2.8E1,2.469E3,4.5E1,2.154E3,3.15E2,1.72E3,4.34E2,2.85E2,3E1,1.522E3,1.98E2,3.2E2,1.14E2,1.62E2,1.23E2],"tree_param":{"num_deleted":"0","num_feature":"1006","num_nodes":"21","size_leaf_vector":"1"}},{"base_weights":[-7.7914614E-5,-6.979825E-4,6.162184E-3,-8.991132E-4,1.6475025E-3,-1.0501476E-3,4.25665E-3,-1.3480581E-3,-2.2218014E-4,5.02612E-5,1.0271975E-3,-1.3934985E-3,-4.3374262E-4,-7.243763E-4,1.388182E-3,-1.4250658E-3,-9.124859E-4,-1.1637027E-4,2.2779075E-5,-9.292432E-4,4.5712065E-4,6.488949E-4,4.92368E-4,-1.4425007E-4,-1.0688E-4,-1.2800471E-4,6.549425E-6,-1.0507399E-4,-1.9311357E-5,-6.1042505E-5,2.4925117E-4,2.1140986E-4,-3.115987E-5],"categories":[],"categories_nodes":[],"categories_segments":[],"categories_sizes":[],"default_left":[0,0,0,0,0,0,0,0,0,0,0,0,0,0,0,0,0,0,0,0,0,0,0,0,0,0,0,0,0,0,0,0,0],"id":3,"left_children":[1,3,-1,5,-1,7,9,11,13,-1,-1,15,17,19,21,23,25,-1,-1,27,29,31,-1,-1,-1,-1,-1,-1,-1,-1,-1,-1,-1],"loss_changes":[9.997301E-2,8.950359E-3,0E0,1.9963789E-3,0E0,6.128978E-4,1.6433053E-3,7.5343065E-5,5.339506E-4,0E0,0E0,2.5135465E-5,4.275966E-5,1.221757E-4,4.071635E-4,8.595409E-6,3.9625265E-5,0E0,0E0,3.8165745E-5,1.6448695E-4,1.850175E-4,0E0,0E0,0E0,0E0,0E0,0E0,0E0,0E0,0E0,0E0,0E0],"parents":[2147483647,0,0,1,1,3,3,5,5,6,6,7,7,8,8,11,11,12,12,13,13,14,14,15,15,16,16,19,19,20,20,21,21],"right_children":[2,4,-1,6,-1,8,10,12,14,-1,-1,16,18,20,22,24,26,-1,-1,28,30,32,-1,-1,-1,-1,-1,-1,-1,-1,-1,-1,-1],"split_conditions":[7E0,4.6666665E0,6.162184E-3,3E0,1.6475025E-3,2.6140273E-1,3.226821E-1,2E0,1E0,5.02612E-5,1.0271975E-3,1E0,1E0,2E0,3.5E0,2E0,7.3947324E-9,-1.1637027E-4,2.2779075E-5,1.3333334E0,8.333333E-1,1.6543334E3,4.92368E-4,-1.4425007E-4,-1.0688E-4,-1.2800471E-4,6.549425E-6,-1.0507399E-4,-1.9311357E-5,-6.1042505E-5,2.4925117E-4,2.1140986E-4,-3.115987E-5],"split_indices":[82,710,0,82,0,4,4,56,82,0,0,200,207,164,584,207,518,0,0,834,534,505,0,0,0,0,0,0,0,0,0,0,0],"split_type":[0,0,0,0,0,0,0,0,0,0,0,0,0,0,0,0,0,0,0,0,0,0,0,0,0,0,0,0,0,0,0,0,0],"sum_hessian":[2.611E3,2.586E3,2.5E1,2.557E3,2.9E1,2.485E3,7.2E1,1.827E3,6.58E2,4.5E1,2.7E1,1.74E3,8.7E1,5.02E2,1.56E2,1.631E3,1.09E2,4.1E1,4.6E1,4.28E2,7.4E1,1.3E2,2.6E1,1.552E3,7.9E1,7.9E1,3E1,3.67E2,6.1E1,4.9E1,2.5E1,5.1E1,7.9E1],"tree_param":{"num_deleted":"0","num_feature":"1006","num_nodes":"33","size_leaf_vector":"1"}},{"base_weights":[2.6373662E-5,-6.418185E-4,4.8005553E-3,-8.0776826E-4,1.4541798E-3,-9.109919E-4,9.2796667E-4,-1.0520862E-3,1.1469565E-3,-1.1349854E-3,3.626572E-4,-1.3906522E-4,4.3239264E-4,-1.2814945E-3,-8.3567307E-4,-9.897416E-4,1.8150457E-3,-7.410286E-4,1.0382399E-4,-1.3362044E-4,-1.1320222E-4,-1.06495354E-4,-3.5452347E-5,-2.0668551E-4,1.7984154E-5,-9.91455E-6,3.4039226E-4,-4.7359572E-5,-1.257679E-4],"categories":[],"categories_nodes":[],"categories_segments":[],"categories_sizes":[],"default_left":[0,0,0,0,0,0,0,0,0,0,0,0,0,0,0,0,0,0,0,0,0,0,0,0,0,0,0,0,0],"id":4,"left_children":[1,3,-1,5,-1,7,-1,9,11,13,15,17,-1,19,21,23,25,27,-1,-1,-1,-1,-1,-1,-1,-1,-1,-1,-1],"loss_changes":[8.40262E-2,6.5252148E-3,0E0,2.6720013E-3,0E0,7.3670084E-4,0E0,2.7848477E-4,6.665626E-4,9.715767E-5,2.6107198E-4,8.3686624E-5,0E0,1.0770047E-5,8.114759E-5,8.72961E-5,1.94988E-4,1.0181579E-5,0E0,0E0,0E0,0E0,0E0,0E0,0E0,0E0,0E0,0E0,0E0],"parents":[2147483647,0,0,1,1,3,3,5,5,7,7,8,8,9,9,10,10,11,11,13,13,14,14,15,15,16,16,17,17],"right_children":[2,4,-1,6,-1,8,-1,10,12,14,16,18,-1,20,22,24,26,28,-1,-1,-1,-1,-1,-1,-1,-1,-1,-1,-1],"split_conditions":[3.2E1,4.6666665E0,4.8005553E-3,6E0,1.4541798E-3,3.8237897E-1,9.2796667E-4,2E0,1E0,3.9E1,1.793675E-1,1.1666666E0,4.3239264E-4,2.2518061E-1,2.4938595E-1,1E0,6.666667E-1,1.6666667E-1,1.0382399E-4,-1.3362044E-4,-1.1320222E-4,-1.06495354E-4,-3.5452347E-5,-2.0668551E-4,1.7984154E-5,-9.91455E-6,3.4039226E-4,-4.7359572E-5,-1.257679E-4],"split_indices":[27,710,0,164,0,4,0,82,77,1,507,834,0,507,4,56,834,939,0,0,0,0,0,0,0,0,0,0,0],"split_type":[0,0,0,0,0,0,0,0,0,0,0,0,0,0,0,0,0,0,0,0,0,0,0,0,0,0,0,0,0],"sum_hessian":[2.619E3,2.584E3,3.5E1,2.557E3,2.7E1,2.532E3,2.5E1,2.37E3,1.62E2,2.239E3,1.31E2,1.16E2,4.6E1,1.501E3,7.38E2,6.8E1,6.3E1,7.7E1,3.9E1,1.093E3,4.08E2,4.99E2,2.39E2,3.5E1,3.3E1,2.9E1,3.4E1,5.2E1,2.5E1],"tree_param":{"num_deleted":"0","num_feature":"1006","num_nodes":"29","size_leaf_vector":"1"}},{"base_weights":[7.351423E-5,-5.022229E-4,5.808728E-3,-6.910897E-4,1.7661577E-3,-8.793977E-4,3.2676382E-3,-9.6415146E-4,1.517018E-3,2.6051517E-4,1.0689339E-3,-1.0602197E-3,-3.176107E-4,-7.3610584E-4,5.893261E-4,-8.4170804E-4,2.2076687E-4,-1.1045568E-3,-2.391975E-4,-5.9236976E-4,1.8659855E-4,5.9636015E-5,-1.7957312E-4,-1.3107383E-5,-1.5738075E-4,-1.1243519E-4,-6.5925497E-7,-6.8805995E-5,1.4524862E-5,-7.7951765E-5,5.038843E-5],"categories":[],"categories_nodes":[],"categories_segments":[],"categories_sizes":[],"default_left":[0,0,0,0,0,0,0,0,0,0,0,0,0,0,0,0,0,0,0,0,0,0,0,0,0,0,0,0,0,0,0],"id":5,"left_children":[1,3,-1,5,-1,7,9,11,13,15,-1,17,19,21,-1,23,-1,25,27,29,-1,-1,-1,-1,-1,-1,-1,-1,-1,-1,-1],"loss_changes":[8.837397E-2,9.000216E-3,0E0,1.9365967E-3,0E0,5.045547E-4,2.6307353E-3,1.4829729E-4,8.424566E-4,1.8428503E-4,0E0,7.556076E-5,1.8769382E-4,8.155003E-5,0E0,2.8407732E-5,0E0,4.2939326E-5,1.8736791E-5,5.722254E-5,0E0,0E0,0E0,0E0,0E0,0E0,0E0,0E0,0E0,0E0,0E0],"parents":[2147483647,0,0,1,1,3,3,5,5,6,6,7,7,8,8,9,9,11,11,12,12,13,13,15,15,17,17,18,18,19,19],"right_children":[2,4,-1,6,-1,8,10,12,14,16,-1,18,20,22,-1,24,-1,26,28,30,-1,-1,-1,-1,-1,-1,-1,-1,-1,-1,-1],"split_conditions":[3.6289353E-2,6E0,5.808728E-3,1.8333334E0,1.7661577E-3,3E0,1.9582983E-3,3.1283867E-1,2.5E0,7.461733E-8,1.0689339E-3,2E0,5E-1,1.67E3,5.893261E-4,1.6666667E-1,2.2076687E-4,1E0,1.6666667E-1,1E0,1.8659855E-4,5.9636015E-5,-1.7957312E-4,-1.3107383E-5,-1.5738075E-4,-1.1243519E-4,-6.5925497E-7,-6.8805995E-5,1.4524862E-5,-7.7951765E-5,5.038843E-5],"split_indices":[16,331,0,823,0,164,16,4,625,11,0,56,552,2,0,626,0,285,532,21,0,0,0,0,0,0,0,0,0,0,0],"split_type":[0,0,0,0,0,0,0,0,0,0,0,0,0,0,0,0,0,0,0,0,0,0,0,0,0,0,0,0,0,0,0],"sum_hessian":[2.644E3,2.619E3,2.5E1,2.593E3,2.6E1,2.476E3,1.17E2,2.392E3,8.4E1,8.4E1,3.3E1,2.082E3,3.1E2,5.6E1,2.8E1,5.4E1,3E1,1.975E3,1.07E2,2.76E2,3.4E1,2.5E1,3.1E1,2.8E1,2.6E1,1.94E3,3.5E1,4.9E1,5.8E1,2.36E2,4E1],"tree_param":{"num_deleted":"0","num_feature":"1006","num_nodes":"31","size_leaf_vector":"1"}},{"base_weights":[2.6296853E-5,-4.8984616E-4,4.465459E-3,-6.3839206E-4,1.420647E-3,-7.38749E-4,8.837389E-4,-8.150931E-4,3.246534E-4,-8.703667E-4,2.284934E-4,-9.4740465E-4,-3.4320492E-5,-9.206012E-5,-3.037735E-4,-4.1247677E-5,1.8466372E-4],"categories":[],"categories_nodes":[],"categories_segments":[],"categories_sizes":[],"default_left":[0,0,0,0,0,0,0,0,0,0,0,0,0,0,0,0,0],"id":6,"left_children":[1,3,-1,5,-1,7,-1,9,-1,11,-1,13,15,-1,-1,-1,-1],"loss_changes":[6.0441583E-2,5.6719715E-3,0E0,2.449546E-3,0E0,7.76361E-4,0E0,4.296773E-4,0E0,1.5795848E-4,0E0,1.2304215E-4,1.4871125E-4,0E0,0E0,0E0,0E0],"parents":[2147483647,0,0,1,1,3,3,5,5,7,7,9,9,11,11,12,12],"right_children":[2,4,-1,6,-1,8,-1,10,-1,12,-1,14,16,-1,-1,-1,-1],"split_conditions":[7E0,2.2156578E-2,4.465459E-3,6E0,1.420647E-3,3.0007591E-2,8.837389E-4,1E0,3.246534E-4,1E0,2.284934E-4,1.3333334E0,3.3333334E-1,-9.206012E-5,-3.037735E-4,-4.1247677E-5,1.8466372E-4],"split_indices":[204,519,0,164,0,10,0,318,0,200,0,950,638,0,0,0,0],"split_type":[0,0,0,0,0,0,0,0,0,0,0,0,0,0,0,0,0],"sum_hessian":[2.622E3,2.593E3,2.9E1,2.568E3,2.5E1,2.542E3,2.6E1,2.495E3,4.7E1,2.452E3,4.3E1,2.245E3,2.07E2,2.218E3,2.7E1,1.73E2,3.4E1],"tree_param":{"num_deleted":"0","num_feature":"1006","num_nodes":"17","size_leaf_vector":"1"}},{"base_weights":[7.675872E-5,-4.2886037E-4,5.0635715E-3,-6.338472E-4,1.1493418E-3,-7.6843397E-4,4.021937E-3,-9.4051973E-4,-3.2714958E-4,-4.2309806E-5,1.1902503E-3,-9.5466775E-4,-2.6384363E-5,-6.549929E-4,7.636335E-4,-9.4121613E-4,-1.7209578E-4,-7.981085E-4,1.506026E-4,-5.5819826E-5,3.633271E-4,-9.551161E-5,-2.0042564E-5,-7.362803E-5,-1.6852202E-4,-5.741329E-5,1.5688116E-4,1.8280395E-4,-5.3547203E-5],"categories":[],"categories_nodes":[],"categories_segments":[],"categories_sizes":[],"default_left":[0,0,0,0,0,0,0,0,0,0,0,0,0,0,0,0,0,0,0,0,0,0,0,0,0,0,0,0,0],"id":7,"left_children":[1,3,-1,5,-1,7,9,11,13,-1,-1,15,-1,17,19,21,-1,23,25,27,-1,-1,-1,-1,-1,-1,-1,-1,-1],"loss_changes":[6.712609E-2,6.3614524E-3,0E0,1.6053244E-3,0E0,1.8847594E-4,2.5271522E-3,1.6865903E-5,2.5046675E-4,0E0,0E0,1.6428996E-5,0E0,6.2147985E-5,3.8115136E-4,1.7550425E-5,0E0,2.3825036E-5,8.518246E-5,1.1573572E-4,0E0,0E0,0E0,0E0,0E0,0E0,0E0,0E0,0E0],"parents":[2147483647,0,0,1,1,3,3,5,5,6,6,7,7,8,8,11,11,13,13,14,14,15,15,17,17,18,18,19,19],"right_children":[2,4,-1,6,-1,8,10,12,14,-1,-1,16,-1,18,20,22,-1,24,26,28,-1,-1,-1,-1,-1,-1,-1,-1,-1],"split_conditions":[9E0,2.6666667E0,5.0635715E-3,3E0,1.1493418E-3,2.5237998E-1,3.3633664E-1,1.0833333E1,1E0,-4.2309806E-5,1.1902503E-3,7.2032336E-8,-2.6384363E-5,1E0,1.6666667E-1,1E0,-1.7209578E-4,2.60034E-7,1.3333334E0,2.3333333E0,3.633271E-4,-9.551161E-5,-2.0042564E-5,-7.362803E-5,-1.6852202E-4,-5.741329E-5,1.5688116E-4,1.8280395E-4,-5.3547203E-5],"split_indices":[82,834,0,82,0,4,4,533,82,0,0,518,0,233,579,187,0,514,664,533,0,0,0,0,0,0,0,0,0],"split_type":[0,0,0,0,0,0,0,0,0,0,0,0,0,0,0,0,0,0,0,0,0,0,0,0,0,0,0,0,0],"sum_hessian":[2.624E3,2.599E3,2.5E1,2.556E3,4.3E1,2.485E3,7.1E1,1.787E3,6.98E2,4.6E1,2.5E1,1.75E3,3.7E1,5.37E2,1.61E2,1.722E3,2.8E1,4.56E2,8.1E1,1.26E2,3.5E1,1.69E3,3.2E1,4.28E2,2.8E1,5.4E1,2.7E1,2.5E1,1.01E2],"tree_param":{"num_deleted":"0","num_feature":"1006","num_nodes":"29","size_leaf_vector":"1"}},{"base_weights":[5.907028E-8,-4.581633E-4,4.53112E-3,-6.346014E-4,7.936284E-3,-6.876111E-4,3.6420368E-4,-7.161332E-5,1.6294764E-3,-7.578982E-4,1.3589994E-3,-7.85894E-4,1.4864966E-4,-1.4196745E-4,4.1587985E-4,-7.623577E-4,-2.3396958E-4,-7.8838486E-5,4.6476485E-5,-7.878112E-5,4.7157937E-5],"categories":[],"categories_nodes":[],"categories_segments":[],"categories_sizes":[],"default_left":[0,0,0,0,0,0,0,0,0,0,0,0,0,0,0,0,0,0,0,0,0],"id":8,"left_children":[1,3,-1,5,7,9,-1,-1,-1,11,13,15,-1,17,-1,19,-1,-1,-1,-1,-1],"loss_changes":[5.392041E-2,3.812945E-3,0E0,5.7357014E-4,3.8446859E-3,3.590734E-4,0E0,0E0,0E0,1.524085E-4,3.493901E-4,8.518144E-5,0E0,2.1937542E-5,0E0,7.399183E-5,0E0,0E0,0E0,0E0,0E0],"parents":[2147483647,0,0,1,1,3,3,4,4,5,5,9,9,10,10,11,11,13,13,15,15],"right_children":[2,4,-1,6,8,10,-1,-1,-1,12,14,16,-1,18,-1,20,-1,-1,-1,-1,-1],"split_conditions":[3.2230925E-2,4.962925E-1,4.53112E-3,5E-1,7E0,1E0,3.6420368E-4,-7.161332E-5,1.6294764E-3,3E0,9E0,2.8E1,1.4864966E-4,3.0605676E-7,4.1587985E-4,3E0,-2.3396958E-4,-7.8838486E-5,4.6476485E-5,-7.878112E-5,4.7157937E-5],"split_indices":[16,4,0,938,27,285,0,0,0,258,27,30,0,511,0,320,0,0,0,0,0],"split_type":[0,0,0,0,0,0,0,0,0,0,0,0,0,0,0,0,0,0,0,0,0],"sum_hessian":[2.595E3,2.57E3,2.5E1,2.518E3,5.2E1,2.488E3,3E1,2.6E1,2.6E1,2.406E3,8.2E1,2.377E3,2.9E1,5.4E1,2.8E1,2.343E3,3.4E1,2.6E1,2.8E1,2.296E3,4.7E1],"tree_param":{"num_deleted":"0","num_feature":"1006","num_nodes":"21","size_leaf_vector":"1"}},{"base_weights":[2.5235173E-5,-3.454064E-4,3.647544E-3,-5.2451965E-4,9.2311634E-4,-6.5097166E-4,1.2891012E-3,-7.36668E-4,2.6806688E-4,2.2912098E-4,6.906338E-4,-7.0271286E-4,-2.554839E-4,-2.9521872E-4,3.9090635E-4,3.0853352E-4,-4.553649E-4,-7.8611687E-4,-4.2462698E-4,-6.633883E-4,1.19641365E-4,-3.3650958E-6,-1.8949434E-4,-8.048035E-5,-3.2611944E-5,-5.160529E-5,1.15888484E-4,-3.8952126E-5,-1.3218563E-4,-7.0753704E-5,1.0138657E-4],"categories":[],"categories_nodes":[],"categories_segments":[],"categories_sizes":[],"default_left":[0,0,0,0,0,0,0,0,0,0,0,0,0,0,0,0,0,0,0,0,0,0,0,0,0,0,0,0,0,0,0],"id":9,"left_children":[1,3,-1,5,-1,7,9,11,13,15,-1,17,-1,19,-1,-1,21,23,25,27,-1,29,-1,-1,-1,-1,-1,-1,-1,-1,-1],"loss_changes":[3.489532E-2,4.390839E-3,0E0,5.767018E-4,0E0,1.851219E-4,9.7489974E-4,1.3081415E-4,4.1338915E-4,2.731553E-4,0E0,4.860433E-5,0E0,9.689908E-5,0E0,0E0,7.35215E-5,1.3679848E-5,7.139253E-5,2.4912013E-5,0E0,6.303592E-5,0E0,0E0,0E0,0E0,0E0,0E0,0E0,0E0,0E0],"parents":[2147483647,0,0,1,1,3,3,5,5,6,6,7,7,8,8,9,9,11,11,13,13,16,16,17,17,18,18,19,19,21,21],"right_children":[2,4,-1,6,-1,8,10,12,14,16,-1,18,-1,20,-1,-1,22,24,26,28,-1,30,-1,-1,-1,-1,-1,-1,-1,-1,-1],"split_conditions":[3.5642564E-2,6E0,3.647544E-3,3.8237897E-1,9.2311634E-4,1E0,4.165096E-7,2.3333333E0,7.3695625E-3,3.9743462E-1,6.906338E-4,2.4938595E-1,-2.554839E-4,1.6666667E-1,3.9090635E-4,3.0853352E-4,2.1666667E0,2E0,1E0,1E0,1.19641365E-4,2E0,-1.8949434E-4,-8.048035E-5,-3.2611944E-5,-5.160529E-5,1.15888484E-4,-3.8952126E-5,-1.3218563E-4,-7.0753704E-5,1.0138657E-4],"split_indices":[16,320,0,4,0,200,11,710,513,4,0,4,0,817,0,0,572,56,558,47,0,18,0,0,0,0,0,0,0,0,0],"split_type":[0,0,0,0,0,0,0,0,0,0,0,0,0,0,0,0,0,0,0,0,0,0,0,0,0,0,0,0,0,0,0],"sum_hessian":[2.581E3,2.556E3,2.5E1,2.51E3,4.6E1,2.347E3,1.63E2,2.147E3,2E2,1.38E2,2.5E1,2.109E3,3.8E1,1.74E2,2.6E1,2.6E1,1.12E2,1.621E3,4.88E2,1.4E2,3.4E1,8.6E1,2.6E1,1.557E3,6.4E1,4.62E2,2.6E1,1E2,4E1,5.1E1,3.5E1],"tree_param":{"num_deleted":"0","num_feature":"1006","num_nodes":"31","size_leaf_vector":"1"}},{"base_weights":[-5.3416974E-5,-4.301287E-4,3.7619811E-3,-5.4196606E-4,9.1686705E-4,-5.811653E-4,2.4000819E-4,-6.398046E-4,1.1186224E-3,-6.088456E-4,-3.4001187E-4,7.257595E-5,3.489552E-4,-6.4844557E-4,2.2848012E-4,1.162653E-4,-7.95208E-5,-6.245562E-5,-2.5117068E-4],"categories":[],"categories_nodes":[],"categories_segments":[],"categories_sizes":[],"default_left":[0,0,0,0,0,0,0,0,0,0,0,0,0,0,0,0,0,0,0],"id":10,"left_children":[1,3,-1,5,-1,7,-1,9,11,13,-1,15,-1,17,-1,-1,-1,-1,-1],"loss_changes":[3.727004E-2,2.7960802E-3,0E0,2.9789802E-4,0E0,2.5368913E-4,0E0,2.0763976E-4,2.1055544E-4,2.79702E-4,0E0,5.7681635E-5,0E0,1.0508264E-4,0E0,0E0,0E0,0E0,0E0],"parents":[2147483647,0,0,1,1,3,3,5,5,7,7,8,8,9,9,11,11,13,13],"right_children":[2,4,-1,6,-1,8,-1,10,12,14,-1,16,-1,18,-1,-1,-1,-1,-1],"split_conditions":[6E0,3.6666667E0,3.7619811E-3,3E0,9.1686705E-4,1E0,2.4000819E-4,1.715E2,1.6666667E-1,1.3333333E2,-3.4001187E-4,1.94E2,3.489552E-4,3.653962E-7,2.2848012E-4,1.162653E-4,-7.95208E-5,-6.245562E-5,-2.5117068E-4],"split_indices":[366,667,0,258,0,285,0,504,718,504,0,0,0,17,0,0,0,0,0],"split_type":[0,0,0,0,0,0,0,0,0,0,0,0,0,0,0,0,0,0,0],"sum_hessian":[2.624E3,2.599E3,2.5E1,2.57E3,2.9E1,2.537E3,3.3E1,2.453E3,8.4E1,2.427E3,2.6E1,5.9E1,2.5E1,2.395E3,3.2E1,2.6E1,3.3E1,2.366E3,2.9E1],"tree_param":{"num_deleted":"0","num_feature":"1006","num_nodes":"19","size_leaf_vector":"1"}},{"base_weights":[-8.786682E-6,-3.5807336E-4,3.1150298E-3,-5.1832566E-4,4.943398E-3,-4.76567E-4,-3.8449935E-4,-7.515578E-5,1.2000449E-3,-5.653261E-4,1.9733561E-3,1.2102225E-4,-5.883509E-4,-6.338519E-5,5.4759864E-4,-5.709606E-4,-2.0737169E-4,-8.447386E-5,5.9398822E-5,-6.0700062E-5,8.357434E-6],"categories":[],"categories_nodes":[],"categories_segments":[],"categories_sizes":[],"default_left":[0,0,0,0,0,0,0,0,0,0,0,0,0,0,0,0,0,0,0,0,0],"id":11,"left_children":[1,3,-1,5,7,9,-1,-1,-1,11,13,-1,15,17,-1,19,-1,-1,-1,-1,-1],"loss_changes":[2.8471384E-2,2.2004072E-3,0E0,3.4712773E-4,3.0634278E-3,5.4083375E-4,0E0,0E0,0E0,9.866443E-5,6.210009E-4,0E0,5.9931946E-5,2.9265659E-5,0E0,5.525007E-5,0E0,0E0,0E0,0E0,0E0],"parents":[2147483647,0,0,1,1,3,3,4,4,5,5,9,9,10,10,12,12,13,13,15,15],"right_children":[2,4,-1,6,8,10,-1,-1,-1,12,14,-1,16,18,-1,20,-1,-1,-1,-1,-1],"split_conditions":[1.1222581E-6,4E0,3.1150298E-3,1.1666666E0,1.7569144E-8,8.333333E-1,-3.8449935E-4,-7.515578E-5,1.2000449E-3,1.205E3,8.57436E-9,1.2102225E-4,6.253987E-2,3.6E1,5.4759864E-4,2E0,-2.0737169E-4,-8.447386E-5,5.9398822E-5,-6.0700062E-5,8.357434E-6],"split_indices":[17,320,0,659,15,580,0,0,0,2,9,0,13,1,0,82,0,0,0,0,0],"split_type":[0,0,0,0,0,0,0,0,0,0,0,0,0,0,0,0,0,0,0,0,0],"sum_hessian":[2.614E3,2.586E3,2.8E1,2.511E3,7.5E1,2.481E3,3E1,4.2E1,3.3E1,2.395E3,8.6E1,3E1,2.365E3,5.5E1,3.1E1,2.339E3,2.6E1,2.5E1,3E1,2.217E3,1.22E2],"tree_param":{"num_deleted":"0","num_feature":"1006","num_nodes":"21","size_leaf_vector":"1"}},{"base_weights":[7.951762E-6,-3.670822E-4,3.741007E-3,-4.466215E-4,7.503076E-4,-4.996761E-4,2.9189212E-4,-4.614728E-4,-4.0227568E-4,-4.973374E-4,2.84586E-4,-4.6330187E-4,-3.6880194E-4,-5.1960018E-5,1.0915981E-4],"categories":[],"categories_nodes":[],"categories_segments":[],"categories_sizes":[],"default_left":[0,0,0,0,0,0,0,0,0,0,0,0,0,0,0],"id":12,"left_children":[1,3,-1,5,-1,7,-1,9,-1,11,-1,13,-1,-1,-1],"loss_changes":[3.673659E-2,1.6265356E-3,0E0,4.5999425E-4,0E0,3.3853E-4,0E0,2.9831135E-4,0E0,2.672848E-4,0E0,2.1521095E-4,0E0,0E0,0E0],"parents":[2147483647,0,0,1,1,3,3,5,5,7,7,9,9,11,11],"right_children":[2,4,-1,6,-1,8,-1,10,-1,12,-1,14,-1,-1,-1],"split_conditions":[2E0,4.8926033E-2,3.741007E-3,1.0167999E-7,7.503076E-4,3E0,2.9189212E-4,3.0007591E-2,-4.0227568E-4,2.135191E-7,2.84586E-4,8.333333E-1,-3.6880194E-4,-5.1960018E-5,1.0915981E-4],"split_indices":[86,10,0,509,0,707,0,10,0,15,0,580,0,0,0],"split_type":[0,0,0,0,0,0,0,0,0,0,0,0,0,0,0],"sum_hessian":[2.617E3,2.592E3,2.5E1,2.567E3,2.5E1,2.528E3,3.9E1,2.502E3,2.6E1,2.476E3,2.6E1,2.451E3,2.5E1,2.366E3,8.5E1],"tree_param":{"num_deleted":"0","num_feature":"1006","num_nodes":"15","size_leaf_vector":"1"}},{"base_weights":[3.130558E-5,-3.198415E-4,2.7611363E-3,-4.624431E-4,1.1475811E-3,-4.1257337E-4,-3.8545654E-4,-4.6801637E-4,1.8355412E-3,-4.3548166E-4,-2.3817037E-4,4.5996532E-4,-4.9477294E-5,-4.8426658E-4,1.2133982E-3,-5.100296E-5,3.647344E-5,-5.3927564E-5,3.8616688E-4],"categories":[],"categories_nodes":[],"categories_segments":[],"categories_sizes":[],"default_left":[0,0,0,0,0,0,0,0,0,0,0,0,0,0,0,0,0,0,0],"id":13,"left_children":[1,3,-1,5,-1,7,-1,9,11,13,-1,-1,-1,15,17,-1,-1,-1,-1],"loss_changes":[2.5421368E-2,4.365256E-3,0E0,4.3180853E-4,0E0,3.1570523E-4,0E0,1.5249907E-4,3.9519204E-4,1.9573627E-4,0E0,0E0,0E0,5.1740324E-5,3.2699137E-4,0E0,0E0,0E0,0E0],"parents":[2147483647,0,0,1,1,3,3,5,5,7,7,8,8,9,9,13,13,14,14],"right_children":[2,4,-1,6,-1,8,-1,10,12,14,-1,-1,-1,16,18,-1,-1,-1,-1],"split_conditions":[2E0,1.6666666E0,2.7611363E-3,1E1,1.1475811E-3,2E0,-3.8545654E-4,1.1666666E0,2.39E2,1.6666667E-1,-2.3817037E-4,4.5996532E-4,-4.9477294E-5,2E0,6.666667E-1,-5.100296E-5,3.647344E-5,-5.3927564E-5,3.8616688E-4],"split_indices":[285,653,0,18,0,77,0,761,0,859,0,0,0,107,585,0,0,0,0],"split_type":[0,0,0,0,0,0,0,0,0,0,0,0,0,0,0,0,0,0,0],"sum_hessian":[2.623E3,2.591E3,3.2E1,2.561E3,3E1,2.525E3,3.6E1,2.465E3,6E1,2.425E3,4E1,2.7E1,3.3E1,2.356E3,6.9E1,2.287E3,6.9E1,4.2E1,2.7E1],"tree_param":{"num_deleted":"0","num_feature":"1006","num_nodes":"19","size_leaf_vector":"1"}},{"base_weights":[5.297089E-5,-2.5081864E-4,2.993915E-3,-3.3260536E-4,7.428245E-4,-4.0560553E-4,4.4691865E-4,-3.5484496E-4,-4.4288073E-4,-4.1691322E-4,1.2689682E-3,-4.5218E-4,5.0476013E-4,-7.378781E-5,3.429415E-4,-4.2877753E-5,-1.991015E-4,-3.1870222E-5,1.9557789E-4],"categories":[],"categories_nodes":[],"categories_segments":[],"categories_sizes":[],"default_left":[0,0,0,0,0,0,0,0,0,0,0,0,0,0,0,0,0,0,0],"id":14,"left_children":[1,3,-1,5,-1,7,-1,9,-1,11,13,15,17,-1,-1,-1,-1,-1,-1],"loss_changes":[2.3458846E-2,1.6090105E-3,0E0,8.8935904E-4,0E0,5.0795765E-4,0E0,2.4896968E-4,0E0,7.742623E-5,3.9707776E-4,8.1542996E-5,1.0577092E-4,0E0,0E0,0E0,0E0,0E0,0E0],"parents":[2147483647,0,0,1,1,3,3,5,5,7,7,9,9,10,10,11,11,12,12],"right_children":[2,4,-1,6,-1,8,-1,10,-1,12,14,16,18,-1,-1,-1,-1,-1,-1],"split_conditions":[3.5642564E-2,4.8926033E-2,2.993915E-3,1.3862066E-2,7.428245E-4,3.04E2,4.4691865E-4,3E0,-4.4288073E-4,2E0,1E0,1.1333333E1,2.596328E-1,-7.378781E-5,3.429415E-4,-4.2877753E-5,-1.991015E-4,-3.1870222E-5,1.9557789E-4],"split_indices":[16,10,0,16,0,1,0,207,0,31,82,535,507,0,0,0,0,0,0],"split_type":[0,0,0,0,0,0,0,0,0,0,0,0,0,0,0,0,0,0,0],"sum_hessian":[2.582E3,2.557E3,2.5E1,2.531E3,2.6E1,2.494E3,3.7E1,2.464E3,3E1,2.374E3,9E1,2.287E3,8.7E1,4.7E1,4.3E1,2.254E3,3.3E1,5.6E1,3.1E1],"tree_param":{"num_deleted":"0","num_feature":"1006","num_nodes":"19","size_leaf_vector":"1"}},{"base_weights":[2.668499E-5,-2.9095338E-4,2.9554756E-3,-3.9677872E-4,9.45537E-4,-3.547003E-4,-4.5100582E-4,-3.1700762E-4,-3.221159E-4,-3.9099145E-4,1.3223683E-3,-3.7702022E-4,-1.6106355E-4,-4.7467218E-4,5.66133E-4,-4.7146077E-5,-2.2315251E-5,1.9042798E-5,-1.7380255E-4],"categories":[],"categories_nodes":[],"categories_segments":[],"categories_sizes":[],"default_left":[0,0,0,0,0,0,0,0,0,0,0,0,0,0,0,0,0,0,0],"id":15,"left_children":[1,3,-1,5,-1,7,-1,9,-1,11,13,15,-1,17,-1,-1,-1,-1,-1],"loss_changes":[2.4676023E-2,2.688507E-3,0E0,4.4425504E-4,0E0,2.7460032E-4,0E0,3.0603967E-4,0E0,4.0476036E-5,8.5259206E-4,3.4552068E-5,0E0,6.5870976E-5,0E0,0E0,0E0,0E0,0E0],"parents":[2147483647,0,0,1,1,3,3,5,5,7,7,9,9,10,10,11,11,13,13],"right_children":[2,4,-1,6,-1,8,-1,10,-1,12,14,16,-1,18,-1,-1,-1,-1,-1],"split_conditions":[5.6287814E-7,5.4097605E-1,2.9554756E-3,1.7360628E-2,9.45537E-4,1.6666667E-1,-4.5100582E-4,3E0,-3.221159E-4,1.034057E-6,2E0,2.002469E-1,-1.6106355E-4,7.424217E-6,5.66133E-4,-4.7146077E-5,-2.2315251E-5,1.9042798E-5,-1.7380255E-4],"split_indices":[520,4,0,16,0,903,0,207,0,11,320,4,0,5,0,0,0,0,0],"split_type":[0,0,0,0,0,0,0,0,0,0,0,0,0,0,0,0,0,0,0],"sum_hessian":[2.629E3,2.602E3,2.7E1,2.575E3,2.7E1,2.55E3,2.5E1,2.518E3,3.2E1,2.41E3,1.08E2,2.384E3,2.6E1,7.7E1,3.1E1,1.476E3,9.08E2,5.1E1,2.6E1],"tree_param":{"num_deleted":"0","num_feature":"1006","num_nodes":"19","size_leaf_vector":"1"}},{"base_weights":[-2.6110747E-5,-2.6588855E-4,2.3073454E-3,-3.5927512E-4,4.7085944E-4,-3.1112984E-4,-4.6915552E-4,-3.5688342E-4,3.7851234E-4,-3.3567156E-4,-2.3623652E-4,-3.6199568E-4,2.1577811E-4,-3.4108383E-5,-1.3797152E-4],"categories":[],"categories_nodes":[],"categories_segments":[],"categories_sizes":[],"default_left":[0,0,0,0,0,0,0,0,0,0,0,0,0,0,0],"id":16,"left_children":[1,3,-1,5,-1,7,-1,9,-1,11,-1,13,-1,-1,-1],"loss_changes":[1.4556466E-2,1.2099858E-3,0E0,5.3125067E-4,0E0,4.7495676E-4,0E0,1.0555712E-4,0E0,1.6323503E-4,0E0,5.167126E-5,0E0,0E0,0E0],"parents":[2147483647,0,0,1,1,3,3,5,5,7,7,9,9,11,11],"right_children":[2,4,-1,6,-1,8,-1,10,-1,12,-1,14,-1,-1,-1],"split_conditions":[3.2433074E-2,4.962925E-1,2.3073454E-3,4.8333335E0,4.7085944E-4,2.78546E-7,-4.6915552E-4,4E0,3.7851234E-4,1.8272237E-7,-2.3623652E-4,1.5E0,2.1577811E-4,-3.4108383E-5,-1.3797152E-4],"split_indices":[16,4,0,521,0,520,0,31,0,15,0,585,0,0,0],"split_type":[0,0,0,0,0,0,0,0,0,0,0,0,0,0,0],"sum_hessian":[2.626E3,2.6E3,2.6E1,2.553E3,4.7E1,2.526E3,2.7E1,2.499E3,2.7E1,2.474E3,2.5E1,2.449E3,2.5E1,2.401E3,4.8E1],"tree_param":{"num_deleted":"0","num_feature":"1006","num_nodes":"15","size_leaf_vector":"1"}},{"base_weights":[-2.6477862E-6,-2.7659576E-4,2.0120863E-3,-3.4027663E-4,4.952106E-4,-2.985224E-4,-4.2170027E-4,-3.3991557E-4,3.3902156E-4,-3.0041477E-4,-3.799612E-4,-3.4380672E-4,2.2691538E-4,-3.0918767E-5,-3.0028506E-4],"categories":[],"categories_nodes":[],"categories_segments":[],"categories_sizes":[],"default_left":[0,0,0,0,0,0,0,0,0,0,0,0,0,0,0],"id":17,"left_children":[1,3,-1,5,-1,7,-1,9,-1,11,-1,13,-1,-1,-1],"loss_changes":[1.4366396E-2,8.577467E-4,0E0,4.1005202E-4,0E0,3.8516388E-4,0E0,3.388703E-4,0E0,2.7517814E-4,0E0,2.219333E-4,0E0,0E0,0E0],"parents":[2147483647,0,0,1,1,3,3,5,5,7,7,9,9,11,11],"right_children":[2,4,-1,6,-1,8,-1,10,-1,12,-1,14,-1,-1,-1],"split_conditions":[4E0,4E0,2.0120863E-3,2.1E1,4.952106E-4,4.1982094E-7,-4.2170027E-4,3E0,3.3902156E-4,1E0,-3.799612E-4,9.362999E-3,2.2691538E-4,-3.0918767E-5,-3.0028506E-4],"split_indices":[350,211,0,27,0,9,0,667,0,435,0,519,0,0,0],"split_type":[0,0,0,0,0,0,0,0,0,0,0,0,0,0,0],"sum_hessian":[2.604E3,2.57E3,3.4E1,2.54E3,3E1,2.514E3,2.6E1,2.487E3,2.7E1,2.46E3,2.7E1,2.42E3,4E1,2.39E3,3E1],"tree_param":{"num_deleted":"0","num_feature":"1006","num_nodes":"15","size_leaf_vector":"1"}},{"base_weights":[4.0151815E-5,-2.1048528E-4,2.5083038E-3,-2.899659E-4,7.3685736E-4,-2.2925001E-4,-4.3327227E-4,-3.0475325E-4,2.5144448E-3,-2.755945E-4,-2.8358874E-4,7.6508406E-4,-8.4739186E-5,-3.070119E-4,1.7192218E-4,-3.263948E-5,9.770193E-5],"categories":[],"categories_nodes":[],"categories_segments":[],"categories_sizes":[],"default_left":[0,0,0,0,0,0,0,0,0,0,0,0,0,0,0,0,0],"id":18,"left_children":[1,3,-1,5,-1,7,-1,9,11,13,-1,-1,-1,15,-1,-1,-1],"loss_changes":[1.6469002E-2,1.567141E-3,0E0,6.3032855E-4,0E0,5.259114E-4,0E0,1.8136844E-4,1.1806885E-3,1.5351E-4,0E0,0E0,0E0,6.0150298E-5,0E0,0E0,0E0],"parents":[2147483647,0,0,1,1,3,3,5,5,7,7,8,8,9,9,13,13],"right_children":[2,4,-1,6,-1,8,-1,10,12,14,-1,-1,-1,16,-1,-1,-1],"split_conditions":[3.5642564E-2,1E0,2.5083038E-3,3.3333333E0,7.3685736E-4,3.8333333E0,-4.3327227E-4,1E1,7.733944E-8,1E0,-2.8358874E-4,7.6508406E-4,-8.4739186E-5,1E0,1.7192218E-4,-3.263948E-5,9.770193E-5],"split_indices":[16,442,0,664,0,584,0,18,517,127,0,0,0,435,0,0,0],"split_type":[0,0,0,0,0,0,0,0,0,0,0,0,0,0,0,0,0],"sum_hessian":[2.622E3,2.597E3,2.5E1,2.571E3,2.6E1,2.534E3,3.7E1,2.467E3,6.7E1,2.44E3,2.7E1,2.6E1,4.1E1,2.403E3,3.7E1,2.368E3,3.5E1],"tree_param":{"num_deleted":"0","num_feature":"1006","num_nodes":"17","size_leaf_vector":"1"}},{"base_weights":[2.1911126E-5,-2.0086314E-4,2.2341337E-3,-2.9248383E-4,3.4413342E-3,-2.3937006E-4,-4.886812E-4,-1.20496225E-4,1.027842E-3,-2.9022136E-4,4.2858647E-4,-2.5326922E-4,-2.7990114E-4,-2.8842152E-4,2.2551614E-4,-2.7168417E-5,-1.818452E-4],"categories":[],"categories_nodes":[],"categories_segments":[],"categories_sizes":[],"default_left":[0,0,0,0,0,0,0,0,0,0,0,0,0,0,0,0,0],"id":19,"left_children":[1,3,-1,5,7,9,-1,-1,-1,11,-1,13,-1,15,-1,-1,-1],"loss_changes":[1.3081356E-2,8.702966E-4,0E0,6.191343E-4,2.0454815E-3,5.797507E-4,0E0,0E0,0E0,2.2984887E-4,0E0,2.168606E-4,0E0,6.145329E-5,0E0,0E0,0E0],"parents":[2147483647,0,0,1,1,3,3,4,4,5,5,9,9,11,11,13,13],"right_children":[2,4,-1,6,8,10,-1,-1,-1,12,-1,14,-1,16,-1,-1,-1],"split_conditions":[8E0,3.3333334E-1,2.2341337E-3,1.6666666E0,8.020042E-3,4.8333335E0,-4.886812E-4,-1.20496225E-4,1.027842E-3,3.2368118E-7,4.2858647E-4,1E0,-2.7990114E-4,4.0129893E-2,2.2551614E-4,-2.7168417E-5,-1.818452E-4],"split_indices":[204,746,0,950,10,584,0,0,0,17,0,318,0,10,0,0,0],"split_type":[0,0,0,0,0,0,0,0,0,0,0,0,0,0,0,0,0],"sum_hessian":[2.629E3,2.604E3,2.5E1,2.541E3,6.3E1,2.513E3,2.8E1,3.8E1,2.5E1,2.486E3,2.7E1,2.451E3,3.5E1,2.418E3,3.3E1,2.393E3,2.5E1],"tree_param":{"num_deleted":"0","num_feature":"1006","num_nodes":"17","size_leaf_vector":"1"}},{"base_weights":[-9.207968E-6,-2.6128558E-4,2.5227992E-3,-1.9601278E-4,-5.338712E-4,-2.6059788E-4,5.4741924E-4,-2.1163326E-4,-4.992611E-4,-2.3769551E-4,1.820506E-4,-2.7372013E-4,1.1995088E-3,-2.4605677E-5,-2.5527095E-4,-5.880008E-5,2.9483248E-4],"categories":[],"categories_nodes":[],"categories_segments":[],"categories_sizes":[],"default_left":[0,0,0,0,0,0,0,0,0,0,0,0,0,0,0,0,0],"id":20,"left_children":[1,3,-1,5,-1,7,-1,9,-1,11,-1,13,15,-1,-1,-1,-1],"loss_changes":[1.6725225E-2,8.616339E-4,0E0,9.429544E-4,0E0,5.881596E-4,0E0,1.3379136E-4,0E0,1.2909215E-4,0E0,1.5238095E-4,1.9242114E-4,0E0,0E0,0E0,0E0],"parents":[2147483647,0,0,1,1,3,3,5,5,7,7,9,9,11,11,12,12],"right_children":[2,4,-1,6,-1,8,-1,10,-1,12,-1,14,16,-1,-1,-1,-1],"split_conditions":[2E0,1.3333334E0,2.5227992E-3,2.5E0,-5.338712E-4,1.6594674E-2,5.4741924E-4,3E0,-4.992611E-4,2E0,1.820506E-4,2.9E1,1.6666667E-1,-2.4605677E-5,-2.5527095E-4,-5.880008E-5,2.9483248E-4],"split_indices":[86,659,0,834,0,16,0,201,0,77,0,30,985,0,0,0,0],"split_type":[0,0,0,0,0,0,0,0,0,0,0,0,0,0,0,0,0],"sum_hessian":[2.627E3,2.602E3,2.5E1,2.57E3,3.2E1,2.542E3,2.8E1,2.517E3,2.5E1,2.486E3,3.1E1,2.426E3,6E1,2.398E3,2.8E1,3E1,3E1],"tree_param":{"num_deleted":"0","num_feature":"1006","num_nodes":"17","size_leaf_vector":"1"}},{"base_weights":[2.9409151E-5,-1.925706E-4,1.9222278E-3,-2.8653696E-4,9.099434E-4,-2.3863603E-4,-4.9624377E-4,-2.0937294E-4,-2.9588517E-4,-2.36356E-4,2.2888179E-4,-2.633044E-4,1.1412516E-4,-2.4112538E-5,-2.10273E-4],"categories":[],"categories_nodes":[],"categories_segments":[],"categories_sizes":[],"default_left":[0,0,0,0,0,0,0,0,0,0,0,0,0,0,0],"id":21,"left_children":[1,3,-1,5,-1,7,-1,9,-1,11,-1,13,-1,-1,-1],"loss_changes":[1.1178806E-2,2.2675213E-3,0E0,5.7422044E-4,0E0,2.0188774E-4,0E0,1.7027638E-4,0E0,9.281427E-5,0E0,9.924076E-5,0E0,0E0,0E0],"parents":[2147483647,0,0,1,1,3,3,5,5,7,7,9,9,11,11],"right_children":[2,4,-1,6,-1,8,-1,10,-1,12,-1,14,-1,-1,-1],"split_conditions":[2E0,2.7543897E-2,1.9222278E-3,1.8533487E-2,9.099434E-4,4.8333335E0,-4.9624377E-4,1.2666667E1,-2.9588517E-4,3.3333334E-1,2.2888179E-4,5E0,1.1412516E-4,-2.4112538E-5,-2.10273E-4],"split_indices":[285,513,0,16,0,521,0,535,0,959,0,164,0,0,0],"split_type":[0,0,0,0,0,0,0,0,0,0,0,0,0,0,0],"sum_hessian":[2.622E3,2.593E3,2.9E1,2.568E3,2.5E1,2.543E3,2.5E1,2.517E3,2.6E1,2.491E3,2.6E1,2.444E3,4.7E1,2.416E3,2.8E1],"tree_param":{"num_deleted":"0","num_feature":"1006","num_nodes":"15","size_leaf_vector":"1"}},{"base_weights":[-1.1357433E-5,-1.9319566E-4,1.378729E-3,-1.3180885E-4,-5.4066814E-4,-2.0855626E-4,5.2356435E-4,-1.6702633E-4,-2.9123502E-4,-2.4325559E-4,3.0190826E-3,-2.208864E-4,-2.1479333E-4,7.877904E-4,-9.00567E-5,-2.5152278E-5,6.355338E-5],"categories":[],"categories_nodes":[],"categories_segments":[],"categories_sizes":[],"default_left":[0,0,0,0,0,0,0,0,0,0,0,0,0,0,0,0,0],"id":22,"left_children":[1,3,-1,5,-1,7,-1,9,-1,11,13,15,-1,-1,-1,-1,-1],"loss_changes":[6.5589985E-3,8.2498876E-4,0E0,1.051946E-3,0E0,2.8203113E-4,0E0,6.0282095E-4,0E0,1.0271756E-4,1.1116974E-3,6.2998966E-5,0E0,0E0,0E0,0E0,0E0],"parents":[2147483647,0,0,1,1,3,3,5,5,7,7,9,9,10,10,11,11],"right_children":[2,4,-1,6,-1,8,-1,10,-1,12,14,16,-1,-1,-1,-1,-1],"split_conditions":[4E0,2.1E1,1.378729E-3,2.29E2,-5.4066814E-4,2.3333333E0,5.2356435E-4,3.8333333E0,-2.9123502E-4,3.653962E-7,3.308832E-8,2E0,-2.1479333E-4,7.877904E-4,-9.00567E-5,-2.5152278E-5,6.355338E-5],"split_indices":[350,27,0,1,0,569,0,584,0,17,515,62,0,0,0,0,0],"split_type":[0,0,0,0,0,0,0,0,0,0,0,0,0,0,0,0,0],"sum_hessian":[2.612E3,2.579E3,3.3E1,2.55E3,2.9E1,2.515E3,3.5E1,2.478E3,3.7E1,2.421E3,5.7E1,2.394E3,2.7E1,2.5E1,3.2E1,2.312E3,8.2E1],"tree_param":{"num_deleted":"0","num_feature":"1006","num_nodes":"17","size_leaf_vector":"1"}},{"base_weights":[-5.38675E-5,-1.8601904E-4,1.1732262E-3,-2.527119E-4,4.981241E-4,-1.9411635E-4,-5.531935E-4,-2.293773E-4,2.851099E-4,-1.7635868E-4,-4.185971E-4,-2.0599373E-4,2.4124235E-4,-1.7148195E-5,-1.572103E-4],"categories":[],"categories_nodes":[],"categories_segments":[],"categories_sizes":[],"default_left":[0,0,0,0,0,0,0,0,0,0,0,0,0,0,0],"id":23,"left_children":[1,3,-1,5,-1,7,-1,9,-1,11,-1,13,-1,-1,-1],"loss_changes":[4.073632E-3,8.924444E-4,0E0,7.8897795E-4,0E0,2.719962E-4,0E0,5.2348495E-4,0E0,1.8976198E-4,0E0,1.1476877E-4,0E0,0E0,0E0],"parents":[2147483647,0,0,1,1,3,3,5,5,7,7,9,9,11,11],"right_children":[2,4,-1,6,-1,8,-1,10,-1,12,-1,14,-1,-1,-1],"split_conditions":[2E0,6.666667E-1,1.1732262E-3,1E0,4.981241E-4,3.3333334E-1,-5.531935E-4,1.9E1,2.851099E-4,3E0,-4.185971E-4,5.742276E-7,2.4124235E-4,-1.7148195E-5,-1.572103E-4],"split_indices":[285,905,0,570,0,859,0,27,0,258,0,11,0,0,0],"split_type":[0,0,0,0,0,0,0,0,0,0,0,0,0,0,0],"sum_hessian":[2.613E3,2.585E3,2.8E1,2.553E3,3.2E1,2.526E3,2.7E1,2.498E3,2.8E1,2.466E3,3.2E1,2.439E3,2.7E1,2.38E3,5.9E1],"tree_param":{"num_deleted":"0","num_feature":"1006","num_nodes":"15","size_leaf_vector":"1"}},{"base_weights":[3.8518574E-5,-1.6619178E-4,2.0484452E-3,-9.810013E-5,-5.9892976E-4,-1.809991E-4,4.8919907E-4,-1.530774E-4,-2.8609645E-4,-1.9119163E-4,1.2139998E-3,-2.1284948E-4,1.7482505E-4,-8.7917724E-5,4.6291001E-4,-1.866386E-5,-1.9853632E-4],"categories":[],"categories_nodes":[],"categories_segments":[],"categories_sizes":[],"default_left":[0,0,0,0,0,0,0,0,0,0,0,0,0,0,0,0,0],"id":24,"left_children":[1,3,-1,5,-1,7,-1,9,-1,11,13,15,-1,-1,-1,-1,-1],"loss_changes":[1.097777E-2,1.0291355E-3,0E0,1.0631987E-3,0E0,1.886554E-4,0E0,1.3059909E-4,0E0,1.0265218E-4,4.901617E-4,1.11549525E-4,0E0,0E0,0E0,0E0,0E0],"parents":[2147483647,0,0,1,1,3,3,5,5,7,7,9,9,10,10,11,11],"right_children":[2,4,-1,6,-1,8,-1,10,-1,12,14,16,-1,-1,-1,-1,-1],"split_conditions":[2E0,1.3333334E0,2.0484452E-3,8.333333E-1,-5.9892976E-4,2E1,4.8919907E-4,9.666667E0,-2.8609645E-4,2E0,3.8237897E-1,2.4724457E-7,1.7482505E-4,-8.7917724E-5,4.6291001E-4,-1.866386E-5,-1.9853632E-4],"split_indices":[86,659,0,883,0,27,0,535,0,352,4,17,0,0,0,0,0],"split_type":[0,0,0,0,0,0,0,0,0,0,0,0,0,0,0,0,0],"sum_hessian":[2.621E3,2.596E3,2.5E1,2.567E3,2.9E1,2.526E3,4.1E1,2.501E3,2.5E1,2.434E3,6.7E1,2.408E3,2.6E1,4.2E1,2.5E1,2.374E3,3.4E1],"tree_param":{"num_deleted":"0","num_feature":"1006","num_nodes":"17","size_leaf_vector":"1"}},{"base_weights":[6.701211E-5,-1.2339653E-4,1.8936861E-3,-6.2063795E-5,-5.70465E-4,-1.2868184E-4,5.022976E-4,-1.7333627E-4,3.0441832E-4,-1.4350937E-4,-2.52888E-4,-1.82534E-4,3.3711313E-4,-1.5493804E-5,-2.1806367E-4],"categories":[],"categories_nodes":[],"categories_segments":[],"categories_sizes":[],"default_left":[0,0,0,0,0,0,0,0,0,0,0,0,0,0,0],"id":25,"left_children":[1,3,-1,5,-1,7,-1,9,-1,11,-1,13,-1,-1,-1],"loss_changes":[9.351277E-3,8.8178803E-4,0E0,8.6447276E-4,0E0,3.5728415E-4,0E0,1.741593E-4,0E0,3.3719986E-4,0E0,1.33541E-4,0E0,0E0,0E0],"parents":[2147483647,0,0,1,1,3,3,5,5,7,7,9,9,11,11],"right_children":[2,4,-1,6,-1,8,-1,10,-1,12,-1,14,-1,-1,-1],"split_conditions":[2E0,3E0,1.8936861E-3,2.077901E-7,-5.70465E-4,3E0,5.022976E-4,2E0,3.0441832E-4,1.5E0,-2.52888E-4,1E0,3.3711313E-4,-1.5493804E-5,-2.1806367E-4],"split_indices":[86,28,0,15,0,258,0,645,0,878,0,243,0,0,0],"split_type":[0,0,0,0,0,0,0,0,0,0,0,0,0,0,0],"sum_hessian":[2.601E3,2.576E3,2.5E1,2.549E3,2.7E1,2.517E3,3.2E1,2.483E3,3.4E1,2.453E3,3E1,2.427E3,2.6E1,2.395E3,3.2E1],"tree_param":{"num_deleted":"0","num_feature":"1006","num_nodes":"15","size_leaf_vector":"1"}},{"base_weights":[-1.1751746E-5,-2.0448976E-4,1.9255087E-3,-1.4221089E-4,-5.5328954E-4,-1.068631E-4,-3.3474693E-4,-1.5104043E-4,3.728062E-4,-2.1060507E-4,1.0607145E-3,-1.7011564E-4,-1.5162759E-3,4.6407824E-4,-5.2501124E-5,-2.4594448E-5,4.708974E-6,-9.158264E-6,-3.0197637E-4,5.185773E-5,-7.311064E-5],"categories":[],"categories_nodes":[],"categories_segments":[],"categories_sizes":[],"default_left":[0,0,0,0,0,0,0,0,0,0,0,0,0,0,0,0,0,0,0,0,0],"id":26,"left_children":[1,3,-1,5,-1,7,-1,9,-1,11,13,15,17,-1,19,-1,-1,-1,-1,-1,-1],"loss_changes":[9.748036E-3,8.6168345E-4,0E0,2.9082023E-4,0E0,4.313898E-4,0E0,1.8175044E-4,0E0,1.2651444E-4,4.7051936E-4,3.8338265E-5,1.5394807E-4,0E0,3.564499E-5,0E0,0E0,0E0,0E0,0E0,0E0],"parents":[2147483647,0,0,1,1,3,3,5,5,7,7,9,9,10,10,11,11,12,12,14,14],"right_children":[2,4,-1,6,-1,8,-1,10,-1,12,14,16,18,-1,20,-1,-1,-1,-1,-1,-1],"split_conditions":[3.6289353E-2,5E0,1.9255087E-3,3.3333333E0,-5.5328954E-4,1.2333333E1,-3.3474693E-4,1E0,3.728062E-4,2E0,1.5998334E3,1.5003958E-2,1.6666667E-1,4.6407824E-4,3.3333334E-1,-2.4594448E-5,4.708974E-6,-9.158264E-6,-3.0197637E-4,5.185773E-5,-7.311064E-5],"split_indices":[16,82,0,664,0,535,0,108,0,823,505,510,655,0,540,0,0,0,0,0,0],"split_type":[0,0,0,0,0,0,0,0,0,0,0,0,0,0,0,0,0,0,0,0,0],"sum_hessian":[2.623E3,2.598E3,2.5E1,2.569E3,2.9E1,2.542E3,2.7E1,2.514E3,2.8E1,2.397E3,1.17E2,2.326E3,7.1E1,2.7E1,9E1,1.724E3,6.02E2,3.7E1,3.4E1,4.9E1,4.1E1],"tree_param":{"num_deleted":"0","num_feature":"1006","num_nodes":"21","size_leaf_vector":"1"}},{"base_weights":[-2.7352435E-5,-1.6544343E-4,1.3708443E-3,-1.0592237E-4,-4.5006513E-4,-1.6932894E-4,2.672476E-3,-1.2260405E-4,-2.9641337E-4,-1.0917066E-4,6.09663E-4,-1.5914362E-4,2.6502414E-4,-1.2701901E-4,-1.4020216E-3,-1.4960596E-5,1.3809004E-4,-1.0184008E-5,-2.8331933E-4],"categories":[],"categories_nodes":[],"categories_segments":[],"categories_sizes":[],"default_left":[0,0,0,0,0,0,0,0,0,0,0,0,0,0,0,0,0,0,0],"id":27,"left_children":[1,3,-1,5,-1,7,9,11,-1,-1,-1,13,-1,15,17,-1,-1,-1,-1],"loss_changes":[4.9547856E-3,6.6680467E-4,0E0,4.5003503E-4,0E0,3.2558155E-4,7.413368E-4,2.492602E-4,0E0,0E0,0E0,9.664483E-5,0E0,8.075681E-5,1.1321921E-4,0E0,0E0,0E0,0E0],"parents":[2147483647,0,0,1,1,3,3,5,5,6,6,7,7,11,11,13,13,14,14],"right_children":[2,4,-1,6,-1,8,10,12,-1,-1,-1,14,-1,16,18,-1,-1,-1,-1],"split_conditions":[2E0,3E0,1.3708443E-3,2.7170558E-2,-4.5006513E-4,4.776653E-1,1.6666667E-1,3E0,-2.9641337E-4,-1.0917066E-4,6.09663E-4,3.3333334E-1,2.6502414E-4,1E0,4.5594363E-3,-1.4960596E-5,1.3809004E-4,-1.0184008E-5,-2.8331933E-4],"split_indices":[166,28,0,10,0,4,570,258,0,0,0,589,0,341,7,0,0,0,0],"split_type":[0,0,0,0,0,0,0,0,0,0,0,0,0,0,0,0,0,0,0],"sum_hessian":[2.61E3,2.585E3,2.5E1,2.551E3,3.4E1,2.495E3,5.6E1,2.455E3,4E1,2.7E1,2.9E1,2.424E3,3.1E1,2.364E3,6E1,2.33E3,3.4E1,3.2E1,2.8E1],"tree_param":{"num_deleted":"0","num_feature":"1006","num_nodes":"19","size_leaf_vector":"1"}},{"base_weights":[3.434252E-7,-1.4423252E-4,1.2525428E-3,-8.942771E-5,-5.564361E-4,-1.6956408E-4,7.203314E-4,-1.0548579E-4,-5.7296903E-4,-1.6006864E-4,3.0411937E-4,-1.21259305E-4,-2.7881892E-4,-1.4128667E-5,1.6753099E-4],"categories":[],"categories_nodes":[],"categories_segments":[],"categories_sizes":[],"default_left":[0,0,0,0,0,0,0,0,0,0,0,0,0,0,0],"id":28,"left_children":[1,3,-1,5,-1,7,-1,9,-1,11,-1,13,-1,-1,-1],"loss_changes":[4.760657E-3,7.71533E-4,0E0,1.5055027E-3,0E0,9.068494E-4,0E0,4.3313697E-4,0E0,2.5230506E-4,0E0,8.810118E-5,0E0,0E0,0E0],"parents":[2147483647,0,0,1,1,3,3,5,5,7,7,9,9,11,11],"right_children":[2,4,-1,6,-1,8,-1,10,-1,12,-1,14,-1,-1,-1],"split_conditions":[5.7252717E-1,1.6666666E0,1.2525428E-3,2.1666667E0,-5.564361E-4,1.1E1,7.203314E-4,4.1666665E0,-5.7296903E-4,7.1237884E-3,3.0411937E-4,1E0,-2.7881892E-4,-1.4128667E-5,1.6753099E-4],"split_indices":[4,653,0,645,0,18,0,584,0,519,0,214,0,0,0],"split_type":[0,0,0,0,0,0,0,0,0,0,0,0,0,0,0],"sum_hessian":[2.627E3,2.598E3,2.9E1,2.573E3,2.5E1,2.546E3,2.7E1,2.518E3,2.8E1,2.476E3,4.2E1,2.441E3,3.5E1,2.415E3,2.6E1],"tree_param":{"num_deleted":"0","num_feature":"1006","num_nodes":"15","size_leaf_vector":"1"}},{"base_weights":[3.1821004E-5,-1.2379205E-4,1.5771457E-3,-1.7784223E-4,4.7300823E-4,-1.2940298E-4,-4.972078E-4,-1.758376E-4,2.0030325E-3,-1.3625479E-4,-3.6980817E-4,-1.2023322E-4,5.6244904E-4,-9.888792E-5,-1.8567905E-3,-7.2067037E-6,-1.8909051E-4,-7.2662246E-5,-2.9181884E-4],"categories":[],"categories_nodes":[],"categories_segments":[],"categories_sizes":[],"default_left":[0,0,0,0,0,0,0,0,0,0,0,0,0,0,0,0,0,0,0],"id":29,"left_children":[1,3,-1,5,-1,7,-1,9,11,13,-1,-1,-1,15,17,-1,-1,-1,-1],"loss_changes":[6.5048253E-3,6.90829E-4,0E0,6.0361705E-4,0E0,2.5552374E-4,0E0,3.5125352E-4,6.4520765E-4,1.6028681E-4,0E0,0E0,0E0,1.17330885E-4,6.145617E-5,0E0,0E0,0E0,0E0],"parents":[2147483647,0,0,1,1,3,3,5,5,7,7,8,8,9,9,13,13,14,14],"right_children":[2,4,-1,6,-1,8,-1,10,12,14,-1,-1,-1,16,18,-1,-1,-1,-1],"split_conditions":[8E0,1E0,1.5771457E-3,5E0,4.7300823E-4,2.6283277E-7,-4.972078E-4,1.3862066E-2,8.333333E-1,2.5E0,-3.6980817E-4,-1.2023322E-4,5.6244904E-4,2.29E2,2E0,-7.2067037E-6,-1.8909051E-4,-7.2662246E-5,-2.9181884E-4],"split_indices":[164,330,0,31,0,9,0,16,529,823,0,0,0,1,572,0,0,0,0],"split_type":[0,0,0,0,0,0,0,0,0,0,0,0,0,0,0,0,0,0,0],"sum_hessian":[2.654E3,2.629E3,2.5E1,2.601E3,2.8E1,2.576E3,2.5E1,2.522E3,5.4E1,2.495E3,2.7E1,2.9E1,2.5E1,2.443E3,5.2E1,2.408E3,3.5E1,2.6E1,2.6E1],"tree_param":{"num_deleted":"0","num_feature":"1006","num_nodes":"19","size_leaf_vector":"1"}},{"base_weights":[2.5143707E-5,-1.3402721E-4,1.4656602E-3,-1.963142E-4,5.977647E-4,-1.22946E-4,-6.797681E-4,-7.526584E-5,-1.3402565E-3,-1.122566E-4,1.8860953E-4,-8.325684E-5,-2.7953414E-4,-8.0179154E-5,-1.0005701E-3,-5.4033648E-5,3.94605E-5,-1.0549005E-5,1.7186088E-4,-1.6163116E-5,-2.833566E-4],"categories":[],"categories_nodes":[],"categories_segments":[],"categories_sizes":[],"default_left":[0,0,0,0,0,0,0,0,0,0,0,0,0,0,0,0,0,0,0,0,0],"id":30,"left_children":[1,3,-1,5,-1,7,-1,9,11,13,-1,15,-1,17,19,-1,-1,-1,-1,-1,-1],"loss_changes":[6.0594403E-3,9.810377E-4,0E0,1.2337221E-3,0E0,1.4627997E-4,0E0,1.763686E-4,1.7352619E-4,6.7851455E-5,0E0,1.1571107E-5,0E0,1.0498888E-4,1.2717707E-4,0E0,0E0,0E0,0E0,0E0,0E0],"parents":[2147483647,0,0,1,1,3,3,5,5,7,7,8,8,9,9,11,11,13,13,14,14],"right_children":[2,4,-1,6,-1,8,-1,10,12,14,-1,16,-1,18,20,-1,-1,-1,-1,-1,-1],"split_conditions":[3.0480217E-2,5.7252717E-1,1.4656602E-3,5E0,5.977647E-4,3.0743263E-7,-6.797681E-4,4.1666665E0,2.7055237E-1,2E0,1.8860953E-4,3.3333334E-1,-2.7953414E-4,1E0,8.4905E-6,-5.4033648E-5,3.94605E-5,-1.0549005E-5,1.7186088E-4,-1.6163116E-5,-2.833566E-4],"split_indices":[519,4,0,31,0,514,0,584,507,375,0,815,0,127,5,0,0,0,0,0,0],"split_type":[0,0,0,0,0,0,0,0,0,0,0,0,0,0,0,0,0,0,0,0,0],"sum_hessian":[2.6E3,2.573E3,2.7E1,2.548E3,2.5E1,2.521E3,2.7E1,2.427E3,9.4E1,2.383E3,4.4E1,5.1E1,4.3E1,2.301E3,8.2E1,2.6E1,2.5E1,2.27E3,3.1E1,5.7E1,2.5E1],"tree_param":{"num_deleted":"0","num_feature":"1006","num_nodes":"21","size_leaf_vector":"1"}},{"base_weights":[-3.748864E-5,-1.905876E-4,1.4141907E-3,-1.3589095E-4,-5.02184E-4,-1.0547843E-4,-2.2694403E-4,-1.5183458E-4,1.084301E-3,-1.2237336E-4,-1.679877E-4,-1.2117955E-4,2.850074E-3,-1.4372173E-4,1.4074204E-4,-8.593436E-5,6.3252245E-4,-1.07685755E-5,-2.0821321E-4],"categories":[],"categories_nodes":[],"categories_segments":[],"categories_sizes":[],"default_left":[0,0,0,0,0,0,0,0,0,0,0,0,0,0,0,0,0,0,0],"id":31,"left_children":[1,3,-1,5,-1,7,-1,9,11,13,-1,-1,15,17,-1,-1,-1,-1,-1],"loss_changes":[5.690324E-3,6.845264E-4,0E0,1.6619478E-4,0E0,1.3970323E-4,0E0,1.0945827E-4,3.8862033E-4,7.828901E-5,0E0,0E0,7.015378E-4,1.6455784E-4,0E0,0E0,0E0,0E0,0E0],"parents":[2147483647,0,0,1,1,3,3,5,5,7,7,8,8,9,9,12,12,13,13],"right_children":[2,4,-1,6,-1,8,-1,10,12,14,-1,-1,16,18,-1,-1,-1,-1,-1],"split_conditions":[3.0480217E-2,5E0,1.4141907E-3,1.8333334E0,-5.02184E-4,3E0,-2.2694403E-4,4.5800847E-1,2.4938595E-1,6.666667E-1,-1.679877E-4,-1.2117955E-4,5E-1,3.8333333E0,1.4074204E-4,-8.593436E-5,6.3252245E-4,-1.07685755E-5,-2.0821321E-4],"split_indices":[519,82,0,679,0,164,0,4,4,883,0,0,614,584,0,0,0,0,0],"split_type":[0,0,0,0,0,0,0,0,0,0,0,0,0,0,0,0,0,0,0],"sum_hessian":[2.619E3,2.592E3,2.7E1,2.564E3,2.8E1,2.529E3,3.5E1,2.435E3,9.4E1,2.39E3,4.5E1,4.1E1,5.3E1,2.358E3,3.2E1,2.6E1,2.7E1,2.316E3,4.2E1],"tree_param":{"num_deleted":"0","num_feature":"1006","num_nodes":"19","size_leaf_vector":"1"}},{"base_weights":[1.7299782E-5,-1.3638168E-4,1.2561008E-3,-6.1021066E-5,-6.2104245E-4,-1.140642E-4,5.155874E-4,-1.4401335E-4,2.6965063E-4,-1.0743452E-4,-3.531027E-4,-7.7819386E-5,-2.8214662E-4,-9.721009E-6,1.6223383E-4],"categories":[],"categories_nodes":[],"categories_segments":[],"categories_sizes":[],"default_left":[0,0,0,0,0,0,0,0,0,0,0,0,0,0,0],"id":32,"left_children":[1,3,-1,5,-1,7,-1,9,-1,11,-1,13,-1,-1,-1],"loss_changes":[5.0967177E-3,1.1952473E-3,0E0,7.1480364E-4,0E0,2.1553753E-4,0E0,3.130699E-4,0E0,2.0104296E-4,0E0,8.185053E-5,0E0,0E0,0E0],"parents":[2147483647,0,0,1,1,3,3,5,5,7,7,9,9,11,11],"right_children":[2,4,-1,6,-1,8,-1,10,-1,12,-1,14,-1,-1,-1],"split_conditions":[5.9530355E-2,1.3333334E0,1.2561008E-3,6.253987E-2,-6.2104245E-4,3.1666667E0,5.155874E-4,2.1666667E0,2.6965063E-4,4.3702175E-7,-3.531027E-4,2E0,-2.8214662E-4,-9.721009E-6,1.6223383E-4],"split_indices":[10,570,0,13,0,664,0,585,0,17,0,23,0,0,0],"split_type":[0,0,0,0,0,0,0,0,0,0,0,0,0,0,0],"sum_hessian":[2.642E3,2.611E3,3.1E1,2.58E3,3.1E1,2.555E3,2.5E1,2.529E3,2.6E1,2.503E3,2.6E1,2.477E3,2.6E1,2.45E3,2.7E1],"tree_param":{"num_deleted":"0","num_feature":"1006","num_nodes":"15","size_leaf_vector":"1"}},{"base_weights":[3.8291004E-5,-1.3230869E-4,9.772996E-4,-6.3148975E-5,-6.891573E-4,-1.3760301E-4,5.12557E-4,-1.092427E-4,-2.1980194E-4,-8.797186E-5,-2.1094094E-4,-1.06533655E-4,1.6466567E-4,-7.4382997E-6,-2.4347157E-4],"categories":[],"categories_nodes":[],"categories_segments":[],"categories_sizes":[],"default_left":[0,0,0,0,0,0,0,0,0,0,0,0,0,0,0],"id":33,"left_children":[1,3,-1,5,-1,7,-1,9,-1,11,-1,13,-1,-1,-1],"loss_changes":[4.339141E-3,1.2000247E-3,0E0,9.831197E-4,0E0,1.4631245E-4,0E0,1.0511389E-4,0E0,7.9060126E-5,0E0,1.8133647E-4,0E0,0E0,0E0],"parents":[2147483647,0,0,1,1,3,3,5,5,7,7,9,9,11,11],"right_children":[2,4,-1,6,-1,8,-1,10,-1,12,-1,14,-1,-1,-1],"split_conditions":[2.077901E-7,3.5E0,9.772996E-4,5E-1,-6.891573E-4,1.4E1,5.12557E-4,5.571624E-2,-2.1980194E-4,3.3333334E-1,-2.1094094E-4,3.679783E-2,1.6466567E-4,-7.4382997E-6,-2.4347157E-4],"split_indices":[15,569,0,938,0,122,0,13,0,936,0,10,0,0,0],"split_type":[0,0,0,0,0,0,0,0,0,0,0,0,0,0,0],"sum_hessian":[2.611E3,2.567E3,4.4E1,2.542E3,2.5E1,2.507E3,3.5E1,2.474E3,3.3E1,2.449E3,2.5E1,2.424E3,2.5E1,2.392E3,3.2E1],"tree_param":{"num_deleted":"0","num_feature":"1006","num_nodes":"15","size_leaf_vector":"1"}},{"base_weights":[3.5965688E-5,-1.2143571E-4,1.5653644E-3,-6.0969807E-5,-5.836565E-4,-1.1426348E-4,4.9311545E-4,-8.038442E-5,-3.371379E-4,-1.28012E-4,3.1869838E-4,-8.014916E-5,-3.552071E-4,-1.0973373E-5,1.1786259E-4],"categories":[],"categories_nodes":[],"categories_segments":[],"categories_sizes":[],"default_left":[0,0,0,0,0,0,0,0,0,0,0,0,0,0,0],"id":34,"left_children":[1,3,-1,5,-1,7,-1,9,-1,11,-1,13,-1,-1,-1],"loss_changes":[6.4056283E-3,8.9121587E-4,0E0,6.800516E-4,0E0,2.786887E-4,0E0,3.8991694E-4,0E0,4.04184E-4,0E0,9.080948E-5,0E0,0E0,0E0],"parents":[2147483647,0,0,1,1,3,3,5,5,7,7,9,9,11,11],"right_children":[2,4,-1,6,-1,8,-1,10,-1,12,-1,14,-1,-1,-1],"split_conditions":[2E0,3E0,1.5653644E-3,4E0,-5.836565E-4,3.3333333E0,4.9311545E-4,1.4566667E2,-3.371379E-4,7.1237884E-3,3.1869838E-4,2E0,-3.552071E-4,-1.0973373E-5,1.1786259E-4],"split_indices":[166,703,0,211,0,664,0,504,0,519,0,77,0,0,0],"split_type":[0,0,0,0,0,0,0,0,0,0,0,0,0,0,0],"sum_hessian":[2.604E3,2.579E3,2.5E1,2.553E3,2.6E1,2.527E3,2.6E1,2.502E3,2.5E1,2.467E3,3.5E1,2.434E3,3.3E1,2.379E3,5.5E1],"tree_param":{"num_deleted":"0","num_feature":"1006","num_nodes":"15","size_leaf_vector":"1"}},{"base_weights":[4.815359E-5,-8.859983E-5,1.3215218E-3,-2.0263287E-5,-6.365075E-4,-1.0920351E-4,6.0786994E-4,-6.901921E-5,-3.9874256E-4,-1.0717187E-4,1.1894046E-3,-8.514424E-5,-2.0718202E-4,-2.923756E-5,3.6342E-4,-1.2943259E-5,8.993869E-5],"categories":[],"categories_nodes":[],"categories_segments":[],"categories_sizes":[],"default_left":[0,0,0,0,0,0,0,0,0,0,0,0,0,0,0,0,0],"id":35,"left_children":[1,3,-1,5,-1,7,-1,9,-1,11,13,15,-1,-1,-1,-1,-1],"loss_changes":[4.729654E-3,1.1150439E-3,0E0,1.3963698E-3,0E0,3.9510013E-4,0E0,1.2073418E-4,0E0,1.0537512E-4,2.691386E-4,1.0533108E-4,0E0,0E0,0E0,0E0,0E0],"parents":[2147483647,0,0,1,1,3,3,5,5,7,7,9,9,10,10,11,11],"right_children":[2,4,-1,6,-1,8,-1,10,-1,12,14,16,-1,-1,-1,-1,-1],"split_conditions":[2E0,4E0,1.3215218E-3,3E0,-6.365075E-4,1.7049987E-2,6.0786994E-4,1.6666667E-1,-3.9874256E-4,3.5E0,1.6666667E-1,2E0,-2.0718202E-4,-2.923756E-5,3.6342E-4,-1.2943259E-5,8.993869E-5],"split_indices":[478,258,0,180,0,16,0,1001,0,613,909,31,0,0,0,0,0],"split_type":[0,0,0,0,0,0,0,0,0,0,0,0,0,0,0,0,0],"sum_hessian":[2.625E3,2.599E3,2.6E1,2.572E3,2.7E1,2.536E3,3.6E1,2.511E3,2.5E1,2.438E3,7.3E1,2.412E3,2.6E1,4.6E1,2.7E1,2.309E3,1.03E2],"tree_param":{"num_deleted":"0","num_feature":"1006","num_nodes":"17","size_leaf_vector":"1"}},{"base_weights":[-3.1216594E-5,-1.6338112E-4,1.3100023E-3,-1.05976695E-4,-5.8048096E-4,-6.789174E-5,-2.5017274E-4,-9.6800904E-5,2.7077756E-4,-5.3150936E-5,-2.1061674E-3,-2.238113E-5,-1.854515E-4,-1.04723615E-4,-3.0870928E-4,-6.514292E-6,1.0054712E-4],"categories":[],"categories_nodes":[],"categories_segments":[],"categories_sizes":[],"default_left":[0,0,0,0,0,0,0,0,0,0,0,0,0,0,0,0,0],"id":36,"left_children":[1,3,-1,5,-1,7,-1,9,-1,11,13,15,-1,-1,-1,-1,-1],"loss_changes":[4.5282827E-3,8.358712E-4,0E0,2.3322731E-4,0E0,2.0239227E-4,0E0,2.1863378E-4,0E0,1.3531276E-4,5.1819894E-5,1.0564014E-4,0E0,0E0,0E0,0E0,0E0],"parents":[2147483647,0,0,1,1,3,3,5,5,7,7,9,9,10,10,11,11],"right_children":[2,4,-1,6,-1,8,-1,10,-1,12,14,16,-1,-1,-1,-1,-1],"split_conditions":[2E0,2.5E0,1.3100023E-3,5E0,-5.8048096E-4,1.3333334E0,-2.5017274E-4,2.3333333E0,2.7077756E-4,2.7352635E-2,8.333333E-1,1E0,-1.854515E-4,-1.04723615E-4,-3.0870928E-4,-6.514292E-6,1.0054712E-4],"split_indices":[86,703,0,26,0,869,0,667,0,10,653,79,0,0,0,0,0],"split_type":[0,0,0,0,0,0,0,0,0,0,0,0,0,0,0,0,0],"sum_hessian":[2.607E3,2.582E3,2.5E1,2.557E3,2.5E1,2.518E3,3.9E1,2.493E3,2.5E1,2.441E3,5.2E1,2.401E3,4E1,2.6E1,2.6E1,2.306E3,9.5E1],"tree_param":{"num_deleted":"0","num_feature":"1006","num_nodes":"17","size_leaf_vector":"1"}},{"base_weights":[2.2662347E-5,-1.387669E-4,9.42907E-4,-5.1236282E-5,-8.3615066E-4,-1.08583365E-4,4.0530018E-4,-7.517303E-5,-3.1708876E-4,-1.1318174E-4,1.2942624E-3,-8.790049E-5,-1.7335892E-4,-2.7395552E-5,3.48835E-4,-6.420043E-6,-1.3141369E-4],"categories":[],"categories_nodes":[],"categories_segments":[],"categories_sizes":[],"default_left":[0,0,0,0,0,0,0,0,0,0,0,0,0,0,0,0,0],"id":37,"left_children":[1,3,-1,5,-1,7,-1,9,-1,11,13,15,-1,-1,-1,-1,-1],"loss_changes":[3.9599584E-3,1.8449889E-3,0E0,5.977992E-4,0E0,2.559523E-4,0E0,1.2912753E-4,0E0,9.8657416E-5,2.3148974E-4,6.896665E-5,0E0,0E0,0E0,0E0,0E0],"parents":[2147483647,0,0,1,1,3,3,5,5,7,7,9,9,10,10,11,11],"right_children":[2,4,-1,6,-1,8,-1,10,-1,12,14,16,-1,-1,-1,-1,-1],"split_conditions":[2.0034582E-7,8E0,9.42907E-4,5E-1,-8.3615066E-4,3.04E2,4.0530018E-4,1.6666667E-1,-3.1708876E-4,4.1666665E0,3.9580357E-8,7.378908E-7,-1.7335892E-4,-2.7395552E-5,3.48835E-4,-6.420043E-6,-1.3141369E-4],"split_indices":[15,584,0,938,0,1,0,673,0,584,509,11,0,0,0,0,0],"split_type":[0,0,0,0,0,0,0,0,0,0,0,0,0,0,0,0,0],"sum_hessian":[2.606E3,2.563E3,4.3E1,2.537E3,2.6E1,2.503E3,3.4E1,2.477E3,2.6E1,2.411E3,6.6E1,2.375E3,3.6E1,3.9E1,2.7E1,2.331E3,4.4E1],"tree_param":{"num_deleted":"0","num_feature":"1006","num_nodes":"17","size_leaf_vector":"1"}},{"base_weights":[-2.1699276E-5,-1.5873164E-4,1.366129E-3,-1.03128616E-4,-5.650911E-4,-1.3088665E-4,2.6189905E-4,-1.0793682E-4,-2.3511036E-4,-1.4649004E-4,9.4720855E-4,-1.02854494E-4,-3.4173063E-4,-2.9058853E-4,3.0565186E-4,-7.578346E-6,-2.3153993E-4,1.4891743E-5,-7.2007424E-5],"categories":[],"categories_nodes":[],"categories_segments":[],"categories_sizes":[],"default_left":[0,0,0,0,0,0,0,0,0,0,0,0,0,0,0,0,0,0,0],"id":38,"left_children":[1,3,-1,5,-1,7,-1,9,-1,11,13,15,-1,17,-1,-1,-1,-1,-1],"loss_changes":[4.916576E-3,7.921884E-4,0E0,1.9460934E-4,0E0,1.294741E-4,0E0,1.0269116E-4,0E0,3.468957E-4,2.3325809E-4,1.4369444E-4,0E0,1.0866637E-5,0E0,0E0,0E0,0E0,0E0],"parents":[2147483647,0,0,1,1,3,3,5,5,7,7,9,9,10,10,11,11,13,13],"right_children":[2,4,-1,6,-1,8,-1,10,-1,12,14,16,-1,18,-1,-1,-1,-1,-1],"split_conditions":[3.0480217E-2,6E0,1.366129E-3,2E0,-5.650911E-4,2.8E1,2.6189905E-4,1E0,-2.3511036E-4,9.362999E-3,6E0,1.034057E-6,-3.4173063E-4,4.7865187E-6,3.0565186E-4,-7.578346E-6,-2.3153993E-4,1.4891743E-5,-7.2007424E-5],"split_indices":[519,31,0,23,0,32,0,361,0,519,27,11,0,5,0,0,0,0,0],"split_type":[0,0,0,0,0,0,0,0,0,0,0,0,0,0,0,0,0,0,0],"sum_hessian":[2.62E3,2.595E3,2.5E1,2.57E3,2.5E1,2.545E3,2.5E1,2.52E3,2.5E1,2.432E3,8.8E1,2.401E3,3.1E1,5.6E1,3.2E1,2.373E3,2.8E1,2.8E1,2.8E1],"tree_param":{"num_deleted":"0","num_feature":"1006","num_nodes":"19","size_leaf_vector":"1"}},{"base_weights":[3.3299686E-6,-1.2611119E-4,1.0138865E-3,-5.1378192E-5,-4.877846E-4,-1.2347446E-4,6.93839E-4,-5.45891E-5,-4.2871872E-4,-2.9539979E-5,-2.0325171E-4,-6.0962855E-5,1.290739E-3,-3.857767E-6,-9.4623116E-5,3.6756648E-4,-1.1386951E-4],"categories":[],"categories_nodes":[],"categories_segments":[],"categories_sizes":[],"default_left":[0,0,0,0,0,0,0,0,0,0,0,0,0,0,0,0,0],"id":39,"left_children":[1,3,-1,5,-1,7,-1,9,-1,11,-1,13,15,-1,-1,-1,-1],"loss_changes":[3.4333537E-3,9.173572E-4,0E0,1.2833743E-3,0E0,7.225494E-4,0E0,1.2281246E-4,0E0,1.0172175E-4,0E0,4.740514E-5,3.3444457E-4,0E0,0E0,0E0,0E0],"parents":[2147483647,0,0,1,1,3,3,5,5,7,7,9,9,11,11,12,12],"right_children":[2,4,-1,6,-1,8,-1,10,-1,12,-1,14,16,-1,-1,-1,-1],"split_conditions":[5.7252717E-1,1.1666666E0,1.0138865E-3,3.839173E-7,-4.877846E-4,1.1724059E-2,6.93839E-4,2.8E1,-4.2871872E-4,6.666667E-1,-2.0325171E-4,3.5E0,5E-1,-3.857767E-6,-9.4623116E-5,3.6756648E-4,-1.1386951E-4],"split_indices":[4,702,0,520,0,16,0,30,0,985,0,584,609,0,0,0,0],"split_type":[0,0,0,0,0,0,0,0,0,0,0,0,0,0,0,0,0],"sum_hessian":[2.615E3,2.583E3,3.2E1,2.544E3,3.9E1,2.519E3,2.5E1,2.479E3,4E1,2.449E3,3E1,2.393E3,5.6E1,2.335E3,5.8E1,2.8E1,2.8E1],"tree_param":{"num_deleted":"0","num_feature":"1006","num_nodes":"17","size_leaf_vector":"1"}},{"base_weights":[2.1803015E-5,-9.201062E-5,1.136293E-3,-2.5725161E-5,-6.630336E-4,-7.9083926E-5,4.4875054E-4,-4.29062E-5,-2.822906E-4,-7.2389455E-5,2.3918753E-4,-4.3305547E-5,-2.3648683E-4,-6.894599E-6,1.833644E-4],"categories":[],"categories_nodes":[],"categories_segments":[],"categories_sizes":[],"default_left":[0,0,0,0,0,0,0,0,0,0,0,0,0,0,0],"id":40,"left_children":[1,3,-1,5,-1,7,-1,9,-1,11,-1,13,-1,-1,-1],"loss_changes":[3.377713E-3,1.1227583E-3,0E0,6.183E-4,0E0,2.517148E-4,0E0,1.7999527E-4,0E0,1.6498301E-4,0E0,1.1784218E-4,0E0,0E0,0E0],"parents":[2147483647,0,0,1,1,3,3,5,5,7,7,9,9,11,11],"right_children":[2,4,-1,6,-1,8,-1,10,-1,12,-1,14,-1,-1,-1],"split_conditions":[2E0,2.8333333E0,1.136293E-3,6.253987E-2,-6.630336E-4,2.077901E-7,4.4875054E-4,3E0,-2.822906E-4,1.4E1,2.3918753E-4,4.4211635E-1,-2.3648683E-4,-6.894599E-6,1.833644E-4],"split_indices":[209,703,0,13,0,15,0,258,0,122,0,507,0,0,0],"split_type":[0,0,0,0,0,0,0,0,0,0,0,0,0,0,0],"sum_hessian":[2.615E3,2.59E3,2.5E1,2.565E3,2.5E1,2.536E3,2.9E1,2.504E3,3.2E1,2.475E3,2.9E1,2.445E3,3E1,2.413E3,3.2E1],"tree_param":{"num_deleted":"0","num_feature":"1006","num_nodes":"15","size_leaf_vector":"1"}},{"base_weights":[2.2750967E-6,-1.1227166E-4,1.1359939E-3,-5.366726E-5,-4.7733067E-4,-1.047757E-4,2.0309289E-3,-5.6443616E-5,-4.061292E-4,-9.537783E-5,5.3572876E-4,-2.6317322E-5,-1.9743203E-4,-7.127169E-5,9.0110145E-4,-4.691355E-6,-1.7004542E-4,-2.2441509E-5,4.632595E-4],"categories":[],"categories_nodes":[],"categories_segments":[],"categories_sizes":[],"default_left":[0,0,0,0,0,0,0,0,0,0,0,0,0,0,0,0,0,0,0],"id":41,"left_children":[1,3,-1,5,-1,7,9,11,-1,-1,-1,13,-1,15,17,-1,-1,-1,-1],"loss_changes":[3.3877352E-3,7.039429E-4,0E0,2.7157133E-4,0E0,4.7535155E-4,6.1073026E-4,1.4196764E-4,0E0,0E0,0E0,1.009994E-4,0E0,9.158991E-5,4.7142367E-4,0E0,0E0,0E0,0E0],"parents":[2147483647,0,0,1,1,3,3,5,5,6,6,7,7,11,11,13,13,14,14],"right_children":[2,4,-1,6,-1,8,10,12,-1,-1,-1,14,-1,16,18,-1,-1,-1,-1],"split_conditions":[2E0,3E0,1.1359939E-3,2.5730755E-2,-4.7733067E-4,5.179503E-1,1.6666667E-1,1E0,-4.061292E-4,-9.537783E-5,5.3572876E-4,1.6666667E-1,-1.9743203E-4,5.440947E-7,2.1846244E-2,-4.691355E-6,-1.7004542E-4,-2.2441509E-5,4.632595E-4],"split_indices":[166,28,0,10,0,4,733,807,0,0,0,926,0,12,7,0,0,0,0],"split_type":[0,0,0,0,0,0,0,0,0,0,0,0,0,0,0,0,0,0,0],"sum_hessian":[2.602E3,2.577E3,2.5E1,2.546E3,3.1E1,2.486E3,6E1,2.457E3,2.9E1,3.2E1,2.8E1,2.42E3,3.7E1,2.309E3,1.11E2,2.276E3,3.3E1,8.6E1,2.5E1],"tree_param":{"num_deleted":"0","num_feature":"1006","num_nodes":"19","size_leaf_vector":"1"}},{"base_weights":[-1.2238198E-5,-1.2165475E-4,6.5199606E-4,-4.629508E-5,-7.484833E-4,-9.627138E-5,3.7563356E-4,-5.055475E-5,-3.4240307E-4,-8.218628E-5,2.822757E-4,-5.0615618E-5,-2.3249998E-4,-7.209957E-6,1.7857681E-4],"categories":[],"categories_nodes":[],"categories_segments":[],"categories_sizes":[],"default_left":[0,0,0,0,0,0,0,0,0,0,0,0,0,0,0],"id":42,"left_children":[1,3,-1,5,-1,7,-1,9,-1,11,-1,13,-1,-1,-1],"loss_changes":[1.8655255E-3,1.4240476E-3,0E0,4.834469E-4,0E0,3.816831E-4,0E0,2.2535965E-4,0E0,1.7343053E-4,0E0,9.552557E-5,0E0,0E0,0E0],"parents":[2147483647,0,0,1,1,3,3,5,5,7,7,9,9,11,11],"right_children":[2,4,-1,6,-1,8,-1,10,-1,12,-1,14,-1,-1,-1],"split_conditions":[2.0034582E-7,5E0,6.5199606E-4,1E0,-7.484833E-4,1.5E0,3.7563356E-4,2.1666667E0,-3.4240307E-4,2.29E2,2.822757E-4,5E-1,-2.3249998E-4,-7.209957E-6,1.7857681E-4],"split_indices":[15,35,0,310,0,950,0,685,0,1,0,745,0,0,0],"split_type":[0,0,0,0,0,0,0,0,0,0,0,0,0,0,0],"sum_hessian":[2.608E3,2.566E3,4.2E1,2.541E3,2.5E1,2.509E3,3.2E1,2.476E3,3.3E1,2.45E3,2.6E1,2.417E3,3.3E1,2.39E3,2.7E1],"tree_param":{"num_deleted":"0","num_feature":"1006","num_nodes":"15","size_leaf_vector":"1"}},{"base_weights":[-1.3438675E-5,-8.0750346E-5,5.388743E-4,-7.700725E-6,-7.2224595E-4,-7.749843E-5,6.264397E-4,-2.7760152E-5,-4.1982188E-4,-5.8892718E-5,2.70845E-4,-2.411189E-5,-2.0607006E-4,-6.998388E-6,9.581117E-5],"categories":[],"categories_nodes":[],"categories_segments":[],"categories_sizes":[],"default_left":[0,0,0,0,0,0,0,0,0,0,0,0,0,0,0],"id":43,"left_children":[1,3,-1,5,-1,7,-1,9,-1,11,-1,13,-1,-1,-1],"loss_changes":[9.455092E-4,1.3396678E-3,0E0,1.113755E-3,0E0,5.155566E-4,0E0,2.1201519E-4,0E0,1.7122668E-4,0E0,1.0905885E-4,0E0,0E0,0E0],"parents":[2147483647,0,0,1,1,3,3,5,5,7,7,9,9,11,11],"right_children":[2,4,-1,6,-1,8,-1,10,-1,12,-1,14,-1,-1,-1],"split_conditions":[3.78383E-7,1.3333334E0,5.388743E-4,5E0,-7.2224595E-4,2.1E1,6.264397E-4,2.1666667E0,-4.1982188E-4,7.1237884E-3,2.70845E-4,1E0,-2.0607006E-4,-6.998388E-6,9.581117E-5],"split_indices":[3,524,0,53,0,27,0,685,0,519,0,268,0,0,0],"split_type":[0,0,0,0,0,0,0,0,0,0,0,0,0,0,0],"sum_hessian":[2.598E3,2.567E3,3.1E1,2.542E3,2.5E1,2.515E3,2.7E1,2.486E3,2.9E1,2.459E3,2.7E1,2.418E3,4.1E1,2.311E3,1.07E2],"tree_param":{"num_deleted":"0","num_feature":"1006","num_nodes":"15","size_leaf_vector":"1"}},{"base_weights":[2.4607209E-5,-9.488167E-5,1.2004719E-3,-6.1366794E-5,-3.419517E-4,-9.6149975E-5,2.9007276E-4,-6.5320775E-5,-2.8739506E-4,-3.8436057E-5,-2.3788624E-4,-6.628555E-5,2.6119576E-4,-3.3252907E-6,-1.8478413E-4],"categories":[],"categories_nodes":[],"categories_segments":[],"categories_sizes":[],"default_left":[0,0,0,0,0,0,0,0,0,0,0,0,0,0,0],"id":44,"left_children":[1,3,-1,5,-1,7,-1,9,-1,11,-1,13,-1,-1,-1],"loss_changes":[3.7688208E-3,2.9027442E-4,0E0,2.6630514E-4,0E0,2.1844447E-4,0E0,1.5702301E-4,0E0,1.8455581E-4,0E0,1.4547336E-4,0E0,0E0,0E0],"parents":[2147483647,0,0,1,1,3,3,5,5,7,7,9,9,11,11],"right_children":[2,4,-1,6,-1,8,-1,10,-1,12,-1,14,-1,-1,-1],"split_conditions":[8E0,6E0,1.2004719E-3,5E-1,-3.419517E-4,1E0,2.9007276E-4,4.0129893E-2,-2.8739506E-4,2.7170558E-2,-2.3788624E-4,2.1208665E-7,2.6119576E-4,-3.3252907E-6,-1.8478413E-4],"split_indices":[164,31,0,817,0,570,0,10,0,10,0,17,0,0,0],"split_type":[0,0,0,0,0,0,0,0,0,0,0,0,0,0,0],"sum_hessian":[2.631E3,2.606E3,2.5E1,2.581E3,2.5E1,2.552E3,2.9E1,2.525E3,2.7E1,2.497E3,2.8E1,2.472E3,2.5E1,2.428E3,4.4E1],"tree_param":{"num_deleted":"0","num_feature":"1006","num_nodes":"15","size_leaf_vector":"1"}},{"base_weights":[2.7105822E-5,-9.799572E-5,9.4935513E-4,-3.0510415E-5,-5.8174826E-4,-8.228903E-5,3.3863183E-4,-4.254681E-5,-3.0604616E-4,-7.9723024E-5,1.116262E-3,-5.045552E-5,-1.5121698E-4,4.211743E-4,-7.3853815E-5,-7.121382E-6,1.675027E-4],"categories":[],"categories_nodes":[],"categories_segments":[],"categories_sizes":[],"default_left":[0,0,0,0,0,0,0,0,0,0,0,0,0,0,0,0,0],"id":45,"left_children":[1,3,-1,5,-1,7,-1,9,-1,11,13,15,-1,-1,-1,-1,-1],"loss_changes":[3.08713E-3,9.929524E-4,0E0,4.5035972E-4,0E0,2.9659623E-4,0E0,1.067123E-4,0E0,1.0049973E-4,4.4520595E-4,8.4363426E-5,0E0,0E0,0E0,0E0,0E0],"parents":[2147483647,0,0,1,1,3,3,5,5,7,7,9,9,10,10,11,11],"right_children":[2,4,-1,6,-1,8,-1,10,-1,12,14,16,-1,-1,-1,-1,-1],"split_conditions":[5.7252717E-1,8.333333E-1,9.4935513E-4,1E0,-5.8174826E-4,5E0,3.3863183E-4,3E0,-3.0604616E-4,6.517457E-7,1.3831825E-8,1.7615503E-2,-1.5121698E-4,4.211743E-4,-7.3853815E-5,-7.121382E-6,1.675027E-4],"split_indices":[4,578,0,433,0,164,0,164,0,11,512,10,0,0,0,0,0],"split_type":[0,0,0,0,0,0,0,0,0,0,0,0,0,0,0,0,0],"sum_hessian":[2.605E3,2.572E3,3.3E1,2.543E3,2.9E1,2.506E3,3.7E1,2.474E3,3.2E1,2.398E3,7.6E1,2.351E3,4.7E1,2.8E1,4.8E1,2.324E3,2.7E1],"tree_param":{"num_deleted":"0","num_feature":"1006","num_nodes":"17","size_leaf_vector":"1"}},{"base_weights":[-5.8838264E-6,-1.0517484E-4,9.438013E-4,-2.8438786E-5,-7.606506E-4,-8.347306E-5,2.8960087E-4,-4.3922613E-5,-1.9064423E-3,-9.1960435E-5,1.1585123E-3,-2.6878837E-5,-3.596745E-4,-3.064031E-5,-7.855843E-4,-3.0348395E-4,2.9758288E-4,-1.4882265E-6,-1.3246518E-4,-2.421683E-5,-1.7649667E-4,4.529177E-5,-1.106398E-4],"categories":[],"categories_nodes":[],"categories_segments":[],"categories_sizes":[],"default_left":[0,0,0,0,0,0,0,0,0,0,0,0,0,0,0,0,0,0,0,0,0,0,0],"id":46,"left_children":[1,3,-1,5,-1,7,-1,9,11,13,15,-1,-1,17,19,21,-1,-1,-1,-1,-1,-1,-1],"loss_changes":[2.433371E-3,1.4779824E-3,0E0,4.095245E-4,0E0,1.7994811E-4,0E0,1.4133549E-4,1.4574415E-4,1.00013785E-4,2.5065264E-4,0E0,0E0,4.406582E-5,1.0122509E-4,3.2689357E-5,0E0,0E0,0E0,0E0,0E0,0E0,0E0],"parents":[2147483647,0,0,1,1,3,3,5,5,7,7,8,8,9,9,10,10,13,13,14,14,15,15],"right_children":[2,4,-1,6,-1,8,-1,10,12,14,16,-1,-1,18,20,22,-1,-1,-1,-1,-1,-1,-1],"split_conditions":[2E0,2.499975E-2,9.438013E-4,5E-1,-7.606506E-4,4E0,2.8960087E-4,1.8333334E0,2.1666667E0,8.623396E-6,8.247149E-8,-2.6878837E-5,-3.596745E-4,1.115E2,7.604788E-8,4.087019E-3,2.9758288E-4,-1.4882265E-6,-1.3246518E-4,-2.421683E-5,-1.7649667E-4,4.529177E-5,-1.106398E-4],"split_indices":[166,16,0,746,0,521,0,613,613,5,3,0,0,504,506,7,0,0,0,0,0,0,0],"split_type":[0,0,0,0,0,0,0,0,0,0,0,0,0,0,0,0,0,0,0,0,0,0,0],"sum_hessian":[2.593E3,2.567E3,2.6E1,2.542E3,2.5E1,2.496E3,4.6E1,2.444E3,5.2E1,2.351E3,9.3E1,2.7E1,2.5E1,2.161E3,1.9E2,5.2E1,4.1E1,2.136E3,2.5E1,1.23E2,6.7E1,2.7E1,2.5E1],"tree_param":{"num_deleted":"0","num_feature":"1006","num_nodes":"23","size_leaf_vector":"1"}},{"base_weights":[-1.04028E-5,-1.3856727E-4,7.130813E-4,-5.9671835E-5,-7.27929E-4,-1.0645357E-4,3.4918773E-4,-7.773687E-5,-2.7380657E-4,-3.5551006E-5,-1.1714316E-3,-6.152364E-5,1.8777953E-4,-5.1547636E-6,-1.9945246E-3,-3.7956383E-6,-1.8278438E-4,-2.7946473E-4,-1.0561417E-4],"categories":[],"categories_nodes":[],"categories_segments":[],"categories_sizes":[],"default_left":[0,0,0,0,0,0,0,0,0,0,0,0,0,0,0,0,0,0,0],"id":47,"left_children":[1,3,-1,5,-1,7,-1,9,-1,11,13,15,-1,-1,17,-1,-1,-1,-1],"loss_changes":[2.3879604E-3,1.4434839E-3,0E0,4.2172207E-4,0E0,1.8901745E-4,0E0,1.1428946E-4,0E0,1.1873666E-4,8.469992E-5,9.800459E-5,0E0,0E0,3.684197E-5,0E0,0E0,0E0,0E0],"parents":[2147483647,0,0,1,1,3,3,5,5,7,7,9,9,10,10,11,11,14,14],"right_children":[2,4,-1,6,-1,8,-1,10,-1,12,14,16,-1,-1,18,-1,-1,-1,-1],"split_conditions":[2.0034582E-7,8.5E0,7.130813E-4,1.3333334E0,-7.27929E-4,3E0,3.4918773E-4,1.13166664E2,-2.7380657E-4,1E0,8.333333E-1,4E0,1.8777953E-4,-5.1547636E-6,1E0,-3.7956383E-6,-1.8278438E-4,-2.7946473E-4,-1.0561417E-4],"split_indices":[15,584,0,869,0,180,0,504,0,318,569,207,0,0,77,0,0,0,0],"split_type":[0,0,0,0,0,0,0,0,0,0,0,0,0,0,0,0,0,0,0],"sum_hessian":[2.607E3,2.562E3,4.5E1,2.535E3,2.7E1,2.503E3,3.2E1,2.477E3,2.6E1,2.386E3,9.1E1,2.355E3,3.1E1,3.9E1,5.2E1,2.325E3,3E1,2.7E1,2.5E1],"tree_param":{"num_deleted":"0","num_feature":"1006","num_nodes":"19","size_leaf_vector":"1"}},{"base_weights":[-1.37914385E-5,-1.0918408E-4,8.512813E-4,-4.1463103E-5,-3.6975325E-4,-9.466538E-5,4.1395365E-4,-4.855013E-5,-3.2675834E-4,-7.430128E-5,1.7010153E-4,-4.0056588E-5,-1.6184334E-3,-7.215583E-6,6.140366E-5,-4.9872992E-6,-3.127052E-4],"categories":[],"categories_nodes":[],"categories_segments":[],"categories_sizes":[],"default_left":[0,0,0,0,0,0,0,0,0,0,0,0,0,0,0,0,0],"id":48,"left_children":[1,3,-1,5,-1,7,-1,9,-1,11,-1,13,15,-1,-1,-1,-1],"loss_changes":[2.1319732E-3,6.297195E-4,0E0,5.664984E-4,0E0,3.6768956E-4,0E0,1.1181357E-4,0E0,1.2916981E-4,0E0,5.0266488E-5,1.2526111E-4,0E0,0E0,0E0,0E0],"parents":[2147483647,0,0,1,1,3,3,5,5,7,7,9,9,11,11,12,12],"right_children":[2,4,-1,6,-1,8,-1,10,-1,12,-1,14,16,-1,-1,-1,-1],"split_conditions":[7E0,2E1,8.512813E-4,3E0,-3.6975325E-4,1.3862066E-2,4.1395365E-4,1.5E0,-3.2675834E-4,6.666667E-1,1.7010153E-4,2E0,6.6775264E-8,-7.215583E-6,6.140366E-5,-4.9872992E-6,-3.127052E-4],"split_indices":[53,27,0,180,0,16,0,878,0,883,0,82,514,0,0,0,0],"split_type":[0,0,0,0,0,0,0,0,0,0,0,0,0,0,0,0,0],"sum_hessian":[2.619E3,2.591E3,2.8E1,2.544E3,4.7E1,2.513E3,3.1E1,2.478E3,3.5E1,2.443E3,3.5E1,2.391E3,5.2E1,2.28E3,1.11E2,2.6E1,2.6E1],"tree_param":{"num_deleted":"0","num_feature":"1006","num_nodes":"17","size_leaf_vector":"1"}},{"base_weights":[4.235816E-5,-5.8250655E-5,1.0120958E-3,1.5343692E-5,-5.9761753E-4,-4.905211E-5,4.3142072E-4,-2.131398E-5,-1.8726381E-4,-5.4349763E-5,1.8239186E-4,-2.9166387E-5,-1.8481776E-4,-5.997626E-6,1.7630265E-4],"categories":[],"categories_nodes":[],"categories_segments":[],"categories_sizes":[],"default_left":[0,0,0,0,0,0,0,0,0,0,0,0,0,0,0],"id":49,"left_children":[1,3,-1,5,-1,7,-1,9,-1,11,-1,13,-1,-1,-1],"loss_changes":[2.6673991E-3,1.1346363E-3,0E0,7.1276876E-4,0E0,1.2828883E-4,0E0,1.5249586E-4,0E0,1.1094018E-4,0E0,1.3395232E-4,0E0,0E0,0E0],"parents":[2147483647,0,0,1,1,3,3,5,5,7,7,9,9,11,11],"right_children":[2,4,-1,6,-1,8,-1,10,-1,12,-1,14,-1,-1,-1],"split_conditions":[3.7047166E-2,6.666667E-1,1.0120958E-3,5E-1,-5.9761753E-4,9E0,4.3142072E-4,3E0,-1.8726381E-4,9E0,1.8239186E-4,4.1666665E0,-1.8481776E-4,-5.997626E-6,1.7630265E-4],"split_indices":[16,589,0,746,0,18,0,82,0,81,0,584,0,0,0],"split_type":[0,0,0,0,0,0,0,0,0,0,0,0,0,0,0],"sum_hessian":[2.629E3,2.604E3,2.5E1,2.573E3,3.1E1,2.536E3,3.7E1,2.499E3,3.7E1,2.456E3,4.3E1,2.423E3,3.3E1,2.383E3,4E1],"tree_param":{"num_deleted":"0","num_feature":"1006","num_nodes":"15","size_leaf_vector":"1"}},{"base_weights":[-3.6307563E-5,-1.2799696E-4,6.933154E-4,-7.9050384E-5,-3.6904472E-4,-5.499596E-5,-1.9701142E-4,-2.0818678E-5,-1.1998838E-3,-4.692922E-5,1.7799115E-4,-8.540901E-7,-3.229263E-4,-7.934264E-5,9.1170694E-4,-6.2079816E-6,-1.449894E-4,2.9247248E-4,-7.440725E-6],"categories":[],"categories_nodes":[],"categories_segments":[],"categories_sizes":[],"default_left":[0,0,0,0,0,0,0,0,0,0,0,0,0,0,0,0,0,0,0],"id":50,"left_children":[1,3,-1,5,-1,7,-1,9,11,13,-1,-1,-1,15,17,-1,-1,-1,-1],"loss_changes":[1.6732176E-3,4.5027962E-4,0E0,1.1588719E-4,0E0,9.8541364E-5,0E0,1.1513669E-4,1.7646354E-4,7.50507E-5,0E0,0E0,0E0,5.515512E-5,1.5703781E-4,0E0,0E0,0E0,0E0],"parents":[2147483647,0,0,1,1,3,3,5,5,7,7,8,8,9,9,13,13,14,14],"right_children":[2,4,-1,6,-1,8,-1,10,12,14,-1,-1,-1,16,18,-1,-1,-1,-1],"split_conditions":[3.3333334E-1,3.42E2,6.933154E-4,2.0034582E-7,-3.6904472E-4,1.5E0,-1.9701142E-4,7.6828054E-3,2E0,1.6666667E-1,1.7799115E-4,-8.540901E-7,-3.229263E-4,1.1833333E1,6.8E1,-6.2079816E-6,-1.449894E-4,2.9247248E-4,-7.440725E-6],"split_indices":[743,1,0,15,0,679,0,519,164,677,0,0,0,535,0,0,0,0,0],"split_type":[0,0,0,0,0,0,0,0,0,0,0,0,0,0,0,0,0,0,0],"sum_hessian":[2.616E3,2.583E3,3.3E1,2.549E3,3.4E1,2.518E3,3.1E1,2.446E3,7.2E1,2.412E3,3.4E1,4.6E1,2.6E1,2.334E3,7.8E1,2.306E3,2.8E1,2.5E1,5.3E1],"tree_param":{"num_deleted":"0","num_feature":"1006","num_nodes":"19","size_leaf_vector":"1"}},{"base_weights":[-6.20545E-6,-1.03618964E-4,7.9940737E-4,-3.1009055E-5,-7.0972246E-4,-8.601459E-5,3.8920523E-4,-4.751791E-5,-1.640638E-3,-8.600359E-5,1.1359091E-3,-4.4484532E-5,-2.9860283E-4,-5.2886982E-5,-2.348722E-4,-1.4319968E-4,3.6046817E-4,-7.3429E-6,1.7506829E-4,5.7702047E-5,-8.068613E-5],"categories":[],"categories_nodes":[],"categories_segments":[],"categories_sizes":[],"default_left":[0,0,0,0,0,0,0,0,0,0,0,0,0,0,0,0,0,0,0,0,0],"id":51,"left_children":[1,3,-1,5,-1,7,-1,9,11,13,15,-1,-1,17,-1,19,-1,-1,-1,-1,-1],"loss_changes":[2.0730805E-3,1.3342916E-3,0E0,5.618206E-4,0E0,1.5355143E-4,0E0,1.1423344E-4,9.841772E-5,1.8181444E-4,2.4998465E-4,0E0,0E0,8.882378E-5,0E0,2.5798645E-5,0E0,0E0,0E0,0E0,0E0],"parents":[2147483647,0,0,1,1,3,3,5,5,7,7,8,8,9,9,10,10,13,13,15,15],"right_children":[2,4,-1,6,-1,8,-1,10,12,14,16,-1,-1,18,-1,20,-1,-1,-1,-1,-1],"split_conditions":[5.9530355E-2,2.5E0,7.9940737E-4,2E0,-7.0972246E-4,1E0,3.8920523E-4,1E0,8.333333E-1,2.29E2,1E0,-4.4484532E-5,-2.9860283E-4,1.25E1,-2.348722E-4,1.6666667E-1,3.6046817E-4,-7.3429E-6,1.7506829E-4,5.7702047E-5,-8.068613E-5],"split_indices":[10,703,0,380,0,445,0,131,542,1,82,0,0,535,0,524,0,0,0,0,0],"split_type":[0,0,0,0,0,0,0,0,0,0,0,0,0,0,0,0,0,0,0,0,0],"sum_hessian":[2.658E3,2.627E3,3.1E1,2.601E3,2.6E1,2.566E3,3.5E1,2.505E3,6.1E1,2.427E3,7.8E1,3.3E1,2.8E1,2.393E3,3.4E1,5.2E1,2.6E1,2.367E3,2.6E1,2.5E1,2.7E1],"tree_param":{"num_deleted":"0","num_feature":"1006","num_nodes":"21","size_leaf_vector":"1"}},{"base_weights":[-1.6962422E-5,-1.1345824E-4,4.219328E-3,-5.0813076E-5,-6.058227E-4,-9.196213E-5,1.0777211E-3,-9.707407E-5,4.1425784E-4,-2.9197696E-5,-2.947387E-3,-7.55498E-6,-1.7957129E-4,-1.2392605E-4,-5.06773E-4,-4.4346136E-5,1.0421921E-3,-1.4184766E-6,-8.349656E-5,-1.3854355E-5,3.4962565E-4],"categories":[],"categories_nodes":[],"categories_segments":[],"categories_sizes":[],"default_left":[0,0,0,0,0,0,0,0,0,0,0,0,0,0,0,0,0,0,0,0,0],"id":52,"left_children":[1,3,5,7,-1,-1,-1,9,-1,11,13,15,-1,-1,-1,17,19,-1,-1,-1,-1],"loss_changes":[1.0829396E-3,9.6423674E-4,1.9982478E-3,4.9779366E-4,0E0,0E0,0E0,4.9074454E-4,0E0,9.476402E-5,2.0740682E-4,9.466866E-5,0E0,0E0,0E0,5.645588E-5,2.4098528E-4,0E0,0E0,0E0,0E0],"parents":[2147483647,0,0,1,1,2,2,3,3,7,7,9,9,10,10,11,11,15,15,16,16],"right_children":[2,4,6,8,-1,-1,-1,10,-1,12,14,16,-1,-1,-1,18,20,-1,-1,-1,-1],"split_conditions":[4.0886695E-7,4E0,2E0,6.666667E-1,-6.058227E-4,-9.196213E-5,1.0777211E-3,2.1208665E-7,4.1425784E-4,1.4E1,1.03196065E-7,1E0,-1.7957129E-4,-1.2392605E-4,-5.06773E-4,1.1666666E0,2.4152707E-1,-1.4184766E-6,-8.349656E-5,-1.3854355E-5,3.4962565E-4],"split_indices":[12,28,142,788,0,0,0,17,0,122,3,79,0,0,0,565,4,0,0,0,0],"split_type":[0,0,0,0,0,0,0,0,0,0,0,0,0,0,0,0,0,0,0,0,0],"sum_hessian":[2.647E3,2.589E3,5.8E1,2.563E3,2.6E1,3.3E1,2.5E1,2.536E3,2.7E1,2.478E3,5.8E1,2.449E3,2.9E1,3.3E1,2.5E1,2.367E3,8.2E1,2.281E3,8.6E1,5.6E1,2.6E1],"tree_param":{"num_deleted":"0","num_feature":"1006","num_nodes":"21","size_leaf_vector":"1"}},{"base_weights":[2.8572058E-5,-7.592389E-5,8.1308925E-4,-8.695095E-6,-4.204544E-4,-5.471635E-5,3.9446718E-4,-2.62833E-5,-2.467678E-4,-6.0548973E-5,1.2000018E-3,-4.072295E-5,-1.7993251E-4,-6.378442E-5,3.6302084E-4,-7.38487E-6,9.4712545E-5],"categories":[],"categories_nodes":[],"categories_segments":[],"categories_sizes":[],"default_left":[0,0,0,0,0,0,0,0,0,0,0,0,0,0,0,0,0],"id":53,"left_children":[1,3,-1,5,-1,7,-1,9,-1,11,13,15,-1,-1,-1,-1,-1],"loss_changes":[2.1943122E-3,7.1024493E-4,0E0,4.585199E-4,0E0,1.7083732E-4,0E0,1.0356664E-4,0E0,8.255855E-5,3.0156068E-4,7.7656696E-5,0E0,0E0,0E0,0E0,0E0],"parents":[2147483647,0,0,1,1,3,3,5,5,7,7,9,9,10,10,11,11],"right_children":[2,4,-1,6,-1,8,-1,10,-1,12,14,16,-1,-1,-1,-1,-1],"split_conditions":[5.7252717E-1,1.1666666E0,8.1308925E-4,3.3333334E-1,-4.204544E-4,1.01408595E-7,3.9446718E-4,9.666667E0,-2.467678E-4,4.0129893E-2,1E0,1E0,-1.7993251E-4,-6.378442E-5,3.6302084E-4,-7.38487E-6,9.4712545E-5],"split_indices":[4,807,0,936,0,518,0,535,0,10,82,131,0,0,0,0,0],"split_type":[0,0,0,0,0,0,0,0,0,0,0,0,0,0,0,0,0],"sum_hessian":[2.59E3,2.558E3,3.2E1,2.518E3,4E1,2.49E3,2.8E1,2.462E3,2.8E1,2.396E3,6.6E1,2.37E3,2.6E1,3.8E1,2.8E1,2.294E3,7.6E1],"tree_param":{"num_deleted":"0","num_feature":"1006","num_nodes":"17","size_leaf_vector":"1"}},{"base_weights":[5.1379448E-6,-9.221616E-5,7.8450254E-4,-1.83089E-5,-5.3083285E-4,-7.860651E-5,5.3983624E-4,-2.9581433E-5,-3.551538E-4,-6.570712E-5,3.2562757E-4,-3.4826593E-5,-2.3310953E-4,-5.9011563E-6,1.8332204E-4],"categories":[],"categories_nodes":[],"categories_segments":[],"categories_sizes":[],"default_left":[0,0,0,0,0,0,0,0,0,0,0,0,0,0,0],"id":54,"left_children":[1,3,-1,5,-1,7,-1,9,-1,11,-1,13,-1,-1,-1],"loss_changes":[1.991267E-3,9.933586E-4,0E0,8.30673E-4,0E0,4.281007E-4,0E0,2.9471816E-4,0E0,1.7166173E-4,0E0,1.0957608E-4,0E0,0E0,0E0],"parents":[2147483647,0,0,1,1,3,3,5,5,7,7,9,9,11,11],"right_children":[2,4,-1,6,-1,8,-1,10,-1,12,-1,14,-1,-1,-1],"split_conditions":[1E0,1E0,7.8450254E-4,5E0,-5.3083285E-4,1.1666666E0,5.3983624E-4,5E-1,-3.551538E-4,2.0034582E-7,3.2562757E-4,3E0,-2.3310953E-4,-5.9011563E-6,1.8332204E-4],"split_indices":[442,746,0,107,0,659,0,938,0,15,0,258,0,0,0],"split_type":[0,0,0,0,0,0,0,0,0,0,0,0,0,0,0],"sum_hessian":[2.607E3,2.576E3,3.1E1,2.541E3,3.5E1,2.514E3,2.7E1,2.48E3,3.4E1,2.454E3,2.6E1,2.422E3,3.2E1,2.392E3,3E1],"tree_param":{"num_deleted":"0","num_feature":"1006","num_nodes":"15","size_leaf_vector":"1"}},{"base_weights":[2.1372683E-5,-6.815567E-5,7.970136E-4,-2.2335753E-5,-4.0900582E-4,-9.419196E-5,4.6009858E-4,-4.731032E-5,-4.5695683E-4,-1.21998355E-5,-3.3661324E-4,-4.4839002E-5,1.3162551E-3,6.188671E-7,-7.4549E-5,3.9096465E-4,-8.4549705E-5],"categories":[],"categories_nodes":[],"categories_segments":[],"categories_sizes":[],"default_left":[0,0,0,0,0,0,0,0,0,0,0,0,0,0,0,0,0],"id":55,"left_children":[1,3,-1,5,-1,7,-1,9,-1,11,-1,13,15,-1,-1,-1,-1],"loss_changes":[1.8529411E-3,4.7443798E-4,0E0,8.465833E-4,0E0,5.2620453E-4,0E0,2.8940817E-4,0E0,1.06680425E-4,0E0,8.584659E-5,3.3407548E-4,0E0,0E0,0E0,0E0],"parents":[2147483647,0,0,1,1,3,3,5,5,7,7,9,9,11,11,12,12],"right_children":[2,4,-1,6,-1,8,-1,10,-1,12,-1,14,16,-1,-1,-1,-1],"split_conditions":[5.9530355E-2,4E0,7.970136E-4,2.6666667E0,-4.0900582E-4,5.179503E-1,4.6009858E-4,4.963134E-7,-4.5695683E-4,9.666667E0,-3.3661324E-4,8.987934E-6,1E0,6.188671E-7,-7.4549E-5,3.9096465E-4,-8.4549705E-5],"split_indices":[10,667,0,667,0,4,0,17,0,535,0,5,26,0,0,0,0],"split_type":[0,0,0,0,0,0,0,0,0,0,0,0,0,0,0,0,0],"sum_hessian":[2.602E3,2.574E3,2.8E1,2.546E3,2.8E1,2.508E3,3.8E1,2.483E3,2.5E1,2.458E3,2.5E1,2.4E3,5.8E1,2.238E3,1.62E2,2.6E1,3.2E1],"tree_param":{"num_deleted":"0","num_feature":"1006","num_nodes":"17","size_leaf_vector":"1"}},{"base_weights":[-6.5580666E-6,-9.797498E-5,9.026389E-4,-1.3923715E-4,3.1776924E-4,-9.2145776E-5,-4.5153225E-4,-2.1616313E-5,-8.195821E-4,-5.6142973E-5,1.3325714E-3,-3.795121E-4,-3.15997E-4,-3.5966223E-5,-1.7690075E-4,-6.063749E-5,3.6677142E-4,-7.0398365E-4,8.781865E-5,-5.735939E-6,8.192378E-5,-5.7358434E-6,-1.316273E-4],"categories":[],"categories_nodes":[],"categories_segments":[],"categories_sizes":[],"default_left":[0,0,0,0,0,0,0,0,0,0,0,0,0,0,0,0,0,0,0,0,0,0,0],"id":56,"left_children":[1,3,-1,5,-1,7,-1,9,11,13,15,17,-1,19,-1,-1,-1,21,-1,-1,-1,-1,-1],"loss_changes":[2.1429167E-3,3.476714E-4,0E0,5.2260444E-4,0E0,1.2886216E-4,0E0,1.07191845E-4,2.2744617E-4,7.717806E-5,2.6030382E-4,7.733867E-5,0E0,4.0480085E-5,0E0,0E0,0E0,5.9312762E-5,0E0,0E0,0E0,0E0,0E0],"parents":[2147483647,0,0,1,1,3,3,5,5,7,7,8,8,9,9,10,10,11,11,13,13,17,17],"right_children":[2,4,-1,6,-1,8,-1,10,12,14,16,18,-1,20,-1,-1,-1,22,-1,-1,-1,-1,-1],"split_conditions":[8E0,6.1666665E0,9.026389E-4,1.6594674E-2,3.1776924E-4,8.623396E-6,-4.5153225E-4,3E0,3.3333334E-1,1.5E0,1.6666667E-1,1.6666667E-1,-3.15997E-4,2E0,-1.7690075E-4,-6.063749E-5,3.6677142E-4,1E0,8.781865E-5,-5.735939E-6,8.192378E-5,-5.7358434E-6,-1.316273E-4],"split_indices":[164,710,0,16,0,5,0,164,905,878,843,874,0,107,0,0,0,164,0,0,0,0,0],"split_type":[0,0,0,0,0,0,0,0,0,0,0,0,0,0,0,0,0,0,0,0,0,0,0],"sum_hessian":[2.593E3,2.568E3,2.5E1,2.537E3,3.1E1,2.511E3,2.6E1,2.29E3,2.21E2,2.234E3,5.6E1,1.87E2,3.4E1,2.209E3,2.5E1,3.1E1,2.5E1,1.49E2,3.8E1,2.156E3,5.3E1,7.3E1,7.6E1],"tree_param":{"num_deleted":"0","num_feature":"1006","num_nodes":"23","size_leaf_vector":"1"}},{"base_weights":[5.206777E-5,-2.6096603E-5,7.49602E-4,3.8808073E-5,-4.135533E-4,-1.7906967E-5,4.3359445E-4,-4.9057388E-5,1.3430187E-3,-2.3386106E-5,-2.1156718E-4,-6.950219E-5,3.7213357E-4,-4.7864807E-5,1.2119838E-4,-1.9512106E-6,-8.811114E-5],"categories":[],"categories_nodes":[],"categories_segments":[],"categories_sizes":[],"default_left":[0,0,0,0,0,0,0,0,0,0,0,0,0,0,0,0,0],"id":57,"left_children":[1,3,-1,5,-1,7,-1,9,11,13,-1,-1,-1,15,-1,-1,-1],"loss_changes":[1.5118467E-3,6.861685E-4,0E0,6.174008E-4,0E0,1.0609181E-4,0E0,1.2971727E-4,2.7402435E-4,7.31487E-5,0E0,0E0,0E0,5.599719E-5,0E0,0E0,0E0],"parents":[2147483647,0,0,1,1,3,3,5,5,7,7,8,8,9,9,13,13],"right_children":[2,4,-1,6,-1,8,-1,10,12,14,-1,-1,-1,16,-1,-1,-1],"split_conditions":[3.5642564E-2,2E1,7.49602E-4,1.3862066E-2,-4.135533E-4,3.8333333E0,4.3359445E-4,4.962925E-1,1E0,3.3333334E-1,-2.1156718E-4,-6.950219E-5,3.7213357E-4,1.05833336E2,1.2119838E-4,-1.9512106E-6,-8.811114E-5],"split_indices":[16,27,0,16,0,521,0,4,204,959,0,0,0,504,0,0,0],"split_type":[0,0,0,0,0,0,0,0,0,0,0,0,0,0,0,0,0],"sum_hessian":[2.597E3,2.571E3,2.6E1,2.532E3,3.9E1,2.5E3,3.2E1,2.445E3,5.5E1,2.416E3,2.9E1,3E1,2.5E1,2.37E3,4.6E1,2.293E3,7.7E1],"tree_param":{"num_deleted":"0","num_feature":"1006","num_nodes":"17","size_leaf_vector":"1"}},{"base_weights":[1.1360025E-5,-7.021988E-5,7.501738E-4,-2.0442352E-5,-4.941888E-4,-8.619708E-5,2.7527474E-3,-6.0928716E-5,-2.3040271E-4,-6.844351E-5,7.14165E-4,-8.263306E-5,1.4458531E-4,-5.5273875E-5,-1.5631254E-4,-7.374617E-6,1.5016715E-4],"categories":[],"categories_nodes":[],"categories_segments":[],"categories_sizes":[],"default_left":[0,0,0,0,0,0,0,0,0,0,0,0,0,0,0,0,0],"id":58,"left_children":[1,3,-1,5,-1,7,9,11,-1,-1,-1,13,-1,15,-1,-1,-1],"loss_changes":[1.5880719E-3,6.233655E-4,0E0,4.6450124E-4,0E0,1.3928945E-4,8.9493E-4,8.060331E-5,0E0,0E0,0E0,9.8219374E-5,0E0,6.867542E-5,0E0,0E0,0E0],"parents":[2147483647,0,0,1,1,3,3,5,5,6,6,7,7,11,11,13,13],"right_children":[2,4,-1,6,-1,8,10,12,-1,-1,-1,14,-1,16,-1,-1,-1],"split_conditions":[3.0480217E-2,6E0,7.501738E-4,3E0,-4.941888E-4,1E0,5.3333335E0,1E0,-2.3040271E-4,-6.844351E-5,7.14165E-4,2.3333333E0,1.4458531E-4,1.3333334E0,-1.5631254E-4,-7.374617E-6,1.5016715E-4],"split_indices":[519,31,0,31,0,570,533,318,0,0,0,710,0,950,0,0,0],"split_type":[0,0,0,0,0,0,0,0,0,0,0,0,0,0,0,0,0],"sum_hessian":[2.597E3,2.57E3,2.7E1,2.545E3,2.5E1,2.487E3,5.8E1,2.46E3,2.7E1,3.3E1,2.5E1,2.426E3,3.4E1,2.383E3,4.3E1,2.356E3,2.7E1],"tree_param":{"num_deleted":"0","num_feature":"1006","num_nodes":"17","size_leaf_vector":"1"}},{"base_weights":[-3.6627553E-5,4.1630457E-5,-7.2266714E-4,-3.4920402E-5,7.542014E-4,-7.95144E-5,4.131783E-4,-4.026402E-5,-2.9505344E-4,-9.712192E-6,-1.5937495E-4,-4.480685E-5,2.5535558E-4,-2.405432E-6,-1.4126526E-4],"categories":[],"categories_nodes":[],"categories_segments":[],"categories_sizes":[],"default_left":[0,0,0,0,0,0,0,0,0,0,0,0,0,0,0],"id":59,"left_children":[1,3,-1,5,-1,7,-1,9,-1,11,-1,13,-1,-1,-1],"loss_changes":[1.463265E-3,1.477579E-3,0E0,4.7377226E-4,0E0,2.8408194E-4,0E0,1.1811701E-4,0E0,2.1978942E-4,0E0,6.837691E-5,0E0,0E0,0E0],"parents":[2147483647,0,0,1,1,3,3,5,5,7,7,9,9,11,11],"right_children":[2,4,-1,6,-1,8,-1,10,-1,12,-1,14,-1,-1,-1],"split_conditions":[4E0,6.666667E-1,-7.2266714E-4,6.666667E-1,7.542014E-4,1E0,4.131783E-4,5E-1,-2.9505344E-4,4.1666665E0,-1.5937495E-4,1E1,2.5535558E-4,-2.405432E-6,-1.4126526E-4],"split_indices":[77,733,0,905,0,807,0,905,0,584,0,81,0,0,0],"split_type":[0,0,0,0,0,0,0,0,0,0,0,0,0,0,0],"sum_hessian":[2.599E3,2.572E3,2.7E1,2.547E3,2.5E1,2.521E3,2.6E1,2.488E3,3.3E1,2.441E3,4.7E1,2.409E3,3.2E1,2.374E3,3.5E1],"tree_param":{"num_deleted":"0","num_feature":"1006","num_nodes":"15","size_leaf_vector":"1"}},{"base_weights":[4.1479194E-5,-7.837486E-5,6.5968686E-4,9.121166E-7,-7.279364E-4,-3.6627396E-5,3.3754137E-4,-1.1061765E-5,-2.229601E-4,9.500529E-6,-1.7556392E-4,-2.2467299E-5,1.3581519E-3,-2.0935083E-7,-1.3263333E-4,-6.222199E-5,3.743296E-4],"categories":[],"categories_nodes":[],"categories_segments":[],"categories_sizes":[],"default_left":[0,0,0,0,0,0,0,0,0,0,0,0,0,0,0,0,0],"id":60,"left_children":[1,3,-1,5,-1,7,-1,9,-1,11,-1,13,15,-1,-1,-1,-1],"loss_changes":[2.0566676E-3,1.4679052E-3,0E0,3.223903E-4,0E0,1.410903E-4,0E0,8.9303365E-5,0E0,1.0613272E-4,0E0,6.388531E-5,2.7156703E-4,0E0,0E0,0E0,0E0],"parents":[2147483647,0,0,1,1,3,3,5,5,7,7,9,9,11,11,12,12],"right_children":[2,4,-1,6,-1,8,-1,10,-1,12,-1,14,16,-1,-1,-1,-1],"split_conditions":[2.0034582E-7,3E0,6.5968686E-4,2.6666667E0,-7.279364E-4,3E0,3.3754137E-4,1.1666666E0,-2.229601E-4,9.666667E0,-1.7556392E-4,7.8784936E-8,2.6666667E0,-2.0935083E-7,-1.3263333E-4,-6.222199E-5,3.743296E-4],"split_indices":[15,703,0,834,0,180,0,609,0,535,0,518,521,0,0,0,0],"split_type":[0,0,0,0,0,0,0,0,0,0,0,0,0,0,0,0,0],"sum_hessian":[2.616E3,2.57E3,4.6E1,2.543E3,2.7E1,2.516E3,2.7E1,2.488E3,2.8E1,2.46E3,2.8E1,2.404E3,5.6E1,2.368E3,3.6E1,3.1E1,2.5E1],"tree_param":{"num_deleted":"0","num_feature":"1006","num_nodes":"17","size_leaf_vector":"1"}},{"base_weights":[2.1029122E-5,-6.624105E-5,5.123873E-4,1.1667651E-5,-7.1480026E-4,-2.901695E-5,2.4981055E-4,-3.798916E-6,-2.4342835E-4,-2.6807547E-5,2.0884229E-4,-2.878365E-6,-1.3690008E-4,1.5716365E-6,-1.4804436E-4],"categories":[],"categories_nodes":[],"categories_segments":[],"categories_sizes":[],"default_left":[0,0,0,0,0,0,0,0,0,0,0,0,0,0,0],"id":61,"left_children":[1,3,-1,5,-1,7,-1,9,-1,11,-1,13,-1,-1,-1],"loss_changes":[1.1653125E-3,1.419687E-3,0E0,2.5762516E-4,0E0,1.5199493E-4,0E0,1.19489254E-4,0E0,7.884474E-5,0E0,6.632026E-5,0E0,0E0,0E0],"parents":[2147483647,0,0,1,1,3,3,5,5,7,7,9,9,11,11],"right_children":[2,4,-1,6,-1,8,-1,10,-1,12,-1,14,-1,-1,-1],"split_conditions":[2.077901E-7,3E0,5.123873E-4,3E0,-7.1480026E-4,3.04E2,2.4981055E-4,1.400521E-2,-2.4342835E-4,6.545359E-7,2.0884229E-4,3.3333334E-1,-1.3690008E-4,1.5716365E-6,-1.4804436E-4],"split_indices":[15,703,0,258,0,1,0,519,0,11,0,859,0,0,0],"split_type":[0,0,0,0,0,0,0,0,0,0,0,0,0,0,0],"sum_hessian":[2.615E3,2.572E3,4.3E1,2.545E3,2.7E1,2.505E3,4E1,2.48E3,2.5E1,2.454E3,2.6E1,2.412E3,4.2E1,2.383E3,2.9E1],"tree_param":{"num_deleted":"0","num_feature":"1006","num_nodes":"15","size_leaf_vector":"1"}},{"base_weights":[-3.131548E-5,-1.14103845E-4,6.2590867E-4,-5.138571E-5,-5.835299E-4,-8.4098756E-5,3.1350803E-4,-3.8918326E-5,-2.420434E-4,1.939754E-5,-6.8048656E-4,-1.5894455E-5,1.1166557E-3,-3.851171E-4,-2.480164E-4,2.6419144E-7,-9.276069E-5,1.2043193E-5,2.8362573E-4,-6.292042E-6,-1.372245E-4],"categories":[],"categories_nodes":[],"categories_segments":[],"categories_sizes":[],"default_left":[0,0,0,0,0,0,0,0,0,0,0,0,0,0,0,0,0,0,0,0,0],"id":62,"left_children":[1,3,-1,5,-1,7,-1,9,-1,11,13,15,17,19,-1,-1,-1,-1,-1,-1,-1],"loss_changes":[1.3630539E-3,9.265392E-4,0E0,2.666986E-4,0E0,2.6706967E-4,0E0,9.29486E-5,0E0,8.8232E-5,1.09079796E-4,3.7317295E-5,1.21289086E-4,5.6844492E-5,0E0,0E0,0E0,0E0,0E0,0E0,0E0],"parents":[2147483647,0,0,1,1,3,3,5,5,7,7,9,9,10,10,11,11,12,12,13,13],"right_children":[2,4,-1,6,-1,8,-1,10,-1,12,14,16,18,20,-1,-1,-1,-1,-1,-1,-1],"split_conditions":[5.7252717E-1,7E0,6.2590867E-4,6.666667E-1,-5.835299E-4,7.6828054E-3,3.1350803E-4,3E0,-2.420434E-4,1.6666667E-1,1.5E0,1.1E1,2.5724578E-1,1E0,-2.480164E-4,2.6419144E-7,-9.276069E-5,1.2043193E-5,2.8362573E-4,-6.292042E-6,-1.372245E-4],"split_indices":[4,164,0,788,0,519,0,161,0,677,834,27,4,91,0,0,0,0,0,0,0],"split_type":[0,0,0,0,0,0,0,0,0,0,0,0,0,0,0,0,0,0,0,0,0],"sum_hessian":[2.615E3,2.582E3,3.3E1,2.555E3,2.7E1,2.53E3,2.5E1,2.483E3,4.7E1,2.277E3,2.06E2,2.207E3,7E1,1.78E2,2.8E1,2.164E3,4.3E1,4.5E1,2.5E1,1.35E2,4.3E1],"tree_param":{"num_deleted":"0","num_feature":"1006","num_nodes":"21","size_leaf_vector":"1"}},{"base_weights":[1.758636E-5,-4.9818118E-5,6.4403325E-4,9.121643E-6,-5.407347E-4,-4.2495078E-5,4.0655883E-4,-1.6264985E-6,-3.4277217E-4,3.76174E-5,-1.6746272E-3,-1.2546633E-5,2.377868E-3,-5.6097837E-5,-2.9808632E-4,1.0023176E-6,-1.3675708E-4,5.7469745E-4,-1.082695E-4],"categories":[],"categories_nodes":[],"categories_segments":[],"categories_sizes":[],"default_left":[0,0,0,0,0,0,0,0,0,0,0,0,0,0,0,0,0,0,0],"id":63,"left_children":[1,3,-1,5,-1,7,-1,9,-1,11,13,15,17,-1,-1,-1,-1,-1,-1],"loss_changes":[1.1254846E-3,8.125293E-4,0E0,5.332581E-4,0E0,3.4794316E-4,0E0,1.6328148E-4,0E0,2.8530307E-4,8.124503E-5,7.280039E-5,6.008314E-4,0E0,0E0,0E0,0E0,0E0,0E0],"parents":[2147483647,0,0,1,1,3,3,5,5,7,7,9,9,10,10,11,11,12,12],"right_children":[2,4,-1,6,-1,8,-1,10,-1,12,14,16,18,-1,-1,-1,-1,-1,-1],"split_conditions":[2E0,4E0,6.4403325E-4,5E-1,-5.407347E-4,5E0,4.0655883E-4,1E0,-3.4277217E-4,1.3333333E2,1.6666667E-1,2.1208665E-7,1.3333334E0,-5.6097837E-5,-2.9808632E-4,1.0023176E-6,-1.3675708E-4,5.7469745E-4,-1.082695E-4],"split_indices":[478,447,0,805,0,164,0,445,0,504,594,17,679,0,0,0,0,0,0],"split_type":[0,0,0,0,0,0,0,0,0,0,0,0,0,0,0,0,0,0,0],"sum_hessian":[2.598E3,2.572E3,2.6E1,2.545E3,2.7E1,2.514E3,3.1E1,2.485E3,2.9E1,2.429E3,5.6E1,2.379E3,5E1,3.1E1,2.5E1,2.341E3,3.8E1,2.5E1,2.5E1],"tree_param":{"num_deleted":"0","num_feature":"1006","num_nodes":"19","size_leaf_vector":"1"}},{"base_weights":[-8.530261E-6,-8.087701E-5,6.425635E-4,-2.065346E-5,-5.772353E-4,-5.61854E-5,2.9694554E-4,-2.0444122E-5,-3.1304627E-4,4.2663614E-6,-1.864874E-4,-6.425922E-5,5.731419E-4,-8.145434E-6,1.3226458E-4,1.5662901E-5,2.9827649E-4],"categories":[],"categories_nodes":[],"categories_segments":[],"categories_sizes":[],"default_left":[0,0,0,0,0,0,0,0,0,0,0,0,0,0,0,0,0],"id":64,"left_children":[1,3,-1,5,-1,7,-1,9,-1,11,-1,13,15,-1,-1,-1,-1],"loss_changes":[1.2140546E-3,8.838611E-4,0E0,2.714087E-4,0E0,2.7726957E-4,0E0,1.13767535E-4,0E0,9.608978E-5,0E0,5.2573312E-5,2.6549713E-4,0E0,0E0,0E0,0E0],"parents":[2147483647,0,0,1,1,3,3,5,5,7,7,9,9,11,11,12,12],"right_children":[2,4,-1,6,-1,8,-1,10,-1,12,-1,14,16,-1,-1,-1,-1],"split_conditions":[1E0,2.5949568E-2,6.425635E-4,2E0,-5.772353E-4,5.4097605E-1,2.9694554E-4,9E0,-3.1304627E-4,7.205651E-8,-1.864874E-4,5E0,6.666667E-1,-8.145434E-6,1.3226458E-4,1.5662901E-5,2.9827649E-4],"split_indices":[381,16,0,488,0,4,0,18,0,6,0,207,878,0,0,0,0],"split_type":[0,0,0,0,0,0,0,0,0,0,0,0,0,0,0,0,0],"sum_hessian":[2.606E3,2.578E3,2.8E1,2.552E3,2.6E1,2.523E3,2.9E1,2.495E3,2.8E1,2.463E3,3.2E1,2.199E3,2.64E2,2.173E3,2.6E1,2.26E2,3.8E1],"tree_param":{"num_deleted":"0","num_feature":"1006","num_nodes":"17","size_leaf_vector":"1"}},{"base_weights":[2.9698274E-5,-5.115244E-5,7.712411E-4,2.5334543E-6,-4.7478298E-4,-4.6818946E-5,4.273982E-4,5.4006225E-8,-3.268034E-4,-3.0545005E-5,2.67528E-4,2.1896924E-6,-2.0012286E-4,2.890152E-6,-1.3408366E-4],"categories":[],"categories_nodes":[],"categories_segments":[],"categories_sizes":[],"default_left":[0,0,0,0,0,0,0,0,0,0,0,0,0,0,0],"id":65,"left_children":[1,3,-1,5,-1,7,-1,9,-1,11,-1,13,-1,-1,-1],"loss_changes":[1.6104224E-3,6.470169E-4,0E0,5.352263E-4,0E0,3.789797E-4,0E0,2.0268343E-4,0E0,1.5792421E-4,0E0,8.6460874E-5,0E0,0E0,0E0],"parents":[2147483647,0,0,1,1,3,3,5,5,7,7,9,9,11,11],"right_children":[2,4,-1,6,-1,8,-1,10,-1,12,-1,14,-1,-1,-1],"split_conditions":[9E0,2E0,7.712411E-4,5E-1,-4.7478298E-4,2.0034582E-7,4.273982E-4,3E0,-3.268034E-4,2.17E2,2.67528E-4,6.2398516E-7,-2.0012286E-4,2.890152E-6,-1.3408366E-4],"split_indices":[39,152,0,805,0,15,0,258,0,1,0,11,0,0,0],"split_type":[0,0,0,0,0,0,0,0,0,0,0,0,0,0,0],"sum_hessian":[2.591E3,2.565E3,2.6E1,2.537E3,2.8E1,2.509E3,2.8E1,2.474E3,3.5E1,2.447E3,2.7E1,2.408E3,3.9E1,2.362E3,4.6E1],"tree_param":{"num_deleted":"0","num_feature":"1006","num_nodes":"15","size_leaf_vector":"1"}}]},"name":"gbtree"},"learner_model_param":{"base_score":"2.1802362E-3","boost_from_average":"1","num_class":"0","num_feature":"1006","num_target":"1"},"objective":{"name":"reg:squarederror","reg_loss_param":{"scale_pos_weight":"1"}}},"version":[2,0,3]}