{"learner":{"attributes":{"best_iteration":"28","best_score":"0.00797092973038981"},"feature_names":[],"feature_types":[],"gradient_booster":{"model":{"gbtree_model_param":{"num_parallel_tree":"1","num_trees":"79"},"iteration_indptr":[0,1,2,3,4,5,6,7,8,9,10,11,12,13,14,15,16,17,18,19,20,21,22,23,24,25,26,27,28,29,30,31,32,33,34,35,36,37,38,39,40,41,42,43,44,45,46,47,48,49,50,51,52,53,54,55,56,57,58,59,60,61,62,63,64,65,66,67,68,69,70,71,72,73,74,75,76,77,78,79],"tree_info":[0,0,0,0,0,0,0,0,0,0,0,0,0,0,0,0,0,0,0,0,0,0,0,0,0,0,0,0,0,0,0,0,0,0,0,0,0,0,0,0,0,0,0,0,0,0,0,0,0,0,0,0,0,0,0,0,0,0,0,0,0,0,0,0,0,0,0,0,0,0,0,0,0,0,0,0,0,0,0],"trees":[{"base_weights":[-3.3331822E-4,-2.0337221E-3,7.93338E-3,-2.4672837E-3,1.792221E-3,-3.1708905E-3,8.748651E-4,-3.587169E-3,-1.3698073E-3,-9.405609E-4,3.4675102E-3,-3.955882E-3,-2.7824154E-3,-2.5080917E-3,8.3018946E-5,-1.7707116E-3,7.810177E-5,2.449678E-4,8.646556E-4,-6.1812345E-4,-3.3148073E-3,-3.0323395E-3,-2.8347902E-4,-2.4642184E-4,-2.8830573E-3,-1.1146354E-4,-4.1768583E-4,-5.4843526E-4,-3.8748185E-4,-3.4382893E-4,-3.2319443E-3,-4.92687E-4,-3.5464787E-4,-5.795612E-4,-4.4850432E-4],"categories":[],"categories_nodes":[],"categories_segments":[],"categories_sizes":[],"default_left":[0,0,0,0,0,0,0,0,0,0,0,0,0,0,0,0,0,0,0,0,0,0,0,0,0,0,0,0,0,0,0,0,0,0,0],"id":0,"left_children":[1,3,-1,5,-1,7,9,11,13,15,17,19,21,23,-1,25,-1,-1,-1,-1,27,29,-1,-1,31,-1,-1,-1,-1,-1,33,-1,-1,-1,-1],"loss_changes":[1.5784864E-1,1.027426E-2,0E0,3.859329E-3,0E0,1.011001E-3,1.3493933E-3,3.1538866E-4,5.618297E-4,2.0592725E-4,4.877604E-4,6.585568E-5,7.2121155E-5,4.750013E-5,0E0,1.1045221E-4,0E0,0E0,0E0,0E0,3.0271127E-5,3.262842E-5,0E0,0E0,1.5353784E-5,0E0,0E0,0E0,0E0,0E0,2.0697014E-5,0E0,0E0,0E0,0E0],"parents":[2147483647,0,0,1,1,3,3,5,5,6,6,7,7,8,8,9,9,10,10,11,11,12,12,13,13,15,15,20,20,21,21,24,24,30,30],"right_children":[2,4,-1,6,-1,8,10,12,14,16,18,20,22,24,-1,26,-1,-1,-1,-1,28,30,-1,-1,32,-1,-1,-1,-1,-1,34,-1,-1,-1,-1],"split_conditions":[4E0,2.1666667E0,7.93338E-3,7.3E1,1.792221E-3,2.7224526E-1,2.4630377E-1,3.3E1,3.7E1,1.7002264E-1,3.3333334E-1,1.8822977E-1,1.9750558E-1,8.3E1,8.3018946E-5,1.33E2,7.810177E-5,2.449678E-4,8.646556E-4,-6.1812345E-4,7.061817E-8,2.6E1,-2.8347902E-4,-2.4642184E-4,2.5E1,-1.1146354E-4,-4.1768583E-4,-5.4843526E-4,-3.8748185E-4,-3.4382893E-4,5.3207934E-2,-4.92687E-4,-3.5464787E-4,-5.795612E-4,-4.4850432E-4],"split_indices":[207,667,0,1,0,4,4,1,1,4,950,4,4,0,0,0,0,0,0,0,506,0,0,0,1,0,0,0,0,0,4,0,0,0,0],"split_type":[0,0,0,0,0,0,0,0,0,0,0,0,0,0,0,0,0,0,0,0,0,0,0,0,0,0,0,0,0,0,0,0,0,0,0],"sum_hessian":[1.742E3,1.689E3,5.3E1,1.639E3,5E1,1.354E3,2.85E2,1.099E3,2.55E2,1.68E2,1.17E2,7.51E2,3.48E2,1.6E2,9.5E1,1.07E2,6.1E1,6.6E1,5.1E1,5.93E2,1.58E2,2.7E2,7.8E1,5E1,1.1E2,5.4E1,5.3E1,1.05E2,5.3E1,6E1,2.1E2,5.9E1,5.1E1,5.4E1,1.56E2],"tree_param":{"num_deleted":"0","num_feature":"1006","num_nodes":"35","size_leaf_vector":"1"}},{"base_weights":[-1.7990054E-4,-1.6548067E-3,6.549528E-3,-2.1639029E-3,1.3251253E-3,-2.8487938E-3,-1.0730244E-4,-3.199084E-3,-1.6326914E-3,-1.6338003E-3,1.3976946E-3,-3.308122E-3,-3.1678902E-4,-2.128733E-3,-1.0423927E-5,-2.2327993E-3,-4.6394744E-5,3.97496E-4,5.462896E-4,-3.475075E-3,-2.824241E-3,-2.5570942E-3,-1.7233394E-4,-4.2820923E-4,-2.1262185E-4,-1.065152E-4,3.3342588E-4,-5.396404E-4,-3.11158E-3,-3.0552687E-3,-3.0056518E-4,-4.52672E-4,-3.208918E-4,-5.458504E-4,-4.2691012E-4,-4.060935E-4,-4.8739483E-4],"categories":[],"categories_nodes":[],"categories_segments":[],"categories_sizes":[],"default_left":[0,0,0,0,0,0,0,0,0,0,0,0,0,0,0,0,0,0,0,0,0,0,0,0,0,0,0,0,0,0,0,0,0,0,0,0,0],"id":1,"left_children":[1,3,-1,5,-1,7,9,11,13,15,17,19,-1,21,-1,23,-1,25,-1,27,29,31,-1,-1,-1,-1,-1,-1,33,35,-1,-1,-1,-1,-1,-1,-1],"loss_changes":[1.1524049E-1,9.225098E-3,0E0,2.3167543E-3,0E0,5.2044634E-4,9.48802E-4,1.0645855E-4,2.154166E-4,1.6195129E-4,4.654461E-4,6.0306862E-5,0E0,8.562417E-5,0E0,6.745051E-5,0E0,2.947315E-4,0E0,1.735473E-5,3.7095975E-5,2.1648419E-5,0E0,0E0,0E0,0E0,0E0,0E0,1.33094145E-5,3.0862866E-6,0E0,0E0,0E0,0E0,0E0,0E0,0E0],"parents":[2147483647,0,0,1,1,3,3,5,5,6,6,7,7,8,8,9,9,10,10,11,11,13,13,15,15,17,17,19,19,20,20,21,21,28,28,29,29],"right_children":[2,4,-1,6,-1,8,10,12,14,16,18,20,-1,22,-1,24,-1,26,-1,28,30,32,-1,-1,-1,-1,-1,-1,34,36,-1,-1,-1,-1,-1,-1,-1],"split_conditions":[8.2587935E-3,1.66E2,6.549528E-3,5.3E1,1.3251253E-3,2.535814E-1,7.133489E-8,1.14499954E-7,9.569808E-8,8.333333E-1,3.1765693E-1,1.736292E-1,-3.1678902E-4,3.1E1,-1.0423927E-5,1.7426462E-3,-4.6394744E-5,3.3333334E-1,5.462896E-4,3E1,3.5E1,1.7E1,-1.7233394E-4,-4.2820923E-4,-2.1262185E-4,-1.065152E-4,3.3342588E-4,-5.396404E-4,2.7540043E-8,1.6666667E-1,-3.0056518E-4,-4.52672E-4,-3.208918E-4,-5.458504E-4,-4.2691012E-4,-4.060935E-4,-4.8739483E-4],"split_indices":[519,1,0,1,0,507,3,3,3,707,507,507,0,1,0,7,0,558,0,1,1,1,0,0,0,0,0,0,3,924,0,0,0,0,0,0,0],"split_type":[0,0,0,0,0,0,0,0,0,0,0,0,0,0,0,0,0,0,0,0,0,0,0,0,0,0,0,0,0,0,0,0,0,0,0,0,0],"sum_hessian":[1.78E3,1.723E3,5.7E1,1.644E3,7.9E1,1.233E3,4.11E2,9.56E2,2.77E2,2.04E2,2.07E2,8.67E2,8.9E1,2.1E2,6.7E1,1.4E2,6.4E1,1.44E2,6.3E1,6.4E2,2.27E2,1.45E2,6.5E1,7.8E1,6.2E1,9E1,5.4E1,4.72E2,1.68E2,1.75E2,5.2E1,6.6E1,7.9E1,5.2E1,1.16E2,6.8E1,1.07E2],"tree_param":{"num_deleted":"0","num_feature":"1006","num_nodes":"37","size_leaf_vector":"1"}},{"base_weights":[1.0435836E-4,-1.488111E-3,7.821463E-3,-2.0909503E-3,5.3819674E-3,-2.7015049E-3,-7.469654E-4,1.0982199E-4,1.8832114E-3,-2.7810622E-3,-1.6744781E-4,-1.6743169E-3,4.5606264E-4,-3.0025244E-3,-2.5302693E-3,-2.2002412E-3,-1.0685805E-3,-8.2537555E-4,3.887161E-4,-4.6292142E-4,-4.0975944E-4,-2.406076E-3,-5.280894E-4,-2.68026E-4,-3.884727E-4,-2.8792632E-5,-2.747077E-4,-8.263394E-6,-2.443995E-4,-2.5843475E-3,-1.8812568E-3,-4.1821136E-4,-2.995563E-4,-3.7092494E-4,-1.9609956E-4],"categories":[],"categories_nodes":[],"categories_segments":[],"categories_sizes":[],"default_left":[0,0,0,0,0,0,0,0,0,0,0,0,0,0,0,0,0,0,0,0,0,0,0,0,0,0,0,0,0,0,0,0,0,0,0],"id":2,"left_children":[1,3,-1,5,7,9,11,-1,-1,13,-1,15,17,19,21,23,25,27,-1,-1,-1,29,-1,-1,-1,-1,-1,-1,-1,31,33,-1,-1,-1,-1],"loss_changes":[1.479178E-1,7.1844216E-3,0E0,1.3051601E-3,4.660105E-3,1.3498962E-4,5.574629E-4,0E0,0E0,5.0276518E-5,0E0,8.7486E-5,5.986642E-4,3.9781444E-6,5.2410178E-5,1.9530125E-5,8.858513E-5,8.475093E-5,0E0,0E0,0E0,3.6585378E-5,0E0,0E0,0E0,0E0,0E0,0E0,0E0,3.3677556E-5,3.6151614E-5,0E0,0E0,0E0,0E0],"parents":[2147483647,0,0,1,1,3,3,4,4,5,5,6,6,9,9,11,11,12,12,13,13,14,14,15,15,16,16,17,17,21,21,29,29,30,30],"right_children":[2,4,-1,6,8,10,12,-1,-1,14,-1,16,18,20,22,24,26,28,-1,-1,-1,30,-1,-1,-1,-1,-1,-1,-1,32,34,-1,-1,-1,-1],"split_conditions":[9E0,1.23E2,7.821463E-3,4.1E1,7.6333336E1,5.296794E-8,7.6680074E-8,1.0982199E-4,1.8832114E-3,4.6068113E-8,-1.6744781E-4,3.3333334E-1,5E-1,2.7E1,1.0869193E-7,1.6666667E-1,1E0,1E0,3.887161E-4,-4.6292142E-4,-4.0975944E-4,1.6666667E-1,-5.280894E-4,-2.68026E-4,-3.884727E-4,-2.8792632E-5,-2.747077E-4,-8.263394E-6,-2.443995E-4,2.8E1,5E-1,-4.1821136E-4,-2.995563E-4,-3.7092494E-4,-1.9609956E-4],"split_indices":[81,1,0,1,504,11,3,0,0,3,0,559,644,1,514,720,191,51,0,0,0,638,0,0,0,0,0,0,0,1,653,0,0,0,0],"split_type":[0,0,0,0,0,0,0,0,0,0,0,0,0,0,0,0,0,0,0,0,0,0,0,0,0,0,0,0,0,0,0,0,0,0,0],"sum_hessian":[1.783E3,1.731E3,5.2E1,1.592E3,1.39E2,1.094E3,4.98E2,8.5E1,5.4E1,1.041E3,5.3E1,2.81E2,2.17E2,5.47E2,4.94E2,1.49E2,1.32E2,1.36E2,8.1E1,4.1E2,1.37E2,4.42E2,5.2E1,7.5E1,7.4E1,6.2E1,7E1,7E1,6.6E1,3.27E2,1.15E2,2.4E2,8.7E1,5.5E1,6E1],"tree_param":{"num_deleted":"0","num_feature":"1006","num_nodes":"35","size_leaf_vector":"1"}},{"base_weights":[2.373969E-4,-1.3211946E-3,6.077601E-3,-1.9057218E-3,5.382512E-3,-2.4214692E-3,-1.1146605E-3,2.6827143E-4,1.6364028E-3,-2.8197647E-3,-2.2106315E-3,-1.4936746E-3,4.1985238E-4,-2.652179E-3,-5.136797E-4,-2.3918087E-3,-1.5216038E-3,-5.3168694E-4,-1.7667765E-3,-1.0878003E-4,2.9628235E-4,-4.1274462E-4,-3.42465E-4,-4.0665042E-4,-2.235583E-3,-7.5497024E-5,-3.3778528E-4,-1.7876324E-4,3.8293325E-5,-2.0567023E-3,-1.0494848E-3,-2.0018138E-3,-2.5577664E-3,-2.1713949E-3,-2.3159682E-4,-2.784151E-4,-3.579125E-5,-2.6872667E-4,-3.7123918E-4,-4.271188E-4,-3.3528055E-4,-3.4900277E-4,-2.7633234E-4],"categories":[],"categories_nodes":[],"categories_segments":[],"categories_sizes":[],"default_left":[0,0,0,0,0,0,0,0,0,0,0,0,0,0,0,0,0,0,0,0,0,0,0,0,0,0,0,0,0,0,0,0,0,0,0,0,0,0,0,0,0,0,0],"id":3,"left_children":[1,3,-1,5,7,9,11,-1,-1,13,15,17,19,21,-1,23,25,27,29,-1,-1,-1,-1,-1,31,-1,-1,-1,-1,33,35,37,39,41,-1,-1,-1,-1,-1,-1,-1,-1,-1],"loss_changes":[1.095418E-1,6.5933364E-3,0E0,6.2804995E-4,2.6620831E-3,7.228367E-5,3.5656744E-4,0E0,0E0,2.3349654E-5,7.32597E-5,1.2805662E-4,2.1871105E-4,3.0775554E-6,0E0,1.8174527E-5,9.6285454E-5,5.744456E-5,7.728278E-5,0E0,0E0,0E0,0E0,0E0,1.9884901E-5,0E0,0E0,0E0,0E0,1.2583681E-5,7.281249E-5,1.5167112E-5,6.3437037E-6,6.9087837E-6,0E0,0E0,0E0,0E0,0E0,0E0,0E0,0E0,0E0],"parents":[2147483647,0,0,1,1,3,3,4,4,5,5,6,6,9,9,10,10,11,11,12,12,13,13,15,15,16,16,17,17,18,18,24,24,29,29,30,30,31,31,32,32,33,33],"right_children":[2,4,-1,6,8,10,12,-1,-1,14,16,18,20,22,-1,24,26,28,30,-1,-1,-1,-1,-1,32,-1,-1,-1,-1,34,36,38,40,42,-1,-1,-1,-1,-1,-1,-1,-1,-1],"split_conditions":[2.39E2,3.7216717E-1,6.077601E-3,1.8374762E-1,1E0,3.8811807E-2,7.6E1,2.6827143E-4,1.6364028E-3,4.8E1,5.7E1,9.6E1,1.7131768E-2,1.7643334E3,-5.136797E-4,1.8E1,5.88849E-8,1.6666667E-1,4.3E1,-1.0878003E-4,2.9628235E-4,-4.1274462E-4,-3.42465E-4,-4.0665042E-4,2.21E2,-7.5497024E-5,-3.3778528E-4,-1.7876324E-4,3.8293325E-5,1.6666667E-1,3.3333334E-1,1.6666667E-1,1.326627E-1,2.7356017E-1,-2.3159682E-4,-2.784151E-4,-3.579125E-5,-2.6872667E-4,-3.7123918E-4,-4.271188E-4,-3.3528055E-4,-3.4900277E-4,-2.7633234E-4],"split_indices":[1,4,0,4,51,4,1,0,0,0,1,0,510,505,0,1,511,883,1,0,0,0,0,0,0,0,0,0,0,591,534,985,4,507,0,0,0,0,0,0,0,0,0],"split_type":[0,0,0,0,0,0,0,0,0,0,0,0,0,0,0,0,0,0,0,0,0,0,0,0,0,0,0,0,0,0,0,0,0,0,0,0,0,0,0,0,0,0,0],"sum_hessian":[1.743E3,1.679E3,6.4E1,1.545E3,1.34E2,9.34E2,6.11E2,8.2E1,5.2E1,3.19E2,6.15E2,4.9E2,1.21E2,2.54E2,6.5E1,4.85E2,1.3E2,1.09E2,3.81E2,7E1,5.1E1,1.95E2,5.9E1,1.54E2,3.31E2,5.5E1,7.5E1,5.9E1,5E1,2.7E2,1.11E2,1.96E2,1.35E2,2.18E2,5.2E1,5.5E1,5.6E1,1.39E2,5.7E1,6.7E1,6.8E1,1.44E2,7.4E1],"tree_param":{"num_deleted":"0","num_feature":"1006","num_nodes":"43","size_leaf_vector":"1"}},{"base_weights":[-1.6614656E-4,-1.3827229E-3,6.0477145E-3,-1.7816958E-3,1.5623372E-3,-1.6779507E-3,-6.942528E-4,-2.8214377E-5,9.4550365E-4,-2.0969745E-3,-9.788029E-4,-2.225613E-4,3.2869965E-4,-2.233622E-3,-1.58003E-3,-1.2903338E-3,1.8244605E-4,-2.3472703E-3,-1.7358641E-3,-1.086602E-3,-3.2083003E-4,-1.5808115E-3,-3.752237E-4,-2.3946292E-3,-3.0285254E-4,-2.1637541E-4,-3.2730226E-4,-2.2951716E-4,-8.935423E-5,-1.7954619E-3,-6.7749126E-5,1.0526943E-4,-2.3125585E-4,-3.4963014E-4,-3.9866744E-4,-3.048369E-4,-1.8454694E-4],"categories":[],"categories_nodes":[],"categories_segments":[],"categories_sizes":[],"default_left":[0,0,0,0,0,0,0,0,0,0,0,0,0,0,0,0,0,0,0,0,0,0,0,0,0,0,0,0,0,0,0,0,0,0,0,0,0],"id":4,"left_children":[1,3,-1,5,7,9,-1,11,-1,13,15,-1,-1,17,19,21,-1,23,25,27,-1,29,31,33,-1,-1,-1,-1,-1,35,-1,-1,-1,-1,-1,-1,-1],"loss_changes":[8.609929E-2,1.996757E-3,0E0,4.337472E-4,1.5309678E-3,4.2098062E-4,0E0,4.9753464E-4,0E0,6.0187653E-5,3.728969E-4,0E0,0E0,3.6146026E-5,5.06191E-5,1.2593676E-4,0E0,4.1197054E-6,1.46526145E-5,2.1731743E-5,0E0,8.668541E-5,1.4681555E-4,2.161134E-6,0E0,0E0,0E0,0E0,0E0,3.804674E-5,0E0,0E0,0E0,0E0,0E0,0E0,0E0],"parents":[2147483647,0,0,1,1,3,3,4,4,5,5,7,7,9,9,10,10,13,13,14,14,15,15,17,17,18,18,19,19,21,21,22,22,23,23,29,29],"right_children":[2,4,-1,6,8,10,-1,12,-1,14,16,-1,-1,18,20,22,-1,24,26,28,-1,30,32,34,-1,-1,-1,-1,-1,36,-1,-1,-1,-1,-1,-1,-1],"split_conditions":[1.1516683E-2,3.4092623E-1,6.0477145E-3,1.7E1,1E0,1.7781678E-1,-6.942528E-4,1E0,9.4550365E-4,1E0,5E0,-2.225613E-4,3.2869965E-4,3E0,1E0,4E0,1.8244605E-4,1.7921666E3,2.2899616E-8,1.6705E3,-3.2083003E-4,6.545115E-8,4.8306856E-6,5E-1,-3.0285254E-4,-2.1637541E-4,-3.2730226E-4,-2.2951716E-4,-8.935423E-5,2.7224526E-1,-6.7749126E-5,1.0526943E-4,-2.3125585E-4,-3.4963014E-4,-3.9866744E-4,-3.048369E-4,-1.8454694E-4],"split_indices":[16,4,0,30,107,4,0,142,0,53,27,0,0,32,51,30,0,505,509,505,0,509,508,644,0,0,0,0,0,4,0,0,0,0,0,0,0],"split_type":[0,0,0,0,0,0,0,0,0,0,0,0,0,0,0,0,0,0,0,0,0,0,0,0,0,0,0,0,0,0,0,0,0,0,0,0,0],"sum_hessian":[1.746E3,1.696E3,5E1,1.494E3,2.02E2,1.443E3,5.1E1,1.52E2,5E1,9.01E2,5.42E2,9.2E1,6E1,7.1E2,1.91E2,4.75E2,6.7E1,5.75E2,1.35E2,1.03E2,8.8E1,3.6E2,1.15E2,4.97E2,7.8E1,8.4E1,5.1E1,5.3E1,5E1,3.02E2,5.8E1,6E1,5.5E1,4.08E2,8.9E1,2.11E2,9.1E1],"tree_param":{"num_deleted":"0","num_feature":"1006","num_nodes":"37","size_leaf_vector":"1"}},{"base_weights":[-2.208888E-4,-1.1995055E-3,3.9239014E-3,-1.385782E-3,4.644509E-4,-1.6240203E-3,-2.3081552E-4,-1.7247604E-3,-4.6494592E-4,-1.2996024E-3,1.262037E-3,-1.6360969E-3,-4.814902E-4,-3.1956198E-4,2.1985326E-4,-4.8648534E-4,-4.14899E-4,-1.01513324E-4,5.074158E-4,-1.7481119E-3,-8.865186E-4,-2.2449442E-4,6.1519866E-5,-1.8217262E-3,-1.4865345E-4,-2.565697E-4,-4.512002E-6,-2.817085E-4,-1.7316056E-4],"categories":[],"categories_nodes":[],"categories_segments":[],"categories_sizes":[],"default_left":[0,0,0,0,0,0,0,0,0,0,0,0,0,0,0,0,0,0,0,0,0,0,0,0,0,0,0,0,0],"id":5,"left_children":[1,3,-1,5,-1,7,9,11,13,15,17,19,-1,-1,-1,21,-1,-1,-1,23,25,-1,-1,27,-1,-1,-1,-1,-1],"loss_changes":[4.6190627E-2,1.3846615E-3,0E0,4.54735E-4,0E0,1.592834E-4,4.5477384E-4,1.6079727E-4,3.6003283E-4,1.9658403E-4,4.9157743E-4,9.853556E-5,0E0,0E0,0E0,9.843083E-5,0E0,0E0,0E0,5.593337E-5,1.1073705E-4,0E0,0E0,3.327988E-5,0E0,0E0,0E0,0E0,0E0],"parents":[2147483647,0,0,1,1,3,3,5,5,6,6,7,7,8,8,9,9,10,10,11,11,15,15,19,19,20,20,23,23],"right_children":[2,4,-1,6,-1,8,10,12,14,16,18,20,-1,-1,-1,22,-1,-1,-1,24,26,-1,-1,28,-1,-1,-1,-1,-1],"split_conditions":[4.222417E-1,1.6666666E0,3.9239014E-3,2.882932E-1,4.644509E-4,1E0,1.6666667E-1,5E0,4.8895654E-8,5E-1,1E0,1.0666255E-7,-4.814902E-4,-3.1956198E-4,2.1985326E-4,2E0,-4.14899E-4,-1.01513324E-4,5.074158E-4,1E0,1.6666667E-1,-2.2449442E-4,6.1519866E-5,1E0,-1.4865345E-4,-2.565697E-4,-4.512002E-6,-2.817085E-4,-1.7316056E-4],"split_indices":[507,834,0,507,0,213,573,81,3,565,142,3,0,0,0,32,0,0,0,35,532,0,0,77,0,0,0,0,0],"split_type":[0,0,0,0,0,0,0,0,0,0,0,0,0,0,0,0,0,0,0,0,0,0,0,0,0,0,0,0,0],"sum_hessian":[1.787E3,1.724E3,6.3E1,1.653E3,7.1E1,1.37E3,2.83E2,1.26E3,1.1E2,1.65E2,1.18E2,1.191E3,6.9E1,5.9E1,5.1E1,1.07E2,5.8E1,6.2E1,5.6E1,1.035E3,1.56E2,5E1,5.7E1,9.42E2,9.3E1,7.9E1,7.7E1,8.67E2,7.5E1],"tree_param":{"num_deleted":"0","num_feature":"1006","num_nodes":"29","size_leaf_vector":"1"}},{"base_weights":[-1.7855053E-5,-1.1682939E-3,5.2286726E-3,-1.3236111E-3,5.387025E-4,-1.468768E-3,5.549191E-5,-1.3863924E-3,-5.515548E-4,-2.4565525E-4,2.2242269E-4,-1.4415267E-3,1.260199E-5,-1.3826516E-3,-3.972722E-4,-1.5186279E-3,-8.0479786E-4,-2.4433638E-4,-1.7486117E-4,-1.8708676E-4,-1.9260015E-5],"categories":[],"categories_nodes":[],"categories_segments":[],"categories_sizes":[],"default_left":[0,0,0,0,0,0,0,0,0,0,0,0,0,0,0,0,0,0,0,0,0],"id":6,"left_children":[1,3,-1,5,-1,7,9,11,-1,-1,-1,13,-1,15,-1,17,19,-1,-1,-1,-1],"loss_changes":[6.784746E-2,1.2149136E-3,0E0,3.175768E-4,0E0,2.5593885E-4,3.6977278E-4,1.1240272E-4,0E0,0E0,0E0,9.120279E-5,0E0,9.896024E-5,0E0,3.822404E-5,7.316106E-5,0E0,0E0,0E0,0E0],"parents":[2147483647,0,0,1,1,3,3,5,5,6,6,7,7,11,11,13,13,15,15,16,16],"right_children":[2,4,-1,6,-1,8,10,12,-1,-1,-1,14,-1,16,-1,18,20,-1,-1,-1,-1],"split_conditions":[2.6666667E0,2E0,5.2286726E-3,1E0,5.387025E-4,1.3204372E-7,1.6666667E-1,1E0,-5.515548E-4,-2.4565525E-4,2.2242269E-4,5E0,1.260199E-5,1E0,-3.972722E-4,1E0,1.6666667E-1,-2.4433638E-4,-1.7486117E-4,-1.8708676E-4,-1.9260015E-5],"split_indices":[667,201,0,201,0,520,574,314,0,0,0,81,0,204,0,182,564,0,0,0,0],"split_type":[0,0,0,0,0,0,0,0,0,0,0,0,0,0,0,0,0,0,0,0,0],"sum_hessian":[1.689E3,1.636E3,5.3E1,1.585E3,5.1E1,1.434E3,1.51E2,1.384E3,5E1,6.9E1,8.2E1,1.334E3,5E1,1.274E3,6E1,1.03E3,2.44E2,7.82E2,2.48E2,1.47E2,9.7E1],"tree_param":{"num_deleted":"0","num_feature":"1006","num_nodes":"21","size_leaf_vector":"1"}},{"base_weights":[1.2149362E-4,-8.249617E-4,4.6837167E-3,-1.0828628E-3,9.608823E-4,-9.919705E-4,-4.2485344E-4,-1.088568E-3,1.7890088E-4,-1.1817502E-3,8.462828E-5,-1.3718668E-3,-6.4961775E-4,-1.3002454E-3,-4.001216E-4,-9.964347E-4,1.5923586E-4,-2.0638225E-4,-8.775931E-5,-2.4635563E-4,-1.1323489E-4,-1.405635E-4,2.2978424E-4],"categories":[],"categories_nodes":[],"categories_segments":[],"categories_sizes":[],"default_left":[0,0,0,0,0,0,0,0,0,0,0,0,0,0,0,0,0,0,0,0,0,0,0],"id":7,"left_children":[1,3,-1,5,-1,7,-1,9,-1,11,-1,13,15,17,-1,19,21,-1,-1,-1,-1,-1,-1],"loss_changes":[5.18364E-2,3.193953E-3,0E0,2.5972503E-4,0E0,3.328279E-4,0E0,2.324481E-4,0E0,1.4327187E-4,0E0,9.387196E-5,1.05916304E-4,5.307235E-5,0E0,3.99485E-5,1.72992E-4,0E0,0E0,0E0,0E0,0E0,0E0],"parents":[2147483647,0,0,1,1,3,3,5,5,7,7,9,9,11,11,12,12,13,13,15,15,16,16],"right_children":[2,4,-1,6,-1,8,-1,10,-1,12,-1,14,16,18,-1,20,22,-1,-1,-1,-1,-1,-1],"split_conditions":[1.6666666E0,2.3875847E-7,4.6837167E-3,6E0,9.608823E-4,2.670627E-7,-4.2485344E-4,2E0,1.7890088E-4,3E0,8.462828E-5,3.3333334E-1,1.6666667E-1,1E0,-4.001216E-4,3E0,6.542596E-3,-2.0638225E-4,-8.775931E-5,-2.4635563E-4,-1.1323489E-4,-1.405635E-4,2.2978424E-4],"split_indices":[704,3,0,81,0,11,0,53,0,32,0,905,905,106,0,30,510,0,0,0,0,0,0],"split_type":[0,0,0,0,0,0,0,0,0,0,0,0,0,0,0,0,0,0,0,0,0,0,0],"sum_hessian":[1.759E3,1.708E3,5.1E1,1.65E3,5.8E1,1.57E3,8E1,1.504E3,6.6E1,1.424E3,8E1,1.048E3,3.76E2,9.95E2,5.3E1,2.63E2,1.13E2,8.99E2,9.6E1,7E1,1.93E2,6.3E1,5E1],"tree_param":{"num_deleted":"0","num_feature":"1006","num_nodes":"23","size_leaf_vector":"1"}},{"base_weights":[5.6288754E-5,-8.908377E-4,4.768981E-3,-1.1232574E-3,4.2900423E-4,-1.0048483E-3,-6.774882E-4,-1.099459E-3,1.3590907E-4,-1.0451386E-3,-3.2486877E-4,-1.1029431E-3,2.8711309E-5,-1.1589263E-3,-4.275723E-4,-1.9547992E-4,-1.4290394E-4,-1.5564784E-4,2.1886839E-5],"categories":[],"categories_nodes":[],"categories_segments":[],"categories_sizes":[],"default_left":[0,0,0,0,0,0,0,0,0,0,0,0,0,0,0,0,0,0,0],"id":8,"left_children":[1,3,-1,5,-1,7,-1,9,-1,11,-1,13,-1,15,17,-1,-1,-1,-1],"loss_changes":[5.2901886E-2,1.4930761E-3,0E0,6.4236205E-4,0E0,2.8249016E-4,0E0,8.369505E-5,0E0,1.0128121E-4,0E0,5.0584902E-5,0E0,3.586174E-5,3.688791E-5,0E0,0E0,0E0,0E0],"parents":[2147483647,0,0,1,1,3,3,5,5,7,7,9,9,11,11,13,13,14,14],"right_children":[2,4,-1,6,-1,8,-1,10,-1,12,-1,14,-1,16,18,-1,-1,-1,-1],"split_conditions":[3.3333333E0,9.690039E-3,4.768981E-3,1.8333334E0,4.2900423E-4,1.6666667E-1,-6.774882E-4,9.05E1,1.3590907E-4,1E0,-3.2486877E-4,1E0,2.8711309E-5,2.3701071E-8,1.66152E-8,-1.9547992E-4,-1.4290394E-4,-1.5564784E-4,2.1886839E-5],"split_indices":[710,10,0,667,0,746,0,504,0,402,0,71,0,509,515,0,0,0,0],"split_type":[0,0,0,0,0,0,0,0,0,0,0,0,0,0,0,0,0,0,0],"sum_hessian":[1.758E3,1.708E3,5E1,1.609E3,9.9E1,1.556E3,5.3E1,1.483E3,7.3E1,1.413E3,7E1,1.35E3,6.3E1,1.246E3,1.04E2,7.3E2,5.16E2,5E1,5.4E1],"tree_param":{"num_deleted":"0","num_feature":"1006","num_nodes":"19","size_leaf_vector":"1"}},{"base_weights":[-9.209203E-5,-8.3256705E-4,3.5855877E-3,-9.6192915E-4,4.7534393E-4,-8.923029E-4,-4.41502E-4,-8.339474E-4,-3.5723453E-4,-9.3268254E-4,3.371396E-4,-9.834663E-4,1.664619E-5,-1.0076573E-4,2.5432894E-4,-9.29199E-4,-3.5020482E-4,-1.4664265E-4,9.113152E-6],"categories":[],"categories_nodes":[],"categories_segments":[],"categories_sizes":[],"default_left":[0,0,0,0,0,0,0,0,0,0,0,0,0,0,0,0,0,0,0],"id":9,"left_children":[1,3,-1,5,-1,7,-1,9,-1,11,13,15,-1,-1,-1,17,-1,-1,-1],"loss_changes":[3.0865924E-2,8.7528175E-4,0E0,2.2266025E-4,0E0,1.3523933E-4,0E0,1.7618388E-4,0E0,7.446925E-5,1.6422749E-4,9.594322E-5,0E0,0E0,0E0,6.1795814E-5,0E0,0E0,0E0],"parents":[2147483647,0,0,1,1,3,3,5,5,7,7,9,9,10,10,11,11,15,15],"right_children":[2,4,-1,6,-1,8,-1,10,-1,12,14,16,-1,-1,-1,18,-1,-1,-1],"split_conditions":[1.3234929E-2,3E0,3.5855877E-3,1E0,4.7534393E-4,6E0,-4.41502E-4,6E0,-3.5723453E-4,1E0,3.3333334E-1,1.0762013E-2,1.664619E-5,-1.0076573E-4,2.5432894E-4,1E0,-3.5020482E-4,-1.4664265E-4,9.113152E-6],"split_indices":[16,53,0,704,0,81,0,27,0,380,823,513,0,0,0,107,0,0,0],"split_type":[0,0,0,0,0,0,0,0,0,0,0,0,0,0,0,0,0,0,0],"sum_hessian":[1.735E3,1.684E3,5.1E1,1.632E3,5.2E1,1.578E3,5.4E1,1.52E3,5.8E1,1.402E3,1.18E2,1.337E3,6.5E1,6.8E1,5E1,1.287E3,5E1,1.227E3,6E1],"tree_param":{"num_deleted":"0","num_feature":"1006","num_nodes":"19","size_leaf_vector":"1"}},{"base_weights":[2.4408082E-4,-6.550897E-4,4.3824776E-3,-8.5741637E-4,8.903036E-4,-7.474254E-4,-6.074346E-4,-8.3141477E-4,2.6629827E-4,-7.486765E-4,-4.31661E-4,-8.2465535E-4,1.0196688E-4,-7.7027525E-4,-3.402326E-4,-1.2413147E-4,8.808419E-5],"categories":[],"categories_nodes":[],"categories_segments":[],"categories_sizes":[],"default_left":[0,0,0,0,0,0,0,0,0,0,0,0,0,0,0,0,0],"id":10,"left_children":[1,3,-1,5,-1,7,-1,9,-1,11,-1,13,-1,15,-1,-1,-1],"loss_changes":[4.5869183E-2,2.2825764E-3,0E0,5.791092E-4,0E0,3.4133776E-4,0E0,2.607829E-4,0E0,1.6270793E-4,0E0,1.0964577E-4,0E0,1.06913736E-4,0E0,0E0,0E0],"parents":[2147483647,0,0,1,1,3,3,5,5,7,7,9,9,11,11,13,13],"right_children":[2,4,-1,6,-1,8,-1,10,-1,12,-1,14,-1,16,-1,-1,-1],"split_conditions":[2E0,3E0,4.3824776E-3,8.766428E-8,8.903036E-4,1E0,-6.074346E-4,8.833333E0,2.6629827E-4,3.3333334E-1,-4.31661E-4,8.7452825E-8,1.0196688E-4,1.3333334E0,-3.402326E-4,-1.2413147E-4,8.808419E-5],"split_indices":[200,53,0,15,0,361,0,535,0,705,0,520,0,707,0,0,0],"split_type":[0,0,0,0,0,0,0,0,0,0,0,0,0,0,0,0,0],"sum_hessian":[1.759E3,1.707E3,5.2E1,1.657E3,5E1,1.603E3,5.4E1,1.552E3,5.1E1,1.493E3,5.9E1,1.418E3,7.5E1,1.368E3,5E1,1.313E3,5.5E1],"tree_param":{"num_deleted":"0","num_feature":"1006","num_nodes":"17","size_leaf_vector":"1"}},{"base_weights":[1.0623563E-4,-8.487268E-4,4.846609E-3,-6.31917E-4,-7.841967E-4,-7.262341E-4,3.3935232E-4,-6.236385E-4,-5.5317074E-4,-7.0630386E-4,1.4294338E-4,-5.5656664E-4,-1.2863644E-3,-6.467669E-4,1.1693707E-4,-1.0256794E-3,-2.7926356E-4,-1.0713556E-4,8.165251E-5,-1.3273666E-4,-2.0372392E-4],"categories":[],"categories_nodes":[],"categories_segments":[],"categories_sizes":[],"default_left":[0,0,0,0,0,0,0,0,0,0,0,0,0,0,0,0,0,0,0,0,0],"id":11,"left_children":[1,3,-1,5,-1,7,-1,9,-1,11,-1,13,15,17,-1,19,-1,-1,-1,-1,-1],"loss_changes":[5.4462146E-2,1.6297753E-3,0E0,4.4932822E-4,0E0,4.805085E-4,0E0,2.0098989E-4,0E0,1.2618164E-4,0E0,1.4066996E-4,4.2939268E-5,8.798644E-5,0E0,8.533098E-6,0E0,0E0,0E0,0E0,0E0],"parents":[2147483647,0,0,1,1,3,3,5,5,7,7,9,9,11,11,12,12,13,13,15,15],"right_children":[2,4,-1,6,-1,8,-1,10,-1,12,-1,14,16,18,-1,20,-1,-1,-1,-1,-1],"split_conditions":[3E0,3E0,4.846609E-3,1.8333334E0,-7.841967E-4,1.6666666E0,3.3935232E-4,3.3333334E-1,-5.5317074E-4,3.92E2,1.4294338E-4,2E0,4.9E1,1.1666666E0,1.1693707E-4,1.729E3,-2.7926356E-4,-1.0713556E-4,8.165251E-5,-1.3273666E-4,-2.0372392E-4],"split_indices":[180,207,0,710,0,667,0,655,0,0,0,56,1,710,0,2,0,0,0,0,0],"split_type":[0,0,0,0,0,0,0,0,0,0,0,0,0,0,0,0,0,0,0,0,0],"sum_hessian":[1.769E3,1.719E3,5E1,1.639E3,8E1,1.588E3,5.1E1,1.536E3,5.2E1,1.46E3,7.6E1,1.162E3,2.98E2,1.089E3,7.3E1,2.07E2,9.1E1,1.031E3,5.8E1,1.48E2,5.9E1],"tree_param":{"num_deleted":"0","num_feature":"1006","num_nodes":"21","size_leaf_vector":"1"}},{"base_weights":[2.303316E-4,-5.604983E-4,3.569366E-3,7.601266E-4,-7.410273E-4,-5.54035E-4,-9.713392E-4,-4.5959538E-4,-4.3194354E-4,-5.906224E-4,3.1312168E-4,-5.175231E-4,-3.8462857E-4,-5.9117156E-4,2.0168547E-4,-1.1987594E-4,-3.8886134E-5],"categories":[],"categories_nodes":[],"categories_segments":[],"categories_sizes":[],"default_left":[0,0,0,0,0,0,0,0,0,0,0,0,0,0,0,0,0],"id":12,"left_children":[1,3,-1,-1,5,7,-1,9,-1,11,-1,13,-1,15,-1,-1,-1],"loss_changes":[3.214224E-2,1.6994909E-3,0E0,0E0,1.731426E-3,3.430528E-4,0E0,5.0450605E-4,0E0,2.0569545E-4,0E0,1.9073414E-4,0E0,9.1825874E-5,0E0,0E0,0E0],"parents":[2147483647,0,0,1,1,4,4,5,5,7,7,9,9,11,11,13,13],"right_children":[2,4,-1,-1,6,8,-1,10,-1,12,-1,14,-1,16,-1,-1,-1],"split_conditions":[4.6973836E-1,1.301E3,3.569366E-3,7.601266E-4,2.01E2,8.333333E-1,-9.713392E-4,3.7216717E-1,-4.3194354E-4,1.0982035E-7,3.1312168E-4,1E0,-3.8462857E-4,1.7781678E-1,2.0168547E-4,-1.1987594E-4,-3.8886134E-5],"split_indices":[4,2,0,0,1,531,0,4,0,17,0,192,0,4,0,0,0],"split_type":[0,0,0,0,0,0,0,0,0,0,0,0,0,0,0,0,0],"sum_hessian":[1.723E3,1.668E3,5.5E1,5.1E1,1.617E3,1.567E3,5E1,1.507E3,6E1,1.434E3,7.3E1,1.384E3,5E1,1.332E3,5.2E1,8.18E2,5.14E2],"tree_param":{"num_deleted":"0","num_feature":"1006","num_nodes":"17","size_leaf_vector":"1"}},{"base_weights":[-8.607534E-5,-6.454431E-4,2.8078416E-3,-7.6668453E-4,3.473813E-4,-6.209302E-4,-8.1151095E-4,-5.3346076E-4,-4.820241E-4,-4.603859E-4,-2.6938075E-4,-5.1487144E-4,1.0604192E-4,-4.5149654E-4,-2.633429E-4,-8.474599E-5,-2.707225E-6],"categories":[],"categories_nodes":[],"categories_segments":[],"categories_sizes":[],"default_left":[0,0,0,0,0,0,0,0,0,0,0,0,0,0,0,0,0],"id":13,"left_children":[1,3,-1,5,-1,7,-1,9,-1,11,-1,13,-1,15,-1,-1,-1],"loss_changes":[1.893562E-2,6.293676E-4,0E0,1.1336544E-3,0E0,3.6792102E-4,0E0,1.4474452E-4,0E0,9.5322845E-5,0E0,1.11415546E-4,0E0,6.683398E-5,0E0,0E0,0E0],"parents":[2147483647,0,0,1,1,3,3,5,5,7,7,9,9,11,11,13,13],"right_children":[2,4,-1,6,-1,8,-1,10,-1,12,-1,14,-1,16,-1,-1,-1],"split_conditions":[8.333333E-1,1E0,2.8078416E-3,2E0,3.473813E-4,1.66E2,-8.1151095E-4,8.333333E-1,-4.820241E-4,1.1466483E-7,-2.6938075E-4,3.2660034E-1,1.0604192E-4,4E0,-2.633429E-4,-8.474599E-5,-2.707225E-6],"split_indices":[570,285,0,823,0,1,0,569,0,9,0,507,0,30,0,0,0],"split_type":[0,0,0,0,0,0,0,0,0,0,0,0,0,0,0,0,0],"sum_hessian":[1.798E3,1.747E3,5.1E1,1.679E3,6.8E1,1.629E3,5E1,1.577E3,5.2E1,1.492E3,8.5E1,1.426E3,6.6E1,1.358E3,6.8E1,1.076E3,2.82E2],"tree_param":{"num_deleted":"0","num_feature":"1006","num_nodes":"17","size_leaf_vector":"1"}},{"base_weights":[3.1366065E-4,-4.3794053E-4,3.468051E-3,-2.80308E-4,-7.7245967E-4,-4.82501E-4,2.6993088E-3,-3.9607624E-4,-3.1910915E-4,-1.5268663E-4,9.5454016E-4,-5.199756E-4,1.9655627E-4,-4.5938947E-4,-2.9810183E-4,-5.1981385E-4,1.2152263E-4,-9.000632E-5,5.8333167E-6],"categories":[],"categories_nodes":[],"categories_segments":[],"categories_sizes":[],"default_left":[0,0,0,0,0,0,0,0,0,0,0,0,0,0,0,0,0,0,0],"id":14,"left_children":[1,3,-1,5,-1,7,9,11,-1,-1,-1,13,-1,15,-1,17,-1,-1,-1],"loss_changes":[2.901359E-2,1.2158934E-3,0E0,9.5740275E-4,0E0,2.105486E-4,1.3821963E-3,2.9964087E-4,0E0,0E0,0E0,1.1634914E-4,0E0,9.7690936E-5,0E0,5.4304866E-5,0E0,0E0,0E0],"parents":[2147483647,0,0,1,1,3,3,5,5,6,6,7,7,11,11,13,13,15,15],"right_children":[2,4,-1,6,-1,8,10,12,-1,-1,-1,14,-1,16,-1,18,-1,-1,-1],"split_conditions":[3E0,2.5E0,3.468051E-3,1E0,-7.7245967E-4,1E0,8.3511786E-8,2E0,-3.1910915E-4,-1.5268663E-4,9.5454016E-4,1E0,1.9655627E-4,5E-1,-2.9810183E-4,1.6666667E-1,1.2152263E-4,-9.000632E-5,5.8333167E-6],"split_indices":[258,823,0,823,0,282,506,53,0,0,0,585,0,640,0,718,0,0,0],"split_type":[0,0,0,0,0,0,0,0,0,0,0,0,0,0,0,0,0,0,0],"sum_hessian":[1.691E3,1.638E3,5.3E1,1.586E3,5.2E1,1.486E3,1E2,1.413E3,7.3E1,5E1,5E1,1.318E3,9.5E1,1.267E3,5.1E1,1.21E3,5.7E1,1.058E3,1.52E2],"tree_param":{"num_deleted":"0","num_feature":"1006","num_nodes":"19","size_leaf_vector":"1"}},{"base_weights":[-9.849825E-5,-7.13842E-4,2.606836E-3,-5.2448595E-4,-7.497943E-4,-6.306001E-4,3.3306977E-4,-5.424038E-4,-4.878027E-4,-4.795734E-4,-3.4140138E-4,-5.511582E-4,1.2903109E-4,-4.0044676E-4,-1.0008566E-3,-7.165527E-5,6.258805E-5,-1.8170977E-5,-2.1133819E-4],"categories":[],"categories_nodes":[],"categories_segments":[],"categories_sizes":[],"default_left":[0,0,0,0,0,0,0,0,0,0,0,0,0,0,0,0,0,0,0],"id":15,"left_children":[1,3,-1,5,-1,7,-1,9,-1,11,-1,13,-1,15,17,-1,-1,-1,-1],"loss_changes":[1.8972786E-2,1.3799196E-3,0E0,4.770574E-4,0E0,3.6191253E-4,0E0,1.647984E-4,0E0,1.4155469E-4,0E0,9.428046E-5,0E0,6.6402994E-5,1.2547278E-4,0E0,0E0,0E0,0E0],"parents":[2147483647,0,0,1,1,3,3,5,5,7,7,9,9,11,11,13,13,14,14],"right_children":[2,4,-1,6,-1,8,-1,10,-1,12,-1,14,-1,16,18,-1,-1,-1,-1],"split_conditions":[2E0,8.333333E-1,2.606836E-3,1.200438E-2,-7.497943E-4,1.6060073E-7,3.3306977E-4,1.5E0,-4.878027E-4,1.3333334E0,-3.4140138E-4,1E0,1.2903109E-4,7.38906E-8,3.5760531E-6,-7.165527E-5,6.258805E-5,-1.8170977E-5,-2.1133819E-4],"split_indices":[482,807,0,10,0,11,0,823,0,707,0,459,0,6,5,0,0,0,0],"split_type":[0,0,0,0,0,0,0,0,0,0,0,0,0,0,0,0,0,0,0],"sum_hessian":[1.762E3,1.703E3,5.9E1,1.632E3,7.1E1,1.572E3,6E1,1.522E3,5E1,1.47E3,5.2E1,1.396E3,7.4E1,1.047E3,3.49E2,9.57E2,9E1,1.11E2,2.38E2],"tree_param":{"num_deleted":"0","num_feature":"1006","num_nodes":"19","size_leaf_vector":"1"}},{"base_weights":[4.475671E-5,-5.650607E-4,1.9012562E-3,-3.680478E-4,-8.441161E-4,-2.611313E-4,-4.5813105E-4,-3.845893E-4,5.0118257E-4,-3.1597665E-4,-3.2460314E-4,-4.659187E-4,4.1960782E-4,-3.5056492E-4,-3.0931065E-4,-3.3284578E-4,2.3629045E-4,-8.52545E-5,-8.823082E-6,1.55345E-5,-1.01378966E-4],"categories":[],"categories_nodes":[],"categories_segments":[],"categories_sizes":[],"default_left":[0,0,0,0,0,0,0,0,0,0,0,0,0,0,0,0,0,0,0,0,0],"id":16,"left_children":[1,3,-1,5,-1,7,-1,9,-1,11,-1,13,15,17,-1,19,-1,-1,-1,-1,-1],"loss_changes":[1.3378124E-2,1.6505443E-3,0E0,4.5756536E-4,0E0,6.8440376E-4,0E0,1.8074423E-4,0E0,1.5813803E-4,0E0,2.1838257E-4,2.1183272E-4,7.056112E-5,0E0,2.2224764E-5,0E0,0E0,0E0,0E0,0E0],"parents":[2147483647,0,0,1,1,3,3,5,5,7,7,9,9,11,11,12,12,13,13,15,15],"right_children":[2,4,-1,6,-1,8,-1,10,-1,12,-1,14,16,18,-1,20,-1,-1,-1,-1,-1],"split_conditions":[1E0,1.3333334E0,1.9012562E-3,1.4620699E-7,-8.441161E-4,1.7233337E-3,-4.5813105E-4,1.6666667E-1,5.0118257E-4,1.6666667E-1,-3.2460314E-4,2E0,1E0,1.6901666E3,-3.0931065E-4,3.3333334E-1,2.3629045E-4,-8.52545E-5,-8.823082E-6,1.55345E-5,-1.01378966E-4],"split_indices":[285,569,0,17,0,16,0,944,0,864,0,204,161,505,0,556,0,0,0,0,0],"split_type":[0,0,0,0,0,0,0,0,0,0,0,0,0,0,0,0,0,0,0,0,0],"sum_hessian":[1.735E3,1.656E3,7.9E1,1.595E3,6.1E1,1.535E3,6E1,1.485E3,5E1,1.431E3,5.4E1,1.189E3,2.42E2,1.11E3,7.9E1,1.47E2,9.5E1,6.35E2,4.75E2,6.5E1,8.2E1],"tree_param":{"num_deleted":"0","num_feature":"1006","num_nodes":"21","size_leaf_vector":"1"}},{"base_weights":[-2.3541872E-5,-5.3543824E-4,2.4251982E-3,-3.2017793E-4,-7.1999826E-4,-4.4551992E-4,5.227209E-4,-3.341635E-4,-5.3669006E-4,-4.345487E-4,2.587358E-4,-3.6657226E-4,-3.3884123E-4,-3.2240167E-4,-2.049826E-4,-5.5761255E-5,8.9205554E-5],"categories":[],"categories_nodes":[],"categories_segments":[],"categories_sizes":[],"default_left":[0,0,0,0,0,0,0,0,0,0,0,0,0,0,0,0,0],"id":17,"left_children":[1,3,-1,5,-1,7,-1,9,-1,11,-1,13,-1,15,-1,-1,-1],"loss_changes":[1.4604503E-2,1.5663875E-3,0E0,7.775083E-4,0E0,5.485359E-4,0E0,3.155537E-4,0E0,1.7936679E-4,0E0,6.148526E-5,0E0,6.103708E-5,0E0,0E0,0E0],"parents":[2147483647,0,0,1,1,3,3,5,5,7,7,9,9,11,11,13,13],"right_children":[2,4,-1,6,-1,8,-1,10,-1,12,-1,14,-1,16,-1,-1,-1],"split_conditions":[3E0,3E0,2.4251982E-3,1.4E1,-7.1999826E-4,6.1337104E-8,5.227209E-4,1.1666666E0,-5.3669006E-4,9.5E0,2.587358E-4,7.9333336E1,-3.3884123E-4,1E0,-2.049826E-4,-5.5761255E-5,8.9205554E-5],"split_indices":[66,207,0,32,0,518,0,823,0,533,0,504,0,380,0,0,0],"split_type":[0,0,0,0,0,0,0,0,0,0,0,0,0,0,0,0,0],"sum_hessian":[1.76E3,1.707E3,5.3E1,1.626E3,8.1E1,1.575E3,5.1E1,1.522E3,5.3E1,1.452E3,7E1,1.401E3,5.1E1,1.343E3,5.8E1,1.275E3,6.8E1],"tree_param":{"num_deleted":"0","num_feature":"1006","num_nodes":"17","size_leaf_vector":"1"}},{"base_weights":[1.2775897E-5,-5.759262E-4,2.6783356E-3,-3.3940715E-4,-1.1872704E-3,-4.2905178E-4,3.468539E-4,-2.8927167E-4,-2.1553128E-3,-3.711174E-4,2.872663E-4,-1.4597563E-4,-5.346665E-4,-2.555727E-4,-4.282401E-4,-3.2038096E-4,1.3816616E-4,-2.6283638E-5,-1.4356342E-4],"categories":[],"categories_nodes":[],"categories_segments":[],"categories_sizes":[],"default_left":[0,0,0,0,0,0,0,0,0,0,0,0,0,0,0,0,0,0,0],"id":18,"left_children":[1,3,-1,5,-1,7,-1,9,11,13,-1,-1,-1,15,-1,17,-1,-1,-1],"loss_changes":[1.8087821E-2,2.890997E-3,0E0,3.8514216E-4,0E0,3.767649E-4,0E0,2.6195764E-4,1.9142887E-4,4.0019795E-4,0E0,0E0,0E0,1.0217659E-4,0E0,1.16931624E-4,0E0,0E0,0E0],"parents":[2147483647,0,0,1,1,3,3,5,5,7,7,8,8,9,9,13,13,15,15],"right_children":[2,4,-1,6,-1,8,-1,10,12,14,-1,-1,-1,16,-1,18,-1,-1,-1],"split_conditions":[1E0,2.5E0,2.6783356E-3,2E0,-1.1872704E-3,6E0,3.468539E-4,3.2009254E-7,2E0,1.5E0,2.872663E-4,-1.4597563E-4,-5.346665E-4,1.6666667E-1,-4.282401E-4,2.7356017E-1,1.3816616E-4,-2.6283638E-5,-1.4356342E-4],"split_indices":[435,823,0,201,0,122,0,11,625,667,0,0,0,607,0,507,0,0,0],"split_type":[0,0,0,0,0,0,0,0,0,0,0,0,0,0,0,0,0,0,0],"sum_hessian":[1.72E3,1.666E3,5.4E1,1.615E3,5.1E1,1.563E3,5.2E1,1.447E3,1.16E2,1.396E3,5.1E1,6.4E1,5.2E1,1.335E3,6.1E1,1.266E3,6.9E1,1.032E3,2.34E2],"tree_param":{"num_deleted":"0","num_feature":"1006","num_nodes":"19","size_leaf_vector":"1"}},{"base_weights":[6.34426E-5,-4.563839E-4,2.5509852E-3,-2.0591133E-4,-6.674043E-4,-3.3982488E-4,3.503998E-4,-1.9146132E-4,-2.3129336E-3,-2.647742E-4,1.3519825E-4,-4.7496398E-4,-1.9956201E-4,-1.7936868E-4,-1.9796216E-4,-2.6451942E-4,4.5726902E-4,-2.9323744E-5,-1.139744E-4,-2.778571E-5,1.6143476E-4],"categories":[],"categories_nodes":[],"categories_segments":[],"categories_sizes":[],"default_left":[0,0,0,0,0,0,0,0,0,0,0,0,0,0,0,0,0,0,0,0,0],"id":19,"left_children":[1,3,-1,5,-1,7,-1,9,11,13,-1,-1,-1,15,-1,17,19,-1,-1,-1,-1],"loss_changes":[1.538563E-2,1.6943068E-3,0E0,5.4406613E-4,0E0,4.4363982E-4,0E0,1.13361064E-4,8.46762E-5,1.190564E-4,0E0,0E0,0E0,6.658262E-5,0E0,3.6845195E-5,5.7864105E-5,0E0,0E0,0E0,0E0],"parents":[2147483647,0,0,1,1,3,3,5,5,7,7,8,8,9,9,13,13,15,15,16,16],"right_children":[2,4,-1,6,-1,8,-1,10,12,14,-1,-1,-1,16,-1,18,20,-1,-1,-1,-1],"split_conditions":[2E0,8.333333E-1,2.5509852E-3,1.6666667E-1,-6.674043E-4,8.489758E-8,3.503998E-4,1.3731222E-3,1.6661666E3,2E0,1.3519825E-4,-4.7496398E-4,-1.9956201E-4,1.6666667E-1,-1.9796216E-4,2E0,1E0,-2.9323744E-5,-1.139744E-4,-2.778571E-5,1.6143476E-4],"split_indices":[200,704,0,746,0,9,0,10,505,110,0,0,0,626,0,51,18,0,0,0,0],"split_type":[0,0,0,0,0,0,0,0,0,0,0,0,0,0,0,0,0,0,0,0,0],"sum_hessian":[1.745E3,1.694E3,5.1E1,1.595E3,9.9E1,1.516E3,7.9E1,1.411E3,1.05E2,1.323E3,8.8E1,5.5E1,5E1,1.225E3,9.8E1,1.081E3,1.44E2,9.5E2,1.31E2,7.1E1,7.3E1],"tree_param":{"num_deleted":"0","num_feature":"1006","num_nodes":"21","size_leaf_vector":"1"}},{"base_weights":[3.8985585E-5,-3.8625367E-4,2.078777E-3,-5.561227E-4,5.076119E-4,-3.49536E-4,-9.0134825E-4,-2.4131342E-4,-4.8776646E-4,-1.6333813E-4,-3.384011E-4,-2.499462E-4,1.8991464E-4,-1.9140421E-4,-2.4660345E-4,-2.0650448E-5,-1.9981031E-4],"categories":[],"categories_nodes":[],"categories_segments":[],"categories_sizes":[],"default_left":[0,0,0,0,0,0,0,0,0,0,0,0,0,0,0,0,0],"id":20,"left_children":[1,3,-1,5,-1,7,-1,9,-1,11,-1,13,-1,15,-1,-1,-1],"loss_changes":[1.0236523E-2,1.084264E-3,0E0,1.8205594E-3,0E0,4.891926E-4,0E0,2.3606146E-4,0E0,1.7982737E-4,0E0,1.1133056E-4,0E0,8.035575E-5,0E0,0E0,0E0],"parents":[2147483647,0,0,1,1,3,3,5,5,7,7,9,9,11,11,13,13],"right_children":[2,4,-1,6,-1,8,-1,10,-1,12,-1,14,-1,16,-1,-1,-1],"split_conditions":[5E0,3.3333334E-1,2.078777E-3,5.0397296E-3,5.076119E-4,8.333333E-1,-9.0134825E-4,2E0,-4.8776646E-4,3.9147196E-8,-3.384011E-4,2.2184729E-7,1.8991464E-4,2E0,-2.4660345E-4,-2.0650448E-5,-1.9981031E-4],"split_indices":[320,894,0,519,0,704,0,258,0,17,0,11,0,180,0,0,0],"split_type":[0,0,0,0,0,0,0,0,0,0,0,0,0,0,0,0,0],"sum_hessian":[1.74E3,1.689E3,5.1E1,1.617E3,7.2E1,1.559E3,5.8E1,1.504E3,5.5E1,1.449E3,5.5E1,1.367E3,8.2E1,1.313E3,5.4E1,1.255E3,5.8E1],"tree_param":{"num_deleted":"0","num_feature":"1006","num_nodes":"17","size_leaf_vector":"1"}},{"base_weights":[-2.266072E-5,-4.7848266E-4,2.196679E-3,-2.8124507E-4,-8.5065095E-4,-3.892045E-4,3.843289E-4,-1.9004825E-4,-2.974665E-3,-1.0802556E-4,-2.4538435E-4,-7.220926E-4,-1.6219425E-4,-1.7354313E-4,2.2809774E-4,-1.0528391E-4,-2.4741728E-4,-2.3120121E-5,1.3889105E-4],"categories":[],"categories_nodes":[],"categories_segments":[],"categories_sizes":[],"default_left":[0,0,0,0,0,0,0,0,0,0,0,0,0,0,0,0,0,0,0],"id":21,"left_children":[1,3,-1,5,-1,7,-1,9,11,13,-1,-1,-1,15,-1,17,-1,-1,-1],"loss_changes":[1.13124E-2,1.6790532E-3,0E0,4.8663313E-4,0E0,7.846734E-4,0E0,1.6786852E-4,3.743816E-4,1.4346465E-4,0E0,0E0,0E0,1.2988705E-4,0E0,6.235651E-5,0E0,0E0,0E0],"parents":[2147483647,0,0,1,1,3,3,5,5,7,7,8,8,9,9,13,13,15,15],"right_children":[2,4,-1,6,-1,8,-1,10,12,14,-1,-1,-1,16,-1,18,-1,-1,-1],"split_conditions":[3E0,6.666667E-1,2.196679E-3,1.5E0,-8.5065095E-4,1.1E1,3.843289E-4,8.852958E-6,1.6666667E-1,8.333333E-1,-2.4538435E-4,-7.220926E-4,-1.6219425E-4,3.6587805E-1,2.2809774E-4,1.3333334E0,-2.4741728E-4,-2.3120121E-5,1.3889105E-4],"split_indices":[35,524,0,694,0,32,0,5,680,878,0,0,0,4,0,645,0,0,0],"split_type":[0,0,0,0,0,0,0,0,0,0,0,0,0,0,0,0,0,0,0],"sum_hessian":[1.69E3,1.64E3,5E1,1.581E3,5.9E1,1.524E3,5.7E1,1.416E3,1.08E2,1.341E3,7.5E1,5.4E1,5.4E1,1.29E3,5.1E1,1.234E3,5.6E1,1.179E3,5.5E1],"tree_param":{"num_deleted":"0","num_feature":"1006","num_nodes":"19","size_leaf_vector":"1"}},{"base_weights":[-7.7293425E-6,-4.837104E-4,2.3055405E-3,-2.6204687E-4,-7.7377947E-4,-3.9338286E-4,5.3869345E-4,-2.6435129E-4,-5.16133E-4,-3.3977802E-4,2.458782E-4,-2.7280927E-4,-3.2276657E-4,-2.1292693E-4,-2.0920501E-4,-2.0821779E-5,-1.1821842E-4],"categories":[],"categories_nodes":[],"categories_segments":[],"categories_sizes":[],"default_left":[0,0,0,0,0,0,0,0,0,0,0,0,0,0,0,0,0],"id":22,"left_children":[1,3,-1,5,-1,7,-1,9,-1,11,-1,13,-1,15,-1,-1,-1],"loss_changes":[1.2677725E-2,1.739526E-3,0E0,8.1367395E-4,0E0,6.0976757E-4,0E0,2.1463144E-4,0E0,1.7354636E-4,0E0,9.274932E-5,0E0,5.5992587E-5,0E0,0E0,0E0],"parents":[2147483647,0,0,1,1,3,3,5,5,7,7,9,9,11,11,13,13],"right_children":[2,4,-1,6,-1,8,-1,10,-1,12,-1,14,-1,16,-1,-1,-1],"split_conditions":[2.355327E-7,6.666667E-1,2.3055405E-3,4.2341584E-1,-7.7377947E-4,6E0,5.3869345E-4,1.6666667E-1,-5.16133E-4,3.923853E-3,2.458782E-4,7.3296307E-3,-3.2276657E-4,1E0,-2.0920501E-4,-2.0821779E-5,-1.1821842E-4],"split_indices":[520,703,0,4,0,81,0,686,0,16,0,513,0,66,0,0,0],"split_type":[0,0,0,0,0,0,0,0,0,0,0,0,0,0,0,0,0],"sum_hessian":[1.73E3,1.679E3,5.1E1,1.604E3,7.5E1,1.552E3,5.2E1,1.49E3,6.2E1,1.434E3,5.6E1,1.384E3,5E1,1.315E3,6.9E1,1.166E3,1.49E2],"tree_param":{"num_deleted":"0","num_feature":"1006","num_nodes":"17","size_leaf_vector":"1"}},{"base_weights":[1.2121576E-4,-4.7105234E-4,2.9094878E-3,-1.4897615E-4,-1.0635754E-3,-3.7264395E-5,-5.259254E-4,-1.1073562E-4,2.9106857E-4,2.0642905E-5,-1.1437935E-3,-1.701401E-4,6.773566E-4,-4.4665576E-5,-2.7206566E-4,-2.3617722E-4,1.5215116E-4,3.6343443E-4,2.0450892E-4,-2.6722853E-5,-1.8485647E-4,-4.689732E-5,1.1705884E-4],"categories":[],"categories_nodes":[],"categories_segments":[],"categories_sizes":[],"default_left":[0,0,0,0,0,0,0,0,0,0,0,0,0,0,0,0,0,0,0,0,0,0,0],"id":23,"left_children":[1,3,-1,5,-1,7,-1,9,-1,11,13,15,17,-1,-1,19,-1,-1,21,-1,-1,-1,-1],"loss_changes":[1.9530816E-2,3.538009E-3,0E0,5.9392944E-4,0E0,2.231137E-4,0E0,2.0089159E-4,0E0,1.6474607E-4,9.4118266E-5,7.994544E-5,2.4381533E-4,0E0,0E0,5.561944E-5,0E0,0E0,6.993445E-5,0E0,0E0,0E0,0E0],"parents":[2147483647,0,0,1,1,3,3,5,5,7,7,9,9,10,10,11,11,12,12,15,15,18,18],"right_children":[2,4,-1,6,-1,8,-1,10,-1,12,14,16,18,-1,-1,20,-1,-1,22,-1,-1,-1,-1],"split_conditions":[2E0,2E0,2.9094878E-3,1.87E2,-1.0635754E-3,1.0666667E1,-5.259254E-4,1E0,2.9106857E-4,2.3120279E-8,5.5976165E-3,9E0,4.3095106E-8,-4.4665576E-5,-2.7206566E-4,2.0648185E-3,1.5215116E-4,3.6343443E-4,1.6666667E-1,-2.6722853E-5,-1.8485647E-4,-4.689732E-5,1.1705884E-4],"split_indices":[200,823,0,1,0,533,0,834,0,512,510,32,514,0,0,10,0,0,594,0,0,0,0],"split_type":[0,0,0,0,0,0,0,0,0,0,0,0,0,0,0,0,0,0,0,0,0,0,0],"sum_hessian":[1.709E3,1.659E3,5E1,1.583E3,7.6E1,1.533E3,5E1,1.479E3,5.4E1,1.313E3,1.66E2,1.018E3,2.95E2,7.4E1,9.2E1,9.65E2,5.3E1,6.2E1,2.33E2,9.13E2,5.2E1,1.23E2,1.1E2],"tree_param":{"num_deleted":"0","num_feature":"1006","num_nodes":"23","size_leaf_vector":"1"}},{"base_weights":[6.428281E-5,-3.8970634E-4,2.1514706E-3,-9.247701E-5,-8.5210137E-4,1.0202127E-5,-3.7526365E-4,-9.151725E-5,2.364226E-4,-2.5739937E-5,-2.842258E-4,-2.3476858E-4,2.5460625E-4,-1.4942452E-4,-1.9656874E-4,1.1542438E-3,2.2694103E-5,-1.3288111E-5,-1.437224E-4,4.320498E-5,3.3245934E-4,2.3514493E-5,-1.6133754E-4],"categories":[],"categories_nodes":[],"categories_segments":[],"categories_sizes":[],"default_left":[0,0,0,0,0,0,0,0,0,0,0,0,0,0,0,0,0,0,0,0,0,0,0],"id":24,"left_children":[1,3,-1,5,-1,7,-1,9,-1,11,-1,13,15,17,-1,19,21,-1,-1,-1,-1,-1,-1],"loss_changes":[1.1570271E-2,2.7201269E-3,0E0,4.0548597E-4,0E0,2.507032E-4,0E0,1.7526811E-4,0E0,8.368252E-5,0E0,7.4899624E-5,1.272423E-4,3.7258284E-5,0E0,1.143675E-4,7.172977E-5,0E0,0E0,0E0,0E0,0E0,0E0],"parents":[2147483647,0,0,1,1,3,3,5,5,7,7,9,9,11,11,12,12,13,13,15,15,16,16],"right_children":[2,4,-1,6,-1,8,-1,10,-1,12,-1,14,16,18,-1,20,22,-1,-1,-1,-1,-1,-1],"split_conditions":[4.6973836E-1,3E0,2.1514706E-3,1.02093145E-5,-8.5210137E-4,3.623851E-1,-3.7526365E-4,1.04166664E2,2.364226E-4,1.6656803E-1,-2.842258E-4,5.4937193E-8,9.6E1,7.084792E-6,-1.9656874E-4,2.3E1,7.6333336E1,-1.3288111E-5,-1.437224E-4,4.320498E-5,3.3245934E-4,2.3514493E-5,-1.6133754E-4],"split_indices":[4,207,0,5,0,4,0,504,0,4,0,6,0,5,0,1,504,0,0,0,0,0,0],"split_type":[0,0,0,0,0,0,0,0,0,0,0,0,0,0,0,0,0,0,0,0,0,0,0],"sum_hessian":[1.783E3,1.729E3,5.4E1,1.638E3,9.1E1,1.572E3,6.6E1,1.477E3,9.5E1,1.426E3,5.1E1,8.17E2,6.09E2,7.58E2,5.9E1,1.24E2,4.85E2,7.06E2,5.2E1,6.9E1,5.5E1,4.33E2,5.2E1],"tree_param":{"num_deleted":"0","num_feature":"1006","num_nodes":"23","size_leaf_vector":"1"}},{"base_weights":[3.70701E-5,-3.824567E-4,1.9282887E-3,-1.7388446E-4,-8.719113E-4,-3.1263384E-4,5.344843E-4,-1.860284E-4,-5.985711E-4,-1.0037737E-4,-3.745068E-4,-1.939087E-4,2.0486269E-4,3.596715E-5,-6.2715646E-4,-1.5660724E-5,3.218996E-4,-4.7859754E-5,-2.4362291E-4],"categories":[],"categories_nodes":[],"categories_segments":[],"categories_sizes":[],"default_left":[0,0,0,0,0,0,0,0,0,0,0,0,0,0,0,0,0,0,0],"id":25,"left_children":[1,3,-1,5,-1,7,-1,9,-1,11,-1,13,-1,15,17,-1,-1,-1,-1],"loss_changes":[9.162923E-3,1.8677902E-3,0E0,8.255641E-4,0E0,7.1354106E-4,0E0,2.9345136E-4,0E0,1.9663348E-4,0E0,1.3417458E-4,0E0,2.6116663E-4,1.4292834E-4,0E0,0E0,0E0,0E0],"parents":[2147483647,0,0,1,1,3,3,5,5,7,7,9,9,11,11,13,13,14,14],"right_children":[2,4,-1,6,-1,8,-1,10,-1,12,-1,14,-1,16,18,-1,-1,-1,-1],"split_conditions":[3.1666667E0,1.15833336E2,1.9282887E-3,5E-1,-8.719113E-4,7E0,5.344843E-4,9.331781E-8,-5.985711E-4,1.6666667E-1,-3.745068E-4,4.847779E-6,2.0486269E-4,1E0,2E0,-1.5660724E-5,3.218996E-4,-4.7859754E-5,-2.4362291E-4],"split_indices":[613,504,0,702,0,81,0,520,0,978,0,508,0,667,81,0,0,0,0],"split_type":[0,0,0,0,0,0,0,0,0,0,0,0,0,0,0,0,0,0,0],"sum_hessian":[1.702E3,1.649E3,5.3E1,1.589E3,6E1,1.533E3,5.6E1,1.483E3,5E1,1.431E3,5.2E1,1.346E3,8.5E1,8.8E2,4.66E2,8.26E2,5.4E1,3.57E2,1.09E2],"tree_param":{"num_deleted":"0","num_feature":"1006","num_nodes":"19","size_leaf_vector":"1"}},{"base_weights":[2.1228888E-4,-2.6023737E-4,1.8676631E-3,-4.12816E-4,5.8146584E-4,-1.9828457E-4,-9.799663E-4,-8.424591E-5,-5.291864E-4,-1.6645827E-4,2.4705133E-4,-5.759355E-5,-2.5049716E-4,-1.3080647E-4,8.527016E-4,-1.1060393E-5,-1.9934926E-4,-1.4828158E-5,2.681307E-4],"categories":[],"categories_nodes":[],"categories_segments":[],"categories_sizes":[],"default_left":[0,0,0,0,0,0,0,0,0,0,0,0,0,0,0,0,0,0,0],"id":26,"left_children":[1,3,-1,5,-1,7,-1,9,-1,11,-1,13,-1,15,17,-1,-1,-1,-1],"loss_changes":[1.01121925E-2,1.064488E-3,0E0,2.1323217E-3,0E0,5.9622084E-4,0E0,2.1661657E-4,0E0,2.3756802E-4,0E0,9.041601E-5,0E0,8.5720465E-5,9.0021174E-5,0E0,0E0,0E0,0E0],"parents":[2147483647,0,0,1,1,3,3,5,5,7,7,9,9,11,11,13,13,14,14],"right_children":[2,4,-1,6,-1,8,-1,10,-1,12,-1,14,-1,16,18,-1,-1,-1,-1],"split_conditions":[3E0,1.6666667E-1,1.8676631E-3,2.5E0,5.8146584E-4,1.1E1,-9.799663E-4,1.1666666E0,-5.291864E-4,1E0,2.4705133E-4,1E0,-2.5049716E-4,3.623851E-1,3.3333334E-1,-1.1060393E-5,-1.9934926E-4,-1.4828158E-5,2.681307E-4],"split_indices":[53,876,0,823,0,27,0,823,0,200,0,201,0,4,644,0,0,0,0],"split_type":[0,0,0,0,0,0,0,0,0,0,0,0,0,0,0,0,0,0,0],"sum_hessian":[1.747E3,1.683E3,6.4E1,1.624E3,5.9E1,1.57E3,5.4E1,1.519E3,5.1E1,1.451E3,6.8E1,1.354E3,9.7E1,1.254E3,1E2,1.198E3,5.6E1,5E1,5E1],"tree_param":{"num_deleted":"0","num_feature":"1006","num_nodes":"19","size_leaf_vector":"1"}},{"base_weights":[-7.079175E-5,-3.902956E-4,1.405943E-3,-1.4388982E-4,-9.3424995E-4,-2.8826E-4,5.5079337E-4,-1.4551391E-4,-6.522353E-4,-2.597101E-5,-4.5393905E-4,-8.784894E-5,1.9340111E-4,5.9862796E-5,-6.871551E-4,-3.2982784E-6,2.5965358E-4,-6.0732567E-5,-2.7052732E-4],"categories":[],"categories_nodes":[],"categories_segments":[],"categories_sizes":[],"default_left":[0,0,0,0,0,0,0,0,0,0,0,0,0,0,0,0,0,0,0],"id":27,"left_children":[1,3,-1,5,-1,7,-1,9,-1,11,-1,13,-1,15,17,-1,-1,-1,-1],"loss_changes":[5.163263E-3,2.379865E-3,0E0,8.764296E-4,0E0,8.87231E-4,0E0,5.099375E-4,0E0,1.1592947E-4,0E0,1.2043453E-4,0E0,1.4940917E-4,8.403612E-5,0E0,0E0,0E0,0E0],"parents":[2147483647,0,0,1,1,3,3,5,5,7,7,9,9,11,11,13,13,14,14],"right_children":[2,4,-1,6,-1,8,-1,10,-1,12,-1,14,-1,16,18,-1,-1,-1,-1],"split_conditions":[4E0,1.6666666E0,1.405943E-3,1.5E0,-9.3424995E-4,4.1742837E-1,5.5079337E-4,2E0,-6.522353E-4,1.3333334E0,-4.5393905E-4,3.024749E-7,1.9340111E-4,1.0231074E-3,8.333333E-1,-3.2982784E-6,2.5965358E-4,-6.0732567E-5,-2.7052732E-4],"split_indices":[26,685,0,556,0,4,0,258,0,710,0,8,0,16,667,0,0,0,0],"split_type":[0,0,0,0,0,0,0,0,0,0,0,0,0,0,0,0,0,0,0],"sum_hessian":[1.709E3,1.654E3,5.5E1,1.588E3,6.6E1,1.531E3,5.7E1,1.48E3,5.1E1,1.422E3,5.8E1,1.359E3,6.3E1,1.091E3,2.68E2,1.041E3,5E1,2.15E2,5.3E1],"tree_param":{"num_deleted":"0","num_feature":"1006","num_nodes":"19","size_leaf_vector":"1"}},{"base_weights":[-4.7115052E-5,-3.9737558E-4,1.6003704E-3,-2.2032314E-4,-8.02181E-4,-7.709069E-5,-2.3175012E-3,-1.5619922E-4,3.1173084E-4,-4.629207E-5,-6.480506E-4,-8.770309E-5,-2.2476738E-4,-1.6664916E-4,7.7803386E-4,-1.0066948E-4,-2.1279979E-4,3.041603E-4,-1.08320986E-4,-2.6002304E-5,7.623565E-5],"categories":[],"categories_nodes":[],"categories_segments":[],"categories_sizes":[],"default_left":[0,0,0,0,0,0,0,0,0,0,0,0,0,0,0,0,0,0,0,0,0],"id":28,"left_children":[1,3,-1,5,-1,7,9,11,-1,-1,-1,13,-1,15,17,19,-1,-1,-1,-1,-1],"loss_changes":[6.4039226E-3,1.446796E-3,0E0,4.7923412E-4,0E0,2.552256E-4,4.090609E-4,1.3253646E-4,0E0,0E0,0E0,9.4037794E-5,0E0,1.03942795E-4,2.1706274E-4,5.310545E-5,0E0,0E0,0E0,0E0,0E0],"parents":[2147483647,0,0,1,1,3,3,5,5,6,6,7,7,11,11,13,13,14,14,15,15],"right_children":[2,4,-1,6,-1,8,10,12,-1,-1,-1,14,-1,16,18,20,-1,-1,-1,-1,-1],"split_conditions":[2.6666667E0,1.94E2,1.6003704E-3,2.5E0,-8.02181E-4,1.4375459E-2,6.8326545E-4,1.6666667E-1,3.1173084E-4,-4.629207E-5,-6.480506E-4,1E0,-2.2476738E-4,2E0,4.5E0,6.6166664E1,-2.1279979E-4,3.041603E-4,-1.08320986E-4,-2.6002304E-5,7.623565E-5],"split_indices":[667,1,0,572,0,10,513,727,0,0,0,667,0,53,533,504,0,0,0,0,0],"split_type":[0,0,0,0,0,0,0,0,0,0,0,0,0,0,0,0,0,0,0,0,0],"sum_hessian":[1.704E3,1.651E3,5.3E1,1.595E3,5.6E1,1.494E3,1.01E2,1.442E3,5.2E1,5.1E1,5E1,1.373E3,6.9E1,1.259E3,1.14E2,1.197E3,6.2E1,6.2E1,5.2E1,1.07E3,1.27E2],"tree_param":{"num_deleted":"0","num_feature":"1006","num_nodes":"21","size_leaf_vector":"1"}},{"base_weights":[8.107307E-5,-2.5452016E-4,1.5559738E-3,-4.3642736E-5,-1.0527422E-3,9.750462E-5,-4.8070803E-4,-5.6930094E-5,4.2919043E-4,1.3086045E-5,-2.3453042E-4,-4.879824E-5,1.5169178E-4,5.5412143E-5,-8.33716E-4,4.6665863E-7,1.3304326E-4,6.931499E-6,-3.0714713E-4],"categories":[],"categories_nodes":[],"categories_segments":[],"categories_sizes":[],"default_left":[0,0,0,0,0,0,0,0,0,0,0,0,0,0,0,0,0,0,0],"id":29,"left_children":[1,3,-1,5,-1,7,-1,9,-1,11,-1,13,-1,15,17,-1,-1,-1,-1],"loss_changes":[6.0159746E-3,2.4059033E-3,0E0,7.307054E-4,0E0,6.6941854E-4,0E0,1.5677376E-4,0E0,8.782797E-5,0E0,1.0957182E-4,0E0,5.1446616E-5,1.6779729E-4,0E0,0E0,0E0,0E0],"parents":[2147483647,0,0,1,1,3,3,5,5,7,7,9,9,11,11,13,13,14,14],"right_children":[2,4,-1,6,-1,8,-1,10,-1,12,-1,14,-1,16,18,-1,-1,-1,-1],"split_conditions":[4.222417E-1,1.8723686E-7,1.5559738E-3,2E0,-1.0527422E-3,3.7216717E-1,-4.8070803E-4,1.5E0,4.2919043E-4,1.1666666E0,-2.3453042E-4,1E0,1.5169178E-4,2E0,1E0,4.6665863E-7,1.3304326E-4,6.931499E-6,-3.0714713E-4],"split_indices":[507,17,0,62,0,4,0,667,0,645,0,258,0,207,182,0,0,0,0],"split_type":[0,0,0,0,0,0,0,0,0,0,0,0,0,0,0,0,0,0,0],"sum_hessian":[1.74E3,1.686E3,5.4E1,1.636E3,5E1,1.567E3,6.9E1,1.485E3,8.2E1,1.42E3,6.5E1,1.338E3,8.2E1,1.182E3,1.56E2,1.113E3,6.9E1,9.1E1,6.5E1],"tree_param":{"num_deleted":"0","num_feature":"1006","num_nodes":"19","size_leaf_vector":"1"}},{"base_weights":[6.338489E-6,-3.9682028E-4,1.8745223E-3,-1.1175479E-4,-1.4451158E-3,2.448175E-5,-6.223269E-4,-1.0515367E-4,4.561621E-4,-1.8357647E-4,3.0148446E-4,-7.539361E-5,-3.6480522E-4,-2.5979412E-4,2.5638478E-4,-2.2573879E-5,-1.658152E-4,1.198948E-5,2.7436082E-4],"categories":[],"categories_nodes":[],"categories_segments":[],"categories_sizes":[],"default_left":[0,0,0,0,0,0,0,0,0,0,0,0,0,0,0,0,0,0,0],"id":30,"left_children":[1,3,-1,5,-1,7,-1,9,-1,11,-1,13,-1,15,17,-1,-1,-1,-1],"loss_changes":[8.857623E-3,4.4859494E-3,0E0,9.0980047E-4,0E0,6.264037E-4,0E0,2.5514245E-4,0E0,3.603052E-4,0E0,8.663645E-5,0E0,8.3944826E-5,1.4027304E-4,0E0,0E0,0E0,0E0],"parents":[2147483647,0,0,1,1,3,3,5,5,7,7,9,9,11,11,13,13,14,14],"right_children":[2,4,-1,6,-1,8,-1,10,-1,12,-1,14,-1,16,18,-1,-1,-1,-1],"split_conditions":[1E0,2.5E0,1.8745223E-3,5E0,-1.4451158E-3,1.39E2,-6.223269E-4,1.6666667E-1,4.561621E-4,3.5490102E-1,3.0148446E-4,3.3333334E-1,-3.6480522E-4,1E0,5.252227E-8,-2.2573879E-5,-1.658152E-4,1.198948E-5,2.7436082E-4],"split_indices":[187,667,0,161,0,1,0,738,0,507,0,552,0,710,509,0,0,0,0],"split_type":[0,0,0,0,0,0,0,0,0,0,0,0,0,0,0,0,0,0,0],"sum_hessian":[1.757E3,1.703E3,5.4E1,1.653E3,5E1,1.6E3,5.3E1,1.535E3,6.5E1,1.481E3,5.4E1,1.414E3,6.7E1,9.09E2,5.05E2,8.06E2,1.03E2,4.55E2,5E1],"tree_param":{"num_deleted":"0","num_feature":"1006","num_nodes":"19","size_leaf_vector":"1"}},{"base_weights":[-6.0448252E-5,-3.5658048E-4,1.4482553E-3,-1.9117488E-4,-7.69388E-4,-3.0905078E-4,4.942998E-4,-1.3732922E-4,-6.2234263E-4,-4.823645E-5,-2.3756466E-4,-1.4860005E-4,2.8654205E-4,-7.241654E-5,-2.0062285E-4,2.1158676E-6,-1.2626464E-4],"categories":[],"categories_nodes":[],"categories_segments":[],"categories_sizes":[],"default_left":[0,0,0,0,0,0,0,0,0,0,0,0,0,0,0,0,0],"id":31,"left_children":[1,3,-1,5,-1,7,-1,9,-1,11,-1,13,-1,15,-1,-1,-1],"loss_changes":[4.9606306E-3,1.3197304E-3,0E0,6.659762E-4,0E0,1.0320406E-3,0E0,1.9322398E-4,0E0,2.7822508E-4,0E0,1.21815065E-4,0E0,8.428411E-5,0E0,0E0,0E0],"parents":[2147483647,0,0,1,1,3,3,5,5,7,7,9,9,11,11,13,13],"right_children":[2,4,-1,6,-1,8,-1,10,-1,12,-1,14,-1,16,-1,-1,-1],"split_conditions":[3.9445007E-7,2.5E0,1.4482553E-3,3.6666667E0,-7.69388E-4,5.8333335E0,4.942998E-4,3E0,-6.2234263E-4,4.0141554E-8,-2.3756466E-4,6E0,2.8654205E-4,2E0,-2.0062285E-4,2.1158676E-6,-1.2626464E-4],"split_indices":[12,667,0,584,0,530,0,26,0,17,0,122,0,191,0,0,0],"split_type":[0,0,0,0,0,0,0,0,0,0,0,0,0,0,0,0,0],"sum_hessian":[1.722E3,1.672E3,5E1,1.617E3,5.5E1,1.565E3,5.2E1,1.499E3,6.6E1,1.413E3,8.6E1,1.345E3,6.8E1,1.265E3,8E1,1.138E3,1.27E2],"tree_param":{"num_deleted":"0","num_feature":"1006","num_nodes":"17","size_leaf_vector":"1"}},{"base_weights":[-3.2830532E-5,-3.106833E-4,1.358285E-3,-1.12526744E-4,-9.346918E-4,-3.2776163E-4,6.756943E-4,-2.1115923E-4,-5.133425E-4,-8.210744E-5,-1.2322632E-3,-1.4543597E-4,1.438341E-4,2.0240446E-5,-4.950315E-4,-1.9990366E-4,1.7053087E-4,1.708843E-4,-1.5266024E-4,-1.9094012E-5,-1.7059364E-4],"categories":[],"categories_nodes":[],"categories_segments":[],"categories_sizes":[],"default_left":[0,0,0,0,0,0,0,0,0,0,0,0,0,0,0,0,0,0,0,0,0],"id":32,"left_children":[1,3,-1,5,-1,7,-1,9,-1,11,13,15,-1,17,-1,19,-1,-1,-1,-1,-1],"loss_changes":[4.34101E-3,1.9562042E-3,0E0,1.6064197E-3,0E0,5.563968E-4,0E0,1.9611226E-4,0E0,8.735834E-5,4.3261523E-4,8.7393055E-5,0E0,1.2311505E-4,0E0,8.1395825E-5,0E0,0E0,0E0,0E0,0E0],"parents":[2147483647,0,0,1,1,3,3,5,5,7,7,9,9,10,10,11,11,13,13,15,15],"right_children":[2,4,-1,6,-1,8,-1,10,-1,12,14,16,-1,18,-1,20,-1,-1,-1,-1,-1],"split_conditions":[1.3874079E-7,2.3E1,1.358285E-3,6.5E0,-9.346918E-4,3.7079725E-1,6.756943E-4,8E0,-5.133425E-4,1.3333334E0,5.25E1,5.2419263E-3,1.438341E-4,6.3720363E-4,-4.950315E-4,1.1666666E0,1.7053087E-4,1.708843E-4,-1.5266024E-4,-1.9094012E-5,-1.7059364E-4],"split_indices":[15,30,0,530,0,507,0,30,0,710,504,10,0,516,0,834,0,0,0,0,0],"split_type":[0,0,0,0,0,0,0,0,0,0,0,0,0,0,0,0,0,0,0,0,0],"sum_hessian":[1.717E3,1.667E3,5E1,1.614E3,5.3E1,1.543E3,7.1E1,1.488E3,5.5E1,1.322E3,1.66E2,1.247E3,7.5E1,1.04E2,6.2E1,1.197E3,5E1,5E1,5.4E1,1.112E3,8.5E1],"tree_param":{"num_deleted":"0","num_feature":"1006","num_nodes":"21","size_leaf_vector":"1"}},{"base_weights":[1.9481095E-5,-3.267292E-4,1.2232717E-3,-1.6532643E-4,-7.757676E-4,-2.937889E-4,4.288574E-4,-1.7159244E-4,-3.9907245E-4,-8.1461876E-5,-2.8525785E-4,-1.5687637E-4,2.2535077E-4,-7.5348995E-5,-1.7785469E-4,-1.7996548E-5,1.3431982E-4],"categories":[],"categories_nodes":[],"categories_segments":[],"categories_sizes":[],"default_left":[0,0,0,0,0,0,0,0,0,0,0,0,0,0,0,0,0],"id":33,"left_children":[1,3,-1,5,-1,7,-1,9,-1,11,-1,13,-1,15,-1,-1,-1],"loss_changes":[4.8304037E-3,1.2855434E-3,0E0,6.1975035E-4,0E0,4.4173276E-4,0E0,2.2673381E-4,0E0,1.6554272E-4,0E0,1.107962E-4,0E0,5.3224496E-5,0E0,0E0,0E0],"parents":[2147483647,0,0,1,1,3,3,5,5,7,7,9,9,11,11,13,13],"right_children":[2,4,-1,6,-1,8,-1,10,-1,12,-1,14,-1,16,-1,-1,-1],"split_conditions":[1.843062E-2,3E0,1.2232717E-3,2E0,-7.757676E-4,1.5E0,4.288574E-4,1.26E2,-3.9907245E-4,1.3333334E0,-2.8525785E-4,3.216254E-1,2.2535077E-4,3.3333334E-1,-1.7785469E-4,-1.7996548E-5,1.3431982E-4],"split_indices":[10,320,0,320,0,834,0,1,0,710,0,507,0,883,0,0,0],"split_type":[0,0,0,0,0,0,0,0,0,0,0,0,0,0,0,0,0],"sum_hessian":[1.713E3,1.644E3,6.9E1,1.592E3,5.2E1,1.528E3,6.4E1,1.454E3,7.4E1,1.383E3,7.1E1,1.321E3,6.2E1,1.225E3,9.6E1,1.172E3,5.3E1],"tree_param":{"num_deleted":"0","num_feature":"1006","num_nodes":"17","size_leaf_vector":"1"}},{"base_weights":[-2.2158332E-4,-4.4867655E-4,1.0347161E-3,-2.1009982E-4,-1.0932564E-3,-2.9131686E-6,-7.8263954E-4,-1.4469474E-4,5.0930853E-4,1.09131715E-5,-1.5661262E-3,-7.6099364E-5,1.8405846E-4,5.274074E-5,-3.9428045E-4,-2.3780762E-5,-1.6196111E-4,-1.3143796E-5,1.8348212E-4],"categories":[],"categories_nodes":[],"categories_segments":[],"categories_sizes":[],"default_left":[0,0,0,0,0,0,0,0,0,0,0,0,0,0,0,0,0,0,0],"id":34,"left_children":[1,3,-1,5,-1,7,-1,9,-1,11,13,15,-1,-1,-1,17,-1,-1,-1],"loss_changes":[2.8244695E-3,2.7594627E-3,0E0,1.6973128E-3,0E0,7.579072E-4,0E0,3.3400796E-4,0E0,1.4421981E-4,3.044993E-4,6.676591E-5,0E0,0E0,0E0,9.643991E-5,0E0,0E0,0E0],"parents":[2147483647,0,0,1,1,3,3,5,5,7,7,9,9,10,10,11,11,15,15],"right_children":[2,4,-1,6,-1,8,-1,10,-1,12,14,16,-1,-1,-1,18,-1,-1,-1],"split_conditions":[1E0,6.666667E-1,1.0347161E-3,1E1,-1.0932564E-3,2E0,-7.8263954E-4,5E0,5.0930853E-4,6.666667E-1,4.69343E-6,1.3333334E0,1.8405846E-4,5.274074E-5,-3.9428045E-4,3.3333334E-1,-1.6196111E-4,-1.3143796E-5,1.8348212E-4],"split_indices":[140,570,0,27,0,106,0,27,0,704,5,613,0,0,0,570,0,0,0],"split_type":[0,0,0,0,0,0,0,0,0,0,0,0,0,0,0,0,0,0,0],"sum_hessian":[1.744E3,1.691E3,5.3E1,1.635E3,5.6E1,1.571E3,6.4E1,1.509E3,6.2E1,1.361E3,1.48E2,1.271E3,9E1,5.3E1,9.5E1,1.209E3,6.2E1,1.151E3,5.8E1],"tree_param":{"num_deleted":"0","num_feature":"1006","num_nodes":"19","size_leaf_vector":"1"}},{"base_weights":[5.3257845E-5,-2.1624728E-4,1.3672475E-3,-5.9627502E-5,-7.548977E-4,-1.7692965E-4,5.4738147E-4,-8.248843E-5,-3.992125E-4,-1.5506125E-4,1.784073E-4,-9.7920245E-5,-2.5230076E-4,-2.0361152E-4,7.9758535E-4,-1.46136035E-5,-2.3196959E-4,3.7505204E-4,-1.5727639E-5],"categories":[],"categories_nodes":[],"categories_segments":[],"categories_sizes":[],"default_left":[0,0,0,0,0,0,0,0,0,0,0,0,0,0,0,0,0,0,0],"id":35,"left_children":[1,3,-1,5,-1,7,-1,9,-1,11,-1,13,-1,15,17,-1,-1,-1,-1],"loss_changes":[4.3124217E-3,1.2934E-3,0E0,7.2370627E-4,0E0,3.7801694E-4,0E0,1.4362363E-4,0E0,1.2818167E-4,0E0,1.3446667E-4,0E0,1.809439E-4,2.3075723E-4,0E0,0E0,0E0,0E0],"parents":[2147483647,0,0,1,1,3,3,5,5,7,7,9,9,11,11,13,13,14,14],"right_children":[2,4,-1,6,-1,8,-1,10,-1,12,-1,14,-1,16,18,-1,-1,-1,-1],"split_conditions":[2.3333333E0,3E0,1.3672475E-3,8.1162983E-7,-7.548977E-4,2.2335121E-7,5.4738147E-4,1.6666667E-1,-3.992125E-4,3.9752123E-1,1.784073E-4,3.0889338E-1,-2.5230076E-4,1E0,4.475065E-4,-1.46136035E-5,-2.3196959E-4,3.7505204E-4,-1.5727639E-5],"split_indices":[834,572,0,14,0,3,0,764,0,4,0,507,0,200,516,0,0,0,0],"split_type":[0,0,0,0,0,0,0,0,0,0,0,0,0,0,0,0,0,0,0],"sum_hessian":[1.764E3,1.714E3,5E1,1.661E3,5.3E1,1.611E3,5E1,1.553E3,5.8E1,1.47E3,8.3E1,1.418E3,5.2E1,1.269E3,1.49E2,1.177E3,9.2E1,5.1E1,9.8E1],"tree_param":{"num_deleted":"0","num_feature":"1006","num_nodes":"19","size_leaf_vector":"1"}},{"base_weights":[-1.2993875E-4,-3.499411E-4,1.0306619E-3,-9.3255076E-5,-1.1940231E-3,-2.1440473E-4,4.980107E-4,-1.2107667E-4,-4.1922685E-4,-6.145767E-5,-2.660251E-4,-1.4523302E-4,1.7721306E-4,-7.186421E-5,-1.8509639E-4,-2.4203719E-6,-1.8873249E-4],"categories":[],"categories_nodes":[],"categories_segments":[],"categories_sizes":[],"default_left":[0,0,0,0,0,0,0,0,0,0,0,0,0,0,0,0,0],"id":36,"left_children":[1,3,-1,5,-1,7,-1,9,-1,11,-1,13,-1,15,-1,-1,-1],"loss_changes":[2.6793422E-3,3.2927496E-3,0E0,6.755819E-4,0E0,3.7944666E-4,0E0,1.4993067E-4,0E0,1.5333582E-4,0E0,1.10065506E-4,0E0,8.546448E-5,0E0,0E0,0E0],"parents":[2147483647,0,0,1,1,3,3,5,5,7,7,9,9,11,11,13,13],"right_children":[2,4,-1,6,-1,8,-1,10,-1,12,-1,14,-1,16,-1,-1,-1],"split_conditions":[2.653413E-7,2.09E2,1.0306619E-3,1.1666666E0,-1.1940231E-3,1.6666666E0,4.980107E-4,3.0240577E-7,-4.1922685E-4,1E0,-2.660251E-4,1.7569144E-8,1.7721306E-4,1.3333334E0,-1.8509639E-4,-2.4203719E-6,-1.8873249E-4],"split_indices":[3,1,0,704,0,834,0,514,0,380,0,15,0,962,0,0,0],"split_type":[0,0,0,0,0,0,0,0,0,0,0,0,0,0,0,0,0],"sum_hessian":[1.737E3,1.685E3,5.2E1,1.631E3,5.4E1,1.576E3,5.5E1,1.522E3,5.4E1,1.47E3,5.2E1,1.378E3,9.2E1,1.292E3,8.6E1,1.235E3,5.7E1],"tree_param":{"num_deleted":"0","num_feature":"1006","num_nodes":"17","size_leaf_vector":"1"}},{"base_weights":[-1.11842255E-5,-3.352264E-4,1.1210167E-3,-1.18699165E-4,-7.7829655E-4,4.1448333E-5,-1.2093184E-3,-8.501152E-5,1.1801986E-3,-3.80789E-4,-4.403893E-4,-1.3932E-5,-2.074228E-4,-8.3508145E-5,6.1453576E-4,1.3180126E-5,-1.7867611E-4,-9.585711E-5,8.319799E-4,-1.2666693E-5,-6.344994E-4,-3.5853565E-5,2.7718648E-4,-1.17818796E-4,9.761886E-6,-2.4737003E-6,-2.2646041E-4],"categories":[],"categories_nodes":[],"categories_segments":[],"categories_sizes":[],"default_left":[0,0,0,0,0,0,0,0,0,0,0,0,0,0,0,0,0,0,0,0,0,0,0,0,0,0,0],"id":37,"left_children":[1,3,-1,5,-1,7,9,11,13,15,-1,17,-1,-1,-1,-1,-1,19,21,23,25,-1,-1,-1,-1,-1,-1],"loss_changes":[4.208036E-3,1.7470258E-3,0E0,2.7828343E-4,0E0,2.0026894E-4,2.907137E-4,1.1547461E-4,7.064665E-4,5.2895783E-5,0E0,8.240985E-5,0E0,0E0,0E0,0E0,0E0,4.856587E-5,1.1468847E-4,5.652765E-5,7.840608E-5,0E0,0E0,0E0,0E0,0E0,0E0],"parents":[2147483647,0,0,1,1,3,3,5,5,6,6,7,7,8,8,9,9,11,11,17,17,18,18,19,19,20,20],"right_children":[2,4,-1,6,-1,8,10,12,14,16,-1,18,-1,-1,-1,-1,-1,20,22,24,26,-1,-1,-1,-1,-1,-1],"split_conditions":[3.3333334E-1,2E0,1.1210167E-3,2E0,-7.7829655E-4,1E0,3.3333334E-1,1.3333334E0,3.6481048E-8,3.045054E-8,-4.403893E-4,1E0,-2.074228E-4,-8.3508145E-5,6.1453576E-4,1.3180126E-5,-1.7867611E-4,1.0666255E-7,3.3333334E-1,1.406E3,6E1,-3.5853565E-5,2.7718648E-4,-1.17818796E-4,9.761886E-6,-2.4737003E-6,-2.2646041E-4],"split_indices":[938,823,0,191,0,201,807,694,509,6,0,77,0,0,0,0,0,3,534,2,0,0,0,0,0,0,0],"split_type":[0,0,0,0,0,0,0,0,0,0,0,0,0,0,0,0,0,0,0,0,0,0,0,0,0,0,0],"sum_hessian":[1.733E3,1.662E3,7.1E1,1.592E3,7E1,1.389E3,2.03E2,1.251E3,1.38E2,1.38E2,6.5E1,1.187E3,6.4E1,8.7E1,5.1E1,8.8E1,5E1,1.083E3,1.04E2,9.39E2,1.44E2,5.1E1,5.3E1,8.5E1,8.54E2,8.5E1,5.9E1],"tree_param":{"num_deleted":"0","num_feature":"1006","num_nodes":"27","size_leaf_vector":"1"}},{"base_weights":[9.082221E-5,-2.1436246E-4,1.2730288E-3,-1.8713978E-5,-9.844472E-4,-1.3147698E-4,4.7203372E-4,-3.3928827E-5,-2.5677175E-4,3.3075365E-5,-2.5201004E-4,-3.649551E-5,2.748431E-4,2.2811351E-5,-1.8782714E-4,-1.9203637E-5,9.68686E-5],"categories":[],"categories_nodes":[],"categories_segments":[],"categories_sizes":[],"default_left":[0,0,0,0,0,0,0,0,0,0,0,0,0,0,0,0,0],"id":38,"left_children":[1,3,-1,5,-1,7,-1,9,-1,11,-1,13,-1,15,-1,-1,-1],"loss_changes":[4.5294766E-3,2.1188958E-3,0E0,5.915446E-4,0E0,2.4659582E-4,0E0,1.6638519E-4,0E0,1.8156733E-4,0E0,1.0075015E-4,0E0,1.253413E-4,0E0,0E0,0E0],"parents":[2147483647,0,0,1,1,3,3,5,5,7,7,9,9,11,11,13,13],"right_children":[2,4,-1,6,-1,8,-1,10,-1,12,-1,14,-1,16,-1,-1,-1],"split_conditions":[3.3333334E-1,4E0,1.2730288E-3,1E0,-9.844472E-4,8.333333E-1,4.7203372E-4,3.2299906E-7,-2.5677175E-4,7.314308E-8,-2.5201004E-4,6.8333335E0,2.748431E-4,3.8333333E0,-1.8782714E-4,-1.9203637E-5,9.68686E-5],"split_indices":[821,207,0,478,0,569,0,514,0,17,0,535,0,535,0,0,0],"split_type":[0,0,0,0,0,0,0,0,0,0,0,0,0,0,0,0,0],"sum_hessian":[1.766E3,1.705E3,6.1E1,1.655E3,5E1,1.599E3,5.6E1,1.507E3,9.2E1,1.449E3,5.8E1,1.396E3,5.3E1,1.332E3,6.4E1,1.073E3,2.59E2],"tree_param":{"num_deleted":"0","num_feature":"1006","num_nodes":"17","size_leaf_vector":"1"}},{"base_weights":[-1.3734598E-4,-3.5734067E-4,5.934122E-4,-1.2439366E-4,-8.4224134E-4,-2.2682972E-4,2.2853026E-4,-7.769402E-5,-1.5895487E-3,-1.8907807E-5,-2.1364329E-4,7.9102276E-5,-5.8838725E-4,-7.814842E-5,1.6713688E-4,-3.0510582E-5,-1.5253489E-4,1.7099686E-6,-1.3876159E-4],"categories":[],"categories_nodes":[],"categories_segments":[],"categories_sizes":[],"default_left":[0,0,0,0,0,0,0,0,0,0,0,0,0,0,0,0,0,0,0],"id":39,"left_children":[1,3,-1,5,-1,7,-1,9,11,13,-1,-1,-1,15,-1,17,-1,-1,-1],"loss_changes":[1.5890523E-3,2.0495206E-3,0E0,2.711125E-4,0E0,3.069571E-4,0E0,1.0786978E-4,7.3794846E-4,8.782431E-5,0E0,0E0,0E0,5.555602E-5,0E0,4.4400622E-5,0E0,0E0,0E0],"parents":[2147483647,0,0,1,1,3,3,5,5,7,7,8,8,9,9,13,13,15,15],"right_children":[2,4,-1,6,-1,8,-1,10,12,14,-1,-1,-1,16,-1,18,-1,-1,-1],"split_conditions":[1E0,4.380472E-3,5.934122E-4,2E0,-8.4224134E-4,8.5E1,2.2853026E-4,1.6666667E-1,3.3333334E-1,7.4370687E-6,-2.1364329E-4,7.9102276E-5,-5.8838725E-4,9.541265E-9,1.6713688E-4,3.3333334E-1,-1.5253489E-4,1.7099686E-6,-1.3876159E-4],"split_indices":[273,519,0,211,0,1,0,746,624,508,0,0,0,15,0,827,0,0,0],"split_type":[0,0,0,0,0,0,0,0,0,0,0,0,0,0,0,0,0,0,0],"sum_hessian":[1.762E3,1.673E3,8.9E1,1.603E3,7E1,1.51E3,9.3E1,1.362E3,1.48E2,1.306E3,5.6E1,7.8E1,7E1,1.242E3,6.4E1,1.183E3,5.9E1,1.131E3,5.2E1],"tree_param":{"num_deleted":"0","num_feature":"1006","num_nodes":"19","size_leaf_vector":"1"}},{"base_weights":[-8.176518E-6,-2.494283E-4,1.1489089E-3,-5.93955E-5,-7.9966633E-4,-1.5804594E-4,3.38212E-4,-5.9939404E-5,-4.124056E-4,-1.3060057E-6,-2.6404244E-4,-9.6615004E-5,6.771371E-4,-1.815562E-4,7.7305146E-4,-1.7857984E-4,4.0778195E-4,-1.552208E-5,-1.3620651E-4,-1.0191537E-5,2.2255539E-4,7.8534744E-5,-1.5843139E-4],"categories":[],"categories_nodes":[],"categories_segments":[],"categories_sizes":[],"default_left":[0,0,0,0,0,0,0,0,0,0,0,0,0,0,0,0,0,0,0,0,0,0,0],"id":40,"left_children":[1,3,-1,5,-1,7,-1,9,-1,11,-1,13,15,17,19,21,-1,-1,-1,-1,-1,-1,-1],"loss_changes":[3.3352769E-3,1.6877025E-3,0E0,3.852552E-4,0E0,4.111727E-4,0E0,1.5552489E-4,0E0,9.763997E-5,0E0,9.7944896E-5,3.25403E-4,6.8368245E-5,7.0624E-5,8.189442E-5,0E0,0E0,0E0,0E0,0E0,0E0,0E0],"parents":[2147483647,0,0,1,1,3,3,5,5,7,7,9,9,11,11,12,12,13,13,14,14,15,15],"right_children":[2,4,-1,6,-1,8,-1,10,-1,12,-1,14,16,18,20,22,-1,-1,-1,-1,-1,-1,-1],"split_conditions":[2.474033E-2,2.1666667E0,1.1489089E-3,1E0,-7.9966633E-4,2.2335121E-7,3.38212E-4,1E0,-4.124056E-4,1.03363845E-7,-2.6404244E-4,3.3333334E-1,1E0,5E-1,1.6666667E-1,5E-1,4.0778195E-4,-1.552208E-5,-1.3620651E-4,-1.0191537E-5,2.2255539E-4,7.8534744E-5,-1.5843139E-4],"split_indices":[10,710,0,391,0,3,0,489,0,3,0,680,53,580,569,645,0,0,0,0,0,0,0],"split_type":[0,0,0,0,0,0,0,0,0,0,0,0,0,0,0,0,0,0,0,0,0,0,0],"sum_hessian":[1.801E3,1.747E3,5.4E1,1.685E3,6.2E1,1.617E3,6.8E1,1.559E3,5.8E1,1.508E3,5.1E1,1.323E3,1.85E2,1.206E3,1.17E2,1.31E2,5.4E1,1.09E3,1.16E2,5.4E1,6.3E1,7.3E1,5.8E1],"tree_param":{"num_deleted":"0","num_feature":"1006","num_nodes":"23","size_leaf_vector":"1"}},{"base_weights":[1.6026651E-4,-1.5830877E-4,1.5626658E-3,-1.5976499E-5,-7.032E-4,-1.9201105E-4,5.7059265E-4,-2.9298284E-5,-2.2898924E-3,-8.921434E-5,2.1478788E-4,-1.0667496E-5,-7.544008E-4,-1.991077E-5,-2.439096E-4,-1.16431205E-4,8.17891E-4,4.27305E-6,-8.7767425E-5,3.1773731E-4,-8.851638E-5],"categories":[],"categories_nodes":[],"categories_segments":[],"categories_sizes":[],"default_left":[0,0,0,0,0,0,0,0,0,0,0,0,0,0,0,0,0,0,0,0,0],"id":41,"left_children":[1,3,-1,5,-1,7,-1,9,11,13,-1,-1,-1,15,-1,17,19,-1,-1,-1,-1],"loss_changes":[5.7496876E-3,1.1004644E-3,0E0,1.1142897E-3,0E0,5.406346E-4,0E0,1.2891438E-4,6.92559E-4,1.505716E-4,0E0,0E0,0E0,1.0958643E-4,0E0,8.254066E-5,2.5757658E-4,0E0,0E0,0E0,0E0],"parents":[2147483647,0,0,1,1,3,3,5,5,7,7,8,8,9,9,13,13,15,15,16,16],"right_children":[2,4,-1,6,-1,8,-1,10,12,14,-1,-1,-1,16,-1,18,20,-1,-1,-1,-1],"split_conditions":[6.666667E-1,5.8411274E-7,1.5626658E-3,2E0,-7.032E-4,1.1666666E0,5.7059265E-4,5.5E0,1.8398739E-8,2.8333333E0,2.1478788E-4,-1.0667496E-5,-7.544008E-4,3.3333334E-1,-2.439096E-4,3.3333334E-1,2.4644349E-8,4.27305E-6,-8.7767425E-5,3.1773731E-4,-8.851638E-5],"split_indices":[564,11,0,180,0,679,0,530,518,584,0,0,0,985,0,966,517,0,0,0,0],"split_type":[0,0,0,0,0,0,0,0,0,0,0,0,0,0,0,0,0,0,0,0,0],"sum_hessian":[1.758E3,1.706E3,5.2E1,1.655E3,5.1E1,1.583E3,7.2E1,1.47E3,1.13E2,1.413E3,5.7E1,6.3E1,5E1,1.353E3,6E1,1.214E3,1.39E2,9.28E2,2.86E2,7.2E1,6.7E1],"tree_param":{"num_deleted":"0","num_feature":"1006","num_nodes":"21","size_leaf_vector":"1"}},{"base_weights":[-2.4909259E-5,-2.7955792E-4,1.0772457E-3,-1.014412E-4,-7.7100785E-4,4.4584907E-5,-4.4812672E-4,-1.3720621E-4,6.892439E-4,-6.666861E-5,-2.946904E-4,-3.6437225E-6,-2.5051457E-4,3.3467656E-4,-1.9707995E-4,8.5490465E-6,3.6061794E-4,-6.5123368E-6,-1.4140365E-4],"categories":[],"categories_nodes":[],"categories_segments":[],"categories_sizes":[],"default_left":[0,0,0,0,0,0,0,0,0,0,0,0,0,0,0,0,0,0,0],"id":42,"left_children":[1,3,-1,5,-1,7,-1,9,-1,11,-1,13,-1,15,17,-1,-1,-1,-1],"loss_changes":[3.064852E-3,1.3959095E-3,0E0,6.563178E-4,0E0,1.2273942E-3,0E0,1.8380955E-4,0E0,1.3894578E-4,0E0,8.6713015E-5,0E0,2.768438E-4,9.654481E-5,0E0,0E0,0E0,0E0],"parents":[2147483647,0,0,1,1,3,3,5,5,7,7,9,9,11,11,13,13,14,14],"right_children":[2,4,-1,6,-1,8,-1,10,-1,12,-1,14,-1,16,18,-1,-1,-1,-1],"split_conditions":[1E0,5E0,1.0772457E-3,1E0,-7.7100785E-4,1.6666666E0,-4.4812672E-4,6.463679E-8,6.892439E-4,2E0,-2.946904E-4,5E-1,-2.5051457E-4,1.085229E-7,4.2444846E-8,8.5490465E-6,3.6061794E-4,-6.5123368E-6,-1.4140365E-4],"split_indices":[131,161,0,950,0,710,0,15,0,180,0,542,0,3,12,0,0,0,0],"split_type":[0,0,0,0,0,0,0,0,0,0,0,0,0,0,0,0,0,0,0],"sum_hessian":[1.668E3,1.612E3,5.6E1,1.556E3,5.6E1,1.482E3,7.4E1,1.426E3,5.6E1,1.374E3,5.2E1,1.323E3,5.1E1,4.81E2,8.42E2,4.25E2,5.6E1,6.99E2,1.43E2],"tree_param":{"num_deleted":"0","num_feature":"1006","num_nodes":"19","size_leaf_vector":"1"}},{"base_weights":[-1.4647894E-4,-3.2802438E-4,6.9893943E-4,-1.4459307E-4,-7.163148E-4,-2.4400176E-4,2.7819586E-4,-9.319433E-5,-3.934128E-4,-7.520552E-6,-3.0384705E-4,4.8397895E-5,-2.0676282E-4,-6.46981E-7,1.6499465E-4,-7.806557E-6,1.4481916E-4],"categories":[],"categories_nodes":[],"categories_segments":[],"categories_sizes":[],"default_left":[0,0,0,0,0,0,0,0,0,0,0,0,0,0,0,0,0],"id":43,"left_children":[1,3,-1,5,-1,7,-1,9,-1,11,-1,13,-1,15,-1,-1,-1],"loss_changes":[1.5101172E-3,1.3592376E-3,0E0,3.1883563E-4,0E0,5.475411E-4,0E0,2.3789522E-4,0E0,1.0562547E-4,0E0,6.828461E-5,0E0,6.291321E-5,0E0,0E0,0E0],"parents":[2147483647,0,0,1,1,3,3,5,5,7,7,9,9,11,11,13,13],"right_children":[2,4,-1,6,-1,8,-1,10,-1,12,-1,14,-1,16,-1,-1,-1],"split_conditions":[1.1666666E0,2E0,6.9893943E-4,1.6666667E-1,-7.163148E-4,1.688272E-7,2.7819586E-4,1.6666666E0,-3.934128E-4,8E0,-3.0384705E-4,5E-1,-2.0676282E-4,1.3333334E0,1.6499465E-4,-7.806557E-6,1.4481916E-4],"split_indices":[614,55,0,633,0,11,0,667,0,27,0,524,0,710,0,0,0],"split_type":[0,0,0,0,0,0,0,0,0,0,0,0,0,0,0,0,0],"sum_hessian":[1.728E3,1.666E3,6.2E1,1.601E3,6.5E1,1.526E3,7.5E1,1.436E3,9E1,1.376E3,6E1,1.323E3,5.3E1,1.265E3,5.8E1,1.202E3,6.3E1],"tree_param":{"num_deleted":"0","num_feature":"1006","num_nodes":"17","size_leaf_vector":"1"}},{"base_weights":[-5.048016E-5,-2.3444841E-4,6.540135E-4,-3.7501624E-5,-9.140756E-4,8.3480525E-5,-4.649612E-4,-6.13064E-5,6.018947E-4,2.3605896E-6,-2.0553895E-4,-6.181312E-5,2.0129251E-4,-1.26591285E-5,-1.4463166E-4,-1.0739264E-5,9.819628E-5],"categories":[],"categories_nodes":[],"categories_segments":[],"categories_sizes":[],"default_left":[0,0,0,0,0,0,0,0,0,0,0,0,0,0,0,0,0],"id":44,"left_children":[1,3,-1,5,-1,7,-1,9,-1,11,-1,13,-1,15,-1,-1,-1],"loss_changes":[1.377976E-3,1.8807717E-3,0E0,5.8487046E-4,0E0,8.6438947E-4,0E0,1.2217544E-4,0E0,1.2034999E-4,0E0,5.9248036E-5,0E0,4.991481E-5,0E0,0E0,0E0],"parents":[2147483647,0,0,1,1,3,3,5,5,7,7,9,9,11,11,13,13],"right_children":[2,4,-1,6,-1,8,-1,10,-1,12,-1,14,-1,16,-1,-1,-1],"split_conditions":[2.3404514E-2,9.011242E-3,6.540135E-4,1E0,-9.140756E-4,1.200438E-2,-4.649612E-4,1.6666667E-1,6.018947E-4,4.2502023E-8,-2.0553895E-4,8.702808E-6,2.0129251E-4,1.4113707E-3,-1.4463166E-4,-1.0739264E-5,9.819628E-5],"split_indices":[13,16,0,950,0,10,0,746,0,518,0,5,0,10,0,0,0],"split_type":[0,0,0,0,0,0,0,0,0,0,0,0,0,0,0,0,0],"sum_hessian":[1.696E3,1.629E3,6.7E1,1.577E3,5.2E1,1.518E3,5.9E1,1.465E3,5.3E1,1.398E3,6.7E1,1.335E3,6.3E1,1.267E3,6.8E1,1.165E3,1.02E2],"tree_param":{"num_deleted":"0","num_feature":"1006","num_nodes":"17","size_leaf_vector":"1"}},{"base_weights":[4.6027086E-5,-3.1624458E-4,1.6933179E-3,-1.3389907E-4,-7.380769E-4,-4.9193266E-5,-3.610801E-4,-2.809911E-4,8.680107E-4,-1.4818468E-4,-3.927823E-4,2.0882445E-4,6.0604396E-4,-4.944603E-5,-8.947189E-4,-3.0359288E-4,2.2407938E-4,-1.3805232E-4,2.5594133E-4,1.739306E-5,-3.2521208E-4,6.108478E-5,-1.7429655E-4,-6.7584747E-6,-1.2124717E-4,-5.801049E-5,1.1418561E-4],"categories":[],"categories_nodes":[],"categories_segments":[],"categories_sizes":[],"default_left":[0,0,0,0,0,0,0,0,0,0,0,0,0,0,0,0,0,0,0,0,0,0,0,0,0,0,0],"id":45,"left_children":[1,3,-1,5,-1,7,-1,9,11,13,-1,15,-1,17,19,21,-1,23,-1,-1,-1,25,-1,-1,-1,-1,-1],"loss_changes":[7.1760034E-3,1.4324829E-3,0E0,3.1626067E-4,0E0,3.3722425E-4,0E0,3.9263236E-4,6.683162E-4,8.8336186E-5,0E0,1.7560807E-4,0E0,1.651376E-4,1.8042469E-4,5.9860373E-5,0E0,6.291847E-5,0E0,0E0,0E0,4.2622745E-5,0E0,0E0,0E0,0E0,0E0],"parents":[2147483647,0,0,1,1,3,3,5,5,7,7,8,8,9,9,11,11,13,13,14,14,15,15,17,17,21,21],"right_children":[2,4,-1,6,-1,8,-1,10,12,14,-1,16,-1,18,20,22,-1,24,-1,-1,-1,26,-1,-1,-1,-1,-1],"split_conditions":[2E0,8.333333E-1,1.6933179E-3,2.1155134E-7,-7.380769E-4,3E0,-3.610801E-4,8.698141E-8,1E0,3.3333334E-1,-3.927823E-4,1E0,6.0604396E-4,3.594763E-8,1.5500821E-7,2.3109087E-1,2.2407938E-4,3.3333334E-1,2.5594133E-4,1.739306E-5,-3.2521208E-4,2E0,-1.7429655E-4,-6.7584747E-6,-1.2124717E-4,-5.801049E-5,1.1418561E-4],"split_indices":[482,807,0,12,0,122,0,9,613,526,0,164,0,518,511,507,0,783,0,0,0,26,0,0,0,0,0],"split_type":[0,0,0,0,0,0,0,0,0,0,0,0,0,0,0,0,0,0,0,0,0,0,0,0,0,0,0],"sum_hessian":[1.76E3,1.706E3,5.4E1,1.642E3,6.4E1,1.584E3,5.8E1,1.265E3,3.19E2,1.198E3,6.7E1,2.65E2,5.4E1,1.059E3,1.39E2,1.9E2,7.5E1,1.009E3,5E1,7.8E1,6.1E1,1.34E2,5.6E1,8.87E2,1.22E2,8.2E1,5.2E1],"tree_param":{"num_deleted":"0","num_feature":"1006","num_nodes":"27","size_leaf_vector":"1"}},{"base_weights":[-2.6201471E-5,-2.7715927E-4,9.85454E-4,-8.207156E-5,-8.910307E-4,1.0981762E-5,-4.4367256E-4,-7.521473E-5,3.530225E-4,-1.3537596E-5,-2.4065538E-4,-8.747182E-5,1.7152783E-4,4.795692E-5,-5.9972826E-4,-2.4529913E-6,1.7580413E-4,-4.5964953E-5,-2.887417E-4],"categories":[],"categories_nodes":[],"categories_segments":[],"categories_sizes":[],"default_left":[0,0,0,0,0,0,0,0,0,0,0,0,0,0,0,0,0,0,0],"id":46,"left_children":[1,3,-1,5,-1,7,-1,9,-1,11,-1,13,-1,15,17,-1,-1,-1,-1],"loss_changes":[2.8903035E-3,1.8577701E-3,0E0,4.3541388E-4,0E0,3.1859762E-4,0E0,1.4352398E-4,0E0,1.2533947E-4,0E0,9.5557094E-5,0E0,7.8814395E-5,1.1134987E-4,0E0,0E0,0E0,0E0],"parents":[2147483647,0,0,1,1,3,3,5,5,7,7,9,9,11,11,13,13,14,14],"right_children":[2,4,-1,6,-1,8,-1,10,-1,12,-1,14,-1,16,18,-1,-1,-1,-1],"split_conditions":[3E0,1E0,9.85454E-4,2.4470825E-7,-8.910307E-4,1.5E0,-4.4367256E-4,1.5654025E-7,3.530225E-4,1.1666666E0,-2.4065538E-4,3.78E2,1.7152783E-4,1E0,4.3333335E0,-2.4529913E-6,1.7580413E-4,-4.5964953E-5,-2.887417E-4],"split_indices":[141,531,0,3,0,823,0,9,0,679,0,0,0,135,535,0,0,0,0],"split_type":[0,0,0,0,0,0,0,0,0,0,0,0,0,0,0,0,0,0,0],"sum_hessian":[1.744E3,1.681E3,6.3E1,1.626E3,5.5E1,1.576E3,5E1,1.521E3,5.5E1,1.463E3,5.8E1,1.376E3,8.7E1,1.089E3,2.87E2,1.031E3,5.8E1,2.36E2,5.1E1],"tree_param":{"num_deleted":"0","num_feature":"1006","num_nodes":"19","size_leaf_vector":"1"}},{"base_weights":[8.150095E-5,-1.5272075E-4,1.1241302E-3,3.2464486E-5,-8.2902686E-4,1.6285307E-4,-5.249151E-4,1.2785249E-5,6.6695624E-4,1.519594E-4,-6.831343E-4,6.0772196E-5,2.3581418E-4,-1.7884468E-4,-3.4604856E-4,-2.275885E-5,6.634612E-4,-5.841994E-4,1.4461677E-4,1.8158005E-5,-5.1843348E-5,-2.4357654E-5,2.6635927E-4,-1.7506392E-5,-2.2203379E-4],"categories":[],"categories_nodes":[],"categories_segments":[],"categories_sizes":[],"default_left":[0,0,0,0,0,0,0,0,0,0,0,0,0,0,0,0,0,0,0,0,0,0,0,0,0],"id":47,"left_children":[1,3,-1,5,-1,7,-1,9,-1,11,13,15,-1,17,-1,19,21,23,-1,-1,-1,-1,-1,-1,-1],"loss_changes":[3.1176507E-3,1.7328375E-3,0E0,7.760843E-4,0E0,1.0445237E-3,0E0,1.5226146E-4,0E0,1.6954704E-4,2.1413757E-4,6.203797E-5,0E0,9.3687086E-5,0E0,5.0327377E-5,1.380725E-4,6.224085E-5,0E0,0E0,0E0,0E0,0E0,0E0,0E0],"parents":[2147483647,0,0,1,1,3,3,5,5,7,7,9,9,10,10,11,11,13,13,15,15,16,16,17,17],"right_children":[2,4,-1,6,-1,8,-1,10,-1,12,14,16,-1,18,-1,20,22,24,-1,-1,-1,-1,-1,-1,-1],"split_conditions":[4.6973836E-1,5.331518E-7,1.1241302E-3,1.6666666E0,-8.2902686E-4,7.6929936E-3,-5.249151E-4,3.2712265E-8,6.6695624E-4,1.3333334E0,8.333333E-1,1E0,2.3581418E-4,3E0,-3.4604856E-4,2E0,3E0,2.604353E-8,1.4461677E-4,1.8158005E-5,-5.1843348E-5,-2.4357654E-5,2.6635927E-4,-1.7506392E-5,-2.2203379E-4],"split_indices":[4,11,0,645,0,10,0,12,0,613,685,29,0,18,0,625,535,509,0,0,0,0,0,0,0],"split_type":[0,0,0,0,0,0,0,0,0,0,0,0,0,0,0,0,0,0,0,0,0,0,0,0,0],"sum_hessian":[1.794E3,1.74E3,5.4E1,1.683E3,5.7E1,1.624E3,5.9E1,1.57E3,5.4E1,1.309E3,2.61E2,1.231E3,7.8E1,2E2,6.1E1,1.082E3,1.49E2,1.48E2,5.2E1,7.49E2,3.33E2,8.6E1,6.3E1,9.8E1,5E1],"tree_param":{"num_deleted":"0","num_feature":"1006","num_nodes":"25","size_leaf_vector":"1"}},{"base_weights":[1.837945E-4,1.1390311E-3,-5.242787E-5,1.0007521E-4,-7.445668E-4,-8.228056E-5,8.2091667E-4,3.8606257E-5,-4.841994E-4,-6.406524E-5,3.6062935E-4,2.4984854E-5,-2.8630017E-4,-6.320522E-5,7.951281E-4,-1.315391E-6,-1.9191626E-4,2.662519E-4,-6.515275E-5],"categories":[],"categories_nodes":[],"categories_segments":[],"categories_sizes":[],"default_left":[0,0,0,0,0,0,0,0,0,0,0,0,0,0,0,0,0,0,0],"id":48,"left_children":[1,-1,3,5,-1,7,-1,9,-1,11,-1,13,-1,15,17,-1,-1,-1,-1],"loss_changes":[3.116017E-3,0E0,1.2932639E-3,1.6415202E-3,0E0,6.1655126E-4,0E0,3.7953036E-4,0E0,2.461122E-4,0E0,9.7174416E-5,0E0,8.499854E-5,1.7786896E-4,0E0,0E0,0E0,0E0],"parents":[2147483647,0,0,2,2,3,3,5,5,7,7,9,9,11,11,13,13,14,14],"right_children":[2,-1,4,6,-1,8,-1,10,-1,12,-1,14,-1,16,18,-1,-1,-1,-1],"split_conditions":[1.294E3,1.1390311E-3,2E1,1.4E1,-7.445668E-4,8.333333E-1,8.2091667E-4,8.333333E-1,-4.841994E-4,3.7467203E-1,3.6062935E-4,3.0225036E-1,-2.8630017E-4,2.7071517E-3,3.3333334E-1,-1.315391E-6,-1.9191626E-4,2.662519E-4,-6.515275E-5],"split_indices":[2,0,32,32,0,659,0,966,0,4,0,507,0,16,624,0,0,0,0],"split_type":[0,0,0,0,0,0,0,0,0,0,0,0,0,0,0,0,0,0,0],"sum_hessian":[1.779E3,5.4E1,1.725E3,1.674E3,5.1E1,1.62E3,5.4E1,1.561E3,5.9E1,1.497E3,6.4E1,1.429E3,6.8E1,1.283E3,1.46E2,1.229E3,5.4E1,8.1E1,6.5E1],"tree_param":{"num_deleted":"0","num_feature":"1006","num_nodes":"19","size_leaf_vector":"1"}},{"base_weights":[-2.5161135E-6,-1.7806764E-4,7.961944E-4,5.8129186E-5,-7.233091E-4,-1.739549E-4,8.0006616E-4,-4.7496807E-5,-5.60304E-4,2.5920015E-5,-2.0442338E-4,-5.635787E-5,2.9299935E-4,9.775962E-7,-1.6218645E-4,-8.848209E-6,1.5678341E-4],"categories":[],"categories_nodes":[],"categories_segments":[],"categories_sizes":[],"default_left":[0,0,0,0,0,0,0,0,0,0,0,0,0,0,0,0,0],"id":49,"left_children":[1,3,-1,5,-1,7,-1,9,-1,11,-1,13,-1,15,-1,-1,-1],"loss_changes":[1.6314725E-3,1.8584228E-3,0E0,1.9758744E-3,0E0,6.9609226E-4,0E0,1.4430647E-4,0E0,2.246638E-4,0E0,7.985896E-5,0E0,8.071473E-5,0E0,0E0,0E0],"parents":[2147483647,0,0,1,1,3,3,5,5,7,7,9,9,11,11,13,13],"right_children":[2,4,-1,6,-1,8,-1,10,-1,12,-1,14,-1,16,-1,-1,-1],"split_conditions":[3E0,3E0,7.961944E-4,1.5E0,-7.233091E-4,4.1237405E-1,8.0006616E-4,1E0,-5.60304E-4,1.6666666E0,-2.0442338E-4,6E0,2.9299935E-4,6.666667E-1,-1.6218645E-4,-8.848209E-6,1.5678341E-4],"split_indices":[211,164,0,694,0,4,0,135,0,529,0,122,0,807,0,0,0],"split_type":[0,0,0,0,0,0,0,0,0,0,0,0,0,0,0,0,0],"sum_hessian":[1.748E3,1.693E3,5.5E1,1.612E3,8.1E1,1.545E3,6.7E1,1.493E3,5.2E1,1.415E3,7.8E1,1.358E3,5.7E1,1.287E3,7.1E1,1.218E3,6.9E1],"tree_param":{"num_deleted":"0","num_feature":"1006","num_nodes":"17","size_leaf_vector":"1"}},{"base_weights":[8.282021E-5,-2.0192185E-4,1.4200145E-3,-8.587541E-5,-5.8639405E-4,-1.9190366E-4,3.4413746E-4,-6.6310786E-5,-5.1842915E-4,-1.11537476E-4,1.8778264E-4,-5.791749E-5,-2.4271046E-4,-7.979734E-6,-1.4078015E-4,-8.80709E-6,1.7603171E-4],"categories":[],"categories_nodes":[],"categories_segments":[],"categories_sizes":[],"default_left":[0,0,0,0,0,0,0,0,0,0,0,0,0,0,0,0,0],"id":50,"left_children":[1,3,-1,5,-1,7,-1,9,-1,11,-1,13,-1,15,-1,-1,-1],"loss_changes":[4.7179977E-3,7.370739E-4,0E0,4.2011577E-4,0E0,6.528556E-4,0E0,9.1652655E-5,0E0,1.1986495E-4,0E0,6.309811E-5,0E0,8.153238E-5,0E0,0E0,0E0],"parents":[2147483647,0,0,1,1,3,3,5,5,7,7,9,9,11,11,13,13],"right_children":[2,4,-1,6,-1,8,-1,10,-1,12,-1,14,-1,16,-1,-1,-1],"split_conditions":[9E0,6.320213E-3,1.4200145E-3,2E0,-5.8639405E-4,2.1666667E0,3.4413746E-4,5E-1,-5.1842915E-4,1.0762013E-2,1.8778264E-4,1E0,-2.4271046E-4,5E0,-1.4078015E-4,-8.80709E-6,1.7603171E-4],"split_indices":[81,16,0,31,0,613,0,611,0,513,0,380,0,81,0,0,0],"split_type":[0,0,0,0,0,0,0,0,0,0,0,0,0,0,0,0,0],"sum_hessian":[1.764E3,1.713E3,5.1E1,1.662E3,5.1E1,1.592E3,7E1,1.534E3,5.8E1,1.484E3,5E1,1.434E3,5E1,1.358E3,7.6E1,1.303E3,5.5E1],"tree_param":{"num_deleted":"0","num_feature":"1006","num_nodes":"17","size_leaf_vector":"1"}},{"base_weights":[-4.0648894E-5,-3.0288E-4,1.1286096E-3,-6.0805014E-5,-1.1339283E-3,-1.781225E-4,4.4106634E-4,-7.3899784E-5,-4.89066E-4,-9.07371E-7,-1.993246E-4,-9.588134E-5,1.1158929E-3,-1.5225833E-4,1.6631576E-4,3.6400193E-4,-5.8360663E-5,-9.2659175E-6,-2.0785816E-4],"categories":[],"categories_nodes":[],"categories_segments":[],"categories_sizes":[],"default_left":[0,0,0,0,0,0,0,0,0,0,0,0,0,0,0,0,0,0,0],"id":51,"left_children":[1,3,-1,5,-1,7,-1,9,-1,11,-1,13,15,17,-1,-1,-1,-1,-1],"loss_changes":[3.4340855E-3,2.9384186E-3,0E0,5.7092373E-4,0E0,5.0090515E-4,0E0,1.3831544E-4,0E0,1.515706E-4,0E0,8.9612506E-5,2.2188503E-4,1.404321E-4,0E0,0E0,0E0,0E0,0E0],"parents":[2147483647,0,0,1,1,3,3,5,5,7,7,9,9,11,11,12,12,13,13],"right_children":[2,4,-1,6,-1,8,-1,10,-1,12,-1,14,16,18,-1,-1,-1,-1,-1],"split_conditions":[8.1162983E-7,3E0,1.1286096E-3,5E-1,-1.1339283E-3,4.1742837E-1,4.4106634E-4,1.1666666E0,-4.89066E-4,8.333333E-1,-1.993246E-4,1.1666666E0,1.6666667E-1,1E0,1.6631576E-4,3.6400193E-4,-5.8360663E-5,-9.2659175E-6,-2.0785816E-4],"split_indices":[14,66,0,638,0,4,0,556,0,534,0,667,611,200,0,0,0,0,0],"split_type":[0,0,0,0,0,0,0,0,0,0,0,0,0,0,0,0,0,0,0],"sum_hessian":[1.729E3,1.672E3,5.7E1,1.619E3,5.3E1,1.559E3,6E1,1.509E3,5E1,1.427E3,8.2E1,1.316E3,1.11E2,1.258E3,5.8E1,5.9E1,5.2E1,1.173E3,8.5E1],"tree_param":{"num_deleted":"0","num_feature":"1006","num_nodes":"19","size_leaf_vector":"1"}},{"base_weights":[-3.407943E-5,-3.7115786E-4,1.499192E-3,-1.535703E-4,-9.6014066E-4,-2.6503633E-4,2.8098357E-4,-1.2882634E-4,-1.4865231E-3,-7.670336E-5,-2.219181E-4,-5.9008802E-5,-4.832181E-4,-2.0141699E-4,2.9355983E-4,-1.3580674E-4,-1.9111826E-4,-3.734118E-5,5.1342975E-4,-3.1284533E-5,6.2618485E-5,1.3578271E-4,1.7105182E-5],"categories":[],"categories_nodes":[],"categories_segments":[],"categories_sizes":[],"default_left":[0,0,0,0,0,0,0,0,0,0,0,0,0,0,0,0,0,0,0,0,0,0,0],"id":52,"left_children":[1,3,-1,5,-1,7,-1,9,11,13,-1,-1,-1,15,17,19,-1,-1,21,-1,-1,-1,-1],"loss_changes":[5.821474E-3,2.1848173E-3,0E0,3.6399963E-4,0E0,2.5370237E-4,0E0,9.6614414E-5,2.8889818E-4,6.1197294E-5,0E0,0E0,0E0,6.957397E-5,3.9967217E-5,3.7724254E-5,0E0,0E0,3.7138627E-5,0E0,0E0,0E0,0E0],"parents":[2147483647,0,0,1,1,3,3,5,5,7,7,8,8,9,9,13,13,14,14,15,15,18,18],"right_children":[2,4,-1,6,-1,8,-1,10,12,14,-1,-1,-1,16,18,20,-1,-1,22,-1,-1,-1,-1],"split_conditions":[8.6927685E-8,5.074695E-8,1.499192E-3,6.666667E-1,-9.6014066E-4,1.06E2,2.8098357E-4,1E0,1.6666667E-1,3.3333334E-1,-2.219181E-4,-5.9008802E-5,-4.832181E-4,9.148395E-9,5.3207934E-2,4.7909275E-8,-1.9111826E-4,-3.734118E-5,2.11E2,-3.1284533E-5,6.2618485E-5,1.3578271E-4,1.7105182E-5],"split_indices":[518,518,0,531,0,1,0,569,657,736,0,0,0,17,4,512,0,0,0,0,0,0,0],"split_type":[0,0,0,0,0,0,0,0,0,0,0,0,0,0,0,0,0,0,0,0,0,0,0],"sum_hessian":[1.72E3,1.665E3,5.5E1,1.608E3,5.7E1,1.525E3,8.3E1,1.373E3,1.52E2,1.323E3,5E1,9.4E1,5.8E1,9.9E2,3.33E2,9.34E2,5.6E1,9.6E1,2.37E2,8.26E2,1.08E2,1.19E2,1.18E2],"tree_param":{"num_deleted":"0","num_feature":"1006","num_nodes":"23","size_leaf_vector":"1"}},{"base_weights":[1.2693163E-4,-1.5576428E-4,1.2737269E-3,4.6833535E-5,-9.983554E-4,-4.7857786E-5,3.6796057E-4,6.7848116E-5,-2.7485457E-4,-3.8519964E-5,1.0481672E-3,1.5403299E-5,-2.0978012E-4,2.2029473E-5,3.985936E-4,-4.042602E-5,1.9740617E-4,-1.8988818E-5,8.089405E-5],"categories":[],"categories_nodes":[],"categories_segments":[],"categories_sizes":[],"default_left":[0,0,0,0,0,0,0,0,0,0,0,0,0,0,0,0,0,0,0],"id":53,"left_children":[1,3,-1,5,-1,7,-1,9,-1,11,13,15,-1,-1,-1,17,-1,-1,-1],"loss_changes":[4.122877E-3,2.221877E-3,0E0,3.7310747E-4,0E0,3.2553342E-4,0E0,1.5447113E-4,0E0,9.8072305E-5,2.0990461E-4,9.3507064E-5,0E0,0E0,0E0,6.175922E-5,0E0,0E0,0E0],"parents":[2147483647,0,0,1,1,3,3,5,5,7,7,9,9,10,10,11,11,15,15],"right_children":[2,4,-1,6,-1,8,-1,10,-1,12,14,16,-1,-1,-1,18,-1,-1,-1],"split_conditions":[2E0,4.4859123E-1,1.2737269E-3,2E0,-9.983554E-4,8.333333E-1,3.6796057E-4,3.0889338E-1,-2.7485457E-4,1.6284004E-7,3.3333334E-1,1E0,-2.0978012E-4,2.2029473E-5,3.985936E-4,5E-1,1.9740617E-4,-1.8988818E-5,8.089405E-5],"split_indices":[482,4,0,62,0,569,0,507,0,9,580,402,0,0,0,807,0,0,0],"split_type":[0,0,0,0,0,0,0,0,0,0,0,0,0,0,0,0,0,0,0],"sum_hessian":[1.742E3,1.686E3,5.6E1,1.636E3,5E1,1.575E3,6.1E1,1.48E3,9.5E1,1.336E3,1.44E2,1.286E3,5E1,9.3E1,5.1E1,1.234E3,5.2E1,1.075E3,1.59E2],"tree_param":{"num_deleted":"0","num_feature":"1006","num_nodes":"19","size_leaf_vector":"1"}},{"base_weights":[9.004255E-6,-2.1935892E-4,1.0948329E-3,7.3123488E-6,-9.0926193E-4,-1.2422448E-4,6.003417E-4,-3.688553E-5,-2.4705273E-4,-1.2566808E-4,9.5103355E-4,-3.9552462E-5,-1.1868008E-3,-7.487706E-5,3.508691E-4,-1.3417526E-4,2.9049002E-4,-7.968794E-6,-3.4458088E-4,-2.8112967E-5,1.5879406E-4],"categories":[],"categories_nodes":[],"categories_segments":[],"categories_sizes":[],"default_left":[0,0,0,0,0,0,0,0,0,0,0,0,0,0,0,0,0,0,0,0,0],"id":54,"left_children":[1,3,-1,5,-1,7,-1,9,-1,11,13,15,17,-1,-1,19,-1,-1,-1,-1,-1],"loss_changes":[2.8499719E-3,2.1983844E-3,0E0,8.407477E-4,0E0,2.0595499E-4,0E0,1.2870235E-4,0E0,1.2295069E-4,2.4474465E-4,2.3324825E-4,1.2702071E-4,0E0,0E0,7.5775504E-5,0E0,0E0,0E0,0E0,0E0],"parents":[2147483647,0,0,1,1,3,3,5,5,7,7,9,9,10,10,11,11,12,12,15,15],"right_children":[2,4,-1,6,-1,8,-1,10,-1,12,14,16,18,-1,-1,20,-1,-1,-1,-1,-1],"split_conditions":[1.45413305E-5,1.5E0,1.0948329E-3,1E0,-9.0926193E-4,1.3170657E-2,6.003417E-4,1E0,-2.4705273E-4,4.9837433E-2,1.6666667E-1,1.3333334E0,2.8431502E-1,-7.487706E-5,3.508691E-4,1.3333334E0,2.9049002E-4,-7.968794E-6,-3.4458088E-4,-2.8112967E-5,1.5879406E-4],"split_indices":[5,534,0,351,0,13,0,340,0,510,878,823,507,0,0,707,0,0,0,0,0],"split_type":[0,0,0,0,0,0,0,0,0,0,0,0,0,0,0,0,0,0,0,0,0],"sum_hessian":[1.71E3,1.659E3,5.1E1,1.598E3,6.1E1,1.548E3,5E1,1.465E3,8.3E1,1.345E3,1.2E2,1.245E3,1E2,5.9E1,6.1E1,1.189E3,5.6E1,5E1,5E1,1.139E3,5E1],"tree_param":{"num_deleted":"0","num_feature":"1006","num_nodes":"21","size_leaf_vector":"1"}},{"base_weights":[-1.11009285E-4,-3.096843E-4,9.4705174E-4,-1.3148594E-4,-7.106921E-4,-2.4558025E-4,3.7675124E-4,-1.6533042E-4,-3.9039418E-4,-9.035049E-5,-2.4783285E-4,-1.7755214E-4,4.8316698E-4,-6.915011E-5,-9.208347E-4,4.4051747E-5,2.370209E-4,-2.1909018E-5,9.638356E-5,-1.7250451E-5,-2.7510128E-4,-8.7786524E-5,1.2410543E-4],"categories":[],"categories_nodes":[],"categories_segments":[],"categories_sizes":[],"default_left":[0,0,0,0,0,0,0,0,0,0,0,0,0,0,0,0,0,0,0,0,0,0,0],"id":55,"left_children":[1,3,-1,5,-1,7,-1,9,-1,11,-1,13,15,17,19,21,-1,-1,-1,-1,-1,-1,-1],"loss_changes":[2.212723E-3,1.3258697E-3,0E0,4.882549E-4,0E0,2.9294548E-4,0E0,1.6719238E-4,0E0,7.160247E-5,0E0,1.00008394E-4,9.097116E-5,5.948393E-5,1.1605567E-4,6.75238E-5,0E0,0E0,0E0,0E0,0E0,0E0,0E0],"parents":[2147483647,0,0,1,1,3,3,5,5,7,7,9,9,11,11,12,12,13,13,14,14,15,15],"right_children":[2,4,-1,6,-1,8,-1,10,-1,12,-1,14,16,18,20,22,-1,-1,-1,-1,-1,-1,-1],"split_conditions":[2E0,8.0831086E-8,9.4705174E-4,6.5E0,-7.106921E-4,6.761855E-7,3.7675124E-4,5E-1,-3.9039418E-4,1E0,-2.4783285E-4,2E0,1.6666667E-1,3.3333334E-1,4.7038357E-6,8.333333E-1,2.370209E-4,-2.1909018E-5,9.638356E-5,-1.7250451E-5,-2.7510128E-4,-8.7786524E-5,1.2410543E-4],"split_indices":[366,15,0,530,0,14,0,524,0,233,0,161,883,985,508,542,0,0,0,0,0,0,0],"split_type":[0,0,0,0,0,0,0,0,0,0,0,0,0,0,0,0,0,0,0,0,0,0,0],"sum_hessian":[1.731E3,1.68E3,5.1E1,1.616E3,6.4E1,1.55E3,6.6E1,1.5E3,5E1,1.429E3,7.1E1,1.241E3,1.88E2,1.084E3,1.57E2,1.35E2,5.3E1,9.79E2,1.05E2,8.4E1,7.3E1,7.5E1,6E1],"tree_param":{"num_deleted":"0","num_feature":"1006","num_nodes":"23","size_leaf_vector":"1"}},{"base_weights":[3.3797514E-5,-2.6455562E-4,1.3251918E-3,-6.50482E-5,-8.2005525E-4,-1.988591E-4,5.413117E-4,-7.338016E-5,-4.929764E-4,3.153899E-5,-3.5319696E-4,-4.0267E-5,9.4588776E-4,1.4281641E-5,-2.0434459E-4,2.8254525E-4,3.852047E-6,-6.8866143E-6,1.89532E-4],"categories":[],"categories_nodes":[],"categories_segments":[],"categories_sizes":[],"default_left":[0,0,0,0,0,0,0,0,0,0,0,0,0,0,0,0,0,0,0],"id":56,"left_children":[1,3,-1,5,-1,7,-1,9,-1,11,-1,13,15,17,-1,-1,-1,-1,-1],"loss_changes":[4.4844933E-3,1.7143099E-3,0E0,7.833343E-4,0E0,5.952465E-4,0E0,3.5383136E-4,0E0,9.287528E-5,0E0,9.463427E-5,8.883258E-5,9.48805E-5,0E0,0E0,0E0,0E0,0E0],"parents":[2147483647,0,0,1,1,3,3,5,5,7,7,9,9,11,11,12,12,13,13],"right_children":[2,4,-1,6,-1,8,-1,10,-1,12,-1,14,16,18,-1,-1,-1,-1,-1],"split_conditions":[3E0,3.3333334E-1,1.3251918E-3,3.3333334E-1,-8.2005525E-4,1.0333333E1,5.413117E-4,8.203318E-3,-4.929764E-4,6E0,-3.5319696E-4,1.3333334E0,1.93E2,3.623851E-1,-2.0434459E-4,2.8254525E-4,3.852047E-6,-6.8866143E-6,1.89532E-4],"split_indices":[211,992,0,741,0,533,0,10,0,27,0,823,0,4,0,0,0,0,0],"split_type":[0,0,0,0,0,0,0,0,0,0,0,0,0,0,0,0,0,0,0],"sum_hessian":[1.706E3,1.651E3,5.5E1,1.591E3,6E1,1.536E3,5.5E1,1.477E3,5.9E1,1.413E3,6.4E1,1.311E3,1.02E2,1.26E3,5.1E1,5E1,5.2E1,1.203E3,5.7E1],"tree_param":{"num_deleted":"0","num_feature":"1006","num_nodes":"19","size_leaf_vector":"1"}},{"base_weights":[6.843027E-5,-1.6668369E-4,9.751885E-4,2.6810276E-5,-8.031004E-4,-8.895878E-5,5.422703E-4,1.0541888E-5,-1.5776325E-3,-8.207561E-5,2.2122155E-4,-6.3711675E-5,-4.04938E-4,8.49648E-5,-8.0561E-4,1.1076378E-5,1.9302974E-4,-2.1531213E-4,-1.6461685E-3,1.5519245E-5,-8.958052E-5,-9.345379E-5,9.062649E-5,-6.192973E-5,-4.000561E-4],"categories":[],"categories_nodes":[],"categories_segments":[],"categories_sizes":[],"default_left":[0,0,0,0,0,0,0,0,0,0,0,0,0,0,0,0,0,0,0,0,0,0,0,0,0],"id":57,"left_children":[1,3,-1,5,-1,7,-1,9,11,13,-1,-1,-1,15,17,19,-1,21,23,-1,-1,-1,-1,-1,-1],"loss_changes":[2.7023144E-3,1.7305481E-3,0E0,6.911601E-4,0E0,2.3879256E-4,0E0,2.0517374E-4,1.294956E-4,1.7205148E-4,0E0,0E0,0E0,1.0273486E-4,1.3212558E-4,6.137171E-5,0E0,5.3166794E-5,1.3739386E-4,0E0,0E0,0E0,0E0,0E0,0E0],"parents":[2147483647,0,0,1,1,3,3,5,5,7,7,8,8,9,9,13,13,14,14,15,15,17,17,18,18],"right_children":[2,4,-1,6,-1,8,-1,10,12,14,-1,-1,-1,16,18,20,-1,22,24,-1,-1,-1,-1,-1,-1],"split_conditions":[1.8333334E0,1.3E1,9.751885E-4,1E0,-8.031004E-4,3.3511188E-7,5.422703E-4,8.9719903E-4,1.6666667E-1,1E0,2.2122155E-4,-6.3711675E-5,-4.04938E-4,1.1666666E0,3.3333334E-1,1.6666667E-1,1.9302974E-4,3.333022E-4,4.6552263E-6,1.5519245E-5,-8.958052E-5,-9.345379E-5,9.062649E-5,-6.192973E-5,-4.000561E-4],"split_indices":[569,27,0,853,0,14,0,16,855,211,0,0,0,645,565,803,0,513,508,0,0,0,0,0,0],"split_type":[0,0,0,0,0,0,0,0,0,0,0,0,0,0,0,0,0,0,0,0,0,0,0,0,0],"sum_hessian":[1.785E3,1.723E3,6.2E1,1.662E3,6.1E1,1.611E3,5.1E1,1.511E3,1E2,1.422E3,8.9E1,5E1,5E1,1.156E3,2.66E2,1.09E3,6.6E1,1.57E2,1.09E2,9.47E2,1.43E2,1.05E2,5.2E1,5E1,5.9E1],"tree_param":{"num_deleted":"0","num_feature":"1006","num_nodes":"25","size_leaf_vector":"1"}},{"base_weights":[-1.8526337E-4,-3.9754834E-4,8.192644E-4,-1.820658E-4,-1.0679384E-3,-8.8403336E-5,-4.2045544E-4,-9.111407E-6,-3.5344198E-4,-9.8391574E-5,3.5488603E-4,-1.304205E-5,-1.9909313E-4,6.2247185E-5,-7.83107E-4,-3.6492973E-5,3.59531E-5,-2.5896472E-4,-1.5606378E-5],"categories":[],"categories_nodes":[],"categories_segments":[],"categories_sizes":[],"default_left":[0,0,0,0,0,0,0,0,0,0,0,0,0,0,0,0,0,0,0],"id":58,"left_children":[1,3,-1,5,-1,7,-1,9,-1,11,-1,13,-1,15,17,-1,-1,-1,-1],"loss_changes":[2.0844499E-3,2.4249118E-3,0E0,3.9842236E-4,0E0,2.8212287E-4,0E0,3.2190053E-4,0E0,1.5343045E-4,0E0,7.942009E-5,0E0,6.77173E-5,7.7970886E-5,0E0,0E0,0E0,0E0],"parents":[2147483647,0,0,1,1,3,3,5,5,7,7,9,9,11,11,13,13,14,14],"right_children":[2,4,-1,6,-1,8,-1,10,-1,12,-1,14,-1,16,18,-1,-1,-1,-1],"split_conditions":[3.3333334E-1,2.18E2,8.192644E-4,1E0,-1.0679384E-3,1.1666666E0,-4.2045544E-4,3.4651142E-3,-3.5344198E-4,6E0,3.5488603E-4,1E0,-1.9909313E-4,8.415327E-2,1.635E3,-3.6492973E-5,3.59531E-5,-2.5896472E-4,-1.5606378E-5],"split_indices":[898,1,0,285,0,565,0,519,0,122,0,667,0,4,505,0,0,0,0],"split_type":[0,0,0,0,0,0,0,0,0,0,0,0,0,0,0,0,0,0,0],"sum_hessian":[1.736E3,1.674E3,6.2E1,1.623E3,5.1E1,1.568E3,5.5E1,1.516E3,5.2E1,1.462E3,5.4E1,1.368E3,9.4E1,1.247E3,1.21E2,4.58E2,7.89E2,5E1,7.1E1],"tree_param":{"num_deleted":"0","num_feature":"1006","num_nodes":"19","size_leaf_vector":"1"}},{"base_weights":[2.2794463E-6,-2.3368365E-4,8.9470745E-4,-1.285823E-5,-7.5972185E-4,-1.14389004E-4,4.5763276E-4,9.041219E-6,-7.0298475E-4,-7.3569405E-5,4.7669807E-4,-2.1439679E-4,-2.609208E-4,-2.071247E-5,-1.3370391E-4,-2.6363237E-5,2.1572459E-4,-1.459803E-4,3.549379E-4,-8.043103E-5,1.07297456E-4,1.3897364E-4,-1.08715714E-4,-6.0229293E-5,1.6572472E-4,-3.589288E-7,-1.3588717E-4],"categories":[],"categories_nodes":[],"categories_segments":[],"categories_sizes":[],"default_left":[0,0,0,0,0,0,0,0,0,0,0,0,0,0,0,0,0,0,0,0,0,0,0,0,0,0,0],"id":59,"left_children":[1,3,-1,5,-1,7,-1,9,11,13,15,17,-1,19,-1,21,-1,-1,23,25,-1,-1,-1,-1,-1,-1,-1],"loss_changes":[2.4761574E-3,1.806088E-3,0E0,5.04273E-4,0E0,1.1399499E-4,0E0,5.0181254E-5,1.3737194E-4,4.7702903E-5,9.435478E-5,8.070005E-5,0E0,4.5682387E-5,0E0,8.651856E-5,0E0,0E0,6.114144E-5,6.19047E-5,0E0,0E0,0E0,0E0,0E0,0E0,0E0],"parents":[2147483647,0,0,1,1,3,3,5,5,7,7,8,8,9,9,10,10,11,11,13,13,15,15,18,18,19,19],"right_children":[2,4,-1,6,-1,8,-1,10,12,14,16,18,-1,20,-1,22,-1,-1,24,26,-1,-1,-1,-1,-1,-1,-1],"split_conditions":[4E0,3E0,8.9470745E-4,2E0,-7.5972185E-4,6.6E1,4.5763276E-4,5E-1,1.6666666E0,1.6666667E-1,3.4E1,1.6666667E-1,-2.609208E-4,4.865923E-8,-1.3370391E-4,1.9E1,2.1572459E-4,-1.459803E-4,9.9E1,1.2082566E-7,1.07297456E-4,1.3897364E-4,-1.08715714E-4,-6.0229293E-5,1.6572472E-4,-3.589288E-7,-1.3588717E-4],"split_indices":[26,207,0,667,0,1,0,807,521,650,1,532,0,520,0,1,0,0,1,3,0,0,0,0,0,0,0],"split_type":[0,0,0,0,0,0,0,0,0,0,0,0,0,0,0,0,0,0,0,0,0,0,0,0,0,0,0],"sum_hessian":[1.758E3,1.692E3,6.6E1,1.619E3,7.3E1,1.568E3,5.1E1,1.297E3,2.71E2,1.103E3,1.94E2,1.85E2,8.6E1,1.037E3,6.6E1,1.28E2,6.6E1,7.9E1,1.06E2,9.6E2,7.7E1,5.4E1,7.4E1,5.3E1,5.3E1,8.78E2,8.2E1],"tree_param":{"num_deleted":"0","num_feature":"1006","num_nodes":"27","size_leaf_vector":"1"}},{"base_weights":[-9.289059E-5,-2.877225E-4,8.486985E-4,-1.1365458E-4,-7.4871967E-4,-1.0055376E-5,-2.7268808E-4,-1.2435921E-4,2.6079858E-4,-1.7198046E-5,-2.5655868E-4,-1.008931E-4,4.4462294E-4,-7.918166E-6,-6.8849156E-4,2.0773314E-5,1.8585789E-4,-1.1219082E-5,1.6578392E-4,-2.3456852E-5,-2.3773233E-4,6.7159715E-5,-7.215942E-5],"categories":[],"categories_nodes":[],"categories_segments":[],"categories_sizes":[],"default_left":[0,0,0,0,0,0,0,0,0,0,0,0,0,0,0,0,0,0,0,0,0,0,0],"id":60,"left_children":[1,3,-1,5,-1,7,-1,9,-1,11,-1,13,15,17,19,21,-1,-1,-1,-1,-1,-1,-1],"loss_changes":[1.9489788E-3,1.3766048E-3,0E0,2.8653958E-4,0E0,3.0623947E-4,0E0,2.4437453E-4,0E0,5.2147938E-5,0E0,6.238421E-5,6.967502E-5,7.3557225E-5,7.416115E-5,2.9355153E-5,0E0,0E0,0E0,0E0,0E0,0E0,0E0],"parents":[2147483647,0,0,1,1,3,3,5,5,7,7,9,9,11,11,12,12,13,13,14,14,15,15],"right_children":[2,4,-1,6,-1,8,-1,10,-1,12,-1,14,16,18,20,22,-1,-1,-1,-1,-1,-1,-1],"split_conditions":[4E0,8.333333E-1,8.486985E-4,1.4930317E-2,-7.4871967E-4,3.7216717E-1,-2.7268808E-4,2E0,2.6079858E-4,6.436266E-6,-2.5655868E-4,6.666667E-1,6.666667E-1,8.333333E-1,3.0755277E-8,3.3333334E-1,1.8585789E-4,-1.1219082E-5,1.6578392E-4,-2.3456852E-5,-2.3773233E-4,6.7159715E-5,-7.215942E-5],"split_indices":[320,703,0,13,0,4,0,53,0,5,0,644,645,823,514,667,0,0,0,0,0,0,0],"split_type":[0,0,0,0,0,0,0,0,0,0,0,0,0,0,0,0,0,0,0,0,0,0,0],"sum_hessian":[1.737E3,1.681E3,5.6E1,1.622E3,5.9E1,1.53E3,9.2E1,1.437E3,9.3E1,1.347E3,9E1,1.141E3,2.06E2,9.86E2,1.55E2,1.35E2,7.1E1,9.31E2,5.5E1,9.8E1,5.7E1,7.3E1,6.2E1],"tree_param":{"num_deleted":"0","num_feature":"1006","num_nodes":"23","size_leaf_vector":"1"}},{"base_weights":[-2.39813E-4,-9.343628E-5,-6.871025E-4,-2.0423102E-4,5.0050387E-4,-5.040423E-5,-7.3513435E-4,-2.5151062E-4,3.5226033E-6,6.928123E-5,-2.1300152E-4,-4.491556E-5,1.2790419E-3,8.614477E-5,-7.1246765E-4,5.1206996E-4,-2.9761692E-5,-1.7205357E-7,1.5667643E-4,-2.8714365E-5,-3.1610962E-4],"categories":[],"categories_nodes":[],"categories_segments":[],"categories_sizes":[],"default_left":[0,0,0,0,0,0,0,0,0,0,0,0,0,0,0,0,0,0,0,0,0],"id":61,"left_children":[1,3,-1,5,-1,7,-1,-1,9,11,-1,13,15,17,19,-1,-1,-1,-1,-1,-1],"loss_changes":[1.1102553E-3,6.4370944E-4,0E0,1.1846083E-3,0E0,1.3936596E-4,0E0,0E0,1.441635E-4,2.0341542E-4,0E0,1.17822376E-4,4.0123588E-4,9.419939E-5,1.6022206E-4,0E0,0E0,0E0,0E0,0E0,0E0],"parents":[2147483647,0,0,1,1,3,3,5,5,8,8,9,9,11,11,12,12,13,13,14,14],"right_children":[2,4,-1,6,-1,8,-1,-1,10,12,-1,14,16,18,20,-1,-1,-1,-1,-1,-1],"split_conditions":[1.9E1,1.3235572E-7,-6.871025E-4,2.1666667E0,5.0050387E-4,1.32E3,-7.3513435E-4,-2.5151062E-4,2E0,2E0,-2.1300152E-4,6.3E1,1.6695E3,1.6666667E-1,4.8333335E0,5.1206996E-4,-2.9761692E-5,-1.7205357E-7,1.5667643E-4,-2.8714365E-5,-3.1610962E-4],"split_indices":[32,6,0,667,0,2,0,0,31,207,0,1,505,684,535,0,0,0,0,0,0],"split_type":[0,0,0,0,0,0,0,0,0,0,0,0,0,0,0,0,0,0,0,0,0],"sum_hessian":[1.747E3,1.691E3,5.6E1,1.639E3,5.2E1,1.588E3,5.1E1,5E1,1.538E3,1.471E3,6.7E1,1.345E3,1.26E2,1.125E3,2.2E2,5.1E1,7.5E1,1.032E3,9.3E1,1.61E2,5.9E1],"tree_param":{"num_deleted":"0","num_feature":"1006","num_nodes":"21","size_leaf_vector":"1"}},{"base_weights":[6.608293E-5,-1.6134803E-4,3.717585E-3,8.749726E-6,-7.6600694E-4,-7.391743E-5,1.1784693E-3,-6.898592E-5,3.5566982E-4,-2.5118516E-6,-2.715144E-4,-6.4191954E-5,2.0317336E-4,-8.024011E-6,-2.2850209E-4,3.6166217E-5,-1.3098618E-4,-1.857711E-6,1.4294057E-4],"categories":[],"categories_nodes":[],"categories_segments":[],"categories_sizes":[],"default_left":[0,0,0,0,0,0,0,0,0,0,0,0,0,0,0,0,0,0,0],"id":62,"left_children":[1,3,5,7,-1,-1,-1,9,-1,11,-1,13,-1,15,-1,17,-1,-1,-1],"loss_changes":[1.4588956E-3,1.3913817E-3,1.798769E-3,2.9398967E-4,0E0,0E0,0E0,1.793904E-4,0E0,1.2513467E-4,0E0,1.1718735E-4,0E0,5.2718227E-5,0E0,5.8409052E-5,0E0,0E0,0E0],"parents":[2147483647,0,0,1,1,2,2,3,3,7,7,9,9,11,11,13,13,15,15],"right_children":[2,4,6,8,-1,-1,-1,10,-1,12,-1,14,-1,16,-1,18,-1,-1,-1],"split_conditions":[7.183809E-8,1.8333334E0,1E0,1E0,-7.6600694E-4,-7.391743E-5,1.1784693E-3,1E0,3.5566982E-4,1.6666667E-1,-2.715144E-4,1.6666667E-1,2.0317336E-4,3E0,-2.2850209E-4,1.3408736E-7,-1.3098618E-4,-1.857711E-6,1.4294057E-4],"split_indices":[15,707,35,238,0,0,0,264,0,764,0,758,0,26,0,11,0,0,0],"split_type":[0,0,0,0,0,0,0,0,0,0,0,0,0,0,0,0,0,0,0],"sum_hessian":[1.755E3,1.653E3,1.02E2,1.599E3,5.4E1,5.1E1,5.1E1,1.549E3,5E1,1.493E3,5.6E1,1.429E3,6.4E1,1.377E3,5.2E1,1.311E3,6.6E1,1.246E3,6.5E1],"tree_param":{"num_deleted":"0","num_feature":"1006","num_nodes":"19","size_leaf_vector":"1"}},{"base_weights":[1.3006956E-4,-8.334717E-5,1.0717745E-3,8.449197E-5,-7.994918E-4,-6.57075E-5,6.563895E-4,3.0843792E-5,-3.9487207E-4,-5.0383536E-5,2.6824325E-4,4.7684014E-5,-2.3531156E-4,1.0884729E-4,-2.1554626E-4,4.646124E-6,1.6235153E-4],"categories":[],"categories_nodes":[],"categories_segments":[],"categories_sizes":[],"default_left":[0,0,0,0,0,0,0,0,0,0,0,0,0,0,0,0,0],"id":63,"left_children":[1,3,-1,5,-1,7,-1,9,-1,11,-1,13,-1,15,-1,-1,-1],"loss_changes":[2.5861536E-3,1.4771905E-3,0E0,1.0483612E-3,0E0,3.8966248E-4,0E0,2.1650291E-4,0E0,2.1598248E-4,0E0,1.2392583E-4,0E0,9.927653E-5,0E0,0E0,0E0],"parents":[2147483647,0,0,1,1,3,3,5,5,7,7,9,9,11,11,13,13],"right_children":[2,4,-1,6,-1,8,-1,10,-1,12,-1,14,-1,16,-1,-1,-1],"split_conditions":[2.474033E-2,2E0,1.0717745E-3,1.6666667E-1,-7.994918E-4,1.3333334E0,6.563895E-4,5E-1,-3.9487207E-4,2E0,2.6824325E-4,4.699642E-8,-2.3531156E-4,6E0,-2.1554626E-4,4.646124E-6,1.6235153E-4],"split_indices":[10,29,0,544,0,569,0,985,0,211,0,518,0,27,0,0,0],"split_type":[0,0,0,0,0,0,0,0,0,0,0,0,0,0,0,0,0],"sum_hessian":[1.726E3,1.676E3,5E1,1.625E3,5.1E1,1.571E3,5.4E1,1.515E3,5.6E1,1.449E3,6.6E1,1.362E3,8.7E1,1.309E3,5.3E1,1.213E3,9.6E1],"tree_param":{"num_deleted":"0","num_feature":"1006","num_nodes":"17","size_leaf_vector":"1"}},{"base_weights":[6.167348E-5,-1.975444E-4,1.2630397E-3,1.5638208E-5,-1.0491922E-3,-1.2957775E-4,3.8814257E-4,-3.1234093E-5,-4.417515E-4,2.5139043E-5,-2.3859774E-4,-6.786037E-5,8.3075714E-4,7.6225406E-6,-2.695679E-4,4.577554E-4,-1.11516056E-4,-1.1605883E-5,1.1893291E-4],"categories":[],"categories_nodes":[],"categories_segments":[],"categories_sizes":[],"default_left":[0,0,0,0,0,0,0,0,0,0,0,0,0,0,0,0,0,0,0],"id":64,"left_children":[1,3,-1,5,-1,7,-1,9,-1,11,-1,13,15,17,-1,-1,-1,-1,-1],"loss_changes":[3.7457144E-3,2.430111E-3,0E0,6.0800737E-4,0E0,4.2657994E-4,0E0,1.3102478E-4,0E0,1.0786915E-4,0E0,1.6852726E-4,5.2320363E-4,8.268986E-5,0E0,0E0,0E0,0E0,0E0],"parents":[2147483647,0,0,1,1,3,3,5,5,7,7,9,9,11,11,12,12,13,13],"right_children":[2,4,-1,6,-1,8,-1,10,-1,12,-1,14,16,18,-1,-1,-1,-1,-1],"split_conditions":[2E0,1.6315347E-7,1.2630397E-3,6.666667E-1,-1.0491922E-3,1.1435206E-5,3.8814257E-4,1E0,-4.417515E-4,1E0,-2.3859774E-4,3E0,5E-1,3E0,-2.695679E-4,4.577554E-4,-1.11516056E-4,-1.1605883E-5,1.1893291E-4],"split_indices":[23,520,0,531,0,5,0,345,0,201,0,26,542,18,0,0,0,0,0],"split_type":[0,0,0,0,0,0,0,0,0,0,0,0,0,0,0,0,0,0,0],"sum_hessian":[1.727E3,1.676E3,5.1E1,1.626E3,5E1,1.54E3,8.6E1,1.489E3,5.1E1,1.438E3,5.1E1,1.29E3,1.48E2,1.237E3,5.3E1,6.1E1,8.7E1,1.117E3,1.2E2],"tree_param":{"num_deleted":"0","num_feature":"1006","num_nodes":"19","size_leaf_vector":"1"}},{"base_weights":[-1.6289649E-5,-2.7523664E-4,1.0584303E-3,-1.00746576E-4,-8.3756394E-4,-7.0945675E-6,-3.4458068E-4,6.616841E-5,-2.9422794E-4,-3.32642E-5,4.1553561E-4,6.696124E-5,-1.0539074E-3,-5.765028E-5,6.768663E-4,-2.1701035E-5,-3.4119148E-4,3.5244232E-6,-1.2811231E-4,4.0488183E-5,3.014848E-4],"categories":[],