{"learner":{"attributes":{"best_iteration":"12","best_score":"0.23982147804382456"},"feature_names":[],"feature_types":[],"gradient_booster":{"model":{"gbtree_model_param":{"num_parallel_tree":"1","num_trees":"63"},"iteration_indptr":[0,1,2,3,4,5,6,7,8,9,10,11,12,13,14,15,16,17,18,19,20,21,22,23,24,25,26,27,28,29,30,31,32,33,34,35,36,37,38,39,40,41,42,43,44,45,46,47,48,49,50,51,52,53,54,55,56,57,58,59,60,61,62,63],"tree_info":[0,0,0,0,0,0,0,0,0,0,0,0,0,0,0,0,0,0,0,0,0,0,0,0,0,0,0,0,0,0,0,0,0,0,0,0,0,0,0,0,0,0,0,0,0,0,0,0,0,0,0,0,0,0,0,0,0,0,0,0,0,0,0],"trees":[{"base_weights":[-4.7654686E-10,-9.066477E-2,4.2839104E-1,-1.1169687E-1,7.840621E-2,-1.15949795E-1,1.6563931E-2,-1.2862384E-1,-8.107734E-2,-1.3066918E-2,-3.427935E-3,-8.938216E-2,-1.2726843E-2,-9.908312E-2,-2.504706E-2,-5.050778E-3,3.3472055E-3,-1.0644056E-1,-5.0360247E-2,2.3020112E-3,-6.9536082E-3,-1.13524515E-2,-8.1243105E-3,-1.2900577E-3,-8.566982E-3],"categories":[],"categories_nodes":[],"categories_segments":[],"categories_sizes":[],"default_left":[0,0,0,0,0,0,0,0,0,0,0,0,0,0,0,0,0,0,0,0,0,0,0,0,0],"id":0,"left_children":[1,3,-1,5,-1,7,-1,9,11,-1,-1,13,15,17,19,-1,-1,21,23,-1,-1,-1,-1,-1,-1],"loss_changes":[1.4992229E2,7.041772E0,0E0,4.5561838E-1,0E0,1.5089226E-1,0E0,4.6849728E-2,5.5626214E-2,0E0,0E0,5.3064287E-2,2.2635851E-2,2.2242248E-2,2.9400729E-2,0E0,0E0,2.5577545E-3,1.476703E-2,0E0,0E0,0E0,0E0,0E0,0E0],"parents":[2147483647,0,0,1,1,3,3,5,5,7,7,8,8,11,11,12,12,13,13,14,14,17,17,18,18],"right_children":[2,4,-1,6,-1,8,-1,10,12,-1,-1,14,16,18,20,-1,-1,22,24,-1,-1,-1,-1,-1,-1],"split_conditions":[2E0,4.00303E-7,4.2839104E-1,2.35E2,7.840621E-2,4.3E1,1.6563931E-2,1E0,1E0,-1.3066918E-2,-3.427935E-3,2E0,4E0,1.202104E-1,2E0,-5.050778E-3,3.3472055E-3,2.2826628E-1,5.14E2,2.3020112E-3,-6.9536082E-3,-1.13524515E-2,-8.1243105E-3,-1.2900577E-3,-8.566982E-3],"split_indices":[43,16,0,1,0,1,0,75,38,0,0,58,61,6,127,0,0,3,0,0,0,0,0,0,0],"split_type":[0,0,0,0,0,0,0,0,0,0,0,0,0,0,0,0,0,0,0,0,0,0,0,0,0],"sum_hessian":[3.84E2,3.77E2,7E0,3.69E2,8E0,3.64E2,5E0,2.65E2,9.9E1,2.59E2,6E0,8.8E1,1.1E1,7.6E1,1.2E1,6E0,5E0,6.5E1,1.1E1,6E0,6E0,4.8E1,1.7E1,6E0,5E0],"tree_param":{"num_deleted":"0","num_feature":"412","num_nodes":"25","size_leaf_vector":"1"}},{"base_weights":[1.223835E-3,-7.1294144E-2,4.5938253E-1,-9.838299E-2,1.20063476E-1,-1.0539917E-1,3.4834E-2,-1.13837875E-1,-5.309669E-2,-1.1818831E-1,-5.598317E-2,-7.5152494E-2,2.8523345E-2,-1.20382875E-1,-9.3118865E-3,-9.03026E-5,-8.8971056E-2,-8.366137E-2,-1.0155676E-3,-1.3085057E-3,7.231259E-3,-1.2129373E-2,-6.935376E-3,-1.014959E-2,-5.326781E-3,-8.996748E-2,-3.6085204E-3,-9.483645E-3,-5.3062574E-3],"categories":[],"categories_nodes":[],"categories_segments":[],"categories_sizes":[],"default_left":[0,0,0,0,0,0,0,0,0,0,0,0,0,0,0,0,0,0,0,0,0,0,0,0,0,0,0,0,0],"id":1,"left_children":[1,3,-1,5,-1,7,-1,9,11,13,15,17,19,21,-1,-1,23,25,-1,-1,-1,-1,-1,-1,-1,27,-1,-1,-1],"loss_changes":[1.285503E2,1.3211052E1,0E0,1.2058046E0,0E0,1.5637827E-1,0E0,7.2918415E-2,9.755394E-2,4.909992E-3,4.3527104E-2,2.2378445E-2,2.2810219E-2,3.9515495E-3,0E0,0E0,1.3012141E-3,7.854283E-3,0E0,0E0,0E0,0E0,0E0,0E0,0E0,7.1775913E-4,0E0,0E0,0E0],"parents":[2147483647,0,0,1,1,3,3,5,5,7,7,8,8,9,9,10,10,11,11,12,12,13,13,16,16,17,17,25,25],"right_children":[2,4,-1,6,-1,8,-1,10,12,14,16,18,20,22,-1,-1,24,26,-1,-1,-1,-1,-1,-1,-1,28,-1,-1,-1],"split_conditions":[9.384744E-2,5E0,4.5938253E-1,6E0,1.20063476E-1,6.8E1,3.4834E-2,8.0471374E-8,1E0,1E0,1E0,1E0,2E0,1E0,-9.3118865E-3,-9.03026E-5,3E0,1.32E2,-1.0155676E-3,-1.3085057E-3,7.231259E-3,-1.2129373E-2,-6.935376E-3,-1.014959E-2,-5.326781E-3,1E0,-3.6085204E-3,-9.483645E-3,-5.3062574E-3],"split_indices":[12,26,0,76,0,1,0,4,38,134,83,202,191,75,0,0,27,1,0,0,0,0,0,0,0,246,0,0,0],"split_type":[0,0,0,0,0,0,0,0,0,0,0,0,0,0,0,0,0,0,0,0,0,0,0,0,0,0,0,0,0],"sum_hessian":[3.84E2,3.79E2,5E0,3.72E2,7E0,3.67E2,5E0,3.15E2,5.2E1,2.92E2,2.3E1,4.1E1,1.1E1,2.65E2,2.7E1,9E0,1.4E1,3.6E1,5E0,6E0,5E0,2.59E2,6E0,9E0,5E0,3.1E1,5E0,2.6E1,5E0],"tree_param":{"num_deleted":"0","num_feature":"412","num_nodes":"29","size_leaf_vector":"1"}},{"base_weights":[2.547806E-3,-6.664433E-2,4.3842918E-1,-9.78938E-2,1.0993753E-1,-1.0113178E-1,-9.453341E-4,-9.824048E-2,-2.324885E-2,-4.054386E-3,5.2010263E-3,-1.03767745E-1,-5.4841723E-2,-1.049617E-1,-2.5382587E-3,-7.185248E-2,6.7779573E-4,-1.0579521E-1,-4.5514624E-3,-2.8311908E-3,-8.2486026E-2,-1.1389732E-2,-9.883418E-3,-8.785664E-3,-4.9941186E-3],"categories":[],"categories_nodes":[],"categories_segments":[],"categories_sizes":[],"default_left":[0,0,0,0,0,0,0,0,0,0,0,0,0,0,0,0,0,0,0,0,0,0,0,0,0],"id":2,"left_children":[1,3,-1,5,-1,7,9,11,-1,-1,-1,13,15,17,-1,19,-1,21,-1,-1,23,-1,-1,-1,-1],"loss_changes":[1.1701735E2,1.3953867E1,0E0,1.16368055E-1,0E0,1.1350536E-1,2.9369224E-2,7.898569E-2,0E0,0E0,0E0,2.6535273E-2,4.4511303E-2,1.0396481E-2,0E0,1.2943342E-2,0E0,5.7754517E-3,0E0,0E0,1.5677512E-4,0E0,0E0,0E0,0E0],"parents":[2147483647,0,0,1,1,3,3,5,5,6,6,7,7,11,11,12,12,13,13,15,15,17,17,20,20],"right_children":[2,4,-1,6,-1,8,10,12,-1,-1,-1,14,16,18,-1,20,-1,22,-1,-1,24,-1,-1,-1,-1],"split_conditions":[3.138786E-2,3E0,4.3842918E-1,6E0,1.0993753E-1,2.6E1,4.8629425E-2,6.8E1,-2.324885E-2,-4.054386E-3,5.2010263E-3,1.5877983E-7,1E0,8E0,-2.5382587E-3,8.672805E-6,6.7779573E-4,1.8E1,-4.5514624E-3,-2.8311908E-3,7.923897E-9,-1.1389732E-2,-9.883418E-3,-8.785664E-3,-4.9941186E-3],"split_indices":[9,131,0,17,0,39,6,1,0,0,0,4,38,27,0,2,0,1,0,0,14,0,0,0,0],"split_type":[0,0,0,0,0,0,0,0,0,0,0,0,0,0,0,0,0,0,0,0,0,0,0,0,0],"sum_hessian":[3.84E2,3.79E2,5E0,3.7E2,9E0,3.58E2,1.2E1,3.52E2,6E0,7E0,5E0,3.11E2,4.1E1,3.06E2,5E0,3.2E1,9E0,3.01E2,5E0,7E0,2.5E1,1.32E2,1.69E2,2E1,5E0],"tree_param":{"num_deleted":"0","num_feature":"412","num_nodes":"25","size_leaf_vector":"1"}},{"base_weights":[3.5448929E-3,-6.217192E-2,4.165019E-1,-8.572066E-2,1.0435597E-1,-9.161354E-2,2.8999612E-2,-8.855666E-2,-2.6128588E-2,-9.127528E-2,-1.4307963E-3,-9.3686484E-2,-3.0857768E-2,-4.3317997E-3,4.7676074E-3,-9.172029E-2,-1.8719584E-2,2.429942E-3,-6.0866303E-3,-9.491753E-3,-5.977822E-3],"categories":[],"categories_nodes":[],"categories_segments":[],"categories_sizes":[],"default_left":[0,0,0,0,0,0,0,0,0,0,0,0,0,0,0,0,0,0,0,0,0],"id":3,"left_children":[1,3,-1,5,-1,7,-1,9,-1,11,13,15,17,-1,-1,19,-1,-1,-1,-1,-1],"loss_changes":[1.05548294E2,9.9841175E0,0E0,8.524096E-1,0E0,1.6773152E-1,0E0,8.585024E-2,0E0,4.8388004E-2,2.6748622E-2,4.497409E-2,2.6306808E-2,0E0,0E0,2.8333902E-2,0E0,0E0,0E0,0E0,0E0],"parents":[2147483647,0,0,1,1,3,3,5,5,7,7,9,9,10,10,11,11,12,12,15,15],"right_children":[2,4,-1,6,-1,8,-1,10,-1,12,14,16,18,-1,-1,20,-1,-1,-1,-1,-1],"split_conditions":[2E0,3E0,4.165019E-1,2E0,1.0435597E-1,1.9065507E-7,2.8999612E-2,6E0,-2.6128588E-2,1E0,4.8629425E-2,2E0,6.779416E-8,-4.3317997E-3,4.7676074E-3,6.8E1,-1.8719584E-2,2.429942E-3,-6.0866303E-3,-9.491753E-3,-5.977822E-3],"split_indices":[208,131,0,38,0,8,0,17,0,75,6,142,13,0,0,1,0,0,0,0,0],"split_type":[0,0,0,0,0,0,0,0,0,0,0,0,0,0,0,0,0,0,0,0,0],"sum_hessian":[3.84E2,3.79E2,5E0,3.72E2,7E0,3.67E2,5E0,3.62E2,5E0,3.51E2,1.1E1,3.37E2,1.4E1,6E0,5E0,3.32E2,5E0,5E0,9E0,3E2,3.2E1],"tree_param":{"num_deleted":"0","num_feature":"412","num_nodes":"21","size_leaf_vector":"1"}},{"base_weights":[4.4535664E-3,-6.766244E-2,3.4113783E-1,-8.1974365E-2,5.2823473E-2,-8.450272E-2,4.299655E-3,-8.1200205E-2,-2.408593E-2,-7.744142E-2,-2.1793526E-2,-8.454321E-2,-5.5417426E-2,-1.7403013E-3,-8.578173E-2,-6.0955737E-2,-1.1107821E-2,-8.66714E-3,-5.5139842E-3,-6.634485E-3,-1.2267549E-3,2.4327945E-3,-4.4692284E-3],"categories":[],"categories_nodes":[],"categories_segments":[],"categories_sizes":[],"default_left":[0,0,0,0,0,0,0,0,0,0,0,0,0,0,0,0,0,0,0,0,0,0,0],"id":4,"left_children":[1,3,-1,5,-1,7,-1,9,-1,11,-1,13,15,-1,17,19,21,-1,-1,-1,-1,-1,-1],"loss_changes":[9.482294E1,3.26705E0,0E0,1.20542526E-1,0E0,1.6788459E-1,0E0,1.6660547E-1,0E0,4.9901962E-2,0E0,2.0293474E-2,2.091813E-2,0E0,2.2269487E-3,1.9652247E-2,1.4178272E-2,0E0,0E0,0E0,0E0,0E0,0E0],"parents":[2147483647,0,0,1,1,3,3,5,5,7,7,9,9,11,11,12,12,14,14,15,15,16,16],"right_children":[2,4,-1,6,-1,8,-1,10,-1,12,-1,14,16,-1,18,20,22,-1,-1,-1,-1,-1,-1],"split_conditions":[2E0,4.00303E-7,3.4113783E-1,1.2E1,5.2823473E-2,2.7E1,4.299655E-3,9.558072E-8,-2.408593E-2,4.3E1,-2.1793526E-2,7.3E1,2E0,-1.7403013E-3,1E0,1E0,2E0,-8.66714E-3,-5.5139842E-3,-6.634485E-3,-1.2267549E-3,2.4327945E-3,-4.4692284E-3],"split_indices":[43,16,0,83,0,39,0,8,0,1,0,0,58,0,131,38,127,0,0,0,0,0,0],"split_type":[0,0,0,0,0,0,0,0,0,0,0,0,0,0,0,0,0,0,0,0,0,0,0],"sum_hessian":[3.84E2,3.77E2,7E0,3.69E2,8E0,3.62E2,7E0,3.56E2,6E0,3.48E2,8E0,2.61E2,8.7E1,5E0,2.56E2,7.7E1,1E1,2.47E2,9E0,6.9E1,8E0,5E0,5E0],"tree_param":{"num_deleted":"0","num_feature":"412","num_nodes":"23","size_leaf_vector":"1"}},{"base_weights":[4.856425E-3,-6.0193323E-2,3.526142E-1,-7.6561585E-2,7.0845485E-2,-7.420202E-2,-2.0812755E-2,-7.7819E-2,-1.9267038E-2,-7.546698E-2,-1.9773794E-2,-3.691335E-2,3.982412E-3,-7.9605475E-2,-3.724677E-2,-5.088964E-3,-1.9245727E-3,-7.604999E-2,-1.1989229E-1,3.9513335E-3,-5.3884063E-2,-7.858776E-3,-5.368849E-3,-2.4509035E-2,-6.128766E-3,5.4182103E-3,-4.693799E-3,-6.4926506E-3,-2.7039002E-3],"categories":[],"categories_nodes":[],"categories_segments":[],"categories_sizes":[],"default_left":[0,0,0,0,0,0,0,0,0,0,0,0,0,0,0,0,0,0,0,0,0,0,0,0,0,0,0,0,0],"id":5,"left_children":[1,3,-1,5,-1,7,-1,9,11,13,-1,15,-1,17,19,-1,-1,21,23,25,27,-1,-1,-1,-1,-1,-1,-1,-1],"loss_changes":[8.839986E1,4.822603E0,0E0,1.0003924E-1,0E0,7.1422815E-2,0E0,8.2102776E-2,2.6495825E-2,5.065608E-2,0E0,3.7122201E-3,0E0,3.4570098E-2,2.4202786E-2,0E0,0E0,1.1840463E-2,1.5373427E-1,3.0661508E-2,5.655326E-3,0E0,0E0,0E0,0E0,0E0,0E0,0E0,0E0],"parents":[2147483647,0,0,1,1,3,3,5,5,7,7,8,8,9,9,11,11,13,13,14,14,17,17,18,18,19,19,20,20],"right_children":[2,4,-1,6,-1,8,-1,10,12,14,-1,16,-1,18,20,-1,-1,22,24,26,28,-1,-1,-1,-1,-1,-1,-1,-1],"split_conditions":[7E0,4E0,3.526142E-1,8.794761E-3,7.0845485E-2,1.08E2,-2.0812755E-2,2.036557E-6,1E0,8.0471374E-8,-1.9773794E-2,1E0,3.982412E-3,1E0,1E0,-5.088964E-3,-1.9245727E-3,1E0,2.0048027E-8,1.9391651E-4,1E0,-7.858776E-3,-5.368849E-3,-2.4509035E-2,-6.128766E-3,5.4182103E-3,-4.693799E-3,-6.4926506E-3,-2.7039002E-3],"split_indices":[110,26,0,9,0,1,0,13,168,4,0,24,0,20,83,0,0,134,5,12,19,0,0,0,0,0,0,0,0],"split_type":[0,0,0,0,0,0,0,0,0,0,0,0,0,0,0,0,0,0,0,0,0,0,0,0,0,0,0,0,0],"sum_hessian":[3.84E2,3.78E2,6E0,3.71E2,7E0,3.66E2,5E0,3.43E2,2.3E1,3.38E2,5E0,1.8E1,5E0,3.04E2,3.4E1,9E0,9E0,2.82E2,2.2E1,1E1,2.4E1,2.51E2,3.1E1,6E0,1.6E1,5E0,5E0,1.6E1,8E0],"tree_param":{"num_deleted":"0","num_feature":"412","num_nodes":"29","size_leaf_vector":"1"}},{"base_weights":[5.221445E-3,-5.228327E-2,3.6463162E-1,-6.9485694E-2,5.9115496E-2,-6.582501E-2,-2.0941272E-2,-7.0431255E-2,-3.7553906E-2,-7.911503E-2,-5.651527E-2,-4.4495232E-2,2.4235675E-3,-7.215058E-2,-1.4990881E-1,-5.880168E-2,-2.1299708E-4,-5.242478E-2,9.43853E-4,-7.378018E-3,-3.804718E-3,-2.6034338E-2,-7.6043704E-3,-1.719282E-3,-6.087722E-2,-5.8008734E-2,-1.6218063E-3,-6.511353E-3,-4.0587145E-3,-6.3396464E-3,-2.6631518E-3],"categories":[],"categories_nodes":[],"categories_segments":[],"categories_sizes":[],"default_left":[0,0,0,0,0,0,0,0,0,0,0,0,0,0,0,0,0,0,0,0,0,0,0,0,0,0,0,0,0,0,0],"id":6,"left_children":[1,3,-1,5,-1,7,-1,9,11,13,15,17,-1,19,21,23,-1,25,-1,-1,-1,-1,-1,-1,27,29,-1,-1,-1,-1,-1],"loss_changes":[8.080198E1,4.2471814E0,0E0,1.7625248E-1,0E0,4.4626117E-2,0E0,3.3111095E-2,2.3810148E-2,8.236849E-2,1.5169442E-2,2.1022998E-2,0E0,6.862879E-3,1.107187E-1,9.143919E-3,0E0,7.5506195E-3,0E0,0E0,0E0,0E0,0E0,0E0,6.984234E-3,4.3975264E-3,0E0,0E0,0E0,0E0,0E0],"parents":[2147483647,0,0,1,1,3,3,5,5,7,7,8,8,9,9,10,10,11,11,13,13,14,14,15,15,17,17,24,24,25,25],"right_children":[2,4,-1,6,-1,8,-1,10,12,14,16,18,-1,20,22,24,-1,26,-1,-1,-1,-1,-1,-1,28,30,-1,-1,-1,-1,-1],"split_conditions":[3.138786E-2,3E0,3.6463162E-1,2.7E1,5.9115496E-2,1E0,-2.0941272E-2,1.7350928E-1,3.6289416E-2,2E0,1.4003339E-7,1E0,2.4235675E-3,1E0,1.0495885E-8,2.2657206E-8,-2.1299708E-4,1E0,9.43853E-4,-7.378018E-3,-3.804718E-3,-2.6034338E-2,-7.6043704E-3,-1.719282E-3,1E0,3E0,-1.6218063E-3,-6.511353E-3,-4.0587145E-3,-6.3396464E-3,-2.6631518E-3],"split_indices":[9,131,0,39,0,58,0,3,12,61,4,261,0,275,11,4,0,241,0,0,0,0,0,0,19,135,0,0,0,0,0],"split_type":[0,0,0,0,0,0,0,0,0,0,0,0,0,0,0,0,0,0,0,0,0,0,0,0,0,0,0,0,0,0,0],"sum_hessian":[3.84E2,3.79E2,5E0,3.7E2,9E0,3.62E2,8E0,3.1E2,5.2E1,1.88E2,1.22E2,4.7E1,5E0,1.73E2,1.5E1,1.17E2,5E0,4.1E1,6E0,1.64E2,9E0,5E0,1E1,6E0,1.11E2,3.5E1,6E0,9E1,2.1E1,2.9E1,6E0],"tree_param":{"num_deleted":"0","num_feature":"412","num_nodes":"31","size_leaf_vector":"1"}},{"base_weights":[5.5778064E-3,-4.954381E-2,3.4956837E-1,-6.697735E-2,4.9066624E-1,-5.9798513E-2,-4.913306E-2,-9.08416E-3,9.190064E-2,-5.761729E-2,-1.4966066E-2,-6.360411E-2,-3.1707052E-2,-6.5711565E-2,-9.481035E-3,-4.1302282E-2,2.9035048E-3,-6.315388E-2,-1.17144145E-1,3.2014044E-3,-4.3693813E-3,-4.8604198E-2,5.4756884E-4,-6.1534555E-3,-1.1450947E-2,-1.8429171E-2,-4.2854226E-3,-5.2721426E-3,-2.6039693E-3],"categories":[],"categories_nodes":[],"categories_segments":[],"categories_sizes":[],"default_left":[0,0,0,0,0,0,0,0,0,0,0,0,0,0,0,0,0,0,0,0,0,0,0,0,0,0,0,0,0],"id":7,"left_children":[1,3,-1,5,7,9,-1,-1,-1,11,-1,13,15,17,19,21,-1,23,25,-1,-1,27,-1,-1,-1,-1,-1,-1,-1],"loss_changes":[7.42396E1,3.6116178E0,0E0,1.0947269E0,3.0724819E0,6.272423E-2,0E0,0E0,0E0,5.336106E-2,0E0,3.2341003E-2,4.1414805E-2,2.9172301E-2,1.8434757E-2,2.0760253E-2,0E0,1.51577E-2,5.196297E-2,0E0,0E0,3.4581274E-3,0E0,0E0,0E0,0E0,0E0,0E0,0E0],"parents":[2147483647,0,0,1,1,3,3,4,4,5,5,9,9,11,11,12,12,13,13,14,14,15,15,17,17,18,18,21,21],"right_children":[2,4,-1,6,8,10,-1,-1,-1,12,-1,14,16,18,20,22,-1,24,26,-1,-1,28,-1,-1,-1,-1,-1,-1,-1],"split_conditions":[9.384744E-2,5.192493E-3,3.4956837E-1,7.182689E-7,7.3E1,1E0,-4.913306E-2,-9.08416E-3,9.190064E-2,2E0,-1.4966066E-2,1E0,1E0,1E0,6.779416E-8,2E0,2.9035048E-3,1E0,4.8998023E-9,3.2014044E-3,-4.3693813E-3,2.5946796E-1,5.4756884E-4,-6.1534555E-3,-1.1450947E-2,-1.8429171E-2,-4.2854226E-3,-5.2721426E-3,-2.6039693E-3],"split_indices":[12,15,0,10,1,254,0,0,0,17,0,75,113,43,13,36,0,161,11,0,0,3,0,0,0,0,0,0,0],"split_type":[0,0,0,0,0,0,0,0,0,0,0,0,0,0,0,0,0,0,0,0,0,0,0,0,0,0,0,0,0],"sum_hessian":[3.84E2,3.79E2,5E0,3.68E2,1.1E1,3.63E2,5E0,5E0,6E0,3.56E2,7E0,2.88E2,6.8E1,2.77E2,1.1E1,5.9E1,9E0,2.66E2,1.1E1,5E0,6E0,5.1E1,8E0,2.6E2,6E0,5E0,6E0,4.2E1,9E0],"tree_param":{"num_deleted":"0","num_feature":"412","num_nodes":"29","size_leaf_vector":"1"}},{"base_weights":[5.8573615E-3,-4.6344988E-2,3.31103E-1,-6.316672E-2,5.2369016E-1,-5.756995E-2,-3.931092E-2,9.885376E-2,-2.843904E-3,-5.284532E-2,-2.385836E-2,-5.656361E-2,-2.9948378E-2,-5.4164242E-2,-1.02738656E-1,-3.6138374E-2,2.3531313E-3,-5.27943E-2,-1.1089421E-2,-1.7419545E-2,-4.3685394E-3,-4.2313095E-2,1.3107745E-3,-5.600871E-3,-2.7958478E-3,-4.707761E-3,-1.1765141E-3],"categories":[],"categories_nodes":[],"categories_segments":[],"categories_sizes":[],"default_left":[0,0,0,0,0,0,0,0,0,0,0,0,0,0,0,0,0,0,0,0,0,0,0,0,0,0,0],"id":8,"left_children":[1,3,-1,5,7,9,-1,-1,-1,11,-1,13,15,17,19,21,-1,23,-1,-1,-1,25,-1,-1,-1,-1,-1],"loss_changes":[6.65805E1,3.6768918E0,0E0,6.6061544E-1,2.8513277E0,2.9954815E-1,0E0,0E0,0E0,2.8699994E-2,0E0,2.833718E-2,1.8064406E-2,1.6916454E-2,5.1466778E-2,1.4846437E-2,0E0,2.1425784E-2,0E0,0E0,0E0,5.5590793E-3,0E0,0E0,0E0,0E0,0E0],"parents":[2147483647,0,0,1,1,3,3,4,4,5,5,9,9,11,11,12,12,13,13,14,14,15,15,17,17,21,21],"right_children":[2,4,-1,6,8,10,-1,-1,-1,12,-1,14,16,18,20,22,-1,24,-1,-1,-1,26,-1,-1,-1,-1,-1],"split_conditions":[3E0,2.4834316E-7,3.31103E-1,4.965527E-7,2.6434536E-6,2.7E1,-3.931092E-2,9.885376E-2,-2.843904E-3,1E0,-2.385836E-2,1E0,3.6289416E-2,4.2107207E-8,1.18802525E-1,1E0,2.3531313E-3,1E0,-1.1089421E-2,-1.7419545E-2,-4.3685394E-3,1E0,1.3107745E-3,-5.600871E-3,-2.7958478E-3,-4.707761E-3,-1.1765141E-3],"split_indices":[253,16,0,10,7,39,0,0,0,58,0,43,12,8,3,261,0,134,0,0,0,241,0,0,0,0,0],"split_type":[0,0,0,0,0,0,0,0,0,0,0,0,0,0,0,0,0,0,0,0,0,0,0,0,0,0,0],"sum_hessian":[3.84E2,3.79E2,5E0,3.69E2,1E1,3.64E2,5E0,5E0,5E0,3.56E2,8E0,3.05E2,5.1E1,2.92E2,1.3E1,4.6E1,5E0,2.87E2,5E0,5E0,8E0,4.1E1,5E0,2.53E2,3.4E1,3.5E1,6E0],"tree_param":{"num_deleted":"0","num_feature":"412","num_nodes":"27","size_leaf_vector":"1"}},{"base_weights":[6.103959E-3,-4.327748E-2,3.1325778E-1,-5.758302E-2,4.0022442E-1,-4.945479E-2,-5.4109853E-2,-4.7749723E-3,8.561569E-2,-4.610627E-2,-2.4156524E-2,-4.74344E-2,3.993766E-3,-4.483002E-2,-9.0994254E-2,-5.006748E-2,-2.9022668E-2,-1.9467724E-2,-4.00591E-3,-5.12084E-3,-2.982852E-4,-3.2147355E-3,1.7997734E-3],"categories":[],"categories_nodes":[],"categories_segments":[],"categories_sizes":[],"default_left":[0,0,0,0,0,0,0,0,0,0,0,0,0,0,0,0,0,0,0,0,0,0,0],"id":9,"left_children":[1,3,-1,5,7,9,-1,-1,-1,11,-1,13,-1,15,17,19,21,-1,-1,-1,-1,-1,-1],"loss_changes":[5.9575626E1,2.4339695E0,0E0,1.4234567E0,2.4918323E0,2.2301799E-1,0E0,0E0,0E0,4.2920053E-2,0E0,3.6080718E-2,0E0,2.6364505E-2,9.2542484E-2,1.3330877E-2,1.3214052E-2,0E0,0E0,0E0,0E0,0E0,0E0],"parents":[2147483647,0,0,1,1,3,3,4,4,5,5,9,9,11,11,13,13,14,14,15,15,16,16],"right_children":[2,4,-1,6,8,10,-1,-1,-1,12,-1,14,-1,16,18,20,22,-1,-1,-1,-1,-1,-1],"split_conditions":[2E0,5.192493E-3,3.1325778E-1,7.182689E-7,8E0,2E0,-5.4109853E-2,-4.7749723E-3,8.561569E-2,2.0688933E-7,-2.4156524E-2,1E0,3.993766E-3,4.3E1,4.07E2,1E0,1.4047551E-1,-1.9467724E-2,-4.00591E-3,-5.12084E-3,-2.982852E-4,-3.2147355E-3,1.7997734E-3],"split_indices":[208,15,0,10,23,142,0,0,0,10,0,43,0,1,0,75,6,0,0,0,0,0,0],"split_type":[0,0,0,0,0,0,0,0,0,0,0,0,0,0,0,0,0,0,0,0,0,0,0],"sum_hessian":[3.84E2,3.79E2,5E0,3.68E2,1.1E1,3.63E2,5E0,6E0,5E0,3.58E2,5E0,3.53E2,5E0,3.35E2,1.8E1,2.5E2,8.5E1,5E0,1.3E1,2.44E2,6E0,8E1,5E0],"tree_param":{"num_deleted":"0","num_feature":"412","num_nodes":"23","size_leaf_vector":"1"}},{"base_weights":[6.2455614E-3,-4.123968E-2,3.0126032E-1,-5.260571E-2,3.1170243E-1,-4.5298792E-2,-4.240065E-2,-4.365689E-3,6.743379E-2,-4.2120937E-2,-2.2736114E-2,-4.3358274E-2,3.769581E-3,-5.6048825E-2,-3.75353E-2,-4.9031395E-2,-1.51298335E-2,-3.592559E-2,-9.566787E-3,-5.1883436E-3,-8.678037E-4,-3.9050735E-3,-1.0869078E-3],"categories":[],"categories_nodes":[],"categories_segments":[],"categories_sizes":[],"default_left":[0,0,0,0,0,0,0,0,0,0,0,0,0,0,0,0,0,0,0,0,0,0,0],"id":10,"left_children":[1,3,-1,5,7,9,-1,-1,-1,11,-1,13,-1,15,17,19,-1,21,-1,-1,-1,-1,-1],"loss_changes":[5.5085922E1,1.5407867E0,0E0,9.8218334E-1,1.5758301E0,2.0044357E-1,0E0,0E0,0E0,3.6990523E-2,0E0,2.398175E-2,0E0,6.5438E-2,1.9489348E-2,1.1403933E-2,0E0,1.836884E-2,0E0,0E0,0E0,0E0,0E0],"parents":[2147483647,0,0,1,1,3,3,4,4,5,5,9,9,11,11,13,13,14,14,15,15,17,17],"right_children":[2,4,-1,6,8,10,-1,-1,-1,12,-1,14,-1,16,18,20,-1,22,-1,-1,-1,-1,-1],"split_conditions":[3.138786E-2,5.192493E-3,3.0126032E-1,3E0,1.41E2,7.130531E-2,-4.240065E-2,-4.365689E-3,6.743379E-2,1.2E1,-2.2736114E-2,5.309958E-6,3.769581E-3,4.6159207E-6,1E0,1.3089553E-2,-1.51298335E-2,8.888763E-8,-9.566787E-3,-5.1883436E-3,-8.678037E-4,-3.9050735E-3,-1.0869078E-3],"split_indices":[9,15,0,238,1,12,0,0,0,83,0,2,0,7,72,12,0,4,0,0,0,0,0],"split_type":[0,0,0,0,0,0,0,0,0,0,0,0,0,0,0,0,0,0,0,0,0,0,0],"sum_hessian":[3.84E2,3.79E2,5E0,3.68E2,1.1E1,3.62E2,6E0,6E0,5E0,3.57E2,5E0,3.52E2,5E0,1.08E2,2.44E2,1.02E2,6E0,2.39E2,5E0,9.5E1,7E0,2.12E2,2.7E1],"tree_param":{"num_deleted":"0","num_feature":"412","num_nodes":"23","size_leaf_vector":"1"}},{"base_weights":[6.3150763E-3,-3.8929775E-2,2.8707698E-1,-4.9572717E-2,2.9158485E-1,-4.0681697E-2,-5.806991E-2,-3.9914874E-3,6.29737E-2,-3.784436E-2,-1.799795E-2,-3.5496786E-2,-8.021539E-2,-4.04455E-2,-2.1030262E-2,-1.6972698E-2,-3.2731935E-3,4.7690162E-4,-4.137631E-2,-2.696566E-2,-5.267972E-4,-4.223109E-3,-1.9120498E-3,9.24141E-4,-3.2550746E-3,2.1267447E-3,-2.2273152E-3],"categories":[],"categories_nodes":[],"categories_segments":[],"categories_sizes":[],"default_left":[0,0,0,0,0,0,0,0,0,0,0,0,0,0,0,0,0,0,0,0,0,0,0,0,0,0,0],"id":11,"left_children":[1,3,-1,5,7,9,-1,-1,-1,11,-1,13,15,17,19,-1,-1,-1,21,23,25,-1,-1,-1,-1,-1,-1],"loss_changes":[5.0008465E1,1.351161E0,0E0,1.7188879E0,1.370304E0,1.3705426E-1,0E0,0E0,0E0,3.2762527E-2,0E0,2.3561835E-2,7.0950255E-2,1.08451545E-2,1.081676E-2,0E0,0E0,0E0,3.910452E-3,1.4253963E-2,1.04265455E-2,0E0,0E0,0E0,0E0,0E0,0E0],"parents":[2147483647,0,0,1,1,3,3,4,4,5,5,9,9,11,11,12,12,13,13,14,14,18,18,19,19,20,20],"right_children":[2,4,-1,6,8,10,-1,-1,-1,12,-1,14,16,18,20,-1,-1,-1,22,24,26,-1,-1,-1,-1,-1,-1],"split_conditions":[9.384744E-2,5.192493E-3,2.8707698E-1,7.182689E-7,8E0,4E0,-5.806991E-2,-3.9914874E-3,6.29737E-2,1E0,-1.799795E-2,4.3E1,1.9142187E-8,7.3E1,1E0,-1.6972698E-2,-3.2731935E-3,4.7690162E-4,1E0,1E0,1E0,-4.223109E-3,-1.9120498E-3,9.24141E-4,-3.2550746E-3,2.1267447E-3,-2.2273152E-3],"split_indices":[12,15,0,10,23,210,0,0,0,43,0,1,5,0,19,0,0,0,228,27,34,0,0,0,0,0,0],"split_type":[0,0,0,0,0,0,0,0,0,0,0,0,0,0,0,0,0,0,0,0,0,0,0,0,0,0,0],"sum_hessian":[3.84E2,3.79E2,5E0,3.68E2,1.1E1,3.63E2,5E0,6E0,5E0,3.57E2,6E0,3.4E2,1.7E1,2.52E2,8.8E1,5E0,1.2E1,5E0,2.47E2,6.8E1,2E1,2.37E2,1E1,9E0,5.9E1,1E1,1E1],"tree_param":{"num_deleted":"0","num_feature":"412","num_nodes":"27","size_leaf_vector":"1"}},{"base_weights":[6.3112443E-3,-3.7545018E-2,2.7828225E-1,-4.6898406E-2,3.5323348E-2,-4.099926E-2,-3.999131E-2,-3.4948677E-2,-2.7779493E-2,-3.3150803E-2,-1.2062014E-2,-3.4469023E-2,4.8831017E-3,-4.7885094E-2,-2.9168118E-2,-4.040331E-3,-1.546249E-2,-3.0531792E-3,1.624043E-3],"categories":[],"categories_nodes":[],"categories_segments":[],"categories_sizes":[],"default_left":[0,0,0,0,0,0,0,0,0,0,0,0,0,0,0,0,0,0,0],"id":12,"left_children":[1,3,-1,5,-1,7,-1,9,-1,11,-1,13,-1,15,17,-1,-1,-1,-1],"loss_changes":[4.6984936E1,1.4055055E0,0E0,7.5828844E-1,0E0,5.161116E-1,0E0,5.129677E-2,0E0,3.9831877E-2,0E0,2.3352116E-2,0E0,7.121721E-2,1.6100317E-2,0E0,0E0,0E0,0E0],"parents":[2147483647,0,0,1,1,3,3,5,5,7,7,9,9,11,11,13,13,14,14],"right_children":[2,4,-1,6,-1,8,-1,10,-1,12,-1,14,-1,16,18,-1,-1,-1,-1],"split_conditions":[3E0,4.00303E-7,2.7828225E-1,8.794761E-3,3.5323348E-2,2.7E1,-3.999131E-2,3E0,-2.7779493E-2,1.7E1,-1.2062014E-2,5.129618E-6,4.8831017E-3,5.0516605E-6,1.5766882E-7,-4.040331E-3,-1.546249E-2,-3.0531792E-3,1.624043E-3],"split_indices":[253,16,0,9,0,39,0,210,0,27,0,2,0,2,4,0,0,0,0],"split_type":[0,0,0,0,0,0,0,0,0,0,0,0,0,0,0,0,0,0,0],"sum_hessian":[3.84E2,3.79E2,5E0,3.71E2,8E0,3.66E2,5E0,3.58E2,8E0,3.52E2,6E0,3.47E2,5E0,9.6E1,2.51E2,9.1E1,5E0,2.44E2,7E0],"tree_param":{"num_deleted":"0","num_feature":"412","num_nodes":"19","size_leaf_vector":"1"}},{"base_weights":[6.2456387E-3,-3.536739E-2,2.6406965E-1,-4.4124424E-2,5.1784195E-2,-3.6227394E-2,-5.2375395E-2,-3.2036386E-2,-2.8514255E-2,-3.3572953E-2,6.5497146E-3,-3.1909697E-2,-1.2638696E-2,-3.046265E-2,-1.1100234E-2,-3.7109356E-3,-1.8928921E-3],"categories":[],"categories_nodes":[],"categories_segments":[],"categories_sizes":[],"default_left":[0,0,0,0,0,0,0,0,0,0,0,0,0,0,0,0,0],"id":13,"left_children":[1,3,-1,5,-1,7,-1,9,-1,11,-1,13,-1,15,-1,-1,-1],"loss_changes":[4.229997E1,1.8637497E0,0E0,1.4013944E0,0E0,3.7685114E-1,0E0,5.6900352E-2,0E0,5.1541597E-2,0E0,3.724855E-2,0E0,2.6129007E-2,0E0,0E0,0E0],"parents":[2147483647,0,0,1,1,3,3,5,5,7,7,9,9,11,11,13,13],"right_children":[2,4,-1,6,-1,8,-1,10,-1,12,-1,14,-1,16,-1,-1,-1],"split_conditions":[1.1E1,5E0,2.6406965E-1,7.002835E-7,5.1784195E-2,2E0,-5.2375395E-2,4E0,-2.8514255E-2,3E0,6.5497146E-3,7.6302765E-3,-1.2638696E-2,2E0,-1.1100234E-2,-3.7109356E-3,-1.8928921E-3],"split_indices":[76,26,0,10,0,142,0,74,0,210,0,15,0,23,0,0,0],"split_type":[0,0,0,0,0,0,0,0,0,0,0,0,0,0,0,0,0],"sum_hessian":[3.84E2,3.79E2,5E0,3.74E2,5E0,3.69E2,5E0,3.64E2,5E0,3.59E2,5E0,3.54E2,5E0,3.49E2,5E0,2.2E2,1.29E2],"tree_param":{"num_deleted":"0","num_feature":"412","num_nodes":"17","size_leaf_vector":"1"}},{"base_weights":[6.1721634E-3,-3.3381496E-2,2.5102088E-1,-2.58356E-2,-4.3177914E-2,-3.3549067E-2,4.528485E-2,-2.9241506E-2,-2.8928284E-2,-2.7523411E-2,-1.0225635E-2,-2.8650932E-2,4.3211794E-3,-2.74658E-2,-9.241592E-3,-4.024464E-3,-2.2628491E-3],"categories":[],"categories_nodes":[],"categories_segments":[],"categories_sizes":[],"default_left":[0,0,0,0,0,0,0,0,0,0,0,0,0,0,0,0,0],"id":14,"left_children":[1,3,-1,5,-1,7,-1,9,-1,11,-1,13,-1,15,-1,-1,-1],"loss_changes":[3.8215656E1,1.1312264E0,0E0,1.3961178E0,0E0,3.980271E-1,0E0,4.284808E-2,0E0,2.971077E-2,0E0,2.4062365E-2,0E0,2.0539194E-2,0E0,0E0,0E0],"parents":[2147483647,0,0,1,1,3,3,5,5,7,7,9,9,11,11,13,13],"right_children":[2,4,-1,6,-1,8,-1,10,-1,12,-1,14,-1,16,-1,-1,-1],"split_conditions":[3.138786E-2,3.42E2,2.5102088E-1,2.17E2,-4.3177914E-2,2.6E1,4.528485E-2,1E0,-2.8928284E-2,5.109259E-3,-1.0225635E-2,4.00303E-7,4.3211794E-3,5.09935E-6,-9.241592E-3,-4.024464E-3,-2.2628491E-3],"split_indices":[9,1,0,1,0,39,0,153,0,9,0,16,0,2,0,0,0],"split_type":[0,0,0,0,0,0,0,0,0,0,0,0,0,0,0,0,0],"sum_hessian":[3.84E2,3.79E2,5E0,3.73E2,6E0,3.68E2,5E0,3.63E2,5E0,3.56E2,7E0,3.51E2,5E0,3.46E2,5E0,9.3E1,2.53E2],"tree_param":{"num_deleted":"0","num_feature":"412","num_nodes":"17","size_leaf_vector":"1"}},{"base_weights":[6.081612E-3,-3.818285E-2,2.0968173E-1,-3.0403653E-2,-5.154259E-2,-2.4472948E-2,-2.675485E-2,-2.2866353E-2,-9.330892E-3,-2.3863511E-2,3.9610816E-3,-2.2745783E-2,-8.471459E-3,-2.4779286E-2,-4.433762E-3,-2.7157897E-3,-1.0382618E-3,3.587228E-3,-2.131579E-3],"categories":[],"categories_nodes":[],"categories_segments":[],"categories_sizes":[],"default_left":[0,0,0,0,0,0,0,0,0,0,0,0,0,0,0,0,0,0,0],"id":15,"left_children":[1,3,-1,5,-1,7,-1,9,-1,11,-1,13,-1,15,17,-1,-1,-1,-1],"loss_changes":[3.5710003E1,1.3876802E0,0E0,5.1805294E-1,0E0,3.8232237E-2,0E0,2.3248509E-2,0E0,2.2082418E-2,0E0,1.2848824E-2,0E0,1.0436431E-2,2.5260763E-2,0E0,0E0,0E0,0E0],"parents":[2147483647,0,0,1,1,3,3,5,5,7,7,9,9,11,11,13,13,14,14],"right_children":[2,4,-1,6,-1,8,-1,10,-1,12,-1,14,-1,16,18,-1,-1,-1,-1],"split_conditions":[2E0,5.735465E-7,2.0968173E-1,2.7E1,-5.154259E-2,1E0,-2.675485E-2,5.109259E-3,-9.330892E-3,4.00303E-7,3.9610816E-3,8.888763E-8,-8.471459E-3,1.12170875E-2,2.317998E-4,-2.7157897E-3,-1.0382618E-3,3.587228E-3,-2.131579E-3],"split_indices":[43,8,0,39,0,153,0,9,0,16,0,4,0,12,12,0,0,0,0],"split_type":[0,0,0,0,0,0,0,0,0,0,0,0,0,0,0,0,0,0,0],"sum_hessian":[3.84E2,3.77E2,7E0,3.72E2,5E0,3.64E2,8E0,3.57E2,7E0,3.52E2,5E0,3.47E2,5E0,3.12E2,3.5E1,2.67E2,4.5E1,1E1,2.5E1],"tree_param":{"num_deleted":"0","num_feature":"412","num_nodes":"19","size_leaf_vector":"1"}},{"base_weights":[5.7727876E-3,-3.146437E-2,2.363164E-1,-2.4687368E-2,-4.49783E-2,-3.0540302E-2,3.4035802E-2,-2.5593607E-2,-3.263742E-2,-2.320638E-2,-1.6456159E-2,-2.5231816E-2,8.253796E-3,-2.3716375E-2,-1.0917464E-2,-2.12914E-3,-7.2855414E-3],"categories":[],"categories_nodes":[],"categories_segments":[],"categories_sizes":[],"default_left":[0,0,0,0,0,0,0,0,0,0,0,0,0,0,0,0,0],"id":16,"left_children":[1,3,-1,5,-1,7,-1,9,-1,11,-1,13,-1,15,-1,-1,-1],"loss_changes":[3.387064E1,1.0661755E0,0E0,8.116144E-1,0E0,5.33105E-1,0E0,1.1726914E-1,0E0,7.918674E-2,0E0,4.2443246E-2,0E0,4.0035963E-2,0E0,0E0,0E0],"parents":[2147483647,0,0,1,1,3,3,5,5,7,7,9,9,11,11,13,13],"right_children":[2,4,-1,6,-1,8,-1,10,-1,12,-1,14,-1,16,-1,-1,-1],"split_conditions":[3E0,1E0,2.363164E-1,5E0,-4.49783E-2,3.8190325E-7,3.4035802E-2,1E0,-3.263742E-2,5E0,-1.6456159E-2,9.558072E-8,8.253796E-3,1E0,-1.0917464E-2,-2.12914E-3,-7.2855414E-3],"split_indices":[253,308,0,26,0,10,0,340,0,76,0,8,0,43,0,0,0],"split_type":[0,0,0,0,0,0,0,0,0,0,0,0,0,0,0,0,0],"sum_hessian":[3.84E2,3.79E2,5E0,3.74E2,5E0,3.69E2,5E0,3.64E2,5E0,3.59E2,5E0,3.53E2,6E0,3.48E2,5E0,3.33E2,1.5E1],"tree_param":{"num_deleted":"0","num_feature":"412","num_nodes":"17","size_leaf_vector":"1"}},{"base_weights":[5.6220065E-3,-2.9319668E-2,2.2176579E-1,-1.8795988E-2,-5.873964E-2,-1.3766339E-2,-3.2498673E-2,-1.9532174E-2,3.3832207E-2,-2.0726135E-2,5.5161896E-3,-1.8670784E-2,-5.8626372E-2,-2.1369526E-2,-1.2771924E-3,-1.610005E-2,-6.8670516E-3,-2.0138666E-3,-7.7504697E-3,-2.9203037E-3,8.0669E-4,4.7687112E-4,-1.7521809E-3],"categories":[],"categories_nodes":[],"categories_segments":[],"categories_sizes":[],"default_left":[0,0,0,0,0,0,0,0,0,0,0,0,0,0,0,0,0,0,0,0,0,0,0],"id":17,"left_children":[1,3,-1,5,-1,7,-1,9,-1,11,-1,13,15,17,19,-1,21,-1,-1,-1,-1,-1,-1],"loss_changes":[2.982253E1,2.2207074E0,0E0,5.7149804E-1,0E0,7.5570905E-1,0E0,3.3605486E-2,0E0,2.6870891E-2,0E0,1.6026482E-2,9.427309E-2,1.8891156E-2,1.2499836E-2,0E0,1.695247E-3,0E0,0E0,0E0,0E0,0E0,0E0],"parents":[2147483647,0,0,1,1,3,3,5,5,7,7,9,9,11,11,12,12,13,13,14,14,16,16],"right_children":[2,4,-1,6,-1,8,-1,10,-1,12,-1,14,16,18,20,-1,22,-1,-1,-1,-1,-1,-1],"split_conditions":[9.384744E-2,7.182689E-7,2.2176579E-1,3E0,-5.873964E-2,2.35E2,-3.2498673E-2,2.0688933E-7,3.3832207E-2,1E0,5.5161896E-3,1E0,1.5E1,2.7229427E-3,3E1,-1.610005E-2,2E0,-2.0138666E-3,-7.7504697E-3,-2.9203037E-3,8.0669E-4,4.7687112E-4,-1.7521809E-3],"split_indices":[12,10,0,238,0,1,0,10,0,43,0,58,1,15,1,0,49,0,0,0,0,0,0],"split_type":[0,0,0,0,0,0,0,0,0,0,0,0,0,0,0,0,0,0,0,0,0,0,0],"sum_hessian":[3.84E2,3.79E2,5E0,3.73E2,6E0,3.68E2,5E0,3.63E2,5E0,3.58E2,5E0,3.41E2,1.7E1,2.95E2,4.6E1,5E0,1.2E1,2.9E2,5E0,1.1E1,3.5E1,6E0,6E0],"tree_param":{"num_deleted":"0","num_feature":"412","num_nodes":"23","size_leaf_vector":"1"}},{"base_weights":[5.4250606E-3,-2.8273838E-2,2.1387844E-1,-1.9985398E-2,-4.6707418E-2,-2.5427908E-2,3.1805977E-2,-1.9927666E-2,-3.5487127E-2,-1.7743686E-2,-1.2877578E-2,-1.566603E-2,-6.1174445E-2,-1.7221097E-2,3.7839746E-3,-1.5677368E-2,-3.4680946E-3,-1.9532607E-3,2.4556523E-4,6.7134947E-4,-1.3071669E-3],"categories":[],"categories_nodes":[],"categories_segments":[],"categories_sizes":[],"default_left":[0,0,0,0,0,0,0,0,0,0,0,0,0,0,0,0,0,0,0,0,0],"id":18,"left_children":[1,3,-1,5,-1,7,-1,9,-1,11,-1,13,15,17,-1,-1,19,-1,-1,-1,-1],"loss_changes":[2.7738838E1,1.3727138E0,0E0,6.961779E-1,0E0,6.61563E-1,0E0,8.424583E-2,0E0,3.1345457E-2,0E0,2.9190943E-2,8.7723225E-2,1.5239298E-2,0E0,0E0,1.1633326E-3,0E0,0E0,0E0,0E0],"parents":[2147483647,0,0,1,1,3,3,5,5,7,7,9,9,11,11,12,12,13,13,16,16],"right_children":[2,4,-1,6,-1,8,-1,10,-1,12,-1,14,16,18,-1,-1,20,-1,-1,-1,-1],"split_conditions":[3.138786E-2,3.42E2,2.1387844E-1,2.17E2,-4.6707418E-2,7.1689524E-2,3.1805977E-2,2E0,-3.5487127E-2,1E0,-1.2877578E-2,2.7951996E-3,4.34E2,6.9E1,3.7839746E-3,-1.5677368E-2,2.340976E-8,-1.9532607E-3,2.4556523E-4,6.7134947E-4,-1.3071669E-3],"split_indices":[9,1,0,1,0,12,0,238,0,43,0,9,0,1,0,0,11,0,0,0,0],"split_type":[0,0,0,0,0,0,0,0,0,0,0,0,0,0,0,0,0,0,0,0,0],"sum_hessian":[3.84E2,3.79E2,5E0,3.73E2,6E0,3.68E2,5E0,3.63E2,5E0,3.57E2,6E0,3.42E2,1.5E1,3.33E2,9E0,5E0,1E1,2.98E2,3.5E1,5E0,5E0],"tree_param":{"num_deleted":"0","num_feature":"412","num_nodes":"21","size_leaf_vector":"1"}},{"base_weights":[5.236774E-3,-2.760724E-2,2.0844848E-1,-1.6657488E-2,-6.0869284E-2,-2.167963E-2,2.9498046E-2,-1.6615361E-2,-3.252987E-2,-1.5173265E-2,-1.0013162E-2,-3.421423E-2,-1.1314495E-2,-1.9771857E-2,-1.6090024E-2,-1.2398207E-2,4.3853787E-3,-2.2122005E-3,3.108016E-4,-1.3869993E-3,1.1021489E-3],"categories":[],"categories_nodes":[],"categories_segments":[],"categories_sizes":[],"default_left":[0,0,0,0,0,0,0,0,0,0,0,0,0,0,0,0,0,0,0,0,0],"id":19,"left_children":[1,3,-1,5,-1,7,-1,9,-1,11,-1,13,15,17,-1,19,-1,-1,-1,-1,-1],"loss_changes":[2.6349522E1,2.4077024E0,0E0,5.917387E-1,0E0,5.6197256E-1,0E0,4.232031E-2,0E0,2.5990307E-2,0E0,1.0659747E-1,1.8479671E-2,3.026165E-3,0E0,1.0321155E-2,0E0,0E0,0E0,0E0,0E0],"parents":[2147483647,0,0,1,1,3,3,5,5,7,7,9,9,11,11,12,12,13,13,15,15],"right_children":[2,4,-1,6,-1,8,-1,10,-1,12,-1,14,16,18,-1,20,-1,-1,-1,-1,-1],"split_conditions":[2E0,7.182689E-7,2.0844848E-1,2.35E2,-6.0869284E-2,7.1689524E-2,2.9498046E-2,4.00303E-7,-3.252987E-2,1.9665825E-8,-1.0013162E-2,1.9455932E-8,3.8134232E-3,1E0,-1.6090024E-2,1E0,4.3853787E-3,-2.2122005E-3,3.108016E-4,-1.3869993E-3,1.1021489E-3],"split_indices":[208,10,0,1,0,12,0,16,0,4,0,4,9,105,0,228,0,0,0,0,0],"split_type":[0,0,0,0,0,0,0,0,0,0,0,0,0,0,0,0,0,0,0,0,0],"sum_hessian":[3.84E2,3.79E2,5E0,3.73E2,6E0,3.68E2,5E0,3.63E2,5E0,3.58E2,5E0,5.9E1,2.99E2,5.4E1,5E0,2.94E2,5E0,4.9E1,5E0,2.77E2,1.7E1],"tree_param":{"num_deleted":"0","num_feature":"412","num_nodes":"21","size_leaf_vector":"1"}},{"base_weights":[5.0264564E-3,-2.6742244E-2,2.0162065E-1,-2.0137634E-2,-4.350734E-2,-1.5336014E-2,-3.1288117E-2,-1.0610057E-2,-3.0027574E-2,-1.555673E-2,2.1207983E-2,-1.3032788E-2,-6.541741E-2,-1.4249079E-2,2.877296E-3,-1.8132402E-2,-2.0126654E-3,-1.6712751E-3,2.3126019E-4,7.032547E-4,-9.478181E-4],"categories":[],"categories_nodes":[],"categories_segments":[],"categories_sizes":[],"default_left":[0,0,0,0,0,0,0,0,0,0,0,0,0,0,0,0,0,0,0,0,0],"id":20,"left_children":[1,3,-1,5,-1,7,-1,9,-1,11,-1,13,15,17,-1,-1,19,-1,-1,-1,-1],"loss_changes":[2.465256E1,1.0160487E0,0E0,5.2231777E-1,0E0,4.950608E-1,0E0,4.0537384E-1,0E0,4.4200107E-2,0E0,1.7799981E-2,1.24568515E-1,1.36258975E-2,0E0,0E0,8.769818E-4,0E0,0E0,0E0,0E0],"parents":[2147483647,0,0,1,1,3,3,5,5,7,7,9,9,11,11,12,12,13,13,16,16],"right_children":[2,4,-1,6,-1,8,-1,10,-1,12,-1,14,16,18,-1,-1,20,-1,-1,-1,-1],"split_conditions":[3E0,2.6324332E-7,2.0162065E-1,3E0,-4.350734E-2,2E0,-3.1288117E-2,2E0,-3.0027574E-2,1E0,2.1207983E-2,1.4611096E-7,4.07E2,1E0,2.877296E-3,-1.8132402E-2,2.340976E-8,-1.6712751E-3,2.3126019E-4,7.032547E-4,-9.478181E-4],"split_indices":[253,8,0,238,0,142,0,238,0,43,0,4,0,26,0,0,11,0,0,0,0],"split_type":[0,0,0,0,0,0,0,0,0,0,0,0,0,0,0,0,0,0,0,0,0],"sum_hessian":[3.84E2,3.79E2,5E0,3.74E2,5E0,3.69E2,5E0,3.64E2,5E0,3.57E2,7E0,3.41E2,1.6E1,3.32E2,9E0,5E0,1.1E1,2.89E2,4.3E1,5E0,6E0],"tree_param":{"num_deleted":"0","num_feature":"412","num_nodes":"21","size_leaf_vector":"1"}},{"base_weights":[4.786321E-3,-3.0036597E-2,1.6495709E-1,-1.943276E-2,-5.8926374E-2,-1.3874E-2,-3.5620485E-2,-9.106746E-3,-2.99186E-2,-1.3647393E-2,1.9352283E-2,-1.21771805E-2,-9.713523E-3,-1.3392166E-2,4.9270275E-3,-1.1608053E-3,-4.924098E-3],"categories":[],"categories_nodes":[],"categories_segments":[],"categories_sizes":[],"default_left":[0,0,0,0,0,0,0,0,0,0,0,0,0,0,0,0,0],"id":21,"left_children":[1,3,-1,5,-1,7,-1,9,-1,11,-1,13,-1,15,-1,-1,-1],"loss_changes":[2.2100883E1,2.2300708E0,0E0,6.9145525E-1,0E0,4.9645215E-1,0E0,3.3570623E-1,0E0,4.23916E-2,0E0,2.6790053E-2,0E0,2.1430075E-2,0E0,0E0,0E0],"parents":[2147483647,0,0,1,1,3,3,5,5,7,7,9,9,11,11,13,13],"right_children":[2,4,-1,6,-1,8,-1,10,-1,12,-1,14,-1,16,-1,-1,-1],"split_conditions":[1E0,7.182689E-7,1.6495709E-1,3E0,-5.8926374E-2,5.9297927E-2,-3.5620485E-2,2E0,-2.99186E-2,7.6302765E-3,1.9352283E-2,3.6289416E-2,-9.713523E-3,1E0,4.9270275E-3,-1.1608053E-3,-4.924098E-3],"split_indices":[269,10,0,238,0,12,0,238,0,15,0,12,0,43,0,0,0],"split_type":[0,0,0,0,0,0,0,0,0,0,0,0,0,0,0,0,0],"sum_hessian":[3.84E2,3.77E2,7E0,3.71E2,6E0,3.66E2,5E0,3.61E2,5E0,3.54E2,7E0,3.49E2,5E0,3.43E2,6E0,3.28E2,1.5E1],"tree_param":{"num_deleted":"0","num_feature":"412","num_nodes":"17","size_leaf_vector":"1"}},{"base_weights":[4.434892E-3,-2.506168E-2,1.871812E-1,-1.6850505E-2,-5.3408325E-2,-1.2336822E-2,-2.9238582E-2,-1.5950052E-2,2.0952411E-2,-1.34045E-2,-1.6602483E-2,-1.6267521E-2,5.8514986E-2,-1.4371595E-2,-1.2162405E-2,1.5692601E-3,1.1299606E-2,-1.2144739E-3,-5.3780302E-3],"categories":[],"categories_nodes":[],"categories_segments":[],"categories_sizes":[],"default_left":[0,0,0,0,0,0,0,0,0,0,0,0,0,0,0,0,0,0,0],"id":22,"left_children":[1,3,-1,5,-1,7,-1,9,-1,11,-1,13,15,17,-1,-1,-1,-1,-1],"loss_changes":[2.1253183E1,1.5792735E0,0E0,4.6277243E-1,0E0,2.9994667E-1,0E0,1.3721296E-1,0E0,7.5078405E-2,0E0,6.756469E-2,3.0888934E-2,2.935993E-2,0E0,0E0,0E0,0E0,0E0],"parents":[2147483647,0,0,1,1,3,3,5,5,7,7,9,9,11,11,12,12,13,13],"right_children":[2,4,-1,6,-1,8,-1,10,-1,12,-1,14,16,18,-1,-1,-1,-1,-1],"split_conditions":[1.1E1,5.735465E-7,1.871812E-1,2E0,-5.3408325E-2,1E0,-2.9238582E-2,4E0,2.0952411E-2,1.1E1,-1.6602483E-2,3E0,2E1,1E0,-1.2162405E-2,1.5692601E-3,1.1299606E-2,-1.2144739E-3,-5.3780302E-3],"split_indices":[76,8,0,142,0,139,0,110,0,27,0,210,39,113,0,0,0,0,0],"split_type":[0,0,0,0,0,0,0,0,0,0,0,0,0,0,0,0,0,0,0],"sum_hessian":[3.84E2,3.79E2,5E0,3.74E2,5E0,3.69E2,5E0,3.64E2,5E0,3.59E2,5E0,3.46E2,1.3E1,3.41E2,5E0,8E0,5E0,3.24E2,1.7E1],"tree_param":{"num_deleted":"0","num_feature":"412","num_nodes":"19","size_leaf_vector":"1"}},{"base_weights":[4.2589316E-3,-2.4340382E-2,1.8148391E-1,-1.481303E-2,-5.2989602E-2,-1.0138648E-2,-2.998187E-2,-1.4330445E-2,2.4585346E-2,-1.1167195E-2,-1.740609E-2,-1.2351955E-2,3.6147635E-3,-1.3524143E-2,2.8854841E-3,-1.1446388E-3,-5.0172405E-3],"categories":[],"categories_nodes":[],"categories_segments":[],"categories_sizes":[],"default_left":[0,0,0,0,0,0,0,0,0,0,0,0,0,0,0,0,0],"id":23,"left_children":[1,3,-1,5,-1,7,-1,9,-1,11,-1,13,-1,15,-1,-1,-1],"loss_changes":[1.9979992E1,1.8224612E0,0E0,4.952125E-1,0E0,3.9948487E-1,0E0,1.8197353E-1,0E0,2.0514812E-2,0E0,1.7295972E-2,0E0,2.5391534E-2,0E0,0E0,0E0],"parents":[2147483647,0,0,1,1,3,3,5,5,7,7,9,9,11,11,13,13],"right_children":[2,4,-1,6,-1,8,-1,10,-1,12,-1,14,-1,16,-1,-1,-1],"split_conditions":[3.138786E-2,3.42E2,1.8148391E-1,7.7412866E-2,-5.2989602E-2,2E0,-2.998187E-2,2E0,2.4585346E-2,4.57416E-2,-1.740609E-2,5.835696E-8,3.6147635E-3,1E0,2.8854841E-3,-1.1446388E-3,-5.0172405E-3],"split_indices":[9,1,0,12,0,288,0,238,0,12,0,8,0,113,0,0,0],"split_type":[0,0,0,0,0,0,0,0,0,0,0,0,0,0,0,0,0],"sum_hessian":[3.84E2,3.79E2,5E0,3.73E2,6E0,3.68E2,5E0,3.63E2,5E0,3.57E2,6E0,3.49E2,8E0,3.4E2,9E0,3.23E2,1.7E1],"tree_param":{"num_deleted":"0","num_feature":"412","num_nodes":"17","size_leaf_vector":"1"}},{"base_weights":[4.1084425E-3,-2.3264261E-2,1.7370282E-1,-1.6355347E-2,-4.51194E-2,-1.076057E-2,-3.0894358E-2,-1.4129637E-2,1.954229E-2,-1.1966405E-2,-1.2274492E-2,-9.944227E-3,-8.134383E-3,-1.13929575E-2,7.477369E-3,-1.0428074E-3,-6.4010033E-3],"categories":[],"categories_nodes":[],"categories_segments":[],"categories_sizes":[],"default_left":[0,0,0,0,0,0,0,0,0,0,0,0,0,0,0,0,0],"id":24,"left_children":[1,3,-1,5,-1,7,-1,9,-1,11,-1,13,-1,15,-1,-1,-1],"loss_changes":[1.830277E1,1.1161019E0,0E0,6.105378E-1,0E0,2.590856E-1,0E0,8.4056586E-2,0E0,4.9416203E-2,0E0,4.3685857E-2,0E0,1.6797151E-2,0E0,0E0,0E0],"parents":[2147483647,0,0,1,1,3,3,5,5,7,7,9,9,11,11,13,13],"right_children":[2,4,-1,6,-1,8,-1,10,-1,12,-1,14,-1,16,-1,-1,-1],"split_conditions":[3E0,7.002835E-7,1.7370282E-1,1E1,-4.51194E-2,5E0,-3.0894358E-2,4.3027535E-1,1.954229E-2,1E0,-1.2274492E-2,5.326598E-2,-8.134383E-3,7.6302765E-3,7.477369E-3,-1.0428074E-3,-6.4010033E-3],"split_indices":[253,10,0,57,0,135,0,3,0,294,0,12,0,15,0,0,0],"split_type":[0,0,0,0,0,0,0,0,0,0,0,0,0,0,0,0,0],"sum_hessian":[3.84E2,3.79E2,5E0,3.74E2,5E0,3.68E2,6E0,3.63E2,5E0,3.57E2,6E0,3.48E2,9E0,3.43E2,5E0,3.38E2,5E0],"tree_param":{"num_deleted":"0","num_feature":"412","num_nodes":"17","size_leaf_vector":"1"}},{"base_weights":[3.9491723E-3,-2.6630655E-2,1.4483523E-1,-1.5652014E-2,-6.062627E-2,-9.3176775E-3,-3.4461133E-2,-5.2463706E-3,-2.5272166E-2,-9.128854E-3,2.2598868E-2,-1.0695254E-2,2.7193688E-2,-9.028595E-3,-4.909781E-2,6.0134786E-3,-1.4486884E-4,-6.879298E-4,-3.3811585E-3,-1.3203055E-2,1.1646E-3],"categories":[],"categories_nodes":[],"categories_segments":[],"categories_sizes":[],"default_left":[0,0,0,0,0,0,0,0,0,0,0,0,0,0,0,0,0,0,0,0,0],"id":25,"left_children":[1,3,-1,5,-1,7,-1,9,-1,11,-1,13,15,17,19,-1,-1,-1,-1,-1,-1],"loss_changes":[1.7043867E1,2.395941E0,0E0,7.719399E-1,0E0,3.6136994E-1,0E0,3.2615656E-1,0E0,2.0545704E-2,0E0,2.1446083E-2,1.4239787E-2,1.7291917E-2,7.206474E-2,0E0,0E0,0E0,0E0,0E0,0E0],"parents":[2147483647,0,0,1,1,3,3,5,5,7,7,9,9,11,11,12,12,13,13,14,14],"right_children":[2,4,-1,6,-1,8,-1,10,-1,12,-1,14,16,18,20,-1,-1,-1,-1,-1,-1],"split_conditions":[1E0,7.182689E-7,1.4483523E-1,3E0,-6.062627E-2,5.9297927E-2,-3.4461133E-2,2E0,-2.5272166E-2,9.558072E-8,2.2598868E-2,1E0,1E0,2E0,2.100073E-8,6.0134786E-3,-1.4486884E-4,-6.879298E-4,-3.3811585E-3,-1.3203055E-2,1.1646E-3],"split_indices":[145,10,0,238,0,12,0,220,0,10,0,43,121,286,5,0,0,0,0,0,0],"split_type":[0,0,0,0,0,0,0,0,0,0,0,0,0,0,0,0,0,0,0,0,0],"sum_hessian":[3.84E2,3.77E2,7E0,3.71E2,6E0,3.65E2,6E0,3.6E2,5E0,3.55E2,5E0,3.41E2,1.4E1,3.28E2,1.3E1,6E0,8E0,3.03E2,2.5E1,5E0,8E0],"tree_param":{"num_deleted":"0","num_feature":"412","num_nodes":"21","size_leaf_vector":"1"}},{"base_weights":[3.6499284E-3,-2.19269E-2,1.6229074E-1,-1.190412E-2,-5.5429727E-2,-6.491285E-3,-3.4280952E-2,-1.0417534E-2,1.719829E-2,-8.103991E-3,-1.4633708E-2,-9.034339E-3,4.782709E-3,-1.0190047E-2,3.1509884E-3,-8.349715E-4,-4.2954404E-3],"categories":[],"categories_nodes":[],"categories_segments":[],"categories_sizes":[],"default_left":[0,0,0,0,0,0,0,0,0,0,0,0,0,0,0,0,0],"id":26,"left_children":[1,3,-1,5,-1,7,-1,9,-1,11,-1,13,-1,15,-1,-1,-1],"loss_changes":[1.5980542E1,2.0210176E0,0E0,6.676597E-1,0E0,2.6036254E-1,0E0,1.1264705E-1,0E0,1.9008707E-2,0E0,1.6814854E-2,0E0,2.0323325E-2,0E0,0E0,0E0],"parents":[2147483647,0,0,1,1,3,3,5,5,7,7,9,9,11,11,13,13],"right_children":[2,4,-1,6,-1,8,-1,10,-1,12,-1,14,-1,16,-1,-1,-1],"split_conditions":[9.384744E-2,7.182689E-7,1.6229074E-1,3E0,-5.5429727E-2,2E0,-3.4280952E-2,1E0,1.719829E-2,5.326598E-2,-1.4633708E-2,5.835696E-8,4.782709E-3,1E0,3.1509884E-3,-8.349715E-4,-4.2954404E-3],"split_indices":[12,10,0,238,0,238,0,145,0,12,0,8,0,113,0,0,0],"split_type":[0,0,0,0,0,0,0,0,0,0,0,0,0,0,0,0,0],"sum_hessian":[3.84E2,3.79E2,5E0,3.73E2,6E0,3.68E2,5E0,3.61E2,7E0,3.56E2,5E0,3.51E2,5E0,3.42E2,9E0,3.25E2,1.7E1],"tree_param":{"num_deleted":"0","num_feature":"412","num_nodes":"17","size_leaf_vector":"1"}},{"base_weights":[3.487398E-3,-2.1475881E-2,1.583914E-1,-1.2676291E-2,-4.8855748E-2,-7.859083E-3,-3.0682186E-2,-1.2059737E-2,1.8320289E-2,-9.193895E-3,-1.1201795E-2,-6.946627E-3,-3.3157934E-2,-1.8466517E-2,-3.461741E-4,-1.5103203E-2,-9.032302E-3,-1.2430183E-3,-1.2907307E-2,-2.0653832E-4,4.906914E-3,-5.149855E-3,-2.815031E-4],"categories":[],"categories_nodes":[],"categories_segments":[],"categories_sizes":[],"default_left":[0,0,0,0,0,0,0,0,0,0,0,0,0,0,0,0,0,0,0,0,0,0,0],"id":27,"left_children":[1,3,-1,5,-1,7,-1,9,-1,11,-1,13,15,17,19,21,-1,-1,-1,-1,-1,-1,-1],"loss_changes":[1.5223278E1,1.5556552E0,0E0,5.2753174E-1,0E0,2.9836327E-1,0E0,1.0267021E-1,0E0,1.8779995E-2,0E0,2.4629433E-2,2.9598836E-2,7.717925E-2,1.7687084E-2,1.0588603E-2,0E0,0E0,0E0,0E0,0E0,0E0,0E0],"parents":[2147483647,0,0,1,1,3,3,5,5,7,7,9,9,11,11,12,12,13,13,14,14,15,15],"right_children":[2,4,-1,6,-1,8,-1,10,-1,12,-1,14,16,18,20,22,-1,-1,-1,-1,-1,-1,-1],"split_conditions":[3.138786E-2,5E0,1.583914E-1,2E0,-4.8855748E-2,2E0,-3.0682186E-2,9.558072E-8,1.8320289E-2,2E0,-1.1201795E-2,5.5125347E-6,6.11E2,1E0,1.4611096E-7,1E0,-9.032302E-3,-1.2430183E-3,-1.2907307E-2,-2.0653832E-4,4.906914E-3,-5.149855E-3,-2.815031E-4],"split_indices":[9,124,0,142,0,220,0,8,0,286,0,2,0,43,4,22,0,0,0,0,0,0,0],"split_type":[0,0,0,0,0,0,0,0,0,0,0,0,0,0,0,0,0,0,0,0,0,0,0],"sum_hessian":[3.84E2,3.79E2,5E0,3.73E2,6E0,3.68E2,5E0,3.61E2,7E0,3.52E2,9E0,3.23E2,2.9E1,1.17E2,2.06E2,2.3E1,6E0,1.12E2,5E0,2E2,6E0,5E0,1.8E1],"tree_param":{"num_deleted":"0","num_feature":"412","num_nodes":"23","size_leaf_vector":"1"}},{"base_weights":[3.2998496E-3,-2.4578227E-2,1.3201265E-1,-1.5731245E-2,-5.7046916E-2,-8.434866E-3,-3.0989205E-2,-5.649002E-3,-1.5010491E-2,-3.78873E-3,-9.865287E-3,-5.7395943E-3,7.141538E-3,-3.8699785E-3,-2.8529499E-2,-6.459646E-4,1.9638888E-3,-1.5810635E-3,-6.079347E-3],"categories":[],"categories_nodes":[],"categories_segments":[],"categories_sizes":[],"default_left":[0,0,0,0,0,0,0,0,0,0,0,0,0,0,0,0,0,0,0],"id":28,"left_children":[1,3,-1,5,-1,7,-1,9,-1,11,-1,13,-1,15,17,-1,-1,-1,-1],"loss_changes":[1.4166024E1,1.8165714E0,0E0,7.979593E-1,0E0,1.432079E-1,0E0,6.1737716E-2,0E0,5.2199595E-2,0E0,1.4589478E-2,0E0,1.9608501E-2,9.708203E-3,0E0,0E0,0E0,0E0],"parents":[2147483647,0,0,1,1,3,3,5,5,7,7,9,9,11,11,13,13,14,14],"right_children":[2,4,-1,6,-1,8,-1,10,-1,12,-1,14,-1,16,18,-1,-1,-1,-1],"split_conditions":[2E0,5.735465E-7,1.3201265E-1,2.7E1,-5.7046916E-2,4.00303E-7,-3.0989205E-2,3E0,-1.5010491E-2,3.6289416E-2,-9.865287E-3,7.3626745E-7,7.141538E-3,4E0,1.5E1,-6.459646E-4,1.9638888E-3,-1.5810635E-3,-6.079347E-3],"split_indices":[43,8,0,39,0,16,0,210,0,12,0,13,0,23,39,0,0,0,0],"split_type":[0,0,0,0,0,0,0,0,0,0,0,0,0,0,0,0,0,0,0],"sum_hessian":[3.84E2,3.77E2,7E0,3.72E2,5E0,3.64E2,8E0,3.58E2,6E0,3.52E2,6E0,3.44E2,8E0,3.19E2,2.5E1,2.88E2,3.1E1,1.9E1,6E0],"tree_param":{"num_deleted":"0","num_feature":"412","num_nodes":"19","size_leaf_vector":"1"}},{"base_weights":[3.021552E-3,-2.0353077E-2,1.4829111E-1,-1.3994868E-2,-4.1434895E-2,-9.1571575E-3,-3.0998785E-2,-1.3017347E-2,1.1800878E-1,-1.013882E-2,-1.8116064E-2,-1.3685375E-3,2.3003481E-2,-8.393209E-3,-9.572159E-3,-6.904664E-3,-9.233761E-3,-7.8987534E-4,5.041219E-3],"categories":[],"categories_nodes":[],"categories_segments":[],"categories_sizes":[],"default_left":[0,0,0,0,0,0,0,0,0,0,0,0,0,0,0,0,0,0,0],"id":29,"left_children":[1,3,-1,5,-1,7,-1,9,11,13,-1,-1,-1,15,-1,17,-1,-1,-1],"loss_changes":[1.3348051E1,9.4614226E-1,0E0,5.341345E-1,0E0,1.8316346E-1,0E0,1.7240506E-1,1.6543302E-1,5.223152E-2,0E0,0E0,0E0,4.2971753E-2,0E0,1.9998657E-2,0E0,0E0,0E0],"parents":[2147483647,0,0,1,1,3,3,5,5,7,7,8,8,9,9,13,13,15,15],"right_children":[2,4,-1,6,-1,8,-1,10,12,14,-1,-1,-1,16,-1,18,-1,-1,-1],"split_conditions":[3E0,1E0,1.4829111E-1,2.565484E-7,-4.1434895E-2,2E0,-3.0998785E-2,7.130531E-2,2E0,1E0,-1.8116064E-2,-1.3685375E-3,2.3003481E-2,7.6302765E-3,-9.572159E-3,3.8134232E-3,-9.233761E-3,-7.8987534E-4,5.041219E-3],"split_indices":[253,308,0,8,0,167,0,12,57,161,0,0,0,15,0,9,0,0,0],"split_type":[0,0,0,0,0,0,0,0,0,0,0,0,0,0,0,0,0,0,0],"sum_hessian":[3.84E2,3.79E2,5E0,3.74E2,5E0,3.69E2,5E0,3.59E2,1E1,3.54E2,5E0,5E0,5E0,3.48E2,6E0,3.43E2,5E0,3.38E2,5E0],"tree_param":{"num_deleted":"0","num_feature":"412","num_nodes":"19","size_leaf_vector":"1"}},{"base_weights":[2.8877642E-3,1.23580314E-1,-2.3213321E-2,-1.3042856E-2,-5.6038477E-2,-7.6347603E-3,-3.4166425E-2,-3.3227298E-3,-2.6652146E-2,-6.4362735E-3,1.824869E-2,-7.7398582E-3,3.957211E-3,-5.7223737E-3,-4.4409163E-2,2.3030376E-3,-7.4494665E-4,-1.825126E-2,2.2746976E-3],"categories":[],"categories_nodes":[],"categories_segments":[],"categories_sizes":[],"default_left":[0,0,0,0,0,0,0,0,0,0,0,0,0,0,0,0,0,0,0],"id":30,"left_children":[1,-1,3,5,-1,7,-1,9,-1,11,-1,13,-1,15,17,-1,-1,-1,-1],"loss_changes":[1.2418152E1,0E0,2.0578122E0,6.585159E-1,0E0,4.0880656E-1,0E0,2.1060109E-1,0E0,2.1717656E-2,0E0,2.5490828E-2,0E0,1.6608581E-2,1.710925E-1,0E0,0E0,0E0,0E0],"parents":[2147483647,0,0,2,2,3,3,5,5,7,7,9,9,11,11,13,13,14,14],"right_children":[2,-1,4,6,-1,8,-1,10,-1,12,-1,14,-1,16,18,-1,-1,-1,-1],"split_conditions":[3.8722052E-7,1.23580314E-1,7.182689E-7,3E0,-5.6038477E-2,7.130531E-2,-3.4166425E-2,5E0,-2.6652146E-2,5.835696E-8,1.824869E-2,1E0,3.957211E-3,1.22E2,2.2413033E-8,2.3030376E-3,-7.4494665E-4,-1.825126E-2,2.2746976E-3],"split_indices":[7,0,10,238,0,12,0,76,0,8,0,113,0,0,4,0,0,0,0],"split_type":[0,0,0,0,0,0,0,0,0,0,0,0,0,0,0,0,0,0,0],"sum_hessian":[3.84E2,7E0,3.77E2,3.71E2,6E0,3.66E2,5E0,3.61E2,5E0,3.56E2,5E0,3.47E2,9E0,3.3E2,1.7E1,1.8E1,3.12E2,5E0,1.2E1],"tree_param":{"num_deleted":"0","num_feature":"412","num_nodes":"19","size_leaf_vector":"1"}},{"base_weights":[2.6366787E-3,-1.9467888E-2,1.4021532E-1,-1.1564862E-2,-5.1016238E-2,-7.834049E-3,-2.3970421E-2,-4.580922E-3,-2.0442693E-2,-7.480801E-3,1.7017532E-2,-9.338254E-3,1.0366532E-2,-7.7173887E-3,-1.0233237E-2,-8.984028E-4,4.755444E-3],"categories":[],"categories_nodes":[],"categories_segments":[],"categories_sizes":[],"default_left":[0,0,0,0,0,0,0,0,0,0,0,0,0,0,0,0,0],"id":31,"left_children":[1,3,-1,5,-1,7,-1,9,-1,11,-1,13,-1,15,-1,-1,-1],"loss_changes":[1.1937542E1,1.467729E0,0E0,3.1730163E-1,0E0,2.3569387E-1,0E0,1.8624483E-1,0E0,7.52896E-2,0E0,5.271975E-2,0E0,2.493054E-2,0E0,0E0,0E0],"parents":[2147483647,0,0,1,1,3,3,5,5,7,7,9,9,11,11,13,13],"right_children":[2,4,-1,6,-1,8,-1,10,-1,12,-1,14,-1,16,-1,-1,-1],"split_conditions":[1.1E1,5.735465E-7,1.4021532E-1,2E0,-5.1016238E-2,4E0,-2.3970421E-2,3E0,-2.0442693E-2,5.3292014E-2,1.7017532E-2,2E0,1.0366532E-2,5.835696E-8,-1.0233237E-2,-8.984028E-4,4.755444E-3],"split_indices":[76,8,0,142,0,110,0,76,0,12,0,238,0,8,0,0,0],"split_type":[0,0,0,0,0,0,0,0,0,0,0,0,0,0,0,0,0],"sum_hessian":[3.84E2,3.79E2,5E0,3.74E2,5E0,3.69E2,5E0,3.64E2,5E0,3.59E2,5E0,3.54E2,5E0,3.49E2,5E0,3.42E2,7E0],"tree_param":{"num_deleted":"0","num_feature":"412","num_nodes":"17","size_leaf_vector":"1"}},{"base_weights":[2.5439076E-3,-1.9024273E-2,1.3681047E-1,-9.444858E-3,-5.28121E-2,-3.7653353E-3,-2.1580296E-2,-6.782166E-3,1.7787209E-2,-5.303524E-3,-9.313813E-3,-2.8209118E-3,-3.5358187E-2,-1.6162165E-2,4.716671E-3,-8.561114E-3,-2.0045646E-2,-8.103826E-4,-1.4393791E-2,2.309037E-4,3.6022493E-3,-7.9090765E-4,-4.492271E-3],"categories":[],"categories_nodes":[],"categories_segments":[],"categories_sizes":[],"default_left":[0,0,0,0,0,0,0,0,0,0,0,0,0,0,0,0,0,0,0,0,0,0,0],"id":32,"left_children":[1,3,-1,5,-1,7,-1,9,-1,11,-1,13,15,17,19,-1,21,-1,-1,-1,-1,-1,-1],"loss_changes":[1.1365302E1,1.8482146E0,0E0,4.3752122E-1,0E0,2.0121518E-1,0E0,4.5474283E-2,0E0,2.6388254E-2,0E0,3.3160735E-2,1.906038E-2,1.213631E-1,1.5820518E-2,0E0,6.2869927E-3,0E0,0E0,0E0,0E0,0E0,0E0],"parents":[2147483647,0,0,1,1,3,3,5,5,7,7,9,9,11,11,12,12,13,13,14,14,16,16],"right_children":[2,4,-1,6,-1,8,-1,10,-1,12,-1,14,16,18,20,-1,22,-1,-1,-1,-1,-1,-1],"split_conditions":[3.138786E-2,5E0,1.3681047E-1,2.7E1,-5.28121E-2,2E0,-2.1580296E-2,2E0,1.7787209E-2,2E0,-9.313813E-3,5.5125347E-6,1E0,2E0,1E0,-8.561114E-3,4E0,-8.103826E-4,-1.4393791E-2,2.309037E-4,3.6022493E-3,-7.9090765E-4,-4.492271E-3],"split_indices":[9,124,0,39,0,220,0,238,0,286,0,2,83,61,75,0,57,0,0,0,0,0,0],"split_type":[0,0,0,0,0,0,0,0,0,0,0,0,0,0,0,0,0,0,0,0,0,0,0],"sum_hessian":[3.84E2,3.79E2,5E0,3.73E2,6E0,3.64E2,9E0,3.59E2,5E0,3.54E2,5E0,3.28E2,2.6E1,1.18E2,2.1E2,5E0,2.1E1,1.12E2,6E0,1.96E2,1.4E1,1.5E1,6E0],"tree_param":{"num_deleted":"0","num_feature":"412","num_nodes":"23","size_leaf_vector":"1"}},{"base_weights":[2.4081576E-3,-2.146453E-2,1.1300917E-1,-1.171712E-2,-5.3640336E-2,-6.246394E-3,-3.443904E-2,-2.5997567E-3,-2.2521913E-2,-5.376494E-3,1.630494E-2,-2.060743E-3,-3.898769E-2,-1.0478416E-3,-4.8070415E-3,-1.6297434E-2,2.2475403E-3,-2.8587153E-4,3.596384E-3,-4.2525065E-4,2.3539772E-3],"categories":[],"categories_nodes":[],"categories_segments":[],"categories_sizes":[],"default_left":[0,0,0,0,0,0,0,0,0,0,0,0,0,0,0,0,0,0,0,0,0],"id":33,"left_children":[1,3,-1,5,-1,7,-1,9,-1,11,-1,13,15,17,-1,-1,19,-1,-1,-1,-1],"loss_changes":[1.0388779E1,1.8910176E0,0E0,6.7487556E-1,0E0,2.924692E-1,0E0,1.6738366E-1,0E0,3.9706003E-2,0E0,1.5142293E-2,1.6397005E-1,2.1550324E-2,0E0,0E0,3.5601156E-3,0E0,0E0,0E0,0E0],"parents":[2147483647,0,0,1,1,3,3,5,5,7,7,9,9,11,11,12,12,13,13,16,16],"right_children":[2,4,-1,6,-1,8,-1,10,-1,12,-1,14,16,18,-1,-1,20,-1,-1,-1,-1],"split_conditions":[1E0,7.182689E-7,1.1300917E-1,6E0,-5.3640336E-2,2.7E1,-3.443904E-2,2E0,-2.2521913E-2,1E0,1.630494E-2,1E0,2.0048027E-8,1E0,-4.8070415E-3,-1.6297434E-2,1E0,-2.8587153E-4,3.596384E-3,-4.2525065E-4,2.3539772E-3],"split_indices":[269,10,0,76,0,39,0,220,0,20,0,229,5,75,0,0,30,0,0,0,0],"split_type":[0,0,0,0,0,0,0,0,0,0,0,0,0,0,0,0,0,0,0,0,0],"sum_hessian":[3.84E2,3.77E2,7E0,3.71E2,6E0,3.66E2,5E0,3.61E2,5E0,3.56E2,5E0,3.25E2,3.1E1,3.19E2,6E0,7E0,2.4E1,3.05E2,1.4E1,1.9E1,5E0],"tree_param":{"num_deleted":"0","num_feature":"412","num_nodes":"21","size_leaf_vector":"1"}},{"base_weights":[2.17474E-3,-1.7971445E-2,1.2777373E-1,-1.2291436E-2,-3.699767E-2,-8.145802E-3,-2.6589034E-2,-4.6368735E-3,-2.2024795E-2,-8.009478E-3,1.2965833E-2,-3.9957096E-3,-4.7296308E-2,-5.70736E-3,6.4541856E-3,-1.9412555E-2,-2.9899224E-4,-4.3898806E-4,-7.348463E-3,7.725827E-4,-2.8336027E-3],"categories":[],"categories_nodes":[],"categories_segments":[],"categories_sizes":[],"default_left":[0,0,0,0,0,0,0,0,0,0,0,0,0,0,0,0,0,0,0,0,0],"id":34,"left_children":[1,3,-1,5,-1,7,-1,9,-1,11,-1,13,15,17,-1,-1,19,-1,-1,-1,-1],"loss_changes":[9.916584E0,7.552216E-1,0E0,3.9208224E-1,0E0,2.743517E-1,0E0,1.6635601E-1,0E0,5.6105725E-2,0E0,3.849487E-2,2.2766113E-1,2.807327E-2,0E0,0E0,6.068715E-3,0E0,0E0,0E0,0E0],"parents":[2147483647,0,0,1,1,3,3,5,5,7,7,9,9,11,11,12,12,13,13,16,16],"right_children":[2,4,-1,6,-1,8,-1,10,-1,12,-1,14,16,18,-1,-1,20,-1,-1,-1,-1],"split_conditions":[3E0,4E0,1.2777373E-1,4.965527E-7,-3.699767E-2,2E0,-2.6589034E-2,1E0,-2.2024795E-2,1E0,1.2965833E-2,4.57416E-2,2.0048027E-8,1.3946326E-6,6.4541856E-3,-1.9412555E-2,4E0,-4.3898806E-4,-7.348463E-3,7.725827E-4,-2.8336027E-3],"split_indices":[253,124,0,10,0,142,0,299,0,20,0,12,5,13,0,0,27,0,0,0,0],"split_type":[0,0,0,0,0,0,0,0,0,0,0,0,0,0,0,0,0,0,0,0,0],"sum_hessian":[3.84E2,3.79E2,5E0,3.74E2,5E0,3.69E2,5E0,3.64E2,5E0,3.56E2,8E0,3.24E2,3.2E1,3.17E2,7E0,7E0,2.5E1,3.12E2,5E0,2E1,5E0],"tree_param":{"num_deleted":"0","num_feature":"412","num_nodes":"21","size_leaf_vector":"1"}},{"base_weights":[2.0412186E-3,-2.195609E-2,1.007035E-1,-1.2683778E-2,-5.10252E-2,-7.1621235E-3,-3.4739073E-2,-2.9839084E-3,-1.9376427E-2,-5.5738003E-3,1.5031705E-2,-3.279807E-3,-5.3829424E-2,-4.582829E-3,6.980171E-3,-1.8614727E-3,-1.4013243E-2,-2.5742126E-4,-3.7748094E-3,-1.3395541E-3,9.982841E-4],"categories":[],"categories_nodes":[],"categories_segments":[],"categories_sizes":[],"default_left":[0,0,0,0,0,0,0,0,0,0,0,0,0,0,0,0,0,0,0,0,0],"id":35,"left_children":[1,3,-1,5,-1,7,-1,9,-1,11,-1,13,15,17,-1,19,-1,-1,-1,-1,-1],"loss_changes":[9.307212E0,1.7004455E0,0E0,6.831703E-1,0E0,2.847788E-1,0E0,1.4337264E-1,0E0,3.901057E-2,0E0,3.260178E-2,7.149899E-2,2.2152672E-2,0E0,1.6364697E-3,0E0,0E0,0E0,0E0,0E0],"parents":[2147483647,0,0,1,1,3,3,5,5,7,7,9,9,11,11,12,12,13,13,15,15],"right_children":[2,4,-1,6,-1,8,-1,10,-1,12,-1,14,16,18,-1,20,-1,-1,-1,-1,-1],"split_conditions":[7.124649E-7,7.182689E-7,1.007035E-1,4E0,-5.10252E-2,2.7E1,-3.4739073E-2,3E0,-1.9376427E-2,1E0,1.5031705E-2,5.326598E-2,1E0,1E0,6.980171E-3,2.3E1,-1.4013243E-2,-2.5742126E-4,-3.7748094E-3,-1.3395541E-3,9.982841E-4],"split_indices":[11,10,0,124,0,39,0,110,0,222,0,12,100,113,0,1,0,0,0,0,0],"split_type":[0,0,0,0,0,0,0,0,0,0,0,0,0,0,0,0,0,0,0,0,0],"sum_hessian":[3.84E2,3.76E2,8E0,3.7E2,6E0,3.65E2,5E0,3.58E2,7E0,3.53E2,5E0,3.38E2,1.5E1,3.33E2,5E0,1E1,5E0,3.15E2,1.8E1,5E0,5E0],"tree_param":{"num_deleted":"0","num_feature":"412","num_nodes":"21","size_leaf_vector":"1"}},{"base_weights":[1.8349846E-3,-1.72664E-2,1.2112836E-1,-1.0044926E-2,-4.657308E-2,-2.7160195E-3,-9.739271E-2,-6.5253996E-3,1.4107241E-2,-5.6349854E-3,-2.711689E-2,-1.0419491E-2,-4.7513205E-3,3.2033853E-3,-2.6791748E-3,-2.2462916E-3,-7.810387E-2,1.1364456E-3,-5.3581083E-4,-5.1769725E-4,-4.048533E-2,-3.7778579E-3,-1.0541186E-2,1.6388301E-4,-2.892112E-3,-1.2956637E-2,2.3400397E-3],"categories":[],"categories_nodes":[],"categories_segments":[],"categories_sizes":[],"default_left":[0,0,0,0,0,0,0,0,0,0,0,0,0,0,0,0,0,0,0,0,0,0,0,0,0,0,0],"id":36,"left_children":[1,3,-1,5,-1,7,9,11,-1,13,-1,-1,15,17,-1,19,21,-1,-1,23,25,-1,-1,-1,-1,-1,-1],"loss_changes":[8.915239E0,1.2259799E0,0E0,2.3979686E-1,0E0,1.90988E-1,4.6088588E-1,5.824463E-2,0E0,3.8256503E-3,0E0,0E0,6.119715E-2,1.1089563E-3,0E0,2.1395372E-2,8.130915E-3,0E0,0E0,1.9097004E-2,8.2706004E-2,0E0,0E0,0E0,0E0,0E0,0E0],"parents":[2147483647,0,0,1,1,3,3,5,5,6,6,7,7,9,9,12,12,13,13,15,15,16,16,19,19,20,20],"right_children":[2,4,-1,6,-1,8,10,12,-1,14,-1,-1,16,18,-1,20,22,-1,-1,24,26,-1,-1,-1,-1,-1,-1],"split_conditions":[1.1E1,5.735465E-7,1.2112836E-1,1E0,-4.657308E-2,2E0,6.9E1,4.8213616E-7,1.4107241E-2,1E0,-2.711689E-2,-1.0419491E-2,3.447122E-7,2E0,-2.6791748E-3,1E0,4.47E2,1.1364456E-3,-5.3581083E-4,2E0,1.18802525E-1,-3.7778579E-3,-1.0541186E-2,1.6388301E-4,-2.892112E-3,-1.2956637E-2,2.3400397E-3],"split_indices":[76,8,0,52,0,238,1,7,0,36,0,0,11,83,0,43,0,0,0,286,3,0,0,0,0,0,0],"split_type":[0,0,0,0,0,0,0,0,0,0,0,0,0,0,0,0,0,0,0,0,0,0,0,0,0,0,0],"sum_hessian":[3.84E2,3.79E2,5E0,3.74E2,5E0,3.46E2,2.8E1,3.38E2,8E0,1.9E1,9E0,5E0,3.33E2,1.4E1,5E0,3.23E2,1E1,7E0,7E0,3.1E2,1.3E1,5E0,5E0,2.89E2,2.1E1,5E0,8E0],"tree_param":{"num_deleted":"0","num_feature":"412","num_nodes":"27","size_leaf_vector":"1"}},{"base_weights":[1.7070308E-3,-1.7041117E-2,1.18880525E-1,-8.542409E-3,-4.6868052E-2,-3.653732E-3,-1.8612487E-2,-6.0295234E-3,1.3950272E-2,-3.8264345E-3,-7.557967E-2,-2.412151E-3,-8.451E-3,-3.0386208E-3,-1.0817653E-2,-8.558807E-3,8.893283E-3,-5.1427697E-4,-1.3181768E-2,1.4099198E-3,-2.6477103E-3],"categories":[],"categories_nodes":[],"categories_segments":[],"categories_sizes":[],"default_left":[0,0,0,0,0,0,0,0,0,0,0,0,0,0,0,0,0,0,0,0,0],"id":37,"left_children":[1,3,-1,5,-1,7,-1,9,-1,11,13,15,-1,-1,-1,17,19,-1,-1,-1,-1],"loss_changes":[8.588777E0,1.4545697E0,0E0,3.2400554E-1,0E0,1.24981254E-1,0E0,5.4871857E-2,0E0,3.973445E-2,1.2917742E-2,2.4050377E-2,0E0,0E0,0E0,9.363884E-2,2.28378E-2,0E0,0E0,0E0,0E0],"parents":[2147483647,0,0,1,1,3,3,5,5,7,7,9,9,10,10,11,11,15,15,16,16],"right_children":[2,4,-1,6,-1,8,-1,10,-1,12,14,16,-1,-1,-1,18,20,-1,-1,-1,-1],"split_conditions":[3.138786E-2,5E0,1.18880525E-1,2.7E1,-4.6868052E-2,2E0,-1.8612487E-2,3.447122E-7,1.3950272E-2,2E0,1.0416231E-5,2E0,-8.451E-3,-3.0386208E-3,-1.0817653E-2,1E0,2E0,-5.1427697E-4,-1.3181768E-2,1.4099198E-3,-2.6477103E-3],"split_indices":[9,124,0,39,0,220,0,11,0,238,2,23,0,0,0,113,286,0,0,0,0],"split_type":[0,0,0,0,0,0,0,0,0,0,0,0,0,0,0,0,0,0,0,0,0],"sum_hessian":[3.84E2,3.79E2,5E0,3.73E2,6E0,3.64E2,9E0,3.59E2,5E0,3.49E2,1E1,3.44E2,5E0,5E0,5E0,2.23E2,1.21E2,2.18E2,5E0,1.06E2,1.5E1],"tree_param":{"num_deleted":"0","num_feature":"412","num_nodes":"21","size_leaf_vector":"1"}},{"base_weights":[1.614537E-3,-2.1894703E-2,8.8540055E-2,-1.3065512E-2,-4.854527E-2,-7.403926E-3,-3.056015E-2,-5.0509805E-3,-1.2668255E-2,-3.153528E-3,-7.076698E-3,-4.8074163E-3,6.794439E-3,-3.4995E-3,-7.74675E-3,-1.1292063E-3,3.524711E-4],"categories":[],"categories_nodes":[],"categories_segments":[],"categories_sizes":[],"default_left":[0,0,0,0,0,0,0,0,0,0,0,0,0,0,0,0,0],"id":38,"left_children":[1,3,-1,5,-1,7,-1,9,-1,11,-1,13,-1,15,-1,-1,-1],"loss_changes":[8.018584E0,1.5325661E0,0E0,6.1053795E-1,0E0,1.01518944E-1,0E0,4.4416927E-2,0E0,4.1364852E-2,0E0,3.2230303E-2,0E0,1.8486038E-2,0E0,0E0,0E0],"parents":[2147483647,0,0,1,1,3,3,5,5,7,7,9,9,11,11,13,13],"right_children":[2,4,-1,6,-1,8,-1,10,-1,12,-1,14,-1,16,-1,-1,-1],"split_conditions":[2E0,7.182689E-7,8.8540055E-2,2.7E1,-4.854527E-2,4.00303E-7,-3.056015E-2,3.447122E-7,-1.2668255E-2,3.6289416E-2,-7.076698E-3,2E0,6.794439E-3,1.1027921E-4,-7.74675E-3,-1.1292063E-3,3.524711E-4],"split_indices":[288,10,0,39,0,16,0,11,0,12,0,238,0,12,0,0,0],"split_type":[0,0,0,0,0,0,0,0,0,0,0,0,0,0,0,0,0],"sum_hessian":[3.84E2,3.75E2,9E0,3.69E2,6E0,3.63E2,6E0,3.57E2,6E0,3.48E2,9E0,3.41E2,7E0,3.36E2,5E0,1.59E2,1.77E2],"tree_param":{"num_deleted":"0","num_feature":"412","num_nodes":"17","size_leaf_vector":"1"}},{"base_weights":[1.4218129E-3,-1.7750898E-2,1.0392841E-1,-1.1117561E-2,-4.2827047E-2,-6.3395817E-3,-3.0311037E-2,-3.2981627E-3,-1.8979574E-2,-5.3904084E-3,1.2243755E-2,-1.0185555E-2,-3.740179E-3,-2.1016002E-3,-5.0264534E-2,-1.6180546E-3,1.567655E-4,3.39594E-4,-8.907857E-3],"categories":[],"categories_nodes":[],"categories_segments":[],"categories_sizes":[],"default_left":[0,0,0,0,0,0,0,0,0,0,0,0,0,0,0,0,0,0,0],"id":39,"left_children":[1,3,-1,5,-1,7,-1,9,-1,11,-1,-1,13,15,17,-1,-1,-1,-1],"loss_changes":[7.6794224E0,1.0272992E0,0E0,5.1985914E-1,0E0,2.0526387E-1,0E0,9.6417464E-2,0E0,5.6768112E-2,0E0,0E0,2.6881132E-2,1.7744487E-2,2.5295863E-2,0E0,0E0,0E0,0E0],"parents":[2147483647,0,0,1,1,3,3,5,5,7,7,9,9,12,12,13,13,14,14],"right_children":[2,4,-1,6,-1,8,-1,10,-1,12,-1,-1,14,16,18,-1,-1,-1,-1],"split_conditions":[5E0,7.182689E-7,1.0392841E-1,3E0,-4.2827047E-2,7.130531E-2,-3.0311037E-2,1E0,-1.8979574E-2,4.8213616E-7,1.2243755E-2,-1.0185555E-2,3.447122E-7,2.0710655E-8,3E0,-1.6180546E-3,1.567655E-4,3.39594E-4,-8.907857E-3],"split_indices":[204,10,0,238,0,12,0,85,0,7,0,0,11,4,23,0,0,0,0],"split_type":[0,0,0,0,0,0,0,0,0,0,0,0,0,0,0,0,0,0,0],"sum_hessian":[3.84E2,3.78E2,6E0,3.73E2,5E0,3.68E2,5E0,3.63E2,5E0,3.58E2,5E0,5E0,3.53E2,3.42E2,1.1E1,7E1,2.72E2,5E0,6E0],"tree_param":{"num_deleted":"0","num_feature":"412","num_nodes":"19","size_leaf_vector":"1"}},{"base_weights":[1.2896047E-3,-1.5608187E-2,1.0712681E-1,-7.7587725E-3,-4.3276142E-2,-3.487773E-3,-1.6287439E-2,-5.528631E-3,1.19545E-2,-3.3246067E-3,-5.2707367E-2,-5.0610253E-3,7.045464E-3,-1.1780569E-3,-8.323037E-3,-3.798037E-3,-7.4313357E-3,-1.9811769E-4,-3.371977E-3],"categories":[],"categories_nodes":[],"categories_segments":[],"categories_sizes":[],"default_left":[0,0,0,0,0,0,0,0,0,0,0,0,0,0,0,0,0,0,0],"id":40,"left_children":[1,3,-1,5,-1,7,-1,9,-1,11,13,15,-1,-1,-1,17,-1,-1,-1],"loss_changes":[6.9776263E0,1.2409174E0,0E0,2.4720648E-1,0E0,9.230966E-2,0E0,3.725868E-2,0E0,4.455509E-2,1.9006837E-2,2.9280882E-2,0E0,0E0,0E0,1.8036274E-2,0E0,0E0,0E0],"parents":[2147483647,0,0,1,1,3,3,5,5,7,7,9,9,10,10,11,11,15,15],"right_children":[2,4,-1,6,-1,8,-1,10,-1,12,14,16,-1,-1,-1,18,-1,-1,-1],"split_conditions":[3.138786E-2,5E0,1.0712681E-1,2.7E1,-4.3276142E-2,4E0,-1.6287439E-2,2.8569295E-7,1.19545E-2,3.6289416E-2,9.048495E-6,3E0,7.045464E-3,-1.1780569E-3,-8.323037E-3,1E0,-7.4313357E-3,-1.9811769E-4,-3.371977E-3],"split_indices":[9,124,0,39,0,36,0,11,0,12,2,210,0,0,0,113,0,0,0],"split_type":[0,0,0,0,0,0,0,0,0,0,0,0,0,0,0,0,0,0,0],"sum_hessian":[3.84E2,3.79E2,5E0,3.73E2,6E0,3.64E2,9E0,3.59E2,5E0,3.44E2,1.5E1,3.37E2,7E0,7E0,8E0,3.32E2,5E0,3.14E2,1.8E1],"tree_param":{"num_deleted":"0","num_feature":"412","num_nodes":"19","size_leaf_vector":"1"}},{"base_weights":[1.2802774E-3,-1.5276956E-2,1.04969166E-1,-9.891864E-3,-3.4929913E-2,-5.6097857E-3,-2.723047E-2,-8.4692035E-3,1.2483754E-2,-5.2669668E-3,-1.705734E-2,-3.2509356E-3,-4.8030447E-2,-4.505287E-3,6.7743617E-3,-1.0749771E-3,-7.5832116E-3,-2.989621E-4,-5.376859E-3],"categories":[],"categories_nodes":[],"categories_segments":[],"categories_sizes":[],"default_left":[0,0,0,0,0,0,0,0,0,0,0,0,0,0,0,0,0,0,0],"id":41,"left_children":[1,3,-1,5,-1,7,-1,9,-1,11,-1,13,15,17,-1,-1,-1,-1,-1],"loss_changes":[6.699172E0,6.800661E-1,0E0,4.1984951E-1,0E0,1.3906854E-1,0E0,1.8753348E-1,0E0,3.0621724E-2,0E0,3.0761022E-2,1.576826E-2,2.500193E-2,0E0,0E0,0E0,0E0,0E0],"parents":[2147483647,0,0,1,1,3,3,5,5,7,7,9,9,11,11,12,12,13,13],"right_children":[2,4,-1,6,-1,8,-1,10,-1,12,-1,14,16,18,-1,-1,-1,-1,-1],"split_conditions":[3E0,2.6324332E-7,1.04969166E-1,3E0,-3.4929913E-2,1.85E2,-2.723047E-2,2.4E1,1.2483754E-2,2.8569295E-7,-1.705734E-2,3.6289416E-2,9.048495E-6,1E0,6.7743617E-3,-1.0749771E-3,-7.5832116E-3,-2.989621E-4,-5.376859E-3],"split_indices":[253,8,0,44,0,1,0,39,0,11,0,12,2,294,0,0,0,0,0],"split_type":[0,0,0,0,0,0,0,0,0,0,0,0,0,0,0,0,0,0,0],"sum_hessian":[3.84E2,3.79E2,5E0,3.74E2,5E0,3.69E2,5E0,3.62E2,7E0,3.56E2,6E0,3.41E2,1.5E1,3.36E2,5E0,7E0,8E0,3.27E2,9E0],"tree_param":{"num_deleted":"0","num_feature":"412","num_nodes":"19","size_leaf_vector":"1"}},{"base_weights":[1.231928E-3,-1.4673532E-2,1.00837246E-1,-6.124312E-3,-4.6934992E-2,-2.9105218E-3,-2.027517E-2,-5.953177E-3,1.0691612E-2,-3.8976308E-3,-1.2658081E-2,-2.4085878E-3,-5.02451E-2,-5.0027994E-3,1.694856E-2,-8.4852325E-3,-7.263689E-4,-2.5641613E-4,-5.9581124E-3,4.18333E-3,-4.3452918E-4],"categories":[],"categories_nodes":[],"categories_segments":[],"categories_sizes":[],"default_left":[0,0,0,0,0,0,0,0,0,0,0,0,0,0,0,0,0,0,0,0,0],"id":42,"left_children":[1,3,-1,5,-1,7,-1,9,-1,11,-1,13,15,17,19,-1,-1,-1,-1,-1,-1],"loss_changes":[6.182124E0,1.4742343E0,0E0,2.3574767E-1,0E0,1.2394321E-1,0E0,8.8770665E-2,0E0,2.4378726E-2,0E0,1.7409496E-2,1.5745804E-2,4.0441744E-2,2.190735E-2,0E0,0E0,0E0,0E0,0E0,0E0],"parents":[2147483647,0,0,1,1,3,3,5,5,7,7,9,9,11,11,12,12,13,13,14,14],"right_children":[2,4,-1,6,-1,8,-1,10,-1,12,-1,14,16,18,20,-1,-1,-1,-1,-1,-1],"split_conditions":[2E0,7.182689E-7,1.00837246E-1,7.7412866E-2,-4.6934992E-2,1E0,-2.027517E-2,3E0,1.0691612E-2,1.5300834E-6,-1.2658081E-2,4E0,3.1000998E-2,1E0,1.0023853E-5,-8.4852325E-3,-7.263689E-4,-2.5641613E-4,-5.9581124E-3,4.18333E-3,-4.3452918E-4],"split_indices":[208,10,0,12,0,299,0,76,0,13,0,23,12,113,2,0,0,0,0,0,0],"split_type":[0,0,0,0,0,0,0,0,0,0,0,0,0,0,0,0,0,0,0,0,0],"sum_hessian":[3.84E2,3.79E2,5E0,3.73E2,6E0,3.68E2,5E0,3.59E2,9E0,3.54E2,5E0,3.44E2,1E1,3.04E2,4E1,5E0,5E0,2.92E2,1.2E1,1.8E1,2.2E1],"tree_param":{"num_deleted":"0","num_feature":"412","num_nodes":"21","size_leaf_vector":"1"}},{"base_weights":[1.1606398E-3,-1.4315409E-2,9.811169E-2,-6.5134107E-3,-4.291199E-2,-1.7998518E-3,-2.9531172E-2,-3.9122193E-3,9.400976E-3,-2.1753858E-3,-1.0660178E-2,-3.6038717E-3,3.9193906E-2,-2.6339386E-3,-5.8127767E-3,6.3029635E-3,4.8532427E-4,-9.977287E-5,-3.1939384E-3],"categories":[],"categories_nodes":[],"categories_segments":[],"categories_sizes":[],"default_left":[0,0,0,0,0,0,0,0,0,0,0,0,0,0,0,0,0,0,0],"id":43,"left_children":[1,3,-1,5,-1,7,-1,9,-1,11,-1,13,15,17,-1,-1,-1,-1,-1],"loss_changes":[5.8528976E0,1.2270004E0,0E0,5.085827E-1,0E0,7.5047895E-2,0E0,6.4332485E-2,0E0,2.1238325E-2,0E0,1.8144947E-2,9.516519E-3,1.6319035E-2,0E0,0E0,0E0,0E0,0E0],"parents":[2147483647,0,0,1,1,3,3,5,5,7,7,9,9,11,11,12,12,13,13],"right_children":[2,4,-1,6,-1,8,-1,10,-1,12,-1,14,16,18,-1,-1,-1,-1,-1],"split_conditions":[9.384744E-2,7.182689E-7,9.811169E-2,3E0,-4.291199E-2,2E0,-2.9531172E-2,1E0,9.400976E-3,7E0,-1.0660178E-2,1E0,4.5305433E-6,1E0,-5.8127767E-3,6.3029635E-3,4.8532427E-4,-9.977287E-5,-3.1939384E-3],"split_indices":[12,10,0,238,0,238,0,145,0,83,0,277,7,113,0,0,0,0,0],"split_type":[0,0,0,0,0,0,0,0,0,0,0,0,0,0,0,0,0,0,0],"sum_hessian":[3.84E2,3.79E2,5E0,3.73E2,6E0,3.68E2,5E0,3.61E2,7E0,3.56E2,5E0,3.45E2,1.1E1,3.4E2,5E0,6E0,5E0,3.23E2,1.7E1],"tree_param":{"num_deleted":"0","num_feature":"412","num_nodes":"19","size_leaf_vector":"1"}},{"base_weights":[1.1019548E-3,-1.7208913E-2,7.6800145E-2,-9.723271E-3,-4.1148953E-2,-5.1549617E-3,-2.867696E-2,-1.7409864E-3,-1.5771275E-2,-4.8279553E-3,8.79262E-2,-3.5037112E-3,-7.9725925E-3,-6.169167E-5,1.5125942E-2,-1.4162498E-3,-2.788229E-2,-5.4285646E-4,1.5511311E-3,-1.2686024E-3,-7.895487E-3],"categories":[],"categories_nodes":[],"categories_segments":[],"categories_sizes":[],"default_left":[0,0,0,0,0,0,0,0,0,0,0,0,0,0,0,0,0,0,0,0,0],"id":44,"left_children":[1,3,-1,5,-1,7,-1,9,-1,11,13,15,-1,-1,-1,17,19,-1,-1,-1,-1],"loss_changes":[5.4196153E0,1.1086931E0,0E0,4.680717E-1,0E0,1.9034868E-1,0E0,9.9795654E-2,0E0,3.4236416E-2,6.738595E-2,1.7415555E-2,0E0,0E0,0E0,2.1614432E-2,1.9953419E-2,0E0,0E0,0E0,0E0],"parents":[2147483647,0,0,1,1,3,3,5,5,7,7,9,9,10,10,11,11,15,15,16,16],"right_children":[2,4,-1,6,-1,8,-1,10,-1,12,14,16,-1,-1,-1,18,20,-1,-1,-1,-1],"split_conditions":[7.124649E-7,5E0,7.6800145E-2,2.6324332E-7,-4.1148953E-2,2.7E1,-2.867696E-2,1E0,-1.5771275E-2,2E0,1E0,2E0,-7.9725925E-3,-6.169167E-5,1.5125942E-2,3E0,6.11E2,-5.4285646E-4,1.5511311E-3,-1.2686024E-3,-7.895487E-3],"split_indices":[11,124,0,8,0,39,0,93,0,238,83,286,0,0,0,23,0,0,0,0,0],"split_type":[0,0,0,0,0,0,0,0,0,0,0,0,0,0,0,0,0,0,0,0,0],"sum_hessian":[3.84E2,3.76E2,8E0,3.7E2,6E0,3.65E2,5E0,3.58E2,7E0,3.47E2,1.1E1,3.42E2,5E0,5E0,6E0,3.16E2,2.6E1,2.56E2,6E1,2.1E1,5E0],"tree_param":{"num_deleted":"0","num_feature":"412","num_nodes":"21","size_leaf_vector":"1"}},{"base_weights":[9.661413E-4,-1.3734034E-2,9.318163E-2,-6.9128345E-3,-3.7621904E-2,-1.7355891E-3,-1.2264522E-1,-4.756714E-3,9.4274245E-2,-4.5381486E-2,-2.4385452E-2,-2.0392472E-3,-1.5976537E-2,-8.9325424E-4,1.8176867E-2,-7.611421E-3,-7.085187E-4,6.5159606E-5,-4.518366E-2,-1.304229E-3,6.3243355E-3,-9.515717E-3,-1.0304428E-2,-4.599725E-4,2.4293382E-3,-4.7194088E-5,-1.6973539E-3],"categories":[],"categories_nodes":[],"categories_segments":[],"categories_sizes":[],"default_left":[0,0,0,0,0,0,0,0,0,0,0,0,0,0,0,0,0,0,0,0,0,0,0,0,0,0,0],"id":45,"left_children":[1,3,-1,5,-1,7,9,11,13,15,-1,17,-1,-1,-1,-1,-1,19,21,23,-1,25,-1,-1,-1,-1,-1],"loss_changes":[5.281007E0,9.3698066E-1,0E0,2.2387856E-1,0E0,1.0457914E-1,1.3877486E-1,1.4668377E-1,1.00953855E-1,1.2407161E-2,0E0,3.1235874E-2,0E0,0E0,0E0,0E0,0E0,2.8546086E-2,3.2039773E-2,2.7358996E-2,0E0,7.33905E-4,0E0,0E0,0E0,0E0,0E0],"parents":[2147483647,0,0,1,1,3,3,5,5,6,6,7,7,8,8,9,9,11,11,17,17,18,18,19,19,21,21],"right_children":[2,4,-1,6,-1,8,10,12,14,16,-1,18,-1,-1,-1,-1,-1,20,22,24,-1,26,-1,-1,-1,-1,-1],"split_conditions":[3.138786E-2,5E0,9.318163E-2,3.1478865E-7,-3.7621904E-2,2E0,4E0,2E0,1E0,1E0,-2.4385452E-2,1E0,-1.5976537E-2,-8.9325424E-4,1.8176867E-2,-7.611421E-3,-7.085187E-4,3.8134232E-3,2E0,7.7680326E-8,6.3243355E-3,2E0,-1.0304428E-2,-4.599725E-4,2.4293382E-3,-4.7194088E-5,-1.6973539E-3],"split_indices":[9,124,0,11,0,167,57,220,105,295,0,60,0,0,0,0,0,9,66,4,0,49,0,0,0,0,0],"split_type":[0,0,0,0,0,0,0,0,0,0,0,0,0,0,0,0,0,0,0,0,0,0,0,0,0,0,0],"sum_hessian":[3.84E2,3.79E2,5E0,3.73E2,6E0,3.58E2,1.5E1,3.48E2,1E1,1E1,5E0,3.43E2,5E0,5E0,5E0,5E0,5E0,3.28E2,1.5E1,3.22E2,6E0,1E1,5E0,2.86E2,3.6E1,5E0,5E0],"tree_param":{"num_deleted":"0","num_feature":"412","num_nodes":"27","size_leaf_vector":"1"}},{"base_weights":[9.225289E-4,-1.3473569E-2,9.125217E-2,-6.927924E-3,-4.203308E-2,-1.0859345E-3,-7.659146E-2,-3.8939782E-3,1.0480437E-2,-1.8563049E-3,-2.1840263E-2,-1.8755088E-3,-6.391056E-2,6.8680043E-3,-2.3357696E-3,-8.186652E-3,-3.8840531E-4,-8.515435E-3,-3.2015012E-3,1.4265038E-3,-1.387529E-4,-3.6648116E-3,1.7221864E-2,-1.8736177E-4,-4.261641E-3,5.439162E-3,9.041639E-4],"categories":[],"categories_nodes":[],"categories_segments":[],"categories_sizes":[],"default_left":[0,0,0,0,0,0,0,0,0,0,0,0,0,0,0,0,0,0,0,0,0,0,0,0,0,0,0],"id":46,"left_children":[1,3,-1,5,-1,7,9,11,-1,13,-1,15,17,19,-1,-1,21,-1,-1,-1,-1,23,25,-1,-1,-1,-1],"loss_changes":[5.0648313E0,1.0090824E0,0E0,1.5253197E-1,0E0,1.0358669E-1,3.0694464E-1,4.0947147E-2,0E0,3.9121164E-3,0E0,3.9104365E-2,4.7271885E-3,9.357899E-4,0E0,0E0,1.8757397E-2,0E0,0E0,0E0,0E0,1.9037094E-2,1.5015116E-2,0E0,0E0,0E0,0E0],"parents":[2147483647,0,0,1,1,3,3,5,5,6,6,7,7,9,9,11,11,12,12,13,13,16,16,21,21,22,22],"right_children":[2,4,-1,6,-1,8,10,12,-1,14,-1,16,18,20,-1,-1,22,-1,-1,-1,-1,24,26,-1,-1,-1,-1],"split_conditions":[1.1E1,5.735465E-7,9.125217E-2,1E0,-4.203308E-2,2E0,6.9E1,3.447122E-7,1.0480437E-2,1E0,-2.1840263E-2,4.8213616E-7,1E0,2E0,-2.3357696E-3,-8.186652E-3,8.395882E-3,-8.515435E-3,-3.2015012E-3,1.4265038E-3,-1.387529E-4,1E0,4.4444352E-2,-1.8736177E-4,-4.261641E-3,5.439162E-3,9.041639E-4],"split_indices":[76,8,0,52,0,238,1,11,0,36,0,7,241,83,0,0,12,0,0,0,0,43,6,0,0,0,0],"split_type":[0,0,0,0,0,0,0,0,0,0,0,0,0,0,0,0,0,0,0,0,0,0,0,0,0,0,0],"sum_hessian":[3.84E2,3.79E2,5E0,3.74E2,5E0,3.46E2,2.8E1,3.38E2,8E0,1.9E1,9E0,3.28E2,1E1,1.4E1,5E0,5E0,3.23E2,5E0,5E0,7E0,7E0,2.73E2,5E1,2.62E2,1.1E1,8E0,4.2E1],"tree_param":{"num_deleted":"0","num_feature":"412","num_nodes":"27","size_leaf_vector":"1"}},{"base_weights":[8.7911397E-4,-1.329703E-2,8.985551E-2,-8.545879E-3,-3.0802777E-2,-5.1027415E-3,-2.1944841E-2,-2.1366386E-3,-1.2383903E-2,-4.312242E-3,1.0881358E-2,-2.6549168E-3,-1.0054707E-2,-1.485711E-3,-6.9636637E-3,-2.5017743E-4,5.650816E-3],"categories":[],"categories_nodes":[],"categories_segments":[],"categories_sizes":[],"default_left":[0,0,0,0,0,0,0,0,0,0,0,0,0,0,0,0,0],"id":47,"left_children":[1,3,-1,5,-1,7,-1,9,-1,11,-1,13,-1,15,-1,-1,-1],"loss_changes":[4.911298E0,5.2948546E-1,0E0,2.711926E-1,0E0,1.300435E-1,0E0,8.7850116E-2,0E0,5.651234E-2,0E0,2.7385252E-2,0E0,2.0529568E-2,0E0,0E0,0E0],"parents":[2147483647,0,0,1,1,3,3,5,5,7,7,9,9,11,11,13,13],"right_children":[2,4,-1,6,-1,8,-1,10,-1,12,-1,14,-1,16,-1,-1,-1],"split_conditions":[3E0,4E0,8.985551E-2,1.9065507E-7,-3.0802777E-2,4.7327416E-7,-2.1944841E-2,5E0,-1.2383903E-2,2.2E1,1.0881358E-2,3E0,-1.0054707E-2,4.6745844E-2,-6.9636637E-3,-2.5017743E-4,5.650816E-3],"split_indices":[253,124,0,8,0,11,0,76,0,39,0,210,0,12,0,0,0],"split_type":[0,0,0,0,0,0,0,0,0,0,0,0,0,0,0,0,0],"sum_hessian":[3.84E2,3.79E2,5E0,3.74E2,5E0,3.69E2,5E0,3.61E2,8E0,3.55E2,6E0,3.5E2,5E0,3.45E2,5E0,3.4E2,5E0],"tree_param":{"num_deleted":"0","num_feature":"412","num_nodes":"17","size_leaf_vector":"1"}},{"base_weights":[8.535066E-4,-1.4832792E-2,7.419244E-2,-7.831606E-3,-3.8477685E-2,-2.8087962E-3,-2.6933402E-2,1.2198375E-4,-1.7867593E-2,-2.359354E-3,8.745288E-3,-7.997045E-4,-5.0635785E-2,-1.8116824E-3,5.6173005E-3,-1.952852E-3,-7.3303753E-3,5.82956E-7,-3.2231398E-3],"categories":[],"categories_nodes":[],"categories_segments":[],"categories_sizes":[],"default_left":[0,0,0,0,0,0,0,0,0,0,0,0,0,0,0,0,0,0,0],"id":48,"left_children":[1,3,-1,5,-1,7,-1,9,-1,11,-1,13,15,17,-1,-1,-1,-1,-1],"loss_changes":[4.486499E0,9.7602427E-1,0E0,4.878569E-1,0E0,1.8866837E-1,0E0,7.84341E-2,0E0,2.6463103E-2,0E0,1.9819817E-2,6.3250083E-3,1.8632313E-2,0E0,0E0,0E0,0E0,0E0],"parents":[2147483647,0,0,1,1,3,3,5,5,7,7,9,9,11,11,12,12,13,13],"right_children":[2,4,-1,6,-1,8,-1,10,-1,12,-1,14,16,18,-1,-1,-1,-1,-1],"split_conditions":[1E0,7.182689E-7,7.419244E-2,3E0,-3.8477685E-2,5.9297927E-2,-2.6933402E-2,1E0,-1.7867593E-2,3.447122E-7,8.745288E-3,2.0688933E-7,4.47E2,1E0,5.6173005E-3,-1.952852E-3,-7.3303753E-3,5.82956E-7,-3.2231398E-3],"split_indices":[145,10,0,238,0,12,0,304,0,11,0,10,0,113,0,0,0,0,0],"split_type":[0,0,0,0,0,0,0,0,0,0,0,0,0,0,0,0,0,0,0],"sum_hessian":[3.84E2,3.77E2,7E0,3.71E2,6E0,3.65E2,6E0,3.6E2,5E0,3.51E2,9E0,3.41E2,1E1,3.36E2,5E0,5E0,5E0,3.18E2,1.8E1],"tree_param":{"num_deleted":"0","num_feature":"412","num_nodes":"19","size_leaf_vector":"1"}},{"base_weights":[7.4938155E-4,-1.4431311E-2,7.1794346E-2,-7.722044E-3,-3.6891934E-2,-3.615063E-3,-2.5764538E-2,-9.1352715E-4,-1.4242068E-2,-3.6727076E-3,8.721246E-2,-1.6932368E-4,-3.8591772E-2,-7.078865E-5,1.605974E-2,9.473573E-4,-5.8766855E-3,-1.4940192E-2,-7.2739725E-3,-8.519831E-5,3.9694034E-3,9.144183E-4,-6.352519E-3],"categories":[],"categories_nodes":[],"categories_segments":[],"categories_sizes":[],"default_left":[0,0,0,0,0,0,0,0,0,0,0,0,0,0,0,0,0,0,0,0,0,0,0],"id":49,"left_children":[1,3,-1,5,-1,7,-1,9,-1,11,13,15,17,-1,-1,19,-1,-1,21,-1,-1,-1,-1],"loss_changes":[4.2020493E0,8.961692E-1,0E0,3.8090068E-1,0E0,1.3749062E-1,0E0,8.8099435E-2,0E0,4.2933013E-2,7.108601E-2,2.0994792E-2,1.0996382E-1,0E0,0E0,2.1995133E-2,0E0,0E0,2.4592958E-2,0E0,0E0,0E0,0E0],"parents":[2147483647,0,0,1,1,3,3,5,5,7,7,9,9,10,10,11,11,12,12,15,15,18,18],"right_children":[2,4,-1,6,-1,8,-1,10,-1,12,14,16,18,-1,-1,20,-1,-1,22,-1,-1,-1,-1],"split_conditions":[1E0,4E0,7.1794346E-2,7.002835E-7,-3.6891934E-2,2.7E1,-2.5764538E-2,2E0,-1.4242068E-2,1E0,1E0,1E0,2.0048027E-8,-7.078865E-5,1.605974E-2,1E0,-5.8766855E-3,-1.4940192E-2,8.4128317E-7,-8.519831E-5,3.9694034E-3,9.144183E-4,-6.352519E-3],"split_indices":[269,124,0,10,0,39,0,19,0,20,210,229,5,0,0,113,0,0,13,0,0,0,0],"split_type":[0,0,0,0,0,0,0,0,0,0,0,0,0,0,0,0,0,0,0,0,0,0,0],"sum_hessian":[3.84E2,3.77E2,7E0,3.71E2,6E0,3.66E2,5E0,3.6E2,6E0,3.5E2,1E1,3.19E2,3.1E1,5E0,5E0,3.14E2,5E0,6E0,2.5E1,3.01E2,1.3E1,2E1,5E0],"tree_param":{"num_deleted":"0","num_feature":"412","num_nodes":"23","size_leaf_vector":"1"}},{"base_weights":[6.446125E-4,-1.2124437E-2,8.092436E-2,-6.005889E-3,-3.3729766E-2,-2.1049462E-3,-1.4778971E-2,-3.98977E-3,1.1133532E-2,-1.9138101E-3,-4.85033E-2,-8.160233E-4,-6.3802763E-3,-1.7140312E-4,-8.4704505E-3,-1.990875E-3,4.2613614E-3,-3.5060806E-5,-3.236343E-3],"categories":[],"categories_nodes":[],"categories_segments":[],"categories_sizes":[],"default_left":[0,0,0,0,0,0,0,0,0,0,0,0,0,0,0,0,0,0,0],"id":50,"left_children":[1,3,-1,5,-1,7,-1,9,-1,11,13,15,-1,-1,-1,17,-1,-1,-1],"loss_changes":[3.9849522E0,7.5401753E-1,0E0,2.0654477E-1,0E0,7.848665E-2,0E0,3.3174165E-2,0E0,2.3387538E-2,2.6956063E-2,1.7432788E-2,0E0,0E0,0E0,1.6528593E-2,0E0,0E0,0E0],"parents":[2147483647,0,0,1,1,3,3,5,5,7,7,9,9,10,10,11,11,15,15],"right_children":[2,4,-1,6,-1,8,-1,10,-1,12,14,16,-1,-1,-1,18,-1,-1,-1],"split_conditions":[3.138786E-2,5E0,8.092436E-2,2.7E1,-3.3729766E-2,2E0,-1.4778971E-2,2.8569295E-7,1.1133532E-2,2E0,9.048495E-6,5.835696E-8,-6.3802763E-3,-1.7140312E-4,-8.4704505E-3,1E0,4.2613614E-3,-3.5060806E-5,-3.236343E-3],"split_indices":[9,124,0,39,0,220,0,11,0,238,2,8,0,0,0,113,0,0,0],"split_type":[0,0,0,0,0,0,0,0,0,0,0,0,0,0,0,0,0,0,0],"sum_hessian":[3.84E2,3.79E2,5E0,3.73E2,6E0,3.64E2,9E0,3.59E2,5E0,3.44E2,1.5E1,3.39E2,5E0,7E0,8E0,3.31E2,8E0,3.15E2,1.6E1],"tree_param":{"num_deleted":"0","num_feature":"412","num_nodes":"19","size_leaf_vector":"1"}},{"base_weights":[6.5682153E-4,-1.1918629E-2,7.9699256E-2,-5.977219E-3,-3.812703E-2,-3.6980642E-3,-1.455289E-2,-1.675427E-3,-1.2612549E-2,-3.6407902E-3,1.1652561E-2,-1.6068703E-3,-4.726964E-2,-2.913699E-3,4.7505144E-3,-6.300367E-3,-1.1450171E-2,-1.3116546E-4,-3.2992673E-3,8.990458E-5,-1.2449719E-3],"categories":[],"categories_nodes":[],"categories_segments":[],"categories_sizes":[],"default_left":[0,0,0,0,0,0,0,0,0,0,0,0,0,0,0,0,0,0,0,0,0],"id":51,"left_children":[1,3,-1,5,-1,7,-1,9,-1,11,-1,13,15,17,-1,19,-1,-1,-1,-1,-1],"loss_changes":[3.864997E0,8.316196E-1,0E0,1.18734285E-1,0E0,9.1410406E-2,0E0,8.521665E-2,0E0,3.1869575E-2,0E0,2.2280859E-2,4.3349776E-2,1.6196033E-2,0E0,4.981818E-4,0E0,0E0,0E0,0E0,0E0],"parents":[2147483647,0,0,1,1,3,3,5,5,7,7,9,9,11,11,12,12,13,13,15,15],"right_children":[2,4,-1,6,-1,8,-1,10,-1,12,-1,14,16,18,-1,20,-1,-1,-1,-1,-1],"split_conditions":[1.1E1,5.735465E-7,7.9699256E-2,7.1689524E-2,-3.812703E-2,4E0,-1.455289E-2,3E0,-1.2612549E-2,1E0,1.1652561E-2,5.835696E-8,1E0,1E0,4.7505144E-3,3.15E2,-1.1450171E-2,-1.3116546E-4,-3.2992673E-3,8.990458E-5,-1.2449719E-3],"split_indices":[76,8,0,12,0,110,0,76,0,222,0,8,100,113,0,0,0,0,0,0,0],"split_type":[0,0,0,0,0,0,0,0,0,0,0,0,0,0,0,0,0,0,0,0,0],"sum_hessian":[3.84E2,3.79E2,5E0,3.74E2,5E0,3.69E2,5E0,3.64E2,5E0,3.59E2,5E0,3.44E2,1.5E1,3.36E2,8E0,1E1,5E0,3.2E2,1.6E1,5E0,5E0],"tree_param":{"num_deleted":"0","num_feature":"412","num_nodes":"21","size_leaf_vector":"1"}},{"base_weights":[6.295103E-4,-1.173951E-2,7.838959E-2,-7.42583E-3,-2.7938798E-2,-3.9723925E-3,-1.8841049E-2,-1.7968048E-3,-1.3529598E-2,-4.445017E-3,8.359082E-2,-1.3583825E-3,-3.4428388E-2,-1.2252711E-3,1.6550256E-2,-2.7825576E-3,4.3354137E-3,-7.818021E-3,-1.5287205E-2,-1.7106575E-4,-5.7343002E-3,1.3440683E-3,-7.351422E-3],"categories":[],"categories_nodes":[],"categories_segments":[],"categories_sizes":[],"default_left":[0,0,0,0,0,0,0,0,0,0,0,0,0,0,0,0,0,0,0,0,0,0,0],"id":52,"left_children":[1,3,-1,5,-1,7,-1,9,-1,11,13,15,17,-1,-1,19,-1,21,-1,-1,-1,-1,-1],"loss_changes":[3.7391741E0,4.3665436E-1,0E0,2.336337E-1,0E0,1.0518239E-1,0E0,8.26809E-2,0E0,3.2715127E-2,8.8385664E-2,2.0625096E-2,1.02815196E-1,0E0,0E0,1.8207192E-2,0E0,4.009333E-2,0E0,0E0,0E0,0E0,0E0],"parents":[2147483647,0,0,1,1,3,3,5,5,7,7,9,9,10,10,11,11,12,12,15,15,17,17],"right_children":[2,4,-1,6,-1,8,-1,10,-1,12,14,16,18,-1,-1,20,-1,22,-1,-1,-1,-1,-1],"split_conditions":[3E0,4E0,7.838959E-2,7.7121113E-3,-2.7938798E-2,2E0,-1.8841049E-2,2E0,-1.3529598E-2,1E0,2E0,3.6289416E-2,1.0163466E-1,-1.2252711E-3,1.6550256E-2,3.447122E-7,4.3354137E-3,1E0,-1.5287205E-2,-1.7106575E-4,-5.7343002E-3,1.3440683E-3,-7.351422E-3],"split_indices":[253,124,0,9,0,142,0,167,0,20,57,12,6,0,0,11,0,134,0,0,0,0,0],"split_type":[0,0,0,0,0,0,0,0,0,0,0,0,0,0,0,0,0,0,0,0,0,0,0],"sum_hessian":[3.84E2,3.79E2,5E0,3.74E2,5E0,3.68E2,6E0,3.63E2,5E0,3.53E2,1E1,3.21E2,3.2E1,5E0,5E0,3.12E2,9E0,2.7E1,5E0,3.07E2,5E0,2.1E1,6E0],"tree_param":{"num_deleted":"0","num_feature":"412","num_nodes":"23","size_leaf_vector":"1"}},{"base_weights":[5.939391E-4,6.400127E-2,-1.2940304E-2,-6.6768527E-3,-3.4394942E-2,-2.3390276E-3,-2.7089436E-2,1.8863224E-4,-1.5445135E-2,-1.96748E-3,7.628053E-3,1.6331773E-4,-4.4091675E-2,-7.290595E-3,6.783479E-3,-1.036603E-3,-7.2918246E-3,-1.7895472E-4,-8.907726E-3,4.260974E-4,4.153326E-3],"categories":[],"categories_nodes":[],"categories_segments":[],"categories_sizes":[],"default_left":[0,0,0,0,0,0,0,0,0,0,0,0,0,0,0,0,0,0,0,0,0],"id":53,"left_children":[1,-1,3,5,-1,7,-1,9,-1,11,-1,13,15,17,19,-1,-1,-1,-1,-1,-1],"loss_changes":[3.3400908E0,0E0,7.813956E-1,4.2572644E-1,0E0,1.411363E-1,0E0,5.9540767E-2,0E0,3.1691823E-2,0E0,1.6679093E-2,1.5771437E-2,7.137666E-2,1.5513543E-2,0E0,0E0,0E0,0E0,0E0,0E0],"parents":[2147483647,0,0,2,2,3,3,5,5,7,7,9,9,11,11,12,12,13,13,14,14],"right_children":[2,-1,4,6,-1,8,-1,10,-1,12,-1,14,16,18,20,-1,-1,-1,-1,-1,-1],"split_conditions":[3.8722052E-7,6.400127E-2,7.182689E-7,3E0,-3.4394942E-2,7.130531E-2,-2.7089436E-2,1E0,-1.5445135E-2,2.6181739E-2,7.628053E-3,4.8998023E-9,3.6590807E-6,2E0,1E0,-1.036603E-3,-7.2918246E-3,-1.7895472E-4,-8.907726E-3,4.260974E-4,4.153326E-3],"split_indices":[7,0,10,238,0,12,0,299,0,12,0,11,7,61,140,0,0,0,0,0,0],"split_type":[0,0,0,0,0,0,0,0,0,0,0,0,0,0,0,0,0,0,0,0,0],"sum_hessian":[3.84E2,7E0,3.77E2,3.71E2,6E0,3.66E2,5E0,3.61E2,5E0,3.52E2,9E0,3.36E2,1.6E1,1.58E2,1.78E2,8E0,8E0,1.49E2,9E0,1.67E2,1.1E1],"tree_param":{"num_deleted":"0","num_feature":"412","num_nodes":"21","size_leaf_vector":"1"}},{"base_weights":[4.8743797E-4,-1.077128E-2,7.134583E-2,-4.8119486E-3,-3.276311E-2,-1.2698533E-3,-1.3361722E-2,-3.0051381E-3,1.0305888E-2,-1.2239902E-3,-4.122332E-2,5.3718715E-5,-4.403261E-3,-1.6466705E-2,-7.97399E-3,-1.0654223E-2,5.172631E-3,3.1703626E-4,-3.3359323E-3,-3.1121416E-4,-1.3960794E-2,8.2150236E-4,-2.2301523E-3],"categories":[],"categories_nodes":[],"categories_segments":[],"categories_sizes":[],"default_left":[0,0,0,0,0,0,0,0,0,0,0,0,0,0,0,0,0,0,0,0,0,0,0],"id":54,"left_children":[1,3,-1,5,-1,7,-1,9,-1,11,13,15,-1,17,-1,19,21,-1,-1,-1,-1,-1,-1],"loss_changes":[3.0981328E0,7.15967E-1,0E0,1.7046429E-1,0E0,6.638933E-2,0E0,2.445555E-2,0E0,1.8872816E-2,1.394359E-2,1.847228E-2,0E0,3.7546975E-3,0E0,1.0557667E-1,1.9241078E-2,0E0,0E0,0E0,0E0,0E0,0E0],"parents":[2147483647,0,0,1,1,3,3,5,5,7,7,9,9,10,10,11,11,13,13,15,15,16,16],"right_children":[2,4,-1,6,-1,8,-1,10,-1,12,14,16,-1,18,-1,20,22,-1,-1,-1,-1,-1,-1],"split_conditions":[3.138786E-2,5E0,7.134583E-2,2.7E1,-3.276311E-2,2E0,-1.3361722E-2,2.8569295E-7,1.0305888E-2,1E0,1.0416231E-5,5.309958E-6,-4.403261E-3,1E0,-7.97399E-3,2E0,2E0,3.1703626E-4,-3.3359323E-3,-3.1121416E-4,-1.3960794E-2,8.2150236E-4,-2.2301523E-3],"split_indices":[9,124,0,39,0,220,0,11,0,294,2,2,0,191,0,61,286,0,0,0,0,0,0],"split_type":[0,0,0,0,0,0,0,0,0,0,0,0,0,0,0,0,0,0,0,0,0,0,0],"sum_hessian":[3.84E2,3.79E2,5E0,3.73E2,6E0,3.64E2,9E0,3.59E2,5E0,3.44E2,1.5E1,3.35E2,9E0,1E1,5E0,1.08E2,2.27E2,5E0,5E0,1.03E2,5E0,2.05E2,2.2E1],"tree_param":{"num_deleted":"0","num_feature":"412","num_nodes":"23","size_leaf_vector":"1"}},{"base_weights":[4.5024973E-4,-1.1573562E-2,6.513895E-2,-7.4155545E-3,-2.6882712E-2,-4.785956E-3,-1.6789995E-2,-1.2363129E-2,-2.8138184E-3,-1.4688263E-3,-8.282021E-3,2.9E-4,-3.919179E-2,-8.1595394E-4,4.1546724E-3,-6.778849E-3,-9.208355E-3,6.782456E-5,-2.5781193E-3,8.93005E-5,-1.3320895E-3],"categories":[],"categories_nodes":[],"categories_segments":[],"categories_sizes":[],"default_left":[0,0,0,0,0,0,0,0,0,0,0,0,0,0,0,0,0,0,0,0,0],"id":55,"left_children":[1,3,-1,5,-1,7,-1,-1,9,11,-1,13,15,17,-1,19,-1,-1,-1,-1,-1],"loss_changes":[3.0208457E0,4.0340853E-1,0E0,1.5702802E-1,0E0,8.61381E-2,0E0,0E0,3.9047647E-2,2.3830349E-2,0E0,1.5729945E-2,2.6805824E-2,1.255131E-2,0E0,5.639814E-4,0E0,0E0,0E0,0E0,0E0],"parents":[2147483647,0,0,1,1,3,3,5,5,8,8,9,9,11,11,12,12,13,13,15,15],"right_children":[2,4,-1,6,-1,8,-1,-1,10,12,-1,14,16,18,-1,20,-1,-1,-1,-1,-1],"split_conditions":[3E0,2.6324332E-7,6.513895E-2,7.7412866E-2,-2.6882712E-2,3.8722052E-7,-1.6789995E-2,-1.2363129E-2,3E0,1E0,-8.282021E-3,1.4611096E-7,1E0,1E0,4.1546724E-3,3.15E2,-9.208355E-3,6.782456E-5,-2.5781193E-3,8.93005E-5,-1.3320895E-3],"split_indices":[167,8,0,12,0,7,0,0,204,222,0,4,100,113,0,0,0,0,0,0,0],"split_type":[0,0,0,0,0,0,0,0,0,0,0,0,0,0,0,0,0,0,0,0,0],"sum_hessian":[3.84E2,3.78E2,6E0,3.73E2,5E0,3.68E2,5E0,5E0,3.63E2,3.58E2,5E0,3.43E2,1.5E1,3.35E2,8E0,1E1,5E0,3.17E2,1.8E1,5E0,5E0],"tree_param":{"num_deleted":"0","num_feature":"412","num_nodes":"21","size_leaf_vector":"1"}},{"base_weights":[3.8448122E-4,-1.2778626E-2,5.517297E-2,-6.6263326E-3,-3.370247E-2,-2.3727205E-3,-2.6499227E-2,7.5796124E-5,-1.1195331E-2,-2.1947196E-3,7.210618E-2,-5.555843E-4,-3.865576E-2,6.6891684E-5,1.3152576E-2,-1.7346506E-3,4.2345556E-3,1.2191486E-3,-6.5298537E-3,-6.103632E-5,-3.7313525E-3],"categories":[],"categories_nodes":[],"categories_segments":[],"categories_sizes":[],"default_left":[0,0,0,0,0,0,0,0,0,0,0,0,0,0,0,0,0,0,0,0,0],"id":56,"left_children":[1,3,-1,5,-1,7,-1,9,-1,11,13,15,17,-1,-1,19,-1,-1,-1,-1,-1],"loss_changes":[2.8011558E0,7.498278E-1,0E0,4.0709597E-1,0E0,9.82099E-2,0E0,5.887131E-2,0E0,2.0836364E-2,4.6604503E-2,1.7018856E-2,2.1116761E-2,0E0,0E0,1.3057513E-2,0E0,0E0,0E0,0E0,0E0],"parents":[2147483647,0,0,1,1,3,3,5,5,7,7,9,9,10,10,11,11,12,12,15,15],"right_children":[2,4,-1,6,-1,8,-1,10,-1,12,14,16,18,-1,-1,20,-1,-1,-1,-1,-1],"split_conditions":[7.124649E-7,7.182689E-7,5.517297E-2,4E0,-3.370247E-2,2.7E1,-2.6499227E-2,2E0,-1.1195331E-2,1E0,1E0,3.6289416E-2,4.17E2,6.6891684E-5,1.3152576E-2,1E0,4.2345556E-3,1.2191486E-3,-6.5298537E-3,-6.103632E-5,-3.7313525E-3],"split_indices":[11,10,0,124,0,39,0,19,0,222,210,12,0,0,0,71,0,0,0,0,0],"split_type":[0,0,0,0,0,0,0,0,0,0,0,0,0,0,0,0,0,0,0,0,0],"sum_hessian":[3.84E2,3.76E2,8E0,3.7E2,6E0,3.65E2,5E0,3.58E2,7E0,3.48E2,1E1,3.34E2,1.4E1,5E0,5E0,3.26E2,8E0,5E0,9E0,3.17E2,9E0],"tree_param":{"num_deleted":"0","num_feature":"412","num_nodes":"21","size_leaf_vector":"1"}},{"base_weights":[3.2558342E-4,-1.0298573E-2,6.7313455E-2,-6.5356432E-3,-2.4376526E-2,-3.649241E-3,-1.834412E-2,-4.3887598E-4,-1.191785E-2,-1.0701573E-2,1.3585959E-3,-1.4979362E-3,6.639695E-2,9.179348E-5,-3.3894416E-2,7.741497E-4,1.530899E-2,-5.8390363E-4,9.2401914E-4,4.3553763E-4,-8.369491E-3],"categories":[],"categories_nodes":[],"categories_segments":[],"categories_sizes":[],"default_left":[0,0,0,0,0,0,0,0,0,0,0,0,0,0,0,0,0,0,0,0,0],"id":57,"left_children":[1,3,-1,5,-1,7,-1,9,-1,-1,11,13,15,17,19,-1,-1,-1,-1,-1,-1],"loss_changes":[2.7589233E0,3.32244E-1,0E0,1.908133E-1,0E0,1.371774E-1,0E0,6.9301754E-2,0E0,0E0,6.623863E-2,1.7616672E-2,7.509006E-2,1.7796187E-2,3.0842263E-2,0E0,0E0,0E0,0E0,0E0,0E0],"parents":[2147483647,0,0,1,1,3,3,5,5,7,7,10,10,11,11,12,12,13,13,14,14],"right_children":[2,4,-1,6,-1,8,-1,10,-1,-1,12,14,16,18,20,-1,-1,-1,-1,-1,-1],"split_conditions":[3E0,1E0,6.7313455E-2,2.565484E-7,-2.4376526E-2,4.7327416E-7,-1.834412E-2,3.8722052E-7,-1.191785E-2,-1.0701573E-2,1E0,2E0,5E0,1E0,1.029969E-5,7.741497E-4,1.530899E-2,-5.8390363E-4,9.2401914E-4,4.3553763E-4,-8.369491E-3],"split_indices":[253,308,0,8,0,11,0,7,0,0,93,191,27,22,2,0,0,0,0,0,0],"split_type":[0,0,0,0,0,0,0,0,0,0,0,0,0,0,0,0,0,0,0,0,0],"sum_hessian":[3.84E2,3.79E2,5E0,3.74E2,5E0,3.69E2,5E0,3.6E2,9E0,5E0,3.55E2,3.41E2,1.4E1,3.26E2,1.5E1,9E0,5E0,1.98E2,1.28E2,9E0,6E0],"tree_param":{"num_deleted":"0","num_feature":"412","num_nodes":"21","size_leaf_vector":"1"}},{"base_weights":[3.2020127E-4,-1.3009468E-2,5.0148375E-2,-7.627194E-3,-3.4364518E-2,-3.7588151E-3,-2.423271E-2,-1.7442737E-3,-1.243406E-2,-2.7367033E-4,-8.870936E-3,-1.9313162E-3,5.7274005E-3,-6.950568E-4,-5.4230927E-3,-7.514708E-4,5.196746E-4],"categories":[],"categories_nodes":[],"categories_segments":[],"categories_sizes":[],"default_left":[0,0,0,0,0,0,0,0,0,0,0,0,0,0,0,0,0],"id":58,"left_children":[1,3,-1,5,-1,7,-1,9,-1,11,-1,13,-1,15,-1,-1,-1],"loss_changes":[2.5784564E0,6.6649795E-1,0E0,3.3592305E-1,0E0,8.8690735E-2,0E0,4.6144426E-2,0E0,3.407076E-2,0E0,2.2397898E-2,0E0,1.37002645E-2,0E0,0E0,0E0],"parents":[2147483647,0,0,1,1,3,3,5,5,7,7,9,9,11,11,13,13],"right_children":[2,4,-1,6,-1,8,-1,10,-1,12,-1,14,-1,16,-1,-1,-1],"split_conditions":[2E0,5.735465E-7,5.0148375E-2,4E0,-3.4364518E-2,2.7E1,-2.423271E-2,7.124649E-7,-1.243406E-2,3.6289416E-2,-8.870936E-3,1E0,5.7274005E-3,4.8998023E-9,-5.4230927E-3,-7.514708E-4,5.196746E-4],"split_indices":[288,8,0,124,0,39,0,11,0,12,0,161,0,11,0,0,0],"split_type":[0,0,0,0,0,0,0,0,0,0,0,0,0,0,0,0,0],"sum_hessian":[3.84E2,3.75E2,9E0,3.7E2,5E0,3.65E2,5E0,3.6E2,5E0,3.55E2,5E0,3.46E2,9E0,3.39E2,7E0,1.57E2,1.82E2],"tree_param":{"num_deleted":"0","num_feature":"412","num_nodes":"17","size_leaf_vector":"1"}},{"base_weights":[2.1108425E-4,-9.937982E-3,6.4295016E-2,-5.0303596E-3,-3.1500813E-2,-3.0703198E-3,-1.2506108E-2,-1.4875121E-3,-8.49377E-3,-3.7718592E-3,7.216216E-2,-1.5752009E-3,-7.917939E-3,1.2966662E-2,2.6306714E-4,-3.928053E-3,2.006201E-2,-2.109609E-4,-4.248425E-3,4.6599405E-3,7.0631213E-4],"categories":[],"categories_nodes":[],"categories_segments":[],"categories_sizes":[],"default_left":[0,0,0,0,0,0,0,0,0,0,0,0,0,0,0,0,0,0,0,0,0],"id":59,"left_children":[1,3,-1,5,-1,7,-1,9,-1,11,13,15,-1,-1,-1,17,19,-1,-1,-1,-1],"loss_changes":[2.5178223E0,5.6733966E-1,0E0,8.7840386E-2,0E0,4.7818366E-2,0E0,6.151206E-2,0E0,5.8513455E-2,4.364096E-2,1.7642466E-2,0E0,0E0,0E0,2.178541E-2,1.1399388E-2,0E0,0E0,0E0,0E0],"parents":[2147483647,0,0,1,1,3,3,5,5,7,7,9,9,10,10,11,11,15,15,16,16],"right_children":[2,4,-1,6,-1,8,-1,10,-1,12,14,16,-1,-1,-1,18,20,-1,-1,-1,-1],"split_conditions":[1.1E1,5.735465E-7,6.4295016E-2,1E1,-3.1500813E-2,3E0,-1.2506108E-2,1.32E2,-8.49377E-3,1.7235609E-6,1E0,8.591619E-8,-7.917939E-3,1.2966662E-2,2.6306714E-4,1E0,1.9391651E-4,-2.109609E-4,-4.248425E-3,4.6599405E-3,7.0631213E-4],"split_indices":[76,8,0,57,0,204,0,1,0,13,102,4,0,0,0,113,12,0,0,0,0],"split_type":[0,0,0,0,0,0,0,0,0,0,0,0,0,0,0,0,0,0,0,0,0],"sum_hessian":[3.84E2,3.79E2,5E0,3.74E2,5E0,3.69E2,5E0,3.63E2,6E0,3.53E2,1E1,3.44E2,9E0,5E0,5E0,3.11E2,3.3E1,2.98E2,1.3E1,1E1,2.3E1],"tree_param":{"num_deleted":"0","num_feature":"412","num_nodes":"21","size_leaf_vector":"1"}},{"base_weights":[2.3676176E-4,-9.639776E-3,6.257114E-2,-3.8908871E-3,-3.154176E-2,-9.836875E-4,-1.0961459E-2,-2.7028858E-3,6.0318145E-3,-4.086241E-3,6.6851E-3,-2.8013291E-3,-7.7287625E-3,-2.537829E-4,-2.9542105E-2,1.5659098E-4,-3.04668E-3,-9.7106176E-4,-1.0724963E-2],"categories":[],"categories_nodes":[],"categories_segments":[],"categories_sizes":[],"default_left":[0,0,0,0,0,0,0,0,0,0,0,0,0,0,0,0,0,0,0],"id":60,"left_children":[1,3,-1,5,-1,7,-1,9,-1,11,-1,13,-1,15,17,-1,-1,-1,-1],"loss_changes":[2.3843782E0,6.6676813E-1,0E0,1.14844784E-1,0E0,3.863039E-2,0E0,3.452668E-2,0E0,3.270355E-2,0E0,2.3495067E-2,0E0,1.7420884E-2,4.519021E-2,0E0,0E0,0E0,0E0],"parents":[2147483647,0,0,1,1,3,3,5,5,7,7,9,9,11,11,13,13,14,14],"right_children":[2,4,-1,6,-1,8,-1,10,-1,12,-1,14,-1,16,18,-1,-1,-1,-1],"split_conditions":[3.138786E-2,5E0,6.257114E-2,2.7E1,-3.154176E-2,2E0,-1.0961459E-2,1E0,6.0318145E-3,7.124649E-7,6.6851E-3,1E0,-7.7287625E-3,1E0,2E0,1.5659098E-4,-3.04668E-3,-9.7106176E-4,-1.0724963E-2],"split_indices":[9,124,0,39,0,26,0,292,0,11,0,288,0,158,210,0,0,0,0],"split_type":[0,0,0,0,0,0,0,0,0,0,0,0,0,0,0,0,0,0,0],"sum_hessian":[3.84E2,3.79E2,5E0,3.73E2,6E0,3.64E2,9E0,3.55E2,9E0,3.49E2,6E0,3.44E2,5E0,3.15E2,2.9E1,2.98E2,1.7E1,2.4E1,5E0],"tree_param":{"num_deleted":"0","num_feature":"412","num_nodes":"19","size_leaf_vector":"1"}},{"base_weights":[2.4027747E-4,-1.0025943E-2,5.5604845E-2,-5.910965E-3,-2.6485521E-2,-2.213445E-3,-1.9945046E-2,-4.032834E-3,5.7200626E-2,-1.8864304E-3,-1.2964077E-2,-1.50202E-3,1.1988802E-2,-4.0597378E-4,-8.743851E-3,-1.6281228E-3,6.9527864E-3,-3.054075E-3,3.5233043E-5],"categories":[],"categories_nodes":[],"categories_segments":[],"categories_sizes":[],"default_left":[0,0,0,0,0,0,0,0,0,0,0,0,0,0,0,0,0,0,0],"id":61,"left_children":[1,3,-1,5,-1,7,-1,9,11,13,-1,-1,-1,15,-1,17,-1,-1,-1],"loss_changes":[2.2024038E0,3.958602E-1,0E0,2.67199E-1,0E0,4.0010497E-2,0E0,9.627416E-2,5.1601417E-2,4.467412E-2,0E0,0E0,0E0,2.985661E-2,0E0,1.9650977E-2,0E0,0E0,0E0],"parents":[2147483647,0,0,1,1,3,3,5,5,7,7,8,8,9,9,13,13,15,15],"right_children":[2,4,-1,6,-1,8,-1,10,12,14,-1,-1,-1,16,-1,18,-1,-1,-1],"split_conditions":[5E0,7.182689E-7,5.5604845E-2,1E1,-2.6485521E-2,2E0,-1.9945046E-2,2E0,2E0,2E0,-1.2964077E-2,-1.50202E-3,1.1988802E-2,3.8134232E-3,-8.743851E-3,2.1930337E-2,6.9527864E-3,-3.054075E-3,3.5233043E-5],"split_indices":[204,10,0,57,0,167,0,220,49,238,0,0,0,9,0,6,0,0,0],"split_type":[0,0,0,0,0,0,0,0,0,0,0,0,0,0,0,0,0,0,0],"sum_hessian":[3.84E2,3.78E2,6E0,3.73E2,5E0,3.67E2,6E0,3.57E2,1E1,3.52E2,5E0,5E0,5E0,3.47E2,5E0,3.42E2,5E0,2.1E1,3.21E2],"tree_param":{"num_deleted":"0","num_feature":"412","num_nodes":"19","size_leaf_vector":"1"}},{"base_weights":[2.2115336E-4,-1.0424136E-2,5.031834E-2,-5.446385E-3,-3.1813696E-2,-2.3440595E-3,-1.9481463E-2,-4.158812E-4,-8.90601E-3,-2.2884367E-3,4.9887028E-2,-1.0944641E-3,-7.0361467E-3,1.0142938E-2,4.9943815E-4,1.2772449E-4,-4.6601235E-3,-9.3348914E-5,5.013812E-3],"categories":[],"categories_nodes":[],"categories_segments":[],"categories_sizes":[],"default_left":[0,0,0,0,0,0,0,0,0,0,0,0,0,0,0,0,0,0,0],"id":62,"left_children":[1,3,-1,5,-1,7,-1,9,-1,11,13,15,-1,-1,-1,17,-1,-1,-1],"loss_changes":[2.0666041E0,5.772567E-1,0E0,2.1867411E-1,0E0,6.1494026E-2,0E0,3.411856E-2,0E0,2.8288784E-2,2.9573768E-2,1.9138493E-2,0E0,0E0,0E0,1.7878897E-2,0E0,0E0,0E0],"parents":[2147483647,0,0,1,1,3,3,5,5,7,7,9,9,10,10,11,11,15,15],"right_children":[2,4,-1,6,-1,8,-1,10,-1,12,14,16,-1,-1,-1,18,-1,-1,-1],"split_conditions":[1E0,5E0,5.031834E-2,2.6324332E-7,-3.1813696E-2,2.7E1,-1.9481463E-2,1E0,-8.90601E-3,7.124649E-7,2E0,1E0,-7.0361467E-3,1.0142938E-2,4.9943815E-4,4.57416E-2,-4.6601235E-3,-9.3348914E-5,5.013812E-3],"split_indices":[145,124,0,8,0,39,0,174,0,11,61,294,0,0,0,12,0,0,0],"split_type":[0,0,0,0,0,0,0,0,0,0,0,0,0,0,0,0,0,0,0],"sum_hessian":[3.84E2,3.77E2,7E0,3.72E2,5E0,3.67E2,5E0,3.6E2,7E0,3.48E2,1.2E1,3.43E2,5E0,5E0,7E0,3.35E2,8E0,3.29E2,6E0],"tree_param":{"num_deleted":"0","num_feature":"412","num_nodes":"19","size_leaf_vector":"1"}}]},"name":"gbtree"},"learner_model_param":{"base_score":"-4.947651E-10","boost_from_average":"1","num_class":"0","num_feature":"412","num_target":"1"},"objective":{"name":"reg:squarederror","reg_loss_param":{"scale_pos_weight":"1"}}},"version":[2,0,3]}