{"learner":{"attributes":{"best_iteration":"26","best_score":"0.5416756041508238"},"feature_names":[],"feature_types":[],"gradient_booster":{"model":{"gbtree_model_param":{"num_parallel_tree":"1","num_trees":"77"},"iteration_indptr":[0,1,2,3,4,5,6,7,8,9,10,11,12,13,14,15,16,17,18,19,20,21,22,23,24,25,26,27,28,29,30,31,32,33,34,35,36,37,38,39,40,41,42,43,44,45,46,47,48,49,50,51,52,53,54,55,56,57,58,59,60,61,62,63,64,65,66,67,68,69,70,71,72,73,74,75,76,77],"tree_info":[0,0,0,0,0,0,0,0,0,0,0,0,0,0,0,0,0,0,0,0,0,0,0,0,0,0,0,0,0,0,0,0,0,0,0,0,0,0,0,0,0,0,0,0,0,0,0,0,0,0,0,0,0,0,0,0,0,0,0,0,0,0,0,0,0,0,0,0,0,0,0,0,0,0,0,0,0],"trees":[{"base_weights":[3.7774348E-10,-3.916527E-1,1.2473288E0,-9.3545693E-1,-2.4831392E-2,7.138316E-1,1.6811898E0,-1.7613037E0,-7.886447E-1,-1.7966673E-1,1.8607576E-1,7.392748E-1,1.2816368E-1,1.3575593E0,2.0987575E-1,-1.0146455E-1,-1.9878575E0,-8.0818325E-1,5.9237625E-2,-2.2945304E-1,1.7882822E-1,2.1759896E-1,-4.2786088E-2,7.553921E-1,4.7292826E-3,3.5835356E-3,1.5641017E-2,1.499669E0,9.091622E-2,-4.9266547E-2,-2.0789962E-1,-8.245744E-1,2.1190792E-3,-1.6616264E-1,-5.11786E-1,-2.334451E-1,3.2585472E-1,1.1157663E-1,3.3951697E-1,5.25734E-1,8.3504075E-1,3.1361926E-2,1.5412132E-1,-8.349151E-1,9.440497E-3,6.9071623E-3,-6.5893005E-3,-1.21536925E-1,-5.8230716E-1,-6.458772E-1,-3.357287E-1,-3.4650996E-2,5.2874736E-3,2.7624194E-2,5.2007105E-2,5.6265153E-2,7.302923E-2,4.0464345E-1,3.9812412E-2,2.634312E-2,5.7808172E-2,8.52652E-1,1.7976804E-2,-8.602337E-2,-3.0332506E-2,8.681036E-3,-2.0834828E-2,-1.5371748E-3,-8.06007E-2,-7.3318616E-2,-2.5596691E-2,-9.066426E-3,-3.5502873E-2,1.4476724E-2,-9.872693E-3,-1.15795825E-2,1.7585007E-2,1.719459E-2,4.4971354E-2,-1.4664955E-2,9.5331E-3,8.787695E-2,3.5078853E-2],"categories":[],"categories_nodes":[],"categories_segments":[],"categories_sizes":[],"default_left":[0,0,0,0,0,0,0,0,0,0,0,0,0,0,0,0,0,0,0,0,0,0,0,0,0,0,0,0,0,0,0,0,0,0,0,0,0,0,0,0,0,0,0,0,0,0,0,0,0,0,0,0,0,0,0,0,0,0,0,0,0,0,0,0,0,0,0,0,0,0,0,0,0,0,0,0,0,0,0,0,0,0,0],"id":0,"left_children":[1,3,5,7,9,11,13,15,17,19,21,23,25,27,-1,-1,29,31,-1,33,35,37,-1,39,-1,-1,-1,41,-1,-1,-1,43,45,47,49,51,53,55,57,59,61,-1,-1,63,-1,-1,-1,65,67,69,71,-1,-1,73,-1,-1,75,77,79,-1,-1,81,-1,-1,-1,-1,-1,-1,-1,-1,-1,-1,-1,-1,-1,-1,-1,-1,-1,-1,-1,-1,-1],"loss_changes":[1.880801E2,5.8424114E1,2.0094559E1,1.2917793E1,5.7808666E0,5.4600716E-1,3.9076996E0,8.587227E-1,3.2310333E0,1.8615427E0,1.544596E0,4.215412E-1,2.2188388E-3,6.1192703E-1,0E0,0E0,6.1099243E-1,1.343216E0,0E0,1.5231671E0,8.640655E-1,8.927922E-1,0E0,2.926693E-1,0E0,0E0,0E0,6.0066223E-1,0E0,0E0,0E0,1.0195999E0,1.8212084E-2,1.3220344E0,1.6088438E-1,1.4781247E-1,5.648459E-1,6.5442073E-1,6.280074E-1,2.621746E-2,1.6984558E-1,0E0,0E0,1.0580597E0,0E0,0E0,0E0,1.2660834E0,8.753736E-1,8.466983E-2,1.0379314E-2,0E0,0E0,8.8298194E-2,0E0,0E0,7.581385E-1,2.0584154E-1,8.644499E-2,0E0,0E0,4.563713E-2,0E0,0E0,0E0,0E0,0E0,0E0,0E0,0E0,0E0,0E0,0E0,0E0,0E0,0E0,0E0,0E0,0E0,0E0,0E0,0E0,0E0],"parents":[2147483647,0,0,1,1,2,2,3,3,4,4,5,5,6,6,7,7,8,8,9,9,10,10,11,11,12,12,13,13,16,16,17,17,19,19,20,20,21,21,23,23,27,27,31,31,32,32,33,33,34,34,35,35,36,36,37,37,38,38,39,39,40,40,43,43,47,47,48,48,49,49,50,50,53,53,56,56,57,57,58,58,61,61],"right_children":[2,4,6,8,10,12,14,16,18,20,22,24,26,28,-1,-1,30,32,-1,34,36,38,-1,40,-1,-1,-1,42,-1,-1,-1,44,46,48,50,52,54,56,58,60,62,-1,-1,64,-1,-1,-1,66,68,70,72,-1,-1,74,-1,-1,76,78,80,-1,-1,82,-1,-1,-1,-1,-1,-1,-1,-1,-1,-1,-1,-1,-1,-1,-1,-1,-1,-1,-1,-1,-1],"split_conditions":[5.3630927E2,1.1876909E2,1.1419823E3,3.5985783E1,2.5242294E2,1E0,2E0,1.846242E1,1E0,1E0,1E0,1E0,1.81E2,5.0241906E-2,2.0987575E-1,-1.0146455E-1,1.564598E-8,1E0,5.9237625E-2,1.3650027E-1,2.2761782E-8,3.7074234E2,-4.2786088E-2,9.111539E-6,4.7292826E-3,3.5835356E-3,1.5641017E-2,6.0698983E-7,9.091622E-2,-4.9266547E-2,-2.0789962E-1,2E0,5.19E2,1E0,1.7305337E-1,5.88E2,1.6993701E2,1.7E1,1E0,1.5070817E-1,1E0,3.1361926E-2,1.5412132E-1,1E0,9.440497E-3,6.9071623E-3,-6.5893005E-3,1.3907437E2,1.9357914E-8,6.917583E-6,5.349019E-6,-3.4650996E-2,5.2874736E-3,1.8590711E-1,5.2007105E-2,5.6265153E-2,6.544602E-2,2.350993E-8,3.0352497E-2,2.634312E-2,5.7808172E-2,1E0,1.7976804E-2,-8.602337E-2,-3.0332506E-2,8.681036E-3,-2.0834828E-2,-1.5371748E-3,-8.06007E-2,-7.3318616E-2,-2.5596691E-2,-9.066426E-3,-3.5502873E-2,1.4476724E-2,-9.872693E-3,-1.15795825E-2,1.7585007E-2,1.719459E-2,4.4971354E-2,-1.4664955E-2,9.5331E-3,8.787695E-2,3.5078853E-2],"split_indices":[320,334,316,330,341,47,26,314,53,138,88,95,0,6,0,0,5,131,0,6,4,334,0,2,0,0,0,7,0,0,0,36,0,288,3,0,333,1,82,3,94,0,0,134,0,0,0,320,5,2,2,0,0,3,0,0,6,4,6,0,0,226,0,0,0,0,0,0,0,0,0,0,0,0,0,0,0,0,0,0,0,0,0],"split_type":[0,0,0,0,0,0,0,0,0,0,0,0,0,0,0,0,0,0,0,0,0,0,0,0,0,0,0,0,0,0,0,0,0,0,0,0,0,0,0,0,0,0,0,0,0,0,0,0,0,0,0,0,0,0,0,0,0,0,0,0,0,0,0,0,0,0,0,0,0,0,0,0,0,0,0,0,0,0,0,0,0,0,0],"sum_hessian":[3.83E2,2.92E2,9.1E1,1.17E2,1.75E2,4.2E1,4.9E1,1.6E1,1.01E2,1.01E2,7.4E1,4E1,2E0,3E1,1.9E1,5E0,1.1E1,1E2,1E0,8.9E1,1.2E1,7.1E1,3E0,3.9E1,1E0,1E0,1E0,2.1E1,9E0,1E0,1E1,9.8E1,2E0,7.4E1,1.5E1,3E0,9E0,3.9E1,3.2E1,1.2E1,2.7E1,1E0,2E1,9.7E1,1E0,1E0,1E0,6.8E1,6E0,7E0,8E0,2E0,1E0,4E0,5E0,2E0,3.7E1,2.6E1,6E0,3E0,9E0,2.6E1,1E0,9.2E1,5E0,2E1,4.8E1,2E0,4E0,5E0,2E0,1E0,7E0,2E0,2E0,1.3E1,2.4E1,5E0,2.1E1,1E0,5E0,2.4E1,2E0],"tree_param":{"num_deleted":"0","num_feature":"443","num_nodes":"83","size_leaf_vector":"1"}},{"base_weights":[5.0862535E-4,-3.5433045E-1,1.1305884E0,-8.0023366E-1,1.1185296E-2,6.4824003E-1,1.5227963E0,-1.6062692E0,-6.7520916E-1,-1.23006985E-1,1.6848843E-1,6.7095256E-1,1.21755496E-1,1.2334445E0,1.9299786E-1,-9.300917E-2,-1.8105023E0,-8.3669966E-1,-5.1053965E-1,4.2815855E-1,-1.4749704E-1,1.9749607E-1,-3.957713E-2,6.8547994E-1,4.4928184E-3,3.4043589E-3,1.4858966E-2,1.273318E0,4.235602E-2,-4.6803217E-2,-1.8899966E0,-8.7431777E-1,-2.706081E-1,-5.382694E-1,5.6275744E-2,4.9515884E-2,1.1357887E-2,-2.863058E-1,-4.934404E-2,1.0197573E-1,3.072936E-1,4.6034357E-1,7.5500256E-1,2.9793829E-2,1.2966782E0,-1.9722998E-1,-5.3348232E-2,-9.009674E-1,-1.2983429E-2,-3.982505E-2,-5.2763056E-3,-5.6102157E-1,3.9067715E-2,-1.0822306E-1,-4.3057424E-1,3.8430046E-2,-1.0483367E-1,3.921037E-1,4.9325917E-2,3.6648154E-1,3.5098046E-2,5.1309347E-2,2.2657035E-2,7.697684E-1,1.7077966E-2,1.3319506E-1,5.4700024E-2,-3.2485813E-2,-9.4308615E-2,-3.6463824E-3,-5.992024E-2,-3.484271E-2,-7.5120426E-4,-4.8348986E-2,1.2805497E-3,-1.7699933E-2,1.4087513E-2,5.3100307E-2,-1.5119659E-2,-1.8261364E-2,1.0361044E-2,3.97111E-2,9.108451E-3,-1.3931708E-2,8.738675E-3,7.81643E-2,2.2457764E-2],"categories":[],"categories_nodes":[],"categories_segments":[],"categories_sizes":[],"default_left":[0,0,0,0,0,0,0,0,0,0,0,0,0,0,0,0,0,0,0,0,0,0,0,0,0,0,0,0,0,0,0,0,0,0,0,0,0,0,0,0,0,0,0,0,0,0,0,0,0,0,0,0,0,0,0,0,0,0,0,0,0,0,0,0,0,0,0,0,0,0,0,0,0,0,0,0,0,0,0,0,0,0,0,0,0,0,0],"id":1,"left_children":[1,3,5,7,9,11,13,15,17,19,21,23,25,27,-1,-1,29,31,33,35,37,39,-1,41,-1,-1,-1,43,-1,-1,45,47,49,51,-1,-1,-1,53,55,57,59,61,63,-1,65,-1,-1,67,-1,-1,-1,69,-1,71,73,-1,75,77,79,81,83,-1,-1,85,-1,-1,-1,-1,-1,-1,-1,-1,-1,-1,-1,-1,-1,-1,-1,-1,-1,-1,-1,-1,-1,-1,-1],"loss_changes":[1.5438324E2,4.776346E1,1.6417503E1,1.2217621E1,3.4403615E0,4.324932E-1,3.5104294E0,6.637306E-1,2.657566E0,1.250983E0,1.3057518E0,3.4207726E-1,2.0025037E-3,4.9404907E-1,0E0,0E0,3.9604187E-1,9.772339E-1,2.0886488E0,2.8068125E-2,1.1439546E0,7.237921E-1,0E0,2.785244E-1,0E0,0E0,0E0,2.9721832E-1,0E0,0E0,1.7591095E-1,9.3455505E-1,1.1801836E-1,1.4661751E0,0E0,0E0,0E0,8.5261226E-1,1.267489E0,5.916666E-1,5.1879025E-1,3.172636E-2,1.1870766E-1,0E0,3.8269043E-2,0E0,0E0,9.311485E-1,0E0,0E0,0E0,1.1397781E0,0E0,4.0863287E-1,4.519632E-1,0E0,8.405945E-1,5.3307015E-1,4.595961E-1,1.9158101E-1,7.601405E-2,0E0,0E0,5.7296753E-3,0E0,0E0,0E0,0E0,0E0,0E0,0E0,0E0,0E0,0E0,0E0,0E0,0E0,0E0,0E0,0E0,0E0,0E0,0E0,0E0,0E0,0E0,0E0],"parents":[2147483647,0,0,1,1,2,2,3,3,4,4,5,5,6,6,7,7,8,8,9,9,10,10,11,11,12,12,13,13,16,16,17,17,18,18,19,19,20,20,21,21,23,23,27,27,30,30,31,31,32,32,33,33,37,37,38,38,39,39,40,40,41,41,42,42,44,44,47,47,51,51,53,53,54,54,56,56,57,57,58,58,59,59,60,60,63,63],"right_children":[2,4,6,8,10,12,14,16,18,20,22,24,26,28,-1,-1,30,32,34,36,38,40,-1,42,-1,-1,-1,44,-1,-1,46,48,50,52,-1,-1,-1,54,56,58,60,62,64,-1,66,-1,-1,68,-1,-1,-1,70,-1,72,74,-1,76,78,80,82,84,-1,-1,86,-1,-1,-1,-1,-1,-1,-1,-1,-1,-1,-1,-1,-1,-1,-1,-1,-1,-1,-1,-1,-1,-1,-1],"split_conditions":[5.3630927E2,1.3417497E2,1.1419823E3,3.5985783E1,2.5242294E2,1E0,1.78E2,1.846242E1,8.565653E1,1.3494682E2,1E0,1E0,1.81E2,9.772975E-2,1.9299786E-1,-9.300917E-2,1.564598E-8,1E0,1E0,5.6402323E-6,1.6373503E2,3.7074234E2,-3.957713E-2,6.579969E2,4.4928184E-3,3.4043589E-3,1.4858966E-2,6.0698983E-7,4.235602E-2,-4.6803217E-2,1E0,1.154349E2,1.8800758E-8,1E0,5.6275744E-2,4.9515884E-2,1.1357887E-2,1.385207E2,1.3943022E2,2.0368921E2,1E0,6.6475433E2,1E0,2.9793829E-2,1E0,-1.9722998E-1,-5.3348232E-2,3.579992E1,-1.2983429E-2,-3.982505E-2,-5.2763056E-3,7.72488E1,3.9067715E-2,1.1588214E2,1.887568E2,3.8430046E-2,3.5310786E-3,2.8E1,2.2001077E2,5.249471E2,3.0352497E-2,5.1309347E-2,2.2657035E-2,3.631227E-1,1.7077966E-2,1.3319506E-1,5.4700024E-2,-3.2485813E-2,-9.4308615E-2,-3.6463824E-3,-5.992024E-2,-3.484271E-2,-7.5120426E-4,-4.8348986E-2,1.2805497E-3,-1.7699933E-2,1.4087513E-2,5.3100307E-2,-1.5119659E-2,-1.8261364E-2,1.0361044E-2,3.97111E-2,9.108451E-3,-1.3931708E-2,8.738675E-3,7.81643E-2,2.2457764E-2],"split_indices":[320,334,316,330,341,47,1,314,337,334,88,95,0,6,0,0,5,256,357,2,341,334,0,321,0,0,0,7,0,0,170,314,4,104,0,0,0,335,328,325,82,315,94,0,98,0,0,334,0,0,0,334,0,342,335,0,12,1,327,320,6,0,0,3,0,0,0,0,0,0,0,0,0,0,0,0,0,0,0,0,0,0,0,0,0,0,0],"split_type":[0,0,0,0,0,0,0,0,0,0,0,0,0,0,0,0,0,0,0,0,0,0,0,0,0,0,0,0,0,0,0,0,0,0,0,0,0,0,0,0,0,0,0,0,0,0,0,0,0,0,0,0,0,0,0,0,0,0,0,0,0,0,0,0,0,0,0,0,0,0,0,0,0,0,0,0,0,0,0,0,0,0,0,0,0,0,0],"sum_hessian":[3.83E2,2.92E2,9.1E1,1.31E2,1.61E2,4.2E1,4.9E1,1.6E1,1.15E2,8.7E1,7.4E1,4E1,2E0,3.1E1,1.8E1,5E0,1.1E1,5.6E1,5.9E1,3E0,8.4E1,7.1E1,3E0,3.9E1,1E0,1E0,1E0,2.9E1,2E0,1E0,1E1,5.2E1,4E0,5.8E1,1E0,2E0,1E0,3.4E1,5E1,3.9E1,3.2E1,1.1E1,2.8E1,1E0,2.8E1,9E0,1E0,5E1,2E0,2E0,2E0,5.7E1,1E0,1.6E1,1.8E1,5E0,4.5E1,5E0,3.4E1,2.6E1,6E0,8E0,3E0,2.7E1,1E0,2.6E1,2E0,4E0,4.6E1,4E0,5.3E1,4E0,1.2E1,1.6E1,2E0,3.5E1,1E1,4E0,1E0,6E0,2.8E1,2.3E1,3E0,1E0,5E0,2.6E1,1E0],"tree_param":{"num_deleted":"0","num_feature":"443","num_nodes":"87","size_leaf_vector":"1"}},{"base_weights":[9.034175E-4,-3.205914E-1,1.0247847E0,-8.4315825E-1,-6.1659507E-2,5.8840257E-1,1.3795775E0,-1.4686065E0,-7.01482E-1,-2.5724623E-1,1.0190033E-1,4.941463E-1,7.679059E-2,1.1631316E0,1.8530719E-1,-8.5258394E-2,-1.6542338E0,-7.31376E-1,-2.0591085E-1,-2.956051E-1,1.7288299E-1,4.8518196E-2,2.9707265E-1,5.230513E-1,5.001546E-3,1.2906053E0,7.9001084E-2,-1.787856E0,-6.57415E-2,-7.6401395E-1,-3.0051416E-1,1.2584654E-2,-2.9743165E-2,-3.9175808E-1,-1.4550939E-1,-2.7291355E-1,4.9494362E-1,2.503542E-1,5.795163E-3,3.5611954E-1,1.3279931E-2,5.393217E-1,2.0226723E-2,1.3195863E-1,2.830414E-2,-1.8738827E-1,-5.0680816E-2,-7.81298E-1,-1.175713E-1,-6.419458E-2,-4.617052E-2,-2.8192052E-1,-6.540603E-1,-2.1158885E-2,-4.4183472E-1,-7.0830286E-3,-3.1666454E-2,5.9907503E-2,3.920901E-3,-1.4345238E-1,4.0659773E-1,-2.5141954E-1,7.2216295E-2,4.153843E-1,1.07101426E-1,-1.3235122E-2,8.2775526E-2,5.4991794E-1,1.3191009E-2,-3.8216002E-2,-8.2083575E-2,-1.7832823E-2,1.9712746E-4,-1.7728907E-3,-7.3773502E-3,-4.097806E-2,1.042797E-2,-7.4623354E-2,-2.3706896E-2,-2.9154921E-2,7.957223E-3,-4.969002E-2,-1.4771526E-2,2.309003E-3,-1.9086048E-2,4.8137553E-2,4.6731737E-3,-1.3279388E-2,-3.3861782E-2,1.0277998E-2,-3.6608845E-2,3.5308287E-3,4.4001054E-2,1.756322E-2,2.8701883E-4,2.0816901E-3,9.648943E-3,5.6105416E-2,1.35756275E-2],"categories":[],"categories_nodes":[],"categories_segments":[],"categories_sizes":[],"default_left":[0,0,0,0,0,0,0,0,0,0,0,0,0,0,0,0,0,0,0,0,0,0,0,0,0,0,0,0,0,0,0,0,0,0,0,0,0,0,0,0,0,0,0,0,0,0,0,0,0,0,0,0,0,0,0,0,0,0,0,0,0,0,0,0,0,0,0,0,0,0,0,0,0,0,0,0,0,0,0,0,0,0,0,0,0,0,0,0,0,0,0,0,0,0,0,0,0,0,0],"id":2,"left_children":[1,3,5,7,9,11,13,15,17,19,21,23,-1,25,-1,-1,27,29,31,33,35,37,39,41,-1,43,-1,45,-1,47,49,-1,-1,51,53,55,57,59,61,63,65,67,-1,-1,-1,-1,-1,69,71,73,-1,75,77,79,81,-1,-1,-1,-1,83,85,87,89,91,93,-1,95,97,-1,-1,-1,-1,-1,-1,-1,-1,-1,-1,-1,-1,-1,-1,-1,-1,-1,-1,-1,-1,-1,-1,-1,-1,-1,-1,-1,-1,-1,-1,-1],"loss_changes":[1.26730774E2,3.9593613E1,1.3432182E1,7.565071E0,6.328269E0,3.4807205E-1,2.9689178E0,5.335884E-1,1.0493851E0,1.5360398E0,1.1108078E0,3.7180567E-1,0E0,7.402458E-1,0E0,0E0,4.2300415E-1,8.3914566E-1,2.1960694E-1,1.1408634E0,1.2836651E0,7.4013114E-1,3.8068342E-1,4.227209E-2,0E0,3.8570404E-1,0E0,1.5234375E-1,0E0,6.9026184E-1,2.3700929E-1,0E0,0E0,1.2561388E0,1.2434902E0,1.2935907E-2,2.137922E-1,9.8127323E-1,1.24824E0,2.3591352E-1,6.155906E-2,4.40197E-2,0E0,0E0,0E0,0E0,0E0,7.594185E-1,2.2140656E-2,4.7244132E-4,0E0,1.8697767E0,3.6118746E-1,7.041171E-1,8.8558674E-2,0E0,0E0,0E0,0E0,4.3884277E-2,2.735144E-1,1.10192955E-1,8.1460667E-1,1.2486172E-1,3.521113E-2,0E0,1.3901684E-3,4.3750286E-2,0E0,0E0,0E0,0E0,0E0,0E0,0E0,0E0,0E0,0E0,0E0,0E0,0E0,0E0,0E0,0E0,0E0,0E0,0E0,0E0,0E0,0E0,0E0,0E0,0E0,0E0,0E0,0E0,0E0,0E0,0E0],"parents":[2147483647,0,0,1,1,2,2,3,3,4,4,5,5,6,6,7,7,8,8,9,9,10,10,11,11,13,13,16,16,17,17,18,18,19,19,20,20,21,21,22,22,23,23,25,25,27,27,29,29,30,30,33,33,34,34,35,35,36,36,37,37,38,38,39,39,40,40,41,41,47,47,48,48,49,49,51,51,52,52,53,53,54,54,59,59,60,60,61,61,62,62,63,63,64,64,66,66,67,67],"right_children":[2,4,6,8,10,12,14,16,18,20,22,24,-1,26,-1,-1,28,30,32,34,36,38,40,42,-1,44,-1,46,-1,48,50,-1,-1,52,54,56,58,60,62,64,66,68,-1,-1,-1,-1,-1,70,72,74,-1,76,78,80,82,-1,-1,-1,-1,84,86,88,90,92,94,-1,96,98,-1,-1,-1,-1,-1,-1,-1,-1,-1,-1,-1,-1,-1,-1,-1,-1,-1,-1,-1,-1,-1,-1,-1,-1,-1,-1,-1,-1,-1,-1,-1],"split_conditions":[5.3630927E2,1.0475382E2,1.1419823E3,3.5985783E1,1.8347069E2,8.697101E2,1.945841E-3,1.846242E1,1.0511983E2,1E0,4.225634E2,3E0,7.679059E-2,5.0241906E-2,1.8530719E-1,-8.5258394E-2,1E0,1E0,3.17E2,1.4497388E2,9.670982E-2,1.7453549E2,1E0,2E0,5.001546E-3,1E0,7.9001084E-2,1E0,-6.57415E-2,2E0,1E0,1.2584654E-2,-2.9743165E-2,1.4889163E2,1.709679E2,2.43E2,3.69E2,1.6373503E2,1.912913E2,4.729769E2,3.0352497E-2,1E0,2.0226723E-2,1.3195863E-1,2.830414E-2,-1.8738827E-1,-5.0680816E-2,2.023467E-6,2.02E2,7E0,-4.617052E-2,1.23606804E2,1.4974901E2,1.3536148E2,2.4693365E2,-7.0830286E-3,-3.1666454E-2,5.9907503E-2,3.920901E-3,2.2932934E-8,4.463386E-6,1.8992053E2,1E0,2.350993E-8,4.83E2,-1.3235122E-2,2.79E2,2E0,1.3191009E-2,-3.8216002E-2,-8.2083575E-2,-1.7832823E-2,1.9712746E-4,-1.7728907E-3,-7.3773502E-3,-4.097806E-2,1.042797E-2,-7.4623354E-2,-2.3706896E-2,-2.9154921E-2,7.957223E-3,-4.969002E-2,-1.4771526E-2,2.309003E-3,-1.9086048E-2,4.8137553E-2,4.6731737E-3,-1.3279388E-2,-3.3861782E-2,1.0277998E-2,-3.6608845E-2,3.5308287E-3,4.4001054E-2,1.756322E-2,2.8701883E-4,2.0816901E-3,9.648943E-3,5.6105416E-2,1.35756275E-2],"split_indices":[320,336,316,330,337,319,15,314,335,195,334,34,0,6,0,0,213,256,0,338,6,326,82,100,0,153,0,170,0,34,83,0,0,327,337,0,0,341,327,320,6,90,0,0,0,0,0,7,0,1,0,324,341,337,320,0,0,0,0,5,7,314,88,4,0,0,0,38,0,0,0,0,0,0,0,0,0,0,0,0,0,0,0,0,0,0,0,0,0,0,0,0,0,0,0,0,0,0,0],"split_type":[0,0,0,0,0,0,0,0,0,0,0,0,0,0,0,0,0,0,0,0,0,0,0,0,0,0,0,0,0,0,0,0,0,0,0,0,0,0,0,0,0,0,0,0,0,0,0,0,0,0,0,0,0,0,0,0,0,0,0,0,0,0,0,0,0,0,0,0,0,0,0,0,0,0,0,0,0,0,0,0,0,0,0,0,0,0,0,0,0,0,0,0,0,0,0,0,0,0,0],"sum_hessian":[3.83E2,2.92E2,9.1E1,9.6E1,1.96E2,4.2E1,4.9E1,1.6E1,8E1,8.9E1,1.07E2,3E1,1.2E1,3.6E1,1.3E1,5E0,1.1E1,7.5E1,5E0,8.2E1,7E0,8.5E1,2.2E1,2.8E1,2E0,2.5E1,1.1E1,9E0,2E0,6.9E1,6E0,1E0,4E0,4.9E1,3.3E1,3E0,4E0,1.4E1,7.1E1,1.8E1,4E0,2.6E1,2E0,2.4E1,1E0,8E0,1E0,6.7E1,2E0,3E0,3E0,3.6E1,1.3E1,2.4E1,9E0,1E0,2E0,3E0,1E0,4E0,1E1,1.4E1,5.7E1,1.4E1,4E0,1E0,3E0,2.5E1,1E0,7E0,6E1,1E0,1E0,1E0,2E0,2.7E1,9E0,1E1,3E0,6E0,1.8E1,7E0,2E0,1E0,3E0,8E0,2E0,7E0,7E0,5.4E1,3E0,1E0,1.3E1,2E0,2E0,1E0,2E0,2.4E1,1E0],"tree_param":{"num_deleted":"0","num_feature":"443","num_nodes":"99","size_leaf_vector":"1"}},{"base_weights":[4.1452324E-4,-2.9113466E-1,9.2893076E-1,-7.650227E-1,-5.6321077E-2,5.338621E-1,1.2501112E0,-1.3446323E0,-6.339315E-1,-2.3362671E-1,9.195511E-2,4.064831E-1,6.479504E-1,1.0390037E0,1.6734283E-1,-7.8153536E-2,-1.514128E0,-5.696229E-1,-9.0100694E-1,-2.686294E-1,1.5872955E-1,4.3231048E-2,2.7014267E-1,4.668109E-3,4.3852708E-1,6.9650406E-1,2.6747152E-2,1.0698873E0,3.4265548E-2,-1.6328773E0,-6.1358746E-2,-5.9902805E-1,-7.9311565E-2,-1.0606583E-1,-2.367139E-2,-3.5515988E-1,-1.3347785E-1,-2.5530955E-1,4.5821494E-1,2.2772102E-1,4.195204E-3,3.2394874E-1,1.1651039E-2,3.2825384E-2,5.270023E-2,7.13421E-2,2.0445792E-2,2.6888931E-2,1.0860118E0,-1.7073153E-1,-4.814678E-2,-4.123471E-1,-6.7451155E-1,-2.1749113E-2,8.530518E-2,-2.5455415E-1,-5.9567785E-1,-1.9890906E-2,-4.040974E-1,-6.7288773E-3,-2.9555356E-2,5.541444E-2,3.7248563E-3,-1.3246256E-1,3.7073892E-1,-2.2942033E-1,6.4540684E-2,3.7701958E-1,9.994649E-2,-1.2573366E-2,7.743063E-2,4.4655286E-2,1.1128622E0,-5.8595885E-2,-2.604354E-2,-7.288103E-2,-3.3906594E-2,1.1955421E-2,8.4035547E-4,-3.5462707E-2,1.5253857E-2,-6.783941E-2,-2.1928877E-2,-2.6655927E-2,7.20338E-3,-4.9655873E-2,-2.1232437E-2,2.1935527E-3,-1.7654596E-2,4.4195857E-2,3.350037E-3,-2.6943356E-2,-5.202561E-3,9.2688855E-3,-3.3863183E-2,4.025821E-2,1.4057546E-2,1.8780567E-3,2.123051E-2,1.9776057E-3,9.00568E-3,1.1725914E-1,6.68559E-2],"categories":[],"categories_nodes":[],"categories_segments":[],"categories_sizes":[],"default_left":[0,0,0,0,0,0,0,0,0,0,0,0,0,0,0,0,0,0,0,0,0,0,0,0,0,0,0,0,0,0,0,0,0,0,0,0,0,0,0,0,0,0,0,0,0,0,0,0,0,0,0,0,0,0,0,0,0,0,0,0,0,0,0,0,0,0,0,0,0,0,0,0,0,0,0,0,0,0,0,0,0,0,0,0,0,0,0,0,0,0,0,0,0,0,0,0,0,0,0,0,0,0,0],"id":3,"left_children":[1,3,5,7,9,11,13,15,17,19,21,23,25,27,-1,-1,29,31,33,35,37,39,41,-1,43,45,-1,47,-1,49,-1,51,53,-1,-1,55,57,59,61,63,65,67,69,-1,-1,-1,-1,-1,71,-1,-1,73,75,-1,77,79,81,83,85,-1,-1,-1,-1,87,89,91,93,95,97,-1,99,-1,101,-1,-1,-1,-1,-1,-1,-1,-1,-1,-1,-1,-1,-1,-1,-1,-1,-1,-1,-1,-1,-1,-1,-1,-1,-1,-1,-1,-1,-1,-1],"loss_changes":[1.0422236E2,3.256059E1,1.100634E1,6.5178185E0,5.200653E0,3.6151314E-1,2.729576E0,4.3918037E-1,8.779602E-1,1.2786565E0,9.259797E-1,2.4470711E-1,2.0165157E-1,4.076004E-1,0E0,0E0,2.8134918E-1,9.3289566E-1,1.2337008E0,9.232564E-1,1.1089759E0,6.1839277E-1,3.1611955E-1,0E0,3.1894684E-2,3.9663315E-3,0E0,1.4711761E-1,0E0,3.5072327E-2,0E0,6.2371063E-1,1.3228646E-1,0E0,0E0,1.0582423E0,1.0370829E0,1.0379374E-2,1.8127441E-1,8.217995E-1,1.0298371E0,1.8818998E-1,5.492118E-2,0E0,0E0,0E0,0E0,0E0,6.965256E-2,0E0,0E0,4.0124202E-1,5.5431175E-1,0E0,6.896738E-3,1.5614357E0,2.871046E-1,5.860742E-1,7.188439E-2,0E0,0E0,0E0,0E0,3.790459E-2,2.4939227E-1,9.245461E-2,6.896043E-1,3.4068584E-2,4.161124E-2,0E0,1.1308566E-3,0E0,3.8726807E-2,0E0,0E0,0E0,0E0,0E0,0E0,0E0,0E0,0E0,0E0,0E0,0E0,0E0,0E0,0E0,0E0,0E0,0E0,0E0,0E0,0E0,0E0,0E0,0E0,0E0,0E0,0E0,0E0,0E0,0E0],"parents":[2147483647,0,0,1,1,2,2,3,3,4,4,5,5,6,6,7,7,8,8,9,9,10,10,11,11,12,12,13,13,16,16,17,17,18,18,19,19,20,20,21,21,22,22,24,24,25,25,27,27,29,29,31,31,32,32,35,35,36,36,37,37,38,38,39,39,40,40,41,41,42,42,48,48,51,51,52,52,54,54,55,55,56,56,57,57,58,58,63,63,64,64,65,65,66,66,67,67,68,68,70,70,72,72],"right_children":[2,4,6,8,10,12,14,16,18,20,22,24,26,28,-1,-1,30,32,34,36,38,40,42,-1,44,46,-1,48,-1,50,-1,52,54,-1,-1,56,58,60,62,64,66,68,70,-1,-1,-1,-1,-1,72,-1,-1,74,76,-1,78,80,82,84,86,-1,-1,-1,-1,88,90,92,94,96,98,-1,100,-1,102,-1,-1,-1,-1,-1,-1,-1,-1,-1,-1,-1,-1,-1,-1,-1,-1,-1,-1,-1,-1,-1,-1,-1,-1,-1,-1,-1,-1,-1,-1],"split_conditions":[5.3630927E2,1.0475382E2,1.1419823E3,3.5985783E1,1.8347069E2,4E0,2.35E2,1.846242E1,1.5442267E-1,1E0,4.225634E2,2.46E2,1E0,9.772975E-2,1.6734283E-1,-7.8153536E-2,1E0,1.7566212E-1,2E0,1.4497388E2,9.670982E-2,1.7453549E2,1E0,4.668109E-3,7.099989E2,3E0,2.6747152E-2,6.0698983E-7,3.4265548E-2,1E0,-6.1358746E-2,5.8990276E1,2.03E2,-1.0606583E-1,-2.367139E-2,1.4889163E2,1.709679E2,2.43E2,3.69E2,1.6373503E2,1.912913E2,6.13E2,3.0352497E-2,3.2825384E-2,5.270023E-2,7.13421E-2,2.0445792E-2,2.6888931E-2,9.774546E2,-1.7073153E-1,-4.814678E-2,4.5019352E1,1E0,-2.1749113E-2,3.17E2,1.2534241E2,1.4974901E2,1.3536148E2,2.0021121E2,-6.7288773E-3,-2.9555356E-2,5.541444E-2,3.7248563E-3,2.2932934E-8,1E0,1E0,1E0,3E0,6.3E1,-1.2573366E-2,2.79E2,4.4655286E-2,1E0,-5.8595885E-2,-2.604354E-2,-7.288103E-2,-3.3906594E-2,1.1955421E-2,8.4035547E-4,-3.5462707E-2,1.5253857E-2,-6.783941E-2,-2.1928877E-2,-2.6655927E-2,7.20338E-3,-4.9655873E-2,-2.1232437E-2,2.1935527E-3,-1.7654596E-2,4.4195857E-2,3.350037E-3,-2.6943356E-2,-5.202561E-3,9.2688855E-3,-3.3863183E-2,4.025821E-2,1.4057546E-2,1.8780567E-3,2.123051E-2,1.9776057E-3,9.00568E-3,1.1725914E-1,6.68559E-2],"split_indices":[320,336,316,330,337,23,1,314,6,195,334,0,211,6,0,0,213,3,83,338,6,326,82,0,316,65,0,7,0,170,0,314,0,0,0,327,337,0,0,341,327,0,6,0,0,0,0,0,320,0,0,312,199,0,0,323,341,337,319,0,0,0,0,5,76,53,88,49,1,0,0,0,60,0,0,0,0,0,0,0,0,0,0,0,0,0,0,0,0,0,0,0,0,0,0,0,0,0,0,0,0,0,0],"split_type":[0,0,0,0,0,0,0,0,0,0,0,0,0,0,0,0,0,0,0,0,0,0,0,0,0,0,0,0,0,0,0,0,0,0,0,0,0,0,0,0,0,0,0,0,0,0,0,0,0,0,0,0,0,0,0,0,0,0,0,0,0,0,0,0,0,0,0,0,0,0,0,0,0,0,0,0,0,0,0,0,0,0,0,0,0,0,0,0,0,0,0,0,0,0,0,0,0,0,0,0,0,0,0],"sum_hessian":[3.83E2,2.92E2,9.1E1,9.6E1,1.96E2,4.2E1,4.9E1,1.6E1,8E1,8.9E1,1.07E2,2.2E1,2E1,3.5E1,1.4E1,5E0,1.1E1,6.7E1,1.3E1,8.2E1,7E0,8.5E1,2.2E1,2E0,2E1,1.7E1,3E0,3.3E1,2E0,9E0,2E0,6.3E1,4E0,1E1,3E0,4.9E1,3.3E1,3E0,4E0,1.4E1,7.1E1,1.8E1,4E0,1.1E1,9E0,1.6E1,1E0,1E0,3.2E1,8E0,1E0,2E1,4.3E1,2E0,2E0,3.6E1,1.3E1,2.4E1,9E0,1E0,2E0,3E0,1E0,4E0,1E1,1.4E1,5.7E1,1.4E1,4E0,1E0,3E0,2E0,3E1,8E0,1.2E1,3.6E1,7E0,1E0,1E0,2.9E1,7E0,1E1,3E0,6E0,1.8E1,5E0,4E0,1E0,3E0,8E0,2E0,1.1E1,3E0,5.4E1,3E0,1.2E1,2E0,3E0,1E0,1E0,2E0,2.5E1,5E0],"tree_param":{"num_deleted":"0","num_feature":"443","num_nodes":"103","size_leaf_vector":"1"}},{"base_weights":[-1.441684E-5,-2.6480204E-1,8.4327674E-1,-6.341779E-1,-1.564773E-2,6.319905E-1,1.3553115E0,-1.2312508E0,-5.284484E-1,-1.6207227E-1,8.9702405E-2,4.27046E-1,7.9660815E-1,1.3912797E-1,2.2805229E-2,-2.5988871E-2,-1.2757179E0,-5.4928297E-1,3.421867E-1,-3.9920177E-2,-3.61325E-1,4.4093333E-2,2.4642554E-1,3.1103376E-1,5.37791E-1,1.0777489E-1,7.04455E-1,-1.3441122E0,-5.313052E-2,-5.633863E-1,9.452128E-2,4.7695857E-2,3.6321438E-3,-2.0176293E-1,1.7006433E-1,-4.191504E-1,-1.1497904E-2,1.3668812E-2,3.637713E-1,3.0360815E-1,3.38068E-2,4.3569016E-3,3.4174377E-1,5.60213E-1,1.11941E-2,7.1535105E-1,1.9423503E-2,-1.03745654E-1,-1.8513872E-1,-5.7186925E-1,1.2972829E-2,1.3379854E-2,7.983379E-4,-2.8697655E-1,2.3057234E-1,-6.5125875E-2,2.6848212E-1,-5.5879116E-1,-2.9811323E-1,-1.4132313E-2,1.2215996E-1,1.6858084E-1,-3.1198535E-2,-3.1496175E-3,4.3489855E-2,3.450142E-1,7.243339E-2,1.4581812E-2,-5.8653384E-2,3.593936E-1,1.4546339E-2,5.993119E-2,2.1707995E-2,4.469445E-2,7.659378E-2,-5.9103448E-2,-1.826906E-2,-1.8182937E-2,-5.0133735E-2,3.404477E-2,-1.0446454E-2,4.099711E-3,-1.5496738E-2,3.906157E-2,7.309872E-3,-5.92221E-2,-1.2896153E-2,-3.3348646E-2,-1.1746518E-2,1.1457709E-3,1.7178223E-2,-6.796114E-3,3.0378206E-2,-2.3692345E-2,5.0860117E-3,3.2603845E-3,3.650004E-2,1.8787254E-3,8.405302E-3,-1.1944698E-2,1.4268048E-4,3.8142752E-2,1.5145992E-2],"categories":[],"categories_nodes":[],"categories_segments":[],"categories_sizes":[],"default_left":[0,0,0,0,0,0,0,0,0,0,0,0,0,0,0,0,0,0,0,0,0,0,0,0,0,0,0,0,0,0,0,0,0,0,0,0,0,0,0,0,0,0,0,0,0,0,0,0,0,0,0,0,0,0,0,0,0,0,0,0,0,0,0,0,0,0,0,0,0,0,0,0,0,0,0,0,0,0,0,0,0,0,0,0,0,0,0,0,0,0,0,0,0,0,0,0,0,0,0,0,0,0,0],"id":4,"left_children":[1,3,5,7,9,11,13,15,17,19,21,23,25,-1,-1,-1,27,29,31,33,35,37,39,41,43,-1,45,47,-1,49,51,-1,-1,53,55,57,59,61,63,65,67,-1,69,71,-1,73,-1,-1,-1,75,-1,-1,-1,77,79,81,83,85,87,-1,89,91,93,-1,-1,95,97,-1,99,101,-1,-1,-1,-1,-1,-1,-1,-1,-1,-1,-1,-1,-1,-1,-1,-1,-1,-1,-1,-1,-1,-1,-1,-1,-1,-1,-1,-1,-1,-1,-1,-1,-1],"loss_changes":[8.596784E1,2.6955336E1,9.096558E0,6.798485E0,2.7294867E0,1.9202213E0,7.369003E-1,4.027462E-1,2.038168E0,1.786672E0,7.253778E-1,2.4385786E-1,1.7346382E-1,0E0,0E0,0E0,1.0048294E-1,9.6123123E-1,1.06342286E-1,1.6315829E0,5.615897E-1,7.828376E-1,2.6937222E-1,1.3295984E-1,8.0515385E-2,0E0,2.7834892E-2,2.570896E-1,0E0,6.5039253E-1,9.128749E-3,0E0,0E0,1.060872E0,5.035701E-1,2.390585E-1,1.04024835E-1,5.2654636E-1,2.1049774E-1,1.473062E-1,7.069225E-2,0E0,3.150344E-3,5.7727337E-2,0E0,5.1424026E-2,0E0,0E0,0E0,6.1551666E-1,0E0,0E0,0E0,4.272492E-1,2.1962616E-1,7.309296E-2,3.2938945E-1,6.7317724E-2,5.6678414E-2,0E0,1.451166E-2,5.643182E-1,1.0080591E0,0E0,0E0,8.17579E-2,9.1426633E-4,0E0,1.478039E-2,6.371379E-3,0E0,0E0,0E0,0E0,0E0,0E0,0E0,0E0,0E0,0E0,0E0,0E0,0E0,0E0,0E0,0E0,0E0,0E0,0E0,0E0,0E0,0E0,0E0,0E0,0E0,0E0,0E0,0E0,0E0,0E0,0E0,0E0,0E0],"parents":[2147483647,0,0,1,1,2,2,3,3,4,4,5,5,6,6,7,7,8,8,9,9,10,10,11,11,12,12,16,16,17,17,18,18,19,19,20,20,21,21,22,22,23,23,24,24,26,26,27,27,29,29,30,30,33,33,34,34,35,35,36,36,37,37,38,38,39,39,40,40,42,42,43,43,45,45,49,49,53,53,54,54,55,55,56,56,57,57,58,58,60,60,61,61,62,62,65,65,66,66,68,68,69,69],"right_children":[2,4,6,8,10,12,14,16,18,20,22,24,26,-1,-1,-1,28,30,32,34,36,38,40,42,44,-1,46,48,-1,50,52,-1,-1,54,56,58,60,62,64,66,68,-1,70,72,-1,74,-1,-1,-1,76,-1,-1,-1,78,80,82,84,86,88,-1,90,92,94,-1,-1,96,98,-1,100,102,-1,-1,-1,-1,-1,-1,-1,-1,-1,-1,-1,-1,-1,-1,-1,-1,-1,-1,-1,-1,-1,-1,-1,-1,-1,-1,-1,-1,-1,-1,-1,-1,-1],"split_conditions":[5.3630927E2,1.1876909E2,1.664617E3,3.5985783E1,1.9723022E2,8.697101E2,9.772975E-2,7.7275084E-3,1E0,1.7655768E2,4.225634E2,4E0,1.1813905E3,1.3912797E-1,2.2805229E-2,-2.5988871E-2,3.9231277E1,1E0,3.69E2,1.4706355E2,3E0,1E0,4.729769E2,2.46E2,2.3707412E-7,1.0777489E-1,4E0,2.7835146E1,-5.313052E-2,2E0,5.19E2,4.7695857E-2,3.6321438E-3,7.025487E-6,1.7702437E-8,1.6061899E2,1.4321776E-1,2.2642232E2,6.351975E-6,1E0,4.83E2,4.3569016E-3,1E0,1E0,1.11941E-2,1.0018343E3,1.9423503E-2,-1.03745654E-1,-1.8513872E-1,1E0,1.2972829E-2,1.3379854E-2,7.983379E-4,1.4660193E2,1.8E1,5.4695374E-6,1E0,2E0,2.4548634E2,-1.4132313E-2,5.19E2,1.8390503E2,2.3186171E2,-3.1496175E-3,4.3489855E-2,2.350993E-8,2.79E2,1.4581812E-2,4.99E2,1E0,1.4546339E-2,5.993119E-2,2.1707995E-2,4.469445E-2,7.659378E-2,-5.9103448E-2,-1.826906E-2,-1.8182937E-2,-5.0133735E-2,3.404477E-2,-1.0446454E-2,4.099711E-3,-1.5496738E-2,3.906157E-2,7.309872E-3,-5.92221E-2,-1.2896153E-2,-3.3348646E-2,-1.1746518E-2,1.1457709E-3,1.7178223E-2,-6.796114E-3,3.0378206E-2,-2.3692345E-2,5.0860117E-3,3.2603845E-3,3.650004E-2,1.8787254E-3,8.405302E-3,-1.1944698E-2,1.4268048E-4,3.8142752E-2,1.5145992E-2],"split_indices":[320,334,325,330,335,319,6,6,153,315,334,23,332,0,0,0,326,131,0,319,49,261,320,0,11,0,65,336,0,36,0,0,0,2,5,338,3,339,2,82,0,0,259,154,0,336,0,0,0,134,0,0,0,335,1,2,22,22,319,0,0,340,327,0,0,4,0,0,0,156,0,0,0,0,0,0,0,0,0,0,0,0,0,0,0,0,0,0,0,0,0,0,0,0,0,0,0,0,0,0,0,0,0],"split_type":[0,0,0,0,0,0,0,0,0,0,0,0,0,0,0,0,0,0,0,0,0,0,0,0,0,0,0,0,0,0,0,0,0,0,0,0,0,0,0,0,0,0,0,0,0,0,0,0,0,0,0,0,0,0,0,0,0,0,0,0,0,0,0,0,0,0,0,0,0,0,0,0,0,0,0,0,0,0,0,0,0,0,0,0,0,0,0,0,0,0,0,0,0,0,0,0,0,0,0,0,0,0,0],"sum_hessian":[3.83E2,2.92E2,9.1E1,1.17E2,1.75E2,6.6E1,2.5E1,1.6E1,1.01E2,7.3E1,1.02E2,3.1E1,3.5E1,2.4E1,1E0,1E0,1.5E1,9.9E1,2E0,4.6E1,2.7E1,8E1,2.2E1,1.7E1,1.4E1,6E0,2.9E1,1.3E1,2E0,9.7E1,2E0,1E0,1E0,2.6E1,2E1,2.3E1,4E0,7.4E1,6E0,1.7E1,5E0,2E0,1.5E1,1.3E1,1E0,2.8E1,1E0,1E1,3E0,9.6E1,1E0,1E0,1E0,2.2E1,4E0,6E0,1.4E1,9E0,1.4E1,2E0,2E0,1.6E1,5.8E1,1E0,5E0,1.4E1,3E0,2E0,3E0,1.3E1,2E0,1.1E1,2E0,6E0,2.2E1,9.1E1,5E0,1.6E1,6E0,3E0,1E0,3E0,3E0,8E0,6E0,8E0,1E0,1.1E1,3E0,1E0,1E0,6E0,1E1,1.6E1,4.2E1,1E0,1.3E1,1E0,2E0,1E0,2E0,1.1E1,2E0],"tree_param":{"num_deleted":"0","num_feature":"443","num_nodes":"103","size_leaf_vector":"1"}},{"base_weights":[4.6599063E-4,-2.3965809E-1,7.6520395E-1,-6.333309E-1,-4.460266E-2,4.8284563E-1,1.0757321E0,-1.129773E0,-5.2132046E-1,-1.9052929E-1,7.7415854E-2,3.6704233E-1,6.3819844E-1,9.396857E-1,1.6411586E-1,-6.51348E-2,-1.2748377E0,-5.4724187E-1,-1.0609539E-1,3.8423505E-2,-2.0795843E-1,1.019834E-2,1.6779168E-1,3.8814893E-1,4.0664417E-3,6.6337645E-1,2.7439767E-2,1.0797174E0,7.114297E-1,-1.7328814E-1,-9.296142E-2,-5.7424664E-1,-1.9901706E-1,1.4312821E-2,-1.8456575E-1,-5.264902E-1,-1.6952412E-1,1.4368711E-1,-7.5632885E-2,8.077991E-2,2.76868E-1,3.9488637E-1,9.975023E-3,6.933464E-2,2.8241128E-2,1.1119884E-1,2.1714795E-2,4.5170974E-2,8.1203066E-2,-5.9031016E-1,-1.8724134E-2,-8.481549E-3,-3.397983E-2,-2.085349E-2,-4.4344603E-3,-6.021905E-2,-1.7435953E-2,1.1825496E-1,-2.1232477E-1,7.11816E-2,4.1947287E-1,1.8064743E-1,-1.1008342E-1,-1.4675844E-1,1.39164E-1,7.821854E-2,3.3786988E-1,4.0718833E-1,1.5664056E-2,-3.4022503E-2,-6.432354E-2,1.2345866E-3,-4.0432066E-3,5.3138396E-4,-1.4851292E-3,-1.5403548E-2,2.3961833E-2,-3.1527236E-2,-1.0036938E-2,2.062422E-2,-9.800929E-3,8.234865E-3,4.8316676E-2,3.0095339E-2,1.2568571E-5,-1.3483127E-2,1.9883728E-2,-7.170183E-4,-2.1476004E-2,1.6054912E-2,-4.979126E-3,-5.945344E-4,1.2178683E-2,3.750585E-2,6.409593E-3,4.210484E-2,1.6057841E-2],"categories":[],"categories_nodes":[],"categories_segments":[],"categories_sizes":[],"default_left":[0,0,0,0,0,0,0,0,0,0,0,0,0,0,0,0,0,0,0,0,0,0,0,0,0,0,0,0,0,0,0,0,0,0,0,0,0,0,0,0,0,0,0,0,0,0,0,0,0,0,0,0,0,0,0,0,0,0,0,0,0,0,0,0,0,0,0,0,0,0,0,0,0,0,0,0,0,0,0,0,0,0,0,0,0,0,0,0,0,0,0,0,0,0,0,0,0],"id":5,"left_children":[1,3,5,7,9,11,13,15,17,19,21,23,25,27,-1,-1,29,31,33,-1,35,37,39,41,-1,43,-1,45,47,-1,-1,49,51,-1,53,55,57,59,61,63,65,67,-1,-1,-1,-1,-1,-1,-1,69,71,73,-1,-1,-1,-1,-1,75,77,79,81,83,85,87,89,91,93,95,-1,-1,-1,-1,-1,-1,-1,-1,-1,-1,-1,-1,-1,-1,-1,-1,-1,-1,-1,-1,-1,-1,-1,-1,-1,-1,-1,-1,-1],"loss_changes":[7.0698074E1,2.247064E1,7.547165E0,4.804878E0,3.522483E0,6.652727E-1,1.7655716E0,3.4947968E-1,8.1376076E-1,9.814925E-1,6.5437126E-1,1.9776726E-1,1.1663437E-3,4.1448975E-1,0E0,0E0,2.866192E-1,6.003971E-1,1.4375657E-1,0E0,9.8809123E-1,7.326903E-1,4.14217E-1,1.6958714E-2,0E0,9.70602E-3,0E0,3.4309006E-1,7.737541E-2,0E0,0E0,6.136017E-1,1.8488476E-1,0E0,7.5575113E-3,1.3490987E-1,1.0104792E0,4.7004098E-1,3.6421707E-1,3.791083E-1,2.1593225E-1,1.828289E-2,0E0,0E0,0E0,0E0,0E0,0E0,0E0,6.811905E-1,2.522565E-3,4.304097E-4,0E0,0E0,0E0,0E0,0E0,4.004166E-1,7.751441E-1,5.000851E-1,6.757563E-2,1.0855138E-1,2.9438865E-1,5.541347E-2,9.689209E-2,2.2725318E-2,1.2867928E-1,2.1257877E-2,0E0,0E0,0E0,0E0,0E0,0E0,0E0,0E0,0E0,0E0,0E0,0E0,0E0,0E0,0E0,0E0,0E0,0E0,0E0,0E0,0E0,0E0,0E0,0E0,0E0,0E0,0E0,0E0,0E0],"parents":[2147483647,0,0,1,1,2,2,3,3,4,4,5,5,6,6,7,7,8,8,9,9,10,10,11,11,12,12,13,13,16,16,17,17,18,18,20,20,21,21,22,22,23,23,25,25,27,27,28,28,31,31,32,32,34,34,35,35,36,36,37,37,38,38,39,39,40,40,41,41,49,49,50,50,51,51,57,57,58,58,59,59,60,60,61,61,62,62,63,63,64,64,65,65,66,66,67,67],"right_children":[2,4,6,8,10,12,14,16,18,20,22,24,26,28,-1,-1,30,32,34,-1,36,38,40,42,-1,44,-1,46,48,-1,-1,50,52,-1,54,56,58,60,62,64,66,68,-1,-1,-1,-1,-1,-1,-1,70,72,74,-1,-1,-1,-1,-1,76,78,80,82,84,86,88,90,92,94,96,-1,-1,-1,-1,-1,-1,-1,-1,-1,-1,-1,-1,-1,-1,-1,-1,-1,-1,-1,-1,-1,-1,-1,-1,-1,-1,-1,-1,-1],"split_conditions":[5.3630927E2,1.0475382E2,1.2754966E3,3.5985783E1,1.8347069E2,8.697101E2,3.4732008E-7,1.846242E1,1.0511983E2,8.259932E1,4.2E1,3E0,9E0,3.7471473E-2,1.6411586E-1,-6.51348E-2,2.8471771E1,1E0,3.17E2,3.8423505E-2,9.9949165E1,2.0375468E2,3.3671654E-8,1.8935705E-7,4.0664417E-3,2E0,2.7439767E-2,1E0,1.2948525E3,-1.7328814E-1,-9.296142E-2,1E0,1E0,1.4312821E-2,6.88E2,1.8793022E-3,1.2360881E2,1E0,1.6444718E-8,5.2524104E-8,3.992144E2,2E0,9.975023E-3,6.933464E-2,2.8241128E-2,1.1119884E-1,2.1714795E-2,4.5170974E-2,8.1203066E-2,3.5975014E1,4.38E2,7E0,-3.397983E-2,-2.085349E-2,-4.4344603E-3,-6.021905E-2,-1.7435953E-2,4.8929355E-6,6.186986E-6,1.3894323E-1,5.8321566E-6,3.64E2,1E0,2.0082101E-8,2.8460166E-8,4.6E1,1E0,1E0,1.5664056E-2,-3.4022503E-2,-6.432354E-2,1.2345866E-3,-4.0432066E-3,5.3138396E-4,-1.4851292E-3,-1.5403548E-2,2.3961833E-2,-3.1527236E-2,-1.0036938E-2,2.062422E-2,-9.800929E-3,8.234865E-3,4.8316676E-2,3.0095339E-2,1.2568571E-5,-1.3483127E-2,1.9883728E-2,-7.170183E-4,-2.1476004E-2,1.6054912E-2,-4.979126E-3,-5.945344E-4,1.2178683E-2,3.750585E-2,6.409593E-3,4.210484E-2,1.6057841E-2],"split_indices":[320,336,320,330,337,319,8,314,335,340,1,34,23,6,0,0,324,256,0,0,332,315,4,14,0,19,0,89,342,0,0,58,83,0,0,12,332,36,5,11,331,100,0,0,0,0,0,0,0,332,0,1,0,0,0,0,0,2,2,3,2,0,208,5,5,1,65,166,0,0,0,0,0,0,0,0,0,0,0,0,0,0,0,0,0,0,0,0,0,0,0,0,0,0,0,0,0],"split_type":[0,0,0,0,0,0,0,0,0,0,0,0,0,0,0,0,0,0,0,0,0,0,0,0,0,0,0,0,0,0,0,0,0,0,0,0,0,0,0,0,0,0,0,0,0,0,0,0,0,0,0,0,0,0,0,0,0,0,0,0,0,0,0,0,0,0,0,0,0,0,0,0,0,0,0,0,0,0,0,0,0,0,0,0,0,0,0,0,0,0,0,0,0,0,0,0,0],"sum_hessian":[3.83E2,2.92E2,9.1E1,9.6E1,1.96E2,4.9E1,4.2E1,1.6E1,8E1,8.9E1,1.07E2,3E1,1.9E1,3.6E1,6E0,5E0,1.1E1,7.5E1,5E0,2E0,8.7E1,6.2E1,4.5E1,2.8E1,2E0,1.7E1,2E0,2E1,1.6E1,3E0,8E0,6.9E1,6E0,1E0,4E0,8E0,7.9E1,2.4E1,3.8E1,2.6E1,1.9E1,2.7E1,1E0,1.5E1,2E0,1.9E1,1E0,6E0,1E1,6.7E1,2E0,3E0,3E0,3E0,1E0,6E0,2E0,1E1,6.9E1,2E1,4E0,4E0,3.4E1,5E0,2.1E1,5E0,1.4E1,2.5E1,2E0,1.3E1,5.4E1,1E0,1E0,1E0,2E0,3E0,7E0,3.5E1,3.4E1,1.1E1,9E0,1E0,3E0,2E0,2E0,3.2E1,2E0,2E0,3E0,1.9E1,2E0,2E0,3E0,1.2E1,2E0,2.3E1,2E0],"tree_param":{"num_deleted":"0","num_feature":"443","num_nodes":"97","size_leaf_vector":"1"}},{"base_weights":[1.0284265E-3,-2.1706572E-1,6.9559973E-1,-5.7493025E-1,-3.9756462E-2,4.3881875E-1,9.7800547E-1,-1.0362889E0,-4.7100398E-1,-1.72279E-1,7.1047105E-2,3.3317256E-1,5.806294E-2,7.9271924E-1,1.3051898E0,-7.3147047E-1,-1.2877759E0,-4.1489482E-1,-7.098911E-1,3.5861933E-1,-1.8842009E-1,8.449576E-2,-2.9974198E-2,3.5222375E-1,3.7953455E-3,9.099675E-1,5.693972E-1,1.425256E-1,6.4871065E-2,-2.1432688E-2,-7.651167E-2,-3.0803448E-2,-1.383734E-1,-4.390725E-1,-2.2441635E-2,-8.54783E-2,-1.3396537E-1,1.0403013E-2,4.338989E-2,-4.8246956E-1,-1.5298428E-1,3.3423945E-2,1.8568443E-1,4.5742642E-2,2.9795805E-1,9.392255E-2,2.0629056E-2,1.619378E-2,5.8985736E-2,-6.360594E-1,-3.7119496E-1,-1.4444758E-2,1.0704485E-1,-3.0167908E-3,-1.5850855E-2,-7.750209E-3,-5.234027E-1,-5.278732E-2,-2.6233914E-1,-8.3609015E-2,8.767566E-2,2.1979386E-1,1.7847577E-2,3.1107622E-1,1.1118431E-2,-2.4721043E-2,-7.549854E-2,-1.4122932E-2,-4.1823063E-2,1.3597182E-2,2.4595463E-3,-5.8245808E-2,-2.3082446E-2,-2.8632019E-2,4.6848636E-3,-4.5156997E-2,-1.4587633E-2,-1.6126556E-2,8.21552E-3,3.8855802E-2,5.2295937E-3,3.0800862E-2,1.2886884E-2,-1.0273663E-2,5.506772E-3,3.236909E-2,1.3169608E-2],"categories":[],"categories_nodes":[],"categories_segments":[],"categories_sizes":[],"default_left":[0,0,0,0,0,0,0,0,0,0,0,0,0,0,0,0,0,0,0,0,0,0,0,0,0,0,0,0,0,0,0,0,0,0,0,0,0,0,0,0,0,0,0,0,0,0,0,0,0,0,0,0,0,0,0,0,0,0,0,0,0,0,0,0,0,0,0,0,0,0,0,0,0,0,0,0,0,0,0,0,0,0,0,0,0,0,0],"id":6,"left_children":[1,3,5,7,9,11,13,15,17,19,21,23,-1,25,27,29,31,33,35,37,39,41,-1,43,-1,45,47,-1,-1,-1,-1,-1,-1,49,51,-1,53,-1,-1,55,57,59,61,-1,63,-1,-1,-1,-1,65,67,-1,69,-1,-1,-1,71,73,75,77,79,81,83,85,-1,-1,-1,-1,-1,-1,-1,-1,-1,-1,-1,-1,-1,-1,-1,-1,-1,-1,-1,-1,-1,-1,-1],"loss_changes":[5.8320057E1,1.8568783E1,6.242344E0,4.162792E0,2.9049819E0,5.5563736E-1,1.5721283E0,3.6121368E-1,7.91172E-1,8.3880615E-1,5.638816E-1,1.6098452E-1,0E0,2.673912E-1,1.7891502E-1,1.0014534E-2,3.2587528E-1,6.3537216E-1,1.0537472E0,1.2357533E-2,8.431392E-1,5.36422E-1,0E0,2.9263973E-2,0E0,1.768341E-1,1.2856483E-2,0E0,0E0,0E0,0E0,0E0,0E0,6.1964035E-1,9.445298E-2,0E0,5.4082125E-3,0E0,0E0,1.086247E-1,8.6271393E-1,4.581265E-1,1.9644594E-1,0E0,1.9315958E-2,0E0,0E0,0E0,0E0,5.070238E-1,4.817629E-1,0E0,3.8107447E-3,0E0,0E0,0E0,3.7810802E-3,1.0139493E0,7.715843E-1,3.0932036E-1,5.0129163E-1,1.9291413E-1,3.7074596E-2,2.627492E-3,0E0,0E0,0E0,0E0,0E0,0E0,0E0,0E0,0E0,0E0,0E0,0E0,0E0,0E0,0E0,0E0,0E0,0E0,0E0,0E0,0E0,0E0,0E0],"parents":[2147483647,0,0,1,1,2,2,3,3,4,4,5,5,6,6,7,7,8,8,9,9,10,10,11,11,13,13,14,14,15,15,16,16,17,17,18,18,19,19,20,20,21,21,23,23,25,25,26,26,33,33,34,34,36,36,39,39,40,40,41,41,42,42,44,44,49,49,50,50,52,52,56,56,57,57,58,58,59,59,60,60,61,61,62,62,63,63],"right_children":[2,4,6,8,10,12,14,16,18,20,22,24,-1,26,28,30,32,34,36,38,40,42,-1,44,-1,46,48,-1,-1,-1,-1,-1,-1,50,52,-1,54,-1,-1,56,58,60,62,-1,64,-1,-1,-1,-1,66,68,-1,70,-1,-1,-1,72,74,76,78,80,82,84,86,-1,-1,-1,-1,-1,-1,-1,-1,-1,-1,-1,-1,-1,-1,-1,-1,-1,-1,-1,-1,-1,-1,-1],"split_conditions":[5.3630927E2,1.0475382E2,1.2754966E3,3.5985783E1,1.8347069E2,8.697101E2,1.945841E-3,2.789102E1,1.5442267E-1,8.259932E1,1E0,3E0,5.806294E-2,3.7471473E-2,6.358054E-2,7.7275084E-3,6E0,1.7566212E-1,2E0,1.58E2,9.9949165E1,3.7074234E2,-2.9974198E-2,2.6E2,3.7953455E-3,1E0,6E0,1.425256E-1,6.4871065E-2,-2.1432688E-2,-7.651167E-2,-3.0803448E-2,-1.383734E-1,2.91878E-6,2.03E2,-8.54783E-2,4.5E1,1.0403013E-2,4.338989E-2,8.462296E-2,1.5148132E2,2.33257E-6,1E0,4.5742642E-2,1E0,9.392255E-2,2.0629056E-2,1.619378E-2,5.8985736E-2,2.023467E-6,4.6551098E1,-1.4444758E-2,3.17E2,-3.0167908E-3,-1.5850855E-2,-7.750209E-3,2.1096398E-1,1.0998594E2,1.4373836E2,1E0,1.6244943E2,5.9795935E-2,3.0352497E-2,1E0,1.1118431E-2,-2.4721043E-2,-7.549854E-2,-1.4122932E-2,-4.1823063E-2,1.3597182E-2,2.4595463E-3,-5.8245808E-2,-2.3082446E-2,-2.8632019E-2,4.6848636E-3,-4.5156997E-2,-1.4587633E-2,-1.6126556E-2,8.21552E-3,3.8855802E-2,5.2295937E-3,3.0800862E-2,1.2886884E-2,-1.0273663E-2,5.506772E-3,3.236909E-2,1.3169608E-2],"split_indices":[320,336,320,330,337,319,15,342,6,340,88,34,0,6,6,6,1,3,83,0,332,334,0,0,0,153,39,0,0,0,0,0,0,7,0,0,0,0,0,3,327,7,82,0,302,0,0,0,0,7,336,0,0,0,0,0,3,333,338,36,326,6,6,278,0,0,0,0,0,0,0,0,0,0,0,0,0,0,0,0,0,0,0,0,0,0,0],"split_type":[0,0,0,0,0,0,0,0,0,0,0,0,0,0,0,0,0,0,0,0,0,0,0,0,0,0,0,0,0,0,0,0,0,0,0,0,0,0,0,0,0,0,0,0,0,0,0,0,0,0,0,0,0,0,0,0,0,0,0,0,0,0,0,0,0,0,0,0,0,0,0,0,0,0,0,0,0,0,0,0,0,0,0,0,0,0,0],"sum_hessian":[3.83E2,2.92E2,9.1E1,9.6E1,1.96E2,4.9E1,4.2E1,1.6E1,8E1,8.9E1,1.07E2,3E1,1.9E1,2.9E1,1.3E1,9E0,7E0,6.7E1,1.3E1,2E0,8.7E1,1.04E2,3E0,2.8E1,2E0,1.7E1,1.2E1,1E1,3E0,1E0,8E0,1E0,6E0,6.3E1,4E0,1E1,3E0,1E0,1E0,8E0,7.9E1,7E1,3.4E1,7E0,2.1E1,1.6E1,1E0,1E0,1.1E1,1.4E1,4.9E1,2E0,2E0,1E0,2E0,1E0,7E0,4.2E1,3.7E1,2.2E1,4.8E1,2.8E1,6E0,1.9E1,2E0,4E0,1E1,9E0,4E1,1E0,1E0,5E0,2E0,1.2E1,3E1,1.3E1,2.4E1,1.5E1,7E0,4E0,4.4E1,1.3E1,1.5E1,1E0,5E0,1.7E1,2E0],"tree_param":{"num_deleted":"0","num_feature":"443","num_nodes":"87","size_leaf_vector":"1"}},{"base_weights":[8.253486E-4,-1.989227E-1,6.279824E-1,-4.7653487E-1,-1.0596073E-2,3.9522392E-1,8.894405E-1,-8.9236605E-1,-3.825656E-1,-1.189347E-1,6.810642E-2,3.0146962E-1,5.254696E-1,7.7159667E-1,1.3852665E-1,-6.90676E-1,-1.2814786E0,-4.0094784E-1,3.331884E-1,-1.2132724E-2,-2.939618E-1,-3.1847842E-2,1.163722E-1,3.2434618E-1,-2.7785972E-2,5.4762244E-1,2.1739585E-2,8.8285726E-1,5.88769E-1,-7.5875604E-1,-1.4274374E-2,-1.4207213E-1,-2.9263277E-2,-4.1296577E-1,1.0926366E-1,4.1220397E-2,8.757866E-3,-1.4864467E-1,1.6396038E-1,-3.452916E-1,1.1213737E-2,-1.5512317E-1,7.363917E-2,2.4041586E-1,3.090566E-2,3.4347615E-1,1.14132516E-1,5.592084E-3,-9.75998E-3,5.750555E-1,2.1877212E-2,9.074025E-1,1.9597603E-2,3.6854573E-2,6.753867E-2,-2.0361053E-2,-7.857972E-2,-1.956707E-1,-4.517475E-1,1.405298E-2,2.3365691E-3,-2.6013252E-1,1.0323467E-1,-3.1134335E-2,2.4407388E-1,-4.5836306E-1,-2.468912E-1,-1.0832177E-2,1.2701133E-1,-2.760615E-2,-2.7918944E-1,1.4112195E-1,-1.2075264E-3,3.2032338E-1,3.6130708E-2,6.431402E-2,-3.0255226E-2,1.5040854E-2,3.6134258E-1,3.1737604E-3,1.3101828E-2,6.0901877E-2,2.2487523E-2,9.302097E-2,2.370336E-2,-3.9537974E-2,-9.61527E-3,-5.8303624E-2,-3.395952E-2,-8.605835E-3,-3.5450425E-2,-5.017351E-3,3.0753827E-2,5.8054104E-3,-1.12539185E-2,3.493425E-2,7.3860823E-3,-4.8719097E-2,-9.945601E-3,-2.8045116E-2,-8.448857E-3,1.5011592E-3,1.7550541E-2,7.036871E-3,-8.83217E-3,-1.0269404E-3,-3.1613953E-2,4.9756574E-3,1.7317047E-2,-1.8622092E-3,4.5633824E-3,4.3462917E-2,2.0790042E-2,-7.6878117E-3,1.4191339E-2,-6.28546E-3,1.3031581E-2,3.7023824E-2,7.837113E-3],"categories":[],"categories_nodes":[],"categories_segments":[],"categories_sizes":[],"default_left":[0,0,0,0,0,0,0,0,0,0,0,0,0,0,0,0,0,0,0,0,0,0,0,0,0,0,0,0,0,0,0,0,0,0,0,0,0,0,0,0,0,0,0,0,0,0,0,0,0,0,0,0,0,0,0,0,0,0,0,0,0,0,0,0,0,0,0,0,0,0,0,0,0,0,0,0,0,0,0,0,0,0,0,0,0,0,0,0,0,0,0,0,0,0,0,0,0,0,0,0,0,0,0,0,0,0,0,0,0,0,0,0,0,0,0,0,0,0,0],"id":7,"left_children":[1,3,5,7,9,11,13,15,17,19,21,23,25,27,-1,29,31,33,35,37,39,41,43,45,47,49,-1,51,53,55,-1,-1,-1,57,59,-1,-1,61,63,65,67,69,71,73,75,77,79,-1,-1,81,-1,83,-1,-1,-1,-1,-1,85,87,-1,-1,89,91,93,95,97,99,-1,101,103,105,107,109,111,113,115,-1,-1,117,-1,-1,-1,-1,-1,-1,-1,-1,-1,-1,-1,-1,-1,-1,-1,-1,-1,-1,-1,-1,-1,-1,-1,-1,-1,-1,-1,-1,-1,-1,-1,-1,-1,-1,-1,-1,-1,-1,-1,-1],"loss_changes":[4.8229897E1,1.5261226E1,5.308136E0,4.2695026E0,1.5002413E0,4.643526E-1,1.4436226E0,7.629967E-1,1.4229956E0,1.379733E0,4.957919E-1,2.5004387E-1,1.7443657E-2,2.3283577E-1,0E0,4.8854494E-1,4.1038704E-1,6.3376427E-1,2.2120684E-2,1.1541959E0,4.4248104E-1,4.535573E-1,7.240789E-1,8.143973E-2,2.298954E-2,3.657818E-2,0E0,1.7622375E-1,7.5368404E-2,5.0168037E-2,0E0,0E0,0E0,7.037525E-1,4.77352E-3,0E0,0E0,7.85055E-1,3.3582324E-1,1.5386486E-1,8.296771E-2,2.4542159E-1,9.6136816E-2,4.4549632E-1,4.873502E-1,3.8785458E-2,1.4070012E-3,0E0,0E0,5.3339005E-2,0E0,8.5292816E-2,0E0,0E0,0E0,0E0,0E0,2.7997738E-1,9.652252E-1,0E0,0E0,2.81618E-1,2.975069E-1,5.7355963E-2,2.4296874E-1,5.5011272E-2,5.805838E-2,0E0,1.3659354E-2,5.9752453E-2,7.624644E-2,2.0664856E-2,9.007015E-3,1.666522E-1,1.1849941E-1,3.355319E-1,0E0,0E0,3.1397104E-2,0E0,0E0,0E0,0E0,0E0,0E0,0E0,0E0,0E0,0E0,0E0,0E0,0E0,0E0,0E0,0E0,0E0,0E0,0E0,0E0,0E0,0E0,0E0,0E0,0E0,0E0,0E0,0E0,0E0,0E0,0E0,0E0,0E0,0E0,0E0,0E0,0E0,0E0,0E0,0E0],"parents":[2147483647,0,0,1,1,2,2,3,3,4,4,5,5,6,6,7,7,8,8,9,9,10,10,11,11,12,12,13,13,15,15,16,16,17,17,18,18,19,19,20,20,21,21,22,22,23,23,24,24,25,25,27,27,28,28,29,29,33,33,34,34,37,37,38,38,39,39,40,40,41,41,42,42,43,43,44,44,45,45,46,46,49,49,51,51,57,57,58,58,61,61,62,62,63,63,64,64,65,65,66,66,68,68,69,69,70,70,71,71,72,72,73,73,74,74,75,75,78,78],"right_children":[2,4,6,8,10,12,14,16,18,20,22,24,26,28,-1,30,32,34,36,38,40,42,44,46,48,50,-1,52,54,56,-1,-1,-1,58,60,-1,-1,62,64,66,68,70,72,74,76,78,80,-1,-1,82,-1,84,-1,-1,-1,-1,-1,86,88,-1,-1,90,92,94,96,98,100,-1,102,104,106,108,110,112,114,116,-1,-1,118,-1,-1,-1,-1,-1,-1,-1,-1,-1,-1,-1,-1,-1,-1,-1,-1,-1,-1,-1,-1,-1,-1,-1,-1,-1,-1,-1,-1,-1,-1,-1,-1,-1,-1,-1,-1,-1,-1,-1,-1],"split_conditions":[4.896581E2,1.1876909E2,1.2754966E3,4.6318153E1,1.9723022E2,8.697101E2,3.4732008E-7,3.1903225E1,1E0,1.7655768E2,2.4739894E-8,1E0,9E0,3.7471473E-2,1.3852665E-1,1E0,4.2347788E-6,1E0,3.69E2,1.4706355E2,3E0,5.620796E-8,1.6803156E-1,2E0,2.6E2,1E0,2.1739585E-2,1E0,1.2948525E3,7.7275084E-3,-1.4274374E-2,-1.4207213E-1,-2.9263277E-2,5.804143E1,5.19E2,4.1220397E-2,8.757866E-3,1.6098825E2,1.7702437E-8,1.6061899E2,1.4321776E-1,7.2299144E-6,1E0,8.012928E-2,1E0,2.6946559E-8,2.46E2,5.592084E-3,-9.75998E-3,2E0,2.1877212E-2,8.1946155E-7,1.9597603E-2,3.6854573E-2,6.753867E-2,-2.0361053E-2,-7.857972E-2,9.3431495E-2,8.4979706E1,1.405298E-2,2.3365691E-3,1.2730764E2,1.4006773E2,5.4695374E-6,1E0,2E0,2.4548634E2,-1.0832177E-2,5.19E2,1E0,6.459304E-2,3.0005707E2,1E0,1E0,9.734349E-2,2.5139934E2,-3.0255226E-2,1.5040854E-2,2E0,3.1737604E-3,1.3101828E-2,6.0901877E-2,2.2487523E-2,9.302097E-2,2.370336E-2,-3.9537974E-2,-9.61527E-3,-5.8303624E-2,-3.395952E-2,-8.605835E-3,-3.5450425E-2,-5.017351E-3,3.0753827E-2,5.8054104E-3,-1.12539185E-2,3.493425E-2,7.3860823E-3,-4.8719097E-2,-9.945601E-3,-2.8045116E-2,-8.448857E-3,1.5011592E-3,1.7550541E-2,7.036871E-3,-8.83217E-3,-1.0269404E-3,-3.1613953E-2,4.9756574E-3,1.7317047E-2,-1.8622092E-3,4.5633824E-3,4.3462917E-2,2.0790042E-2,-7.6878117E-3,1.4191339E-2,-6.28546E-3,1.3031581E-2,3.7023824E-2,7.837113E-3],"split_indices":[327,334,320,325,335,319,8,336,153,315,4,40,23,6,0,36,2,131,0,319,49,13,3,100,0,107,0,89,342,6,0,0,0,314,0,0,0,332,5,338,3,2,34,6,20,4,0,0,0,19,0,11,0,0,0,0,0,6,341,0,0,339,335,2,22,22,319,0,0,34,3,335,51,27,6,319,0,0,38,0,0,0,0,0,0,0,0,0,0,0,0,0,0,0,0,0,0,0,0,0,0,0,0,0,0,0,0,0,0,0,0,0,0,0,0,0,0,0,0],"split_type":[0,0,0,0,0,0,0,0,0,0,0,0,0,0,0,0,0,0,0,0,0,0,0,0,0,0,0,0,0,0,0,0,0,0,0,0,0,0,0,0,0,0,0,0,0,0,0,0,0,0,0,0,0,0,0,0,0,0,0,0,0,0,0,0,0,0,0,0,0,0,0,0,0,0,0,0,0,0,0,0,0,0,0,0,0,0,0,0,0,0,0,0,0,0,0,0,0,0,0,0,0,0,0,0,0,0,0,0,0,0,0,0,0,0,0,0,0,0,0],"sum_hessian":[3.83E2,2.91E2,9.2E1,1.17E2,1.74E2,5E1,4.2E1,2E1,9.7E1,7.3E1,1.01E2,3.1E1,1.9E1,3.6E1,6E0,1.5E1,5E0,9.5E1,2E0,4.6E1,2.7E1,3.3E1,6.8E1,2.9E1,2E0,1.7E1,2E0,2E1,1.6E1,1.3E1,2E0,4E0,1E0,9.3E1,2E0,1E0,1E0,2.6E1,2E1,2.3E1,4E0,1.5E1,1.8E1,2.7E1,4.1E1,2.6E1,3E0,1E0,1E0,1.5E1,2E0,1.9E1,1E0,6E0,1E1,1E0,1.2E1,1.5E1,7.8E1,1E0,1E0,1.8E1,8E0,6E0,1.4E1,9E0,1.4E1,2E0,2E0,8E0,7E0,9E0,9E0,1.9E1,8E0,3.8E1,3E0,3E0,2.3E1,1E0,2E0,1.3E1,2E0,1.8E1,1E0,4E0,1.1E1,3.4E1,4.4E1,7E0,1.1E1,5E0,3E0,3E0,3E0,8E0,6E0,8E0,1E0,1.1E1,3E0,1E0,1E0,3E0,5E0,1E0,6E0,3E0,6E0,7E0,2E0,8E0,1.1E1,4E0,4E0,1.3E1,2.5E1,2.2E1,1E0],"tree_param":{"num_deleted":"0","num_feature":"443","num_nodes":"119","size_leaf_vector":"1"}},{"base_weights":[1.2325966E-3,-1.8036667E-1,5.7140195E-1,-4.7594833E-1,-3.3163663E-2,3.596038E-1,8.0931604E-1,-8.695367E-1,-3.8746744E-1,-1.3463214E-1,6.1666418E-2,2.7357295E-1,4.7927296E-1,6.9971555E-1,1.2730162E-1,-6.6591257E-1,-1.2250521E0,-3.381234E-1,-5.994622E-1,-1.6601622E-1,2.2742182E-1,7.380702E-2,-2.5423026E-2,2.9445082E-1,-2.6396671E-2,5.074756E-1,2.3959344E-2,7.989008E-1,5.360329E-1,-1.9343E-2,-6.89167E-2,-2.7800113E-2,-1.3923146E-1,-3.5924298E-1,-1.6859174E-4,-7.24442E-1,-1.0590218E-1,-1.3887267E-1,-4.200926E-2,4.676386E-2,6.94098E-2,-1.926949E-2,1.2278966E-1,3.1134713E-1,1.0678816E-1,5.31248E-3,-9.271981E-3,5.348688E-1,2.0135107E-2,8.202281E-1,1.8617725E-2,3.369561E-2,6.1398786E-2,-5.318064E-1,-3.0028906E-1,-1.1251458E-2,1.12233594E-1,-7.8659885E-2,-2.9649107E-2,-1.1679754E-3,-1.334164E-2,-4.1320965E-2,-2.3303723E-1,-4.962075E-2,1.4133028E-2,1.9644879E-2,-2.566847E-1,3.8554126E-1,8.953456E-2,3.232718E-1,1.0819233E-2,3.0150723E-3,1.2228373E-2,6.015299E-2,2.8124059E-2,8.396946E-1,2.2518193E-2,-1.9446537E-2,-6.3679725E-2,-3.1866282E-2,9.37876E-3,1.4615299E-2,2.2197403E-3,-2.7345723E-2,7.6222904E-3,-3.3294298E-2,-1.658028E-3,-1.3982073E-3,-6.0449056E-3,-5.3177862E-3,1.0086766E-2,-3.1793486E-2,-5.84198E-4,5.504143E-3,5.0673295E-2,2.1410305E-2,1.5059782E-3,1.9751113E-2,3.612059E-2,6.200057E-2,1.0149039E-1],"categories":[],"categories_nodes":[],"categories_segments":[],"categories_sizes":[],"default_left":[0,0,0,0,0,0,0,0,0,0,0,0,0,0,0,0,0,0,0,0,0,0,0,0,0,0,0,0,0,0,0,0,0,0,0,0,0,0,0,0,0,0,0,0,0,0,0,0,0,0,0,0,0,0,0,0,0,0,0,0,0,0,0,0,0,0,0,0,0,0,0,0,0,0,0,0,0,0,0,0,0,0,0,0,0,0,0,0,0,0,0,0,0,0,0,0,0,0,0,0,0],"id":8,"left_children":[1,3,5,7,9,11,13,15,17,19,21,23,25,27,-1,29,31,33,35,37,39,41,-1,43,45,47,-1,49,51,-1,-1,-1,-1,53,55,57,59,61,-1,-1,63,65,67,69,71,-1,-1,73,-1,75,-1,-1,-1,77,79,-1,81,-1,-1,-1,-1,83,85,87,-1,89,91,93,95,97,-1,-1,-1,-1,-1,99,-1,-1,-1,-1,-1,-1,-1,-1,-1,-1,-1,-1,-1,-1,-1,-1,-1,-1,-1,-1,-1,-1,-1,-1,-1],"loss_changes":[3.986332E1,1.2689282E1,4.395214E0,3.0411148E0,1.8942659E0,3.9394093E-1,1.2945881E0,4.1487694E-1,6.4462185E-1,1.1172153E0,4.0995207E-1,2.0817995E-1,1.3603687E-2,1.7245293E-1,0E0,9.529591E-3,4.0496588E-1,4.8528624E-1,7.8687096E-1,5.485556E-1,2.711984E-1,4.537202E-1,0E0,6.187606E-2,2.0748062E-2,3.4861088E-2,0E0,1.21715546E-1,5.693674E-2,0E0,0E0,0E0,0E0,4.91395E-1,7.576759E-2,5.9381485E-2,8.8115595E-3,7.344297E-1,0E0,0E0,5.8377318E-2,3.284027E-1,5.334399E-1,3.0433416E-2,1.0632165E-3,0E0,0E0,8.44326E-2,0E0,4.2585373E-2,0E0,0E0,0E0,4.0743113E-1,3.919201E-1,0E0,5.917702E-3,0E0,0E0,0E0,0E0,1.1395776E0,8.811166E-1,3.1251647E-4,0E0,1.8872474E-1,7.496342E-2,2.524854E-1,5.441309E-1,4.7923088E-2,0E0,0E0,0E0,0E0,0E0,1.0209274E-1,0E0,0E0,0E0,0E0,0E0,0E0,0E0,0E0,0E0,0E0,0E0,0E0,0E0,0E0,0E0,0E0,0E0,0E0,0E0,0E0,0E0,0E0,0E0,0E0,0E0],"parents":[2147483647,0,0,1,1,2,2,3,3,4,4,5,5,6,6,7,7,8,8,9,9,10,10,11,11,12,12,13,13,15,15,16,16,17,17,18,18,19,19,20,20,21,21,23,23,24,24,25,25,27,27,28,28,33,33,34,34,35,35,36,36,37,37,40,40,41,41,42,42,43,43,44,44,47,47,49,49,53,53,54,54,56,56,61,61,62,62,63,63,65,65,66,66,67,67,68,68,69,69,75,75],"right_children":[2,4,6,8,10,12,14,16,18,20,22,24,26,28,-1,30,32,34,36,38,40,42,-1,44,46,48,-1,50,52,-1,-1,-1,-1,54,56,58,60,62,-1,-1,64,66,68,70,72,-1,-1,74,-1,76,-1,-1,-1,78,80,-1,82,-1,-1,-1,-1,84,86,88,-1,90,92,94,96,98,-1,-1,-1,-1,-1,100,-1,-1,-1,-1,-1,-1,-1,-1,-1,-1,-1,-1,-1,-1,-1,-1,-1,-1,-1,-1,-1,-1,-1,-1,-1],"split_conditions":[4.896581E2,1.0475382E2,1.2754966E3,3.5985783E1,1.9723022E2,8.697101E2,5.688456E3,2.7835146E1,1.5442267E-1,1E0,1E0,1E0,1E0,3.7471473E-2,1.2730162E-1,7.7275084E-3,6E0,1.7566212E-1,2E0,1E0,1.140386E2,2.5670559E-8,-2.5423026E-2,2E0,2.6E2,2E0,2.3959344E-2,1E0,1.2948525E3,-1.9343E-2,-6.89167E-2,-2.7800113E-2,-1.3923146E-1,2.91878E-6,2.03E2,8.4535255E1,4.5E1,1.4829984E2,-4.200926E-2,4.676386E-2,3.1E2,6.76E2,2.0272669E-8,1E0,2.46E2,5.31248E-3,-9.271981E-3,1.1228678E3,2.0135107E-2,1.1246069E-6,1.8617725E-2,3.369561E-2,6.1398786E-2,2.023467E-6,1.7469213E-7,-1.1251458E-2,3.17E2,-7.8659885E-2,-2.9649107E-2,-1.1679754E-3,-1.334164E-2,1.08018616E2,7.160231E-8,2.43E2,1.4133028E-2,2.97926E2,7.2E2,1.6103874E-8,1.5914807E-1,2.0082101E-8,1.0819233E-2,3.0150723E-3,1.2228373E-2,6.015299E-2,2.8124059E-2,7.880769E-8,2.2518193E-2,-1.9446537E-2,-6.3679725E-2,-3.1866282E-2,9.37876E-3,1.4615299E-2,2.2197403E-3,-2.7345723E-2,7.6222904E-3,-3.3294298E-2,-1.658028E-3,-1.3982073E-3,-6.0449056E-3,-5.3177862E-3,1.0086766E-2,-3.1793486E-2,-5.84198E-4,5.504143E-3,5.0673295E-2,2.1410305E-2,1.5059782E-3,1.9751113E-2,3.612059E-2,6.200057E-2,1.0149039E-1],"split_indices":[327,336,320,330,335,319,319,336,6,195,88,40,220,6,0,6,1,3,83,76,341,4,0,100,0,135,0,153,342,0,0,0,0,7,0,336,0,320,0,0,0,0,5,230,0,0,0,319,0,11,0,0,0,7,13,0,0,0,0,0,0,333,11,0,0,335,0,5,3,5,0,0,0,0,0,11,0,0,0,0,0,0,0,0,0,0,0,0,0,0,0,0,0,0,0,0,0,0,0,0,0],"split_type":[0,0,0,0,0,0,0,0,0,0,0,0,0,0,0,0,0,0,0,0,0,0,0,0,0,0,0,0,0,0,0,0,0,0,0,0,0,0,0,0,0,0,0,0,0,0,0,0,0,0,0,0,0,0,0,0,0,0,0,0,0,0,0,0,0,0,0,0,0,0,0,0,0,0,0,0,0,0,0,0,0,0,0,0,0,0,0,0,0,0,0,0,0,0,0,0,0,0,0,0,0],"sum_hessian":[3.83E2,2.91E2,9.2E1,9.6E1,1.95E2,5E1,4.2E1,1.6E1,8E1,9.4E1,1.01E2,3.1E1,1.9E1,3.6E1,6E0,1.2E1,4E0,6.7E1,1.3E1,8.7E1,7E0,9.8E1,3E0,2.9E1,2E0,1.6E1,3E0,2E1,1.6E1,1E0,1.1E1,1E0,3E0,6.3E1,4E0,1E1,3E0,8E1,7E0,2E0,5E0,3.4E1,6.4E1,2.6E1,3E0,1E0,1E0,1.4E1,2E0,1.9E1,1E0,6E0,1E1,1.4E1,4.9E1,2E0,2E0,8E0,2E0,1E0,2E0,4E1,4E1,2E0,3E0,3E1,4E0,6E0,5.8E1,2.4E1,2E0,1E0,2E0,1E1,4E0,1.8E1,1E0,4E0,1E1,4.7E1,2E0,1E0,1E0,1.3E1,2.7E1,2.7E1,1.3E1,1E0,1E0,1.6E1,1.4E1,3E0,1E0,2E0,4E0,2.1E1,3.7E1,7E0,1.7E1,1E1,8E0],"tree_param":{"num_deleted":"0","num_feature":"443","num_nodes":"101","size_leaf_vector":"1"}},{"base_weights":[1.4792864E-3,-1.6402626E-1,5.211152E-1,-4.3328276E-1,-2.9934896E-2,3.2776785E-1,7.383152E-1,-8.287732E-1,-3.5658833E-1,-1.2716718E-1,5.212903E-2,2.4865238E-1,4.3796423E-1,6.3697904E-1,1.1684757E-1,-6.3600093E-1,-1.3878618E-1,-3.7757593E-1,-2.4318203E-2,-1.0442726E-1,-4.9286026E-1,6.267748E-2,-2.3516297E-2,2.6773688E-1,-2.5076836E-2,4.6310523E-1,2.2162393E-2,7.2722983E-1,4.880234E-1,-1.837585E-2,-6.583746E-2,-3.9046672E-1,7.484939E-2,-1.117485E-2,1.0036159E-1,-7.664358E-2,-3.657377E-1,-3.9301077E-3,-5.9642483E-2,1.9393908E-2,1.3144635E-1,2.8268245E-1,9.9920206E-2,5.0468566E-3,-8.808382E-3,4.8726705E-1,1.8792767E-2,7.459045E-1,1.7686838E-2,3.0807419E-2,5.581708E-2,-2.6455465E-1,-4.5840386E-1,-3.4261912E-3,1.46536E-2,1.3884534E-2,1.1697054E-3,-3.2734072E-1,-3.9734792E-2,-4.095913E-2,-1.5611789E-2,1.6416569E-1,-3.529955E-2,1.7187524E-1,-8.370055E-2,3.3765516E-1,2.1619393E-1,2.8643187E-3,1.1413149E-2,5.468454E-2,2.5874136E-2,8.965833E-2,5.4111432E-2,-3.3725217E-2,1.210215E-3,-4.8132554E-2,4.586323E-3,4.6015247E-3,-4.2643163E-2,3.9635575E-3,-1.4688315E-2,4.2731125E-2,5.8459016E-3,-9.884877E-3,4.42972E-3,2.0766912E-2,-7.726303E-3,-1.8834198E-2,-4.1755853E-4,6.334275E-3,3.5523597E-2,5.6392276E-3,2.2358032E-2],"categories":[],"categories_nodes":[],"categories_segments":[],"categories_sizes":[],"default_left":[0,0,0,0,0,0,0,0,0,0,0,0,0,0,0,0,0,0,0,0,0,0,0,0,0,0,0,0,0,0,0,0,0,0,0,0,0,0,0,0,0,0,0,0,0,0,0,0,0,0,0,0,0,0,0,0,0,0,0,0,0,0,0,0,0,0,0,0,0,0,0,0,0,0,0,0,0,0,0,0,0,0,0,0,0,0,0,0,0,0,0,0,0],"id":9,"left_children":[1,3,5,7,9,11,13,15,17,19,21,23,25,27,-1,29,-1,31,33,35,37,39,-1,41,43,45,-1,47,49,-1,-1,51,53,-1,55,57,59,-1,-1,61,63,65,67,-1,-1,69,-1,71,-1,-1,-1,73,75,-1,-1,-1,-1,77,79,-1,-1,81,83,85,87,89,91,-1,-1,-1,-1,-1,-1,-1,-1,-1,-1,-1,-1,-1,-1,-1,-1,-1,-1,-1,-1,-1,-1,-1,-1,-1,-1],"loss_changes":[3.311049E1,1.0529682E1,3.66354E0,2.6466637E0,1.5705646E0,3.357296E-1,1.1301117E0,7.3397064E-1,5.69623E-1,6.969565E-1,3.3900142E-1,1.7388153E-1,6.144762E-3,1.4249802E-1,0E0,1.0556221E-2,0E0,4.841318E-1,7.662001E-2,5.9634286E-1,2.1142304E-1,3.0701324E-1,0E0,4.6997786E-2,1.8725127E-2,2.1458626E-2,0E0,8.390617E-2,4.263258E-2,0E0,0E0,5.2884007E-1,2.8486058E-2,0E0,8.61235E-3,7.1797454E-1,9.596229E-3,0E0,0E0,5.204695E-1,3.6231208E-1,2.5687456E-2,7.826574E-4,0E0,0E0,6.2736034E-2,0E0,1.3199711E-1,0E0,0E0,0E0,5.87337E-1,5.7689E-1,0E0,0E0,0E0,0E0,3.8958406E-1,6.0113007E-1,0E0,0E0,4.7571215E-1,2.4717766E-1,3.1924427E-1,5.7464805E-2,4.0192604E-2,5.097091E-3,0E0,0E0,0E0,0E0,0E0,0E0,0E0,0E0,0E0,0E0,0E0,0E0,0E0,0E0,0E0,0E0,0E0,0E0,0E0,0E0,0E0,0E0,0E0,0E0,0E0,0E0],"parents":[2147483647,0,0,1,1,2,2,3,3,4,4,5,5,6,6,7,7,8,8,9,9,10,10,11,11,12,12,13,13,15,15,17,17,18,18,19,19,20,20,21,21,23,23,24,24,25,25,27,27,28,28,31,31,32,32,34,34,35,35,36,36,39,39,40,40,41,41,42,42,45,45,47,47,51,51,52,52,57,57,58,58,61,61,62,62,63,63,64,64,65,65,66,66],"right_children":[2,4,6,8,10,12,14,16,18,20,22,24,26,28,-1,30,-1,32,34,36,38,40,-1,42,44,46,-1,48,50,-1,-1,52,54,-1,56,58,60,-1,-1,62,64,66,68,-1,-1,70,-1,72,-1,-1,-1,74,76,-1,-1,-1,-1,78,80,-1,-1,82,84,86,88,90,92,-1,-1,-1,-1,-1,-1,-1,-1,-1,-1,-1,-1,-1,-1,-1,-1,-1,-1,-1,-1,-1,-1,-1,-1,-1,-1],"split_conditions":[4.896581E2,1.0475382E2,1.2754966E3,2.918712E1,1.8347069E2,8.697101E2,3.4732008E-7,2.7835146E1,1.0511983E2,1.7746979E2,1E0,1E0,1E0,3.7471473E-2,1.1684757E-1,7.7275084E-3,-1.3878618E-1,2E0,1.3750629E-1,1E0,2.92E2,1E0,-2.3516297E-2,2E0,2.6E2,2E0,2.2162393E-2,1E0,1.2948525E3,-1.837585E-2,-6.583746E-2,6.244081E1,2.02E2,-1.117485E-2,3.17E2,9.9949165E1,5.74E2,-3.9301077E-3,-5.9642483E-2,1.8995559E-8,2E0,2.6434536E-6,2.46E2,5.0468566E-3,-8.808382E-3,1.1228678E3,1.8792767E-2,1E0,1.7686838E-2,3.0807419E-2,5.581708E-2,9.00782E1,1E0,-3.4261912E-3,1.46536E-2,1.3884534E-2,1.1697054E-3,9.4948586E1,1.5393335E2,-4.095913E-2,-1.5611789E-2,1E0,2.874938E2,1E0,2E0,3.7E1,8.319098E-6,2.8643187E-3,1.1413149E-2,5.468454E-2,2.5874136E-2,8.965833E-2,5.4111432E-2,-3.3725217E-2,1.210215E-3,-4.8132554E-2,4.586323E-3,4.6015247E-3,-4.2643163E-2,3.9635575E-3,-1.4688315E-2,4.2731125E-2,5.8459016E-3,-9.884877E-3,4.42972E-3,2.0766912E-2,-7.726303E-3,-1.8834198E-2,-4.1755853E-4,6.334275E-3,3.5523597E-2,5.6392276E-3,2.2358032E-2],"split_indices":[327,336,320,341,337,319,8,336,335,337,88,40,220,6,0,6,0,34,3,240,0,135,0,100,0,135,0,89,342,0,0,322,0,0,0,332,0,0,0,5,290,7,0,0,0,319,0,65,0,0,0,332,58,0,0,0,0,334,315,0,0,27,334,32,49,1,2,0,0,0,0,0,0,0,0,0,0,0,0,0,0,0,0,0,0,0,0,0,0,0,0,0,0],"split_type":[0,0,0,0,0,0,0,0,0,0,0,0,0,0,0,0,0,0,0,0,0,0,0,0,0,0,0,0,0,0,0,0,0,0,0,0,0,0,0,0,0,0,0,0,0,0,0,0,0,0,0,0,0,0,0,0,0,0,0,0,0,0,0,0,0,0,0,0,0,0,0,0,0,0,0,0,0,0,0,0,0,0,0,0,0,0,0,0,0,0,0,0,0],"sum_hessian":[3.83E2,2.91E2,9.2E1,9.6E1,1.95E2,5E1,4.2E1,1.4E1,8.2E1,8.9E1,1.06E2,3.1E1,1.9E1,3.6E1,6E0,1.2E1,2E0,7.7E1,5E0,8.5E1,4E0,1.03E2,3E0,2.9E1,2E0,1.6E1,3E0,2E1,1.6E1,1E0,1.1E1,7.5E1,2E0,3E0,2E0,7.8E1,7E0,1E0,3E0,6.4E1,3.9E1,2.6E1,3E0,1E0,1E0,1.4E1,2E0,1.9E1,1E0,6E0,1E1,2.8E1,4.7E1,1E0,1E0,1E0,1E0,9E0,6.9E1,5E0,2E0,1.7E1,4.7E1,3.3E1,6E0,1.2E1,1.4E1,1E0,2E0,1E1,4E0,9E0,1E1,2.2E1,6E0,4.5E1,2E0,2E0,7E0,4E1,2.9E1,4E0,1.3E1,2.6E1,2.1E1,2.9E1,4E0,2E0,4E0,1E0,1.1E1,1E0,1.3E1],"tree_param":{"num_deleted":"0","num_feature":"443","num_nodes":"93","size_leaf_vector":"1"}},{"base_weights":[1.6629802E-3,-1.4912868E-1,4.7509846E-1,-3.5978764E-1,-6.232162E-3,4.0521276E-1,1.0146284E0,-6.9032276E-1,-2.852874E-1,-1.18602954E-1,3.966498E-2,2.5561744E-1,5.4872197E-1,2.7000858E-2,1.067363E-1,-5.192367E-1,-1.0314984E0,-3.009977E-1,3.125378E-2,-4.606488E-2,-4.1140258E-1,2.3867203E-1,1.836893E-2,2.656883E-1,-8.367963E-3,6.0850805E-1,3.8568488E-1,-5.733477E-2,-9.363974E-2,-1.1389028E-1,-2.4723846E-2,-5.680839E-1,-2.768799E-1,-2.3650597E-1,-7.755087E-3,-5.136321E-1,-1.2965018E-2,7.837516E-2,3.8590637E-1,-2.251967E-2,1.3360767E-1,2.7389854E-1,6.7655756E-3,4.571029E-2,6.884939E-1,3.97831E-2,1.1389255E-2,-2.665688E-3,-1.1380273E-2,-6.8828605E-2,-3.0586077E-2,-8.736571E-2,-3.1064087E-1,-5.9639453E-3,-2.5604382E-2,2.5007004E-1,-5.740656E-2,-5.5189144E-2,-1.4203826E-2,1.3971338E-1,-2.556847E-3,9.983174E-3,4.2315494E-2,1.173093E-1,-6.7348726E-2,5.2869037E-2,2.1082169E-1,2.108516E-1,3.1133097E-1,7.311636E-2,2.4564734E-2,-2.5371963E-2,2.1183211E-3,-4.6799254E-2,-2.420522E-2,2.737177E-2,6.591587E-3,-1.8621787E-2,4.5969267E-3,2.3002774E-3,1.7094932E-2,-7.5789465E-4,6.254725E-4,5.9429806E-4,2.651374E-2,-1.0978105E-2,1.5093547E-2,1.4286379E-2,-1.5414201E-3,2.4658212E-2,8.99844E-3,2.6963E-2,1.4893536E-2,3.2387916E-2,1.1971676E-2],"categories":[],"categories_nodes":[],"categories_segments":[],"categories_sizes":[],"default_left":[0,0,0,0,0,0,0,0,0,0,0,0,0,0,0,0,0,0,0,0,0,0,0,0,0,0,0,0,0,0,0,0,0,0,0,0,0,0,0,0,0,0,0,0,0,0,0,0,0,0,0,0,0,0,0,0,0,0,0,0,0,0,0,0,0,0,0,0,0,0,0,0,0,0,0,0,0,0,0,0,0,0,0,0,0,0,0,0,0,0,0,0,0,0,0],"id":10,"left_children":[1,3,5,7,9,11,13,15,17,19,21,23,25,-1,-1,27,29,31,-1,33,35,37,39,41,-1,43,45,-1,47,-1,-1,49,51,53,55,57,-1,59,61,63,65,67,-1,-1,69,-1,-1,-1,-1,-1,-1,71,73,-1,-1,75,77,-1,-1,79,81,-1,-1,83,85,87,89,91,93,-1,-1,-1,-1,-1,-1,-1,-1,-1,-1,-1,-1,-1,-1,-1,-1,-1,-1,-1,-1,-1,-1,-1,-1,-1,-1],"loss_changes":[2.7484653E1,8.787668E0,3.0954647E0,2.7088032E0,9.072665E-1,1.6630735E0,1.0447502E-1,6.901865E-1,1.0144897E0,1.064244E0,5.253739E-1,1.6916442E-1,1.7469788E-1,0E0,0E0,3.147831E-1,2.2381735E-1,4.610958E-1,0E0,3.0458772E-1,2.2144175E-1,2.5296897E-1,5.401711E-1,4.9756765E-2,0E0,3.6483765E-2,9.074211E-4,0E0,1.0180958E-3,0E0,0E0,1.0118723E-2,5.486975E-1,8.918822E-3,4.7520602E-1,2.1128654E-2,0E0,3.5106808E-2,2.1690965E-2,5.4071474E-1,1.758787E-1,2.8755426E-2,0E0,0E0,1.4162636E-1,0E0,0E0,0E0,0E0,0E0,0E0,2.7623767E-1,7.069545E-1,0E0,0E0,8.086532E-3,4.213555E-1,0E0,0E0,1.0649957E-2,2.2441459E-4,0E0,0E0,3.441488E-1,6.186197E-1,1.0052427E-1,4.262936E-2,2.535057E-2,1.6527891E-2,0E0,0E0,0E0,0E0,0E0,0E0,0E0,0E0,0E0,0E0,0E0,0E0,0E0,0E0,0E0,0E0,0E0,0E0,0E0,0E0,0E0,0E0,0E0,0E0,0E0,0E0],"parents":[2147483647,0,0,1,1,2,2,3,3,4,4,5,5,6,6,7,7,8,8,9,9,10,10,11,11,12,12,15,15,16,16,17,17,19,19,20,20,21,21,22,22,23,23,25,25,26,26,28,28,31,31,32,32,33,33,34,34,35,35,37,37,38,38,39,39,40,40,41,41,44,44,51,51,52,52,55,55,56,56,59,59,60,60,63,63,64,64,65,65,66,66,67,67,68,68],"right_children":[2,4,6,8,10,12,14,16,18,20,22,24,26,-1,-1,28,30,32,-1,34,36,38,40,42,-1,44,46,-1,48,-1,-1,50,52,54,56,58,-1,60,62,64,66,68,-1,-1,70,-1,-1,-1,-1,-1,-1,72,74,-1,-1,76,78,-1,-1,80,82,-1,-1,84,86,88,90,92,94,-1,-1,-1,-1,-1,-1,-1,-1,-1,-1,-1,-1,-1,-1,-1,-1,-1,-1,-1,-1,-1,-1,-1,-1,-1,-1],"split_conditions":[4.896581E2,1.1876909E2,4.9429025E-7,4.6318153E1,2.2761782E-8,1.1419823E3,1.04E2,3.1903225E1,1E0,2.1011832E-8,1.8802892E-8,1E0,5.0241906E-2,2.7000858E-2,1.067363E-1,1E0,4.2347788E-6,1.47073775E-8,3.125378E-2,1.17684326E2,1.8E1,2E0,4.3E1,3E0,-8.367963E-3,1.6454037E-7,1.9E1,-5.733477E-2,2.05E2,-1.1389028E-1,-2.4723846E-2,7.754463E1,5.804143E1,3.47E2,1.3848703E2,1E0,-1.2965018E-2,2.81E2,6.6305834E-6,1.3195147E-1,1E0,9.428322E-6,6.7655756E-3,4.571029E-2,2E0,3.97831E-2,1.1389255E-2,-2.665688E-3,-1.1380273E-2,-6.8828605E-2,-3.0586077E-2,4.4101948E1,6.993405E1,-5.9639453E-3,-2.5604382E-2,2.2068305E-8,1.0790138E-3,-5.5189144E-2,-1.4203826E-2,1.7E1,3.1E1,9.983174E-3,4.2315494E-2,1.8978659E2,1E0,1E0,1E0,6.348743E2,2E0,7.311636E-2,2.4564734E-2,-2.5371963E-2,2.1183211E-3,-4.6799254E-2,-2.420522E-2,2.737177E-2,6.591587E-3,-1.8621787E-2,4.5969267E-3,2.3002774E-3,1.7094932E-2,-7.5789465E-4,6.254725E-4,5.9429806E-4,2.651374E-2,-1.0978105E-2,1.5093547E-2,1.4286379E-2,-1.5414201E-3,2.4658212E-2,8.99844E-3,2.6963E-2,1.4893536E-2,3.2387916E-2,1.1971676E-2],"split_indices":[327,334,16,325,4,316,0,336,153,5,5,125,6,0,0,36,2,4,0,337,1,49,1,100,0,13,27,0,0,0,0,338,314,0,320,17,0,0,2,3,135,2,0,0,235,0,0,0,0,0,0,315,342,0,0,4,12,0,0,1,1,0,0,327,138,22,295,328,154,0,0,0,0,0,0,0,0,0,0,0,0,0,0,0,0,0,0,0,0,0,0,0,0,0,0],"split_type":[0,0,0,0,0,0,0,0,0,0,0,0,0,0,0,0,0,0,0,0,0,0,0,0,0,0,0,0,0,0,0,0,0,0,0,0,0,0,0,0,0,0,0,0,0,0,0,0,0,0,0,0,0,0,0,0,0,0,0,0,0,0,0,0,0,0,0,0,0,0,0,0,0,0,0,0,0,0,0,0,0,0,0,0,0,0,0,0,0,0,0,0,0,0,0],"sum_hessian":[3.83E2,2.91E2,9.2E1,1.17E2,1.74E2,8.3E1,9E0,2E1,9.7E1,5E1,1.24E2,4.2E1,4.1E1,1E0,8E0,1.5E1,5E0,9.5E1,2E0,4.1E1,9E0,1.1E1,1.13E2,4.1E1,1E0,2.8E1,1.3E1,1.3E1,2E0,4E0,1E0,6E0,8.9E1,6E0,3.5E1,6E0,3E0,6E0,5E0,8.4E1,2.9E1,3.9E1,2E0,1.2E1,1.6E1,1.2E1,1E0,1E0,1E0,3E0,3E0,1.4E1,7.5E1,1E0,5E0,5E0,3E1,5E0,1E0,3E0,3E0,1E0,4E0,2E1,6.4E1,1.5E1,1.4E1,1.7E1,2.2E1,1.4E1,2E0,5E0,9E0,2.1E1,5.4E1,4E0,1E0,1.3E1,1.7E1,1E0,2E0,2E0,1E0,1.2E1,8E0,5.4E1,1E1,6E0,9E0,1E1,4E0,7E0,1E1,2E1,2E0],"tree_param":{"num_deleted":"0","num_feature":"443","num_nodes":"95","size_leaf_vector":"1"}},{"base_weights":[1.7458979E-3,-1.3530216E-1,4.3202856E-1,-3.4326658E-1,-1.4939289E-2,3.6473215E-1,9.0053517E-1,-6.9970924E-1,-2.8208476E-1,-8.9515366E-2,4.735391E-2,2.3202345E-1,4.9501854E-1,3.8450316E-2,9.7248636E-2,-5.2595437E-1,-1.2194108E-1,-2.927727E-1,3.5060316E-2,-2.8074337E-2,-2.135891E-1,5.7167917E-2,-2.0738125E-2,2.4133332E-1,-7.949566E-3,5.526018E-1,3.2848526E-2,-3.2147344E-2,-6.1357077E-2,-2.732738E-1,-6.534302E-2,7.126509E-2,-1.370546E-1,-2.5623837E-1,3.3845183E-2,-1.841642E-2,9.6987665E-2,2.4866408E-1,6.314538E-3,4.149088E-2,6.2539047E-1,-2.9822597E-1,-4.632924E-2,1.1389538E-1,-3.645828E-2,-3.074565E-1,-8.708885E-3,-2.891327E-1,-7.3413245E-2,-6.310274E-2,1.1951137E-1,1.4493416E-2,-2.1877411E-1,1.8962713E-1,3.434733E-2,2.6376447E-1,1.3979587E-2,6.629217E-2,2.2927083E-2,-3.1725436E-2,-1.0666656E-3,8.148137E-3,-1.4511654E-2,1.5362381E-2,-1.7281322E-2,-3.599679E-2,-2.9932966E-3,-1.576833E-2,1.4123318E-2,-2.3880703E-2,-4.9470928E-2,-1.3291553E-3,-1.0906386E-2,-1.9750823E-3,-7.490328E-3,2.5521514E-3,1.5374555E-2,-3.945717E-3,8.2823215E-3,-2.7388668E-2,8.380618E-5,3.917348E-2,1.3507414E-2,-2.018571E-3,1.6327322E-2,4.049837E-3,2.6930291E-2],"categories":[],"categories_nodes":[],"categories_segments":[],"categories_sizes":[],"default_left":[0,0,0,0,0,0,0,0,0,0,0,0,0,0,0,0,0,0,0,0,0,0,0,0,0,0,0,0,0,0,0,0,0,0,0,0,0,0,0,0,0,0,0,0,0,0,0,0,0,0,0,0,0,0,0,0,0,0,0,0,0,0,0,0,0,0,0,0,0,0,0,0,0,0,0,0,0,0,0,0,0,0,0,0,0,0,0],"id":11,"left_children":[1,3,5,7,9,11,13,15,17,19,21,23,25,-1,-1,27,-1,29,-1,31,33,35,-1,37,-1,39,-1,-1,-1,41,-1,43,45,47,49,51,53,55,-1,-1,57,59,61,63,-1,65,67,69,71,73,75,77,79,81,83,85,-1,-1,-1,-1,-1,-1,-1,-1,-1,-1,-1,-1,-1,-1,-1,-1,-1,-1,-1,-1,-1,-1,-1,-1,-1,-1,-1,-1,-1,-1,-1],"loss_changes":[2.2702703E1,7.30398E0,2.6037254E0,2.1360588E0,8.6831725E-1,1.3202257E0,3.4496307E-2,7.131567E-1,7.3152494E-1,6.4197725E-1,2.668528E-1,1.4389348E-1,2.1164894E-1,0E0,0E0,3.565979E-2,0E0,4.6841812E-1,0E0,6.376773E-1,3.0415332E-1,2.9975128E-1,0E0,3.916073E-2,0E0,3.1172752E-2,0E0,0E0,0E0,4.9016857E-1,0E0,6.1751425E-1,6.0969234E-1,1.2310791E-1,4.906729E-2,2.3395166E-1,3.7067968E-1,2.8885126E-2,0E0,0E0,1.0074806E-1,4.3435907E-1,1.3808493E-1,3.568721E-1,0E0,1.6410291E-1,4.0200815E-1,8.877528E-2,9.267248E-3,5.532801E-5,5.72918E-3,1.1754737E-1,6.0746476E-2,2.3375177E-1,2.845246E-1,3.1135798E-2,0E0,0E0,0E0,0E0,0E0,0E0,0E0,0E0,0E0,0E0,0E0,0E0,0E0,0E0,0E0,0E0,0E0,0E0,0E0,0E0,0E0,0E0,0E0,0E0,0E0,0E0,0E0,0E0,0E0,0E0,0E0],"parents":[2147483647,0,0,1,1,2,2,3,3,4,4,5,5,6,6,7,7,8,8,9,9,10,10,11,11,12,12,15,15,17,17,19,19,20,20,21,21,23,23,25,25,29,29,31,31,32,32,33,33,34,34,35,35,36,36,37,37,40,40,41,41,42,42,43,43,45,45,46,46,47,47,48,48,49,49,50,50,51,51,52,52,53,53,54,54,55,55],"right_children":[2,4,6,8,10,12,14,16,18,20,22,24,26,-1,-1,28,-1,30,-1,32,34,36,-1,38,-1,40,-1,-1,-1,42,-1,44,46,48,50,52,54,56,-1,-1,58,60,62,64,-1,66,68,70,72,74,76,78,80,82,84,86,-1,-1,-1,-1,-1,-1,-1,-1,-1,-1,-1,-1,-1,-1,-1,-1,-1,-1,-1,-1,-1,-1,-1,-1,-1,-1,-1,-1,-1,-1,-1],"split_conditions":[4.896581E2,1.08018616E2,4.0316226E-7,2.918712E1,1.9723022E2,1.1419823E3,1.04E2,2.7835146E1,1E0,1.7655768E2,1E0,1E0,5.0241906E-2,3.8450316E-2,9.7248636E-2,1.1859147E-1,-1.2194108E-1,1E0,3.5060316E-2,1E0,3E0,2.5670559E-8,-2.0738125E-2,3E0,-7.949566E-3,1.6454037E-7,3.2848526E-2,-3.2147344E-2,-6.1357077E-2,1.1852903E2,-6.534302E-2,1E0,1.3043425E2,2.4548634E2,1.4321776E-1,6.76E2,1.6803156E-1,7.923897E-9,6.314538E-3,4.149088E-2,2E0,1E0,1.1142447E2,3E0,-3.645828E-2,5.83E2,1.3895406E2,1E0,2.31E2,3.26E2,5.19E2,3.0854938E2,7.2E2,2.1008317E-8,1E0,6.2561126E-6,1.3979587E-2,6.629217E-2,2.2927083E-2,-3.1725436E-2,-1.0666656E-3,8.148137E-3,-1.4511654E-2,1.5362381E-2,-1.7281322E-2,-3.599679E-2,-2.9932966E-3,-1.576833E-2,1.4123318E-2,-2.3880703E-2,-4.9470928E-2,-1.3291553E-3,-1.0906386E-2,-1.9750823E-3,-7.490328E-3,2.5521514E-3,1.5374555E-2,-3.945717E-3,8.2823215E-3,-2.7388668E-2,8.380618E-5,3.917348E-2,1.3507414E-2,-2.018571E-3,1.6327322E-2,4.049837E-3,2.6930291E-2],"split_indices":[327,333,16,341,335,316,0,336,53,315,88,125,6,0,0,6,0,158,0,83,49,4,0,100,0,13,0,0,0,327,0,35,341,319,3,0,3,14,0,0,235,256,331,39,0,0,319,144,0,0,0,336,0,5,19,2,0,0,0,0,0,0,0,0,0,0,0,0,0,0,0,0,0,0,0,0,0,0,0,0,0,0,0,0,0,0,0],"split_type":[0,0,0,0,0,0,0,0,0,0,0,0,0,0,0,0,0,0,0,0,0,0,0,0,0,0,0,0,0,0,0,0,0,0,0,0,0,0,0,0,0,0,0,0,0,0,0,0,0,0,0,0,0,0,0,0,0,0,0,0,0,0,0,0,0,0,0,0,0,0,0,0,0,0,0,0,0,0,0,0,0,0,0,0,0,0,0],"sum_hessian":[3.83E2,2.91E2,9.2E1,1.06E2,1.85E2,8.2E1,1E1,1.4E1,9.2E1,8.4E1,1.01E2,4.2E1,4E1,2E0,8E0,1.2E1,2E0,9.1E1,1E0,5.7E1,2.7E1,9.8E1,3E0,4.1E1,1E0,2.8E1,1.2E1,5E0,7E0,8.8E1,3E0,3E1,2.7E1,2.3E1,4E0,3.4E1,6.4E1,3.9E1,2E0,1.2E1,1.6E1,7.9E1,9E0,2.8E1,2E0,1.1E1,1.6E1,1.9E1,4E0,2E0,2E0,3E1,4E0,2.5E1,3.9E1,3.3E1,6E0,1.4E1,2E0,7.4E1,5E0,4E0,5E0,2.5E1,3E0,9E0,2E0,8E0,8E0,1.7E1,2E0,2E0,2E0,1E0,1E0,1E0,1E0,1.7E1,1.3E1,3E0,1E0,4E0,2.1E1,2.8E1,1.1E1,1E0,3.2E1],"tree_param":{"num_deleted":"0","num_feature":"443","num_nodes":"87","size_leaf_vector":"1"}},{"base_weights":[1.3755864E-3,-1.3572691E-1,3.5757294E-1,-3.7396502E-1,-5.0643858E-2,2.1763131E-1,5.6079704E-1,-8.19191E-1,-3.2186732E-1,-1.5343697E-1,4.5542754E-3,1.23910114E-1,2.7693492E-1,4.7865325E-1,9.148716E-2,-3.8143903E-2,-1.0521453E-1,-3.3822238E-1,1.3978163E-2,1.4425668E-1,-1.9290268E-1,3.2924466E-2,-5.3193285E-3,9.204966E-3,1.6359667E-1,2.2742607E-1,3.5845828E-1,6.9742136E-2,4.2267632E-1,-3.575264E-1,-3.506896E-2,2.1361019E-1,-2.0528568E-2,-3.433552E-1,-1.2656571E-1,-1.0918428E-1,3.0405192E-2,-5.097203E-2,8.212497E-3,9.2041396E-2,2.1377449E-1,2.3860212E-1,5.8483696E-3,3.8856916E-2,1.2856572E-2,2.8187495E-1,5.041786E-2,-2.757066E-1,-4.5706433E-1,-1.1420598E-2,5.5757713E-2,6.0340706E-3,2.5464323E-1,-4.2130986E-1,-1.0423515E-1,-6.711455E-2,-4.0056944E-1,-1.443396E-1,1.2358458E-1,-6.086494E-3,1.1064781E-1,-4.310094E-4,-6.155999E-3,3.1512459E-3,1.1348059E-1,2.7409619E-2,1.17823705E-1,1.2121518E-2,2.618881E-1,1.1018446E-2,3.0130802E-2,-1.575767E-2,-4.7258433E-2,-5.5291932E-2,-1.7227573E-2,1.3395653E-3,7.0240917E-3,9.970952E-3,3.071827E-2,-4.775403E-2,-5.5951616E-3,-1.169752E-2,-2.0267458E-3,-1.4577413E-2,8.376143E-3,-1.4266642E-2,-4.627594E-2,-1.666658E-2,2.515598E-2,1.7634388E-3,1.45663535E-2,-1.9637002E-3,2.9857034E-2,2.9143889E-2,7.3069916E-3,2.7433455E-3,1.2324953E-2,4.742279E-3,1.4116846E-2,2.7846282E-2,7.5143725E-3],"categories":[],"categories_nodes":[],"categories_segments":[],"categories_sizes":[],"default_left":[0,0,0,0,0,0,0,0,0,0,0,0,0,0,0,0,0,0,0,0,0,0,0,0,0,0,0,0,0,0,0,0,0,0,0,0,0,0,0,0,0,0,0,0,0,0,0,0,0,0,0,0,0,0,0,0,0,0,0,0,0,0,0,0,0,0,0,0,0,0,0,0,0,0,0,0,0,0,0,0,0,0,0,0,0,0,0,0,0,0,0,0,0,0,0,0,0,0,0,0,0],"id":12,"left_children":[1,3,5,7,9,11,13,15,17,19,21,23,25,27,-1,-1,-1,29,-1,31,33,-1,35,37,39,41,43,-1,45,47,49,51,-1,53,55,57,59,61,-1,63,65,67,-1,-1,-1,69,-1,71,73,-1,75,-1,77,79,81,83,85,87,89,91,93,-1,-1,-1,95,-1,97,-1,99,-1,-1,-1,-1,-1,-1,-1,-1,-1,-1,-1,-1,-1,-1,-1,-1,-1,-1,-1,-1,-1,-1,-1,-1,-1,-1,-1,-1,-1,-1,-1,-1],"loss_changes":[1.8801382E1,5.616128E0,2.9209805E0,1.4295826E0,1.1695402E0,3.2695508E-1,8.127489E-1,3.125043E-1,5.5314684E-1,8.7373364E-1,4.3454298E-1,1.21404886E-1,7.588625E-2,1.5831661E-1,0E0,0E0,0E0,3.6784744E-1,0E0,2.62029E-1,5.9529924E-1,0E0,4.9310914E-1,3.9290935E-2,5.213362E-2,3.7024736E-2,4.0032744E-2,0E0,2.2510481E-1,3.707795E-1,4.2306624E-2,3.4947544E-2,0E0,3.1025457E-1,7.224487E-1,2.9606247E-1,2.9056412E-1,2.2049444E-3,0E0,9.400867E-3,3.137207E-2,3.6591887E-2,0E0,0E0,0E0,1.3511181E-2,0E0,7.62789E-1,6.1450434E-1,0E0,8.9969207E-4,0E0,1.8211752E-2,2.609005E-1,4.047729E-3,4.7505605E-1,6.2291503E-2,3.0709404E-1,9.127654E-3,2.907126E-1,1.8931079E-1,0E0,0E0,0E0,2.502963E-3,0E0,3.1663477E-3,0E0,4.097998E-2,0E0,0E0,0E0,0E0,0E0,0E0,0E0,0E0,0E0,0E0,0E0,0E0,0E0,0E0,0E0,0E0,0E0,0E0,0E0,0E0,0E0,0E0,0E0,0E0,0E0,0E0,0E0,0E0,0E0,0E0,0E0,0E0],"parents":[2147483647,0,0,1,1,2,2,3,3,4,4,5,5,6,6,7,7,8,8,9,9,10,10,11,11,12,12,13,13,17,17,19,19,20,20,22,22,23,23,24,24,25,25,26,26,28,28,29,29,30,30,31,31,33,33,34,34,35,35,36,36,37,37,39,39,40,40,41,41,45,45,47,47,48,48,50,50,52,52,53,53,54,54,55,55,56,56,57,57,58,58,59,59,60,60,64,64,66,66,68,68],"right_children":[2,4,6,8,10,12,14,16,18,20,22,24,26,28,-1,-1,-1,30,-1,32,34,-1,36,38,40,42,44,-1,46,48,50,52,-1,54,56,58,60,62,-1,64,66,68,-1,-1,-1,70,-1,72,74,-1,76,-1,78,80,82,84,86,88,90,92,94,-1,-1,-1,96,-1,98,-1,100,-1,-1,-1,-1,-1,-1,-1,-1,-1,-1,-1,-1,-1,-1,-1,-1,-1,-1,-1,-1,-1,-1,-1,-1,-1,-1,-1,-1,-1,-1,-1,-1],"split_conditions":[4.2010812E2,8.565653E1,1.2754966E3,1.6711893E1,1.4164062E2,8.991649E-6,1E0,2.2894835E1,1.154349E2,8.259932E1,1.2888858E2,2.7031424E-8,1.1471897E3,1.3589526E3,9.148716E-2,-3.8143903E-2,-1.0521453E-1,1E0,1.3978163E-2,1E0,1.8119938E-8,3.2924466E-2,1E0,5.069439E2,1E0,1E0,1E0,6.9742136E-2,1.31E2,2.4739894E-8,1.8800758E-8,1E0,-2.0528568E-2,1.211678E2,1.4894554E2,2E0,3.295955E-8,3.36E2,8.212497E-3,1E0,6.348743E2,2.9525426E-8,5.8483696E-3,3.8856916E-2,1.2856572E-2,1.1269622E3,5.041786E-2,6.902541E1,6.6384995E1,-1.1420598E-2,2.05E2,6.0340706E-3,7.310676E1,1E0,1.8070974E-8,1.2144041E2,1.3317038E2,1E0,1.22E2,1E0,5.9707995E-6,-4.310094E-4,-6.155999E-3,3.1512459E-3,6.4260485E-6,2.7409619E-2,8.319098E-6,1.2121518E-2,1E0,1.1018446E-2,3.0130802E-2,-1.575767E-2,-4.7258433E-2,-5.5291932E-2,-1.7227573E-2,1.3395653E-3,7.0240917E-3,9.970952E-3,3.071827E-2,-4.775403E-2,-5.5951616E-3,-1.169752E-2,-2.0267458E-3,-1.4577413E-2,8.376143E-3,-1.4266642E-2,-4.627594E-2,-1.666658E-2,2.515598E-2,1.7634388E-3,1.45663535E-2,-1.9637002E-3,2.9857034E-2,2.9143889E-2,7.3069916E-3,2.7433455E-3,1.2324953E-2,4.742279E-3,1.4116846E-2,2.7846282E-2,7.5143725E-3],"split_indices":[318,337,320,319,342,2,189,336,314,340,333,4,324,315,0,0,0,256,0,35,5,0,49,320,127,184,105,0,1,4,4,23,0,334,333,36,4,0,0,57,328,4,0,0,0,334,0,337,342,0,0,0,315,191,4,325,342,173,0,217,2,0,0,0,2,0,2,0,235,0,0,0,0,0,0,0,0,0,0,0,0,0,0,0,0,0,0,0,0,0,0,0,0,0,0,0,0,0,0,0,0],"split_type":[0,0,0,0,0,0,0,0,0,0,0,0,0,0,0,0,0,0,0,0,0,0,0,0,0,0,0,0,0,0,0,0,0,0,0,0,0,0,0,0,0,0,0,0,0,0,0,0,0,0,0,0,0,0,0,0,0,0,0,0,0,0,0,0,0,0,0,0,0,0,0,0,0,0,0,0,0,0,0,0,0,0,0,0,0,0,0,0,0,0,0,0,0,0,0,0,0,0,0,0,0],"sum_hessian":[3.83E2,2.77E2,1.06E2,7.2E1,2.05E2,6.4E1,4.2E1,6E0,6.6E1,7.1E1,1.34E2,2.6E1,3.8E1,3.6E1,6E0,3E0,3E0,6.4E1,2E0,8E0,6.3E1,3E0,1.31E2,7E0,1.9E1,2.6E1,1.2E1,5E0,3.1E1,6E1,4E0,7E0,1E0,1.8E1,4.5E1,3.3E1,9.8E1,4E0,3E0,9E0,1E1,2.4E1,2E0,1E1,2E0,1.3E1,1.8E1,3.5E1,2.5E1,2E0,2E0,2E0,5E0,1.3E1,5E0,3.8E1,7E0,2.9E1,4E0,6.8E1,3E1,1E0,3E0,3E0,6E0,5E0,5E0,5E0,1.9E1,2E0,1.1E1,2.3E1,1.2E1,1.8E1,7E0,1E0,1E0,2E0,3E0,1.1E1,2E0,4E0,1E0,2.5E1,1.3E1,2E0,5E0,2.8E1,1E0,1E0,3E0,6.6E1,2E0,4E0,2.6E1,1E0,5E0,2E0,3E0,1.7E1,2E0],"tree_param":{"num_deleted":"0","num_feature":"443","num_nodes":"101","size_leaf_vector":"1"}},{"base_weights":[1.6819008E-3,-1.312043E-1,3.0605647E-1,-3.4023938E-1,-5.2680008E-2,1.8470621E-1,5.105963E-1,-7.5775164E-1,-2.9154047E-1,-1.3958803E-1,-2.1995485E-3,1.4156264E-1,2.962729E-1,4.3400708E-1,8.424827E-2,-1.06797375E-1,-4.200681E-2,-3.0653232E-1,1.3046286E-2,2.050481E-1,-1.6836756E-1,3.0455127E-2,-1.2238923E-2,9.667888E-3,1.6334368E-1,3.779832E-1,2.231994E-2,5.0001454E-1,3.2693863E-1,-2.625269E-1,-4.623597E-1,3.130195E-2,7.2807535E-3,-2.7158374E-1,-7.194297E-2,-1.0515542E-1,2.0569503E-2,-9.2413224E-2,7.6110646E-2,3.563998E-2,1.741431E-1,9.066722E-3,4.060759E-2,5.140794E-1,1.0935897E-2,1.1590356E-2,3.4734973E-1,-4.0586904E-1,-1.9526368E-1,-5.463985E-1,-2.186179E-2,-2.0433503E-1,-4.82567E-2,3.0285174E-3,-2.9719394E-1,-1.2396571E-1,2.3898179E-2,1.4597553E-1,-3.2730302E-4,-2.7628744E-3,-1.4338334E-2,8.727914E-3,1.0134116E-3,-1.489051E-3,5.199523E-3,1.861384E-1,4.3352075E-2,6.262113E-2,3.654068E-2,3.5983693E-2,8.626443E-3,-1.3795051E-2,-4.8367936E-2,-1.139401E-2,-3.428906E-2,-2.7324736E-2,-6.3743286E-2,-1.21612875E-2,-3.752583E-2,-4.7250916E-3,1.6061695E-2,-4.481296E-2,-1.4703783E-2,-1.4602733E-2,1.3061838E-2,3.3933742E-3,3.1845566E-2,-7.96131E-3,7.141527E-3,1.9795915E-2,3.026199E-3,6.814676E-3,-2.7913328E-3],"categories":[],"categories_nodes":[],"categories_segments":[],"categories_sizes":[],"default_left":[0,0,0,0,0,0,0,0,0,0,0,0,0,0,0,0,0,0,0,0,0,0,0,0,0,0,0,0,0,0,0,0,0,0,0,0,0,0,0,0,0,0,0,0,0,0,0,0,0,0,0,0,0,0,0,0,0,0,0,0,0,0,0,0,0,0,0,0,0,0,0,0,0,0,0,0,0,0,0,0,0,0,0,0,0,0,0,0,0,0,0,0,0],"id":13,"left_children":[1,3,5,7,9,11,13,15,17,19,21,23,25,27,-1,-1,-1,29,-1,31,33,-1,35,37,39,41,-1,43,45,47,49,-1,-1,51,53,55,57,59,61,63,65,-1,-1,67,-1,-1,69,71,73,75,-1,77,-1,79,81,83,-1,85,87,-1,-1,-1,-1,-1,-1,89,91,-1,-1,-1,-1,-1,-1,-1,-1,-1,-1,-1,-1,-1,-1,-1,-1,-1,-1,-1,-1,-1,-1,-1,-1,-1,-1],"loss_changes":[1.5571874E1,4.381118E0,2.809743E0,1.2633476E0,8.595757E-1,3.190627E-1,7.273693E-1,2.8467655E-1,4.638734E-1,7.486532E-1,3.8867572E-1,1.5929794E-1,3.5051465E-2,9.8017216E-2,0E0,0E0,0E0,3.2433987E-1,0E0,6.2879026E-2,6.4728415E-1,0E0,3.7407318E-1,6.807659E-2,5.9991598E-2,2.7754068E-2,0E0,5.9165E-2,3.2967687E-2,4.3175626E-1,1.4683628E-1,0E0,0E0,3.5542178E-1,6.0884655E-1,2.3677185E-1,2.3852104E-1,9.246785E-3,3.5366528E-3,4.9064304E-3,6.0961127E-2,0E0,0E0,1.04596615E-1,0E0,0E0,1.786232E-2,2.668252E-1,4.171419E-1,4.9618244E-2,0E0,3.2198143E-1,0E0,2.2944611E-1,1.3808316E-1,1.931864E-1,0E0,2.4041831E-1,4.550508E-1,0E0,0E0,0E0,0E0,0E0,0E0,6.771231E-2,1.0737217E-2,0E0,0E0,0E0,0E0,0E0,0E0,0E0,0E0,0E0,0E0,0E0,0E0,0E0,0E0,0E0,0E0,0E0,0E0,0E0,0E0,0E0,0E0,0E0,0E0,0E0,0E0],"parents":[2147483647,0,0,1,1,2,2,3,3,4,4,5,5,6,6,7,7,8,8,9,9,10,10,11,11,12,12,13,13,17,17,19,19,20,20,22,22,23,23,24,24,25,25,27,27,28,28,29,29,30,30,33,33,34,34,35,35,36,36,37,37,38,38,39,39,40,40,43,43,46,46,47,47,48,48,49,49,51,51,53,53,54,54,55,55,57,57,58,58,65,65,66,66],"right_children":[2,4,6,8,10,12,14,16,18,20,22,24,26,28,-1,-1,-1,30,-1,32,34,-1,36,38,40,42,-1,44,46,48,50,-1,-1,52,54,56,58,60,62,64,66,-1,-1,68,-1,-1,70,72,74,76,-1,78,-1,80,82,84,-1,86,88,-1,-1,-1,-1,-1,-1,90,92,-1,-1,-1,-1,-1,-1,-1,-1,-1,-1,-1,-1,-1,-1,-1,-1,-1,-1,-1,-1,-1,-1,-1,-1,-1,-1],"split_conditions":[3.9423737E2,8.565653E1,1.2754966E3,1.6711893E1,1.4164062E2,8.697101E2,3.4732008E-7,2.8471771E1,1.154349E2,8.3487785E1,1.2888858E2,2.4312438E-8,1.0016381E3,3.7471473E-2,8.424827E-2,-1.06797375E-1,-4.200681E-2,8.354323E1,1.3046286E-2,1.2E1,2.3422025E-8,3.0455127E-2,1E0,4.4249686E2,6.4471237E-6,1.1227784E-1,2.231994E-2,1E0,1.3455925E3,3.8342213E1,9.5970116E1,3.130195E-2,7.2807535E-3,1.455471E-1,2E0,3E0,1.5354669E2,6.18E2,5.72E2,2.21E2,2E0,9.066722E-3,4.060759E-2,1E0,1.0935897E-2,1.1590356E-2,9.772975E-2,2.832535E1,6.902541E1,7.343161E1,-2.186179E-2,1E0,-4.82567E-2,4.56E2,1.8061547E-1,2E0,2.3898179E-2,1E0,6.860224E-8,-2.7628744E-3,-1.4338334E-2,8.727914E-3,1.0134116E-3,-1.489051E-3,5.199523E-3,1E0,5.33E2,6.262113E-2,3.654068E-2,3.5983693E-2,8.626443E-3,-1.3795051E-2,-4.8367936E-2,-1.139401E-2,-3.428906E-2,-2.7324736E-2,-6.3743286E-2,-1.21612875E-2,-3.752583E-2,-4.7250916E-3,1.6061695E-2,-4.481296E-2,-1.4703783E-2,-1.4602733E-2,1.3061838E-2,3.3933742E-3,3.1845566E-2,-7.96131E-3,7.141527E-3,1.9795915E-2,3.026199E-3,6.814676E-3,-2.7913328E-3],"split_indices":[336,337,320,319,342,319,8,324,314,342,333,4,319,6,0,0,0,316,0,1,4,0,49,338,2,3,0,89,323,330,319,0,0,3,27,34,328,0,0,0,191,0,0,65,0,0,6,323,337,317,0,57,0,0,3,36,0,127,13,0,0,0,0,0,0,90,0,0,0,0,0,0,0,0,0,0,0,0,0,0,0,0,0,0,0,0,0,0,0,0,0,0,0],"split_type":[0,0,0,0,0,0,0,0,0,0,0,0,0,0,0,0,0,0,0,0,0,0,0,0,0,0,0,0,0,0,0,0,0,0,0,0,0,0,0,0,0,0,0,0,0,0,0,0,0,0,0,0,0,0,0,0,0,0,0,0,0,0,0,0,0,0,0,0,0,0,0,0,0,0,0,0,0,0,0,0,0,0,0,0,0,0,0,0,0,0,0,0,0],"sum_hessian":[3.83E2,2.67E2,1.16E2,7.2E1,1.95E2,7.4E1,4.2E1,6E0,6.6E1,7.1E1,1.24E2,5.5E1,1.9E1,3.6E1,6E0,2E0,4E0,6.4E1,2E0,5E0,6.6E1,3E0,1.21E2,8E0,4.7E1,7E0,1.2E1,2E1,1.6E1,5.2E1,1.2E1,2E0,3E0,3.1E1,3.5E1,3.1E1,9E1,3E0,5E0,4E0,4.3E1,1E0,6E0,1.9E1,1E0,2E0,1.4E1,1.5E1,3.7E1,8E0,4E0,2.5E1,6E0,2.7E1,8E0,3E1,1E0,1.2E1,7.8E1,2E0,1E0,4E0,1E0,1E0,3E0,3.9E1,4E0,9E0,1E1,1.3E1,1E0,4E0,1.1E1,2.5E1,1.2E1,3E0,5E0,1.8E1,7E0,2.1E1,6E0,3E0,5E0,2.8E1,2E0,8E0,4E0,3.7E1,4.1E1,3.6E1,3E0,3E0,1E0],"tree_param":{"num_deleted":"0","num_feature":"443","num_nodes":"93","size_leaf_vector":"1"}},{"base_weights":[1.4327089E-3,-1.1241926E-1,2.9722163E-1,-3.1109944E-1,-4.146745E-2,1.814168E-1,4.6536332E-1,-7.032342E-1,-2.6548687E-1,-1.2712285E-1,4.5225946E-3,1.0545146E-1,2.2935647E-1,3.9435253E-1,7.7422574E-2,-9.967755E-2,-3.8646262E-2,-2.7927563E-1,1.2176533E-2,1.9097373E-1,-1.5371175E-1,2.8170994E-2,-3.9112843E-3,8.598384E-3,1.3892011E-1,1.8725853E-1,2.9914787E-1,5.879537E-2,3.4572878E-1,-2.3830903E-1,-4.2481062E-1,2.9215151E-2,6.734696E-3,-2.6407987E-1,-7.728126E-2,-8.811186E-2,2.5045594E-2,-4.290256E-2,7.082497E-3,7.76017E-2,1.8203501E-1,2.3126176E-1,1.2987967E-1,3.2487074E-1,1.0511474E-2,2.5208232E-1,4.3505598E-2,-2.8791922E-1,-7.954348E-2,-5.018773E-1,-2.0112846E-2,-5.3306308E-2,-1.9412352E-1,4.9558837E-2,-1.448857E-1,-1.173106E-1,1.0470292E-1,2.6659193E-3,1.328378E-1,-1.1393428E-5,-5.3571234E-3,2.5932256E-3,9.604114E-2,2.3686733E-2,9.686353E-2,2.638E-1,1.1993297E-2,1.4499682E-1,2.6117822E-2,3.628503E-2,1.6769392E-2,2.5959322E-2,6.219861E-3,-3.0856147E-2,6.952215E-3,-1.0591364E-3,-2.4927592E-2,-2.527538E-2,-5.8431346E-2,-3.4375515E-2,-1.0717498E-2,-1.7633978E-2,1.2072847E-2,-3.2692324E-2,-6.4826417E-3,-1.3701322E-2,2.270327E-2,1.5239567E-3,1.2325887E-2,-5.267001E-3,6.6446713E-3,2.9977893E-2,7.5651915E-3,1.2280197E-2,4.527003E-3,4.0256544E-3,1.1510289E-2,2.9029554E-2,1.0521183E-2,1.0093744E-2,1.8649248E-2,7.848829E-4,3.1327903E-3],"categories":[],"categories_nodes":[],"categories_segments":[],"categories_sizes":[],"default_left":[0,0,0,0,0,0,0,0,0,0,0,0,0,0,0,0,0,0,0,0,0,0,0,0,0,0,0,0,0,0,0,0,0,0,0,0,0,0,0,0,0,0,0,0,0,0,0,0,0,0,0,0,0,0,0,0,0,0,0,0,0,0,0,0,0,0,0,0,0,0,0,0,0,0,0,0,0,0,0,0,0,0,0,0,0,0,0,0,0,0,0,0,0,0,0,0,0,0,0,0,0,0,0],"id":14,"left_children":[1,3,5,7,9,11,13,15,17,19,21,23,25,27,-1,-1,-1,29,-1,31,33,-1,35,37,39,41,43,-1,45,47,49,-1,-1,51,53,55,57,59,-1,61,63,65,67,69,-1,71,-1,73,75,77,-1,-1,79,81,83,85,87,89,91,-1,-1,-1,93,-1,95,97,-1,99,101,-1,-1,-1,-1,-1,-1,-1,-1,-1,-1,-1,-1,-1,-1,-1,-1,-1,-1,-1,-1,-1,-1,-1,-1,-1,-1,-1,-1,-1,-1,-1,-1,-1,-1],"loss_changes":[1.29650545E1,3.9059877E0,1.9990387E0,1.118998E0,8.120698E-1,2.1252799E-1,6.377821E-1,2.6568246E-1,3.917675E-1,6.383195E-1,3.1670004E-1,8.6327136E-2,5.8567047E-2,1.4503145E-1,0E0,0E0,0E0,2.8629875E-1,0E0,5.537419E-2,5.447694E-1,0E0,3.2404736E-1,2.8676393E-2,3.8748533E-2,3.8134933E-2,3.0735493E-2,0E0,1.5801597E-1,3.9454675E-1,1.2315798E-1,0E0,0E0,4.045812E-1,3.587535E-1,2.0370099E-1,2.3846893E-1,2.2763852E-3,0E0,7.0369914E-3,2.842784E-2,1.907581E-2,1.8173188E-2,4.8167706E-3,0E0,9.525061E-3,0E0,3.1658745E-1,1.6120759E-1,3.7143707E-2,0E0,0E0,2.6239383E-1,2.6244605E-1,3.7229913E-1,2.3464042E-1,6.421976E-3,2.9643747E-1,1.3961467E-1,0E0,0E0,0E0,3.95149E-3,0E0,1.5612096E-3,1.1476278E-2,0E0,3.115207E-3,3.9661303E-5,0E0,0E0,0E0,0E0,0E0,0E0,0E0,0E0,0E0,0E0,0E0,0E0,0E0,0E0,0E0,0E0,0E0,0E0,0E0,0E0,0E0,0E0,0E0,0E0,0E0,0E0,0E0,0E0,0E0,0E0,0E0,0E0,0E0,0E0],"parents":[2147483647,0,0,1,1,2,2,3,3,4,4,5,5,6,6,7,7,8,8,9,9,10,10,11,11,12,12,13,13,17,17,19,19,20,20,22,22,23,23,24,24,25,25,26,26,28,28,29,29,30,30,33,33,34,34,35,35,36,36,37,37,39,39,40,40,41,41,42,42,43,43,45,45,47,47,48,48,49,49,52,52,53,53,54,54,55,55,56,56,57,57,58,58,62,62,64,64,65,65,67,67,68,68],"right_children":[2,4,6,8,10,12,14,16,18,20,22,24,26,28,-1,-1,-1,30,-1,32,34,-1,36,38,40,42,44,-1,46,48,50,-1,-1,52,54,56,58,60,-1,62,64,66,68,70,-1,72,-1,74,76,78,-1,-1,80,82,84,86,88,90,92,-1,-1,-1,94,-1,96,98,-1,100,102,-1,-1,-1,-1,-1,-1,-1,-1,-1,-1,-1,-1,-1,-1,-1,-1,-1,-1,-1,-1,-1,-1,-1,-1,-1,-1,-1,-1,-1,-1,-1,-1,-1,-1],"split_conditions":[4.2010812E2,8.565653E1,1.2754966E3,1.6711893E1,1.4164062E2,8.991649E-6,1E0,2.8471771E1,1.154349E2,8.3487785E1,1.2888858E2,2.7031424E-8,1.1471897E3,1.3589526E3,7.7422574E-2,-9.967755E-2,-3.8646262E-2,8.354323E1,1.2176533E-2,1.2E1,2.1599895E-8,2.8170994E-2,1E0,5.069439E2,1E0,1E0,1E0,5.879537E-2,1.14787184E-7,6.747634E1,9.5970116E1,2.9215151E-2,6.734696E-3,3.0286662E-6,1.0787451E2,2E0,1E0,3.36E2,7.082497E-3,1E0,6.348743E2,6.8E1,1.2299766E3,1E0,1.0511474E-2,4E0,4.3505598E-2,1E0,8.31003E1,7.343161E1,-2.0112846E-2,-5.3306308E-2,9.222148E1,9.140907E1,1.1257112E2,1E0,1.22E2,2.5551373E2,1.64E2,-1.1393428E-5,-5.3571234E-3,2.5932256E-3,8.378952E-7,2.3686733E-2,8.319098E-6,1E0,1.1993297E-2,1E0,2.46E2,3.628503E-2,1.6769392E-2,2.5959322E-2,6.219861E-3,-3.0856147E-2,6.952215E-3,-1.0591364E-3,-2.4927592E-2,-2.527538E-2,-5.8431346E-2,-3.4375515E-2,-1.0717498E-2,-1.7633978E-2,1.2072847E-2,-3.2692324E-2,-6.4826417E-3,-1.3701322E-2,2.270327E-2,1.5239567E-3,1.2325887E-2,-5.267001E-3,6.6446713E-3,2.9977893E-2,7.5651915E-3,1.2280197E-2,4.527003E-3,4.0256544E-3,1.1510289E-2,2.9029554E-2,1.0521183E-2,1.0093744E-2,1.8649248E-2,7.848829E-4,3.1327903E-3],"split_indices":[318,337,320,319,342,2,189,324,314,342,333,4,324,315,0,0,0,316,0,1,4,0,49,320,127,34,105,0,4,340,319,0,0,7,340,36,138,0,0,57,328,1,332,30,0,65,0,32,334,317,0,0,341,342,342,173,0,336,0,0,0,0,13,0,2,120,0,32,0,0,0,0,0,0,0,0,0,0,0,0,0,0,0,0,0,0,0,0,0,0,0,0,0,0,0,0,0,0,0,0,0,0,0],"split_type":[0,0,0,0,0,0,0,0,0,0,0,0,0,0,0,0,0,0,0,0,0,0,0,0,0,0,0,0,0,0,0,0,0,0,0,0,0,0,0,0,0,0,0,0,0,0,0,0,0,0,0,0,0,0,0,0,0,0,0,0,0,0,0,0,0,0,0,0,0,0,0,0,0,0,0,0,0,0,0,0,0,0,0,0,0,0,0,0,0,0,0,0,0,0,0,0,0,0,0,0,0,0,0],"sum_hessian":[3.83E2,2.77E2,1.06E2,7.2E1,2.05E2,6.4E1,4.2E1,6E0,6.6E1,7.1E1,1.34E2,2.6E1,3.8E1,3.6E1,6E0,2E0,4E0,6.4E1,2E0,5E0,6.6E1,3E0,1.31E2,7E0,1.9E1,2.6E1,1.2E1,5E0,3.1E1,5.2E1,1.2E1,2E0,3E0,2.6E1,4E1,3.3E1,9.8E1,4E0,3E0,9E0,1E1,1.3E1,1.3E1,1E1,2E0,1.7E1,1.4E1,3.9E1,1.3E1,8E0,4E0,4E0,2.2E1,1.4E1,2.6E1,2.9E1,4E0,8.2E1,1.6E1,1E0,3E0,3E0,6E0,5E0,5E0,9E0,4E0,1.1E1,2E0,7E0,3E0,1.6E1,1E0,3.7E1,2E0,1E1,3E0,3E0,5E0,7E0,1.5E1,3E0,1.1E1,7E0,1.9E1,2.8E1,1E0,1E0,3E0,4.4E1,3.8E1,3E0,1.3E1,3E0,3E0,2E0,3E0,7E0,2E0,7E0,4E0,1E0,1E0],"tree_param":{"num_deleted":"0","num_feature":"443","num_nodes":"103","size_leaf_vector":"1"}},{"base_weights":[1.609517E-3,-1.0224604E-1,2.714248E-1,-2.8743398E-1,-3.7338898E-2,1.7195229E-1,4.3374246E-1,-4.9586943E-1,-2.0877275E-1,-1.2954119E-1,2.9789163E-3,1.04766555E-1,2.2223665E-1,3.4263214E-1,6.728102E-1,-3.2927346E-1,-6.837797E-1,-4.6231467E-1,-1.792431E-1,1.2244899E-1,-1.6842066E-1,-2.7064921E-2,6.619936E-2,7.952794E-3,1.3267253E-1,3.881381E-2,1.9692686E-1,3.6870322E-1,1.3332193E-2,2.2864608E-2,7.552705E-2,-3.4681278E-1,-6.817043E-3,-7.406562E-2,-1.4282214E-2,-5.5075105E-2,-5.4284604E-3,-2.0734645E-1,6.1405845E-2,1.56392E-2,2.0476899E-1,-2.1112949E-1,2.1608269E-2,-9.961865E-2,5.2098807E-2,1.6959019E-1,-1.6667558E-2,-3.9686006E-2,6.55131E-3,1.5203676E-1,4.9240407E-2,2.0228022E-1,7.4563886E-4,3.8188806E-1,1.3592834E-2,-3.6552247E-2,-7.985792E-3,-2.275262E-1,5.6377575E-2,-4.9943905E-2,1.29566705E-2,3.4636308E-2,-3.0174614E-3,1.1223358E-2,2.874553E-2,-8.282864E-2,-3.4149724E-1,-7.1734294E-2,2.0289132E-1,5.0427068E-2,-1.4110474E-1,-9.400087E-3,7.127321E-2,2.7112027E-3,2.945235E-1,-1.5547206E-2,2.1945832E-2,-1.0823831E-5,-4.9553387E-2,2.2296274E-2,1.1078015E-1,9.3082566E-4,5.5365185E-3,2.1706413E-1,9.71113E-3,3.8967764E-1,9.746897E-3,-2.726956E-2,-5.571453E-3,9.508488E-3,1.1780183E-3,-1.2870431E-3,-6.2045427E-3,4.317467E-3,4.5106115E-4,-2.2017743E-2,1.4259133E-3,-2.5288347E-2,-5.9220742E-2,-1.291233E-2,6.695515E-3,-3.5023168E-4,2.7285665E-2,-9.565032E-3,1.3542205E-2,-1.618484E-2,1.7559757E-2,1.3297706E-2,2.5813885E-3,8.153142E-3,-1.5105646E-3,3.5422858E-2,-2.6678666E-4,1.1360234E-2,-6.3901446E-3,-2.221541E-3,-6.5783667E-3,4.28477E-3,1.3366836E-2,6.4634318E-3,2.2596138E-2,3.976156E-2,1.0355264E-2],"categories":[],"categories_nodes":[],"categories_segments":[],"categories_sizes":[],"default_left":[0,0,0,0,0,0,0,0,0,0,0,0,0,0,0,0,0,0,0,0,0,0,0,0,0,0,0,0,0,0,0,0,0,0,0,0,0,0,0,0,0,0,0,0,0,0,0,0,0,0,0,0,0,0,0,0,0,0,0,0,0,0,0,0,0,0,0,0,0,0,0,0,0,0,0,0,0,0,0,0,0,0,0,0,0,0,0,0,0,0,0,0,0,0,0,0,0,0,0,0,0,0,0,0,0,0,0,0,0,0,0,0,0,0,0,0,0,0,0,0,0,0,0],"id":15,"left_children":[1,3,5,7,9,11,13,15,17,19,21,23,25,27,29,31,33,35,37,39,41,43,45,47,49,-1,51,53,-1,-1,-1,55,-1,-1,-1,-1,-1,57,59,61,63,65,67,69,71,73,75,77,-1,79,81,83,-1,85,-1,-1,-1,87,89,91,-1,93,-1,-1,-1,95,97,99,101,103,105,-1,107,109,111,-1,113,-1,115,-1,117,-1,-1,119,-1,121,-1,-1,-1,-1,-1,-1,-1,-1,-1,-1,-1,-1,-1,-1,-1,-1,-1,-1,-1,-1,-1,-1,-1,-1,-1,-1,-1,-1,-1,-1,-1,-1,-1,-1,-1,-1,-1],"loss_changes":[1.078813E1,3.3308337E0,1.6530538E0,1.0769725E0,7.698866E-1,2.064476E-1,6.4073515E-1,3.6964655E-1,3.2143164E-1,6.3784933E-1,2.772025E-1,8.269706E-2,8.312452E-2,1.20008945E-1,1.9356918E-1,3.1312466E-2,1.4036012E-1,1.5052605E-1,3.5088432E-1,7.5930804E-2,4.5093727E-1,5.738088E-1,4.0550762E-1,2.4536781E-2,3.1288028E-2,0E0,3.399229E-2,3.0956268E-2,0E0,0E0,0E0,2.5751233E-2,0E0,0E0,0E0,0E0,0E0,2.5231218E-1,5.2009232E-2,5.3967866E-3,5.994916E-3,7.243974E-1,2.0068994E-1,3.3080572E-1,1.411657E-1,4.3702525E-1,1.4812422E-1,1.947281E-3,0E0,3.089732E-2,9.5209945E-4,3.1784058E-2,0E0,1.7405987E-2,0E0,0E0,0E0,3.1075358E-1,5.784861E-3,5.4738484E-4,0E0,8.3415257E-4,0E0,0E0,0E0,3.2317686E-1,3.390007E-1,7.2319455E-2,5.8717206E-2,1.619433E-1,2.977723E-1,0E0,1.17183E-1,1.5274864E-2,2.1387088E-1,0E0,1.803655E-1,0E0,3.134003E-4,0E0,1.6040549E-2,0E0,0E0,2.4725199E-2,0E0,1.3335705E-2,0E0,0E0,0E0,0E0,0E0,0E0,0E0,0E0,0E0,0E0,0E0,0E0,0E0,0E0,0E0,0E0,0E0,0E0,0E0,0E0,0E0,0E0,0E0,0E0,0E0,0E0,0E0,0E0,0E0,0E0,0E0,0E0,0E0,0E0,0E0,0E0,0E0],"parents":[2147483647,0,0,1,1,2,2,3,3,4,4,5,5,6,6,7,7,8,8,9,9,10,10,11,11,12,12,13,13,14,14,15,15,16,16,17,17,18,18,19,19,20,20,21,21,22,22,23,23,24,24,26,26,27,27,31,31,37,37,38,38,39,39,40,40,41,41,42,42,43,43,44,44,45,45,46,46,47,47,49,49,50,50,51,51,53,53,57,57,58,58,59,59,61,61,65,65,66,66,67,67,68,68,69,69,70,70,72,72,73,73,74,74,76,76,78,78,80,80,83,83,85,85],"right_children":[2,4,6,8,10,12,14,16,18,20,22,24,26,28,30,32,34,36,38,40,42,44,46,48,50,-1,52,54,-1,-1,-1,56,-1,-1,-1,-1,-1,58,60,62,64,66,68,70,72,74,76,78,-1,80,82,84,-1,86,-1,-1,-1,88,90,92,-1,94,-1,-1,-1,96,98,100,102,104,106,-1,108,110,112,-1,114,-1,116,-1,118,-1,-1,120,-1,122,-1,-1,-1,-1,-1,-1,-1,-1,-1,-1,-1,-1,-1,-1,-1,-1,-1,-1,-1,-1,-1,-1,-1,-1,-1,-1,-1,-1,-1,-1,-1,-1,-1,-1,-1,-1,-1],"split_conditions":[4.2010812E2,9.542402E1,1.4806737E3,4.2347788E-6,1.3417497E2,9.428322E-6,2E0,3.1903225E1,1.5219975E-8,9.183717E1,1E0,2.7031424E-8,1.7531534E-8,1E0,1E0,8E0,5.86E2,6.54E2,1E0,6.597958E1,5.9490353E-6,7.595886E-8,2.1755511E2,5.069439E2,6.469291E-8,3.881381E-2,1E0,6.384337E-7,1.3332193E-2,2.2864608E-2,7.552705E-2,4.0671666E-6,-6.817043E-3,-7.406562E-2,-1.4282214E-2,-5.5075105E-2,-5.4284604E-3,1E0,4.374271E-6,4.2347788E-6,5.3327103E-6,9.402233E1,1.385207E2,1.4786176E2,1.3098444E2,2.4620809E-8,2.1823953E2,3.36E2,6.55131E-3,4.678538E2,5.5E1,7.923897E-9,7.4563886E-4,1E0,1.3592834E-2,-3.6552247E-2,-7.985792E-3,4.5357797E-6,1.58E2,4.67E2,1.29566705E-2,2.05E2,-3.0174614E-3,1.1223358E-2,2.874553E-2,4.721282E-6,1E0,2.3146296E-8,2.31E2,1.26908615E2,4.2004385E2,-9.400087E-3,1.9297667E-7,1.2E1,2.3091835E2,-1.5547206E-2,2.8534912E2,-1.0823831E-5,1.3446973E-1,2.2296274E-2,6.0173456E2,9.3082566E-4,5.5365185E-3,3.9356174E2,9.71113E-3,1E0,9.746897E-3,-2.726956E-2,-5.571453E-3,9.508488E-3,1.1780183E-3,-1.2870431E-3,-6.2045427E-3,4.317467E-3,4.5106115E-4,-2.2017743E-2,1.4259133E-3,-2.5288347E-2,-5.9220742E-2,-1.291233E-2,6.695515E-3,-3.5023168E-4,2.7285665E-2,-9.565032E-3,1.3542205E-2,-1.618484E-2,1.7559757E-2,1.3297706E-2,2.5813885E-3,8.153142E-3,-1.5105646E-3,3.5422858E-2,-2.6678666E-4,1.1360234E-2,-6.3901446E-3,-2.221541E-3,-6.5783667E-3,4.28477E-3,1.3366836E-2,6.4634318E-3,2.2596138E-2,3.976156E-2,1.0355264E-2],"split_indices":[318,332,312,2,334,2,132,336,4,326,34,4,5,156,22,1,0,0,117,336,2,13,315,320,4,0,95,11,0,0,0,2,0,0,0,0,0,36,2,2,2,320,335,330,332,4,340,0,0,316,1,14,0,79,0,0,0,7,0,0,0,0,0,0,0,2,30,5,0,338,315,0,13,1,320,0,315,0,3,0,335,0,0,335,0,98,0,0,0,0,0,0,0,0,0,0,0,0,0,0,0,0,0,0,0,0,0,0,0,0,0,0,0,0,0,0,0,0,0,0,0,0,0],"split_type":[0,0,0,0,0,0,0,0,0,0,0,0,0,0,0,0,0,0,0,0,0,0,0,0,0,0,0,0,0,0,0,0,0,0,0,0,0,0,0,0,0,0,0,0,0,0,0,0,0,0,0,0,0,0,0,0,0,0,0,0,0,0,0,0,0,0,0,0,0,0,0,0,0,0,0,0,0,0,0,0,0,0,0,0,0,0,0,0,0,0,0,0,0,0,0,0,0,0,0,0,0,0,0,0,0,0,0,0,0,0,0,0,0,0,0,0,0,0,0,0,0,0,0],"sum_hessian":[3.83E2,2.77E2,1.06E2,7.1E1,2.06E2,6.7E1,3.9E1,1.8E1,5.3E1,6.2E1,1.44E2,3E1,3.7E1,3E1,9E0,1.1E1,7E0,4E0,4.9E1,8E0,5.4E1,9.8E1,4.6E1,7E0,2.3E1,3E0,3.4E1,2.6E1,4E0,2E0,7E0,1E1,1E0,6E0,1E0,3E0,1E0,4.4E1,5E0,4E0,4E0,4.4E1,1E1,5.1E1,4.7E1,2E1,2.6E1,4E0,3E0,1.8E1,5E0,3.3E1,1E0,2.4E1,2E0,9E0,1E0,4.1E1,3E0,2E0,3E0,3E0,1E0,3E0,1E0,2.3E1,2.1E1,7E0,3E0,1.1E1,4E1,5E0,4.2E1,9E0,1.1E1,5E0,2.1E1,1E0,3E0,5E0,1.3E1,1E0,4E0,2.8E1,5E0,2.3E1,1E0,3.2E1,9E0,1E0,2E0,1E0,1E0,2E0,1E0,9E0,1.4E1,1.7E1,4E0,5E0,2E0,1E0,2E0,4E0,7E0,3.8E1,2E0,1.7E1,2.5E1,1E0,8E0,9E0,2E0,1E1,1.1E1,2E0,1E0,4E0,9E0,2E0,2.6E1,2.2E1,1E0],"tree_param":{"num_deleted":"0","num_feature":"443","num_nodes":"123","size_leaf_vector":"1"}},{"base_weights":[1.6859615E-3,-9.548201E-2,2.4152684E-1,-2.6170304E-1,-3.6056407E-2,1.529107E-1,3.9499775E-1,-4.2456862E-1,-1.7659128E-1,-1.17264256E-1,4.8367056E-4,1.1590049E-1,2.4334224E-1,3.1116858E-1,6.1536837E-1,-2.632205E-1,-5.913237E-1,-4.281839E-1,-1.447123E-1,1.1483964E-1,-1.5311281E-1,2.3042347E-1,-6.184756E-3,2.6509095E-2,1.3120319E-1,1.4929247E-1,3.2246277E-1,3.345535E-1,1.2265615E-2,7.199957E-2,2.7842848E-2,-3.1618047E-1,-5.1775478E-2,-8.809467E-2,-4.2908005E-2,-5.0944474E-2,-5.1570386E-3,-1.6992673E-1,9.0988584E-2,1.4425496E-2,1.9228587E-1,-1.9235212E-1,2.1330956E-2,2.7290776E-2,5.148531E-3,-1.5577028E-2,1.7181018E-1,7.396623E-2,-5.130388E-2,1.08919434E-1,1.9017851E-1,1.6322348E-2,5.7735285E-3,9.164432E-3,3.3792656E-2,2.7941737E-1,4.3057468E-2,-2.0736279E-2,-4.0528912E-2,2.0154105E-3,-8.247004E-3,-3.1331363E-1,-1.13566004E-1,-1.2226909E-3,1.1984919E-2,3.2364804E-2,-2.8665871E-3,1.0381606E-2,2.7308254E-2,-7.540378E-2,-3.1118885E-1,-6.533796E-2,1.8933605E-1,-2.1576425E-2,2.495892E-2,2.0061393E-1,-5.061325E-5,9.208671E-3,2.5150175E-3,-5.9426273E-3,-1.3468352E-3,1.1690566E-1,1.7799776E-3,2.3159316E-2,1.1706746E-2,2.1317942E-2,3.3668827E-2,-4.1563284E-2,9.808184E-3,-4.930563E-3,-2.6516853E-2,4.0296363E-3,4.2850673E-4,-2.0036148E-2,1.2928274E-3,-2.2900004E-2,-5.4483086E-2,-1.1836302E-2,6.2491475E-3,-3.3271985E-4,2.546662E-2,-5.834607E-3,2.3660706E-3,5.9213713E-3,2.1705123E-2,4.917511E-3,1.2762706E-2],"categories":[],"categories_nodes":[],"categories_segments":[],"categories_sizes":[],"default_left":[0,0,0,0,0,0,0,0,0,0,0,0,0,0,0,0,0,0,0,0,0,0,0,0,0,0,0,0,0,0,0,0,0,0,0,0,0,0,0,0,0,0,0,0,0,0,0,0,0,0,0,0,0,0,0,0,0,0,0,0,0,0,0,0,0,0,0,0,0,0,0,0,0,0,0,0,0,0,0,0,0,0,0,0,0,0,0,0,0,0,0,0,0,0,0,0,0,0,0,0,0,0,0,0,0,0,0],"id":16,"left_children":[1,3,5,7,9,11,13,15,17,19,21,23,25,27,29,31,33,35,37,39,41,43,45,47,49,51,53,55,-1,-1,-1,57,59,-1,-1,-1,-1,61,63,65,67,69,71,-1,-1,73,75,77,79,81,83,-1,-1,-1,-1,85,-1,-1,-1,-1,-1,87,89,-1,-1,91,-1,-1,-1,93,95,97,99,101,-1,103,-1,-1,-1,-1,-1,105,-1,-1,-1,-1,-1,-1,-1,-1,-1,-1,-1,-1,-1,-1,-1,-1,-1,-1,-1,-1,-1,-1,-1,-1,-1],"loss_changes":[8.972124E0,2.697077E0,1.4492002E0,9.230733E-1,6.0242695E-1,2.1277273E-1,5.4745626E-1,4.9008608E-1,3.3104193E-1,5.4178077E-1,2.1762557E-1,6.902224E-2,1.0068405E-1,9.562373E-2,1.5206385E-1,1.4040327E-1,1.3888764E-1,1.2674731E-1,2.8289932E-1,6.721643E-2,3.805809E-1,1.6357496E-2,2.333815E-1,3.702978E-2,3.8424492E-2,4.6065897E-3,4.724145E-3,2.2634268E-2,0E0,0E0,0E0,2.2620678E-2,1.0493499E-2,0E0,0E0,0E0,0E0,2.9575527E-1,1.635969E-2,4.792912E-3,7.3899776E-3,6.019343E-1,1.7253985E-1,0E0,0E0,2.153758E-1,3.484501E-2,2.9914267E-3,4.2888615E-4,2.3388684E-2,6.194532E-3,0E0,0E0,0E0,0E0,4.0950775E-3,0E0,0E0,0E0,0E0,0E0,5.037961E-1,2.8892872E-1,0E0,0E0,7.1819173E-4,0E0,0E0,0E0,2.6749682E-1,2.976942E-1,6.1621983E-2,5.1194206E-2,2.1761644E-1,0E0,1.0930151E-3,0E0,0E0,0E0,0E0,0E0,1.6961247E-2,0E0,0E0,0E0,0E0,0E0,0E0,0E0,0E0,0E0,0E0,0E0,0E0,0E0,0E0,0E0,0E0,0E0,0E0,0E0,0E0,0E0,0E0,0E0,0E0,0E0],"parents":[2147483647,0,0,1,1,2,2,3,3,4,4,5,5,6,6,7,7,8,8,9,9,10,10,11,11,12,12,13,13,14,14,15,15,16,16,17,17,18,18,19,19,20,20,21,21,22,22,23,23,24,24,25,25,26,26,27,27,31,31,32,32,37,37,38,38,39,39,40,40,41,41,42,42,45,45,46,46,47,47,48,48,49,49,50,50,55,55,61,61,62,62,65,65,69,69,70,70,71,71,72,72,73,73,75,75,81,81],"right_children":[2,4,6,8,10,12,14,16,18,20,22,24,26,28,30,32,34,36,38,40,42,44,46,48,50,52,54,56,-1,-1,-1,58,60,-1,-1,-1,-1,62,64,66,68,70,72,-1,-1,74,76,78,80,82,84,-1,-1,-1,-1,86,-1,-1,-1,-1,-1,88,90,-1,-1,92,-1,-1,-1,94,96,98,100,102,-1,104,-1,-1,-1,-1,-1,106,-1,-1,-1,-1,-1,-1,-1,-1,-1,-1,-1,-1,-1,-1,-1,-1,-1,-1,-1,-1,-1,-1,-1,-1,-1],"split_conditions":[4.225634E2,9.542402E1,1.4806737E3,4.3106697E-6,1.3417497E2,1.276035E-5,2E0,3.1903225E1,1.5219975E-8,9.183717E1,1.3494682E2,4.198598E2,4.2223733E-6,1E0,1E0,2.9555107E1,1.831139E1,6.54E2,1E0,6.597958E1,5.9490353E-6,5.6402323E-6,2E0,3.22E2,7.791017E2,1E0,2.5842583E-8,1E0,1.2265615E-2,7.199957E-2,2.7842848E-2,2.937273E1,2.05E2,-8.809467E-2,-4.2908005E-2,-5.0944474E-2,-5.1570386E-3,5.0308502E1,4.374271E-6,4.2347788E-6,5.3327103E-6,9.402233E1,1.385207E2,2.7290776E-2,5.148531E-3,1E0,7.116221E-6,4.6269022E-2,5.2E1,3E0,9.398796E2,1.6322348E-2,5.7735285E-3,9.164432E-3,3.3792656E-2,2.6049807E3,4.3057468E-2,-2.0736279E-2,-4.0528912E-2,2.0154105E-3,-8.247004E-3,1E0,8.913355E1,-1.2226909E-3,1.1984919E-2,2.05E2,-2.8665871E-3,1.0381606E-2,2.7308254E-2,4.721282E-6,1E0,2.3146296E-8,2.31E2,7.6838454E-8,2.495892E-2,2.0892214E-8,-5.061325E-5,9.208671E-3,2.5150175E-3,-5.9426273E-3,-1.3468352E-3,7.339408E-6,1.7799776E-3,2.3159316E-2,1.1706746E-2,2.1317942E-2,3.3668827E-2,-4.1563284E-2,9.808184E-3,-4.930563E-3,-2.6516853E-2,4.0296363E-3,4.2850673E-4,-2.0036148E-2,1.2928274E-3,-2.2900004E-2,-5.4483086E-2,-1.1836302E-2,6.2491475E-3,-3.3271985E-4,2.546662E-2,-5.834607E-3,2.3660706E-3,5.9213713E-3,2.1705123E-2,4.917511E-3,1.2762706E-2],"split_indices":[334,332,312,2,334,2,132,336,4,326,334,336,7,156,173,327,315,0,117,336,2,2,108,0,318,51,4,35,0,0,0,323,0,0,0,0,0,327,2,2,2,320,335,0,0,230,2,6,1,34,329,0,0,0,0,315,0,0,0,0,0,83,324,0,0,0,0,0,0,2,30,5,0,13,0,4,0,0,0,0,0,2,0,0,0,0,0,0,0,0,0,0,0,0,0,0,0,0,0,0,0,0,0,0,0,0,0],"split_type":[0,0,0,0,0,0,0,0,0,0,0,0,0,0,0,0,0,0,0,0,0,0,0,0,0,0,0,0,0,0,0,0,0,0,0,0,0,0,0,0,0,0,0,0,0,0,0,0,0,0,0,0,0,0,0,0,0,0,0,0,0,0,0,0,0,0,0,0,0,0,0,0,0,0,0,0,0,0,0,0,0,0,0,0,0,0,0,0,0,0,0,0,0,0,0,0,0,0,0,0,0,0,0,0,0,0,0],"sum_hessian":[3.83E2,2.73E2,1.1E2,7.1E1,2.02E2,7.1E1,3.9E1,2.3E1,4.8E1,6.2E1,1.4E2,5.2E1,1.9E1,3E1,9E0,1.3E1,1E1,4E0,4.4E1,8E0,5.4E1,3E0,1.37E2,8E0,4.4E1,1E1,9E0,2.6E1,4E0,6E0,3E0,1E1,3E0,2E0,8E0,3E0,1E0,4E1,4E0,4E0,4E0,4.4E1,1E1,2E0,1E0,1.31E2,6E0,5E0,3E0,3.4E1,1E1,8E0,2E0,1E0,8E0,1.9E1,7E0,6E0,4E0,1E0,2E0,1E1,3E1,1E0,3E0,3E0,1E0,3E0,1E0,2.3E1,2.1E1,7E0,3E0,1.29E2,2E0,5E0,1E0,3E0,2E0,2E0,1E0,3.1E1,3E0,5E0,5E0,1.1E1,8E0,8E0,2E0,2.2E1,8E0,2E0,1E0,9E0,1.4E1,1.7E1,4E0,5E0,2E0,1E0,2E0,7.1E1,5.8E1,1E0,4E0,5E0,2.6E1],"tree_param":{"num_deleted":"0","num_feature":"443","num_nodes":"107","size_leaf_vector":"1"}},{"base_weights":[1.7026028E-3,-8.982755E-2,2.139432E-1,-2.397972E-1,-3.483945E-2,1.3041592E-1,3.527124E-1,-5.9962845E-1,-2.0399445E-1,-9.425477E-2,5.396387E-3,1.0245046E-1,2.1815595E-1,2.9687905E-1,6.4753795E-1,-1.1417749E-2,-8.1380956E-2,-2.1522209E-1,1.0726903E-2,9.744903E-2,-1.1992777E-1,1.3830687E-1,-1.2208738E-2,8.095946E-2,1.6421078E-1,2.899093E-2,1.22163065E-1,2.4025427E-1,4.1402593E-2,7.8112455E-3,7.458006E-2,-2.3570873E-1,-1.1802931E-2,2.52483E-2,1.9943804E-1,-1.4054863E-1,8.868412E-2,2.1355847E-1,2.3783382E-3,-2.5226822E-1,-3.2142212E-4,8.8905595E-2,-2.271476E-2,6.4940215E-3,1.8538092E-1,1.2845206E-2,3.5925552E-3,2.4582636E-1,4.4903844E-3,-2.4819332E-1,8.006812E-3,1.0441515E-2,-2.015654E-2,-1.0328963E-2,5.451349E-3,2.5942842E-2,9.296511E-3,-1.7938972E-1,-2.0327322E-2,1.8650755E-2,-3.131035E-2,1.0633405E-2,2.780712E-2,-4.958251E-3,4.0754385E-2,-2.870257E-2,-5.6619197E-3,-1.1903803E-2,1.5856858E-1,1.005978E-1,2.6639014E-2,2.688858E-3,-4.8212066E-2,2.1952238E-2,1.0050668E-2,2.5096026E-1,5.617264E-3,-1.9747773E-2,-3.898571E-2,-2.7232587E-3,4.3831073E-4,-1.9782046E-2,7.7411197E-3,1.2269526E-2,-1.3271267E-2,6.514152E-4,-7.2391927E-3,6.006215E-4,5.0335038E-3,-2.753198E-3,1.2525171E-2,1.8515697E-2,-4.808259E-5,1.0733578E-2,-7.05264E-4,9.4309554E-4,3.080321E-3,-5.952317E-3,-1.2794934E-3,2.619691E-2,1.24919405E-2],"categories":[],"categories_nodes":[],"categories_segments":[],"categories_sizes":[],"default_left":[0,0,0,0,0,0,0,0,0,0,0,0,0,0,0,0,0,0,0,0,0,0,0,0,0,0,0,0,0,0,0,0,0,0,0,0,0,0,0,0,0,0,0,0,0,0,0,0,0,0,0,0,0,0,0,0,0,0,0,0,0,0,0,0,0,0,0,0,0,0,0,0,0,0,0,0,0,0,0,0,0,0,0,0,0,0,0,0,0,0,0,0,0,0,0,0,0,0,0,0,0],"id":17,"left_children":[1,3,5,7,9,11,13,15,17,19,21,23,25,27,29,-1,-1,31,-1,33,35,37,39,41,43,-1,45,47,-1,-1,-1,49,51,53,55,57,59,61,63,65,67,69,71,-1,73,-1,-1,75,-1,77,-1,-1,-1,79,-1,-1,-1,81,83,-1,85,-1,-1,-1,87,-1,-1,89,91,93,95,-1,97,-1,-1,99,-1,-1,-1,-1,-1,-1,-1,-1,-1,-1,-1,-1,-1,-1,-1,-1,-1,-1,-1,-1,-1,-1,-1,-1,-1],"loss_changes":[7.478961E0,2.2099662E0,1.2985578E0,8.052516E-1,4.7385246E-1,1.5922296E-1,5.1558685E-1,5.3092766E-1,2.5723505E-1,4.0541577E-1,2.8013736E-1,6.368846E-2,8.167654E-2,1.5259862E-1,2.774632E-1,0E0,0E0,2.6809716E-1,0E0,6.860133E-2,3.1788898E-1,1.4269581E-1,3.0240723E-1,3.909087E-2,1.7383337E-2,0E0,2.6640296E-4,1.9439697E-2,0E0,0E0,0E0,2.5247097E-1,1.7542328E-1,7.851295E-3,1.4315993E-3,2.9987276E-1,8.80075E-2,3.2687634E-2,1.3985015E-2,1.7750144E-2,1.8960069E-1,2.7897567E-2,6.35536E-3,0E0,9.81155E-3,0E0,0E0,1.2191772E-2,0E0,3.325317E-1,0E0,0E0,0E0,1.1141126E-3,0E0,0E0,0E0,2.4723208E-1,2.895351E-1,0E0,6.687133E-3,0E0,0E0,0E0,1.0293177E-3,0E0,0E0,2.0922351E-1,2.9691085E-2,2.6144177E-2,2.8275792E-4,0E0,4.40225E-4,0E0,0E0,3.3515692E-3,0E0,0E0,0E0,0E0,0E0,0E0,0E0,0E0,0E0,0E0,0E0,0E0,0E0,0E0,0E0,0E0,0E0,0E0,0E0,0E0,0E0,0E0,0E0,0E0,0E0],"parents":[2147483647,0,0,1,1,2,2,3,3,4,4,5,5,6,6,7,7,8,8,9,9,10,10,11,11,12,12,13,13,14,14,17,17,19,19,20,20,21,21,22,22,23,23,24,24,26,26,27,27,31,31,32,32,33,33,34,34,35,35,36,36,37,37,38,38,39,39,40,40,41,41,42,42,44,44,47,47,49,49,53,53,57,57,58,58,60,60,64,64,67,67,68,68,69,69,70,70,72,72,75,75],"right_children":[2,4,6,8,10,12,14,16,18,20,22,24,26,28,30,-1,-1,32,-1,34,36,38,40,42,44,-1,46,48,-1,-1,-1,50,52,54,56,58,60,62,64,66,68,70,72,-1,74,-1,-1,76,-1,78,-1,-1,-1,80,-1,-1,-1,82,84,-1,86,-1,-1,-1,88,-1,-1,90,92,94,96,-1,98,-1,-1,100,-1,-1,-1,-1,-1,-1,-1,-1,-1,-1,-1,-1,-1,-1,-1,-1,-1,-1,-1,-1,-1,-1,-1,-1,-1],"split_conditions":[4.0661105E2,9.542402E1,1.2754966E3,2.8471771E1,1.4497388E2,1.276035E-5,7E0,1.99E2,2E0,9.183717E1,1.5354669E2,8.367314E2,1E0,9.061698E-8,1E0,-1.1417749E-2,-8.1380956E-2,1.00790634E2,1.0726903E-2,8.9504555E1,1E0,1E0,1.4E1,1E0,6.7735156E2,2.899093E-2,7.923897E-9,4E0,4.1402593E-2,7.8112455E-3,7.458006E-2,1E0,1.2810626E2,2.1596842E-8,1.2E1,5.9490353E-6,1.25643E2,2.3340103E-8,9.900886E-2,4.3E2,2E0,7.4009235E2,2.6E2,6.4940215E-3,9.195227E2,1.2845206E-2,3.5925552E-3,9.772975E-2,4.4903844E-3,7.674091E1,8.006812E-3,1.0441515E-2,-2.015654E-2,8.65239E-2,5.451349E-3,2.5942842E-2,9.296511E-3,1.9919084E2,1.2872948E2,1.8650755E-2,2.1E1,1.0633405E-2,2.780712E-2,-4.958251E-3,2.09E2,-2.870257E-2,-5.6619197E-3,1E0,7.116221E-6,6.69E2,2.46E2,2.688858E-3,4.99E2,2.1952238E-2,1.0050668E-2,3E0,5.617264E-3,-1.9747773E-2,-3.898571E-2,-2.7232587E-3,4.3831073E-4,-1.9782046E-2,7.7411197E-3,1.2269526E-2,-1.3271267E-2,6.514152E-4,-7.2391927E-3,6.006215E-4,5.0335038E-3,-2.753198E-3,1.2525171E-2,1.8515697E-2,-4.808259E-5,1.0733578E-2,-7.05264E-4,9.4309554E-4,3.080321E-3,-5.952317E-3,