{"learner":{"attributes":{"best_iteration":"7","best_score":"0.26544527596207257"},"feature_names":[],"feature_types":[],"gradient_booster":{"model":{"gbtree_model_param":{"num_parallel_tree":"1","num_trees":"58"},"iteration_indptr":[0,1,2,3,4,5,6,7,8,9,10,11,12,13,14,15,16,17,18,19,20,21,22,23,24,25,26,27,28,29,30,31,32,33,34,35,36,37,38,39,40,41,42,43,44,45,46,47,48,49,50,51,52,53,54,55,56,57,58],"tree_info":[0,0,0,0,0,0,0,0,0,0,0,0,0,0,0,0,0,0,0,0,0,0,0,0,0,0,0,0,0,0,0,0,0,0,0,0,0,0,0,0,0,0,0,0,0,0,0,0,0,0,0,0,0,0,0,0,0,0],"trees":[{"base_weights":[-1.6868095E-9,-1.0018428E-1,3.5408884E-1,-1.14954844E-1,6.2421612E-2,-1.3218832E-1,-4.3768853E-2,-1.068071E-2,-1.1135577E-1,1.2519899E-1,-7.2126314E-2,-1.17174774E-1,-5.2035455E-2,2.2147635E-2,-4.932772E-3,-8.447402E-2,2.249035E-4,-6.921959E-2,-1.2276364E-1,1.7016742E-3,-8.85655E-3,-8.9312E-3,-6.441893E-2,-7.8218635E-3,-1.2574306E-3,-4.2546378E-3,-9.473618E-3,-6.3414476E-3,-2.4531686E-3],"categories":[],"categories_nodes":[],"categories_segments":[],"categories_sizes":[],"default_left":[0,0,0,0,0,0,0,0,0,0,0,0,0,0,0,0,0,0,0,0,0,0,0,0,0,0,0,0,0],"id":0,"left_children":[1,3,-1,5,-1,7,9,-1,11,13,15,17,19,-1,-1,21,-1,23,25,-1,-1,-1,27,-1,-1,-1,-1,-1,-1],"loss_changes":[1.8210054E2,5.288152E0,0E0,4.5057726E-1,0E0,4.7808647E-2,3.6360103E-1,0E0,2.9456735E-2,3.7675053E-1,5.9621096E-2,1.6427755E-2,5.6971863E-2,0E0,0E0,3.0503184E-2,0E0,2.032737E-2,1.206398E-2,0E0,0E0,0E0,2.0856649E-2,0E0,0E0,0E0,0E0,0E0,0E0],"parents":[2147483647,0,0,1,1,3,3,5,5,6,6,8,8,9,9,10,10,11,11,12,12,15,15,17,17,18,18,22,22],"right_children":[2,4,-1,6,-1,8,10,-1,12,14,16,18,20,-1,-1,22,-1,24,26,-1,-1,-1,28,-1,-1,-1,-1,-1,-1],"split_conditions":[1.0205391E-2,5E0,3.5408884E-1,2.4272526E-4,6.2421612E-2,9.55088E-5,1.34E2,-1.068071E-2,1E0,1.0756843E-7,1E0,9.772585E-5,1.5178997E-4,2.2147635E-2,-4.932772E-3,4E0,2.249035E-4,9.2149574E-5,8.5E1,1.7016742E-3,-8.85655E-3,-8.9312E-3,1.0172919E-1,-7.8218635E-3,-1.2574306E-3,-4.2546378E-3,-9.473618E-3,-6.3414476E-3,-2.4531686E-3],"split_indices":[331,124,0,340,0,336,0,0,179,4,113,334,333,0,0,27,0,341,0,0,0,0,6,0,0,0,0,0,0],"split_type":[0,0,0,0,0,0,0,0,0,0,0,0,0,0,0,0,0,0,0,0,0,0,0,0,0,0,0,0,0],"sum_hessian":[3.83E2,3.76E2,7E0,3.71E2,5E0,2.98E2,7.3E1,1.96E2,1.02E2,1E1,6.3E1,9.2E1,1E1,5E0,5E0,5.4E1,9E0,1.1E1,8.1E1,5E0,5E0,1.8E1,3.6E1,6E0,5E0,5E0,7.6E1,2.1E1,1.5E1],"tree_param":{"num_deleted":"0","num_feature":"474","num_nodes":"29","size_leaf_vector":"1"}},{"base_weights":[9.78075E-4,-8.677022E-2,3.5544348E-1,-1.0578708E-1,8.324298E-2,-1.1318583E-1,4.64208E-2,-1.248777E-1,-6.920002E-2,-2.129894E-2,1.3905758E-2,-1.2667722E-1,-4.246261E-3,4.2562997E-3,-8.260581E-2,1.4596428E-3,-3.6905403E-3,-1.2817223E-1,-4.599033E-3,-1.04794614E-1,-5.455186E-2,-9.697255E-3,-4.3561393E-3,-8.479158E-3,-3.142069E-3,6.8321516E-4,-5.1777167E-3],"categories":[],"categories_nodes":[],"categories_segments":[],"categories_sizes":[],"default_left":[0,0,0,0,0,0,0,0,0,0,0,0,0,0,0,0,0,0,0,0,0,0,0,0,0,0,0],"id":1,"left_children":[1,3,-1,5,-1,7,9,11,13,15,-1,17,-1,-1,19,-1,-1,21,-1,23,25,-1,-1,-1,-1,-1,-1],"loss_changes":[1.600688E2,8.719574E0,0E0,4.253068E-1,0E0,1.7444038E-1,1.733708E-1,2.7222633E-2,1.347E-1,1.5746005E-2,0E0,1.8717289E-2,0E0,0E0,3.7857115E-2,0E0,0E0,1.3376236E-2,0E0,1.5008777E-2,3.1058036E-2,0E0,0E0,0E0,0E0,0E0,0E0],"parents":[2147483647,0,0,1,1,3,3,5,5,6,6,7,7,8,8,9,9,11,11,14,14,17,17,19,19,20,20],"right_children":[2,4,-1,6,-1,8,10,12,14,16,-1,18,-1,-1,20,-1,-1,22,-1,24,26,-1,-1,-1,-1,-1,-1],"split_conditions":[1.3479142E-2,5E0,3.5544348E-1,1.2748752E-3,8.324298E-2,3.0024137E-4,1.019597E-3,2E0,1.3E2,3.5451484E-4,1.3905758E-2,7.747412E-4,-4.246261E-3,4.2562997E-3,2E0,1.4596428E-3,-3.6905403E-3,1E0,-4.599033E-3,5.8307766E-4,4.3310443E-4,-9.697255E-3,-4.3561393E-3,-8.479158E-3,-3.142069E-3,6.8321516E-4,-5.1777167E-3],"split_indices":[329,124,0,336,0,336,318,191,0,333,0,315,0,0,17,0,0,71,0,333,338,0,0,0,0,0,0],"split_type":[0,0,0,0,0,0,0,0,0,0,0,0,0,0,0,0,0,0,0,0,0,0,0,0,0,0,0],"sum_hessian":[3.83E2,3.77E2,6E0,3.72E2,5E0,3.55E2,1.7E1,2.79E2,7.6E1,1.2E1,5E0,2.71E2,8E0,7E0,6.9E1,5E0,7E0,2.64E2,7E0,3.7E1,3.2E1,2.59E2,5E0,3.2E1,5E0,6E0,2.6E1],"tree_param":{"num_deleted":"0","num_feature":"474","num_nodes":"27","size_leaf_vector":"1"}},{"base_weights":[1.9870172E-3,-7.55654E-2,3.6752877E-1,-9.881648E-2,1.0397595E-1,-1.0316802E-1,8.487196E-3,-1.17509246E-1,-6.7687586E-2,-1.191351E-1,-3.1295298E-3,-7.5832196E-2,3.269928E-3,-8.995054E-3,-5.535737E-3,-8.474305E-2,-2.681445E-3,-6.8032923E-3,1.0440325E-3,2.3068695E-3,-2.322074E-3],"categories":[],"categories_nodes":[],"categories_segments":[],"categories_sizes":[],"default_left":[0,0,0,0,0,0,0,0,0,0,0,0,0,0,0,0,0,0,0,0,0],"id":2,"left_children":[1,3,-1,5,-1,7,-1,9,11,13,-1,15,-1,-1,-1,17,19,-1,-1,-1,-1],"loss_changes":[1.4624518E2,1.3019588E1,0E0,3.5666585E-1,0E0,1.7878771E-1,0E0,2.7063608E-2,1.0119587E-1,3.4570694E-4,0E0,6.56082E-2,0E0,0E0,0E0,5.4252386E-2,1.2300218E-2,0E0,0E0,0E0,0E0],"parents":[2147483647,0,0,1,1,3,3,5,5,7,7,8,8,9,9,11,11,15,15,16,16],"right_children":[2,4,-1,6,-1,8,-1,10,12,14,-1,16,-1,-1,-1,18,20,-1,-1,-1,-1],"split_conditions":[1.3E1,1.2511011E-2,3.6752877E-1,6.412332E-3,1.0397595E-1,1.8052594E-4,8.487196E-3,1E0,1E0,7.095337E-4,-3.1295298E-3,1.6E1,3.269928E-3,-8.995054E-3,-5.535737E-3,1.5877983E-7,2E0,-6.8032923E-3,1.0440325E-3,2.3068695E-3,-2.322074E-3],"split_indices":[470,15,0,15,0,340,0,71,213,316,0,27,0,0,0,4,76,0,0,0,0],"split_type":[0,0,0,0,0,0,0,0,0,0,0,0,0,0,0,0,0,0,0,0,0],"sum_hessian":[3.83E2,3.78E2,5E0,3.73E2,5E0,3.66E2,7E0,2.59E2,1.07E2,2.53E2,6E0,1E2,7E0,2.47E2,6E0,8.9E1,1.1E1,8.4E1,5E0,5E0,6E0],"tree_param":{"num_deleted":"0","num_feature":"474","num_nodes":"21","size_leaf_vector":"1"}},{"base_weights":[3.0354627E-3,-7.7195205E-2,3.2512933E-1,-9.439466E-2,5.4755926E-2,-1.0724742E-1,-5.4251548E-2,-1.0883121E-1,-3.5598997E-3,2.9257117E-3,-6.4834185E-2,-3.5484037E-3,-1.10041E-1,-7.398935E-2,-4.5003663E-3,-8.323905E-3,-3.796441E-3,-7.996588E-2,3.8101204E-4,2.16269E-3,-2.4323529E-3,-6.5806746E-3,-2.014944E-3],"categories":[],"categories_nodes":[],"categories_segments":[],"categories_sizes":[],"default_left":[0,0,0,0,0,0,0,0,0,0,0,0,0,0,0,0,0,0,0,0,0,0,0],"id":3,"left_children":[1,3,-1,5,-1,7,9,11,-1,-1,13,-1,15,17,19,-1,-1,21,-1,-1,-1,-1,-1],"loss_changes":[1.3379808E2,5.317324E0,0E0,1.8559885E-1,0E0,2.1345377E-2,9.332836E-2,1.5037298E-2,0E0,0E0,4.551336E-2,0E0,9.309769E-3,3.4430683E-2,1.2108561E-2,0E0,0E0,2.5308937E-2,0E0,0E0,0E0,0E0,0E0],"parents":[2147483647,0,0,1,1,3,3,5,5,6,6,7,7,10,10,12,12,13,13,14,14,17,17],"right_children":[2,4,-1,6,-1,8,10,12,-1,-1,14,-1,16,18,20,-1,-1,22,-1,-1,-1,-1,-1],"split_conditions":[5.015143E-3,3E0,3.2512933E-1,3.0024137E-4,5.4755926E-2,2E0,1.3E2,8.5E1,-3.5598997E-3,2.9257117E-3,1.6E1,-3.5484037E-3,1E0,1E0,2E0,-8.323905E-3,-3.796441E-3,1E0,3.8101204E-4,2.16269E-3,-2.4323529E-3,-6.5806746E-3,-2.014944E-3],"split_indices":[335,131,0,336,0,191,0,0,0,0,27,0,71,202,76,0,0,137,0,0,0,0,0],"split_type":[0,0,0,0,0,0,0,0,0,0,0,0,0,0,0,0,0,0,0,0,0,0,0],"sum_hessian":[3.83E2,3.77E2,6E0,3.7E2,7E0,2.79E2,9.1E1,2.71E2,8E0,9E0,8.2E1,6E0,2.65E2,7.1E1,1.1E1,2.6E2,5E0,6.6E1,5E0,5E0,6E0,5.7E1,9E0],"tree_param":{"num_deleted":"0","num_feature":"474","num_nodes":"23","size_leaf_vector":"1"}},{"base_weights":[3.7325372E-3,-6.76364E-2,3.3834365E-1,-8.57677E-2,8.053654E-2,-8.9645706E-2,7.7142688E-3,-1.0233865E-1,-6.455573E-2,-7.7778255E-3,-3.125681E-3,2.88016E-3,-7.369463E-2,-5.426118E-3,5.2072373E-3,-8.089047E-2,-7.588114E-3,-5.683859E-3,-1.1118658E-2,2.027522E-3,-2.7134907E-3],"categories":[],"categories_nodes":[],"categories_segments":[],"categories_sizes":[],"default_left":[0,0,0,0,0,0,0,0,0,0,0,0,0,0,0,0,0,0,0,0,0],"id":4,"left_children":[1,3,-1,5,-1,7,-1,9,11,-1,-1,13,15,-1,-1,17,19,-1,-1,-1,-1],"loss_changes":[1.2383663E2,7.935919E0,0E0,2.8279734E-1,0E0,1.1027026E-1,0E0,1.5727043E-2,7.7864885E-2,0E0,0E0,8.512592E-2,5.218792E-2,0E0,0E0,2.3155987E-2,1.2856831E-2,0E0,0E0,0E0,0E0],"parents":[2147483647,0,0,1,1,3,3,5,5,7,7,8,8,11,11,12,12,15,15,16,16],"right_children":[2,4,-1,6,-1,8,-1,10,12,-1,-1,14,16,-1,-1,18,20,-1,-1,-1,-1],"split_conditions":[8E0,1.2511011E-2,3.3834365E-1,6.412332E-3,8.053654E-2,1.5315563E-4,7.7142688E-3,4E0,1.9299447E-4,-7.7778255E-3,-3.125681E-3,1E0,1.6E1,-5.426118E-3,5.2072373E-3,2E0,2E0,-5.683859E-3,-1.1118658E-2,2.027522E-3,-2.7134907E-3],"split_indices":[456,15,0,15,0,335,0,17,335,0,0,17,27,0,0,452,76,0,0,0,0],"split_type":[0,0,0,0,0,0,0,0,0,0,0,0,0,0,0,0,0,0,0,0,0],"sum_hessian":[3.83E2,3.78E2,5E0,3.73E2,5E0,3.66E2,7E0,2.41E2,1.25E2,2.35E2,6E0,1.5E1,1.1E2,7E0,8E0,9.9E1,1.1E1,9.4E1,5E0,5E0,6E0],"tree_param":{"num_deleted":"0","num_feature":"474","num_nodes":"21","size_leaf_vector":"1"}},{"base_weights":[4.489014E-3,-6.8696484E-2,2.9668987E-1,-8.0044635E-2,4.861722E-2,-8.367624E-2,7.20802E-3,-9.610342E-2,-6.407272E-2,-7.290573E-3,-4.437724E-3,-5.854517E-2,-1.2351063E-2,-6.481499E-2,7.20962E-3,-5.3078793E-3,-1.3739787E-4,3.85245E-3,-2.848253E-3],"categories":[],"categories_nodes":[],"categories_segments":[],"categories_sizes":[],"default_left":[0,0,0,0,0,0,0,0,0,0,0,0,0,0,0,0,0,0,0],"id":5,"left_children":[1,3,-1,5,-1,7,-1,9,11,-1,-1,13,-1,15,17,-1,-1,-1,-1],"loss_changes":[1.11318184E2,3.1272144E0,0E0,2.4665499E-1,0E0,8.3005905E-2,0E0,3.301859E-3,7.099563E-2,0E0,0E0,5.7772905E-2,0E0,4.751736E-2,2.7889147E-2,0E0,0E0,0E0,0E0],"parents":[2147483647,0,0,1,1,3,3,5,5,7,7,8,8,11,11,13,13,14,14],"right_children":[2,4,-1,6,-1,8,-1,10,12,-1,-1,14,-1,16,18,-1,-1,-1,-1],"split_conditions":[1E0,3.7948585E-3,2.9668987E-1,6.412332E-3,4.861722E-2,1.2450268E-4,7.20802E-3,7.1549416E-4,2E0,-7.290573E-3,-4.437724E-3,1.1308749E-7,-1.2351063E-2,1.212883E-3,1.634853E-1,-5.3078793E-3,-1.3739787E-4,3.85245E-3,-2.848253E-3],"split_indices":[455,338,0,15,0,336,0,315,452,0,0,5,0,336,6,0,0,0,0],"split_type":[0,0,0,0,0,0,0,0,0,0,0,0,0,0,0,0,0,0,0],"sum_hessian":[3.83E2,3.77E2,6E0,3.72E2,5E0,3.65E2,7E0,2.21E2,1.44E2,2.13E2,8E0,1.38E2,6E0,1.26E2,1.2E1,1.15E2,1.1E1,6E0,6E0],"tree_param":{"num_deleted":"0","num_feature":"474","num_nodes":"19","size_leaf_vector":"1"}},{"base_weights":[4.9960725E-3,-5.9448402E-2,3.05618E-1,-7.441699E-2,6.626261E-2,-7.779388E-2,6.7349942E-3,-8.909261E-2,-5.5475727E-2,-9.034066E-2,-2.5716035E-3,7.018492E-3,-6.3984126E-2,-8.8710226E-2,-1.0354165E-2,-5.4692444E-3,4.6706903E-3,-6.985494E-2,-9.728683E-3,-6.703502E-3,-3.6522085E-3,-5.4807914E-3,-5.3947157E-4,2.053409E-3,-3.0108958E-3],"categories":[],"categories_nodes":[],"categories_segments":[],"categories_sizes":[],"default_left":[0,0,0,0,0,0,0,0,0,0,0,0,0,0,0,0,0,0,0,0,0,0,0,0,0],"id":6,"left_children":[1,3,-1,5,-1,7,-1,9,11,13,-1,15,17,19,-1,-1,-1,21,23,-1,-1,-1,-1,-1,-1],"loss_changes":[1.0095901E2,5.4151907E0,0E0,2.1438456E-1,0E0,8.7602854E-2,0E0,1.3455033E-2,6.74465E-2,6.1126947E-3,0E0,7.521931E-2,3.4676492E-2,1.8388033E-3,0E0,0E0,0E0,1.9665837E-2,1.4643322E-2,0E0,0E0,0E0,0E0,0E0,0E0],"parents":[2147483647,0,0,1,1,3,3,5,5,7,7,8,8,9,9,11,11,12,12,13,13,17,17,18,18],"right_children":[2,4,-1,6,-1,8,-1,10,12,14,-1,16,18,20,-1,-1,-1,22,24,-1,-1,-1,-1,-1,-1],"split_conditions":[8E0,1.2511011E-2,3.05618E-1,6.412332E-3,6.626261E-2,1.5315563E-4,6.7349942E-3,4E0,1.9299447E-4,8.0251694E-4,-2.5716035E-3,1.3105373E-4,1.6E1,3E0,-1.0354165E-2,-5.4692444E-3,4.6706903E-3,1E0,2E0,-6.703502E-3,-3.6522085E-3,-5.4807914E-3,-5.3947157E-4,2.053409E-3,-3.0108958E-3],"split_indices":[456,15,0,15,0,335,0,17,335,318,0,336,27,61,0,0,0,236,76,0,0,0,0,0,0],"split_type":[0,0,0,0,0,0,0,0,0,0,0,0,0,0,0,0,0,0,0,0,0,0,0,0,0],"sum_hessian":[3.83E2,3.78E2,5E0,3.73E2,5E0,3.66E2,7E0,2.41E2,1.25E2,2.35E2,6E0,1.5E1,1.1E2,2.3E2,5E0,6E0,9E0,9.9E1,1.1E1,2.25E2,5E0,9.4E1,5E0,5E0,6E0],"tree_param":{"num_deleted":"0","num_feature":"474","num_nodes":"25","size_leaf_vector":"1"}},{"base_weights":[5.5264644E-3,-5.688854E-2,2.9603648E-1,-7.099239E-2,3.9811835E-2,-8.0509745E-2,-4.1254874E-2,-8.1545815E-2,-1.4703476E-3,-4.9864396E-2,5.2809613E-3,-8.27327E-2,-2.3694097E-3,-4.029027E-2,-1.2810327E-2,-8.4258065E-2,-3.9434705E-2,3.7288386E-3,-4.686604E-2,-6.1975815E-3,-1.0400919E-2,2.8696453E-4,-5.7092365E-3,-4.089789E-3,6.8794086E-4],"categories":[],"categories_nodes":[],"categories_segments":[],"categories_sizes":[],"default_left":[0,0,0,0,0,0,0,0,0,0,0,0,0,0,0,0,0,0,0,0,0,0,0,0,0],"id":7,"left_children":[1,3,-1,5,-1,7,9,11,-1,13,-1,15,-1,17,-1,19,21,-1,23,-1,-1,-1,-1,-1,-1],"loss_changes":[9.469494E1,3.1792214E0,0E0,1.0167992E-1,0E0,1.6070127E-2,9.19604E-2,1.3690829E-2,0E0,9.269716E-2,0E0,1.4377475E-2,0E0,5.027175E-2,0E0,1.133728E-2,1.775019E-2,0E0,3.314267E-2,0E0,0E0,0E0,0E0,0E0,0E0],"parents":[2147483647,0,0,1,1,3,3,5,5,6,6,7,7,9,9,11,11,13,13,15,15,16,16,18,18],"right_children":[2,4,-1,6,-1,8,10,12,-1,14,-1,16,-1,18,-1,20,22,-1,24,-1,-1,-1,-1,-1,-1],"split_conditions":[1.4189756E-2,3E0,2.9603648E-1,3.0024137E-4,3.9811835E-2,1E0,1.2888896E-7,3.5237434E-4,-1.4703476E-3,1.1968613E-3,5.2809613E-3,1E0,-2.3694097E-3,1.5330315E-4,-1.2810327E-2,5.7609257E-4,5.091001E-8,3.7288386E-3,1E0,-6.1975815E-3,-1.0400919E-2,2.8696453E-4,-5.7092365E-3,-4.089789E-3,6.8794086E-4],"split_indices":[329,131,0,336,0,174,5,333,0,313,0,75,0,318,0,323,11,0,113,0,0,0,0,0,0],"split_type":[0,0,0,0,0,0,0,0,0,0,0,0,0,0,0,0,0,0,0,0,0,0,0,0,0],"sum_hessian":[3.83E2,3.78E2,5E0,3.7E2,8E0,2.79E2,9.1E1,2.74E2,5E0,8.5E1,6E0,2.67E2,7E0,8E1,5E0,2.57E2,1E1,5E0,7.5E1,2.52E2,5E0,5E0,5E0,6.6E1,9E0],"tree_param":{"num_deleted":"0","num_feature":"474","num_nodes":"25","size_leaf_vector":"1"}},{"base_weights":[5.900486E-3,-5.3528376E-2,2.8191304E-1,-6.5721855E-2,5.365898E-2,-6.880624E-2,6.299202E-3,-6.5324776E-2,-2.0053979E-2,-7.468579E-2,-4.106083E-2,-7.6132946E-2,-1.9400113E-3,-4.80816E-2,4.656957E-3,-5.7682255E-3,-3.4961954E-3,-4.005094E-3,-1.2276959E-4],"categories":[],"categories_nodes":[],"categories_segments":[],"categories_sizes":[],"default_left":[0,0,0,0,0,0,0,0,0,0,0,0,0,0,0,0,0,0,0],"id":8,"left_children":[1,3,-1,5,-1,7,-1,9,-1,11,13,15,-1,17,-1,-1,-1,-1,-1],"loss_changes":[8.5845856E1,3.6007361E0,0E0,1.7847955E-1,0E0,2.3625779E-1,0E0,7.915628E-2,0E0,1.6399384E-2,7.75799E-2,2.1921396E-3,0E0,2.3878321E-2,0E0,0E0,0E0,0E0,0E0],"parents":[2147483647,0,0,1,1,3,3,5,5,7,7,9,9,10,10,11,11,13,13],"right_children":[2,4,-1,6,-1,8,-1,10,-1,12,14,16,-1,18,-1,-1,-1,-1,-1],"split_conditions":[1.3E1,1.2511011E-2,2.8191304E-1,6.412332E-3,5.365898E-2,1.7830133E-3,6.299202E-3,1.8052594E-4,-2.0053979E-2,5E0,1E0,1E0,-1.9400113E-3,1.6E1,4.656957E-3,-5.7682255E-3,-3.4961954E-3,-4.005094E-3,-1.2276959E-4],"split_indices":[470,15,0,15,0,316,0,340,0,23,213,220,0,27,0,0,0,0,0],"split_type":[0,0,0,0,0,0,0,0,0,0,0,0,0,0,0,0,0,0,0],"sum_hessian":[3.83E2,3.78E2,5E0,3.73E2,5E0,3.66E2,7E0,3.61E2,5E0,2.59E2,1.02E2,2.51E2,8E0,9.6E1,6E0,2.43E2,8E0,8.6E1,1E1],"tree_param":{"num_deleted":"0","num_feature":"474","num_nodes":"19","size_leaf_vector":"1"}},{"base_weights":[6.2682107E-3,-5.0513595E-2,2.693956E-1,-6.406415E-2,3.0734468E-1,-6.0547713E-2,-1.9871922E-2,3.4650523E-4,5.326556E-2,-6.706566E-2,-3.0945573E-2,-6.911576E-2,-3.3647697E-2,-3.9196033E-2,2.610081E-3,-7.062217E-2,-2.6267804E-2,-5.3407222E-2,1.3549351E-3,-4.635597E-2,9.853531E-4,-5.34592E-3,-2.2630051E-3,-3.8391894E-3,2.273664E-4,-4.98349E-3,-1.8710291E-3,-3.997313E-3,-4.8573133E-5],"categories":[],"categories_nodes":[],"categories_segments":[],"categories_sizes":[],"default_left":[0,0,0,0,0,0,0,0,0,0,0,0,0,0,0,0,0,0,0,0,0,0,0,0,0,0,0,0,0],"id":9,"left_children":[1,3,-1,5,7,9,-1,-1,-1,11,13,15,17,19,-1,21,23,25,-1,27,-1,-1,-1,-1,-1,-1,-1,-1,-1],"loss_changes":[7.836421E1,1.857528E0,0E0,2.4251199E-1,1.7041098E0,6.757784E-2,0E0,0E0,0E0,1.788485E-2,3.770756E-2,1.6024351E-2,2.0379694E-2,2.3091547E-2,0E0,4.9420595E-3,8.187169E-3,3.5377666E-3,0E0,1.6781628E-2,0E0,0E0,0E0,0E0,0E0,0E0,0E0,0E0,0E0],"parents":[2147483647,0,0,1,1,3,3,4,4,5,5,9,9,10,10,11,11,12,12,13,13,15,15,16,16,17,17,19,19],"right_children":[2,4,-1,6,8,10,-1,-1,-1,12,14,16,18,20,-1,22,24,26,-1,28,-1,-1,-1,-1,-1,-1,-1,-1,-1],"split_conditions":[1.4189756E-2,5.192493E-3,2.693956E-1,1.7830133E-3,2E0,2.4272526E-4,-1.9871922E-2,3.4650523E-4,5.326556E-2,6.25968E-4,1.1308749E-7,1E0,1E0,1.1515996E-3,2.610081E-3,1E0,2.1008317E-8,1E0,1.3549351E-3,2E0,9.853531E-4,-5.34592E-3,-2.2630051E-3,-3.8391894E-3,2.273664E-4,-4.98349E-3,-1.8710291E-3,-3.997313E-3,-4.8573133E-5],"split_indices":[329,15,0,316,131,340,0,0,0,318,5,220,134,341,0,310,5,144,0,235,0,0,0,0,0,0,0,0,0],"split_type":[0,0,0,0,0,0,0,0,0,0,0,0,0,0,0,0,0,0,0,0,0,0,0,0,0,0,0,0,0],"sum_hessian":[3.83E2,3.78E2,5E0,3.65E2,1.3E1,3.6E2,5E0,8E0,5E0,2.94E2,6.6E1,2.76E2,1.8E1,5.9E1,7E0,2.66E2,1E1,1.3E1,5E0,5.2E1,7E0,2.61E2,5E0,5E0,5E0,8E0,5E0,4.5E1,7E0],"tree_param":{"num_deleted":"0","num_feature":"474","num_nodes":"29","size_leaf_vector":"1"}},{"base_weights":[6.542793E-3,-4.7999237E-2,2.588018E-1,-5.7177395E-2,3.990794E-2,-5.3609874E-2,-1.7741922E-2,-5.6338623E-2,7.137306E-3,-6.4220384E-2,-2.9489215E-2,-6.272122E-2,-9.148423E-3,-4.124637E-2,1.9274069E-2,-4.8587387E-3,-2.3728455E-3,-3.600065E-3,2.0473407E-4,9.452577E-3,-2.6784183E-3],"categories":[],"categories_nodes":[],"categories_segments":[],"categories_sizes":[],"default_left":[0,0,0,0,0,0,0,0,0,0,0,0,0,0,0,0,0,0,0,0,0],"id":10,"left_children":[1,3,-1,5,-1,7,-1,9,-1,11,13,15,-1,17,19,-1,-1,-1,-1,-1,-1],"loss_changes":[7.230035E1,2.0483327E0,0E0,2.266587E-1,0E0,1.5475714E-1,0E0,7.471287E-2,0E0,1.6507864E-2,4.895366E-2,1.5511632E-2,0E0,2.0329542E-2,1.0429698E-1,0E0,0E0,0E0,0E0,0E0,0E0],"parents":[2147483647,0,0,1,1,3,3,5,5,7,7,9,9,10,10,11,11,13,13,14,14],"right_children":[2,4,-1,6,-1,8,-1,10,-1,12,14,16,-1,18,20,-1,-1,-1,-1,-1,-1],"split_conditions":[6E0,1.2511011E-2,2.588018E-1,2E0,3.990794E-2,2.0825984E-3,-1.7741922E-2,3.0024137E-4,7.137306E-3,6.0313573E-4,1.22776866E-1,1E0,-9.148423E-3,1E0,6.325245E-4,-4.8587387E-3,-2.3728455E-3,-3.600065E-3,2.0473407E-4,9.452577E-3,-2.6784183E-3],"split_indices":[448,15,0,452,0,341,0,336,0,342,6,469,0,113,315,0,0,0,0,0,0],"split_type":[0,0,0,0,0,0,0,0,0,0,0,0,0,0,0,0,0,0,0,0,0],"sum_hessian":[3.83E2,3.78E2,5E0,3.73E2,5E0,3.67E2,6E0,3.61E2,6E0,2.78E2,8.3E1,2.73E2,5E0,6.7E1,1.6E1,2.55E2,1.8E1,5.8E1,9E0,5E0,1.1E1],"tree_param":{"num_deleted":"0","num_feature":"474","num_nodes":"21","size_leaf_vector":"1"}},{"base_weights":[6.768503E-3,-4.5602847E-2,2.4853231E-1,-5.308112E-2,3.2110758E-2,-4.7748085E-2,-2.7916204E-2,-5.1715966E-2,1.5069615E-2,-5.936249E-2,-2.6687818E-2,-5.7932407E-2,-8.590314E-3,3.1048383E-3,-3.50746E-2,-4.4385428E-3,-6.892196E-4,-3.1343712E-3,1.1085203E-3],"categories":[],"categories_nodes":[],"categories_segments":[],"categories_sizes":[],"default_left":[0,0,0,0,0,0,0,0,0,0,0,0,0,0,0,0,0,0,0],"id":11,"left_children":[1,3,-1,5,-1,7,-1,9,-1,11,13,15,-1,-1,17,-1,-1,-1,-1],"loss_changes":[6.665678E1,1.3654494E0,0E0,6.187599E-1,0E0,3.7449026E-1,0E0,6.8077445E-2,0E0,1.5300095E-2,5.11307E-2,1.606518E-2,0E0,0E0,2.6738018E-2,0E0,0E0,0E0,0E0],"parents":[2147483647,0,0,1,1,3,3,5,5,7,7,9,9,10,10,11,11,14,14],"right_children":[2,4,-1,6,-1,8,-1,10,-1,12,14,16,-1,-1,18,-1,-1,-1,-1],"split_conditions":[2.7888222E-2,1.2511011E-2,2.4853231E-1,6E0,3.2110758E-2,1.25E-1,-2.7916204E-2,3.0024137E-4,1.5069615E-2,3.7270566E-4,1.3E2,6.054904E-4,-8.590314E-3,3.1048383E-3,1E0,-4.4385428E-3,-6.892196E-4,-3.1343712E-3,1.1085203E-3],"split_indices":[9,15,0,76,0,443,0,336,0,326,0,312,0,0,113,0,0,0,0],"split_type":[0,0,0,0,0,0,0,0,0,0,0,0,0,0,0,0,0,0,0],"sum_hessian":[3.83E2,3.78E2,5E0,3.73E2,5E0,3.68E2,5E0,3.63E2,5E0,2.77E2,8.6E1,2.72E2,5E0,9E0,7.7E1,2.65E2,7E0,6.8E1,9E0],"tree_param":{"num_deleted":"0","num_feature":"474","num_nodes":"19","size_leaf_vector":"1"}},{"base_weights":[6.9253366E-3,-4.4051062E-2,2.4193352E-1,-5.2593425E-2,3.7182357E-2,-4.748595E-2,-2.6845317E-2,-4.9824227E-2,7.671282E-3,-4.748232E-2,-1.21858725E-2,-5.3586267E-2,-1.9143201E-2,-4.1211913E-3,-1.0144429E-3,5.5493084E-3,-2.2401402E-3],"categories":[],"categories_nodes":[],"categories_segments":[],"categories_sizes":[],"default_left":[0,0,0,0,0,0,0,0,0,0,0,0,0,0,0,0,0],"id":12,"left_children":[1,3,-1,5,-1,7,-1,9,-1,11,-1,13,15,-1,-1,-1,-1],"loss_changes":[6.3150986E1,1.7737578E0,0E0,5.662701E-1,0E0,1.343211E-1,0E0,8.831757E-2,0E0,6.0901225E-2,0E0,1.5309215E-2,6.7138046E-2,0E0,0E0,0E0,0E0],"parents":[2147483647,0,0,1,1,3,3,5,5,7,7,9,9,11,11,12,12],"right_children":[2,4,-1,6,-1,8,-1,10,-1,12,-1,14,16,-1,-1,-1,-1],"split_conditions":[2E0,4.960447E-3,2.4193352E-1,2.35E2,3.7182357E-2,3E0,-2.6845317E-2,1.7313474E-7,7.671282E-3,2.4272526E-4,-1.21858725E-2,1E0,3.3E1,-4.1211913E-3,-1.0144429E-3,5.5493084E-3,-2.2401402E-3],"split_indices":[472,341,0,1,0,124,0,8,0,340,0,75,1,0,0,0,0],"split_type":[0,0,0,0,0,0,0,0,0,0,0,0,0,0,0,0,0],"sum_hessian":[3.83E2,3.78E2,5E0,3.73E2,5E0,3.68E2,5E0,3.63E2,5E0,3.57E2,6E0,2.93E2,6.4E1,2.83E2,1E1,6E0,5.8E1],"tree_param":{"num_deleted":"0","num_feature":"474","num_nodes":"17","size_leaf_vector":"1"}},{"base_weights":[7.046377E-3,-4.206685E-2,2.3311432E-1,-5.1977057E-2,2.20019E-1,-4.5251653E-2,-2.6046189E-2,2.0752816E-5,3.8472198E-2,-5.202724E-2,-2.7428592E-2,-5.3286742E-2,-8.3401817E-4,-3.3826515E-2,4.748905E-3,-5.2145135E-2,-6.840873E-3,-3.7786737E-2,6.1606034E-4,-3.9767786E-3,-2.29456E-3,-3.082527E-3,1.034792E-3],"categories":[],"categories_nodes":[],"categories_segments":[],"categories_sizes":[],"default_left":[0,0,0,0,0,0,0,0,0,0,0,0,0,0,0,0,0,0,0,0,0,0,0],"id":13,"left_children":[1,3,-1,5,7,9,-1,-1,-1,11,13,15,-1,17,-1,19,-1,21,-1,-1,-1,-1,-1],"loss_changes":[5.8616722E1,9.9582195E-1,0E0,7.1117866E-1,9.010675E-1,4.1926384E-2,0E0,0E0,0E0,1.2751758E-2,6.078188E-2,6.110966E-3,0E0,1.6126968E-2,0E0,3.035605E-3,0E0,1.5437968E-2,0E0,0E0,0E0,0E0,0E0],"parents":[2147483647,0,0,1,1,3,3,4,4,5,5,9,9,10,10,11,11,13,13,15,15,17,17],"right_children":[2,4,-1,6,8,10,-1,-1,-1,12,14,16,-1,18,-1,20,-1,22,-1,-1,-1,-1,-1],"split_conditions":[9.384744E-2,5.192493E-3,2.3311432E-1,1.7364025E-3,1E0,1.8052594E-4,-2.6046189E-2,2.0752816E-5,3.8472198E-2,5E0,1E0,3.8562785E-8,-8.3401817E-4,1.1308749E-7,4.748905E-3,1E0,-6.840873E-3,1E1,6.1606034E-4,-3.9767786E-3,-2.29456E-3,-3.082527E-3,1.034792E-3],"split_indices":[12,15,0,318,24,340,0,0,0,23,213,8,0,5,0,228,0,83,0,0,0,0,0],"split_type":[0,0,0,0,0,0,0,0,0,0,0,0,0,0,0,0,0,0,0,0,0,0,0],"sum_hessian":[3.83E2,3.78E2,5E0,3.65E2,1.3E1,3.58E2,7E0,8E0,5E0,2.58E2,1E2,2.5E2,8E0,9.4E1,6E0,2.45E2,5E0,8.6E1,8E0,2.34E2,1.1E1,8.1E1,5E0],"tree_param":{"num_deleted":"0","num_feature":"474","num_nodes":"23","size_leaf_vector":"1"}},{"base_weights":[7.129701E-3,-3.9653823E-2,2.2208257E-1,-4.5193695E-2,2.3420528E-2,-4.076106E-2,-2.3270117E-2,-4.2947616E-2,5.883779E-3,-4.7606792E-2,-1.4797594E-2,-4.5732867E-2,-9.184157E-3,-2.759493E-2,5.493099E-3,-3.6210301E-3,-3.6335282E-4,-3.2982067E-3,2.9248648E-4],"categories":[],"categories_nodes":[],"categories_segments":[],"categories_sizes":[],"default_left":[0,0,0,0,0,0,0,0,0,0,0,0,0,0,0,0,0,0,0],"id":14,"left_children":[1,3,-1,5,-1,7,-1,9,-1,11,13,15,-1,17,-1,-1,-1,-1,-1],"loss_changes":[5.3185135E1,7.5302356E-1,0E0,4.267946E-1,0E0,9.9553645E-2,0E0,4.69051E-2,0E0,3.802079E-2,6.1734248E-2,3.1536162E-2,0E0,2.4419758E-2,0E0,0E0,0E0,0E0,0E0],"parents":[2147483647,0,0,1,1,3,3,5,5,7,7,9,9,10,10,11,11,13,13],"right_children":[2,4,-1,6,-1,8,-1,10,-1,12,14,16,-1,18,-1,-1,-1,-1,-1],"split_conditions":[8E0,1.2511011E-2,2.2208257E-1,6.9228527E-3,2.3420528E-2,2.0825984E-3,-2.3270117E-2,7.123777E-8,5.883779E-3,2.229688E-3,4.3433154E-4,5.586615E-4,-9.184157E-3,1E0,5.493099E-3,-3.6210301E-3,-3.6335282E-4,-3.2982067E-3,2.9248648E-4],"split_indices":[456,15,0,312,0,341,0,4,0,323,323,336,0,278,0,0,0,0,0],"split_type":[0,0,0,0,0,0,0,0,0,0,0,0,0,0,0,0,0,0,0],"sum_hessian":[3.83E2,3.78E2,5E0,3.73E2,5E0,3.68E2,5E0,3.62E2,6E0,3.1E2,5.2E1,3.04E2,6E0,4.6E1,6E0,2.86E2,1.8E1,3E1,1.6E1],"tree_param":{"num_deleted":"0","num_feature":"474","num_nodes":"19","size_leaf_vector":"1"}},{"base_weights":[7.1612108E-3,-3.8170833E-2,2.1520816E-1,-3.2103702E-2,-3.0749513E-2,-3.7609562E-2,2.3389297E-2,-3.999867E-2,3.0891977E-2,-4.493389E-2,-1.5791833E-2,-1.169417E-3,5.4722284E-3,-4.6191044E-2,1.017554E-3,4.979358E-3,-2.4165655E-2,-3.3602822E-3,-7.8291325E-3,-2.420716E-3,9.514074E-4],"categories":[],"categories_nodes":[],"categories_segments":[],"categories_sizes":[],"default_left":[0,0,0,0,0,0,0,0,0,0,0,0,0,0,0,0,0,0,0,0,0],"id":15,"left_children":[1,3,-1,5,-1,7,-1,9,11,13,15,-1,-1,17,-1,-1,19,-1,-1,-1,-1],"loss_changes":[4.9934696E1,8.4182245E-1,0E0,7.200104E-1,0E0,6.1625242E-2,0E0,4.1939735E-2,2.6560977E-2,2.2396147E-2,4.427205E-2,0E0,0E0,1.8736482E-2,0E0,0E0,1.744577E-2,0E0,0E0,0E0,0E0],"parents":[2147483647,0,0,1,1,3,3,5,5,7,7,8,8,9,9,10,10,13,13,16,16],"right_children":[2,4,-1,6,-1,8,-1,10,12,14,16,-1,-1,18,-1,-1,20,-1,-1,-1,-1],"split_conditions":[2.7888222E-2,1.2E1,2.1520816E-1,6.6897008E-3,-3.0749513E-2,3.634043E-1,2.3389297E-2,4.2004246E-4,1.3628693E-7,1E0,1.0133376E-4,-1.169417E-3,5.4722284E-3,1.0882455E-3,1.017554E-3,4.979358E-3,1E0,-3.3602822E-3,-7.8291325E-3,-2.420716E-3,9.514074E-4],"split_indices":[9,57,0,331,0,3,0,336,5,174,333,0,0,323,0,0,302,0,0,0,0],"split_type":[0,0,0,0,0,0,0,0,0,0,0,0,0,0,0,0,0,0,0,0,0],"sum_hessian":[3.83E2,3.78E2,5E0,3.73E2,5E0,3.68E2,5E0,3.56E2,1.2E1,2.95E2,6.1E1,6E0,6E0,2.89E2,6E0,5E0,5.6E1,2.84E2,5E0,4.6E1,1E1],"tree_param":{"num_deleted":"0","num_feature":"474","num_nodes":"21","size_leaf_vector":"1"}},{"base_weights":[7.1592457E-3,-3.6425427E-2,2.0692985E-1,-3.1885926E-2,-2.048342E-2,-3.7252724E-2,2.2694392E-2,-3.455441E-2,-1.4571885E-2,9.105661E-3,-3.753467E-2,-2.254954E-2,8.087214E-3,-3.601445E-2,-8.711834E-3,-3.4457492E-3,2.6845655E-3,-2.9853678E-3,-8.955695E-4],"categories":[],"categories_nodes":[],"categories_segments":[],"categories_sizes":[],"default_left":[0,0,0,0,0,0,0,0,0,0,0,0,0,0,0,0,0,0,0],"id":16,"left_children":[1,3,-1,5,-1,7,-1,9,-1,11,13,15,-1,17,-1,-1,-1,-1,-1],"loss_changes":[4.6157803E1,3.9850414E-1,0E0,6.808351E-1,0E0,1.4922279E-1,0E0,4.757467E-2,0E0,7.743447E-2,3.6454946E-2,2.757724E-2,0E0,3.0093312E-2,0E0,0E0,0E0,0E0,0E0],"parents":[2147483647,0,0,1,1,3,3,5,5,7,7,9,9,10,10,11,11,13,13],"right_children":[2,4,-1,6,-1,8,-1,10,-1,12,14,16,-1,18,-1,-1,-1,-1,-1],"split_conditions":[1.4189756E-2,9E0,2.0692985E-1,6.5755304E-3,-2.048342E-2,7.002835E-7,2.2694392E-2,1.3E2,-1.4571885E-2,4.0961453E-4,2.229688E-3,1E0,8.087214E-3,1E0,-8.711834E-3,-3.4457492E-3,2.6845655E-3,-2.9853678E-3,-8.955695E-4],"split_indices":[329,57,0,331,0,10,0,0,0,323,323,278,0,468,0,0,0,0,0],"split_type":[0,0,0,0,0,0,0,0,0,0,0,0,0,0,0,0,0,0,0],"sum_hessian":[3.83E2,3.78E2,5E0,3.72E2,6E0,3.67E2,5E0,3.62E2,5E0,2.3E1,3.39E2,1.8E1,5E0,3.34E2,5E0,1.3E1,5E0,2.88E2,4.6E1],"tree_param":{"num_deleted":"0","num_feature":"474","num_nodes":"19","size_leaf_vector":"1"}},{"base_weights":[7.1152733E-3,-3.524187E-2,2.0111169E-1,-3.0226344E-2,-1.980439E-2,-3.504576E-2,1.695587E-2,-3.255014E-2,-1.3451847E-2,-3.3714592E-2,3.1474272E-3,-3.226926E-2,-7.587351E-3,-2.8132927E-3,-1.1418931E-3],"categories":[],"categories_nodes":[],"categories_segments":[],"categories_sizes":[],"default_left":[0,0,0,0,0,0,0,0,0,0,0,0,0,0,0],"id":17,"left_children":[1,3,-1,5,-1,7,-1,9,-1,11,-1,13,-1,-1,-1],"loss_changes":[4.3593575E1,4.269723E-1,0E0,4.6743175E-1,0E0,1.2597623E-1,0E0,3.2738864E-2,0E0,3.1441063E-2,0E0,3.0695409E-2,0E0,0E0,0E0],"parents":[2147483647,0,0,1,1,3,3,5,5,7,7,9,9,11,11],"right_children":[2,4,-1,6,-1,8,-1,10,-1,12,-1,14,-1,-1,-1],"split_conditions":[6E0,9E0,2.0111169E-1,3E0,-1.980439E-2,6.526266E-7,1.695587E-2,1E0,-1.3451847E-2,2.229688E-3,3.1474272E-3,3.0472386E-4,-7.587351E-3,-2.8132927E-3,-1.1418931E-3],"split_indices":[448,57,0,131,0,10,0,40,0,323,0,342,0,0,0],"split_type":[0,0,0,0,0,0,0,0,0,0,0,0,0,0,0],"sum_hessian":[3.83E2,3.78E2,5E0,3.71E2,7E0,3.65E2,6E0,3.6E2,5E0,3.55E2,5E0,3.49E2,6E0,2.66E2,8.3E1],"tree_param":{"num_deleted":"0","num_feature":"474","num_nodes":"15","size_leaf_vector":"1"}},{"base_weights":[7.041048E-3,-3.4119885E-2,1.9544E-1,-2.816848E-2,-2.9955303E-2,-3.2373067E-2,1.4767245E-2,-3.0074473E-2,-1.2453181E-2,-3.5230845E-2,-1.33113805E-2,-3.4086432E-2,-6.092922E-3,-2.2202319E-2,2.7529798E-2,-2.6813722E-3,-7.523539E-4,-2.1778108E-3,1.3756133E-3,8.872269E-3,-1.8361686E-3],"categories":[],"categories_nodes":[],"categories_segments":[],"categories_sizes":[],"default_left":[0,0,0,0,0,0,0,0,0,0,0,0,0,0,0,0,0,0,0,0,0],"id":18,"left_children":[1,3,-1,5,-1,7,-1,9,-1,11,13,15,-1,17,19,-1,-1,-1,-1,-1,-1],"loss_changes":[4.1165417E1,8.126776E-1,0E0,3.6029223E-1,0E0,1.0807487E-1,0E0,3.0907571E-2,0E0,1.1815488E-2,3.2202348E-2,1.0536671E-2,0E0,2.048548E-2,7.843191E-2,0E0,0E0,0E0,0E0,0E0,0E0],"parents":[2147483647,0,0,1,1,3,3,5,5,7,7,9,9,10,10,11,11,13,13,14,14],"right_children":[2,4,-1,6,-1,8,-1,10,-1,12,14,16,-1,18,20,-1,-1,-1,-1,-1,-1],"split_conditions":[9.384744E-2,1E1,1.9544E-1,6.6897008E-3,-2.9955303E-2,1.0371819E-2,1.4767245E-2,3.0024137E-4,-1.2453181E-2,6.0313573E-4,1.22776866E-1,1E0,-6.092922E-3,1E0,6.325245E-4,-2.6813722E-3,-7.523539E-4,-2.1778108E-3,1.3756133E-3,8.872269E-3,-1.8361686E-3],"split_indices":[12,57,0,331,0,9,0,336,0,342,6,469,0,113,315,0,0,0,0,0,0],"split_type":[0,0,0,0,0,0,0,0,0,0,0,0,0,0,0,0,0,0,0,0,0],"sum_hessian":[3.83E2,3.78E2,5E0,3.73E2,5E0,3.67E2,6E0,3.62E2,5E0,2.76E2,8.6E1,2.71E2,5E0,7.1E1,1.5E1,2.53E2,1.8E1,6.1E1,1E1,5E0,1E1],"tree_param":{"num_deleted":"0","num_feature":"474","num_nodes":"21","size_leaf_vector":"1"}},{"base_weights":[6.941373E-3,-3.1953726E-2,1.8469937E-1,-2.5352243E-2,-3.2859035E-2,-2.831453E-2,1.2079039E-2,-3.271262E-2,-8.002061E-3,3.183523E-3,-3.4116127E-2,4.6824175E-3,-1.4689217E-2,-3.2284375E-2,-6.701144E-3,1.997205E-3,-2.1303631E-2,-2.50289E-3,1.2336546E-3,-8.7009586E-4,-3.1303568E-3],"categories":[],"categories_nodes":[],"categories_segments":[],"categories_sizes":[],"default_left":[0,0,0,0,0,0,0,0,0,0,0,0,0,0,0,0,0,0,0,0,0],"id":19,"left_children":[1,3,-1,5,-1,7,-1,9,11,-1,13,-1,15,17,-1,-1,19,-1,-1,-1,-1],"loss_changes":[3.6756584E1,1.0051061E0,0E0,2.1107866E-1,0E0,3.270325E-2,0E0,3.34107E-2,3.247442E-2,0E0,2.7264744E-2,0E0,1.7511806E-2,1.5918016E-2,0E0,0E0,1.0221949E-2,0E0,0E0,0E0,0E0],"parents":[2147483647,0,0,1,1,3,3,5,5,7,7,8,8,10,10,12,12,13,13,16,16],"right_children":[2,4,-1,6,-1,8,-1,10,12,-1,14,-1,16,18,-1,-1,20,-1,-1,-1,-1],"split_conditions":[2.7888222E-2,5E0,1.8469937E-1,6.6897008E-3,-3.2859035E-2,4.2004246E-4,1.2079039E-2,7.7E1,1.0133376E-4,3.183523E-3,3.9854047E-8,4.6824175E-3,1.9213488E-8,1E0,-6.701144E-3,1.997205E-3,4.0029988E-4,-2.50289E-3,1.2336546E-3,-8.7009586E-4,-3.1303568E-3],"split_indices":[9,108,0,331,0,336,0,0,333,0,8,0,5,174,0,0,331,0,0,0,0],"split_type":[0,0,0,0,0,0,0,0,0,0,0,0,0,0,0,0,0,0,0,0,0],"sum_hessian":[3.83E2,3.78E2,5E0,3.73E2,5E0,3.68E2,5E0,3.02E2,6.6E1,5E0,2.97E2,5E0,6.1E1,2.89E2,8E0,8E0,5.3E1,2.83E2,6E0,3.7E1,1.6E1],"tree_param":{"num_deleted":"0","num_feature":"474","num_nodes":"21","size_leaf_vector":"1"}},{"base_weights":[6.842153E-3,-3.16312E-2,1.8269517E-1,-2.4862932E-2,-2.9082341E-2,-2.907973E-2,1.784333E-2,-2.5702192E-2,-1.7143061E-2,-3.16034E-2,-1.3785839E-2,-3.290385E-2,4.2898502E-4,3.1746373E-2,-2.0465555E-2,-2.3633554E-3,-6.0423748E-3,-1.8576041E-3,5.8840537E-3,-1.9216873E-3,1.4095546E-3],"categories":[],"categories_nodes":[],"categories_segments":[],"categories_sizes":[],"default_left":[0,0,0,0,0,0,0,0,0,0,0,0,0,0,0,0,0,0,0,0,0],"id":20,"left_children":[1,3,-1,5,-1,7,-1,9,-1,11,13,15,-1,17,19,-1,-1,-1,-1,-1,-1],"loss_changes":[3.5963913E1,9.039031E-1,0E0,4.2022637E-1,0E0,2.4208352E-1,0E0,2.5090799E-2,0E0,1.1934161E-2,3.7755065E-2,1.2990832E-2,0E0,4.4177674E-2,2.2144724E-2,0E0,0E0,0E0,0E0,0E0,0E0],"parents":[2147483647,0,0,1,1,3,3,5,5,7,7,9,9,10,10,11,11,13,13,14,14],"right_children":[2,4,-1,6,-1,8,-1,10,-1,12,14,16,-1,18,20,-1,-1,-1,-1,-1,-1],"split_conditions":[2E0,9E0,1.8269517E-1,6.5755304E-3,-2.9082341E-2,7.002835E-7,1.784333E-2,1.5315563E-4,-1.7143061E-2,3E0,1.9299447E-4,6.0141087E-4,4.2898502E-4,2.4704189E-8,1E0,-2.3633554E-3,-6.0423748E-3,-1.8576041E-3,5.8840537E-3,-1.9216873E-3,1.4095546E-3],"split_indices":[472,57,0,331,0,10,0,335,0,17,335,320,0,5,170,0,0,0,0,0,0],"split_type":[0,0,0,0,0,0,0,0,0,0,0,0,0,0,0,0,0,0,0,0,0],"sum_hessian":[3.83E2,3.78E2,5E0,3.72E2,6E0,3.67E2,5E0,3.62E2,5E0,2.41E2,1.21E2,2.33E2,8E0,1.5E1,1.06E2,2.28E2,5E0,7E0,8E0,9.4E1,1.2E1],"tree_param":{"num_deleted":"0","num_feature":"474","num_nodes":"21","size_leaf_vector":"1"}},{"base_weights":[6.7192265E-3,-2.9758554E-2,1.7323345E-1,-2.4645813E-2,-2.2345755E-2,-2.8326217E-2,9.904801E-2,-2.5220932E-2,-1.5666531E-2,-4.2775907E-3,1.7896693E-2,-2.3606751E-2,-8.69889E-3,-2.4603184E-2,2.8590623E-3,-2.156918E-3,-8.241317E-4],"categories":[],"categories_nodes":[],"categories_segments":[],"categories_sizes":[],"default_left":[0,0,0,0,0,0,0,0,0,0,0,0,0,0,0,0,0],"id":21,"left_children":[1,3,-1,5,-1,7,9,11,-1,-1,-1,13,-1,15,-1,-1,-1],"loss_changes":[3.2328773E1,5.123265E-1,0E0,1.7261133E-1,0E0,1.9826314E-1,2.5324643E-1,4.9712583E-2,0E0,0E0,0E0,2.2650003E-2,0E0,1.9373521E-2,0E0,0E0,0E0],"parents":[2147483647,0,0,1,1,3,3,5,5,6,6,7,7,11,11,13,13],"right_children":[2,4,-1,6,-1,8,10,12,-1,-1,-1,14,-1,16,-1,-1,-1],"split_conditions":[1.3326049E-2,9E0,1.7323345E-1,6.412332E-3,-2.2345755E-2,7.182689E-7,1E0,1.0080338E-3,-1.5666531E-2,-4.2775907E-3,1.7896693E-2,1E0,-8.69889E-3,3.0472386E-4,2.8590623E-3,-2.156918E-3,-8.241317E-4],"split_indices":[315,57,0,15,0,10,34,321,0,0,0,149,0,342,0,0,0],"split_type":[0,0,0,0,0,0,0,0,0,0,0,0,0,0,0,0,0],"sum_hessian":[3.83E2,3.78E2,5E0,3.72E2,6E0,3.62E2,1E1,3.57E2,5E0,5E0,5E0,3.52E2,5E0,3.47E2,5E0,2.65E2,8.2E1],"tree_param":{"num_deleted":"0","num_feature":"474","num_nodes":"17","size_leaf_vector":"1"}},{"base_weights":[6.57992E-3,-2.9040156E-2,1.6916136E-1,-2.266239E-2,-3.1631067E-2,-2.602365E-2,1.4087411E-2,-2.2559546E-2,-1.7388156E-2,-2.8241083E-2,-3.8652567E-3,-2.5984336E-2,-9.494427E-3,-9.94347E-3,5.912613E-3,-2.0316106E-3,2.1518477E-4,-1.2236726E-3,3.2135025E-3],"categories":[],"categories_nodes":[],"categories_segments":[],"categories_sizes":[],"default_left":[0,0,0,0,0,0,0,0,0,0,0,0,0,0,0,0,0,0,0],"id":22,"left_children":[1,3,-1,5,-1,7,-1,9,-1,11,13,15,-1,17,-1,-1,-1,-1,-1],"loss_changes":[3.0826265E1,9.396841E-1,0E0,2.6950312E-1,0E0,2.578581E-1,0E0,3.855212E-2,0E0,5.8635727E-2,4.401342E-2,8.804217E-3,0E0,2.7946472E-2,0E0,0E0,0E0,0E0,0E0],"parents":[2147483647,0,0,1,1,3,3,5,5,7,7,9,9,10,10,11,11,13,13],"right_children":[2,4,-1,6,-1,8,-1,10,-1,12,14,16,-1,18,-1,-1,-1,-1,-1],"split_conditions":[9.384744E-2,5E0,1.6916136E-1,6.5755304E-3,-3.1631067E-2,1.5026331E-3,1.4087411E-2,2.0843006E-4,-1.7388156E-2,2.9468578E-3,1E0,5E0,-9.494427E-3,4.101796E-8,5.912613E-3,-2.0316106E-3,2.1518477E-4,-1.2236726E-3,3.2135025E-3],"split_indices":[12,58,0,331,0,318,0,340,0,9,213,23,0,14,0,0,0,0,0],"split_type":[0,0,0,0,0,0,0,0,0,0,0,0,0,0,0,0,0,0,0],"sum_hessian":[3.83E2,3.78E2,5E0,3.73E2,5E0,3.68E2,5E0,3.63E2,5E0,2.78E2,8.5E1,2.73E2,5E0,8E1,5E0,2.63E2,1E1,7.2E1,8E0],"tree_param":{"num_deleted":"0","num_feature":"474","num_nodes":"19","size_leaf_vector":"1"}},{"base_weights":[6.4271055E-3,-2.8225914E-2,1.6457039E-1,-2.0493917E-2,-3.27149E-2,-2.3643443E-2,1.3206947E-2,-2.0689901E-2,-1.4879411E-2,-1.909254E-2,-6.688969E-3,-2.0669688E-2,2.81578E-3,-1.7837742E-3,-4.0336052E-4],"categories":[],"categories_nodes":[],"categories_segments":[],"categories_sizes":[],"default_left":[0,0,0,0,0,0,0,0,0,0,0,0,0,0,0],"id":23,"left_children":[1,3,-1,5,-1,7,-1,9,-1,11,-1,13,-1,-1,-1],"loss_changes":[2.9175058E1,1.1865947E0,0E0,2.3510797E-1,0E0,1.8583022E-1,0E0,3.8014278E-2,0E0,3.257528E-2,0E0,1.639533E-2,0E0,0E0,0E0],"parents":[2147483647,0,0,1,1,3,3,5,5,7,7,9,9,11,11],"right_children":[2,4,-1,6,-1,8,-1,10,-1,12,-1,14,-1,-1,-1],"split_conditions":[2E0,9E0,1.6457039E-1,6.5755304E-3,-3.27149E-2,7.002835E-7,1.3206947E-2,2.229688E-3,-1.4879411E-2,7.692339E-4,-6.688969E-3,2.4272526E-4,2.81578E-3,-1.7837742E-3,-4.0336052E-4],"split_indices":[472,57,0,331,0,10,0,323,0,323,0,340,0,0,0],"split_type":[0,0,0,0,0,0,0,0,0,0,0,0,0,0,0],"sum_hessian":[3.83E2,3.78E2,5E0,3.72E2,6E0,3.67E2,5E0,3.62E2,5E0,3.55E2,7E0,3.46E2,9E0,2.87E2,5.9E1],"tree_param":{"num_deleted":"0","num_feature":"474","num_nodes":"15","size_leaf_vector":"1"}},{"base_weights":[6.2683085E-3,1.5883286E-1,-2.717572E-2,-2.02002E-2,-2.6110535E-2,-1.7495396E-2,-1.3670807E-2,-1.9715665E-2,8.953261E-3,-1.770039E-2,-1.022539E-2,-2.2025764E-2,-2.4484673E-3,-1.7439113E-3,3.571712E-4,-6.427206E-4,5.58554E-3],"categories":[],"categories_nodes":[],"categories_segments":[],"categories_sizes":[],"default_left":[0,0,0,0,0,0,0,0,0,0,0,0,0,0,0,0,0],"id":24,"left_children":[1,-1,3,5,-1,7,-1,9,-1,11,-1,13,15,-1,-1,-1,-1],"loss_changes":[2.717455E1,0E0,8.415091E-1,1.5989107E-1,0E0,1.1388245E-1,0E0,8.2666546E-2,0E0,2.349744E-2,0E0,9.243727E-3,3.8306404E-2,0E0,0E0,0E0,0E0],"parents":[2147483647,0,0,2,2,3,3,5,5,7,7,9,9,11,11,12,12],"right_children":[2,-1,4,6,-1,8,-1,10,-1,12,-1,14,16,-1,-1,-1,-1],"split_conditions":[1.9586552E-7,1.5883286E-1,9E0,1.545539E-6,-2.6110535E-2,5E0,-1.3670807E-2,2.1554376E-3,8.953261E-3,2.1133716E-4,-1.022539E-2,5E0,1E0,-1.7439113E-3,3.571712E-4,-6.427206E-4,5.58554E-3],"split_indices":[7,0,57,10,0,127,0,342,0,340,0,23,213,0,0,0,0],"split_type":[0,0,0,0,0,0,0,0,0,0,0,0,0,0,0,0,0],"sum_hessian":[3.83E2,5E0,3.78E2,3.71E2,7E0,3.66E2,5E0,3.61E2,5E0,3.56E2,5E0,2.77E2,7.9E1,2.65E2,1.2E1,7.4E1,5E0],"tree_param":{"num_deleted":"0","num_feature":"474","num_nodes":"17","size_leaf_vector":"1"}},{"base_weights":[6.1141625E-3,-2.6377065E-2,1.5430933E-1,-1.9434996E-2,-2.594146E-2,-1.6580293E-2,-1.4310638E-2,-1.9440493E-2,8.565091E-3,-1.7617228E-2,-7.568617E-2,-2.1553801E-2,-2.3845602E-3,-9.299113E-3,-1.1077359E-3,-1.5237094E-3,-4.9925456E-3,3.7458562E-3,-8.6126797E-4],"categories":[],"categories_nodes":[],"categories_segments":[],"categories_sizes":[],"default_left":[0,0,0,0,0,0,0,0,0,0,0,0,0,0,0,0,0,0,0],"id":25,"left_children":[1,3,-1,5,-1,7,-1,9,-1,11,13,15,17,-1,-1,-1,-1,-1,-1],"loss_changes":[2.5648129E1,8.3391994E-1,0E0,1.7882635E-1,0E0,1.3950053E-1,0E0,3.558494E-2,0E0,2.0936176E-2,3.0534916E-2,1.4135584E-2,3.5332132E-2,0E0,0E0,0E0,0E0,0E0,0E0],"parents":[2147483647,0,0,1,1,3,3,5,5,7,7,9,9,10,10,11,11,12,12],"right_children":[2,4,-1,6,-1,8,-1,10,-1,12,14,16,18,-1,-1,-1,-1,-1,-1],"split_conditions":[1.4189756E-2,2.7E1,1.5430933E-1,4.327715E-3,-2.594146E-2,1E0,-1.4310638E-2,1E0,8.565091E-3,2.1133716E-4,5.700005E-3,7.301569E-4,6.1522996E-6,-9.299113E-3,-1.1077359E-3,-1.5237094E-3,-4.9925456E-3,3.7458562E-3,-8.6126797E-4],"split_indices":[329,39,0,323,0,445,0,29,0,340,12,320,2,0,0,0,0,0,0],"split_type":[0,0,0,0,0,0,0,0,0,0,0,0,0,0,0,0,0,0,0],"sum_hessian":[3.83E2,3.78E2,5E0,3.71E2,7E0,3.66E2,5E0,3.59E2,7E0,3.49E2,1E1,2.77E2,7.2E1,5E0,5E0,2.71E2,6E0,1E1,6.2E1],"tree_param":{"num_deleted":"0","num_feature":"474","num_nodes":"19","size_leaf_vector":"1"}},{"base_weights":[5.938371E-3,-2.5663473E-2,1.5008488E-1,-1.6884182E-2,-3.230195E-2,-1.4037352E-2,-1.411509E-2,-1.6617648E-2,1.0798508E-2,-1.9366961E-2,1.770909E-3,-2.170807E-2,7.4902955E-3,-2.0003881E-2,2.096511E-2,-1.5037459E-3,-4.645608E-3,-1.114998E-3,6.3368394E-3,-2.1929445E-3,8.2771695E-4,-1.3410377E-3,3.7982948E-3],"categories":[],"categories_nodes":[],"categories_segments":[],"categories_sizes":[],"default_left":[0,0,0,0,0,0,0,0,0,0,0,0,0,0,0,0,0,0,0,0,0,0,0],"id":26,"left_children":[1,3,-1,5,-1,7,-1,9,-1,11,13,15,17,19,21,-1,-1,-1,-1,-1,-1,-1,-1],"loss_changes":[2.4263243E1,1.3404027E0,0E0,1.7878634E-1,0E0,1.5203023E-1,0E0,1.8335521E-2,0E0,1.9968472E-2,2.048097E-2,1.8104553E-2,4.6015203E-2,6.916034E-3,3.0880725E-2,0E0,0E0,0E0,0E0,0E0,0E0,0E0,0E0],"parents":[2147483647,0,0,1,1,3,3,5,5,7,7,9,9,10,10,11,11,12,12,13,13,14,14],"right_children":[2,4,-1,6,-1,8,-1,10,-1,12,14,16,18,20,22,-1,-1,-1,-1,-1,-1,-1,-1],"split_conditions":[8E0,9E0,1.5008488E-1,1.545539E-6,-3.230195E-2,2.3373095E-3,-1.411509E-2,1E0,1.0798508E-2,7.309111E-8,3E0,7.301569E-4,1E0,2.516032E-4,5.1342227E-2,-1.5037459E-3,-4.645608E-3,-1.114998E-3,6.3368394E-3,-2.1929445E-3,8.2771695E-4,-1.3410377E-3,3.7982948E-3],"split_indices":[456,57,0,10,0,329,0,468,0,5,23,320,138,329,6,0,0,0,0,0,0,0,0],"split_type":[0,0,0,0,0,0,0,0,0,0,0,0,0,0,0,0,0,0,0,0,0,0,0],"sum_hessian":[3.83E2,3.78E2,5E0,3.71E2,7E0,3.66E2,5E0,3.61E2,5E0,3.14E2,4.7E1,2.89E2,2.5E1,2.2E1,2.5E1,2.79E2,1E1,2E1,5E0,1.7E1,5E0,1.1E1,1.4E1],"tree_param":{"num_deleted":"0","num_feature":"474","num_nodes":"23","size_leaf_vector":"1"}},{"base_weights":[5.791512E-3,-2.7332723E-2,1.3452546E-1,-1.7876217E-2,-3.944804E-2,-1.5235207E-2,-1.3232897E-2,-1.29316505E-2,-1.137579E-2,-1.538136E-2,1.0123603E-2,-1.8562267E-2,6.7349675E-4,-1.2859749E-3,-5.6231488E-3,5.0312923E-3,-4.93764E-4],"categories":[],"categories_nodes":[],"categories_segments":[],"categories_sizes":[],"default_left":[0,0,0,0,0,0,0,0,0,0,0,0,0,0,0,0,0],"id":27,"left_children":[1,3,-1,5,-1,7,-1,9,-1,11,-1,13,15,-1,-1,-1,-1],"loss_changes":[2.279035E1,1.77302E0,0E0,1.5309244E-1,0E0,1.1338729E-1,0E0,1.3324472E-1,0E0,1.824414E-2,0E0,2.2517882E-2,2.9358134E-2,0E0,0E0,0E0,0E0],"parents":[2147483647,0,0,1,1,3,3,5,5,7,7,9,9,11,11,12,12],"right_children":[2,4,-1,6,-1,8,-1,10,-1,12,-1,14,16,-1,-1,-1,-1],"split_conditions":[1E0,9E0,1.3452546E-1,1.545539E-6,-3.944804E-2,2E0,-1.3232897E-2,2.3373095E-3,-1.137579E-2,4.1262832E-4,1.0123603E-2,7.72357E-4,1.7511845E-4,-1.2859749E-3,-5.6231488E-3,5.0312923E-3,-4.93764E-4],"split_indices":[91,57,0,10,0,452,0,329,0,336,0,314,322,0,0,0,0],"split_type":[0,0,0,0,0,0,0,0,0,0,0,0,0,0,0,0,0],"sum_hessian":[3.83E2,3.77E2,6E0,3.71E2,6E0,3.66E2,5E0,3.61E2,5E0,3.56E2,5E0,2.97E2,5.9E1,2.91E2,6E0,5E0,5.4E1],"tree_param":{"num_deleted":"0","num_feature":"474","num_nodes":"17","size_leaf_vector":"1"}},{"base_weights":[5.5608493E-3,-2.4325041E-2,1.4193195E-1,-1.6257206E-2,-3.923744E-2,-1.8837722E-2,1.0886549E-2,-1.5842495E-2,-1.4805634E-2,-1.4716018E-2,-6.045225E-3,-1.3289406E-2,-4.738189E-3,-1.0667425E-3,3.1965384E-3],"categories":[],"categories_nodes":[],"categories_segments":[],"categories_sizes":[],"default_left":[0,0,0,0,0,0,0,0,0,0,0,0,0,0,0],"id":28,"left_children":[1,3,-1,5,-1,7,-1,9,-1,11,-1,13,-1,-1,-1],"loss_changes":[2.1700039E1,1.5168049E0,0E0,1.5851434E-1,0E0,1.9423573E-1,0E0,2.5368094E-2,0E0,2.3979321E-2,0E0,1.8879749E-2,0E0,0E0,0E0],"parents":[2147483647,0,0,1,1,3,3,5,5,7,7,9,9,11,11],"right_children":[2,4,-1,6,-1,8,-1,10,-1,12,-1,14,-1,-1,-1],"split_conditions":[9.384744E-2,5E0,1.4193195E-1,6.5755304E-3,-3.923744E-2,1.5026331E-3,1.0886549E-2,6.526266E-7,-1.4805634E-2,3E0,-6.045225E-3,1E0,-4.738189E-3,-1.0667425E-3,3.1965384E-3],"split_indices":[12,58,0,331,0,318,0,10,0,286,0,40,0,0,0],"split_type":[0,0,0,0,0,0,0,0,0,0,0,0,0,0,0],"sum_hessian":[3.83E2,3.78E2,5E0,3.73E2,5E0,3.68E2,5E0,3.63E2,5E0,3.58E2,5E0,3.49E2,9E0,3.44E2,5E0],"tree_param":{"num_deleted":"0","num_feature":"474","num_nodes":"15","size_leaf_vector":"1"}},{"base_weights":[5.3784796E-3,-2.3720246E-2,1.3819137E-1,-1.3696929E-2,-3.2570105E-2,-1.1266052E-2,-1.1977324E-2,-1.3732192E-2,1.042433E-2,-1.7129604E-2,3.2572001E-3,-1.566603E-2,-6.4858226E-3,5.0470987E-3,-3.6621194E-3,3.3414022E-3,-1.2640354E-3,1.9634215E-3,-9.969488E-4],"categories":[],"categories_nodes":[],"categories_segments":[],"categories_sizes":[],"default_left":[0,0,0,0,0,0,0,0,0,0,0,0,0,0,0,0,0,0,0],"id":29,"left_children":[1,3,-1,5,-1,7,-1,9,-1,11,13,15,-1,-1,17,-1,-1,-1,-1],"loss_changes":[2.0572113E1,1.5536559E0,0E0,1.2987244E-1,0E0,1.3753182E-1,0E0,2.0892695E-2,0E0,2.919551E-2,2.727527E-2,2.192241E-2,0E0,0E0,1.6441569E-2,0E0,0E0,0E0,0E0],"parents":[2147483647,0,0,1,1,3,3,5,5,7,7,9,9,10,10,11,11,14,14],"right_children":[2,4,-1,6,-1,8,-1,10,-1,12,14,16,-1,-1,18,-1,-1,-1,-1],"split_conditions":[2.7888222E-2,9E0,1.3819137E-1,9E0,-3.2570105E-2,2E0,-1.1977324E-2,4.1262832E-4,1.042433E-2,3E0,4.513642E-4,7.7E1,-6.4858226E-3,5.0470987E-3,1.8076317E-1,3.3414022E-3,-1.2640354E-3,1.9634215E-3,-9.969488E-4],"split_indices":[9,57,0,470,0,131,0,336,0,286,336,0,0,0,3,0,0,0,0],"split_type":[0,0,0,0,0,0,0,0,0,0,0,0,0,0,0,0,0,0,0],"sum_hessian":[3.83E2,3.78E2,5E0,3.7E2,8E0,3.65E2,5E0,3.6E2,5E0,3E2,6E1,2.95E2,5E0,5E0,5.5E1,5E0,2.9E2,1.3E1,4.2E1],"tree_param":{"num_deleted":"0","num_feature":"474","num_nodes":"19","size_leaf_vector":"1"}},{"base_weights":[5.2502863E-3,1.334626E-1,-2.2851972E-2,-1.567399E-2,-2.6532872E-2,-1.2010783E-2,-1.7784588E-2,-8.829446E-3,-1.3077079E-2,-1.1152127E-2,9.784089E-3,-1.3950348E-2,3.4654646E-3,-1.1279746E-3,1.4276077E-3,-3.8178303E-4,5.884879E-3],"categories":[],"categories_nodes":[],"categories_segments":[],"categories_sizes":[],"default_left":[0,0,0,0,0,0,0,0,0,0,0,0,0,0,0,0,0],"id":30,"left_children":[1,-1,3,5,-1,7,-1,9,-1,11,-1,13,15,-1,-1,-1,-1],"loss_changes":[1.9187078E1,0E0,8.947069E-1,2.9892993E-1,0E0,1.8801266E-1,0E0,1.18242756E-1,0E0,1.4609903E-2,0E0,1.1029683E-2,3.76174E-2,0E0,0E0,0E0,0E0],"parents":[2147483647,0,0,2,2,3,3,5,5,7,7,9,9,11,11,12,12],"right_children":[2,-1,4,6,-1,8,-1,10,-1,12,-1,14,16,-1,-1,-1,-1],"split_conditions":[1.9586552E-7,1.334626E-1,1.8944444E2,1.545539E-6,-2.6532872E-2,2.4E1,-1.7784588E-2,2.385631E-3,-1.3077079E-2,1E0,9.784089E-3,1E0,6.063935E-8,-1.1279746E-3,1.4276077E-3,-3.8178303E-4,5.884879E-3],"split_indices":[7,0,461,10,0,39,0,336,0,138,0,174,5,0,0,0,0],"split_type":[0,0,0,0,0,0,0,0,0,0,0,0,0,0,0,0,0],"sum_hessian":[3.83E2,5E0,3.78E2,3.71E2,7E0,3.66E2,5E0,3.6E2,6E0,3.55E2,5E0,2.98E2,5.7E1,2.89E2,9E0,5.2E1,5E0],"tree_param":{"num_deleted":"0","num_feature":"474","num_nodes":"17","size_leaf_vector":"1"}},{"base_weights":[5.095199E-3,-2.231263E-2,1.3016304E-1,-1.6075958E-2,-3.0550988E-2,-1.3064717E-2,-1.48940915E-2,-9.813276E-3,-1.0652399E-2,-1.2195355E-2,9.986922E-3,-7.5965007E-3,-1.0637682E-2,-1.0078184E-3,2.5853893E-4],"categories":[],"categories_nodes":[],"categories_segments":[],"categories_sizes":[],"default_left":[0,0,0,0,0,0,0,0,0,0,0,0,0,0,0],"id":31,"left_children":[1,3,-1,5,-1,7,-1,9,-1,11,-1,-1,13,-1,-1],"loss_changes":[1.825063E1,9.0355563E-1,0E0,2.0295112E-1,0E0,1.5333873E-1,0E0,1.245701E-1,0E0,4.83265E-2,0E0,0E0,1.3888415E-2,0E0,0E0],"parents":[2147483647,0,0,1,1,3,3,5,5,7,7,9,9,12,12],"right_children":[2,4,-1,6,-1,8,-1,10,-1,12,-1,-1,14,-1,-1],"split_conditions":[1.4189756E-2,5E0,1.3016304E-1,1.0371819E-2,-3.0550988E-2,1.4285715E-1,-1.48940915E-2,2E0,-1.0652399E-2,7.7275084E-3,9.986922E-3,-7.5965007E-3,1E0,-1.0078184E-3,2.5853893E-4],"split_indices":[329,286,0,9,0,444,0,131,0,6,0,0,138,0,0],"split_type":[0,0,0,0,0,0,0,0,0,0,0,0,0,0,0],"sum_hessian":[3.83E2,3.78E2,5E0,3.73E2,5E0,3.68E2,5E0,3.6E2,8E0,3.55E2,5E0,5E0,3.5E2,2.92E2,5.8E1],"tree_param":{"num_deleted":"0","num_feature":"474","num_nodes":"15","size_leaf_vector":"1"}},{"base_weights":[4.910214E-3,-2.3831176E-2,1.16718285E-1,-1.599142E-2,-3.8042307E-2,-1.1526688E-2,-2.1537231E-2,-8.608166E-3,-1.396321E-2,-1.1143293E-2,1.0806681E-2,-7.1217185E-3,-9.687142E-3,-7.8943354E-4,2.4951864E-3],"categories":[],"categories_nodes":[],"categories_segments":[],"categories_sizes":[],"default_left":[0,0,0,0,0,0,0,0,0,0,0,0,0,0,0],"id":32,"left_children":[1,3,-1,5,-1,7,-1,9,-1,11,-1,-1,13,-1,-1],"loss_changes":[1.715868E1,1.4244083E0,0E0,4.4828433E-1,0E0,1.8597366E-1,0E0,1.421254E-1,0E0,4.2771988E-2,0E0,0E0,1.306691E-2,0E0,0E0],"parents":[2147483647,0,0,1,1,3,3,5,5,7,7,9,9,12,12],"right_children":[2,4,-1,6,-1,8,-1,10,-1,12,-1,-1,14,-1,-1],"split_conditions":[1E0,7.7920146E-3,1.16718285E-1,7.7412866E-2,-3.8042307E-2,1.0371819E-2,-2.1537231E-2,3E0,-1.396321E-2,7.7275084E-3,1.0806681E-2,-7.1217185E-3,1E0,-7.8943354E-4,2.4951864E-3],"split_indices":[91,329,0,12,0,9,0,131,0,6,0,0,40,0,0],"split_type":[0,0,0,0,0,0,0,0,0,0,0,0,0,0,0],"sum_hessian":[3.83E2,3.77E2,6E0,3.72E2,5E0,3.67E2,5E0,3.62E2,5E0,3.57E2,5E0,5E0,3.52E2,3.46E2,6E0],"tree_param":{"num_deleted":"0","num_feature":"474","num_nodes":"15","size_leaf_vector":"1"}},{"base_weights":[4.668422E-3,-2.1381686E-2,1.23704165E-1,-1.4189359E-2,-3.4960482E-2,-1.0965916E-2,-1.2021833E-2,-8.157322E-3,-1.3394256E-2,-1.095608E-2,6.859092E-3,-6.676612E-3,-9.5786415E-3,-7.845897E-4,3.1852846E-3],"categories":[],"categories_nodes":[],"categories_segments":[],"categories_sizes":[],"default_left":[0,0,0,0,0,0,0,0,0,0,0,0,0,0,0],"id":33,"left_children":[1,3,-1,5,-1,7,-1,9,-1,11,-1,-1,13,-1,-1],"loss_changes":[1.64878E1,1.2057481E0,0E0,1.743778E-1,0E0,1.7132242E-1,0E0,1.0192379E-1,0E0,3.7105486E-2,0E0,0E0,1.6430069E-2,0E0,0E0],"parents":[2147483647,0,0,1,1,3,3,5,5,7,7,9,9,12,12],"right_children":[2,4,-1,6,-1,8,-1,10,-1,12,-1,-1,14,-1,-1],"split_conditions":[8E0,7.7920146E-3,1.23704165E-1,2.4E1,-3.4960482E-2,7.002835E-7,-1.2021833E-2,6.412332E-3,-1.3394256E-2,7.7275084E-3,6.859092E-3,-6.676612E-3,1E0,-7.845897E-4,3.1852846E-3],"split_indices":[456,329,0,39,0,10,0,15,0,6,0,0,149,0,0],"split_type":[0,0,0,0,0,0,0,0,0,0,0,0,0,0,0],"sum_hessian":[3.83E2,3.78E2,5E0,3.73E2,5E0,3.66E2,7E0,3.61E2,5E0,3.52E2,9E0,5E0,3.47E2,3.42E2,5E0],"tree_param":{"num_deleted":"0","num_feature":"474","num_nodes":"15","size_leaf_vector":"1"}},{"base_weights":[4.4899355E-3,-2.0706415E-2,1.1964833E-1,-1.4175665E-2,-3.1825412E-2,-1.078327E-2,-1.6533403E-2,-7.3190867E-3,-1.4166408E-2,-9.6012205E-3,6.2633725E-3,-5.6268536E-3,-8.261491E-3,-7.0668396E-4,2.1201211E-3],"categories":[],"categories_nodes":[],"categories_segments":[],"categories_sizes":[],"default_left":[0,0,0,0,0,0,0,0,0,0,0,0,0,0,0],"id":34,"left_children":[1,3,-1,5,-1,7,-1,9,-1,11,-1,-1,13,-1,-1],"loss_changes":[1.5424862E1,9.930372E-1,0E0,2.593287E-1,0E0,2.262826E-1,0E0,7.604729E-2,0E0,3.049586E-2,0E0,0E0,1.50673315E-2,0E0,0E0],"parents":[2147483647,0,0,1,1,3,3,5,5,7,7,9,9,12,12],"right_children":[2,4,-1,6,-1,8,-1,10,-1,12,-1,-1,14,-1,-1],"split_conditions":[1.3326049E-2,1.8944444E2,1.1964833E-1,1.545539E-6,-3.1825412E-2,2.4E1,-1.6533403E-2,6.412332E-3,-1.4166408E-2,5.8364463E-7,6.2633725E-3,-5.6268536E-3,2.7951996E-3,-7.0668396E-4,2.1201211E-3],"split_indices":[315,461,0,10,0,39,0,15,0,7,0,0,9,0,0],"split_type":[0,0,0,0,0,0,0,0,0,0,0,0,0,0,0],"sum_hessian":[3.83E2,3.78E2,5E0,3.73E2,5E0,3.68E2,5E0,3.62E2,6E0,3.54E2,8E0,6E0,3.48E2,3.38E2,1E1],"tree_param":{"num_deleted":"0","num_feature":"474","num_nodes":"15","size_leaf_vector":"1"}},{"base_weights":[4.3072887E-3,-2.0283062E-2,1.16766E-1,-1.3461921E-2,-3.3156525E-2,-1.0526321E-2,-1.4381825E-2,-8.4600765E-3,-1.005931E-2,-1.049777E-2,8.615397E-3,-8.505723E-3,-6.739232E-2,-5.9691467E-3,-5.42812E-4,-9.196353E-3,-7.8213814E-4],"categories":[],"categories_nodes":[],"categories_segments":[],"categories_sizes":[],"default_left":[0,0,0,0,0,0,0,0,0,0,0,0,0,0,0,0,0],"id":35,"left_children":[1,3,-1,5,-1,7,-1,9,-1,11,-1,13,15,-1,-1,-1,-1],"loss_changes":[1.4692048E1,1.0845013E0,0E0,1.9373494E-1,0E0,9.310175E-2,0E0,9.26838E-2,0E0,4.0114626E-2,0E0,3.0796008E-2,3.6471684E-2,0E0,0E0,0E0,0E0],"parents":[2147483647,0,0,1,1,3,3,5,5,7,7,9,9,11,11,12,12],"right_children":[2,4,-1,6,-1,8,-1,10,-1,12,-1,14,16,-1,-1,-1,-1],"split_conditions":[1.4189756E-2,5E0,1.16766E-1,4.7553596E-3,-3.3156525E-2,7.130531E-2,-1.4381825E-2,1.226382E-3,-1.005931E-2,1E0,8.615397E-3,7.7275084E-3,1E0,-5.9691467E-3,-5.42812E-4,-9.196353E-3,-7.8213814E-4],"split_indices":[329,286,0,323,0,12,0,338,0,29,0,6,124,0,0,0,0],"split_type":[0,0,0,0,0,0,0,0,0,0,0,0,0,0,0,0,0],"sum_hessian":[3.83E2,3.78E2,5E0,3.73E2,5E0,3.68E2,5E0,3.63E2,5E0,3.58E2,5E0,3.47E2,1.1E1,5E0,3.42E2,5E0,6E0],"tree_param":{"num_deleted":"0","num_feature":"474","num_nodes":"17","size_leaf_vector":"1"}},{"base_weights":[4.117815E-3,-2.163521E-2,1.0456447E-1,-1.274651E-2,-3.6818657E-2,-9.5712915E-3,-1.5362973E-2,-7.2114803E-3,-1.1276351E-2,-8.92888E-3,7.2131795E-3,-7.1568848E-3,-5.7488116E-3,-4.1575523E-4,-3.402693E-3],"categories":[],"categories_nodes":[],"categories_segments":[],"categories_sizes":[],"default_left":[0,0,0,0,0,0,0,0,0,0,0,0,0,0,0],"id":36,"left_children":[1,3,-1,5,-1,7,-1,9,-1,11,-1,13,-1,-1,-1],"loss_changes":[1.377684E1,1.5704908E0,0E0,2.2493622E-1,0E0,1.2083839E-1,0E0,6.513443E-2,0E0,4.229248E-2,0E0,2.1266071E-2,0E0,0E0,0E0],"parents":[2147483647,0,0,1,1,3,3,5,5,7,7,9,9,11,11],"right_children":[2,4,-1,6,-1,8,-1,10,-1,12,-1,14,-1,-1,-1],"split_conditions":[1E0,7.7920146E-3,1.0456447E-1,7.1689524E-2,-3.6818657E-2,7.182689E-7,-1.5362973E-2,2.3373095E-3,-1.1276351E-2,3E0,7.2131795E-3,7.381329E-4,-5.7488116E-3,-4.1575523E-4,-3.402693E-3],"split_indices":[180,329,0,12,0,10,0,329,0,286,0,312,0,0,0],"split_type":[0,0,0,0,0,0,0,0,0,0,0,0,0,0,0],"sum_hessian":[3.83E2,3.77E2,6E0,3.71E2,6E0,3.66E2,5E0,3.61E2,5E0,3.56E2,5E0,3.48E2,8E0,3.35E2,1.3E1],"tree_param":{"num_deleted":"0","num_feature":"474","num_nodes":"15","size_leaf_vector":"1"}},{"base_weights":[3.909898E-3,-1.9531757E-2,1.1129921E-1,-1.1598281E-2,-3.830973E-2,-9.288568E-3,-1.1378443E-2,-1.1394352E-2,9.00078E-3,-9.32997E-3,-9.97606E-3,-7.838687E-3,-4.544392E-3,-4.5385145E-4,-3.3578312E-3],"categories":[],"categories_nodes":[],"categories_segments":[],"categories_sizes":[],"default_left":[0,0,0,0,0,0,0,0,0,0,0,0,0,0,0],"id":37,"left_children":[1,3,-1,5,-1,7,-1,9,-1,11,-1,13,-1,-1,-1],"loss_changes":[1.3352062E1,1.4712037E0,0E0,1.19626105E-1,0E0,1.0183715E-1,0E0,9.0148345E-2,0E0,2.6969176E-2,0E0,2.2832759E-2,0E0,0E0,0E0],"parents":[2147483647,0,0,1,1,3,3,5,5,7,7,9,9,11,11],"right_children":[2,4,-1,6,-1,8,-1,10,-1,12,-1,14,-1,-1,-1],"split_conditions":[2E0,5E0,1.1129921E-1,1.0371819E-2,-3.830973E-2,5.847176E-3,-1.1378443E-2,1.06E2,9.00078E-3,3E0,-9.97606E-3,7.381329E-4,-4.544392E-3,-4.5385145E-4,-3.3578312E-3],"split_indices":[472,108,0,9,0,331,0,461,0,286,0,312,0,0,0],"split_type":[0,0,0,0,0,0,0,0,0,0,0,0,0,0,0],"sum_hessian":[3.83E2,3.78E2,5E0,3.73E2,5E0,3.68E2,5E0,3.63E2,5E0,3.58E2,5E0,3.49E2,9E0,3.34E2,1.5E1],"tree_param":{"num_deleted":"0","num_feature":"474","num_nodes":"15","size_leaf_vector":"1"}},{"base_weights":[3.752798E-3,-1.8913386E-2,1.07615605E-1,-8.606705E-3,-3.3125717E-2,-5.8530206E-3,-1.3136023E-2,-7.879745E-3,8.77978E-3,-1.1588693E-2,1.0550961E-2,-9.706166E-3,-7.6896455E-3,5.585826E-3,3.5132589E-3,-6.0741295E-4,-5.61816E-3,-7.9762493E-4,2.3718649E-3],"categories":[],"categories_nodes":[],"categories_segments":[],"categories_sizes":[],"default_left":[0,0,0,0,0,0,0,0,0,0,0,0,0,0,0,0,0,0,0],"id":38,"left_children":[1,3,-1,5,-1,7,-1,9,-1,11,13,15,-1,-1,17,-1,-1,-1,-1],"loss_changes":[1.2483357E1,1.6476086E0,0E0,1.6911519E-1,0E0,9.2099756E-2,0E0,2.47997E-2,0E0,5.0535105E-2,2.7182074E-2,3.0414693E-2,0E0,0E0,2.2609225E-2,0E0,0E0,0E0,0E0],"parents":[2147483647,0,0,1,1,3,3,5,5,7,7,9,9,10,10,11,11,14,14],"right_children":[2,4,-1,6,-1,8,-1,10,-1,12,14,16,-1,-1,18,-1,-1,-1,-1],"split_conditions":[2.7888222E-2,9E0,1.07615605E-1,9E0,-3.3125717E-2,2E0,-1.3136023E-2,4.1262832E-4,8.77978E-3,3E0,1.3875961E-4,7.72357E-4,-7.6896455E-3,5.585826E-3,1E0,-6.0741295E-4,-5.61816E-3,-7.9762493E-4,2.3718649E-3],"split_indices":[9,57,0,470,0,131,0,336,0,286,315,314,0,0,471,0,0,0,0],"split_type":[0,0,0,0,0,0,0,0,0,0,0,0,0,0,0,0,0,0,0],"sum_hessian":[3.83E2,3.78E2,5E0,3.7E2,8E0,3.65E2,5E0,3.6E2,5E0,3E2,6E1,2.95E2,5E0,5E0,5.5E1,2.89E2,6E0,3.7E1,1.8E1],"tree_param":{"num_deleted":"0","num_feature":"474","num_nodes":"19","size_leaf_vector":"1"}},{"base_weights":[3.6363876E-3,-1.859566E-2,1.055516E-1,-9.789045E-3,-3.6390442E-2,-6.9982307E-3,-1.344956E-2,-8.89373E-3,8.163442E-3,-7.0906733E-3,-8.62454E-3,-5.15879E-3,-6.021977E-3,-5.199371E-4,2.5582986E-3],"categories":[],"categories_nodes":[],"categories_segments":[],"categories_sizes":[],"default_left":[0,0,0,0,0,0,0,0,0,0,0,0,0,0,0],"id":39,"left_children":[1,3,-1,5,-1,7,-1,9,-1,11,-1,-1,13,-1,-1],"loss_changes":[1.2009862E1,1.5526586E0,0E0,1.7523003E-1,0E0,8.1774406E-2,0E0,6.8628184E-2,0E0,2.3189189E-2,0E0,0E0,1.3135606E-2,0E0,0E0],"parents":[2147483647,0,0,1,1,3,3,5,5,7,7,9,9,12,12],"right_children":[2,4,-1,6,-1,8,-1,10,-1,12,-1,-1,14,-1,-1],"split_conditions":[9.384744E-2,7.7920146E-3,1.055516E-1,1.0371819E-2,-3.6390442E-2,3E0,-1.344956E-2,2.4E1,8.163442E-3,7.7275084E-3,-8.62454E-3,-5.15879E-3,1E0,-5.199371E-4,2.5582986E-3],"split_indices":[12,329,0,9,0,131,0,39,0,6,0,0,310,0,0],"split_type":[0,0,0,0,0,0,0,0,0,0,0,0,0,0,0],"sum_hessian":[3.83E2,3.78E2,5E0,3.72E2,6E0,3.67E2,5E0,3.62E2,5E0,3.57E2,5E0,5E0,3.52E2,3.45E2,7E0],"tree_param":{"num_deleted":"0","num_feature":"474","num_nodes":"15","size_leaf_vector":"1"}},{"base_weights":[3.4994117E-3,-1.9993361E-2,9.53707E-2,-1.0960564E-2,-3.728744E-2,-7.033921E-3,-1.8698514E-2,-4.1987915E-3,-1.32685825E-2,-5.8915406E-3,7.2914697E-3,-7.0085544E-3,4.546639E-3,-4.8363656E-3,-4.4958977E-4],"categories":[],"categories_nodes":[],"categories_segments":[],"categories_sizes":[],"default_left":[0,0,0,0,0,0,0,0,0,0,0,0,0,0,0],"id":40,"left_children":[1,3,-1,5,-1,7,-1,9,-1,11,-1,13,-1,-1,-1],"loss_changes":[1.1465327E1,1.6238072E0,0E0,3.464112E-1,0E0,1.7601658E-1,0E0,6.271945E-2,0E0,2.6948676E-2,0E0,2.0128842E-2,0E0,0E0,0E0],"parents":[2147483647,0,0,1,1,3,3,5,5,7,7,9,9,11,11],"right_children":[2,4,-1,6,-1,8,-1,10,-1,12,-1,14,-1,-1,-1],"split_conditions":[1E0,9E0,9.53707E-2,1.545539E-6,-3.728744E-2,9E0,-1.8698514E-2,2.385631E-3,-1.32685825E-2,5.109259E-3,7.2914697E-3,7.7275084E-3,4.546639E-3,-4.8363656E-3,-4.4958977E-4],"split_indices":[91,57,0,10,0,470,0,336,0,9,0,6,0,0,0],"split_type":[0,0,0,0,0,0,0,0,0,0,0,0,0,0,0],"sum_hessian":[3.83E2,3.77E2,6E0,3.71E2,6E0,3.66E2,5E0,3.61E2,5E0,3.56E2,5E0,3.51E2,5E0,5E0,3.46E2],"tree_param":{"num_deleted":"0","num_feature":"474","num_nodes":"15","size_leaf_vector":"1"}},{"base_weights":[3.3220274E-3,1.0077775E-1,-1.7906494E-2,-9.698005E-3,-2.9802216E-2,-6.008909E-3,-1.7529856E-2,-2.8907387E-3,-1.2446926E-2,-4.4867764E-3,6.921698E-3,-3.1845889E-3,-4.155077E-2,-6.0277886E-4,8.1475195E-4,-7.66782E-4,-4.685E-3],"categories":[],"categories_nodes":[],"categories_segments":[],"categories_sizes":[],"default_left":[0,0,0,0,0,0,0,0,0,0,0,0,0,0,0,0,0],"id":41,"left_children":[1,-1,3,5,-1,7,-1,9,-1,11,-1,13,15,-1,-1,-1,-1],"loss_changes":[1.0950516E1,0E0,1.1766416E0,3.0604643E-1,0E0,1.8256213E-1,0E0,5.525393E-2,0E0,1.7049756E-2,0E0,2.3604972E-2,7.2241444E-3,0E0,0E0,0E0,0E0],"parents":[2147483647,0,0,2,2,3,3,5,5,7,7,9,9,11,11,12,12],"right_children":[2,-1,4,6,-1,8,-1,10,-1,12,-1,14,16,-1,-1,-1,-1],"split_conditions":[1.9586552E-7,1.0077775E-1,1.8944444E2,1.545539E-6,-2.9802216E-2,2.4E1,-1.7529856E-2,1.25E-1,-1.2446926E-2,1.0710288E-3,6.921698E-3,1.8052594E-4,8.724928E-4,-6.0277886E-4,8.1475195E-4,-7.66782E-4,-4.685E-3],"split_indices":[7,0,461,10,0,39,0,443,0,342,0,340,315,0,0,0,0],"split_type":[0,0,0,0,0,0,0,0,0,0,0,0,0,0,0,0,0],"sum_hessian":[3.83E2,5E0,3.78E2,3.71E2,7E0,3.66E2,5E0,3.6E2,6E0,3.55E2,5E0,3.44E2,1.1E1,2.56E2,8.8E1,5E0,6E0],"tree_param":{"num_deleted":"0","num_feature":"474","num_nodes":"17","size_leaf_vector":"1"}},{"base_weights":[3.184027E-3,-1.7431775E-2,9.7866364E-2,-8.725735E-3,-3.1506274E-2,-5.262219E-3,-1.643424E-2,-6.9526928E-3,6.2002265E-3,-4.8886007E-3,-6.5353843E-3,-3.179437E-3,-5.3192385E-2,-5.238914E-4,9.4091735E-4,-3.3761217E-4,-6.5496396E-3],"categories":[],"categories_nodes":[],"categories_segments":[],"categories_sizes":[],"default_left":[0,0,0,0,0,0,0,0,0,0,0,0,0,0,0,0,0],"id":42,"left_children":[1,3,-1,5,-1,7,-1,9,-1,11,-1,13,15,-1,-1,-1,-1],"loss_changes":[1.0327619E1,1.32492E0,0E0,2.699289E-1,0E0,5.5128075E-2,0E0,5.9323415E-2,0E0,2.897423E-2,0E0,2.0554936E-2,1.955232E-2,0E0,0E0,0E0,0E0],"parents":[2147483647,0,0,1,1,3,3,5,5,7,7,9,9,11,11,12,12],"right_children":[2,4,-1,6,-1,8,-1,10,-1,12,-1,14,16,-1,-1,-1,-1],"split_conditions":[8E0,9E0,9.7866364E-2,1.545539E-6,-3.1506274E-2,2.385631E-3,-1.643424E-2,3E0,6.2002265E-3,8.357763E-4,-6.5353843E-3,2.1133716E-4,2.3132704E-4,-5.238914E-4,9.4091735E-4,-3.3761217E-4,-6.5496396E-3],"split_indices":[456,57,0,10,0,336,0,286,0,314,0,340,323,0,0,0,0],"split_type":[0,0,0,0,0,0,0,0,0,0,0,0,0,0,0,0,0],"sum_hessian":[3.83E2,3.78E2,5E0,3.71E2,7E0,3.66E2,5E0,3.6E2,6E0,3.52E2,8E0,3.41E2,1.1E1,2.75E2,6.6E1,5E0,6E0],"tree_param":{"num_deleted":"0","num_feature":"474","num_nodes":"17","size_leaf_vector":"1"}},{"base_weights":[3.0575222E-3,-1.7231423E-2,9.6309975E-2,-1.0402153E-2,-3.30038E-2,-7.041976E-3,-1.6148953E-2,-4.39863E-3,-9.4329845E-3,-6.391726E-3,8.619276E-3,-4.753667E-3,-5.794339E-3,-7.6688215E-4,2.8707317E-4],"categories":[],"categories_nodes":[],"categories_segments":[],"categories_sizes":[],"default_left":[0,0,0,0,0,0,0,0,0,0,0,0,0,0,0],"id":43,"left_children":[1,3,-1,5,-1,7,-1,9,-1,11,-1,13,-1,-1,-1],"loss_changes":[1.0002929E1,1.0898026E0,0E0,2.5600445E-1,0E0,1.1525648E-1,0E0,8.682569E-2,0E0,4.1074336E-2,0E0,1.6472343E-2,0E0,0E0,0E0],"parents":[2147483647,0,0,1,1,3,3,5,5,7,7,9,9,11,11],"right_children":[2,4,-1,6,-1,8,-1,10,-1,12,-1,14,-1,-1,-1],"split_conditions":[1.4189756E-2,1.65E2,9.6309975E-2,1.4797646E-2,-3.30038E-2,1E0,-1.6148953E-2,2E0,-9.4329845E-3,1E0,8.619276E-3,2.5719274E-8,-5.794339E-3,-7.6688215E-4,2.8707317E-4],"split_indices":[329,450,0,9,0,309,0,131,0,172,0,5,0,0,0],"split_type":[0,0,0,0,0,0,0,0,0,0,0,0,0,0,0],"sum_hessian":[3.83E2,3.78E2,5E0,3.73E2,5E0,3.68E2,5E0,3.61E2,7E0,3.56E2,5E0,3.49E2,7E0,2.13E2,1.36E2],"tree_param":{"num_deleted":"0","num_feature":"474","num_nodes":"15","size_leaf_vector":"1"}},{"base_weights":[2.9325604E-3,-1.6499186E-2,9.224119E-2,-9.8291775E-3,-3.2213494E-2,-6.4018806E-3,-1.642273E-2,-3.4763329E-3,-1.1789842E-2,-5.3474954E-3,5.3037666E-3,-6.7898743E-3,-3.871917E-3,-3.6475883E-4,3.4056013E-3],"categories":[],"categories_nodes":[],"categories_segments":[],"categories_sizes":[],"default_left":[0,0,0,0,0,0,0,0,0,0,0,0,0,0,0],"id":44,"left_children":[1,3,-1,5,-1,7,-1,9,-1,11,-1,-1,13,-1,-1],"loss_changes":[9.175535E0,1.0398504E0,0E0,2.6667643E-1,0E0,1.6224188E-1,0E0,5.0772566E-2,0E0,4.427151E-2,0E0,0E0,1.732279E-2,0E0,0E0],"parents":[2147483647,0,0,1,1,3,3,5,5,7,7,9,9,12,12],"right_children":[2,4,-1,6,-1,8,-1,10,-1,12,-1,-1,14,-1,-1],"split_conditions":[1.3326049E-2,1.8944444E2,9.224119E-2,1.545539E-6,-3.2213494E-2,2.4E1,-1.642273E-2,6.412332E-3,-1.1789842E-2,7.7275084E-3,5.3037666E-3,-6.7898743E-3,5.109259E-3,-3.6475883E-4,3.4056013E-3],"split_indices":[315,461,0,10,0,39,0,15,0,6,0,0,9,0,0],"split_type":[0,0,0,0,0,0,0,0,0,0,0,0,0,0,0],"sum_hessian":[3.83E2,3.78E2,5E0,3.73E2,5E0,3.68E2,5E0,3.62E2,6E0,3.54E2,8E0,5E0,3.49E2,3.43E2,6E0],"tree_param":{"num_deleted":"0","num_feature":"474","num_nodes":"15","size_leaf_vector":"1"}},{"base_weights":[2.7995214E-3,-1.6170818E-2,9.0046965E-2,-8.612688E-3,-3.6344938E-2,-6.4655393E-3,-1.0442017E-2,-3.9373063E-3,-9.004491E-3,-5.7911915E-3,8.02688E-3,-6.365507E-3,-4.4267466E-3,2.8572856E-3,-3.955697E-4],"categories":[],"categories_nodes":[],"categories_segments":[],"categories_sizes":[],"default_left":[0,0,0,0,0,0,0,0,0,0,0,0,0,0,0],"id":45,"left_children":[1,3,-1,5,-1,7,-1,9,-1,11,-1,-1,13,-1,-1],"loss_changes":[8.745115E0,1.3376541E0,0E0,1.039874E-1,0E0,1.0550148E-1,0E0,7.508736E-2,0E0,3.8145777E-2,0E0,0E0,1.2886897E-2,0E0,0E0],"parents":[2147483647,0,0,1,1,3,3,5,5,7,7,9,9,12,12],"right_children":[2,4,-1,6,-1,8,-1,10,-1,12,-1,-1,14,-1,-1],"split_conditions":[2E0,5E0,9.0046965E-2,1.0371819E-2,-3.6344938E-2,4.755021E-2,-1.0442017E-2,3E0,-9.004491E-3,7.7275084E-3,8.02688E-3,-6.365507E-3,7.7E1,2.8572856E-3,-3.955697E-4],"split_indices":[472,108,0,9,0,12,0,131,0,6,0,0,0,0,0],"split_type":[0,0,0,0,0,0,0,0,0,0,0,0,0,0,0],"sum_hessian":[3.83E2,3.78E2,5E0,3.73E2,5E0,3.68E2,5E0,3.61E2,7E0,3.56E2,5E0,5E0,3.51E2,6E0,3.45E2],"tree_param":{"num_deleted":"0","num_feature":"474","num_nodes":"15","size_leaf_vector":"1"}},{"base_weights":[2.6895E-3,-1.7351998E-2,8.134097E-2,-6.094042E-3,-3.9240432E-1,-4.020541E-3,-9.7893905E-3,-3.974327E-2,-1.4212325E-2,-5.296772E-3,5.4598497E-3,-5.3399745E-3,-3.9711553E-3,-6.3160527E-3,1.1380117E-2,-3.2101493E-4,-2.6411067E-3,-7.0243666E-4,2.2508383E-3],"categories":[],"categories_nodes":[],"categories_segments":[],"categories_sizes":[],"default_left":[0,0,0,0,0,0,0,0,0,0,0,0,0,0,0,0,0,0,0],"id":46,"left_children":[1,3,-1,5,7,9,-1,-1,-1,11,-1,-1,13,15,17,-1,-1,-1,-1],"loss_changes":[8.344717E0,1.5936465E0,0E0,9.442222E-2,2.0649278E-1,3.5973456E-2,0E0,0E0,0E0,3.0992834E-2,0E0,0E0,1.2742877E-2,1.7852336E-2,1.8447464E-2,0E0,0E0,0E0,0E0],"parents":[2147483647,0,0,1,1,3,3,4,4,5,5,9,9,12,12,13,13,14,14],"right_children":[2,4,-1,6,8,10,-1,-1,-1,12,-1,-1,14,16,18,-1,-1,-1,-1],"split_conditions":[4E0,3.930109E-3,8.134097E-2,1.0371819E-2,3E0,2.3373095E-3,-9.7893905E-3,-3.974327E-2,-1.4212325E-2,5.8364463E-7,5.4598497E-3,-5.3399745E-3,1E0,6.5309164E-4,3E0,-3.2101493E-4,-2.6411067E-3,-7.0243666E-4,2.2508383E-3],"split_indices":[74,336,0,9,253,330,0,0,0,7,0,0,468,342,23,0,0,0,0],"split_type":[0,0,0,0,0,0,0,0,0,0,0,0,0,0,0,0,0,0,0],"sum_hessian":[3.83E2,3.77E2,6E0,3.67E2,1E1,3.62E2,5E0,5E0,5E0,3.57E2,5E0,6E0,3.51E2,3.05E2,4.6E1,2.86E2,1.9E1,2.2E1,2.4E1],"tree_param":{"num_deleted":"0","num_feature":"474","num_nodes":"19","size_leaf_vector":"1"}},{"base_weights":[2.5302423E-3,-1.5518652E-2,8.566478E-2,-8.891077E-3,-3.1953834E-2,-5.5307737E-3,-1.6055088E-2,-3.5897014E-3,-9.177553E-3,-5.3572753E-3,7.7076307E-3,-3.8505467E-3,-6.0430584E-3,-1.6583051E-4,-2.8682817E-3],"categories":[],"categories_nodes":[],"categories_segments":[],"categories_sizes":[],"default_left":[0,0,0,0,0,0,0,0,0,0,0,0,0,0,0],"id":47,"left_children":[1,3,-1,5,-1,7,-1,9,-1,11,-1,13,-1,-1,-1],"loss_changes":[7.9165E0,1.0274084E0,0E0,2.566726E-1,0E0,8.324562E-2,0E0,6.898102E-2,0E0,4.0375702E-2,0E0,1.9819962E-2,0E0,0E0,0E0],"parents":[2147483647,0,0,1,1,3,3,5,5,7,7,9,9,11,11],"right_children":[2,4,-1,6,-1,8,-1,10,-1,12,-1,14,-1,-1,-1],"split_conditions":[1.4189756E-2,1.65E2,8.566478E-2,4E0,-3.1953834E-2,1.0371819E-2,-1.6055088E-2,3.3869965E-3,-9.177553E-3,1E0,7.7076307E-3,7.381329E-4,-6.0430584E-3,-1.6583051E-4,-2.8682817E-3],"split_indices":[329,450,0,286,0,9,0,329,0,309,0,312,0,0,0],"split_type":[0,0,0,0,0,0,0,0,0,0,0,0,0,0,0],"sum_hessian":[3.83E2,3.78E2,5E0,3.73E2,5E0,3.68E2,5E0,3.63E2,5E0,3.58E2,5E0,3.52E2,6E0,3.37E2,1.5E1],"tree_param":{"num_deleted":"0","num_feature":"474","num_nodes":"15","size_leaf_vector":"1"}},{"base_weights":[2.411072E-3,-1.5199067E-2,8.357873E-2,-6.4527704E-3,-3.5931032E-2,-4.6375436E-3,-8.7533435E-3,-2.4854874E-3,-1.0054802E-2,-4.2449185E-3,4.5035193E-3,-5.579041E-3,-3.0268708E-3,-3.1325425E-4,2.4513497E-3],"categories":[],"categories_nodes":[],"categories_segments":[],"categories_sizes":[],"default_left":[0,0,0,0,0,0,0,0,0,0,0,0,0,0,0],"id":48,"left_children":[1,3,-1,5,-1,7,-1,9,-1,11,-1,-1,13,-1,-1],"loss_changes":[7.5364184E0,1.5346041E0,0E0,7.411252E-2,0E0,1.02166936E-1,0E0,4.0192686E-2,0E0,3.0019417E-2,0E0,0E0,1.4467498E-2,0E0,0E0],"parents":[2147483647,0,0,1,1,3,3,5,5,7,7,9,9,12,12],"right_children":[2,4,-1,6,-1,8,-1,10,-1,12,-1,-1,14,-1,-1],"split_conditions":[9.384744E-2,7.7920146E-3,8.357873E-2,7.182689E-7,-3.5931032E-2,2.4E1,-8.7533435E-3,6.412332E-3,-1.0054802E-2,7.7275084E-3,4.5035193E-3,-5.579041E-3,3.1607926E-2,-3.1325425E-4,2.4513497E-3],"split_indices":[12,329,0,10,0,39,0,15,0,6,0,0,12,0,0],"split_type":[0,0,0,0,0,0,0,0,0,0,0,0,0,0,0],"sum_hessian":[3.83E2,3.78E2,5E0,3.72E2,6E0,3.67E2,5E0,3.62E2,5E0,3.53E2,9E0,5E0,3.48E2,3.38E2,1E1],"tree_param":{"num_deleted":"0","num_feature":"474","num_nodes":"15","size_leaf_vector":"1"}},{"base_weights":[2.3081086E-3,-1.4957281E-2,8.193905E-2,-8.096829E-3,-3.3007447E-2,-5.0102314E-3,-1.4742983E-2,-1.8054886E-3,-1.2786248E-2,-3.3077977E-3,5.6302655E-3,-5.442305E-3,-2.117896E-3,-6.756029E-5,-3.2739276E-3],"categories":[],"categories_nodes":[],"categories_segments":[],"categories_sizes":[],"default_left":[0,0,0,0,0,0,0,0,0,0,0,0,0,0,0],"id":49,"left_children":[1,3,-1,5,-1,7,-1,9,-1,11,-1,-1,13,-1,-1],"loss_changes":[7.2443514E0,1.1018533E0,0E0,2.1658973E-1,0E0,1.9537237E-1,0E0,4.217156E-2,0E0,2.9266024E-2,0E0,0E0,1.7754728E-2,0E0,0E0],"parents":[2147483647,0,0,1,1,3,3,5,5,7,7,9,9,12,12],"right_children":[2,4,-1,6,-1,8,-1,10,-1,12,-1,-1,14,-1,-1],"split_conditions":[6E0,1.8944444E2,8.193905E-2,1.545539E-6,-3.3007447E-2,2.4E1,-1.4742983E-2,2.0825984E-3,-1.2786248E-2,5.8364463E-7,5.6302655E-3,-5.442305E-3,1.0710288E-3,-6.756029E-5,-3.2739276E-3],"split_indices":[448,461,0,10,0,39,0,341,0,7,0,0,342,0,0],"split_type":[0,0,0,0,0,0,0,0,0,0,0,0,0,0,0],"sum_hessian":[3.83E2,3.78E2,5E0,3.73E2,5E0,3.68E2,5E0,3.62E2,6E0,3.56E2,6E0,5E0,3.51E2,3.42E2,9E0],"tree_param":{"num_deleted":"0","num_feature":"474","num_nodes":"15","size_leaf_vector":"1"}},{"base_weights":[2.1825265E-3,-1.4364866E-2,7.8529686E-2,-7.401458E-3,-3.3451736E-2,-4.54556E-3,-1.363542E-2,-6.3370094E-3,7.866997E-3,-4.436349E-3,-8.925278E-3,-2.9547142E-3,-4.6295384E-3,-1.02441685E-4,-2.4204073E-3],"categories":[],"categories_nodes":[],"categories_segments":[],"categories_sizes":[],"default_left":[0,0,0,0,0,0,0,0,0,0,0,0,0,0,0],"id":50,"left_children":[1,3,-1,5,-1,7,-1,9,-1,11,-1,13,-1,-1,-1],"loss_changes":[6.6544147E0,1.1359015E0,0E0,1.8545565E-1,0E0,7.300869E-2,0E0,7.741943E-2,0E0,3.0291004E-2,0E0,1.6305568E-2,0E0,0E0,0E0],"parents":[2147483647,0,0,1,1,3,3,5,5,7,7,9,9,11,11],"right_children":[2,4,-1,6,-1,8,-1,10,-1,12,-1,14,-1,-1,-1],"split_conditions":[1.4189756E-2,1.65E2,7.8529686E-2,8E0,-3.3451736E-2,2E0,-1.363542E-2,2.565484E-7,7.866997E-3,3E0,-8.925278E-3,6.982817E-4,-4.6295384E-3,-1.02441685E-4,-2.4204073E-3],"split_indices":[329,450,0,57,0,131,0,8,0,286,0,312,0,0,0],"split_type":[0,0,0,0,0,0,0,0,0,0,0,0,0,0,0],"sum_hessian":[3.83E2,3.78E2,5E0,3.73E2,5E0,3.68E2,5E0,3.63E2,5E0,3.58E2,5E0,3.5E2,8E0,3.33E2,1.7E1],"tree_param":{"num_deleted":"0","num_feature":"474","num_nodes":"15","size_leaf_vector":"1"}},{"base_weights":[2.0793406E-3,-1.5955856E-2,7.317622E-2,-6.785157E-3,-3.757752E-2,-2.984464E-3,-1.5340337E-2,-1.5663672E-3,-6.58569E-3,-3.3793566E-3,7.969905E-3,-7.0439307E-3,1.9724077E-2,-4.1638786E-4,-6.091549E-3,8.7785366E-4,5.643404E-3],"categories":[],"categories_nodes":[],"categories_segments":[],"categories_sizes":[],"default_left":[0,0,0,0,0,0,0,0,0,0,0,0,0,0,0,0,0],"id":51,"left_children":[1,3,-1,5,-1,7,-1,9,-1,11,-1,13,15,-1,-1,-1,-1],"loss_changes":[6.7582746E0,1.6781343E0,0E0,2.789837E-1,0E0,4.3888476E-2,0E0,7.0933826E-2,0E0,3.0279407E-2,0E0,3.3638082E-2,2.0936303E-2,0E0,0E0,0E0,0E0],"parents":[2147483647,0,0,1,1,3,3,5,5,7,7,9,9,11,11,12,12],"right_children":[2,4,-1,6,-1,8,-1,10,-1,12,-1,14,16,-1,-1,-1,-1],"split_conditions":[1E0,9E0,7.317622E-2,4.7553596E-3,-3.757752E-2,4.0316226E-7,-1.5340337E-2,5.192493E-3,-6.58569E-3,5.0022E-4,7.969905E-3,3.3149633E-3,6.473337E-4,-4.1638786E-4,-6.091549E-3,8.7785366E-4,5.643404E-3],"split_indices":[91,57,0,323,0,16,0,15,0,336,0,9,9,0,0,0,0],"split_type":[0,0,0,0,0,0,0,0,0,0,0,0,0,0,0,0,0],"sum_hessian":[3.83E2,3.77E2,6E0,3.71E2,6E0,3.65E2,6E0,3.6E2,5E0,3.55E2,5E0,3.07E2,4.8E1,3.02E2,5E0,4.3E1,5E0],"tree_param":{"num_deleted":"0","num_feature":"474","num_nodes":"17","size_leaf_vector":"1"}},{"base_weights":[1.9797822E-3,-1.3998575E-2,7.5821206E-2,-5.2233003E-3,-3.1522427E-2,-2.200001E-3,-1.4195842E-2,-3.444382E-4,-5.130687E-3,-6.2461677E-3,2.0577444E-2,-6.1864853E-3,-4.5600296E-3,1.3951376E-2,7.415203E-3,-4.2573575E-4,1.3782992E-3,5.739314E-4,6.304813E-3],"categories":[],"categories_nodes":[],"categories_segments":[],"categories_sizes":[],"default_left":[0,0,0,0,0,0,0,0,0,0,0,0,0,0,0,0,0,0,0],"id":52,"left_children":[1,3,-1,5,-1,7,-1,9,-1,11,13,-1,15,17,-1,-1,-1,-1,-1],"loss_changes":[6.204876E0,1.3490906E0,0E0,2.0658377E-1,0E0,4.5064308E-2,0E0,4.433268E-2,0E0,3.5618328E-2,3.9603274E-2,0E0,7.146611E-3,3.2037884E-2,0E0,0E0,0E0,0E0,0E0],"parents":[2147483647,0,0,1,1,3,3,5,5,7,7,9,9,10,10,12,12,13,13],"right_children":[2,4,-1,6,-1,8,-1,10,-1,12,14,-1,16,18,-1,-1,-1,-1,-1],"split_conditions":[8E0,9E0,7.5821206E-2,1.545539E-6,-3.1522427E-2,1E0,-1.4195842E-2,2.1133716E-4,-5.130687E-3,1.3824016E-2,6.412332E-3,-6.1864853E-3,5E0,1.9065507E-7,7.415203E-3,-4.2573575E-4,1.3782992E-3,5.739314E-4,6.304813E-3],"split_indices":[456,57,0,10,0,172,0,340,0,6,15,0,23,10,0,0,0,0,0],"split_type":[0,0,0,0,0,0,0,0,0,0,0,0,0,0,0,0,0,0,0],"sum_hessian":[3.83E2,3.78E2,5E0,3.71E2,7E0,3.66E2,5E0,3.57E2,9E0,2.79E2,7.8E1,5E0,2.74E2,7.3E1,5E0,2.62E2,1.2E1,6.8E1,5E0],"tree_param":{"num_deleted":"0","num_feature":"474","num_nodes":"19","size_leaf_vector":"1"}},{"base_weights":[1.9199282E-3,-1.3731088E-2,7.426669E-2,-4.3940176E-3,-2.9782517E-2,-1.2653444E-3,-1.4588307E-2,-3.963528E-3,6.6857815E-2,-1.7669804E-3,-8.421251E-3,1.6603443E-3,9.209602E-3,-3.104056E-3,3.65944E-3,-1.2706996E-4,-2.874519E-3],"categories":[],"categories_nodes":[],"categories_segments":[],"categories_sizes":[],"default_left":[0,0,0,0,0,0,0,0,0,0,0,0,0,0,0,0,0],"id":53,"left_children":[1,3,-1,5,-1,7,-1,9,11,13,-1,-1,-1,15,-1,-1,-1],"loss_changes":[5.9532857E0,1.3549024E0,0E0,2.2042952E-1,0E0,6.753902E-2,0E0,8.3790764E-2,3.2302454E-2,2.3609309E-2,0E0,0E0,0E0,1.6768731E-2,0E0,0E0,0E0],"parents":[2147483647,0,0,1,1,3,3,5,5,7,7,8,8,9,9,13,13],"right_children":[2,4,-1,6,-1,8,-1,10,12,14,-1,-1,-1,16,-1,-1,-1],"split_conditions":[2.7888222E-2,9E0,7.426669E-2,1.06E2,-2.9782517E-2,1.29E2,-1.4588307E-2,3E0,8.8799E-4,2.7951996E-3,-8.421251E-3,1.6603443E-3,9.209602E-3,7.459965E-4,3.65944E-3,-1.2706996E-4,-2.874519E-3],"split_indices":[9,57,0,461,0,1,0,286,315,9,0,0,0,312,0,0,0],"split_type":[0,0,0,0,0,0,0,0,0,0,0,0,0,0,0,0,0],"sum_hessian":[3.83E2,3.78E2,5E0,3.7E2,8E0,3.65E2,5E0,3.52E2,1.3E1,3.46E2,6E0,8E0,5E0,3.38E2,8E0,3.26E2,1.2E1],"tree_param":{"num_deleted":"0","num_feature":"474","num_nodes":"17","size_leaf_vector":"1"}},{"base_weights":[1.8618834E-3,-1.351109E-2,7.2945826E-2,-7.1678828E-3,-3.0498937E-2,-3.7259639E-3,-1.6323844E-2,-1.243845E-3,-8.6682085E-3,-2.709707E-3,4.24137E-3,-3.8086514E-3,3.923298E-3,-1.6319879E-3,-4.3616375E-5],"categories":[],"categories_nodes":[],"categories_segments":[],"categories_sizes":[],"default_left":[0,0,0,0,0,0,0,0,0,0,0,0,0,0,0],"id":54,"left_children":[1,3,-1,5,-1,7,-1,9,-1,11,-1,13,-1,-1,-1],"loss_changes":[5.743688E0,9.422267E-1,0E0,2.7013952E-1,0E0,1.0229999E-1,0E0,3.082193E-2,0E0,2.1603597E-2,0E0,2.014708E-2,0E0,0E0,0E0],"parents":[2147483647,0,0,1,1,3,3,5,5,7,7,9,9,11,11],"right_children":[2,4,-1,6,-1,8,-1,10,-1,12,-1,14,-1,-1,-1],"split_conditions":[1.3326049E-2,1.8944444E2,7.2945826E-2,1.545539E-6,-3.0498937E-2,4.755021E-2,-1.6323844E-2,6.412332E-3,-8.6682085E-3,5.109259E-3,4.24137E-3,1.6850855E-8,3.923298E-3,-1.6319879E-3,-4.3616375E-5],"split_indices":[315,461,0,10,0,12,0,15,0,9,0,5,0,0,0],"split_type":[0,0,0,0,0,0,0,0,0,0,0,0,0,0,0],"sum_hessian":[3.83E2,3.78E2,5E0,3.73E2,5E0,3.68E2,5E0,3.61E2,7E0,3.53E2,8E0,3.47E2,6E0,5.2E1,2.95E2],"tree_param":{"num_deleted":"0","num_feature":"474","num_nodes":"15","size_leaf_vector":"1"}},{"base_weights":[1.7845978E-3,-1.4403102E-2,6.567491E-2,-4.4289483E-3,-2.8575681E-2,-2.5181356E-3,-8.971008E-3,-2.7399397E-4,-7.6761143E-3,-2.4227647E-3,4.8879497E-2,-3.236514E-4,-3.0309994E-2,8.282352E-4,6.0454444E-3,2.4203486E-3,-1.6941885E-4,-5.3174077E-3,-1.192292E-3],"categories":[],"categories_nodes":[],"categories_segments":[],"categories_sizes":[],"default_left":[0,0,0,0,0,0,0,0,0,0,0,0,0,0,0,0,0,0,0],"id":55,"left_children":[1,3,-1,5,-1,7,-1,9,-1,11,13,15,17,-1,-1,-1,-1,-1,-1],"loss_changes":[5.4447227E0,1.3805014E0,0E0,8.0914214E-2,0E0,8.151989E-2,0E0,3.7824616E-2,0E0,2.0068882E-2,1.7116044E-2,2.0258483E-2,1.2912823E-2,0E0,0E0,0E0,0E0,0E0,0E0],"parents":[2147483647,0,0,1,1,3,3,5,5,7,7,9,9,10,10,11,11,12,12],"right_children":[2,4,-1,6,-1,8,-1,10,-1,12,14,16,18,-1,-1,-1,-1,-1,-1],"split_conditions":[1E0,3.930109E-3,6.567491E-2,1.0371819E-2,-2.8575681E-2,1E0,-8.971008E-3,1E0,-7.6761143E-3,6.9487095E-4,1.28E2,1.35E2,1.8848902E-4,8.282352E-4,6.0454444E-3,2.4203486E-3,-1.6941885E-4,-5.3174077E-3,-1.192292E-3],"split_indices":[91,336,0,9,0,309,0,292,0,320,1,0,337,0,0,0,0,0,0],"split_type":[0,0,0,0,0,0,0,0,0,0,0,0,0,0,0,0,0,0,0],"sum_hessian":[3.83E2,3.77E2,6E0,3.68E2,9E0,3.63E2,5E0,3.56E2,7E0,3.42E2,1.4E1,3.19E2,2.3E1,7E0,7E0,1.7E1,3.02E2,5E0,1.8E1],"tree_param":{"num_deleted":"0","num_feature":"474","num_nodes":"19","size_leaf_vector":"1"}},{"base_weights":[1.7108271E-3,-1.4069257E-2,6.401932E-2,-6.2144366E-3,-3.2211524E-2,-3.7544384E-3,-1.1673646E-2,-1.9476609E-3,-8.410321E-3,-3.6584022E-3,7.512455E-3,-1.3868511E-3,-1.0223476E-2,-4.313136E-3,-3.093388E-5],"categories":[],"categories_nodes":[],"categories_segments":[],"categories_sizes":[],"default_left":[0,0,0,0,0,0,0,0,0,0,0,0,0,0,0],"id":56,"left_children":[1,3,-1,5,-1,7,-1,9,-1,11,-1,13,-1,-1,-1],"loss_changes":[5.1740217E0,1.2307569E0,0E0,1.3616574E-1,0E0,7.16491E-2,0E0,6.3604295E-2,0E0,1.0738638E-1,0E0,1.9225359E-2,0E0,0E0,0E0],"parents":[2147483647,0,0,1,1,3,3,5,5,7,7,9,9,11,11],"right_children":[2,4,-1,6,-1,8,-1,10,-1,12,-1,14,-1,-1,-1],"split_conditions":[1E0,7.7920146E-3,6.401932E-2,4E0,-3.2211524E-2,1.0371819E-2,-1.1673646E-2,2E0,-8.410321E-3,2.4E1,7.512455E-3,7.7275084E-3,-1.0223476E-2,-4.313136E-3,-3.093388E-5],"split_indices":[180,329,0,210,0,9,0,131,0,39,0,6,0,0,0],"split_type":[0,0,0,0,0,0,0,0,0,0,0,0,0,0,0],"sum_hessian":[3.83E2,3.77E2,6E0,3.71E2,6E0,3.66E2,5E0,3.61E2,5E0,3.56E2,5E0,3.51E2,5E0,5E0,3.46E2],"tree_param":{"num_deleted":"0","num_feature":"474","num_nodes":"15","size_leaf_vector":"1"}},{"base_weights":[1.5946754E-3,-1.2765917E-2,6.8132974E-2,-6.495022E-3,-2.5881851E-2,-3.94235E-3,-1.2148231E-2,-6.6209384E-3,6.42606E-2,-4.645122E-3,-9.058004E-3,1.5535887E-3,8.915223E-3,-2.449579E-3,-6.5669734E-3,-1.4668871E-3,5.667886E-5],"categories":[],"categories_nodes":[],"categories_segments":[],"categories_sizes":[],"default_left":[0,0,0,0,0,0,0,0,0,0,0,0,0,0,0,0,0],"id":57,"left_children":[1,3,-1,5,-1,7,-1,9,11,13,-1,-1,-1,15,-1,-1,-1],"loss_changes":[5.0123644E0,7.875862E-1,0E0,1.4740254E-1,0E0,6.765453E-2,0E0,7.95072E-2,3.0829817E-2,6.350036E-2,0E0,0E0,0E0,1.876977E-2,0E0,0E0,0E0],"parents":[2147483647,0,0,1,1,3,3,5,5,7,7,8,8,9,9,13,13],"right_children":[2,4,-1,6,-1,8,-1,10,12,14,-1,-1,-1,16,-1,-1,-1],"split_conditions":[1.4189756E-2,9E0,6.8132974E-2,9E0,-2.5881851E-2,1.31E2,-1.2148231E-2,3.8190325E-7,9.3340874E-4,1E0,-9.058004E-3,1.5535887E-3,8.915223E-3,1.6850855E-8,-6.5669734E-3,-1.4668871E-3,5.667886E-5],"split_indices":[329,57,0,470,0,1,0,10,318,172,0,0,0,5,0,0,0],"split_type":[0,0,0,0,0,0,0,0,0,0,0,0,0,0,0,0,0],"sum_hessian":[3.83E2,3.78E2,5E0,3.72E2,6E0,3.67E2,5E0,3.54E2,1.3E1,3.49E2,5E0,8E0,5E0,3.41E2,8E0,5.3E1,2.88E2],"tree_param":{"num_deleted":"0","num_feature":"474","num_nodes":"17","size_leaf_vector":"1"}}]},"name":"gbtree"},"learner_model_param":{"base_score":"-1.7592999E-9","boost_from_average":"1","num_class":"0","num_feature":"474","num_target":"1"},"objective":{"name":"reg:squarederror","reg_loss_param":{"scale_pos_weight":"1"}}},"version":[2,0,3]}