{"learner":{"attributes":{"best_iteration":"99","best_score":"0.498413070983989"},"feature_names":[],"feature_types":[],"gradient_booster":{"model":{"gbtree_model_param":{"num_parallel_tree":"1","num_trees":"150"},"iteration_indptr":[0,1,2,3,4,5,6,7,8,9,10,11,12,13,14,15,16,17,18,19,20,21,22,23,24,25,26,27,28,29,30,31,32,33,34,35,36,37,38,39,40,41,42,43,44,45,46,47,48,49,50,51,52,53,54,55,56,57,58,59,60,61,62,63,64,65,66,67,68,69,70,71,72,73,74,75,76,77,78,79,80,81,82,83,84,85,86,87,88,89,90,91,92,93,94,95,96,97,98,99,100,101,102,103,104,105,106,107,108,109,110,111,112,113,114,115,116,117,118,119,120,121,122,123,124,125,126,127,128,129,130,131,132,133,134,135,136,137,138,139,140,141,142,143,144,145,146,147,148,149,150],"tree_info":[0,0,0,0,0,0,0,0,0,0,0,0,0,0,0,0,0,0,0,0,0,0,0,0,0,0,0,0,0,0,0,0,0,0,0,0,0,0,0,0,0,0,0,0,0,0,0,0,0,0,0,0,0,0,0,0,0,0,0,0,0,0,0,0,0,0,0,0,0,0,0,0,0,0,0,0,0,0,0,0,0,0,0,0,0,0,0,0,0,0,0,0,0,0,0,0,0,0,0,0,0,0,0,0,0,0,0,0,0,0,0,0,0,0,0,0,0,0,0,0,0,0,0,0,0,0,0,0,0,0,0,0,0,0,0,0,0,0,0,0,0,0,0,0,0,0,0,0,0,0],"trees":[{"base_weights":[-3.7949614E-3,-2.9211685E-1,1.1164635E0,-4.204536E-1,2.8892064E-1,8.5797995E-1,2.360592E0,-6.0976547E-1,-1.3062777E-1,-1.745736E-1,5.9047824E-1,6.1286294E-1,1.2740113E0,1.8049087E-1,3.313913E-1,-8.269614E-1,-4.4817194E-1,-2.451588E-1,1.638791E-1,-3.0112946E-1,-3.559691E-2,2.78934E-1,9.1481036E-1,4.2366222E-1,8.8880074E-1,1.0454141E0,1.7532049E-1,-9.0778E-1,-3.3463115E-1,-5.072227E-1,-5.2059564E-4,-3.0898055E-1,1.5994042E-1,2.4129534E-2,4.008485E-1,-3.83134E-2,-1.47616705E-2,-1.45350685E-2,8.946693E-3,9.609948E-2,4.817867E-2,5.3301662E-2,1.15017E0,3.2821366E-1,7.333556E-2,5.8998562E-2,1.0570037E0,8.904716E-1,1.4047359E-1,-1.352636E-1,-8.646711E-2,-4.376414E-2,-1.9497884E-2,-5.7204425E-2,-1.22215785E-2,-2.5957335E-2,2.0097934E-2,-3.8903017E-2,-6.7264563E-3,-9.471477E-5,3.7036832E-2,-2.5704462E-2,1.3059909E-2,2.1867154E-2,6.2076002E-2,-1.3296084E-3,1.949987E-2,8.312621E-2,1.3485433E-1,2.355912E-2,5.805544E-2,7.463481E-2,1.2635268E-1,6.4384006E-2,1.0630518E-1],"categories":[],"categories_nodes":[],"categories_segments":[],"categories_sizes":[],"default_left":[0,0,0,0,0,0,0,0,0,0,0,0,0,0,0,0,0,0,0,0,0,0,0,0,0,0,0,0,0,0,0,0,0,0,0,0,0,0,0,0,0,0,0,0,0,0,0,0,0,0,0,0,0,0,0,0,0,0,0,0,0,0,0,0,0,0,0,0,0,0,0,0,0,0,0],"id":0,"left_children":[1,3,5,7,9,11,13,15,17,19,21,23,25,-1,-1,27,29,31,33,35,37,39,41,43,45,47,-1,49,51,53,55,57,59,61,63,-1,-1,-1,-1,65,-1,-1,67,69,-1,-1,71,73,-1,-1,-1,-1,-1,-1,-1,-1,-1,-1,-1,-1,-1,-1,-1,-1,-1,-1,-1,-1,-1,-1,-1,-1,-1,-1,-1],"loss_changes":[7.574266E2,1.3919165E2,1.523363E2,8.375784E1,4.7345417E1,3.9907776E1,3.7457733E1,3.205945E1,2.0446936E1,2.3461146E0,2.0458801E1,1.2831978E1,1.4269897E1,0E0,0E0,1.5333466E1,1.4062698E1,1.1321819E1,5.6201105E0,8.2465553E-1,9.052088E-1,3.8850775E0,8.372826E0,4.252392E0,4.503067E0,4.427887E0,0E0,5.293152E0,7.346492E-1,1.16597595E1,3.3407128E0,7.268505E0,2.0316648E0,3.2667105E0,2.388215E0,0E0,0E0,0E0,0E0,6.192833E-1,0E0,0E0,2.738037E0,2.621173E0,0E0,0E0,3.1630478E0,2.4652863E0,0E0,0E0,0E0,0E0,0E0,0E0,0E0,0E0,0E0,0E0,0E0,0E0,0E0,0E0,0E0,0E0,0E0,0E0,0E0,0E0,0E0,0E0,0E0,0E0,0E0,0E0,0E0],"parents":[2147483647,0,0,1,1,2,2,3,3,4,4,5,5,6,6,7,7,8,8,9,9,10,10,11,11,12,12,15,15,16,16,17,17,18,18,19,19,20,20,21,21,22,22,23,23,24,24,25,25,27,27,28,28,29,29,30,30,31,31,32,32,33,33,34,34,39,39,42,42,43,43,46,46,47,47],"right_children":[2,4,6,8,10,12,14,16,18,20,22,24,26,-1,-1,28,30,32,34,36,38,40,42,44,46,48,-1,50,52,54,56,58,60,62,64,-1,-1,-1,-1,66,-1,-1,68,70,-1,-1,72,74,-1,-1,-1,-1,-1,-1,-1,-1,-1,-1,-1,-1,-1,-1,-1,-1,-1,-1,-1,-1,-1,-1,-1,-1,-1,-1,-1],"split_conditions":[6E0,5.9947865E-6,1.2050885E-5,2E0,2.9864783E-8,6.7221763E-6,3E0,1E0,2E0,2.1870646E-8,7.205376E-6,3E0,6E0,1.8049087E-1,3.313913E-1,1E0,1E0,3E0,1E0,1E0,1E0,1E0,1E0,1E0,5.8673827E-8,1.14544E-8,1.7532049E-1,1.4564611E-8,6.579981E-8,1.00569416E-7,1E0,1E0,6.142361E-8,2.51649E-6,2.0559705E-8,-3.83134E-2,-1.47616705E-2,-1.45350685E-2,8.946693E-3,1E0,4.817867E-2,5.3301662E-2,6.2294795E-8,1.1E1,7.333556E-2,5.8998562E-2,4.3707505E-6,1E0,1.4047359E-1,-1.352636E-1,-8.646711E-2,-4.376414E-2,-1.9497884E-2,-5.7204425E-2,-1.22215785E-2,-2.5957335E-2,2.0097934E-2,-3.8903017E-2,-6.7264563E-3,-9.471477E-5,3.7036832E-2,-2.5704462E-2,1.3059909E-2,2.1867154E-2,6.2076002E-2,-1.3296084E-3,1.949987E-2,8.312621E-2,1.3485433E-1,2.355912E-2,5.805544E-2,7.463481E-2,1.2635268E-1,6.4384006E-2,1.0630518E-1],"split_indices":[30,5,5,30,3,5,180,69,18,3,5,18,81,0,0,53,204,69,204,81,122,81,81,201,3,15,0,3,3,3,18,204,3,5,6,0,0,0,0,18,0,0,3,30,0,0,5,207,0,0,0,0,0,0,0,0,0,0,0,0,0,0,0,0,0,0,0,0,0,0,0,0,0,0,0],"split_type":[0,0,0,0,0,0,0,0,0,0,0,0,0,0,0,0,0,0,0,0,0,0,0,0,0,0,0,0,0,0,0,0,0,0,0,0,0,0,0,0,0,0,0,0,0,0,0,0,0,0,0,0,0,0,0,0,0,0,0,0,0,0,0,0,0,0,0,0,0,0,0,0,0,0,0],"sum_hessian":[2.343E3,1.864E3,4.79E2,1.527E3,3.37E2,3.98E2,8.1E1,9.23E2,6.04E2,1.33E2,2.04E2,2.52E2,1.46E2,5.3E1,2.8E1,3.92E2,5.31E2,4.35E2,1.69E2,6.9E1,6.4E1,1.05E2,9.9E1,1.51E2,1.01E2,1.01E2,4.5E1,3.36E2,5.6E1,4.69E2,6.2E1,3.76E2,5.9E1,1.07E2,6.2E1,4.4E1,2.5E1,3.4E1,3E1,5.6E1,4.9E1,3.9E1,6E1,1.17E2,3.4E1,3.8E1,6.3E1,7.3E1,2.8E1,2.7E1,3.09E2,3.1E1,2.5E1,4.01E2,6.8E1,2.7E1,3.5E1,2.82E2,9.4E1,3.4E1,2.5E1,2.9E1,7.8E1,3.5E1,2.7E1,2.7E1,2.9E1,2.5E1,3.5E1,8.7E1,3E1,2.7E1,3.6E1,3.2E1,4.1E1],"tree_param":{"num_deleted":"0","num_feature":"503","num_nodes":"75","size_leaf_vector":"1"}},{"base_weights":[3.6854532E-3,-2.1151304E-1,1.096996E0,-4.0802404E-1,1.6542387E-1,8.810256E-1,2.526377E-1,-5.407985E-1,-6.499639E-2,1.3712146E-2,6.9227785E-1,5.6112033E-1,1.308862E0,-6.1992234E-1,-2.758864E-1,6.548948E-1,-1.941762E-1,-1.1746336E-1,2.3609889E-1,5.535626E-1,1.20690875E-1,2.4908699E-1,7.733077E-1,1.0452037E0,1.6883254E0,-6.851E-1,-3.6430573E-1,-3.589464E-1,7.478822E-3,3.5793174E-2,9.723563E-2,-5.00421E-1,-8.7213404E-2,-2.1405941E-1,2.5644296E-1,1.4057283E-1,5.682818E-2,3.949933E-1,9.596393E-2,1.7280503E-3,3.878253E-2,6.0437834E-1,9.8082826E-2,8.7526135E-2,1.22300446E-1,1.4090098E-1,1.9464904E-1,-7.3053055E-2,-3.9091967E-2,-5.231769E-2,-1.0427799E-2,-4.984015E-2,-2.0359691E-2,-7.975798E-2,-3.1211728E-2,-2.4014313E-2,1.2179625E-2,-2.8918123E-2,1.3573571E-2,9.734926E-3,4.5471665E-2,-8.624471E-3,2.2795994E-2,1.8249856E-2,4.7641985E-2,3.3875845E-2,7.580793E-2],"categories":[],"categories_nodes":[],"categories_segments":[],"categories_sizes":[],"default_left":[0,0,0,0,0,0,0,0,0,0,0,0,0,0,0,0,0,0,0,0,0,0,0,0,0,0,0,0,0,0,0,0,0,0,0,0,0,0,0,0,0,0,0,0,0,0,0,0,0,0,0,0,0,0,0,0,0,0,0,0,0,0,0,0,0,0,0],"id":1,"left_children":[1,3,5,7,9,11,-1,13,15,17,19,21,23,25,27,29,31,33,35,37,-1,39,41,43,45,47,49,51,-1,-1,-1,53,55,57,59,61,-1,63,-1,-1,-1,65,-1,-1,-1,-1,-1,-1,-1,-1,-1,-1,-1,-1,-1,-1,-1,-1,-1,-1,-1,-1,-1,-1,-1,-1,-1],"loss_changes":[5.5078436E2,1.4495282E2,1.16625244E2,5.8536133E1,5.362349E1,4.525293E1,0E0,1.9259705E1,3.360551E1,1.5255358E1,1.0039978E1,1.2652027E1,1.2542313E1,1.16293335E1,6.2891617E0,4.8370514E0,9.979938E0,1.1937674E1,6.076144E0,7.347904E0,0E0,2.5661335E0,3.4386826E0,1.5583267E0,1.3676147E0,7.292267E0,6.0181484E0,3.6681118E0,0E0,0E0,0E0,4.1715946E0,7.3169923E0,6.923889E0,2.1007328E0,3.032441E0,0E0,1.4356918E0,0E0,0E0,0E0,2.4377117E0,0E0,0E0,0E0,0E0,0E0,0E0,0E0,0E0,0E0,0E0,0E0,0E0,0E0,0E0,0E0,0E0,0E0,0E0,0E0,0E0,0E0,0E0,0E0,0E0,0E0],"parents":[2147483647,0,0,1,1,2,2,3,3,4,4,5,5,7,7,8,8,9,9,10,10,11,11,12,12,13,13,14,14,15,15,16,16,17,17,18,18,19,19,21,21,22,22,23,23,24,24,25,25,26,26,27,27,31,31,32,32,33,33,34,34,35,35,37,37,41,41],"right_children":[2,4,6,8,10,12,-1,14,16,18,20,22,24,26,28,30,32,34,36,38,-1,40,42,44,46,48,50,52,-1,-1,-1,54,56,58,60,62,-1,64,-1,-1,-1,66,-1,-1,-1,-1,-1,-1,-1,-1,-1,-1,-1,-1,-1,-1,-1,-1,-1,-1,-1,-1,-1,-1,-1,-1,-1],"split_conditions":[3E0,2E0,2E0,4.91829E-6,6.1039946E-6,6.7221763E-6,2.526377E-1,1E0,1.42E2,1E0,1.1466483E-7,2E0,1.2494155E-7,1E0,1E0,1.00569416E-7,2.0871628E-8,3.0771137E-8,1E0,8.702808E-6,1.20690875E-1,4E0,1E0,6E0,1E0,1E0,6.3050386E-8,1E0,7.478822E-3,3.5793174E-2,9.723563E-2,6.023818E-6,6.5190793E-6,6E0,6.079683E-8,1E0,5.682818E-2,2.790188E-8,9.596393E-2,1.7280503E-3,3.878253E-2,1E0,9.8082826E-2,8.7526135E-2,1.22300446E-1,1.4090098E-1,1.9464904E-1,-7.3053055E-2,-3.9091967E-2,-5.231769E-2,-1.0427799E-2,-4.984015E-2,-2.0359691E-2,-7.975798E-2,-3.1211728E-2,-2.4014313E-2,1.2179625E-2,-2.8918123E-2,1.3573571E-2,9.734926E-3,4.5471665E-2,-8.624471E-3,2.2795994E-2,1.8249856E-2,4.7641985E-2,3.3875845E-2,7.580793E-2],"split_indices":[81,32,366,5,5,5,0,81,0,204,9,18,3,182,141,3,3,12,201,5,0,32,62,81,66,312,3,18,0,0,0,5,5,32,3,18,0,3,0,0,0,207,0,0,0,0,0,0,0,0,0,0,0,0,0,0,0,0,0,0,0,0,0,0,0,0,0],"split_type":[0,0,0,0,0,0,0,0,0,0,0,0,0,0,0,0,0,0,0,0,0,0,0,0,0,0,0,0,0,0,0,0,0,0,0,0,0,0,0,0,0,0,0,0,0,0,0,0,0,0,0,0,0,0,0,0,0,0,0,0,0,0,0,0,0,0,0],"sum_hessian":[2.339E3,1.955E3,3.84E2,1.285E3,6.7E2,3.35E2,4.9E1,9.26E2,3.59E2,5.21E2,1.49E2,1.93E2,1.42E2,7.12E2,2.14E2,5.4E1,3.05E2,3.28E2,1.93E2,1.19E2,3E1,7.9E1,1.14E2,8.6E1,5.6E1,5.66E2,1.46E2,1.73E2,4.1E1,2.9E1,2.5E1,7.8E1,2.27E2,2.61E2,6.7E1,1.51E2,4.2E1,8.7E1,3.2E1,3E1,4.9E1,6.5E1,4.9E1,4.7E1,3.9E1,3E1,2.6E1,4.89E2,7.7E1,9E1,5.6E1,9E1,8.3E1,2.9E1,4.9E1,1.31E2,9.6E1,2.15E2,4.6E1,3.8E1,2.9E1,4.2E1,1.09E2,2.5E1,6.2E1,2.5E1,4E1],"tree_param":{"num_deleted":"0","num_feature":"503","num_nodes":"67","size_leaf_vector":"1"}},{"base_weights":[-2.2571217E-2,-2.1325888E-1,9.562845E-1,-4.021896E-1,1.5258014E-1,7.5858706E-1,2.0724382E0,-5.0980794E-1,-6.0435563E-2,-8.210166E-3,5.343962E-1,4.6813083E-1,1.1355288E0,1.4862232E-1,2.6916778E-1,-5.956099E-1,-2.9685307E-1,-1.9187735E-1,4.9308985E-1,-2.147203E-1,9.407526E-2,3.9762673E-1,1.02316044E-1,3.4765324E-1,8.0934994E-2,9.6883136E-1,1.5103464E-1,-7.4034125E-1,-5.1098E-1,-3.7444428E-1,6.5899747E-3,-4.8113889E-1,-7.768638E-2,2.3463473E-2,7.907169E-2,-3.317826E-1,2.245622E-2,-2.8017834E-2,1.4719547E-1,3.0837783E-1,8.060056E-2,2.3566937E-1,7.3920675E-2,8.153305E-1,1.20401315E-1,-7.8043565E-2,-4.051177E-2,-6.332079E-2,-3.3881094E-2,-2.0654157E-2,-5.1683962E-2,-8.558123E-3,1.1558586E-2,-7.039807E-2,-3.4169387E-2,-2.26233E-2,1.0896798E-2,-4.43599E-2,-1.08237155E-2,9.040179E-3,4.049788E-2,4.963136E-3,4.01439E-2,5.900466E-3,3.9270263E-2,9.377714E-2,6.287875E-2],"categories":[],"categories_nodes":[],"categories_segments":[],"categories_sizes":[],"default_left":[0,0,0,0,0,0,0,0,0,0,0,0,0,0,0,0,0,0,0,0,0,0,0,0,0,0,0,0,0,0,0,0,0,0,0,0,0,0,0,0,0,0,0,0,0,0,0,0,0,0,0,0,0,0,0,0,0,0,0,0,0,0,0,0,0,0,0],"id":2,"left_children":[1,3,5,7,9,11,13,15,17,19,21,23,25,-1,-1,27,29,31,33,35,37,39,-1,41,-1,43,-1,45,47,49,51,53,55,-1,-1,57,-1,-1,59,61,-1,63,-1,65,-1,-1,-1,-1,-1,-1,-1,-1,-1,-1,-1,-1,-1,-1,-1,-1,-1,-1,-1,-1,-1,-1,-1],"loss_changes":[4.3044534E2,1.3345955E2,8.139633E1,4.6788864E1,4.0400528E1,3.461316E1,1.6328003E1,1.7510437E1,2.2358063E1,9.821261E0,1.2628529E1,7.241619E0,7.221588E0,0E0,0E0,8.061005E0,6.5949326E0,8.154325E0,4.3529425E0,7.9937134E0,6.2240534E0,5.36434E0,0E0,5.832922E0,0E0,2.5922928E0,0E0,3.0708618E0,9.00267E0,5.224863E0,5.925763E-1,1.9346466E0,4.987763E0,0E0,0E0,3.001502E0,0E0,0E0,3.9602356E0,3.0622187E0,0E0,2.9729915E0,0E0,8.4929276E-1,0E0,0E0,0E0,0E0,0E0,0E0,0E0,0E0,0E0,0E0,0E0,0E0,0E0,0E0,0E0,0E0,0E0,0E0,0E0,0E0,0E0,0E0,0E0],"parents":[2147483647,0,0,1,1,2,2,3,3,4,4,5,5,6,6,7,7,8,8,9,9,10,10,11,11,12,12,15,15,16,16,17,17,18,18,19,19,20,20,21,21,23,23,25,25,27,27,28,28,29,29,30,30,31,31,32,32,35,35,38,38,39,39,41,41,43,43],"right_children":[2,4,6,8,10,12,14,16,18,20,22,24,26,-1,-1,28,30,32,34,36,38,40,-1,42,-1,44,-1,46,48,50,52,54,56,-1,-1,58,-1,-1,60,62,-1,64,-1,66,-1,-1,-1,-1,-1,-1,-1,-1,-1,-1,-1,-1,-1,-1,-1,-1,-1,-1,-1,-1,-1,-1,-1],"split_conditions":[3E0,2E0,7.081668E-3,5.197507E-6,5.625495E-6,6.7221763E-6,1.9534421E-7,1E0,5.962122E-8,3E0,9.147513E-6,2E0,1.2050885E-5,1.4862232E-1,2.6916778E-1,3.6257966E-8,1E0,2.1199943E-8,1E0,1.260775E-8,3.2536647E-8,1.4819643E-4,1.02316044E-1,7E0,8.0934994E-2,1E0,1.5103464E-1,1E0,2.9784235E-6,7.6080345E-2,7.594035E-8,6.046337E-6,6.5190793E-6,2.3463473E-2,7.907169E-2,1E0,2.245622E-2,-2.8017834E-2,1E0,2.9529973E-8,8.060056E-2,6.671139E-8,7.3920675E-2,2.559774E-1,1.20401315E-1,-7.8043565E-2,-4.051177E-2,-6.332079E-2,-3.3881094E-2,-2.0654157E-2,-5.1683962E-2,-8.558123E-3,1.1558586E-2,-7.039807E-2,-3.4169387E-2,-2.26233E-2,1.0896798E-2,-4.43599E-2,-1.08237155E-2,9.040179E-3,4.049788E-2,4.963136E-3,4.01439E-2,5.900466E-3,3.9270263E-2,9.377714E-2,6.287875E-2],"split_indices":[81,32,16,5,5,5,3,32,3,32,5,142,5,0,0,3,164,3,81,11,3,16,0,122,0,201,0,161,5,4,3,5,5,0,0,51,0,0,159,3,0,3,0,4,0,0,0,0,0,0,0,0,0,0,0,0,0,0,0,0,0,0,0,0,0,0,0],"split_type":[0,0,0,0,0,0,0,0,0,0,0,0,0,0,0,0,0,0,0,0,0,0,0,0,0,0,0,0,0,0,0,0,0,0,0,0,0,0,0,0,0,0,0,0,0,0,0,0,0,0,0,0,0,0,0,0,0,0,0,0,0,0,0,0,0,0,0],"sum_hessian":[2.304E3,1.929E3,3.75E2,1.272E3,6.57E2,3.2E2,5.5E1,9.67E2,3.05E2,4.63E2,1.94E2,1.82E2,1.38E2,3E1,2.5E1,6.88E2,2.79E2,2.47E2,5.8E1,1.53E2,3.1E2,1.53E2,4.1E1,1.36E2,4.6E1,9.8E1,4E1,2.51E2,4.37E2,2.22E2,5.7E1,6.9E1,1.78E2,3.2E1,2.6E1,1.21E2,3.2E1,3.8E1,2.72E2,1.27E2,2.6E1,1.07E2,2.9E1,6.2E1,3.6E1,2.23E2,2.8E1,2.54E2,1.83E2,1.03E2,1.19E2,3.1E1,2.6E1,2.5E1,4.4E1,9.9E1,7.9E1,8E1,4.1E1,2.24E2,4.8E1,3.4E1,9.3E1,5.1E1,5.6E1,3.5E1,2.7E1],"tree_param":{"num_deleted":"0","num_feature":"503","num_nodes":"67","size_leaf_vector":"1"}},{"base_weights":[-1.5398118E-3,-4.4382638E-1,5.7926416E-1,-7.2460526E-1,-2.5982141E-1,3.5502046E-1,1.3163264E0,-8.7532216E-1,-5.507247E-1,-4.17949E-1,-1.5668355E-1,2.614675E-1,6.208808E-1,1.0579225E0,2.1628668E0,-1.0375079E0,-7.7148885E-1,-4.8527312E-1,-6.430086E-1,-4.598818E-1,-2.2749795E-1,-1.7185065E-1,1.0808366E-2,2.254183E-1,7.254883E-2,7.762381E-1,5.0034964E-1,9.62183E-1,1.3954042E-1,1.5389371E-1,2.6476705E-1,-1.266975E-1,-9.115515E-2,-8.837523E-2,-6.9643486E-1,-3.9710972E-1,-5.7529384E-1,-7.477548E-2,-5.4187274E-1,-4.977478E-1,-3.0761486E-1,-1.1083983E-2,-3.526966E-2,-2.067465E-1,-8.33091E-2,1.5993819E-1,3.444457E-1,6.83584E-2,9.637636E-2,4.271013E-1,6.512599E-2,1.1141567E0,8.4179974E-1,-5.1834818E-2,-7.4326605E-2,-2.9358057E-2,-5.224539E-2,-6.860536E-2,-4.5497265E-2,-3.6432832E-2,-6.937237E-2,-5.5516075E-2,-3.684212E-2,-2.2055535E-2,-3.865057E-2,-2.5087122E-2,-3.927085E-3,-2.2439979E-2,1.7245989E-3,2.336075E-2,7.3192705E-4,4.4170983E-2,1.9723415E-2,3.4403738E-2,4.9974818E-2,8.9221865E-2,1.2434965E-1,7.1249455E-2,9.7604446E-2],"categories":[],"categories_nodes":[],"categories_segments":[],"categories_sizes":[],"default_left":[0,0,0,0,0,0,0,0,0,0,0,0,0,0,0,0,0,0,0,0,0,0,0,0,0,0,0,0,0,0,0,0,0,0,0,0,0,0,0,0,0,0,0,0,0,0,0,0,0,0,0,0,0,0,0,0,0,0,0,0,0,0,0,0,0,0,0,0,0,0,0,0,0,0,0,0,0,0,0],"id":3,"left_children":[1,3,5,7,9,11,13,15,17,19,21,23,25,27,29,31,33,35,37,39,41,43,-1,45,-1,47,49,51,-1,-1,-1,-1,-1,-1,53,55,57,-1,59,61,63,-1,-1,65,67,69,71,-1,-1,73,-1,75,77,-1,-1,-1,-1,-1,-1,-1,-1,-1,-1,-1,-1,-1,-1,-1,-1,-1,-1,-1,-1,-1,-1,-1,-1,-1,-1],"loss_changes":[5.995623E2,6.8267456E1,1.6630182E2,1.3250275E1,1.3014282E1,1.911348E1,4.911795E1,3.8980255E0,1.1738434E0,2.4189987E0,1.9742451E0,9.454815E0,3.375412E0,4.5378265E0,1.2259506E1,1.908783E0,8.5061646E-1,9.4615555E-1,6.435776E-1,1.3344498E0,8.22628E-1,1.4071426E0,0E0,4.1146603E0,0E0,8.354378E-1,1.0041027E0,1.7149048E0,0E0,0E0,0E0,0E0,0E0,0E0,5.2378845E-1,8.5880566E-1,6.340637E-1,0E0,1.2031116E0,1.3175926E0,2.856369E-1,0E0,0E0,2.4287882E0,1.876605E0,3.899726E0,2.6190586E0,0E0,0E0,3.1684875E-1,0E0,6.415558E-1,7.800522E-1,0E0,0E0,0E0,0E0,0E0,0E0,0E0,0E0,0E0,0E0,0E0,0E0,0E0,0E0,0E0,0E0,0E0,0E0,0E0,0E0,0E0,0E0,0E0,0E0,0E0,0E0],"parents":[2147483647,0,0,1,1,2,2,3,3,4,4,5,5,6,6,7,7,8,8,9,9,10,10,11,11,12,12,13,13,14,14,15,15,16,16,17,17,18,18,19,19,20,20,21,21,23,23,25,25,26,26,27,27,34,34,35,35,36,36,38,38,39,39,40,40,43,43,44,44,45,45,46,46,49,49,51,51,52,52],"right_children":[2,4,6,8,10,12,14,16,18,20,22,24,26,28,30,32,34,36,38,40,42,44,-1,46,-1,48,50,52,-1,-1,-1,-1,-1,-1,54,56,58,-1,60,62,64,-1,-1,66,68,70,72,-1,-1,74,-1,76,78,-1,-1,-1,-1,-1,-1,-1,-1,-1,-1,-1,-1,-1,-1,-1,-1,-1,-1,-1,-1,-1,-1,-1,-1,-1,-1],"split_conditions":[3.7E1,1.7E1,1.23E2,1.3E1,2.3E1,7.8E1,3.473793E-7,9E0,1E0,1E0,2E0,5.2224355E-8,6E0,2.39E2,6.767916E-7,1.526E3,1.573E3,1.5E1,1.5E1,1.755E3,2E1,3.2E1,1.0808366E-2,5.9E1,7.254883E-2,9.9E1,1E0,1.1E1,1.3954042E-1,1.5389371E-1,2.6476705E-1,-1.266975E-1,-9.115515E-2,-8.837523E-2,1.621E3,1.43E2,1.01E2,-7.477548E-2,7.3E1,2.1E1,1.3E2,-1.1083983E-2,-3.526966E-2,1E0,1.609E3,4E0,5E0,6.83584E-2,9.637636E-2,9.66872E-9,6.512599E-2,1E0,1.74E2,-5.1834818E-2,-7.4326605E-2,-2.9358057E-2,-5.224539E-2,-6.860536E-2,-4.5497265E-2,-3.6432832E-2,-6.937237E-2,-5.5516075E-2,-3.684212E-2,-2.2055535E-2,-3.865057E-2,-2.5087122E-2,-3.927085E-3,-2.2439979E-2,1.7245989E-3,2.336075E-2,7.3192705E-4,4.4170983E-2,1.9723415E-2,3.4403738E-2,4.9974818E-2,8.9221865E-2,1.2434965E-1,7.1249455E-2,9.7604446E-2],"split_indices":[1,1,1,1,1,1,17,1,18,312,49,17,32,1,11,2,2,1,1,2,1,1,0,1,0,1,47,32,0,0,0,0,0,0,2,0,0,0,0,1,0,0,0,142,2,32,32,0,0,12,0,82,1,0,0,0,0,0,0,0,0,0,0,0,0,0,0,0,0,0,0,0,0,0,0,0,0,0,0],"split_type":[0,0,0,0,0,0,0,0,0,0,0,0,0,0,0,0,0,0,0,0,0,0,0,0,0,0,0,0,0,0,0,0,0,0,0,0,0,0,0,0,0,0,0,0,0,0,0,0,0,0,0,0,0,0,0,0,0,0,0,0,0,0,0,0,0,0,0,0,0,0,0,0,0,0,0,0,0,0,0],"sum_hessian":[2.332E3,1.324E3,1.008E3,5.23E2,8.01E2,7.74E2,2.34E2,2.78E2,2.45E2,3.15E2,4.86E2,5.74E2,2E2,1.81E2,5.3E1,1.05E2,1.73E2,1.47E2,9.8E1,2.57E2,5.8E1,4.6E2,2.6E1,5.34E2,4E1,8.5E1,1.15E2,1.44E2,3.7E1,2.5E1,2.8E1,3.4E1,7.1E1,6.5E1,1.08E2,7.7E1,7E1,4.5E1,5.3E1,2.04E2,5.3E1,3.1E1,2.7E1,3.29E2,1.31E2,3.46E2,1.88E2,6E1,2.5E1,8E1,3.5E1,6E1,8.4E1,2.5E1,8.3E1,4.4E1,3.3E1,3.4E1,3.6E1,2.6E1,2.7E1,1.39E2,6.5E1,2.7E1,2.6E1,2.6E2,6.9E1,5.4E1,7.7E1,2.33E2,1.13E2,1.12E2,7.6E1,4E1,4E1,2.5E1,3.5E1,4.6E1,3.8E1],"tree_param":{"num_deleted":"0","num_feature":"503","num_nodes":"79","size_leaf_vector":"1"}},{"base_weights":[3.8900771E-3,-1.5083233E-1,1.0467061E0,-2.823421E-1,2.8523806E-1,8.734731E-1,2.090055E-1,-3.53781E-1,-1.3200464E-2,1.4806007E-1,4.522706E-1,6.7784834E-1,1.1931984E0,-4.0342486E-1,-3.8150612E-2,-1.7012942E-1,1.8251371E-1,9.485619E-2,3.392303E-1,3.8195565E-1,7.525838E-2,5.856554E-1,9.9827826E-2,1.0881213E-1,1.4382891E-1,-4.675618E-1,-2.1473196E-1,-1.518964E-1,2.858579E-2,-2.995593E-1,9.803731E-2,1.1268003E-1,4.861259E-2,5.6538384E-2,2.9904759E-2,2.415677E-2,4.1581895E-2,2.3345742E-1,5.4390544E-1,3.0870473E-2,6.73838E-1,-5.272455E-2,-2.932403E-2,-2.8190637E-2,1.2889731E-2,-2.7872894E-2,2.9744238E-2,-4.7434404E-2,-7.483735E-3,-1.3435571E-2,3.510904E-2,2.3652709E-3,3.1175075E-2,-3.565012E-3,1.8331235E-2,1.6437782E-2,3.9367214E-2,4.444858E-2,7.4094445E-2,5.797719E-2,8.387005E-2],"categories":[],"categories_nodes":[],"categories_segments":[],"categories_sizes":[],"default_left":[0,0,0,0,0,0,0,0,0,0,0,0,0,0,0,0,0,0,0,0,0,0,0,0,0,0,0,0,0,0,0,0,0,0,0,0,0,0,0,0,0,0,0,0,0,0,0,0,0,0,0,0,0,0,0,0,0,0,0,0,0],"id":4,"left_children":[1,3,5,7,9,11,-1,13,15,17,19,21,23,25,27,29,31,33,35,37,-1,39,-1,-1,-1,41,43,45,-1,47,49,51,-1,53,-1,-1,-1,55,57,-1,59,-1,-1,-1,-1,-1,-1,-1,-1,-1,-1,-1,-1,-1,-1,-1,-1,-1,-1,-1,-1],"loss_changes":[3.7464426E2,1.16037224E2,5.2397156E1,2.9874374E1,1.0679325E1,1.53906555E1,0E0,1.9226273E1,1.0074274E1,2.6021094E0,4.168125E0,4.2305984E0,9.3304443E-1,1.2740036E1,6.234994E0,6.3463674E0,3.0407677E0,1.5792223E0,3.1842327E-1,4.0335407E0,0E0,2.9424553E0,0E0,0E0,0E0,8.075073E0,6.291855E0,7.206753E0,0E0,4.7956924E0,3.5756373E0,2.1193542E0,0E0,2.0284038E0,0E0,0E0,0E0,9.535055E-1,1.2770042E0,0E0,1.0180168E0,0E0,0E0,0E0,0E0,0E0,0E0,0E0,0E0,0E0,0E0,0E0,0E0,0E0,0E0,0E0,0E0,0E0,0E0,0E0,0E0],"parents":[2147483647,0,0,1,1,2,2,3,3,4,4,5,5,7,7,8,8,9,9,10,10,11,11,12,12,13,13,14,14,15,15,16,16,17,17,18,18,19,19,21,21,25,25,26,26,27,27,29,29,30,30,31,31,33,33,37,37,38,38,40,40],"right_children":[2,4,6,8,10,12,-1,14,16,18,20,22,24,26,28,30,32,34,36,38,-1,40,-1,-1,-1,42,44,46,-1,48,50,52,-1,54,-1,-1,-1,56,58,-1,60,-1,-1,-1,-1,-1,-1,-1,-1,-1,-1,-1,-1,-1,-1,-1,-1,-1,-1,-1,-1],"split_conditions":[6E0,4E0,3E0,1E0,7E0,1E1,2.090055E-1,1E0,2E0,4E0,2E0,2E0,9.437696E-8,1E0,1E0,2E0,8.9420204E-4,1E0,1E0,1E0,7.525838E-2,4E0,9.9827826E-2,1.0881213E-1,1.4382891E-1,1E0,2E0,3E0,2.858579E-2,1E0,1E0,1E0,4.861259E-2,1E0,2.9904759E-2,2.415677E-2,4.1581895E-2,1E0,2E0,3.0870473E-2,1E0,-5.272455E-2,-2.932403E-2,-2.8190637E-2,1.2889731E-2,-2.7872894E-2,2.9744238E-2,-4.7434404E-2,-7.483735E-3,-1.3435571E-2,3.510904E-2,2.3652709E-3,3.1175075E-2,-3.565012E-3,1.8331235E-2,1.6437782E-2,3.9367214E-2,4.444858E-2,7.4094445E-2,5.797719E-2,8.387005E-2],"split_indices":[27,30,180,331,30,27,0,320,27,27,150,82,15,39,150,122,10,280,51,207,0,30,0,0,0,26,18,27,0,18,191,221,0,51,0,0,0,304,142,0,304,0,0,0,0,0,0,0,0,0,0,0,0,0,0,0,0,0,0,0,0],"split_type":[0,0,0,0,0,0,0,0,0,0,0,0,0,0,0,0,0,0,0,0,0,0,0,0,0,0,0,0,0,0,0,0,0,0,0,0,0,0,0,0,0,0,0,0,0,0,0,0,0,0,0,0,0,0,0,0,0,0,0,0,0],"sum_hessian":[2.32E3,2.021E3,2.99E2,1.553E3,4.68E2,2.58E2,4.1E1,1.227E3,3.26E2,2.58E2,2.1E2,1.62E2,9.6E1,1.06E3,1.67E2,1.81E2,1.45E2,2.03E2,5.5E1,1.72E2,3.8E1,1.28E2,3.4E1,7.1E1,2.5E1,7.9E2,2.7E2,1.24E2,4.3E1,1.22E2,5.9E1,1.19E2,2.6E1,1.72E2,3.1E1,2.6E1,2.9E1,9.1E1,8.1E1,3.2E1,9.6E1,5.87E2,2.03E2,2.26E2,4.4E1,9.7E1,2.7E1,6.8E1,5.4E1,3.1E1,2.8E1,8.3E1,3.6E1,1E2,7.2E1,6.5E1,2.6E1,5.6E1,2.5E1,6.4E1,3.2E1],"tree_param":{"num_deleted":"0","num_feature":"503","num_nodes":"61","size_leaf_vector":"1"}},{"base_weights":[1.0890787E-3,-3.7422326E-1,4.8592728E-1,-7.416762E-1,-2.7039444E-1,3.036663E-1,1.057943E0,-9.35761E-1,-6.3095397E-1,-3.9595568E-1,-1.0047384E-1,2.1569188E-1,4.8641255E-1,9.1327906E-1,2.1619716E-1,-1.0515772E0,-5.9997488E-2,-5.7896644E-1,-9.214361E-2,-4.637916E-1,-1.8369564E-1,-1.6307059E-1,7.6706973E-3,1.8506122E-1,5.664556E-2,4.296515E-1,7.694294E-2,7.64718E-1,1.1333073E0,-8.4798165E-2,-1.222989E-1,-7.011313E-1,-4.4663748E-1,-5.0144684E-1,-2.8013113E-1,-3.1850716E-1,-1.0110511E-1,-2.1167089E-1,1.8658394E-2,-7.097517E-2,1.4386235E-1,4.4551473E-2,2.3977712E-1,5.3943354E-1,3.2195166E-1,6.6980773E-1,9.811688E-2,8.983176E-2,1.3425401E-1,-8.21128E-2,-5.9652682E-2,-2.813007E-2,-6.174797E-2,-5.4086216E-2,-3.0269383E-2,-3.6014766E-2,-1.0316866E-2,-4.0176164E-2,-2.3573643E-2,-2.1076383E-2,-4.7765137E-4,-5.8341864E-3,-2.7800014E-2,-9.2421295E-3,1.5784547E-2,-1.804608E-2,1.0166029E-2,-3.0402543E-3,3.311939E-2,-1.327056E-2,1.015247E-2,3.1528115E-2,1.4226697E-2,7.150048E-2,4.359693E-2,2.5961189E-2,4.332373E-2,7.9658605E-2,5.627631E-2],"categories":[],"categories_nodes":[],"categories_segments":[],"categories_sizes":[],"default_left":[0,0,0,0,0,0,0,0,0,0,0,0,0,0,0,0,0,0,0,0,0,0,0,0,0,0,0,0,0,0,0,0,0,0,0,0,0,0,0,0,0,0,0,0,0,0,0,0,0,0,0,0,0,0,0,0,0,0,0,0,0,0,0,0,0,0,0,0,0,0,0,0,0,0,0,0,0,0,0],"id":5,"left_children":[1,3,5,7,9,11,13,15,17,19,21,23,25,27,-1,29,-1,31,-1,33,35,37,39,41,-1,43,-1,45,47,-1,-1,49,51,53,55,57,59,61,63,65,67,69,71,73,75,77,-1,-1,-1,-1,-1,-1,-1,-1,-1,-1,-1,-1,-1,-1,-1,-1,-1,-1,-1,-1,-1,-1,-1,-1,-1,-1,-1,-1,-1,-1,-1,-1,-1],"loss_changes":[4.2871118E2,5.046559E1,1.0685405E2,5.6845245E0,2.2085075E1,1.2451218E1,3.76344E1,3.4135895E0,2.320694E0,8.496521E0,2.9933677E0,5.5788136E0,3.7336884E0,6.357315E0,0E0,1.6152267E0,0E0,2.3218918E0,0E0,2.9785385E0,1.5933838E0,2.476933E0,1.7560892E0,3.7411175E0,0E0,2.344738E0,0E0,2.1161652E0,3.0715485E0,0E0,0E0,5.5200195E-1,2.1142693E0,2.7583313E0,1.0814776E0,2.8429747E-1,9.70814E-1,2.2313957E0,9.422397E-1,1.98406E0,1.9687877E0,1.4071223E0,2.5393524E0,1.5774765E0,6.5065384E-1,8.680992E-1,0E0,0E0,0E0,0E0,0E0,0E0,0E0,0E0,0E0,0E0,0E0,0E0,0E0,0E0,0E0,0E0,0E0,0E0,0E0,0E0,0E0,0E0,0E0,0E0,0E0,0E0,0E0,0E0,0E0,0E0,0E0,0E0,0E0],"parents":[2147483647,0,0,1,1,2,2,3,3,4,4,5,5,6,6,7,7,8,8,9,9,10,10,11,11,12,12,13,13,15,15,17,17,19,19,20,20,21,21,22,22,23,23,25,25,27,27,28,28,31,31,32,32,33,33,34,34,35,35,36,36,37,37,38,38,39,39,40,40,41,41,42,42,43,43,44,44,45,45],"right_children":[2,4,6,8,10,12,14,16,18,20,22,24,26,28,-1,30,-1,32,-1,34,36,38,40,42,-1,44,-1,46,48,-1,-1,50,52,54,56,58,60,62,64,66,68,70,72,74,76,78,-1,-1,-1,-1,-1,-1,-1,-1,-1,-1,-1,-1,-1,-1,-1,-1,-1,-1,-1,-1,-1,-1,-1,-1,-1,-1,-1,-1,-1,-1,-1,-1,-1],"split_conditions":[3.7E1,1.3E1,1.23E2,9E0,2.4E1,7.3E1,4.45E2,1E0,4.2890324E-8,2E0,2E0,3.1723186E-8,1.3597194E-7,2E0,2.1619716E-1,1.7164105E-1,-5.9997488E-2,3.91289E-8,-9.214361E-2,2.6595796E-7,1.7E1,8.791063E-8,1.751E3,3.989637E-8,5.664556E-2,1E0,7.694294E-2,1.2E1,2E0,-8.4798165E-2,-1.222989E-1,1.1E1,1E0,1E0,6.761122E-8,3.6257966E-8,9.4E1,3.08622E-8,5.0440974E-8,2.1931495E-8,3.2E1,4.1E1,4E0,2E0,1E0,1.709E3,9.811688E-2,8.983176E-2,1.3425401E-1,-8.21128E-2,-5.9652682E-2,-2.813007E-2,-6.174797E-2,-5.4086216E-2,-3.0269383E-2,-3.6014766E-2,-1.0316866E-2,-4.0176164E-2,-2.3573643E-2,-2.1076383E-2,-4.7765137E-4,-5.8341864E-3,-2.7800014E-2,-9.2421295E-3,1.5784547E-2,-1.804608E-2,1.0166029E-2,-3.0402543E-3,3.311939E-2,-1.327056E-2,1.015247E-2,3.1528115E-2,1.4226697E-2,7.150048E-2,4.359693E-2,2.5961189E-2,4.332373E-2,7.9658605E-2,5.627631E-2],"split_indices":[1,1,1,1,1,1,1,69,6,69,69,15,3,164,0,4,0,3,0,8,1,3,2,3,0,111,0,27,182,0,0,1,27,312,6,3,0,3,8,8,1,1,32,81,312,2,0,0,0,0,0,0,0,0,0,0,0,0,0,0,0,0,0,0,0,0,0,0,0,0,0,0,0,0,0,0,0,0,0],"split_type":[0,0,0,0,0,0,0,0,0,0,0,0,0,0,0,0,0,0,0,0,0,0,0,0,0,0,0,0,0,0,0,0,0,0,0,0,0,0,0,0,0,0,0,0,0,0,0,0,0,0,0,0,0,0,0,0,0,0,0,0,0,0,0,0,0,0,0,0,0,0,0,0,0,0,0,0,0,0,0],"sum_hessian":[2.354E3,1.327E3,1.027E3,2.91E2,1.036E3,7.8E2,2.47E2,1.03E2,1.88E2,5.95E2,4.41E2,5.28E2,2.52E2,2.2E2,2.7E1,7.5E1,2.8E1,1.62E2,2.6E1,4.5E2,1.45E2,2.79E2,1.62E2,4.87E2,4.1E1,2.12E2,4E1,1.34E2,8.6E1,3.7E1,3.8E1,8.2E1,8E1,3.72E2,7.8E1,5.4E1,9.1E1,2.2E2,5.9E1,1.03E2,5.9E1,1.37E2,3.5E2,1.03E2,1.09E2,9.6E1,3.8E1,4.3E1,4.3E1,3.5E1,4.7E1,4.2E1,3.8E1,3.09E2,6.3E1,5.3E1,2.5E1,2.5E1,2.9E1,4.2E1,4.9E1,6.7E1,1.53E2,3.3E1,2.6E1,6.3E1,4E1,3.1E1,2.8E1,3.3E1,1.04E2,1.96E2,1.54E2,3.6E1,6.7E1,7.2E1,3.7E1,4.1E1,5.5E1],"tree_param":{"num_deleted":"0","num_feature":"503","num_nodes":"79","size_leaf_vector":"1"}},{"base_weights":[-1.9927253E-3,-2.1021912E-1,4.467152E-1,-3.576656E-1,-3.9448503E-2,3.225394E-1,1.369331E0,-4.051169E-1,-7.080395E-2,-1.5017773E-1,3.217696E-1,1.9051318E-1,6.0820353E-1,9.908151E-2,1.930229E-1,-7.327502E-1,-3.7786105E-1,-1.7919481E-1,1.8304517E-2,-2.3589392E-1,1.4966027E-1,5.7729584E-1,1.2493892E-1,1.467625E-1,5.868997E-2,4.6956742E-1,8.9306486E-1,-6.2208977E-2,-8.3225265E-2,-3.948038E-1,-1.2606874E-3,-1.8745194E-3,-2.9434362E-2,-2.9313514E-1,2.469836E-3,-1.4838116E-2,2.2863485E-1,3.3411086E-2,7.505007E-2,2.4808115E-1,-1.6655758E-2,1.1021605E-1,3.9133155E-1,6.549735E-2,3.625359E-1,6.693014E-2,1.0839806E-1,-4.3627817E-2,-2.3896862E-2,-3.317226E-2,1.3466681E-2,-1.4516242E-2,2.3252983E-2,4.8228214E-3,3.695217E-2,1.50612965E-2,4.0723454E-2,1.44381365E-2,-1.20196305E-2,3.0436838E-2,4.605801E-2,2.6067818E-2,5.180603E-2],"categories":[],"categories_nodes":[],"categories_segments":[],"categories_sizes":[],"default_left":[0,0,0,0,0,0,0,0,0,0,0,0,0,0,0,0,0,0,0,0,0,0,0,0,0,0,0,0,0,0,0,0,0,0,0,0,0,0,0,0,0,0,0,0,0,0,0,0,0,0,0,0,0,0,0,0,0,0,0,0,0,0,0],"id":6,"left_children":[1,3,5,7,9,11,13,15,17,19,21,23,25,-1,-1,27,29,31,-1,33,35,37,39,41,-1,43,45,-1,-1,47,-1,-1,-1,49,51,-1,53,-1,-1,55,-1,57,59,-1,61,-1,-1,-1,-1,-1,-1,-1,-1,-1,-1,-1,-1,-1,-1,-1,-1,-1,-1],"loss_changes":[2.169515E2,3.9920616E1,8.387935E1,1.1555092E1,2.9486408E1,2.439898E1,1.6558365E1,6.241974E0,3.3896213E0,1.4530651E1,8.628979E0,7.6484737E0,7.6765137E0,0E0,0E0,8.786583E-2,4.178383E0,1.5833826E0,0E0,5.9905434E0,2.9996746E0,2.90831E0,3.5949771E0,3.558936E0,0E0,2.5407524E0,2.0940094E0,0E0,0E0,4.0709534E0,0E0,0E0,0E0,5.8884277E0,2.9546819E0,0E0,2.5238714E0,0E0,0E0,1.0245328E0,0E0,2.7883372E0,1.7296171E-1,0E0,1.3065166E0,0E0,0E0,0E0,0E0,0E0,0E0,0E0,0E0,0E0,0E0,0E0,0E0,0E0,0E0,0E0,0E0,0E0,0E0],"parents":[2147483647,0,0,1,1,2,2,3,3,4,4,5,5,6,6,7,7,8,8,9,9,10,10,11,11,12,12,15,15,16,16,17,17,19,19,20,20,21,21,22,22,23,23,25,25,26,26,29,29,33,33,34,34,36,36,39,39,41,41,42,42,44,44],"right_children":[2,4,6,8,10,12,14,16,18,20,22,24,26,-1,-1,28,30,32,-1,34,36,38,40,42,-1,44,46,-1,-1,48,-1,-1,-1,50,52,-1,54,-1,-1,56,-1,58,60,-1,62,-1,-1,-1,-1,-1,-1,-1,-1,-1,-1,-1,-1,-1,-1,-1,-1,-1,-1],"split_conditions":[4E0,1E0,1.2050885E-5,6.023818E-6,5.4436878E-6,6.389163E-6,3.473793E-7,1.6326439E-8,2.2972017E-7,1E0,2.65E2,2E0,2E0,9.908151E-2,1.930229E-1,3E1,1E0,1.4134362E-1,1.8304517E-2,1E0,3.9665032E-8,2E0,5.6E2,1.2E1,5.868997E-2,2.21E2,2E0,-6.2208977E-2,-8.3225265E-2,1E0,-1.2606874E-3,-1.8745194E-3,-2.9434362E-2,1.13234705E-7,1E0,-1.4838116E-2,3.2657408E-6,3.3411086E-2,7.505007E-2,4.9887046E-8,-1.6655758E-2,3.92E2,4.566086E-6,6.549735E-2,1E0,6.693014E-2,1.0839806E-1,-4.3627817E-2,-2.3896862E-2,-3.317226E-2,1.3466681E-2,-1.4516242E-2,2.3252983E-2,4.8228214E-3,3.695217E-2,1.50612965E-2,4.0723454E-2,1.44381365E-2,-1.20196305E-2,3.0436838E-2,4.605801E-2,2.6067818E-2,5.180603E-2],"split_indices":[30,32,5,5,5,5,17,3,8,320,0,82,164,0,0,0,482,4,0,204,3,30,0,30,0,0,82,0,0,39,0,0,0,3,211,0,5,0,0,3,0,0,5,0,320,0,0,0,0,0,0,0,0,0,0,0,0,0,0,0,0,0,0],"split_type":[0,0,0,0,0,0,0,0,0,0,0,0,0,0,0,0,0,0,0,0,0,0,0,0,0,0,0,0,0,0,0,0,0,0,0,0,0,0,0,0,0,0,0,0,0,0,0,0,0,0,0,0,0,0,0,0,0,0,0,0,0,0,0],"sum_hessian":[2.32E3,1.585E3,7.35E2,8.5E2,7.35E2,6.49E2,8.6E1,7.29E2,1.21E2,5.63E2,1.72E2,4.45E2,2.04E2,5.3E1,3.3E1,5.4E1,6.75E2,8.5E1,3.6E1,4.38E2,1.25E2,7.4E1,9.8E1,4.02E2,4.3E1,1.39E2,6.5E1,2.9E1,2.5E1,6.45E2,3E1,3.6E1,4.9E1,3.53E2,8.5E1,2.6E1,9.9E1,3.2E1,4.2E1,6.9E1,2.9E1,3.51E2,5.1E1,4.9E1,9E1,3.2E1,3.3E1,5.08E2,1.37E2,3.24E2,2.9E1,5.2E1,3.3E1,4.4E1,5.5E1,4.4E1,2.5E1,3.06E2,4.5E1,2.5E1,2.6E1,5.6E1,3.4E1],"tree_param":{"num_deleted":"0","num_feature":"503","num_nodes":"63","size_leaf_vector":"1"}},{"base_weights":[-6.5684444E-3,-2.903258E-1,4.267397E-1,-5.267501E-1,-1.4976802E-1,2.831151E-1,9.745216E-1,-7.703164E-1,-4.267008E-1,-2.3554043E-1,-5.8989648E-2,1.8890029E-1,4.6842816E-1,7.565464E-1,1.5945213E-1,-8.7914103E-1,-4.992741E-2,-4.7479534E-1,-2.558364E-1,-2.9982808E-1,-6.182472E-2,-3.1022474E-3,-1.7991683E-1,2.5107783E-1,6.681947E-2,6.528738E-1,4.0265986E-1,9.6664295E-2,6.8339986E-1,-1.0201377E-1,-7.563913E-1,-4.118987E-1,-5.9691495E-1,-1.424568E-1,-4.320834E-2,-2.3073202E-1,-3.9466283E-1,-1.3971475E-1,1.8169517E-2,-3.71645E-2,3.1816695E-2,-1.1196631E-1,-4.1174646E-2,2.9992548E-1,1.1638324E-1,2.4984159E-2,2.8629843E-2,7.899676E-2,4.459017E-2,6.1096575E-2,3.6536106E-1,5.407248E-1,8.0157E-1,-5.5913586E-2,-9.35009E-2,-5.026204E-2,-3.351327E-2,-6.6280656E-2,-4.592034E-2,-1.8151447E-2,-9.641781E-3,-2.610905E-2,-4.467761E-3,-3.551869E-2,-5.408735E-2,-2.2768874E-2,4.357804E-3,-2.748591E-4,-3.271433E-2,-2.0967148E-2,-5.1054596E-3,3.388184E-2,1.1047765E-2,3.300114E-3,2.429382E-2,-1.1256356E-2,7.6487423E-3,4.241955E-2,2.8503075E-2,6.676578E-2,3.8811278E-2,9.172421E-2,6.668904E-2],"categories":[],"categories_nodes":[],"categories_segments":[],"categories_sizes":[],"default_left":[0,0,0,0,0,0,0,0,0,0,0,0,0,0,0,0,0,0,0,0,0,0,0,0,0,0,0,0,0,0,0,0,0,0,0,0,0,0,0,0,0,0,0,0,0,0,0,0,0,0,0,0,0,0,0,0,0,0,0,0,0,0,0,0,0,0,0,0,0,0,0,0,0,0,0,0,0,0,0,0,0,0,0],"id":7,"left_children":[1,3,5,7,9,11,13,15,17,19,21,23,25,27,-1,29,-1,31,33,35,37,39,41,43,45,47,49,-1,51,-1,53,55,57,59,-1,61,63,65,-1,67,-1,69,-1,71,73,75,-1,-1,-1,-1,77,79,81,-1,-1,-1,-1,-1,-1,-1,-1,-1,-1,-1,-1,-1,-1,-1,-1,-1,-1,-1,-1,-1,-1,-1,-1,-1,-1,-1,-1,-1,-1],"loss_changes":[2.8181235E2,4.594641E1,7.1082306E1,1.2245514E1,6.76017E0,1.2482159E1,2.4200836E1,3.9559784E0,2.9026184E0,4.973461E0,2.8649638E0,3.6191616E0,2.6727371E0,1.5062637E0,0E0,1.0456543E0,0E0,1.950882E0,1.5970197E0,2.0451183E0,2.3394535E0,3.196282E0,2.0647926E0,2.0508003E0,1.4895079E0,1.4069767E0,1.1830673E0,0E0,1.3874435E0,0E0,1.591198E0,1.1687088E0,5.576668E-1,7.600391E-2,0E0,1.0671663E0,5.9285545E-1,1.5095469E0,0E0,2.6337903E0,0E0,6.141912E-1,0E0,1.6719837E0,8.994905E-1,9.862232E-1,0E0,0E0,0E0,0E0,6.1637497E-1,7.481909E-1,2.7628708E-1,0E0,0E0,0E0,0E0,0E0,0E0,0E0,0E0,0E0,0E0,0E0,0E0,0E0,0E0,0E0,0E0,0E0,0E0,0E0,0E0,0E0,0E0,0E0,0E0,0E0,0E0,0E0,0E0,0E0,0E0],"parents":[2147483647,0,0,1,1,2,2,3,3,4,4,5,5,6,6,7,7,8,8,9,9,10,10,11,11,12,12,13,13,15,15,17,17,18,18,19,19,20,20,21,21,22,22,23,23,24,24,25,25,26,26,28,28,30,30,31,31,32,32,33,33,35,35,36,36,37,37,39,39,41,41,43,43,44,44,45,45,50,50,51,51,52,52],"right_children":[2,4,6,8,10,12,14,16,18,20,22,24,26,28,-1,30,-1,32,34,36,38,40,42,44,46,48,50,-1,52,-1,54,56,58,60,-1,62,64,66,-1,68,-1,70,-1,72,74,76,-1,-1,-1,-1,78,80,82,-1,-1,-1,-1,-1,-1,-1,-1,-1,-1,-1,-1,-1,-1,-1,-1,-1,-1,-1,-1,-1,-1,-1,-1,-1,-1,-1,-1,-1,-1],"split_conditions":[4.1E1,1.7E1,1.39E2,1E1,2.6E1,7.8E1,3.22E2,1E0,2E0,2E0,2E0,3E0,2E0,1.2E1,1.5945213E-1,4.4E1,-4.992741E-2,1E0,2.75E2,1E0,1E0,7.205651E-8,1E0,1E0,2.2740673E-8,3.780936E-8,4E0,9.6664295E-2,1.94E2,-1.0201377E-1,1.17E2,1.3E1,1.5E1,3.3E1,-4.320834E-2,1E0,1.581605E-2,3E0,1.8169517E-2,1E0,3.1816695E-2,3.1E1,-4.1174646E-2,2E0,5.9E1,1E0,2.8629843E-2,7.899676E-2,4.459017E-2,6.1096575E-2,9E0,1.5E1,2E0,-5.5913586E-2,-9.35009E-2,-5.026204E-2,-3.351327E-2,-6.6280656E-2,-4.592034E-2,-1.8151447E-2,-9.641781E-3,-2.610905E-2,-4.467761E-3,-3.551869E-2,-5.408735E-2,-2.2768874E-2,4.357804E-3,-2.748591E-4,-3.271433E-2,-2.0967148E-2,-5.1054596E-3,3.388184E-2,1.1047765E-2,3.300114E-3,2.429382E-2,-1.1256356E-2,7.6487423E-3,4.241955E-2,2.8503075E-2,6.676578E-2,3.8811278E-2,9.172421E-2,6.668904E-2],"split_indices":[1,1,1,1,1,1,1,69,69,69,122,122,122,30,0,0,0,18,0,122,312,6,111,111,9,6,30,0,1,0,0,1,1,0,0,312,7,69,0,106,0,1,0,191,1,69,0,0,0,0,32,32,56,0,0,0,0,0,0,0,0,0,0,0,0,0,0,0,0,0,0,0,0,0,0,0,0,0,0,0,0,0,0],"split_type":[0,0,0,0,0,0,0,0,0,0,0,0,0,0,0,0,0,0,0,0,0,0,0,0,0,0,0,0,0,0,0,0,0,0,0,0,0,0,0,0,0,0,0,0,0,0,0,0,0,0,0,0,0,0,0,0,0,0,0,0,0,0,0,0,0,0,0,0,0,0,0,0,0,0,0,0,0,0,0,0,0,0,0],"sum_hessian":[2.29E3,1.384E3,9.06E2,5.15E2,8.69E2,7.19E2,1.87E2,1.48E2,3.67E2,4.46E2,4.23E2,4.78E2,2.41E2,1.4E2,4.7E1,1.04E2,4.4E1,2.85E2,8.2E1,3.25E2,1.21E2,2.9E2,1.33E2,3.16E2,1.62E2,6.1E1,1.8E2,3.3E1,1.07E2,4.5E1,5.9E1,1.91E2,9.4E1,5.1E1,3.1E1,1.9E2,1.35E2,9.2E1,2.9E1,2.63E2,2.7E1,1.04E2,2.9E1,2.31E2,8.5E1,1.37E2,2.5E1,3.5E1,2.6E1,2.5E1,1.55E2,5.1E1,5.6E1,3E1,2.9E1,8.5E1,1.06E2,6.1E1,3.3E1,2.6E1,2.5E1,1.63E2,2.7E1,1.09E2,2.6E1,6.2E1,3E1,2.36E2,2.7E1,3.9E1,6.5E1,1.91E2,4E1,5.2E1,3.3E1,3.7E1,1E2,8.7E1,6.8E1,2.6E1,2.5E1,2.7E1,2.9E1],"tree_param":{"num_deleted":"0","num_feature":"503","num_nodes":"83","size_leaf_vector":"1"}},{"base_weights":[-3.8058308E-4,-2.8507668E-1,3.7892616E-1,-4.083236E-1,-9.825109E-2,2.541681E-1,8.8758075E-1,-7.348196E-1,-3.6116013E-1,-1.8098481E-1,4.575193E-2,1.959478E-1,4.284274E-1,7.1735466E-1,1.5905036E-1,-8.3889705E-1,-4.5467068E-2,-4.01578E-1,-2.1801941E-1,-2.2587414E-1,-1.2155542E-2,9.181307E-2,-1.7896123E-2,1.6672209E-1,4.6989793E-1,3.1763944E-1,5.690159E-1,6.303112E-1,1.098974E-1,-1.0150077E-1,-6.394837E-2,-4.251297E-1,-1.4409749E-3,-2.6747936E-1,-8.297301E-3,-1.3543648E-1,-2.713541E-1,1.5962174E-2,-1.9340135E-2,1.460725E-1,-1.4818025E-2,3.1999665E-1,1.179541E-1,5.8032062E-2,3.5117354E-2,2.2373612E-1,4.1259682E-1,8.146354E-2,4.2288706E-1,5.4967684E-1,7.499453E-2,-6.7824826E-2,-4.1010004E-2,-4.543474E-2,-1.7780337E-2,5.8870395E-3,-2.5445974E-2,-2.090298E-2,-3.8338065E-2,9.272793E-3,3.0820956E-2,1.5348163E-2,4.1883312E-2,7.975796E-3,2.9133974E-2,3.2816824E-2,1.1184616E-2,5.210346E-2,2.9741002E-2,5.2111596E-2,2.8950308E-2,4.196007E-2,6.205153E-2],"categories":[],"categories_nodes":[],"categories_segments":[],"categories_sizes":[],"default_left":[0,0,0,0,0,0,0,0,0,0,0,0,0,0,0,0,0,0,0,0,0,0,0,0,0,0,0,0,0,0,0,0,0,0,0,0,0,0,0,0,0,0,0,0,0,0,0,0,0,0,0,0,0,0,0,0,0,0,0,0,0,0,0,0,0,0,0,0,0,0,0,0,0],"id":8,"left_children":[1,3,5,7,9,11,13,15,17,19,21,23,25,27,-1,29,-1,31,33,35,37,39,-1,41,43,45,47,49,-1,-1,-1,51,-1,53,-1,55,57,-1,-1,59,-1,61,63,-1,-1,65,67,-1,69,71,-1,-1,-1,-1,-1,-1,-1,-1,-1,-1,-1,-1,-1,-1,-1,-1,-1,-1,-1,-1,-1,-1,-1],"loss_changes":[2.4858646E2,3.023864E1,6.240822E1,1.1930374E1,6.2511673E0,7.9715195E0,2.2072266E1,2.5051384E0,3.9275513E0,2.5209389E0,2.0037353E0,4.7014713E0,2.9032097E0,4.5556717E0,0E0,1.8443604E0,0E0,4.917839E0,1.0131121E0,1.0449944E0,2.2413788E0,2.1051497E0,0E0,4.006173E0,5.434694E-1,9.15287E-1,2.74222E0,8.514786E-1,0E0,0E0,0E0,1.6582336E0,0E0,1.8128214E0,0E0,2.0964136E0,1.1347265E0,0E0,0E0,1.1044567E0,0E0,2.0752249E0,2.7052999E0,0E0,0E0,6.5270495E-1,5.320215E-1,0E0,5.8285713E-1,4.9521255E-1,0E0,0E0,0E0,0E0,0E0,0E0,0E0,0E0,0E0,0E0,0E0,0E0,0E0,0E0,0E0,0E0,0E0,0E0,0E0,0E0,0E0,0E0,0E0],"parents":[2147483647,0,0,1,1,2,2,3,3,4,4,5,5,6,6,7,7,8,8,9,9,10,10,11,11,12,12,13,13,15,15,17,17,18,18,19,19,20,20,21,21,23,23,24,24,25,25,26,26,27,27,31,31,33,33,35,35,36,36,39,39,41,41,42,42,45,45,46,46,48,48,49,49],"right_children":[2,4,6,8,10,12,14,16,18,20,22,24,26,28,-1,30,-1,32,34,36,38,40,-1,42,44,46,48,50,-1,-1,-1,52,-1,54,-1,56,58,-1,-1,60,-1,62,64,-1,-1,66,68,-1,70,72,-1,-1,-1,-1,-1,-1,-1,-1,-1,-1,-1,-1,-1,-1,-1,-1,-1,-1,-1,-1,-1,-1,-1],"split_conditions":[3.7E1,2.2E1,1.39E2,9E0,2E0,8.4E1,4.963134E-7,1E0,2E0,8.791063E-8,2E0,3.877214E-8,6E0,1.9534421E-7,1.5905036E-1,4.4E1,-4.5467068E-2,1E0,3E0,3.193389E-8,1E0,1E0,-1.7896123E-2,1E0,5.8E1,1E0,2E0,1.3E1,1.098974E-1,-1.0150077E-1,-6.394837E-2,1.4564611E-8,-1.4409749E-3,3.112143E-8,-8.297301E-3,1E0,1.81E2,1.5962174E-2,-1.9340135E-2,8.202916E-8,-1.4818025E-2,5.756876E-8,1E0,5.8032062E-2,3.5117354E-2,1E0,1.56E2,8.146354E-2,3.95019E-9,2.06E2,7.499453E-2,-6.7824826E-2,-4.1010004E-2,-4.543474E-2,-1.7780337E-2,5.8870395E-3,-2.5445974E-2,-2.090298E-2,-3.8338065E-2,9.272793E-3,3.0820956E-2,1.5348163E-2,4.1883312E-2,7.975796E-3,2.9133974E-2,3.2816824E-2,1.1184616E-2,5.210346E-2,2.9741002E-2,5.2111596E-2,2.8950308E-2,4.196007E-2,6.205153E-2],"split_indices":[1,1,1,1,69,1,17,69,69,3,122,17,27,3,0,0,0,29,69,3,122,161,0,122,1,141,81,27,0,0,0,3,0,3,0,122,0,0,0,3,0,3,159,0,0,56,0,0,9,0,0,0,0,0,0,0,0,0,0,0,0,0,0,0,0,0,0,0,0,0,0,0,0],"split_type":[0,0,0,0,0,0,0,0,0,0,0,0,0,0,0,0,0,0,0,0,0,0,0,0,0,0,0,0,0,0,0,0,0,0,0,0,0,0,0,0,0,0,0,0,0,0,0,0,0,0,0,0,0,0,0,0,0,0,0,0,0,0,0,0,0,0,0,0,0,0,0,0,0],"sum_hessian":[2.3E3,1.314E3,9.86E2,7.91E2,5.23E2,7.93E2,1.93E2,9.8E1,6.93E2,3.32E2,1.91E2,5.96E2,1.97E2,1.57E2,3.6E1,7E1,2.8E1,5.39E2,1.54E2,2.62E2,7E1,1.59E2,3.2E1,5.4E2,5.6E1,1.12E2,8.5E1,1.3E2,2.7E1,3.5E1,3.5E1,5.08E2,3.1E1,1.12E2,4.2E1,8.9E1,1.73E2,3.6E1,3.4E1,1.3E2,2.9E1,1.29E2,4.11E2,2.7E1,2.9E1,5.8E1,5.4E1,3E1,5.5E1,8.1E1,4.9E1,2.6E1,4.82E2,3.5E1,7.7E1,3.4E1,5.5E1,1.13E2,6E1,9.9E1,3.1E1,4.9E1,8E1,3.38E2,7.3E1,2.9E1,2.9E1,2.6E1,2.8E1,3E1,2.5E1,3.1E1,5E1],"tree_param":{"num_deleted":"0","num_feature":"503","num_nodes":"73","size_leaf_vector":"1"}},{"base_weights":[2.8215218E-4,-2.320227E-1,3.1507865E-1,-5.015038E-1,-1.6019674E-1,1.9103697E-1,7.097113E-1,-8.735042E-2,-4.5485774E-1,-2.4107221E-1,-6.584522E-2,1.6988558E-1,6.4352825E-2,5.969348E-1,1.5181054E-1,-4.956099E-1,-2.2851858E-2,-2.0518686E-1,-3.67042E-1,-9.72835E-2,9.492008E-2,7.55261E-2,2.5523674E-1,4.964959E-1,8.463985E-1,-7.107698E-2,-4.531748E-1,-3.0004466E-1,-1.2187085E-1,-5.2441817E-2,-3.1348068E-1,-5.327256E-2,-1.7816193E-1,-3.6137176E-4,2.3536561E-2,1.3401173E-1,-6.879244E-2,4.8588153E-2,2.2701941E-1,3.534302E-2,5.583469E-1,6.207606E-2,1.0228973E-1,-4.8261072E-2,-2.842783E-2,-3.5878118E-2,-3.0925905E-3,-1.6012633E-2,5.9556426E-3,-3.519769E-2,-2.2265049E-2,6.497089E-3,-1.5615225E-2,-2.4551166E-2,-6.2613115E-3,1.0160146E-2,3.7924774E-2,-1.9068688E-2,1.026782E-3,1.7763896E-2,3.880774E-2,4.5161657E-2,6.3985966E-2],"categories":[],"categories_nodes":[],"categories_segments":[],"categories_sizes":[],"default_left":[0,0,0,0,0,0,0,0,0,0,0,0,0,0,0,0,0,0,0,0,0,0,0,0,0,0,0,0,0,0,0,0,0,0,0,0,0,0,0,0,0,0,0,0,0,0,0,0,0,0,0,0,0,0,0,0,0,0,0,0,0,0,0],"id":9,"left_children":[1,3,5,7,9,11,13,-1,15,17,19,21,-1,23,-1,25,-1,27,29,31,33,35,37,39,41,-1,43,45,47,-1,49,51,53,-1,-1,55,57,-1,59,-1,61,-1,-1,-1,-1,-1,-1,-1,-1,-1,-1,-1,-1,-1,-1,-1,-1,-1,-1,-1,-1,-1,-1],"loss_changes":[1.6878113E2,2.5624077E1,4.7836296E1,4.4439926E0,7.9963856E0,7.040079E0,2.0427078E1,0E0,2.1926956E0,2.4787521E0,2.4655678E0,5.7391148E0,0E0,4.7663345E0,0E0,1.6044006E0,0E0,3.4566345E0,8.808365E-1,1.4392402E0,1.1079409E0,2.8874507E0,2.3302631E0,1.1299782E0,1.6748657E0,0E0,7.527199E-1,3.2451668E0,1.6544557E0,0E0,2.5381184E-1,3.23383E0,1.0974793E0,0E0,0E0,1.8928723E0,9.5602155E-1,0E0,2.6033096E0,0E0,6.071129E-1,0E0,0E0,0E0,0E0,0E0,0E0,0E0,0E0,0E0,0E0,0E0,0E0,0E0,0E0,0E0,0E0,0E0,0E0,0E0,0E0,0E0,0E0],"parents":[2147483647,0,0,1,1,2,2,3,3,4,4,5,5,6,6,8,8,9,9,10,10,11,11,13,13,15,15,17,17,18,18,19,19,20,20,21,21,22,22,23,23,24,24,26,26,27,27,28,28,30,30,31,31,32,32,35,35,36,36,38,38,40,40],"right_children":[2,4,6,8,10,12,14,-1,16,18,20,22,-1,24,-1,26,-1,28,30,32,34,36,38,40,42,-1,44,46,48,-1,50,52,54,-1,-1,56,58,-1,60,-1,62,-1,-1,-1,-1,-1,-1,-1,-1,-1,-1,-1,-1,-1,-1,-1,-1,-1,-1,-1,-1,-1,-1],"split_conditions":[3.7E1,1.3E1,1.23E2,1.6326439E-8,2.3E1,2E0,1.0272283E-6,-8.735042E-2,9.138398E-8,2.288191E-1,3E0,5.9E1,6.4352825E-2,1.4648009E-7,1.5181054E-1,7E0,-2.2851858E-2,3.316927E-8,2.5899997E-1,2.1720931E-1,5.9986526E-8,1E0,3E0,5.2898496E-8,2E0,-7.107698E-2,2E0,1E0,2.2972017E-7,-5.2441817E-2,2.6236145E-7,1E0,3.1E1,-3.6137176E-4,2.3536561E-2,1E0,4.5E1,4.8588153E-2,6E0,3.534302E-2,1.79E2,6.207606E-2,1.0228973E-1,-4.8261072E-2,-2.842783E-2,-3.5878118E-2,-3.0925905E-3,-1.6012633E-2,5.9556426E-3,-3.519769E-2,-2.2265049E-2,6.497089E-3,-1.5615225E-2,-2.4551166E-2,-6.2613115E-3,1.0160146E-2,3.7924774E-2,-1.9068688E-2,1.026782E-3,1.7763896E-2,3.880774E-2,4.5161657E-2,6.3985966E-2],"split_indices":[1,1,1,3,1,201,17,0,3,4,69,1,0,3,0,1,0,3,4,4,3,111,30,3,182,0,27,312,8,0,8,122,1,0,0,487,1,0,27,0,1,0,0,0,0,0,0,0,0,0,0,0,0,0,0,0,0,0,0,0,0,0,0],"split_type":[0,0,0,0,0,0,0,0,0,0,0,0,0,0,0,0,0,0,0,0,0,0,0,0,0,0,0,0,0,0,0,0,0,0,0,0,0,0,0,0,0,0,0,0,0,0,0,0,0,0,0,0,0,0,0,0,0,0,0,0,0,0,0],"sum_hessian":[2.306E3,1.327E3,9.79E2,2.78E2,1.049E3,7.46E2,2.33E2,2.9E1,2.49E2,5.64E2,4.85E2,7.14E2,3.2E1,2.06E2,2.7E1,2.1E2,3.9E1,4.41E2,1.23E2,4.06E2,7.9E1,3.4E2,3.74E2,1.49E2,5.7E1,3.2E1,1.78E2,2.05E2,2.36E2,2.9E1,9.4E1,2.64E2,1.42E2,4.7E1,3.2E1,2.42E2,9.8E1,3.9E1,3.35E2,4.7E1,1.02E2,2.7E1,3E1,1.5E2,2.8E1,1.68E2,3.7E1,1.95E2,4.1E1,6.4E1,3E1,1.23E2,1.41E2,8.9E1,5.3E1,2.15E2,2.7E1,3.8E1,6E1,2.58E2,7.7E1,4.7E1,5.5E1],"tree_param":{"num_deleted":"0","num_feature":"503","num_nodes":"63","size_leaf_vector":"1"}},{"base_weights":[1.0191445E-3,-8.900006E-2,6.059804E-1,-1.6100529E-1,1.4773202E-1,5.118015E-1,1.4188527E-1,-2.3932414E-1,2.1194832E-2,6.34334E-2,2.4759398E-1,4.1489047E-1,8.0502075E-1,-2.580419E-1,5.4090835E-2,-4.8384856E-2,1.4063811E-1,3.4612577E-2,2.9181262E-2,2.0896563E-1,4.7386933E-2,3.3671656E-1,6.112589E-1,5.8604848E-2,9.773011E-2,-2.9702073E-1,-1.014703E-1,-7.971586E-2,2.4606647E-2,4.5362808E-2,2.5201958E-1,8.1070117E-4,2.6218487E-2,1.6738467E-1,3.8595147E-2,2.948966E-1,5.2643187E-2,5.1207084E-2,7.136415E-2,-4.208896E-2,-2.4588712E-2,-1.9843707E-2,1.128595E-5,-1.528475E-2,4.4890326E-3,-4.7970708E-3,1.6428297E-2,3.7398852E-2,1.4372708E-2,-1.9984415E-2,3.6761505E-3,1.1519865E-2,3.236578E-2,2.3649802E-2,4.59052E-2],"categories":[],"categories_nodes":[],"categories_segments":[],"categories_sizes":[],"default_left":[0,0,0,0,0,0,0,0,0,0,0,0,0,0,0,0,0,0,0,0,0,0,0,0,0,0,0,0,0,0,0,0,0,0,0,0,0,0,0,0,0,0,0,0,0,0,0,0,0,0,0,0,0,0,0],"id":10,"left_children":[1,3,5,7,9,11,-1,13,15,17,19,21,23,25,-1,27,29,31,-1,33,-1,35,37,-1,-1,39,41,43,-1,45,47,49,-1,51,-1,53,-1,-1,-1,-1,-1,-1,-1,-1,-1,-1,-1,-1,-1,-1,-1,-1,-1,-1,-1],"loss_changes":[1.27812706E2,3.484866E1,2.2546669E1,2.2365696E1,3.9997883E0,7.4520416E0,0E0,1.6145782E1,3.929515E0,1.7012402E0,1.8064384E0,2.9871635E0,1.9548035E0,6.5061493E0,0E0,2.7780273E0,1.8350382E0,1.7844174E0,0E0,1.3189354E0,0E0,1.0427742E0,2.2356224E-1,0E0,0E0,5.3246307E0,2.1178133E0,2.4763908E0,0E0,1.0623084E0,1.0029135E0,1.4717282E0,0E0,1.218627E0,0E0,1.0993271E0,0E0,0E0,0E0,0E0,0E0,0E0,0E0,0E0,0E0,0E0,0E0,0E0,0E0,0E0,0E0,0E0,0E0,0E0,0E0],"parents":[2147483647,0,0,1,1,2,2,3,3,4,4,5,5,7,7,8,8,9,9,10,10,11,11,12,12,13,13,15,15,16,16,17,17,19,19,21,21,22,22,25,25,26,26,27,27,29,29,30,30,31,31,33,33,35,35],"right_children":[2,4,6,8,10,12,-1,14,16,18,20,22,24,26,-1,28,30,32,-1,34,-1,36,38,-1,-1,40,42,44,-1,46,48,50,-1,52,-1,54,-1,-1,-1,-1,-1,-1,-1,-1,-1,-1,-1,-1,-1,-1,-1,-1,-1,-1,-1],"split_conditions":[6E0,4E0,3E1,2E0,7E0,9.776809E-8,1.4188527E-1,1.18628506E-7,1E0,1E0,1E0,2E0,1E0,1E0,5.4090835E-2,1E0,1.671E3,2E0,2.9181262E-2,6E0,4.7386933E-2,1E0,1E0,5.8604848E-2,9.773011E-2,1.528E3,1E0,3E0,2.4606647E-2,1E0,1.3383693E-1,4.1240286E-2,2.6218487E-2,1E0,3.8595147E-2,1E0,5.2643187E-2,5.1207084E-2,7.136415E-2,-4.208896E-2,-2.4588712E-2,-1.9843707E-2,1.128595E-5,-1.528475E-2,4.4890326E-3,-4.7970708E-3,1.6428297E-2,3.7398852E-2,1.4372708E-2,-1.9984415E-2,3.6761505E-3,1.1519865E-2,3.236578E-2,2.3649802E-2,4.59052E-2],"split_indices":[27,30,27,69,30,9,0,9,81,159,23,164,107,164,0,28,2,331,0,81,0,380,23,0,0,2,69,69,0,51,4,4,0,339,0,71,0,0,0,0,0,0,0,0,0,0,0,0,0,0,0,0,0,0,0],"split_type":[0,0,0,0,0,0,0,0,0,0,0,0,0,0,0,0,0,0,0,0,0,0,0,0,0,0,0,0,0,0,0,0,0,0,0,0,0,0,0,0,0,0,0,0,0,0,0,0,0,0,0,0,0,0,0],"sum_hessian":[2.345E3,2.042E3,3.03E2,1.566E3,4.76E2,2.73E2,3E1,1.095E3,4.71E2,2.59E2,2.17E2,2.07E2,6.6E1,1.07E3,2.5E1,2.98E2,1.73E2,2.31E2,2.8E1,1.87E2,3E1,1.5E2,5.7E1,3.1E1,3.5E1,8.56E2,2.14E2,2.7E2,2.8E1,9.4E1,7.9E1,2.02E2,2.9E1,1.53E2,3.4E1,1.25E2,2.5E1,3.2E1,2.5E1,2.48E2,6.08E2,1.09E2,1.05E2,1.7E2,1E2,5.3E1,4.1E1,3.6E1,4.3E1,3E1,1.72E2,1.16E2,3.7E1,9.4E1,3.1E1],"tree_param":{"num_deleted":"0","num_feature":"503","num_nodes":"55","size_leaf_vector":"1"}},{"base_weights":[1.0541704E-2,-8.402741E-2,4.799829E-1,-1.272151E-1,2.5193113E-1,3.9026815E-1,1.14630975E-1,-1.7537367E-1,2.767245E-2,1.8326302E-1,4.342806E-1,2.5754794E-1,5.9678024E-1,-2.3309408E-1,-6.888469E-2,2.4098217E-1,-7.111024E-2,4.020606E-2,2.7533817E-1,2.7336223E-2,5.5765744E-2,1.813053E-1,4.6806207E-1,3.8026374E-2,6.603556E-1,-2.8464207E-1,-1.0972079E-1,-1.2535848E-1,5.016947E-2,1.4738552E-1,3.926953E-2,-1.3140317E-2,-2.116331E-1,-4.2286157E-3,1.6557077E-2,1.5117149E-2,3.4087977E-1,1.2277446E-1,4.737398E-2,5.983461E-2,2.9472103E-2,5.6618565E-1,9.1746725E-2,-3.541348E-2,-1.9697338E-2,-6.8766386E-3,-3.3268172E-2,-1.6236855E-2,1.33144995E-2,1.341956E-3,2.0981481E-2,8.7454676E-4,3.3330943E-2,-4.6307496E-3,2.010904E-2,-1.5889248E-2,-3.1318277E-2,4.113442E-2,2.6222093E-2,5.8435253E-3,3.7320115E-2,6.2738985E-2,4.6852767E-2],"categories":[],"categories_nodes":[],"categories_segments":[],"categories_sizes":[],"default_left":[0,0,0,0,0,0,0,0,0,0,0,0,0,0,0,0,0,0,0,0,0,0,0,0,0,0,0,0,0,0,0,0,0,0,0,0,0,0,0,0,0,0,0,0,0,0,0,0,0,0,0,0,0,0,0,0,0,0,0,0,0,0,0],"id":11,"left_children":[1,3,5,7,9,11,-1,13,15,17,19,21,23,25,27,29,31,33,35,-1,-1,37,39,-1,41,43,45,47,49,51,-1,53,55,-1,-1,-1,57,59,-1,-1,-1,61,-1,-1,-1,-1,-1,-1,-1,-1,-1,-1,-1,-1,-1,-1,-1,-1,-1,-1,-1,-1,-1],"loss_changes":[1.03790596E2,2.8267096E1,2.2986145E1,1.287191E1,2.7002058E0,9.356987E0,0E0,8.072849E0,8.656372E0,2.1359644E0,1.0387735E0,3.3338203E0,1.6071854E0,5.393551E0,3.1259646E0,1.7881021E0,2.2862728E0,6.792061E-1,7.5413895E-1,0E0,0E0,2.6462345E0,1.088335E0,0E0,1.9743958E0,3.5917358E0,2.2873242E0,3.035297E0,8.772271E-1,2.1107583E0,0E0,1.4303979E0,3.8941264E-1,0E0,0E0,0E0,2.468667E-1,2.121122E0,0E0,0E0,0E0,1.722641E-1,0E0,0E0,0E0,0E0,0E0,0E0,0E0,0E0,0E0,0E0,0E0,0E0,0E0,0E0,0E0,0E0,0E0,0E0,0E0,0E0,0E0],"parents":[2147483647,0,0,1,1,2,2,3,3,4,4,5,5,7,7,8,8,9,9,10,10,11,11,12,12,13,13,14,14,15,15,16,16,17,17,18,18,21,21,22,22,24,24,25,25,26,26,27,27,28,28,29,29,31,31,32,32,36,36,37,37,41,41],"right_children":[2,4,6,8,10,12,-1,14,16,18,20,22,24,26,28,30,32,34,36,-1,-1,38,40,-1,42,44,46,48,50,52,-1,54,56,-1,-1,-1,58,60,-1,-1,-1,62,-1,-1,-1,-1,-1,-1,-1,-1,-1,-1,-1,-1,-1,-1,-1,-1,-1,-1,-1,-1,-1],"split_conditions":[7.0128335E-6,5E0,3E0,4.91829E-6,1E0,6E0,1.14630975E-1,2E0,2.21E2,2E0,1E0,3.3818844E-7,8.372811E-6,1.714E3,1E0,1E0,5.52E2,1E0,1E0,2.7336223E-2,5.5765744E-2,1.111057E-8,2.3133858E-1,3.8026374E-2,1.958145E-7,2.6557577E-6,2.19E2,1E0,1E0,1E0,3.926953E-2,1E0,1.8732987E-8,-4.2286157E-3,1.6557077E-2,1.5117149E-2,1E0,3E0,4.737398E-2,5.983461E-2,2.9472103E-2,1.7613681E-7,9.1746725E-2,-3.541348E-2,-1.9697338E-2,-6.8766386E-3,-3.3268172E-2,-1.6236855E-2,1.33144995E-2,1.341956E-3,2.0981481E-2,8.7454676E-4,3.3330943E-2,-4.6307496E-3,2.010904E-2,-1.5889248E-2,-3.1318277E-2,4.113442E-2,2.6222093E-2,5.8435253E-3,3.7320115E-2,6.2738985E-2,4.6852767E-2],"split_indices":[5,27,201,5,201,27,0,27,0,18,164,8,5,2,207,176,0,207,331,0,0,17,4,0,17,5,0,304,233,164,0,156,6,0,0,0,111,18,0,0,0,8,0,0,0,0,0,0,0,0,0,0,0,0,0,0,0,0,0,0,0,0,0],"split_type":[0,0,0,0,0,0,0,0,0,0,0,0,0,0,0,0,0,0,0,0,0,0,0,0,0,0,0,0,0,0,0,0,0,0,0,0,0,0,0,0,0,0,0,0,0,0,0,0,0,0,0,0,0,0,0,0,0,0,0,0,0,0,0],"sum_hessian":[2.336E3,1.945E3,3.91E2,1.724E3,2.21E2,3.46E2,4.5E1,1.315E3,4.09E2,1.62E2,5.9E1,2.12E2,1.34E2,8.52E2,4.63E2,1.29E2,2.8E2,6.4E1,9.8E1,2.7E1,3.2E1,1.57E2,5.5E1,3.2E1,1.02E2,6E2,2.52E2,3.14E2,1.49E2,8.1E1,4.8E1,1.99E2,8.1E1,3.9E1,2.5E1,3.5E1,6.3E1,1.32E2,2.5E1,3E1,2.5E1,7.7E1,2.5E1,3.33E2,2.67E2,2.14E2,3.8E1,2.75E2,3.9E1,1.22E2,2.7E1,4.7E1,3.4E1,1.73E2,2.6E1,5.5E1,2.6E1,3.1E1,3.2E1,1.06E2,2.6E1,4.4E1,3.3E1],"tree_param":{"num_deleted":"0","num_feature":"503","num_nodes":"63","size_leaf_vector":"1"}},{"base_weights":[1.2761649E-3,-2.0656446E-1,2.3438846E-1,-5.0205415E-1,-1.5473476E-1,2.0280275E-1,1.1380633E-1,-6.1810875E-1,-3.0422089E-1,-2.2743252E-1,-7.3876165E-2,1.1588031E-1,4.3945876E-1,-7.379594E-1,-5.037533E-1,-3.862312E-2,-1.674114E-2,-2.1238908E-1,-4.8311178E-2,-3.2861285E-2,-2.0491658E-1,1.0055828E-1,4.395854E-2,3.8676783E-1,9.514922E-2,-4.8979457E-2,-9.679836E-2,-6.62288E-2,-3.5371628E-2,-2.3353891E-1,-5.3583335E-2,-8.7854184E-2,6.390942E-2,-3.8265698E-2,-1.460222E-1,2.0681122E-1,7.0314206E-2,3.1432858E-1,4.8490033E-1,-2.6182136E-2,-8.835911E-3,-1.8016823E-2,7.4676047E-3,-2.8906276E-3,-1.9202426E-2,-2.2159822E-3,1.9576354E-2,-5.930828E-4,-1.9899726E-2,2.5409833E-2,-3.363274E-3,2.7821062E-3,2.0713761E-2,2.7724594E-2,4.847997E-2,5.552299E-2,3.9080683E-2],"categories":[],"categories_nodes":[],"categories_segments":[],"categories_sizes":[],"default_left":[0,0,0,0,0,0,0,0,0,0,0,0,0,0,0,0,0,0,0,0,0,0,0,0,0,0,0,0,0,0,0,0,0,0,0,0,0,0,0,0,0,0,0,0,0,0,0,0,0,0,0,0,0,0,0,0,0],"id":12,"left_children":[1,3,5,7,9,11,-1,13,15,17,19,21,23,25,27,-1,-1,29,-1,31,33,35,-1,37,-1,-1,-1,-1,-1,39,41,43,45,-1,47,49,51,53,55,-1,-1,-1,-1,-1,-1,-1,-1,-1,-1,-1,-1,-1,-1,-1,-1,-1,-1],"loss_changes":[1.1327654E2,1.885183E1,3.1223812E1,4.036499E0,6.172985E0,2.187746E1,0E0,1.2043915E0,7.20726E-1,2.0282383E0,2.6805696E0,3.8294153E0,7.348133E0,2.6084213E0,1.2404737E0,0E0,0E0,1.7508125E0,0E0,2.0385046E0,1.1898046E0,2.3859591E0,0E0,1.7029343E0,0E0,0E0,0E0,0E0,0E0,1.8779621E0,1.0363033E0,1.492758E0,1.5817909E0,0E0,6.741626E-1,1.8845778E0,3.3838327E0,8.3278275E-1,5.043297E-1,0E0,0E0,0E0,0E0,0E0,0E0,0E0,0E0,0E0,0E0,0E0,0E0,0E0,0E0,0E0,0E0,0E0,0E0],"parents":[2147483647,0,0,1,1,2,2,3,3,4,4,5,5,7,7,8,8,9,9,10,10,11,11,12,12,13,13,14,14,17,17,19,19,20,20,21,21,23,23,29,29,30,30,31,31,32,32,34,34,35,35,36,36,37,37,38,38],"right_children":[2,4,6,8,10,12,-1,14,16,18,20,22,24,26,28,-1,-1,30,-1,32,34,36,-1,38,-1,-1,-1,-1,-1,40,42,44,46,-1,48,50,52,54,56,-1,-1,-1,-1,-1,-1,-1,-1,-1,-1,-1,-1,-1,-1,-1,-1,-1,-1],"split_conditions":[3.4E1,1.1E1,4E0,1E0,2.1E1,1.01E2,1.1380633E-1,4.4E1,5.8673827E-8,1.3163978E-3,1E0,3.9898646E-7,7.3245855E-7,7E0,3.758331E-8,-3.862312E-2,-1.674114E-2,1E0,-4.8311178E-2,2E0,2.4E1,1E0,4.395854E-2,2E0,9.514922E-2,-4.8979457E-2,-9.679836E-2,-6.62288E-2,-3.5371628E-2,1E0,5.2624777E-8,2.21E2,2.3731815E-8,-3.8265698E-2,3.3622992E-8,2.4215775E-3,1E0,1E0,1E0,-2.6182136E-2,-8.835911E-3,-1.8016823E-2,7.4676047E-3,-2.8906276E-3,-1.9202426E-2,-2.2159822E-3,1.9576354E-2,-5.930828E-4,-1.9899726E-2,2.5409833E-2,-3.363274E-3,2.7821062E-3,2.0713761E-2,2.7724594E-2,4.847997E-2,5.552299E-2,3.9080683E-2],"split_indices":[1,1,53,69,1,1,0,0,3,13,161,11,17,0,3,0,0,53,0,69,1,122,0,82,0,0,0,0,0,312,3,0,8,0,3,10,312,380,55,0,0,0,0,0,0,0,0,0,0,0,0,0,0,0,0,0,0],"split_type":[0,0,0,0,0,0,0,0,0,0,0,0,0,0,0,0,0,0,0,0,0,0,0,0,0,0,0,0,0,0,0,0,0,0,0,0,0,0,0,0,0,0,0,0,0,0,0,0,0,0,0,0,0,0,0,0,0],"sum_hessian":[2.336E3,1.235E3,1.101E3,1.83E2,1.052E3,1.065E3,3.6E1,1.14E2,6.9E1,5.53E2,4.99E2,7.8E2,2.85E2,5.3E1,6.1E1,4.2E1,2.7E1,5.24E2,2.9E1,3.81E2,1.18E2,7.46E2,3.4E1,2.6E2,2.5E1,2.7E1,2.6E1,2.8E1,3.3E1,4.62E2,6.2E1,2.43E2,1.38E2,2.8E1,9E1,1.64E2,5.82E2,1.52E2,1.08E2,3.86E2,7.6E1,3.1E1,3.1E1,1.56E2,8.7E1,8.4E1,5.4E1,2.5E1,6.5E1,1.37E2,2.7E1,4.45E2,1.37E2,1.27E2,2.5E1,5.9E1,4.9E1],"tree_param":{"num_deleted":"0","num_feature":"503","num_nodes":"57","size_leaf_vector":"1"}},{"base_weights":[7.864257E-3,-1.5063941E-1,2.5131473E-1,-2.4439812E-1,-1.9783828E-2,2.06654E-1,8.9619535E-1,-4.880239E-1,-2.1125071E-1,-7.19062E-2,1.2964919E-1,1.1942446E-1,3.8873202E-1,5.8915287E-2,1.0986785E-1,-3.613022E-2,-5.7887626E-1,-2.244321E-1,9.533408E-3,-5.0429877E-2,-2.4013106E-2,7.82356E-2,3.4126468E-2,7.7000536E-2,2.3930924E-1,3.3072805E-1,7.759058E-2,-3.7798E-2,-7.961419E-2,-2.628503E-1,-1.4842482E-1,-7.1359677E-3,-1.3282683E-1,-1.9227983E-4,2.3509592E-2,6.120147E-2,3.0615825E-2,1.843846E-1,3.6825147E-2,1.9870895E-1,3.8605002E-1,-2.4568776E-2,-5.1359203E-2,-1.0453011E-2,-2.7763525E-2,-1.3764058E-2,5.9289127E-3,-2.4454243E-2,-7.1083303E-3,-1.0171956E-2,1.0133948E-2,4.212893E-3,2.277643E-2,2.4948811E-2,1.1715106E-2,2.7527917E-2,4.3815896E-3,3.1099964E-2,4.390069E-2],"categories":[],"categories_nodes":[],"categories_segments":[],"categories_sizes":[],"default_left":[0,0,0,0,0,0,0,0,0,0,0,0,0,0,0,0,0,0,0,0,0,0,0,0,0,0,0,0,0,0,0,0,0,0,0,0,0,0,0,0,0,0,0,0,0,0,0,0,0,0,0,0,0,0,0,0,0,0,0],"id":13,"left_children":[1,3,5,7,9,11,13,15,17,19,21,23,25,-1,-1,-1,27,29,-1,31,-1,33,-1,35,37,39,-1,-1,-1,41,43,45,47,49,-1,51,-1,53,-1,55,57,-1,-1,-1,-1,-1,-1,-1,-1,-1,-1,-1,-1,-1,-1,-1,-1,-1,-1],"loss_changes":[9.110505E1,1.7539623E1,2.6628376E1,6.623852E0,4.6670275E0,1.38031845E1,3.0829659E0,9.3063545E-1,2.991684E0,1.5919962E0,1.6596875E0,2.9873896E0,6.076435E0,0E0,0E0,0E0,2.1433544E0,2.0196304E0,0E0,1.4081303E0,0E0,1.5501251E0,0E0,1.5670321E0,1.0227442E0,1.7272701E0,0E0,0E0,0E0,1.8834915E0,1.3265047E0,2.2620437E0,9.207065E-1,8.8650894E-1,0E0,1.2960598E0,0E0,4.5225763E-1,0E0,8.7745285E-1,5.5104446E-1,0E0,0E0,0E0,0E0,0E0,0E0,0E0,0E0,0E0,0E0,0E0,0E0,0E0,0E0,0E0,0E0,0E0,0E0],"parents":[2147483647,0,0,1,1,2,2,3,3,4,4,5,5,6,6,7,7,8,8,9,9,10,10,11,11,12,12,16,16,17,17,19,19,21,21,23,23,24,24,25,25,29,29,30,30,31,31,32,32,33,33,35,35,37,37,39,39,40,40],"right_children":[2,4,6,8,10,12,14,16,18,20,22,24,26,-1,-1,-1,28,30,-1,32,-1,34,-1,36,38,40,-1,-1,-1,42,44,46,48,50,-1,52,-1,54,-1,56,58,-1,-1,-1,-1,-1,-1,-1,-1,-1,-1,-1,-1,-1,-1,-1,-1,-1,-1],"split_conditions":[4.1E1,2.3E1,3E0,9E0,5.367013E-6,6.781697E-6,1E0,1.5423036E-6,1E0,3E0,1E0,8.8E1,1.13434496E-7,5.8915287E-2,1.0986785E-1,-3.613022E-2,1E0,4.1506923E-6,9.533408E-3,3.600145E-3,-2.4013106E-2,1E0,3.4126468E-2,1E0,9E0,7E1,7.759058E-2,-3.7798E-2,-7.961419E-2,1E0,1E0,1.2069198E-6,3.686638E-8,2.6037414E-3,2.3509592E-2,2E0,3.0615825E-2,1E0,3.6825147E-2,2.324107E-8,1E0,-2.4568776E-2,-5.1359203E-2,-1.0453011E-2,-2.7763525E-2,-1.3764058E-2,5.9289127E-3,-2.4454243E-2,-7.1083303E-3,-1.0171956E-2,1.0133948E-2,4.212893E-3,2.277643E-2,2.4948811E-2,1.1715106E-2,2.7527917E-2,4.3815896E-3,3.1099964E-2,4.390069E-2],"split_indices":[1,1,201,1,5,5,482,5,263,122,320,1,15,0,0,0,27,5,0,7,0,49,0,152,27,1,0,0,0,421,191,5,6,7,0,142,0,111,0,12,82,0,0,0,0,0,0,0,0,0,0,0,0,0,0,0,0,0,0],"split_type":[0,0,0,0,0,0,0,0,0,0,0,0,0,0,0,0,0,0,0,0,0,0,0,0,0,0,0,0,0,0,0,0,0,0,0,0,0,0,0,0,0,0,0,0,0,0,0,0,0,0,0,0,0,0,0,0,0,0,0],"sum_hessian":[2.359E3,1.429E3,9.3E2,8.32E2,5.97E2,8.71E2,5.9E1,9.8E1,7.34E2,4.43E2,1.54E2,5.9E2,2.81E2,2.5E1,3.4E1,4.3E1,5.5E1,7.04E2,3E1,3.94E2,4.9E1,1.25E2,2.9E1,4.37E2,1.53E2,2.46E2,3.5E1,3E1,2.5E1,4.66E2,2.38E2,2.59E2,1.35E2,8.4E1,4.1E1,4.1E2,2.7E1,1.09E2,4.4E1,7.4E1,1.72E2,4.38E2,2.8E1,1.79E2,5.9E1,8.7E1,1.72E2,4.7E1,8.8E1,4.2E1,4.2E1,3.69E2,4.1E1,5.4E1,5.5E1,4.9E1,2.5E1,7.4E1,9.8E1],"tree_param":{"num_deleted":"0","num_feature":"503","num_nodes":"59","size_leaf_vector":"1"}},{"base_weights":[3.571371E-3,-6.521834E-2,3.250352E-1,-1.0522951E-1,1.2752844E-1,2.1401851E-1,6.5163356E-1,-1.3793902E-1,6.0113516E-2,7.026675E-2,3.1421128E-1,2.5830034E-3,2.9377562E-1,4.9383324E-1,1.0138931E-1,-1.7276886E-1,-3.0524168E-2,4.4549787E-3,3.1107426E-2,2.8068943E-2,2.6187746E-2,4.349896E-2,1.9463608E-2,6.0134935E-3,-7.5823315E-3,8.685638E-3,3.4501192E-1,6.1194535E-2,3.554418E-2,-2.9604784E-1,-1.3227215E-1,8.0593705E-2,-1.2846729E-1,-6.9557786E-2,1.8583378E-1,-1.6211836E-2,5.64411E-2,5.967329E-2,2.993844E-1,-2.4160383E-2,-5.4365706E-2,-1.5615563E-2,-1.625817E-4,6.289501E-4,2.5548164E-2,-6.139447E-3,-2.2916004E-2,-1.279126E-3,-2.086031E-2,4.850299E-2,-2.9434657E-3,1.143788E-3,2.2431003E-2,2.5500495E-2,4.6988126E-2],"categories":[],"categories_nodes":[],"categories_segments":[],"categories_sizes":[],"default_left":[0,0,0,0,0,0,0,0,0,0,0,0,0,0,0,0,0,0,0,0,0,0,0,0,0,0,0,0,0,0,0,0,0,0,0,0,0,0,0,0,0,0,0,0,0,0,0,0,0,0,0,0,0,0,0],"id":14,"left_children":[1,3,5,7,9,11,13,15,17,19,21,23,25,27,-1,29,31,33,-1,35,-1,-1,-1,-1,-1,-1,37,-1,-1,39,41,43,45,47,49,-1,51,-1,53,-1,-1,-1,-1,-1,-1,-1,-1,-1,-1,-1,-1,-1,-1,-1,-1],"loss_changes":[5.0683006E1,1.4573724E1,1.4508717E1,8.466856E0,3.4520988E0,5.108876E0,5.330105E0,4.8807907E0,3.6163542E0,2.0140371E0,1.0129337E0,3.836042E-1,2.3024254E0,9.757252E-1,0E0,4.883339E0,3.503871E0,2.8723123E0,0E0,1.1207309E0,0E0,0E0,0E0,0E0,0E0,0E0,1.8427792E0,0E0,0E0,3.144495E0,2.3212404E0,1.9606241E0,1.1408217E0,1.1970861E0,4.0075397E0,0E0,1.3572698E0,0E0,1.022728E0,0E0,0E0,0E0,0E0,0E0,0E0,0E0,0E0,0E0,0E0,0E0,0E0,0E0,0E0,0E0,0E0],"parents":[2147483647,0,0,1,1,2,2,3,3,4,4,5,5,6,6,7,7,8,8,9,9,10,10,11,11,12,12,13,13,15,15,16,16,17,17,19,19,26,26,29,29,30,30,31,31,32,32,33,33,34,34,36,36,38,38],"right_children":[2,4,6,8,10,12,14,16,18,20,22,24,26,28,-1,30,32,34,-1,36,-1,-1,-1,-1,-1,-1,38,-1,-1,40,42,44,46,48,50,-1,52,-1,54,-1,-1,-1,-1,-1,-1,-1,-1,-1,-1,-1,-1,-1,-1,-1,-1],"split_conditions":[6.903055E-6,4E0,4.600391E-8,9.503949E-8,1E0,3.08622E-8,1.5460175E-5,4.91829E-6,1.0393875E-8,1E0,1.71E2,1E0,2E0,1E0,1.0138931E-1,3.0014988E-8,3.5E2,3.8962608E-6,3.1107426E-2,2.6322471E-8,2.6187746E-2,4.349896E-2,1.9463608E-2,6.0134935E-3,-7.5823315E-3,8.685638E-3,9.2E1,6.1194535E-2,3.554418E-2,3.97E2,4E0,1.8524894E-9,5.52E2,4.9E1,7.1E1,-1.6211836E-2,1E0,5.967329E-2,1E0,-2.4160383E-2,-5.4365706E-2,-1.5615563E-2,-1.625817E-4,6.289501E-4,2.5548164E-2,-6.139447E-3,-2.2916004E-2,-1.279126E-3,-2.086031E-2,4.850299E-2,-2.9434657E-3,1.143788E-3,2.2431003E-2,2.5500495E-2,4.6988126E-2],"split_indices":[5,27,17,3,200,3,5,5,9,107,0,191,27,350,0,3,0,5,0,3,0,0,0,0,0,0,0,0,0,0,32,12,0,0,0,0,77,0,436,0,0,0,0,0,0,0,0,0,0,0,0,0,0,0,0],"split_type":[0,0,0,0,0,0,0,0,0,0,0,0,0,0,0,0,0,0,0,0,0,0,0,0,0,0,0,0,0,0,0,0,0,0,0,0,0,0,0,0,0,0,0,0,0,0,0,0,0,0,0,0,0,0,0],"sum_hessian":[2.29E3,1.887E3,4.03E2,1.563E3,3.24E2,3.02E2,1.01E2,1.305E3,2.58E2,2.49E2,7.5E1,8.3E1,2.19E2,7.2E1,2.9E1,9.85E2,3.2E2,2.12E2,4.6E1,2.05E2,4.4E1,3.6E1,3.9E1,4.8E1,3.5E1,4.4E1,1.75E2,3.7E1,3.5E1,2.42E2,7.43E2,1.5E2,1.7E2,1.51E2,6.1E1,2.6E1,1.79E2,2.5E1,1.5E2,2E2,4.2E1,6.28E2,1.15E2,1.06E2,4.4E1,1.03E2,6.7E1,1.08E2,4.3E1,2.5E1,3.6E1,1.42E2,3.7E1,1.21E2,2.9E1],"tree_param":{"num_deleted":"0","num_feature":"503","num_nodes":"55","size_leaf_vector":"1"}},{"base_weights":[2.5729856E-3,-1.3630031E-2,1.1731606E-1,-7.334554E-2,1.928117E-1,-1.09216325E-1,6.595053E-2,1.6363396E-1,7.397729E-2,-4.3399137E-1,-9.3897544E-2,2.6331175E-2,1.9361383E-1,1.08862676E-1,3.2795334E-1,-5.2088063E-2,-3.111636E-2,-1.21123485E-1,4.97816E-2,-9.606079E-3,2.439917E-2,9.329251E-2,4.0167328E-2,5.2105166E-2,2.1926142E-1,2.3904568E-1,4.8215013E-2,-1.7081149E-2,-2.386303E-3,1.0086409E-2,-1.3323686E-2,-5.3907377E-3,1.8651757E-2,1.7536584E-2,-1.3514363E-3,-9.019501E-3,1.1708933E-2,1.615085E-2,3.538155E-2,1.288114E-2,3.2630984E-2],"categories":[],"categories_nodes":[],"categories_segments":[],"categories_sizes":[],"default_left":[0,0,0,0,0,0,0,0,0,0,0,0,0,0,0,0,0,0,0,0,0,0,0,0,0,0,0,0,0,0,0,0,0,0,0,0,0,0,0,0,0],"id":15,"left_children":[1,3,-1,5,7,9,11,13,-1,15,17,19,21,23,25,-1,-1,27,29,31,-1,33,-1,35,37,39,-1,-1,-1,-1,-1,-1,-1,-1,-1,-1,-1,-1,-1,-1,-1],"loss_changes":[4.4455788E1,2.8515955E1,0E0,8.971209E0,8.161715E0,7.0587997E0,1.8562229E0,4.4102907E0,0E0,5.209551E-1,5.3417244E0,2.2081823E0,1.7784607E0,2.319512E0,1.5709848E0,0E0,0E0,5.5390053E0,2.051529E0,2.121368E0,0E0,5.283296E-1,0E0,2.2946334E0,9.2198753E-1,7.2752714E-1,0E0,0E0,0E0,0E0,0E0,0E0,0E0,0E0,0E0,0E0,0E0,0E0,0E0,0E0,0E0],"parents":[2147483647,0,0,1,1,3,3,4,4,5,5,6,6,7,7,9,9,10,10,11,11,12,12,13,13,14,14,17,17,18,18,19,19,21,21,23,23,24,24,25,25],"right_children":[2,4,-1,6,8,10,12,14,-1,16,18,20,22,24,26,-1,-1,28,30,32,-1,34,-1,36,38,40,-1,-1,-1,-1,-1,-1,-1,-1,-1,-1,-1,-1,-1,-1,-1],"split_conditions":[5E0,4E0,1.1731606E-1,1E0,7.3245855E-7,1.4564611E-8,9.503949E-8,2E0,7.397729E-2,1.564E3,1E0,2E0,2E0,1E0,1.2494155E-7,-5.2088063E-2,-3.111636E-2,2E0,1.4567975E-2,1.905E3,2.439917E-2,1E0,4.0167328E-2,3E0,1E0,1E0,4.8215013E-2,-1.7081149E-2,-2.386303E-3,1.0086409E-2,-1.3323686E-2,-5.3907377E-3,1.8651757E-2,1.7536584E-2,-1.3514363E-3,-9.019501E-3,1.1708933E-2,1.615085E-2,3.538155E-2,1.288114E-2,3.2630984E-2],"split_indices":[53,27,0,53,17,3,3,82,0,2,312,39,18,320,3,0,0,27,7,2,0,26,0,30,77,164,0,0,0,0,0,0,0,0,0,0,0,0,0,0,0],"split_type":[0,0,0,0,0,0,0,0,0,0,0,0,0,0,0,0,0,0,0,0,0,0,0,0,0,0,0,0,0,0,0,0,0,0,0,0,0,0,0,0,0],"sum_hessian":[2.342E3,2.311E3,3.1E1,1.793E3,5.18E2,1.426E3,3.67E2,4.93E2,2.5E1,6.3E1,1.363E3,2.81E2,8.6E1,3.71E2,1.22E2,3.5E1,2.8E1,1.146E3,2.17E2,2.42E2,3.9E1,5.9E1,2.7E1,2.46E2,1.25E2,7.9E1,4.3E1,7.58E2,3.88E2,1.7E2,4.7E1,1.98E2,4.4E1,3.3E1,2.6E1,7.7E1,1.69E2,8.9E1,3.6E1,3.6E1,4.3E1],"tree_param":{"num_deleted":"0","num_feature":"503","num_nodes":"41","size_leaf_vector":"1"}},{"base_weights":[3.1523032E-3,-1.4400284E-1,1.731833E-1,-3.1216034E-1,-9.632566E-2,1.531898E-1,8.9731924E-2,-3.6853853E-1,-2.2581269E-1,-1.34836E-1,-4.68143E-3,9.4775826E-2,2.9531354E-1,-4.2683762E-1,-2.4640034E-1,-3.2098245E-2,-1.6633463E-1,-1.7593934E-1,-5.8016885E-2,-2.3451453E-2,1.7801058E-2,8.091067E-2,4.0421337E-2,2.6002482E-1,6.529472E-2,-5.8662433E-2,-3.7106022E-1,-1.2246425E-2,-3.5756625E-2,-9.028948E-3,-2.9447857E-2,-1.9103418E-1,4.1253157E-3,-3.4502506E-2,-1.8334402E-2,-1.2245284E-2,1.4784616E-2,1.5579236E-1,5.0859243E-2,2.1541509E-1,3.559211E-1,-2.2947354E-2,-4.262301E-2,-2.2438344E-2,-3.7132513E-3,-7.964747E-3,4.481072E-3,-5.774326E-3,8.018456E-3,1.0359547E-2,2.6998553E-2,-3.0448171E-3,1.0158036E-2,1.6518861E-2,3.503612E-2,2.1394443E-2,4.372172E-2],"categories":[],"categories_nodes":[],"categories_segments":[],"categories_sizes":[],"default_left":[0,0,0,0,0,0,0,0,0,0,0,0,0,0,0,0,0,0,0,0,0,0,0,0,0,0,0,0,0,0,0,0,0,0,0,0,0,0,0,0,0,0,0,0,0,0,0,0,0,0,0,0,0,0,0,0,0],"id":16,"left_children":[1,3,5,7,9,11,-1,13,15,17,19,21,23,25,27,-1,29,31,33,-1,35,37,-1,39,-1,-1,41,-1,-1,-1,-1,43,-1,45,-1,47,-1,49,51,53,55,-1,-1,-1,-1,-1,-1,-1,-1,-1,-1,-1,-1,-1,-1,-1,-1],"loss_changes":[5.8623966E1,1.0039631E1,1.5600151E1,1.2652493E0,3.4580345E0,8.763844E0,0E0,1.0768356E0,5.805874E-1,2.1684818E0,1.5078355E0,3.1936746E0,3.71731E0,7.716141E-1,7.277489E-1,0E0,6.652869E-1,1.4799223E0,7.0684576E-1,0E0,1.0411736E0,1.6145434E0,0E0,1.1296997E0,0E0,0E0,5.661545E-1,0E0,0E0,0E0,0E0,2.1473188E0,0E0,7.3759043E-1,0E0,9.171956E-1,0E0,1.1998997E0,2.1310787E0,1.2638083E0,9.2216873E-1,0E0,0E0,0E0,0E0,0E0,0E0,0E0,0E0,0E0,0E0,0E0,0E0,0E0,0E0,0E0,0E0],"parents":[2147483647,0,0,1,1,2,2,3,3,4,4,5,5,7,7,8,8,9,9,10,10,11,11,12,12,13,13,14,14,16,16,17,17,18,18,20,20,21,21,23,23,26,26,31,31,33,33,35,35,37,37,38,38,39,39,40,40],"right_children":[2,4,6,8,10,12,-1,14,16,18,20,22,24,26,28,-1,30,32,34,-1,36,38,-1,40,-1,-1,42,-1,-1,-1,-1,44,-1,46,-1,48,-1,50,52,54,56,-1,-1,-1,-1,-1,-1,-1,-1,-1,-1,-1,-1,-1,-1,-1,-1],"split_conditions":[3.4E1,1.3E1,5E0,1E0,2E0,9.9E1,8.9731924E-2,1.1E1,1.556E3,2.4E1,1.413E3,3.9898646E-7,7.3245855E-7,1.434E3,1.2E1,-3.2098245E-2,2.093245E-8,1E0,1E0,-2.3451453E-2,1E0,2E0,4.0421337E-2,1E0,6.529472E-2,-5.8662433E-2,1.553E3,-1.2246425E-2,-3.5756625E-2,-9.028948E-3,-2.9447857E-2,2.6236145E-7,4.1253157E-3,1.693E3,-1.8334402E-2,1.735E3,1.4784616E-2,1E0,5.2E1,2E0,1E0,-2.2947354E-2,-4.262301E-2,-2.2438344E-2,-3.7132513E-3,-7.964747E-3,4.481072E-3,-5.774326E-3,8.018456E-3,1.0359547E-2,2.6998553E-2,-3.0448171E-3,1.0158036E-2,1.6518861E-2,3.503612E-2,2.1394443E-2,4.372172E-2],"split_indices":[1,1,53,69,69,1,0,1,2,1,2,11,17,2,1,0,8,29,62,0,49,32,0,71,0,0,2,0,0,0,0,8,0,2,0,2,0,53,1,180,31,0,0,0,0,0,0,0,0,0,0,0,0,0,0,0,0],"split_type":[0,0,0,0,0,0,0,0,0,0,0,0,0,0,0,0,0,0,0,0,0,0,0,0,0,0,0,0,0,0,0,0,0,0,0,0,0,0,0,0,0,0,0,0,0,0,0,0,0,0,0,0,0,0,0,0,0],"sum_hessian":[2.341E3,1.255E3,1.086E3,2.76E2,9.79E2,1.058E3,2.8E1,1.65E2,1.11E2,6.89E2,2.9E2,7.51E2,3.07E2,1.1E2,5.5E1,4.1E1,7E1,4.48E2,2.41E2,2.5E1,2.65E2,7.2E2,3.1E1,2.81E2,2.6E1,2.6E1,8.4E1,2.7E1,2.8E1,4.5E1,2.5E1,4.19E2,2.9E1,2.04E2,3.7E1,2.16E2,4.9E1,2.05E2,5.15E2,1.94E2,8.7E1,2.5E1,5.9E1,3.44E2,7.5E1,1.3E2,7.4E1,1.45E2,7.1E1,1.42E2,6.3E1,1.98E2,3.17E2,1.43E2,5.1E1,3.3E1,5.4E1],"tree_param":{"num_deleted":"0","num_feature":"503","num_nodes":"57","size_leaf_vector":"1"}},{"base_weights":[5.5382834E-3,-1.06173106E-1,1.7551216E-1,-2.8293827E-1,-6.0507357E-2,1.3594174E-1,5.3710943E-1,-2.3651591E-1,-4.8518664E-1,-6.999521E-2,3.2651886E-2,9.829847E-2,2.5437552E-1,4.0092337E-1,8.450719E-2,-2.9982924E-1,-1.2786198E-1,-7.239205E-2,-2.0942764E-2,-1.08922765E-1,1.5305705E-2,8.445502E-2,3.409249E-2,2.1739504E-1,4.846425E-2,3.141496E-2,4.5809947E-2,-3.79586E-1,-1.7854758E-1,-3.8405955E-2,-3.0251196E-2,-1.3739708E-1,-2.2768958E-2,-4.963133E-3,2.3563838E-2,1.0617963E-1,-8.247925E-2,1.686609E-1,3.5443455E-2,-5.181266E-2,-3.1089693E-2,-7.7852444E-3,-2.8697489E-2,3.4409564E-3,-1.03194835E-2,-1.5332361E-2,1.6154286E-3,6.972074E-4,-2.0834662E-2,-2.672592E-3,2.0339964E-2,1.2808484E-2,-1.4390646E-3,3.240022E-3,-1.5109894E-2,1.34848645E-2,2.6905356E-2],"categories":[],"categories_nodes":[],"categories_segments":[],"categories_sizes":[],"default_left":[0,0,0,0,0,0,0,0,0,0,0,0,0,0,0,0,0,0,0,0,0,0,0,0,0,0,0,0,0,0,0,0,0,0,0,0,0,0,0,0,0,0,0,0,0,0,0,0,0,0,0,0,0,0,0,0,0],"id":17,"left_children":[1,3,5,7,9,11,13,15,17,19,-1,21,23,25,-1,27,29,-1,-1,31,33,35,-1,37,-1,-1,-1,39,41,43,-1,45,47,49,-1,51,53,55,-1,-1,-1,-1,-1,-1,-1,-1,-1,-1,-1,-1,-1,-1,-1,-1,-1,-1,-1],"loss_changes":[4.433667E1,1.1356488E1,1.3176706E1,2.5986233E0,4.1392207E0,3.7020788E0,3.4777489E0,1.5920429E0,3.3375397E0,3.6376767E0,0E0,2.1073947E0,1.6062326E0,1.7857838E-1,0E0,1.3735085E0,1.3788726E0,0E0,0E0,1.8416557E0,1.5374347E0,2.1955867E0,0E0,1.1089592E0,0E0,0E0,0E0,6.858597E-1,6.436627E-1,2.8660905E-1,0E0,1.3842058E0,1.0390755E0,1.4383552E0,0E0,1.4122E0,5.5670524E-1,4.083984E-1,0E0,0E0,0E0,0E0,0E0,0E0,0E0,0E0,0E0,0E0,0E0,0E0,0E0,0E0,0E0,0E0,0E0,0E0,0E0],"parents":[2147483647,0,0,1,1,2,2,3,3,4,4,5,5,6,6,7,7,8,8,9,9,11,11,12,12,13,13,15,15,16,16,19,19,20,20,21,21,23,23,27,27,28,28,29,29,31,31,32,32,33,33,35,35,36,36,37,37],"right_children":[2,4,6,8,10,12,14,16,18,20,-1,22,24,26,-1,28,30,-1,-1,32,34,36,-1,38,-1,-1,-1,40,42,44,-1,46,48,50,-1,52,54,56,-1,-1,-1,-1,-1,-1,-1,-1,-1,-1,-1,-1,-1,-1,-1,-1,-1,-1,-1],"split_conditions":[4.1E1,1.3E1,1.2050885E-5,3.632863E-8,5.3189165E-8,1.11E2,5.5206664E-7,1.653E3,2.8034342E-6,2E0,3.2651886E-2,1.5082213E-2,1E0,1E0,8.450719E-2,1E0,1.775E3,-7.239205E-2,-2.0942764E-2,4.9689916E-6,7.437758E-6,6E0,3.409249E-2,2E0,4.846425E-2,3.141496E-2,4.5809947E-2,1.417E3,2.6824468E-6,1.699E3,-3.0251196E-2,7.404526E-8,1E0,1.964E3,2.3563838E-2,4.0286753E-2,3.4447182E-6,7.5705955E-8,3.5443455E-2,-5.181266E-2,-3.1089693E-2,-7.7852444E-3,-2.8697489E-2,3.4409564E-3,-1.03194835E-2,-1.5332361E-2,1.6154286E-3,6.972074E-4,-2.0834662E-2,-2.672592E-3,2.0339964E-2,1.2808484E-2,-1.4390646E-3,3.240022E-3,-1.5109894E-2,1.34848645E-2,2.6905356E-2],"split_indices":[1,1,5,6,17,1,17,2,5,69,0,10,57,320,0,69,2,0,0,5,5,122,0,51,0,0,0,2,5,2,0,6,62,2,0,7,5,6,0,0,0,0,0,0,0,0,0,0,0,0,0,0,0,0,0,0,0],"split_type":[0,0,0,0,0,0,0,0,0,0,0,0,0,0,0,0,0,0,0,0,0,0,0,0,0,0,0,0,0,0,0,0,0,0,0,0,0,0,0,0,0,0,0,0,0,0,0,0,0,0,0,0,0,0,0,0,0],"sum_hessian":[2.333E3,1.408E3,9.25E2,2.88E2,1.12E3,8.35E2,9E1,2.36E2,5.2E1,1.094E3,2.6E1,6.35E2,2E2,6.4E1,2.6E1,1.48E2,8.8E1,2.7E1,2.5E1,7.51E2,3.43E2,6.02E2,3.3E1,1.74E2,2.6E1,2.8E1,3.6E1,8.8E1,6E1,5.9E1,2.9E1,5.64E2,1.87E2,3.15E2,2.8E1,5.33E2,6.9E1,1.3E2,4.4E1,2.7E1,6.1E1,3.2E1,2.8E1,2.8E1,3.1E1,5.11E2,5.3E1,1.62E2,2.5E1,2.86E2,2.9E1,4.51E2,8.2E1,2.6E1,4.3E1,9.9E1,3.1E1],"tree_param":{"num_deleted":"0","num_feature":"503","num_nodes":"57","size_leaf_vector":"1"}},{"base_weights":[8.1948715E-4,-1.0987206E-1,1.4926894E-1,-2.4853437E-1,-7.1486644E-2,1.21357255E-1,6.015617E-1,-2.9359868E-1,-9.079874E-2,-1.0037251E-1,3.3672705E-2,6.732111E-2,2.3959692E-1,4.35045E-2,7.704677E-2,-3.8090274E-1,-1.8715371E-1,-1.6651249E-4,-1.9473245E-2,-3.466271E-2,-8.983887E-2,-5.2955456E-2,1.3413747E-1,5.17551E-2,2.0398472E-1,2.0223182E-1,5.0711777E-2,-3.216712E-1,-5.752025E-2,-6.811502E-4,-2.8970525E-1,-8.007218E-2,-2.8406441E-2,1.3440805E-2,-1.5421311E-2,2.3566669E-2,6.699941E-2,4.0304653E-2,2.6594957E-2,5.8730883E-3,3.9382976E-2,1.6354574E-1,3.238536E-1,-3.9876044E-2,-2.1489762E-2,-3.943811E-2,-1.46163525E-2,-1.5723798E-2,-5.3371745E-3,-5.91383E-3,6.1528194E-3,1.7813373E-2,-5.7051107E-3,3.0363156E-3,2.1061769E-2,7.37353E-3,2.339073E-2,4.4057332E-2,2.3056012E-2],"categories":[],"categories_nodes":[],"categories_segments":[],"categories_sizes":[],"default_left":[0,0,0,0,0,0,0,0,0,0,0,0,0,0,0,0,0,0,0,0,0,0,0,0,0,0,0,0,0,0,0,0,0,0,0,0,0,0,0,0,0,0,0,0,0,0,0,0,0,0,0,0,0,0,0,0,0,0,0],"id":18,"left_children":[1,3,5,7,9,11,13,15,17,19,21,23,25,-1,-1,27,29,-1,-1,-1,31,33,35,37,39,41,-1,43,-1,-1,45,47,-1,49,-1,-1,51,53,-1,-1,-1,55,57,-1,-1,-1,-1,-1,-1,-1,-1,-1,-1,-1,-1,-1,-1,-1,-1],"loss_changes":[3.789239E1,7.013402E0,1.2361891E1,2.0063019E0,3.150353E0,5.9194517E0,1.267973E0,1.9917755E0,6.01835E-1,2.0777464E0,1.9565924E0,1.3487923E0,2.806263E0,0E0,0E0,1.2075233E0,1.8844523E0,0E0,0E0,0E0,1.458765E0,8.1557155E-1,6.931238E-1,1.399539E0,1.7692919E0,1.1562376E0,0E0,6.9626236E-1,0E0,0E0,9.19003E-1,1.5265765E0,0E0,2.6190898E-1,0E0,0E0,8.9248407E-1,9.197672E-1,0E0,0E0,0E0,1.2276359E0,5.6266165E-1,0E0,0E0,0E0,0E0,0E0,0E0,0E0,0E0,0E0,0E0,0E0,0E0,0E0,0E0,0E0,0E0],"parents":[2147483647,0,0,1,1,2,2,3,3,4,4,5,5,6,6,7,7,8,8,9,9,10,10,11,11,12,12,15,15,16,16,20,20,21,21,22,22,23,23,24,24,25,25,27,27,30,30,31,31,33,33,36,36,37,37,41,41,42,42],"right_children":[2,4,6,8,10,12,14,16,18,20,22,24,26,-1,-1,28,30,-1,-1,-1,32,34,36,38,40,42,-1,44,-1,-1,46,48,-1,50,-1,-1,52,54,-1,-1,-1,56,58,-1,-1,-1,-1,-1,-1,-1,-1,-1,-1,-1,-1,-1,-1,-1,-1],"split_conditions":[3.8E1,1.3E1,3E0,1.714E3,5.367013E-6,6.781697E-6,5E0,2.564011E-6,4.45317E-9,1.315E3,2.5E1,1E0,3E0,4.35045E-2,7.704677E-2,1.9382032E-6,3.6728802E-6,-1.6651249E-4,-1.9473245E-2,-3.466271E-2,3E0,2.1E1,6.287708E-6,2.1155134E-7,5.241038E-6,1E0,5.0711777E-2,1E1,-5.752025E-2,-6.811502E-4,4.8994625E-6,1.7E1,-2.8406441E-2,1.566E3,-1.5421311E-2,2.3566669E-2,1E0,1E0,2.6594957E-2,5.8730883E-3,3.9382976E-2,1E0,3.8021696E-8,-3.9876044E-2,-2.1489762E-2,-3.943811E-2,-1.46163525E-2,-1.5723798E-2,-5.3371745E-3,-5.91383E-3,6.1528194E-3,1.7813373E-2,-5.7051107E-3,3.0363156E-3,2.1061769E-2,7.37353E-3,2.339073E-2,4.4057332E-2,2.3056012E-2],"split_indices":[1,1,201,2,5,5,201,5,6,2,1,380,31,0,0,5,5,0,0,0,122,1,5,12,5,199,0,1,0,0,5,1,0,2,0,0,51,342,0,0,0,207,8,0,0,0,0,0,0,0,0,0,0,0,0,0,0,0,0],"split_type":[0,0,0,0,0,0,0,0,0,0,0,0,0,0,0,0,0,0,0,0,0,0,0,0,0,0,0,0,0,0,0,0,0,0,0,0,0,0,0,0,0,0,0,0,0,0,0,0,0,0,0,0,0,0,0,0,0,0,0],"sum_hessian":[2.304E3,1.32E3,9.84E2,2.85E2,1.035E3,9.28E2,5.6E1,2.21E2,6.4E1,8.12E2,2.23E2,6.38E2,2.9E2,3E1,2.6E1,1.2E2,1.01E2,3.5E1,2.9E1,3.2E1,7.8E2,1.2E2,1.03E2,5.74E2,6.4E1,2.56E2,3.4E1,9.4E1,2.6E1,3.7E1,6.4E1,7.44E2,3.6E1,7.3E1,4.7E1,4E1,6.3E1,5.46E2,2.8E1,3.7E1,2.7E1,1.96E2,6E1,5.3E1,4.1E1,3.6E1,2.8E1,1.9E2,5.54E2,2.9E1,4.4E1,3.3E1,3E1,5.17E2,2.9E1,8.7E1,1.09E2,2.5E1,3.5E1],"tree_param":{"num_deleted":"0","num_feature":"503","num_nodes":"59","size_leaf_vector":"1"}},{"base_weights":[5.889942E-3,-1.2628715E-1,1.135814E-1,-4.9693443E-2,-1.1068727E-1,7.563817E-2,3.5223708E-1,-8.017125E-2,-2.0617513E-1,5.505433E-2,2.0700772E-1,2.7214512E-1,7.041463E-2,-1.0616378E-1,5.7479296E-2,-6.1262112E-2,-1.4385228E-1,2.7041724E-2,1.5510397E-1,1.6199817E-1,4.060513E-2,2.3803923E-1,4.003604E-2,-1.2808707E-1,4.5385655E-2,-5.1643546E-3,9.522052E-2,-1.13360815E-1,-3.2505512E-2,1.1139748E-1,-9.184923E-3,2.3884465E-1,8.518613E-2,1.0746462E-1,3.1542387E-2,3.3918858E-1,1.2929785E-1,-1.40285585E-2,1.0095057E-2,-4.5684087E-3,2.4329295E-2,1.951738E-2,-2.5053916E-4,-1.500649E-2,1.1404714E-2,-4.4763248E-4,2.449709E-2,6.198717E-4,-2.0731121E-2,3.0631492E-2,1.1975962E-2,3.7158174E-3,1.7213587E-2,3.6464382E-3,2.240803E-2,2.4721073E-2,4.4244997E-2,5.7820296E-3,2.1504639E-2],"categories":[],"categories_nodes":[],"categories_segments":[],"categories_sizes":[],"default_left":[0,0,0,0,0,0,0,0,0,0,0,0,0,0,0,0,0,0,0,0,0,0,0,0,0,0,0,0,0,0,0,0,0,0,0,0,0,0,0,0,0,0,0,0,0,0,0,0,0,0,0,0,0,0,0,0,0,0,0],"id":19,"left_children":[1,3,5,-1,7,9,11,13,15,17,19,21,-1,23,25,-1,27,29,31,33,-1,35,-1,37,39,-1,41,43,-1,45,47,49,51,53,-1,55,57,-1,-1,-1,-1,-1,-1,-1,-1,-1,-1,-1,-1,-1,-1,-1,-1,-1,-1,-1,-1,-1,-1],"loss_changes":[3.3194595E1,5.998802E0,1.1609505E1,0E0,2.9148636E0,2.9901433E0,4.7689476E0,2.7396069E0,6.067275E0,2.689153E0,1.2780495E0,5.3876877E-1,0E0,2.1421561E0,5.0736594E-1,0E0,1.1344814E0,2.2990797E0,1.2091966E0,1.0035927E0,0E0,1.2430401E0,0E0,1.5843449E0,1.4890306E0,0E0,8.8937944E-1,1.544579E0,0E0,3.4990475E0,1.6075302E0,7.2661257E-1,4.780218E-1,7.618449E-1,0E0,4.6048784E-1,3.4305346E-1,0E0,0E0,0E0,0E0,0E0,0E0,0E0,0E0,0E0,0E0,0E0,0E0,0E0,0E0,0E0,0E0,0E0,0E0,0E0,0E0,0E0,0E0],"parents":[2147483647,0,0,1,1,2,2,4,4,5,5,6,6,7,7,8,8,9,9,10,10,11,11,13,13,14,14,16,16,17,17,18,18,19,19,21,21,23,23,24,24,26,26,27,27,29,29,30,30,31,31,32,32,33,33,35,35,36,36],"right_children":[2,4,6,-1,8,10,12,14,16,18,20,22,-1,24,26,-1,28,30,32,34,-1,36,-1,38,40,-1,42,44,-1,46,48,50,52,54,-1,56,58,-1,-1,-1,-1,-1,-1,-1,-1,-1,-1,-1,-1,-1,-1,-1,-1,-1,-1,-1,-1,-1,-1],"split_conditions":[2.8E1,7E0,9.147513E-6,-4.9693443E-2,2.2815499E-1,2.449718E-8,2E0,1E0,2.6824468E-6,8E1,2.5567283E-7,3E0,7.041463E-2,5.925304E-6,8.1820707E-7,-6.1262112E-2,5.665807E-6,8.624486E-2,2E0,1E0,4.060513E-2,2.1408455E-4,4.003604E-2,1E0,2.3E1,-5.1643546E-3,1.0448662E-1,5.089218E-6,-3.2505512E-2,1.6302106E-6,1E0,8E0,6.635301E-6,2E0,3.1542387E-2,1E0,1E0,-1.40285585E-2,1.0095057E-2,-4.5684087E-3,2.4329295E-2,1.951738E-2,-2.5053916E-4,-1.500649E-2,1.1404714E-2,-4.4763248E-4,2.449709E-2,6.198717E-4,-2.0731121E-2,3.0631492E-2,1.1975962E-2,3.7158174E-3,1.7213587E-2,3.6464382E-3,2.240803E-2,2.4721073E-2,4.4244997E-2,5.7820296E-3,2.1504639E-2],"split_indices":[1,1,5,0,4,15,67,312,5,1,11,31,0,5,5,0,5,4,161,49,0,10,0,362,1,0,4,5,0,5,73,32,5,182,0,110,107,0,0,0,0,0,0,0,0,0,0,0,0,0,0,0,0,0,0,0,0,0,0],"split_type":[0,0,0,0,0,0,0,0,0,0,0,0,0,0,0,0,0,0,0,0,0,0,0,0,0,0,0,0,0,0,0,0,0,0,0,0,0,0,0,0,0,0,0,0,0,0,0,0,0,0,0,0,0,0,0,0,0,0,0],"sum_hessian":[2.33E3,1.046E3,1.284E3,4.1E1,1.005E3,1.109E3,1.75E2,7.63E2,2.42E2,9.6E2,1.49E2,1.44E2,3.1E1,6.42E2,1.21E2,3.1E1,2.11E2,7.51E2,2.09E2,1.23E2,2.6E1,1.16E2,2.8E1,5.61E2,8.1E1,3.1E1,9E1,1.82E2,2.9E1,2.25E2,5.26E2,9.4E1,1.15E2,9.2E1,3.1E1,5.9E1,5.7E1,5.33E2,2.8E1,5.6E1,2.5E1,4.4E1,4.6E1,1.57E2,2.5E1,1.21E2,1.04E2,4.89E2,3.7E1,5.9E1,3.5E1,7.5E1,4E1,5.8E1,3.4E1,3.3E1,2.6E1,3.2E1,2.5E1],"tree_param":{"num_deleted":"0","num_feature":"503","num_nodes":"59","size_leaf_vector":"1"}},{"base_weights":[4.244009E-3,-7.391722E-3,6.393985E-2,-3.816326E-2,1.6646658E-1,-6.57972E-2,6.0194273E-2,1.1754999E-1,3.324048E-1,-1.108164E-1,-2.5671315E-3,3.7229493E-2,2.7605135E-2,9.317828E-2,3.0779297E-2,2.1647956E-2,4.3174025E-2,-3.6121543E-2,-9.7350396E-2,-1.3387556E-1,2.9621342E-2,6.898375E-2,-7.0225626E-2,-3.8069822E-3,1.1818076E-1,-1.1164227E-2,4.8729754E-3,-3.6417374E-3,-2.0992963E-2,1.5200395E-3,2.8703308E-2,4.3471656E-3,2.6090471E-2,-1.7072417E-2,1.917363E-3,1.616497E-2,1.0820797E-3],"categories":[],"categories_nodes":[],"categories_segments":[],"categories_sizes":[],"default_left":[0,0,0,0,0,0,0,0,0,0,0,0,0,0,0,0,0,0,0,0,0,0,0,0,0,0,0,0,0,0,0,0,0,0,0,0,0],"id":20,"left_children":[1,3,-1,5,7,9,11,13,15,17,19,21,-1,23,-1,-1,-1,-1,25,27,29,31,33,-1,35,-1,-1,-1,-1,-1,-1,-1,-1,-1,-1,-1,-1],"loss_changes":[1.7254122E1,1.2273644E1,0E0,5.3013544E0,2.7613354E0,4.3321905E0,2.1113656E0,1.2139149E0,8.047457E-1,2.962432E0,2.6836417E0,1.3287613E0,0E0,7.8878427E-1,0E0,0E0,0E0,0E0,1.7695961E0,9.188664E-1,1.888819E0,1.4575495E0,8.028934E-1,0E0,9.3628216E-1,0E0,0E0,0E0,0E0,0E0,0E0,0E0,0E0,0E0,0E0,0E0,0E0],"parents":[2147483647,0,0,1,1,3,3,4,4,5,5,6,6,7,7,8,8,9,9,10,10,11,11,13,13,18,18,19,19,20,20,21,21,22,22,24,24],"right_children":[2,4,-1,6,8,10,12,14,16,18,20,22,-1,24,-1,-1,-1,-1,26,28,30,32,34,-1,36,-1,-1,-1,-1,-1,-1,-1,-1,-1,-1,-1,-1],"split_conditions":[4E0,3E0,6.393985E-2,1E0,7E0,2E0,3.922509E-8,1.4831862E-7,1E0,1.4564611E-8,2.6770396E-8,3.72E2,2.7605135E-2,2.9019436E-8,3.0779297E-2,2.1647956E-2,4.3174025E-2,-3.6121543E-2,1E0,1E0,1.8834082E-7,1E0,3E0,-3.8069822E-3,2.9420885E-1,-1.1164227E-2,4.8729754E-3,-3.6417374E-3,-2.0992963E-2,1.5200395E-3,2.8703308E-2,4.3471656E-3,2.6090471E-2,-1.7072417E-2,1.917363E-3,1.616497E-2,1.0820797E-3],"split_indices":[53,18,0,53,18,27,15,3,159,3,3,0,0,3,0,0,0,0,233,18,12,487,30,0,4,0,0,0,0,0,0,0,0,0,0,0,0],"split_type":[0,0,0,0,0,0,0,0,0,0,0,0,0,0,0,0,0,0,0,0,0,0,0,0,0,0,0,0,0,0,0,0,0,0,0,0,0],"sum_hessian":[2.333E3,2.292E3,4.1E1,1.948E3,3.44E2,1.521E3,4.27E2,2.67E2,7.7E1,8.88E2,6.33E2,3.87E2,4E1,2.38E2,2.9E1,3.7E1,4E1,4.4E1,8.44E2,1.24E2,5.09E2,2.99E2,8.8E1,3.8E1,2E2,7.69E2,7.5E1,5.5E1,6.9E1,4.83E2,2.6E1,2.65E2,3.4E1,4.1E1,4.7E1,1.42E2,5.8E1],"tree_param":{"num_deleted":"0","num_feature":"503","num_nodes":"37","size_leaf_vector":"1"}},{"base_weights":[-2.8837991E-3,-3.136963E-2,1.8933417E-1,-6.228841E-2,4.4070862E-2,1.2485663E-1,3.6589265E-1,-8.780506E-2,4.382814E-2,2.1625679E-2,1.8313149E-1,2.6452644E-2,9.54928E-2,2.4548076E-2,4.9919616E-2,-1.1118797E-1,4.9295157E-2,1.788764E-2,2.9655889E-2,2.4071918E-3,1.7738971E-1,1.6387835E-3,2.5597715E-1,4.9522046E-2,2.0905161E-1,-1.2087691E-1,1.8356029E-2,-5.049658E-2,1.3856E-1,7.242317E-2,-5.3513613E-2,2.3689317E-2,-1.528026E-1,1.0358561E-2,2.5856424E-2,3.5923854E-2,1.5106732E-2,2.1198587E-2,1.4437178E-4,2.682739E-2,1.4208669E-2,-1.5029854E-2,-4.412727E-3,-1.1353224E-2,3.1451676E-3,8.681803E-3,2.5003089E-2,3.381038E-3,2.1931184E-2,-1.4748581E-2,2.5930577E-3,7.9397886E-4,1.656303E-2,-1.0654091E-2,-2.0030446E-2,-1.1261059E-2,6.5061706E-3],"categories":[],"categories_nodes":[],"categories_segments":[],"categories_sizes":[],"default_left":[0,0,0,0,0,0,0,0,0,0,0,0,0,0,0,0,0,0,0,0,0,0,0,0,0,0,0,0,0,0,0,0,0,0,0,0,0,0,0,0,0,0,0,0,0,0,0,0,0,0,0,0,0,0,0,0,0],"id":21,"left_children":[1,3,5,7,9,11,13,15,17,19,21,-1,23,-1,-1,25,27,29,-1,31,33,-1,35,37,39,41,-1,43,45,47,49,51,53,-1,-1,-1,-1,-1,55,-1,-1,-1,-1,-1,-1,-1,-1,-1,-1,-1,-1,-1,-1,-1,-1,-1,-1],"loss_changes":[1.2769303E1,4.7401094E0,3.3809175E0,3.9056997E0,1.8406932E0,8.8521504E-1,1.1615629E0,3.7306232E0,1.8303647E0,1.5262831E0,9.918225E-1,0E0,9.5541835E-1,0E0,0E0,2.857994E0,1.5213386E0,9.9682146E-1,0E0,1.5065731E0,3.0871332E-1,0E0,5.6321955E-1,1.0669068E0,1.7207003E-1,2.165659E0,0E0,4.2198944E-1,4.97388E-1,8.149931E-1,8.3249986E-1,8.951219E-1,9.952295E-2,0E0,0E0,0E0,0E0,0E0,7.6126105E-1,0E0,0E0,0E0,0E0,0E0,0E0,0E0,0E0,0E0,0E0,0E0,0E0,0E0,0E0,0E0,0E0,0E0,0E0],"parents":[2147483647,0,0,1,1,2,2,3,3,4,4,5,5,6,6,7,7,8,8,9,9,10,10,12,12,15,15,16,16,17,17,19,19,20,20,22,22,23,23,24,24,25,25,27,27,28,28,29,29,30,30,31,31,32,32,38,38],"right_children":[2,4,6,8,10,12,14,16,18,20,22,-1,24,-1,-1,26,28,30,-1,32,34,-1,36,38,40,42,-1,44,46,48,50,52,54,-1,-1,-1,-1,-1,56,-1,-1,-1,-1,-1,-1,-1,-1,-1,-1,-1,-1,-1,-1,-1,-1,-1,-1],"split_conditions":[6E0,1E0,1E0,1E0,1E0,1E0,4E0,1E0,1E0,1E0,1E0,2.6452644E-2,1E0,2.4548076E-2,4.9919616E-2,1E0,1E0,2.78412E-3,2.9655889E-2,3.1124592E-2,1.521198E-7,1.6387835E-3,1E0,1E0,2E0,1E0,1.8356029E-2,1E0,1.7160527E-7,1E0,2.5991045E-7,2E0,7.490854E-2,1.0358561E-2,2.5856424E-2,3.5923854E-2,1.5106732E-2,2.1198587E-2,1E0,2.682739E-2,1.4208669E-2,-1.5029854E-2,-4.412727E-3,-1.1353224E-2,3.1451676E-3,8.681803E-3,2.5003089E-2,3.381038E-3,2.1931184E-2,-1.4748581E-2,2.5930577E-3,7.9397886E-4,1.656303E-2,-1.0654091E-2,-2.0030446E-2,-1.1261059E-2,6.5061706E-3],"split_indices":[27,182,380,110,159,122,110,312,380,352,18,0,378,0,0,366,18,7,0,7,8,0,459,26,459,26,0,122,8,121,8,204,7,0,0,0,0,0,331,0,0,0,0,0,0,0,0,0,0,0,0,0,0,0,0,0,0],"split_type":[0,0,0,0,0,0,0,0,0,0,0,0,0,0,0,0,0,0,0,0,0,0,0,0,0,0,0,0,0,0,0,0,0,0,0,0,0,0,0,0,0,0,0,0,0,0,0,0,0,0,0,0,0,0,0,0,0],"sum_hessian":[2.33E3,2.03E3,3E2,1.44E3,5.9E2,2.21E2,7.9E1,1.161E3,2.79E2,5.09E2,8.1E1,3.7E1,1.84E2,4.3E1,3.6E1,9.92E2,1.69E2,2.54E2,2.5E1,4.54E2,5.5E1,2.5E1,5.6E1,1.32E2,5.2E1,9.61E2,3.1E1,8E1,8.9E1,1.44E2,1.1E2,4E2,5.4E1,3E1,2.5E1,2.7E1,2.9E1,3E1,1.02E2,2.6E1,2.6E1,6.94E2,2.67E2,4.5E1,3.5E1,6.2E1,2.7E1,1.15E2,2.9E1,5E1,6E1,3.61E2,3.9E1,2.9E1,2.5E1,3.7E1,6.5E1],"tree_param":{"num_deleted":"0","num_feature":"503","num_nodes":"57","size_leaf_vector":"1"}},{"base_weights":[-6.4568536E-4,-6.5381765E-2,9.9745974E-2,-7.95047E-2,2.178419E-1,8.372234E-2,4.8465822E-2,-9.398138E-2,1.5898298E-1,1.4461766E-2,3.146679E-2,-4.777763E-2,1.1475322E-1,-1.4421459E-1,-4.014133E-2,2.8907297E-2,6.005069E-3,-1.0791549E-1,3.3069756E-2,5.578572E-2,1.7971498E-1,-1.665345E-1,4.405736E-2,-7.1714945E-2,9.237993E-2,-1.989615E-2,-8.7619544E-4,1.3070069E-2,-2.164246E-3,9.0262756E-2,-1.1100668E-1,2.9474217E-1,1.482182E-1,-1.9571444E-2,-3.155435E-3,-1.2337217E-2,1.882973E-2,-2.1767938E-3,-1.5647862E-2,1.470504E-2,-8.047256E-3,1.1048126E-2,-7.0598214E-3,-1.908105E-2,-5.4957806E-3,4.1216698E-2,1.2052276E-2,1.1773064E-2,2.8712368E-2],"categories":[],"categories_nodes":[],"categories_segments":[],"categories_sizes":[],"default_left":[0,0,0,0,0,0,0,0,0,0,0,0,0,0,0,0,0,0,0,0,0,0,0,0,0,0,0,0,0,0,0,0,0,0,0,0,0,0,0,0,0,0,0,0,0,0,0,0,0],"id":22,"left_children":[1,3,5,7,9,11,-1,13,15,-1,-1,17,19,21,23,-1,-1,25,27,29,31,33,35,37,39,-1,-1,-1,-1,41,43,45,47,-1,-1,-1,-1,-1,-1,-1,-1,-1,-1,-1,-1,-1,-1,-1,-1],"loss_changes":[1.5019125E1,5.637246E0,5.5473537E0,4.6378527E0,4.2952394E-1,3.5596504E0,0E0,3.4100676E0,9.736388E-1,0E0,0E0,8.155209E-1,2.6905699E0,2.75138E0,2.5631561E0,0E0,0E0,8.648999E-1,3.8742426E-1,2.1434581E0,1.1700153E0,2.294035E0,1.7137322E0,2.0880375E0,1.1269249E0,0E0,0E0,0E0,0E0,1.0095291E0,2.7578002E-1,1.4028187E0,1.0884423E0,0E0,0E0,0E0,0E0,0E0,0E0,0E0,0E0,0E0,0E0,0E0,0E0,0E0,0E0,0E0,0E0],"parents":[2147483647,0,0,1,1,2,2,3,3,4,4,5,5,7,7,8,8,11,11,12,12,13,13,14,14,17,17,18,18,19,19,20,20,21,21,22,22,23,23,24,24,29,29,30,30,31,31,32,32],"right_children":[2,4,6,8,10,12,-1,14,16,-1,-1,18,20,22,24,-1,-1,26,28,30,32,34,36,38,40,-1,-1,-1,-1,42,44,46,48,-1,-1,-1,-1,-1,-1,-1,-1,-1,-1,-1,-1,-1,-1,-1,-1],"split_conditions":[2E0,2.0310907E-7,5.5206664E-7,2.3594716E-8,1E0,3.1475583E-8,4.8465822E-2,1E0,1E0,1.4461766E-2,3.146679E-2,3E0,5.115664E-6,1E0,5.9015074E-6,2.8907297E-2,6.005069E-3,5.533411E-6,1.0448662E-1,3.0058844E-2,1.5439877E-1,1E0,6.877078E-8,1.8108636E-1,3.0143943E-1,-1.989615E-2,-8.7619544E-4,1.3070069E-2,-2.164246E-3,1E0,5.029697E-8,1E0,2E0,-1.9571444E-2,-3.155435E-3,-1.2337217E-2,1.882973E-2,-2.1767938E-3,-1.5647862E-2,1.470504E-2,-8.047256E-3,1.1048126E-2,-7.0598214E-3,-1.908105E-2,-5.4957806E-3,4.1216698E-2,1.2052276E-2,1.1773064E-2,2.8712368E-2],"split_indices":[69,3,17,17,161,3,0,69,18,0,0,69,5,66,5,0,0,5,4,7,4,47,3,4,4,0,0,0,0,178,6,459,375,0,0,0,0,0,0,0,0,0,0,0,0,0,0,0,0],"split_type":[0,0,0,0,0,0,0,0,0,0,0,0,0,0,0,0,0,0,0,0,0,0,0,0,0,0,0,0,0,0,0,0,0,0,0,0,0,0,0,0,0,0,0,0,0,0,0,0,0],"sum_hessian":[2.309E3,1.404E3,9.05E2,1.338E3,6.6E1,8.7E2,3.5E1,1.262E3,7.6E1,3.9E1,2.7E1,1.66E2,7.04E2,6.52E2,6.1E2,3.2E1,4.4E1,9.5E1,7.1E1,3.7E2,3.34E2,5.83E2,6.9E1,4.93E2,1.17E2,4.9E1,4.6E1,2.5E1,4.6E1,3.07E2,6.3E1,7E1,2.64E2,4.79E2,1.04E2,3.2E1,3.7E1,3.11E2,1.82E2,8.9E1,2.8E1,2.73E2,3.4E1,2.5E1,3.8E1,4.1E1,2.9E1,2.18E2,4.6E1],"tree_param":{"num_deleted":"0","num_feature":"503","num_nodes":"49","size_leaf_vector":"1"}},{"base_weights":[4.90471E-3,-3.1905897E-2,1.6017805E-1,-3.9172035E-2,4.011069E-2,1.306392E-1,4.2574406E-2,-4.6462648E-2,2.1282709E-1,9.464726E-2,2.5395966E-1,-1.133326E-1,-2.402189E-2,3.0476203E-2,1.0917052E-2,5.9261445E-2,2.1613449E-1,4.224501E-2,9.082056E-3,-8.813259E-2,-4.096146E-2,2.1612749E-2,-1.04020305E-1,2.6376853E-2,2.206349E-2,1.2345749E-2,2.825558E-2,-1.1311915E-2,3.0819569E-3,3.7948817E-3,-1.6825153E-2,-1.612453E-2,-5.5654915E-3,-3.8176242E-4,1.7657345E-2],"categories":[],"categories_nodes":[],"categories_segments":[],"categories_sizes":[],"default_left":[0,0,0,0,0,0,0,0,0,0,0,0,0,0,0,0,0,0,0,0,0,0,0,0,0,0,0,0,0,0,0,0,0,0,0],"id":23,"left_children":[1,3,5,7,-1,9,-1,11,13,15,17,19,21,-1,-1,23,25,-1,-1,27,-1,29,31,33,-1,-1,-1,-1,-1,-1,-1,-1,-1,-1,-1],"loss_changes":[1.3242686E1,5.908788E0,3.4273462E0,3.395901E0,0E0,1.7558188E0,0E0,2.6863751E0,4.622717E-1,1.3284562E0,2.4354963E0,3.3237371E0,4.905137E0,0E0,0E0,1.2837085E0,3.9601755E-1,0E0,0E0,1.2399235E0,0E0,2.661385E0,1.3416681E0,9.213009E-1,0E0,0E0,0E0,0E0,0E0,0E0,0E0,0E0,0E0,0E0,0E0],"parents":[2147483647,0,0,1,1,2,2,3,3,5,5,7,7,8,8,9,9,10,10,11,11,12,12,15,15,16,16,19,19,21,21,22,22,23,23],"right_children":[2,4,6,8,-1,10,-1,12,14,16,18,20,22,-1,-1,24,26,-1,-1,28,-1,30,32,34,-1,-1,-1,-1,-1,-1,-1,-1,-1,-1,-1],"split_conditions":[6.635301E-6,3E0,1.3874079E-7,3E0,4.011069E-2,2E0,4.2574406E-2,1.6302106E-6,4.7736194E-6,1E0,1.767E3,4.0043E-3,2.42E2,3.0476203E-2,1.0917052E-2,1.1021586E-5,1E0,4.224501E-2,9.082056E-3,1E0,-4.096146E-2,1.3402229E-6,4.91829E-6,5.425919E-8,2.206349E-2,1.2345749E-2,2.825558E-2,-1.1311915E-2,3.0819569E-3,3.7948817E-3,-1.6825153E-2,-1.612453E-2,-5.5654915E-3,-3.8176242E-4,1.7657345E-2],"split_indices":[5,53,15,207,0,53,0,5,5,159,2,7,0,0,0,5,164,0,0,49,0,8,5,6,0,0,0,0,0,0,0,0,0,0,0],"split_type":[0,0,0,0,0,0,0,0,0,0,0,0,0,0,0,0,0,0,0,0,0,0,0,0,0,0,0,0,0,0,0,0,0,0,0],"sum_hessian":[2.315E3,1.872E3,4.43E2,1.842E3,3E1,4E2,4.3E1,1.791E3,5.1E1,3.11E2,8.9E1,4.49E2,1.342E3,2.6E1,2.5E1,2.42E2,6.9E1,4.3E1,4.6E1,4.15E2,3.4E1,8.55E2,4.87E2,2.02E2,4E1,3E1,3.9E1,3.43E2,7.2E1,7.88E2,6.7E1,2.22E2,2.65E2,1.69E2,3.3E1],"tree_param":{"num_deleted":"0","num_feature":"503","num_nodes":"35","size_leaf_vector":"1"}},{"base_weights":[1.9032442E-3,-8.429183E-2,7.193114E-2,-1.5444644E-1,-2.7641203E-2,4.5389105E-2,2.5189087E-1,-1.7807266E-1,2.4242597E-2,-5.5050608E-2,1.3681799E-1,2.898235E-2,2.0605552E-1,1.6021666E-1,4.4605392E-1,-2.0442867E-1,-2.6732083E-2,1.7503213E-2,-1.3279808E-2,-8.274245E-2,9.689525E-2,4.211943E-3,2.4500556E-2,1.0775079E-2,1.23792686E-1,2.730975E-1,8.55974E-3,8.932096E-2,3.2648817E-2,3.0302173E-2,5.725656E-2,-1.4131774E-1,-2.6364228E-1,-1.5579033E-2,8.792908E-3,-1.02029346E-1,9.602412E-3,2.4095085E-2,1.5905993E-2,3.723732E-2,-2.9682616E-2,1.7236973E-1,-2.8677148E-4,1.9117747E-2,3.425336E-2,1.644118E-1,-7.87367E-3,-1.7859746E-2,7.775905E-3,-4.1930575E-2,-2.047531E-2,-3.893579E-3,-1.5121396E-2,-1.543728E-2,1.85573E-2,4.777253E-3,-1.3783492E-2,-2.330177E-2,-8.011423E-4,2.5867188E-2,7.875782E-3,5.4301945E-3,2.936081E-2],"categories":[],"categories_nodes":[],"categories_segments":[],"categories_sizes":[],"default_left":[0,0,0,0,0,0,0,0,0,0,0,0,0,0,0,0,0,0,0,0,0,0,0,0,0,0,0,0,0,0,0,0,0,0,0,0,0,0,0,0,0,0,0,0,0,0,0,0,0,0,0,0,0,0,0,0,0,0,0,0,0,0,0],"id":24,"left_children":[1,3,5,7,9,11,13,15,17,19,21,23,25,27,29,31,33,-1,-1,35,37,-1,-1,39,41,43,-1,45,-1,-1,-1,47,49,-1,-1,51,-1,-1,53,55,57,59,-1,-1,-1,61,-1,-1,-1,-1,-1,-1,-1,-1,-1,-1,-1,-1,-1,-1,-1,-1,-1],"loss_changes":[1.4233054E1,4.196569E0,6.20279E0,1.9969816E0,2.649061E0,2.9859042E0,2.9010925E0,1.6578379E0,1.3493289E0,2.124471E0,8.502779E-1,1.7784173E0,8.2457733E-1,1.3264503E0,7.8554726E-1,1.2893858E0,9.459706E-1,0E0,0E0,1.4785819E0,9.061898E-1,0E0,0E0,9.2824596E-1,1.0218573E0,3.156252E-1,0E0,1.0477517E0,0E0,0E0,0E0,1.4349668E0,1.5825205E0,0E0,0E0,1.1888566E0,0E0,0E0,1.5020729E0,9.730626E-1,1.5095675E0,9.490969E-1,0E0,0E0,0E0,7.949263E-1,0E0,0E0,0E0,0E0,0E0,0E0,0E0,0E0,0E0,0E0,0E0,0E0,0E0,0E0,0E0,0E0,0E0],"parents":[2147483647,0,0,1,1,2,2,3,3,4,4,5,5,6,6,7,7,8,8,9,9,10,10,11,11,12,12,13,13,14,14,15,15,16,16,19,19,20,20,23,23,24,24,25,25,27,27,31,31,32,32,35,35,38,38,39,39,40,40,41,41,45,45],"right_children":[2,4,6,8,10,12,14,16,18,20,22,24,26,28,30,32,34,-1,-1,36,38,-1,-1,40,42,44,-1,46,-1,-1,-1,48,50,-1,-1,52,-1,-1,54,56,58,60,-1,-1,-1,62,-1,-1,-1,-1,-1,-1,-1,-1,-1,-1,-1,-1,-1,-1,-1,-1,-1],"split_conditions":[2.8E1,1E0,1E0,1.883E3,1E0,9.570487E-6,1.4029688E-7,1E0,1.969E3,1E0,1E0,1E0,1E0,5.6026646E-8,1.1097688E-7,1.2801105E-1,2.6370153E-6,1.7503213E-2,-1.3279808E-2,1E0,6.1172448E-2,4.211943E-3,2.4500556E-2,9.899717E-8,2.9218492E-1,2.1403041E-1,8.55974E-3,1E0,3.2648817E-2,3.0302173E-2,5.725656E-2,1E0,2.9784235E-6,-1.5579033E-2,8.792908E-3,1E0,9.602412E-3,2.4095085E-2,4.1506923E-6,1E0,2.6370153E-6,1.4262825E-8,-2.8677148E-4,1.9117747E-2,3.425336E-2,1E0,-7.87367E-3,-1.7859746E-2,7.775905E-3,-4.1930575E-2,-2.047531E-2,-3.893579E-3,-1.5121396E-2,-1.543728E-2,1.85573E-2,4.777253E-3,-1.3783492E-2,-2.330177E-2,-8.011423E-4,2.5867188E-2,7.875782E-3,5.4301945E-3,2.936081E-2],"split_indices":[1,69,380,2,49,5,17,331,2,312,30,159,47,6,9,4,5,0,0,233,4,0,0,8,4,4,0,24,0,0,0,211,5,0,0,30,0,0,5,175,5,12,0,0,0,142,0,0,0,0,0,0,0,0,0,0,0,0,0,0,0,0,0],"split_type":[0,0,0,0,0,0,0,0,0,0,0,0,0,0,0,0,0,0,0,0,0,0,0,0,0,0,0,0,0,0,0,0,0,0,0,0,0,0,0,0,0,0,0,0,0,0,0,0,0,0,0,0,0,0,0,0,0,0,0,0,0,0,0],"sum_hessian":[2.356E3,1.056E3,1.3E3,4.71E2,5.85E2,1.134E3,1.66E2,4.16E2,5.5E1,5.02E2,8.3E1,1.03E3,1.04E2,1.14E2,5.2E1,3.54E2,6.2E1,2.8E1,2.7E1,4.25E2,7.7E1,4.5E1,3.8E1,8.65E2,1.65E2,6.6E1,3.8E1,8.1E1,3.3E1,2.6E1,2.6E1,1.73E2,1.81E2,2.9E1,3.3E1,3.84E2,4.1E1,2.7E1,5E1,5.23E2,3.42E2,1.19E2,4.6E1,3.2E1,3.4E1,5.6E1,2.5E1,1.48E2,2.5E1,4.8E1,1.33E2,1.69E2,2.15E2,2.5E1,2.5E1,4.94E2,2.9E1,3.2E1,3.1E2,6.1E1,5.8E1,3.1E1,2.5E1],"tree_param":{"num_deleted":"0","num_feature":"503","num_nodes":"63","size_leaf_vector":"1"}},{"base_weights":[1.6000587E-3,-8.761893E-2,6.592417E-2,-1.5383027E-1,-3.202607E-2,5.363592E-2,5.846606E-2,-1.19971134E-1,-2.7302027E-1,-5.5912636E-2,1.0444204E-1,2.7953435E-2,1.3960521E-1,-1.4094903E-1,1.2331162E-2,-2.0733023E-2,-3.357595E-2,-7.39199E-2,1.4708518E-2,1.9404707E-2,-7.9763867E-4,2.0497162E-2,2.715874E-2,1.0728264E-1,2.6299444E-1,-1.6118366E-1,6.6955457E-3,-9.5480435E-2,6.279222E-2,4.0579192E-2,-5.3712692E-2,8.080363E-2,2.2399994E-2,3.8724326E-2,1.6250245E-2,-1.349849E-2,-4.1234992E-2,-1.1517949E-2,5.9636245E-3,-1.0356602E-2,1.9599603E-2,2.9205661E-3,1.9815337E-2,7.4012913E-3,-1.0410888E-2,1.2975444E-2,2.1958083E-4],"categories":[],"categories_nodes":[],"categories_segments":[],"categories_sizes":[],"default_left":[0,0,0,0,0,0,0,0,0,0,0,0,0,0,0,0,0,0,0,0,0,0,0,0,0,0,0,0,0,0,0,0,0,0,0,0,0,0,0,0,0,0,0,0,0,0,0],"id":25,"left_children":[1,3,5,7,9,11,-1,13,15,17,19,21,23,25,-1,-1,-1,27,-1,-1,-1,29,-1,31,33,35,-1,37,39,41,43,45,-1,-1,-1,-1,-1,-1,-1,-1,-1,-1,-1,-1,-1,-1,-1],"loss_changes":[1.3274186E1,3.561843E0,8.535782E0,1.7510128E0,1.72699E0,2.8972843E0,0E0,1.7832122E0,3.3015728E-1,1.655818E0,7.973351E-1,1.8346503E0,1.1762395E0,1.3527846E0,0E0,0E0,0E0,1.226296E0,0E0,0E0,0E0,1.4686196E0,0E0,7.267246E-1,7.1120405E-1,1.8591895E0,0E0,1.1007929E0,1.2833929E0,1.3831481E0,1.3594508E0,7.616024E-1,0E0,0E0,0E0,0E0,0E0,0E0,0E0,0E0,0E0,0E0,0E0,0E0,0E0,0E0,0E0],"parents":[2147483647,0,0,1,1,2,2,3,3,4,4,5,5,7,7,8,8,9,9,10,10,11,11,12,12,13,13,17,17,21,21,23,23,24,24,25,25,27,27,28,28,29,29,30,30,31,31],"right_children":[2,4,6,8,10,12,-1,14,16,18,20,22,24,26,-1,-1,-1,28,-1,-1,-1,30,-1,32,34,36,-1,38,40,42,44,46,-1,-1,-1,-1,-1,-1,-1,-1,-1,-1,-1,-1,-1,-1,-1],"split_conditions":[2.6E1,1E0,5E0,1E0,1E0,9.9E1,5.846606E-2,1E0,4.775116E-8,1E0,1.0277097E-1,1.3077693E-7,3E0,1.13234705E-7,1.2331162E-2,-2.0733023E-2,-3.357595E-2,1E0,1.4708518E-2,1.9404707E-2,-7.9763867E-4,1.7896922E-2,2.715874E-2,1E0,2E0,8.097891E-8,6.6955457E-3,3E0,4.3461306E-8,2E0,2E0,5.870573E-3,2.2399994E-2,3.8724326E-2,1.6250245E-2,-1.349849E-2,-4.1234992E-2,-1.1517949E-2,5.9636245E-3,-1.0356602E-2,1.9599603E-2,2.9205661E-3,1.9815337E-2,7.4012913E-3,-1.0410888E-2,1.2975444E-2,2.1958083E-4],"split_indices":[1,69,53,191,49,1,0,211,3,304,4,15,31,3,0,0,0,53,0,0,0,7,0,67,39,3,0,69,3,56,30,7,0,0,0,0,0,0,0,0,0,0,0,0,0,0,0],"split_type":[0,0,0,0,0,0,0,0,0,0,0,0,0,0,0,0,0,0,0,0,0,0,0,0,0,0,0,0,0,0,0,0,0,0,0,0,0,0,0,0,0,0,0,0,0,0,0],"sum_hessian":[2.311E3,9.68E2,1.343E3,4.41E2,5.27E2,1.313E3,3E1,3.45E2,9.6E1,4.49E2,7.8E1,1.012E3,3.01E2,3.18E2,2.7E1,4.9E1,4.7E1,4.13E2,3.6E1,4.3E1,3.5E1,9.83E2,2.9E1,2.4E2,6.1E1,2.9E2,2.8E1,3.57E2,5.6E1,7.74E2,2.09E2,1.97E2,4.3E1,2.6E1,3.5E1,2.64E2,2.6E1,3.17E2,4E1,2.5E1,3.1E1,7.23E2,5.1E1,5.9E1,1.5E2,1.21E2,7.6E1],"tree_param":{"num_deleted":"0","num_feature":"503","num_nodes":"47","size_leaf_vector":"1"}},{"base_weights":[5.3734733E-3,-2.0080209E-3,5.1193327E-2,-2.8369501E-2,9.98723E-2,-5.6849882E-2,7.0284635E-2,8.112337E-2,2.4939439E-1,-9.374474E-2,2.8475237E-3,4.6562E-2,3.1939685E-2,4.7144115E-2,1.5951602E-1,3.0769095E-2,1.863549E-2,-1.11122094E-1,1.0572955E-2,-8.533552E-3,2.0800116E-2,2.4992906E-2,1.956769E-2,2.2170208E-2,1.3888898E-1,2.115345E-1,2.4455616E-3,-1.2014347E-2,9.871456E-3,8.808177E-3,-6.357293E-3,-1.6336612E-3,1.4125329E-2,4.0236935E-3,-1.430396E-2,-1.0275864E-4,1.1851382E-2,2.57072E-2,2.7048918E-3,1.1726758E-2,3.0947996E-2],"categories":[],"categories_nodes":[],"categories_segments":[],"categories_sizes":[],"default_left":[0,0,0,0,0,0,0,0,0,0,0,0,0,0,0,0,0,0,0,0,0,0,0,0,0,0,0,0,0,0,0,0,0,0,0,0,0,0,0,0,0],"id":26,"left_children":[1,3,-1,5,7,9,11,13,15,17,19,21,-1,23,25,-1,-1,27,29,31,-1,33,-1,35,37,39,-1,-1,-1,-1,-1,-1,-1,-1,-1,-1,-1,-1,-1,-1,-1],"loss_changes":[8.85164E0,6.2712946E0,0E0,5.2160034E0,1.3253903E0,3.171906E0,2.4435213E0,1.1325536E0,1.3743472E-1,1.6145368E0,1.2882879E0,1.2205098E0,0E0,6.8428916E-1,9.01134E-1,0E0,0E0,1.4562311E0,7.4121046E-1,6.1358786E-1,0E0,8.6129403E-1,0E0,5.298072E-1,8.389727E-1,8.2237864E-1,0E0,0E0,0E0,0E0,0E0,0E0,0E0,0E0,0E0,0E0,0E0,0E0,0E0,0E0,0E0],"parents":[2147483647,0,0,1,1,3,3,4,4,5,5,6,6,7,7,8,8,9,9,10,10,11,11,13,13,14,14,17,17,18,18,19,19,21,21,23,23,24,24,25,25],"right_children":[2,4,-1,6,8,10,12,14,16,18,20,22,-1,24,26,-1,-1,28,30,32,-1,34,-1,36,38,40,-1,-1,-1,-1,-1,-1,-1,-1,-1,-1,-1,-1,-1,-1,-1],"split_conditions":[5E0,3E0,5.1193327E-2,1E0,1E0,4.380073E-6,2.7907834E-7,1E0,6E0,1E0,1.063156E-5,1E0,3.1939685E-2,1E0,1.0988132E-7,3.0769095E-2,1.863549E-2,2E0,2E0,1E0,2.0800116E-2,1E0,1.956769E-2,1E0,5E0,6.138786E-6,2.4455616E-3,-1.2014347E-2,9.871456E-3,8.808177E-3,-6.357293E-3,-1.6336612E-3,1.4125329E-2,4.0236935E-3,-1.430396E-2,-1.0275864E-4,1.1851382E-2,2.57072E-2,2.7048918E-3,1.1726758E-2,3.0947996E-2],"split_indices":[53,69,0,53,406,5,11,49,32,211,5,21,0,185,14,0,0,164,32,263,0,73,0,23,32,5,0,0,0,0,0,0,0,0,0,0,0,0,0,0,0],"split_type":[0,0,0,0,0,0,0,0,0,0,0,0,0,0,0,0,0,0,0,0,0,0,0,0,0,0,0,0,0,0,0,0,0,0,0,0,0,0,0,0,0],"sum_hessian":[2.366E3,2.333E3,3.3E1,1.854E3,4.79E2,1.439E3,4.15E2,4.27E2,5.2E1,8.89E2,5.5E2,3.8E2,3.5E1,2.99E2,1.28E2,2.5E1,2.7E1,7.62E2,1.27E2,5.22E2,2.8E1,3.33E2,4.7E1,2.36E2,6.3E1,9.2E1,3.6E1,7.31E2,3.1E1,6.2E1,6.5E1,4.97E2,2.5E1,3.06E2,2.7E1,1.91E2,4.5E1,3E1,3.3E1,4.8E1,4.4E1],"tree_param":{"num_deleted":"0","num_feature":"503","num_nodes":"41","size_leaf_vector":"1"}},{"base_weights":[7.901065E-3,9.067234E-4,4.7958102E-2,-4.5389224E-2,4.12027E-2,-9.182886E-3,-1.2668802E-1,1.5922473E-1,6.1389287E-3,-7.819479E-2,6.0414974E-2,-1.7534609E-1,5.9202548E-2,3.1186002E-1,1.2320336E-1,-1.6682278E-2,1.9960138E-1,-1.0841774E-1,1.0575881E-1,1.9875725E-1,6.820709E-3,-2.7792463E-1,-1.0452128E-1,2.4810307E-2,-5.3766E-3,4.063357E-2,2.1299474E-2,8.0049366E-2,2.381496E-1,-4.5837022E-2,5.323922E-2,2.604544E-1,5.5752615E-3,-1.5862536E-2,2.1653082E-3,2.6818013E-2,-6.057951E-3,2.5598338E-2,1.9434298E-3,4.7376044E-3,-2.0554606E-2,-4.3313637E-2,-1.5632357E-2,-2.2150815E-2,-2.9097123E-3,1.1535366E-2,-1.0059186E-2,1.0641596E-2,3.6645047E-2,-2.4144491E-4,-1.0988432E-2,1.0287358E-2,-4.093636E-3,3.734344E-2,1.2984517E-2],"categories":[],"categories_nodes":[],"categories_segments":[],"categories_sizes":[],"default_left":[0,0,0,0,0,0,0,0,0,0,0,0,0,0,0,0,0,0,0,0,0,0,0,0,0,0,0,0,0,0,0,0,0,0,0,0,0,0,0,0,0,0,0,0,0,0,0,0,0,0,0,0,0,0,0],"id":27,"left_children":[1,3,-1,5,7,9,11,13,15,17,19,21,23,25,27,29,31,33,35,37,39,41,43,-1,-1,-1,-1,45,47,49,51,53,-1,-1,-1,-1,-1,-1,-1,-1,-1,-1,-1,-1,-1,-1,-1,-1,-1,-1,-1,-1,-1,-1,-1],"loss_changes":[7.67655E0,4.28142E0,0E0,3.142528E0,5.0767136E0,3.5590038E0,2.9862127E0,1.5065527E0,4.1843796E0,2.0796452E0,2.734541E0,1.8671436E0,1.4857869E0,4.0849257E-1,1.1168654E0,1.731125E0,8.6084175E-1,2.093209E0,1.4481413E0,1.0520072E0,2.3093035E0,1.9329252E0,1.3700421E0,0E0,0E0,0E0,0E0,1.0830086E0,1.0088992E0,1.6656126E0,1.1727974E0,9.844475E-1,0E0,0E0,0E0,0E0,0E0,0E0,0E0,0E0,0E0,0E0,0E0,0E0,0E0,0E0,0E0,0E0,0E0,0E0,0E0,0E0,0E0,0E0,0E0],"parents":[2147483647,0,0,1,1,3,3,4,4,5,5,6,6,7,7,8,8,9,9,10,10,11,11,12,12,13,13,14,14,15,15,16,16,17,17,18,18,19,19,20,20,21,21,22,22,27,27,28,28,29,29,30,30,31,31],"right_children":[2,4,-1,6,8,10,12,14,16,18,20,22,24,26,28,30,32,34,36,38,40,42,44,-1,-1,-1,-1,46,48,50,52,54,-1,-1,-1,-1,-1,-1,-1,-1,-1,-1,-1,-1,-1,-1,-1,-1,-1,-1,-1,-1,-1,-1,-1],"split_conditions":[5E0,3.9304855E-6,4.7958102E-2,1.4023986E-1,1.47E2,1.2069198E-6,7.404526E-8,6.3E1,1E0,1E0,4.6582997E-2,1.564E3,3.880831E-7,2E0,1E0,6.903055E-6,3.6587805E-1,7.182799E-8,5.65233E-7,1.8332813E-8,1.873E3,2.559774E-1,5.4704085E-8,2.4810307E-2,-5.3766E-3,4.063357E-2,2.1299474E-2,6.9698694E-6,1.07E2,3.97E2,2.4411768E-1,3.715832E-8,5.5752615E-3,-1.5862536E-2,2.1653082E-3,2.6818013E-2,-6.057951E-3,2.5598338E-2,1.9434298E-3,4.7376044E-3,-2.0554606E-2,-4.3313637E-2,-1.5632357E-2,-2.2150815E-2,-2.9097123E-3,1.1535366E-2,-1.0059186E-2,1.0641596E-2,3.6645047E-2,-2.4144491E-4,-1.0988432E-2,1.0287358E-2,-4.093636E-3,3.734344E-2,1.2984517E-2],"split_indices":[53,5,0,4,0,5,6,0,380,211,4,2,8,18,53,5,4,3,5,12,2,4,3,0,0,0,0,5,0,0,4,14,0,0,0,0,0,0,0,0,0,0,0,0,0,0,0,0,0,0,0,0,0,0,0],"split_type":[0,0,0,0,0,0,0,0,0,0,0,0,0,0,0,0,0,0,0,0,0,0,0,0,0,0,0,0,0,0,0,0,0,0,0,0,0,0,0,0,0,0,0,0,0,0,0,0,0,0,0,0,0,0,0],"sum_hessian":[2.326E3,2.293E3,3.3E1,1.067E3,1.226E3,7.39E2,3.28E2,2.8E2,9.46E2,3.71E2,3.68E2,2.6E2,6.8E1,5.2E1,2.28E2,8.47E2,9.9E1,3.19E2,5.2E1,1.02E2,2.66E2,1.05E2,1.55E2,2.5E1,4.3E1,2.5E1,2.7E1,1.67E2,6.1E1,5.98E2,2.49E2,6.9E1,3E1,2.3E2,8.9E1,2.6E1,2.6E1,7.7E1,2.5E1,2.24E2,4.2E1,4.5E1,6E1,6E1,9.5E1,1.4E2,2.7E1,3.1E1,3E1,3.57E2,2.41E2,1.63E2,8.6E1,3.6E1,3.3E1],"tree_param":{"num_deleted":"0","num_feature":"503","num_nodes":"55","size_leaf_vector":"1"}},{"base_weights":[-6.889214E-3,-3.0908873E-2,1.0271316E-1,-3.584656E-2,2.741543E-2,8.018055E-2,3.1179473E-2,-8.24828E-2,-1.1364635E-2,1.3414407E-1,2.11165E-2,-1.1338124E-1,2.004134E-2,-8.798962E-2,4.059323E-3,1.8484372E-1,5.0097313E-2,-2.7498353E-2,1.4938883E-1,-7.9282686E-2,-2.0531566E-1,2.7722841E-2,-7.658276E-2,-2.7841404E-2,-2.1880026E-1,8.15413E-2,-3.7536237E-2,2.8803581E-2,1.4151305E-1,-7.8116343E-3,1.5880195E-2,3.2598615E-2,-2.8069714E-2,9.8733045E-3,1.942989E-2,-5.439633E-3,-2.7765382E-2,-4.588107E-2,-1.0233994E-2,-1.229756E-2,2.0780459E-3,1.878126E-3,-1.8664503E-2,-2.9232008E-2,-1.2083247E-2,1.4378856E-2,-1.389446E-3,-8.6408835E-3,1.2757158E-3,7.442716E-3,2.4007449E-2,9.587555E-3,-1.4744647E-2],"categories":[],"categories_nodes":[],"categories_segments":[],"categories_sizes":[],"default_left":[0,0,0,0,0,0,0,0,0,0,0,0,0,0,0,0,0,0,0,0,0,0,0,0,0,0,0,0,0,0,0,0,0,0,0,0,0,0,0,0,0,0,0,0,0,0,0,0,0,0,0,0,0],"id":28,"left_children":[1,3,5,7,-1,9,-1,11,13,15,17,19,21,23,25,27,29,31,33,35,37,-1,39,41,43,45,47,-1,49,-1,-1,51,-1,-1,-1,-1,-1,-1,-1,-1,-1,-1,-1,-1,-1,-1,-1,-1,-1,-1,-1,-1,-1],"loss_changes":[6.2240357E0,2.9305573E0,1.977241E0,2.1786535E0,0E0,1.2242792E0,0E0,2.083541E0,1.4812285E0,8.472295E-1,1.1577569E0,1.5668111E0,3.8233526E0,1.6461939E0,3.3677752E0,5.181618E-1,1.0855862E0,2.063375E0,9.683907E-2,1.8114886E0,3.503168E0,0E0,5.0845474E-1,1.0770634E0,4.4004798E-1,2.1703222E0,1.6725209E0,0E0,5.772191E-1,0E0,0E0,1.2673337E0,0E0,0E0,0E0,0E0,0E0,0E0,0E0,0E0,0E0,0E0,0E0,0E0,0E0,0E0,0E0,0E0,0E0,0E0,0E0,0E0,0E0],"parents":[2147483647,0,0,1,1,2,2,3,3,5,5,7,7,8,8,9,9,10,10,11,11,12,12,13,13,14,14,15,15,16,16,17,17,18,18,19,19,20,20,22,22,23,23,24,24,25,25,26,26,28,28,31,31],"right_children":[2,4,6,8,-1,10,-1,12,14,16,18,20,22,24,26,28,30,32,34,36,38,-1,40,42,44,46,48,