{"learner":{"attributes":{"best_iteration":"108","best_score":"0.5739002097272189"},"feature_names":[],"feature_types":[],"gradient_booster":{"model":{"gbtree_model_param":{"num_parallel_tree":"1","num_trees":"159"},"iteration_indptr":[0,1,2,3,4,5,6,7,8,9,10,11,12,13,14,15,16,17,18,19,20,21,22,23,24,25,26,27,28,29,30,31,32,33,34,35,36,37,38,39,40,41,42,43,44,45,46,47,48,49,50,51,52,53,54,55,56,57,58,59,60,61,62,63,64,65,66,67,68,69,70,71,72,73,74,75,76,77,78,79,80,81,82,83,84,85,86,87,88,89,90,91,92,93,94,95,96,97,98,99,100,101,102,103,104,105,106,107,108,109,110,111,112,113,114,115,116,117,118,119,120,121,122,123,124,125,126,127,128,129,130,131,132,133,134,135,136,137,138,139,140,141,142,143,144,145,146,147,148,149,150,151,152,153,154,155,156,157,158,159],"tree_info":[0,0,0,0,0,0,0,0,0,0,0,0,0,0,0,0,0,0,0,0,0,0,0,0,0,0,0,0,0,0,0,0,0,0,0,0,0,0,0,0,0,0,0,0,0,0,0,0,0,0,0,0,0,0,0,0,0,0,0,0,0,0,0,0,0,0,0,0,0,0,0,0,0,0,0,0,0,0,0,0,0,0,0,0,0,0,0,0,0,0,0,0,0,0,0,0,0,0,0,0,0,0,0,0,0,0,0,0,0,0,0,0,0,0,0,0,0,0,0,0,0,0,0,0,0,0,0,0,0,0,0,0,0,0,0,0,0,0,0,0,0,0,0,0,0,0,0,0,0,0,0,0,0,0,0,0,0,0,0],"trees":[{"base_weights":[-1.7280399E-9,-5.032038E-1,8.147109E-1,-1.1575204E0,-2.3466824E-1,4.728368E-1,1.4489673E0,-1.6998597E0,-8.848332E-1,-6.664652E-1,-1.21818505E-1,2.8602752E-1,9.22973E-1,1.1802306E0,2.0152536E-1,-1.8101406E0,-3.9803382E-2,-2.1532421E-1,-9.408039E-1,-7.042963E-1,3.0989503E-2,-2.2978462E-1,2.7339103E-2,-9.4195046E-2,3.3660778E-1,7.008592E-1,1.2526919E-1,1.0369419E0,1.7477322E0,-1.1878474E0,-2.2113035E0,-3.3826675E-2,1.382229E-2,-1.0595467E0,-6.405981E-1,-8.7226725E-1,-4.608122E-1,-4.2800686E-1,-7.827721E-2,-6.592244E-2,3.9033523E-1,2.0430349E-2,-3.3025596E-2,6.2256736E-1,2.4023274E-1,3.498179E-2,7.7114904E-1,1.0643398E-1,4.1731637E-2,1.947361E-1,3.7479416E-2,-1.273477E-1,-2.085914E-2,-2.3113189E0,-6.0557373E-2,-1.09053E0,-8.051469E-3,-1.3596835E-2,-7.0777434E-1,-9.7315174E-1,-2.5066257E-2,-6.403615E-1,-1.3848288E-1,-4.964153E-1,6.804513E-2,9.982737E-3,-5.714373E-1,-1.3380004E-1,4.202078E-1,6.0698724E-1,-1.947156E-1,1.4115475E-1,-1.05401635E-1,6.995382E-1,8.150482E-2,2.6482192E-1,-2.1687893E-2,8.159196E-2,3.2009374E-2,-6.515595E-2,-2.4233413E0,-1.115561E0,-1.9483117E-2,-2.6894838E-2,-7.6311104E-2,-1.0202855E0,-1.3307311E-2,-9.914311E-4,-7.093096E-2,-2.2324245E-2,-1.9102607E-2,3.9636716E-2,-5.8040935E-1,-2.628728E-3,9.820005E-2,7.380557E-2,-3.6398094E-2,-8.360279E-2,-1.6398737E-1,-1.8022066E-1,3.5225105E-1,5.0505083E-2,-2.0036244E-4,7.3952436E-1,2.5643468E-2,5.733948E-4,-2.6344344E-2,2.7979834E-3,1.695531E-2,-1.8006036E-3,-1.2853148E-2,7.781195E-2,1.7822713E-2,5.733948E-4,1.1652328E-2,2.9185098E-1,7.2538316E-2,-2.563369E-1,-6.515595E-2,-1.1381071E0,-2.5340993E-2,-1.123731E0,-5.886481E-2,-2.0036244E-4,-2.4134393E-3,1.4822244E-2,-8.216124E-3,-6.2875843E-1,-1.4668207E-4,1.1228018E-2,2.7979834E-3,1.3707705E-1,-2.5485277E-1,-2.6011858E-2,6.2203137E-3,1.19190715E-1,-2.3827094E-1,4.462717E-2,3.5094619E-3,2.1374121E-2,8.019328E-2,-1.3339774E-2,3.082647E-1,1.663191E-2,1.762183E-3,-4.4637706E-2,-1.1755903E-1,-3.2365847E-2,-1.17137246E-1,-6.6671096E-2,1.2207431E-2,1.1088372E-2,-1.1110375E-2,8.054467E-3,4.8440143E-2,-7.087941E-3,-2.7747158E-2,4.4495907E-2,-2.3637528E-2,-2.7762258E-2,2.477865E-2,-1.8006036E-3,-2.0036244E-4,3.3191606E-2,8.578257E-3,-2.9528877E-3,3.246585E-3],"categories":[],"categories_nodes":[],"categories_segments":[],"categories_sizes":[],"default_left":[0,0,0,0,0,0,0,0,0,0,0,0,0,0,0,0,0,0,0,0,0,0,0,0,0,0,0,0,0,0,0,0,0,0,0,0,0,0,0,0,0,0,0,0,0,0,0,0,0,0,0,0,0,0,0,0,0,0,0,0,0,0,0,0,0,0,0,0,0,0,0,0,0,0,0,0,0,0,0,0,0,0,0,0,0,0,0,0,0,0,0,0,0,0,0,0,0,0,0,0,0,0,0,0,0,0,0,0,0,0,0,0,0,0,0,0,0,0,0,0,0,0,0,0,0,0,0,0,0,0,0,0,0,0,0,0,0,0,0,0,0,0,0,0,0,0,0,0,0,0,0,0,0,0,0,0,0,0,0,0,0,0,0,0,0,0,0],"id":0,"left_children":[1,3,5,7,9,11,13,15,17,19,21,23,25,27,-1,29,-1,31,33,35,-1,37,39,41,43,45,-1,47,49,51,53,-1,-1,55,57,59,61,63,65,67,69,71,-1,73,75,-1,77,-1,-1,-1,-1,-1,-1,79,-1,81,-1,-1,83,85,-1,87,89,91,93,95,97,99,101,103,105,107,109,111,113,115,-1,-1,-1,-1,117,119,-1,-1,-1,121,-1,-1,-1,-1,123,125,127,-1,129,131,-1,-1,133,135,137,-1,-1,139,-1,-1,-1,-1,-1,-1,-1,-1,-1,-1,-1,141,143,-1,-1,145,-1,147,-1,-1,-1,-1,-1,149,151,-1,-1,153,155,-1,-1,157,159,-1,-1,-1,-1,161,163,-1,165,-1,-1,-1,-1,-1,-1,-1,-1,-1,-1,-1,-1,-1,-1,-1,-1,-1,-1,-1,-1,-1,-1],"loss_changes":[1.5783678E2,4.1546696E1,3.1189743E1,8.700249E0,8.202601E0,7.8926983E0,5.3828125E0,2.437973E0,1.5961189E0,1.5110426E0,2.1964216E0,1.3779297E0,1.1726208E0,1.1964188E0,0E0,2.366127E0,0E0,2.6408604E-1,8.897362E-1,9.8859024E-1,0E0,2.3390355E0,1.9892395E0,2.5027442E-1,1.5591197E0,1.9905663E-1,0E0,9.907532E-2,9.14608E-1,5.7289505E-1,3.669052E-1,0E0,0E0,8.222084E-1,4.1225243E-1,9.475622E-1,8.373053E-1,1.1875396E0,2.0079134E0,1.6070995E0,1.639219E0,1.21214874E-1,0E0,5.6767464E-1,5.9695435E-1,0E0,4.173851E-2,0E0,0E0,0E0,0E0,0E0,0E0,2.8034973E-1,0E0,4.3284225E-1,0E0,0E0,1.1044407E-1,4.9776363E-1,0E0,4.2764854E-1,6.656584E-2,1.3737612E0,1.6804345E-2,9.8156065E-1,6.1755395E-1,1.0111203E0,2.1594203E-1,2.2851157E-1,5.6616426E-2,8.111857E-3,5.7714507E-3,3.938675E-1,7.2919987E-3,2.1790314E-1,0E0,0E0,0E0,0E0,5.6269836E-1,2.5585556E-1,0E0,0E0,0E0,8.281708E-3,0E0,0E0,0E0,0E0,2.9579748E-4,7.830573E-2,7.293415E-1,0E0,8.1325695E-4,7.627491E-1,0E0,0E0,1.0315604E-1,7.0625544E-1,1.03615254E-1,0E0,0E0,2.5473356E-2,0E0,0E0,0E0,0E0,0E0,0E0,0E0,0E0,0E0,0E0,0E0,2.044847E-1,4.6168998E-2,0E0,0E0,1.7531204E-1,0E0,4.015827E-2,0E0,0E0,0E0,0E0,0E0,7.6529217E-1,4.927842E-2,0E0,0E0,5.500364E-1,5.3005517E-3,0E0,0E0,9.160023E-1,6.999874E-1,0E0,0E0,0E0,0E0,1.2261502E-4,1.7148352E-1,0E0,5.7624313E-3,0E0,0E0,0E0,0E0,0E0,0E0,0E0,0E0,0E0,0E0,0E0,0E0,0E0,0E0,0E0,0E0,0E0,0E0,0E0,0E0,0E0,0E0],"parents":[2147483647,0,0,1,1,2,2,3,3,4,4,5,5,6,6,7,7,8,8,9,9,10,10,11,11,12,12,13,13,15,15,17,17,18,18,19,19,21,21,22,22,23,23,24,24,25,25,27,27,28,28,29,29,30,30,33,33,34,34,35,35,36,36,37,37,38,38,39,39,40,40,41,41,43,43,44,44,46,46,53,53,55,55,58,58,59,59,61,61,62,62,63,63,64,64,65,65,66,66,67,67,68,68,69,69,70,70,71,71,72,72,73,73,74,74,75,75,80,80,81,81,85,85,90,90,91,91,92,92,94,94,95,95,98,98,99,99,100,100,103,103,115,115,116,116,119,119,121,121,127,127,128,128,131,131,132,132,135,135,136,136,141,141,142,142,144,144],"right_children":[2,4,6,8,10,12,14,16,18,20,22,24,26,28,-1,30,-1,32,34,36,-1,38,40,42,44,46,-1,48,50,52,54,-1,-1,56,58,60,62,64,66,68,70,72,-1,74,76,-1,78,-1,-1,-1,-1,-1,-1,80,-1,82,-1,-1,84,86,-1,88,90,92,94,96,98,100,102,104,106,108,110,112,114,116,-1,-1,-1,-1,118,120,-1,-1,-1,122,-1,-1,-1,-1,124,126,128,-1,130,132,-1,-1,134,136,138,-1,-1,140,-1,-1,-1,-1,-1,-1,-1,-1,-1,-1,-1,142,144,-1,-1,146,-1,148,-1,-1,-1,-1,-1,150,152,-1,-1,154,156,-1,-1,158,160,-1,-1,-1,-1,162,164,-1,166,-1,-1,-1,-1,-1,-1,-1,-1,-1,-1,-1,-1,-1,-1,-1,-1,-1,-1,-1,-1,-1,-1],"split_conditions":[3.4E1,4.8634083E-6,1.1498353E-5,8E0,1.3E1,6.6E1,8E0,4.8998023E-9,1.58E2,2E0,2.9525426E-8,1.8420424E-6,1.02E2,3E0,2.0152536E-1,6E0,-3.9803382E-2,1.31E2,1.7E1,3.69E2,3.0989503E-2,6.2624003E-6,7.818468E-6,6.632012E-8,5.9795935E-2,6.4471237E-6,1.2526919E-1,1E0,2.212773E-1,1E0,1.9473052E-1,-3.3826675E-2,1.382229E-2,2E0,1.8E1,1E0,1.3676092E-1,5.77E2,6.65E2,3E0,2E0,1E0,-3.3025596E-2,1E0,4E0,3.498179E-2,1E0,1.0643398E-1,4.1731637E-2,1.947361E-1,3.7479416E-2,-1.273477E-1,-2.085914E-2,8.617346E-2,-6.0557373E-2,1E0,-8.051469E-3,-1.3596835E-2,1.7873451E-6,6.6003063E-6,-2.5066257E-2,4.9233818E-6,3.0893432E-8,4.6727944E-2,1.327305E-1,1E0,1.7E1,2E0,6.368934E-6,4.1979038E-6,2.82E2,5.7480506E-6,1.16E2,1E0,2.42E2,3E0,-2.1687893E-2,8.159196E-2,3.2009374E-2,-6.515595E-2,1E0,1E0,-1.9483117E-2,-2.6894838E-2,-7.6311104E-2,1E0,-1.3307311E-2,-9.914311E-4,-7.093096E-2,-2.2324245E-2,4.21E2,2.97E2,1E0,-2.628728E-3,6.11E2,1E0,-3.6398094E-2,-8.360279E-2,8.26E2,3.2473533E-8,3.3E1,5.0505083E-2,-2.0036244E-4,1.8E2,2.5643468E-2,5.733948E-4,-2.6344344E-2,2.7979834E-3,1.695531E-2,-1.8006036E-3,-1.2853148E-2,7.781195E-2,1.7822713E-2,5.733948E-4,1.1652328E-2,4.7071476E-6,4E0,-2.563369E-1,-6.515595E-2,4.2745132E-2,-2.5340993E-2,1.8594715E-8,-5.886481E-2,-2.0036244E-4,-2.4134393E-3,1.4822244E-2,-8.216124E-3,1E0,5.19E2,1.1228018E-2,2.7979834E-3,9.0851745E-6,2.92E2,-2.6011858E-2,6.2203137E-3,5.8321566E-6,1E0,4.462717E-2,3.5094619E-3,2.1374121E-2,8.019328E-2,5.04E2,1E0,1.663191E-2,1E0,-4.4637706E-2,-1.1755903E-1,-3.2365847E-2,-1.17137246E-1,-6.6671096E-2,1.2207431E-2,1.1088372E-2,-1.1110375E-2,8.054467E-3,4.8440143E-2,-7.087941E-3,-2.7747158E-2,4.4495907E-2,-2.3637528E-2,-2.7762258E-2,2.477865E-2,-1.8006036E-3,-2.0036244E-4,3.3191606E-2,8.578257E-3,-2.9528877E-3,3.246585E-3],"split_indices":[1,2,2,1,1,1,23,11,0,17,4,7,1,36,0,1,0,0,1,0,0,2,2,4,6,2,0,177,3,25,6,0,0,127,1,195,6,0,0,49,34,52,0,73,57,0,300,0,0,0,0,0,0,3,0,58,0,0,7,2,0,2,4,6,3,26,1,108,2,7,0,2,0,250,0,22,0,0,0,0,83,130,0,0,0,27,0,0,0,0,0,0,204,0,0,210,0,0,0,4,1,0,0,0,0,0,0,0,0,0,0,0,0,0,0,2,39,0,0,6,0,5,0,0,0,0,0,110,0,0,0,2,0,0,0,2,106,0,0,0,0,0,261,0,36,0,0,0,0,0,0,0,0,0,0,0,0,0,0,0,0,0,0,0,0,0,0],"split_type":[0,0,0,0,0,0,0,0,0,0,0,0,0,0,0,0,0,0,0,0,0,0,0,0,0,0,0,0,0,0,0,0,0,0,0,0,0,0,0,0,0,0,0,0,0,0,0,0,0,0,0,0,0,0,0,0,0,0,0,0,0,0,0,0,0,0,0,0,0,0,0,0,0,0,0,0,0,0,0,0,0,0,0,0,0,0,0,0,0,0,0,0,0,0,0,0,0,0,0,0,0,0,0,0,0,0,0,0,0,0,0,0,0,0,0,0,0,0,0,0,0,0,0,0,0,0,0,0,0,0,0,0,0,0,0,0,0,0,0,0,0,0,0,0,0,0,0,0,0,0,0,0,0,0,0,0,0,0,0,0,0,0,0,0,0,0,0],"sum_hessian":[3.83E2,2.37E2,1.46E2,6.8E1,1.69E2,9.6E1,5E1,2.1E1,4.7E1,3.4E1,1.35E2,6.9E1,2.7E1,3.6E1,1.4E1,1.9E1,2E0,4E0,4.3E1,3.3E1,1E0,7.8E1,5.7E1,8E0,6.1E1,1.8E1,9E0,3.1E1,5E0,9E0,1E1,3E0,1E0,2.9E1,1.4E1,1.8E1,1.5E1,3.3E1,4.5E1,4.6E1,1.1E1,6E0,2E0,1.4E1,4.7E1,4E0,1.4E1,2.9E1,2E0,4E0,1E0,8E0,1E0,9E0,1E0,2.8E1,1E0,2E0,1.2E1,1.5E1,3E0,9E0,6E0,2.9E1,4E0,3.9E1,6E0,4.1E1,5E0,8E0,3E0,3E0,3E0,1.2E1,2E0,4.5E1,2E0,1.2E1,2E0,1E0,8E0,2.7E1,1E0,2E0,1E1,1.4E1,1E0,1E0,8E0,3E0,3E0,4E0,2.5E1,1E0,3E0,3.4E1,5E0,3E0,3E0,3.8E1,3E0,4E0,1E0,5E0,3E0,1E0,2E0,1E0,2E0,1E0,2E0,1E1,2E0,1E0,1E0,3.9E1,6E0,7E0,1E0,2.6E1,1E0,1E1,4E0,1E0,2E0,2E0,2E0,2.3E1,2E0,2E0,1E0,2.9E1,5E0,2E0,1E0,6E0,3.2E1,2E0,1E0,1E0,4E0,2E0,3.7E1,2E0,4E0,2E0,2.4E1,1E0,9E0,2.2E1,1E0,1E0,1E0,2.6E1,3E0,1E0,4E0,3E0,3E0,3E1,2E0,1E0,1E0,3.3E1,4E0,2E0,2E0],"tree_param":{"num_deleted":"0","num_feature":"412","num_nodes":"167","size_leaf_vector":"1"}},{"base_weights":[-6.9236476E-4,-4.5807907E-1,7.3984325E-1,-1.056074E0,-2.126689E-1,4.295613E-1,1.3154806E0,-1.5587472E0,-8.0368066E-1,-6.0875046E-1,-1.0917238E-1,2.590668E-1,8.404561E-1,1.0724882E0,1.8271632E-1,-1.6588972E0,-3.714982E-2,-1.9779266E-1,-8.542661E-1,-6.439726E-1,2.9440029E-2,-2.0876332E-1,2.8359609E-2,1.0988901E-1,3.748263E-1,5.585423E-1,1.0475452E0,9.378779E-1,1.6116616E0,-1.0838834E0,-2.0308282E0,-3.1289674E-2,1.3131176E-2,-9.607611E-1,-5.8432513E-1,-5.6597406E-1,-1.2612996E-1,-3.8627917E-1,-7.30176E-2,-5.6855384E-2,3.5975504E-1,-8.561985E-2,2.0264849E-1,4.1840202E-1,-1.1106159E-1,2.1400457E-2,5.9813153E-2,1.1135224E-1,4.1246228E-2,5.4988064E-2,9.8936325E-1,1.7915721E-1,3.5605446E-2,-1.1602789E-1,-1.9816183E-2,-2.118852E0,-5.7529505E-2,-9.886157E-1,-7.648895E-3,-1.2690379E-2,-6.449358E-1,-6.7111164E-1,-2.675601E-1,-4.4145373E-1,1.3789338E-2,8.615998E-3,-5.290642E-1,-1.1884833E-1,3.8657114E-1,5.604231E-1,-1.8168677E-1,-1.8932004E-1,1.4318548E-1,2.764986E-1,1.0366217E-1,4.7997406E-1,1.4290307E-1,3.9022544E-3,-1.7409716E-2,1.0300891E0,4.9766716E-2,-6.1898153E-2,-2.2167284E0,-1.0107027E0,-1.8508961E-2,-2.510185E-2,-6.937373E-2,-7.162783E-1,-1.3124132E-1,-4.9676333E-2,-1.4816386E-1,-4.9382445E-1,3.5504896E-2,6.7043856E-2,-3.3364918E-2,-7.733258E-2,-1.5253651E-1,-1.6174027E-1,3.290601E-1,4.6464678E-2,-1.9034432E-4,6.824999E-1,2.3720209E-2,5.447251E-4,-2.4588053E-1,-5.4778326E-3,-3.1016717E-2,1.7037699E-2,3.0805492E-3,3.2228816E-1,3.1700473E-2,4.084411E-2,2.0338275E-2,5.33009E-1,1.18804745E-1,4.3135323E-3,1.6896976E-2,1.05031095E-1,2.8249312E-2,-2.3390742E-1,-6.1898153E-2,-1.044656E0,-3.7953984E-2,-7.5801706E-1,-2.131736E-2,-9.4185956E-4,-1.8744338E-2,-1.8855713E-1,-1.7989336E-2,-3.1895846E-1,-7.350757E-1,-2.4972917E-3,6.398848E-3,1.252525E-1,-2.3517334E-1,-2.4277734E-2,5.909298E-3,2.0264514E-2,-2.4338181E-1,4.165202E-2,3.3339888E-3,2.0305416E-2,7.377782E-2,-7.7247727E-3,-2.9157309E-2,3.9342996E-1,1.1721793E-1,-1.7105734E-3,6.4656446E-3,-7.154948E-3,7.107453E-3,5.6414723E-1,1.16612585E-2,5.447251E-4,1.4578231E-2,-6.308745E-2,-1.1372467E-1,-7.860825E-2,-1.2641946E-2,-2.2278553E-2,-8.7075913E-4,-1.9034432E-4,-2.5080561E-3,-3.9742403E-2,5.5026934E-3,-1.4825091E-2,-7.789331E-2,7.2788517E-3,4.4807132E-2,-6.7335437E-3,-2.5527386E-2,1.703824E-2,-5.3692248E-2,-3.6114696E-2,-7.066407E-4,1.1069712E-2,4.221026E-2,1.3857001E-2,2.6580843E-3,-1.6529592E-3,1.4797968E-4,3.1727653E-2,6.746598E-2],"categories":[],"categories_nodes":[],"categories_segments":[],"categories_sizes":[],"default_left":[0,0,0,0,0,0,0,0,0,0,0,0,0,0,0,0,0,0,0,0,0,0,0,0,0,0,0,0,0,0,0,0,0,0,0,0,0,0,0,0,0,0,0,0,0,0,0,0,0,0,0,0,0,0,0,0,0,0,0,0,0,0,0,0,0,0,0,0,0,0,0,0,0,0,0,0,0,0,0,0,0,0,0,0,0,0,0,0,0,0,0,0,0,0,0,0,0,0,0,0,0,0,0,0,0,0,0,0,0,0,0,0,0,0,0,0,0,0,0,0,0,0,0,0,0,0,0,0,0,0,0,0,0,0,0,0,0,0,0,0,0,0,0,0,0,0,0,0,0,0,0,0,0,0,0,0,0,0,0,0,0,0,0,0,0,0,0,0,0,0,0,0,0,0,0,0,0,0,0,0,0,0,0],"id":1,"left_children":[1,3,5,7,9,11,13,15,17,19,21,23,25,27,-1,29,-1,31,33,35,-1,37,39,41,43,45,47,49,51,53,55,-1,-1,57,59,61,-1,63,65,67,69,71,73,75,77,-1,-1,-1,-1,-1,79,-1,-1,-1,-1,81,-1,83,-1,-1,85,87,89,91,-1,93,95,97,99,101,103,105,107,109,111,113,115,-1,-1,117,-1,-1,119,121,-1,-1,-1,123,125,-1,127,129,131,133,-1,-1,135,137,139,-1,-1,141,-1,-1,143,-1,-1,-1,-1,145,147,149,-1,151,153,-1,-1,-1,-1,-1,-1,155,-1,157,-1,-1,-1,159,161,163,165,-1,-1,167,169,-1,-1,171,173,-1,-1,-1,-1,-1,-1,175,177,-1,-1,179,-1,181,-1,-1,-1,-1,-1,-1,-1,-1,-1,-1,-1,-1,-1,-1,-1,-1,-1,-1,-1,-1,-1,-1,-1,-1,-1,-1,-1,-1,-1,-1,-1],"loss_changes":[1.3040399E2,3.470287E1,2.5690567E1,7.501396E0,6.902362E0,6.577631E0,4.3814697E0,1.9995842E0,1.3021927E0,1.3029652E0,1.8687042E0,1.1676226E0,1.0495758E0,1.1738548E0,0E0,2.07613E0,0E0,2.3049326E-1,7.034836E-1,9.232578E-1,0E0,1.8754592E0,1.6583658E0,5.9768033E-1,8.7221193E-1,6.295681E-2,1.6923141E-1,9.5207214E-2,7.174845E-1,4.4672775E-1,1.9037247E-1,0E0,0E0,6.633129E-1,3.340249E-1,8.2442284E-1,0E0,1.0441871E0,1.7170796E0,1.3379414E0,1.4056219E0,2.881066E-1,1.3216072E-1,5.4207945E-1,4.4636253E-2,0E0,0E0,0E0,0E0,0E0,2.8028488E-2,0E0,0E0,0E0,0E0,9.5905304E-2,0E0,3.276062E-1,0E0,0E0,7.576704E-2,4.668293E-1,2.0005763E-1,7.91872E-1,0E0,8.2228196E-1,5.258385E-1,8.6011195E-1,1.8286675E-1,1.9322968E-1,4.939072E-2,1.13081425E-1,6.9745705E-3,1.24293804E-1,6.0599796E-2,4.921589E-1,1.35163665E-2,0E0,0E0,6.612015E-2,0E0,0E0,3.114586E-1,2.0355415E-1,0E0,0E0,0E0,2.7938843E-1,1.8774614E-2,0E0,3.8673386E-2,9.467678E-1,8.488476E-3,6.45164E-1,0E0,0E0,9.073691E-2,5.844388E-1,8.956814E-2,0E0,0E0,9.208918E-3,0E0,0E0,5.9242547E-4,0E0,0E0,0E0,0E0,9.9773645E-2,5.9313634E-3,1.2116789E-2,0E0,2.583599E-1,1.4496431E-2,0E0,0E0,0E0,0E0,0E0,0E0,2.7866173E-1,0E0,2.3741817E-1,0E0,0E0,0E0,3.4995854E-2,2.9446656E-4,5.500784E-1,1.6762495E-1,0E0,0E0,4.7547647E-1,3.052801E-3,0E0,0E0,1.1788504E0,7.488501E-1,0E0,0E0,0E0,0E0,0E0,0E0,1.002121E-2,4.0578507E-3,0E0,0E0,3.4825102E-4,0E0,4.1344023E-1,0E0,0E0,0E0,0E0,0E0,0E0,0E0,0E0,0E0,0E0,0E0,0E0,0E0,0E0,0E0,0E0,0E0,0E0,0E0,0E0,0E0,0E0,0E0,0E0,0E0,0E0,0E0,0E0,0E0,0E0,0E0],"parents":[2147483647,0,0,1,1,2,2,3,3,4,4,5,5,6,6,7,7,8,8,9,9,10,10,11,11,12,12,13,13,15,15,17,17,18,18,19,19,21,21,22,22,23,23,24,24,25,25,26,26,27,27,28,28,29,29,30,30,33,33,34,34,35,35,37,37,38,38,39,39,40,40,41,41,42,42,43,43,44,44,50,50,55,55,57,57,60,60,61,61,62,62,63,63,65,65,66,66,67,67,68,68,69,69,70,70,71,71,72,72,73,73,74,74,75,75,76,76,79,79,82,82,83,83,87,87,88,88,90,90,91,91,92,92,93,93,96,96,97,97,98,98,101,101,104,104,109,109,110,110,111,111,113,113,114,114,121,121,123,123,127,127,128,128,129,129,130,130,133,133,134,134,137,137,138,138,145,145,146,146,149,149,151,151],"right_children":[2,4,6,8,10,12,14,16,18,20,22,24,26,28,-1,30,-1,32,34,36,-1,38,40,42,44,46,48,50,52,54,56,-1,-1,58,60,62,-1,64,66,68,70,72,74,76,78,-1,-1,-1,-1,-1,80,-1,-1,-1,-1,82,-1,84,-1,-1,86,88,90,92,-1,94,96,98,100,102,104,106,108,110,112,114,116,-1,-1,118,-1,-1,120,122,-1,-1,-1,124,126,-1,128,130,132,134,-1,-1,136,138,140,-1,-1,142,-1,-1,144,-1,-1,-1,-1,146,148,150,-1,152,154,-1,-1,-1,-1,-1,-1,156,-1,158,-1,-1,-1,160,162,164,166,-1,-1,168,170,-1,-1,172,174,-1,-1,-1,-1,-1,-1,176,178,-1,-1,180,-1,182,-1,-1,-1,-1,-1,-1,-1,-1,-1,-1,-1,-1,-1,-1,-1,-1,-1,-1,-1,-1,-1,-1,-1,-1,-1,-1,-1,-1,-1,-1,-1],"split_conditions":[3.4E1,4.8634083E-6,1.1498353E-5,8E0,1.3E1,6.6E1,8E0,4.8998023E-9,1.58E2,2E0,2.9525426E-8,7.0892966E-6,4E0,3E0,1.8271632E-1,6E0,-3.714982E-2,1.31E2,1.7E1,6.8534916E-8,2.9440029E-2,6.2624003E-6,7.818468E-6,1E0,1E0,2.62E2,7.5832524E-8,1E0,2.212773E-1,1E0,1.9473052E-1,-3.1289674E-2,1.3131176E-2,2E0,1.8E1,1.3875648E-1,-1.2612996E-1,5.564424E-3,6.65E2,3E0,2E0,3.81E2,3E0,3.1980636E-7,3.5E1,2.1400457E-2,5.9813153E-2,1.1135224E-1,4.1246228E-2,5.4988064E-2,2E0,1.7915721E-1,3.5605446E-2,-1.1602789E-1,-1.9816183E-2,8.617346E-2,-5.7529505E-2,1E0,-7.648895E-3,-1.2690379E-2,1.7873451E-6,1E0,2.49E2,5.77E2,1.3789338E-2,1E0,1.7E1,2E0,6.368934E-6,4.1979038E-6,2.82E2,2.939023E-1,5.7540187E-6,2E0,1E0,1E0,4.8E1,3.9022544E-3,-1.7409716E-2,1.5157254E-7,4.9766716E-2,-6.1898153E-2,1E0,1E0,-1.8508961E-2,-2.510185E-2,-6.937373E-2,1E0,4.7E2,-4.9676333E-2,1E0,9.73879E-2,1.327305E-1,1E0,-3.3364918E-2,-7.733258E-2,8.26E2,5.972404E-6,3.3E1,4.6464678E-2,-1.9034432E-4,1.8E2,2.3720209E-2,5.447251E-4,5.13E2,-5.4778326E-3,-3.1016717E-2,1.7037699E-2,3.0805492E-3,1E0,5.04E2,4.5E1,2.0338275E-2,7E0,7.3011183E-6,4.3135323E-3,1.6896976E-2,1.05031095E-1,2.8249312E-2,-2.3390742E-1,-6.1898153E-2,2.4826272E-6,-3.7953984E-2,6.601963E-6,-2.131736E-2,-9.4185956E-4,-1.8744338E-2,5.7210467E-8,4.21E2,8.985781E-2,1.1722864E-1,-2.4972917E-3,6.398848E-3,9.0851745E-6,2.92E2,-2.4277734E-2,5.909298E-3,3.880259E-6,6.7185806E-6,4.165202E-2,3.3339888E-3,2.0305416E-2,7.377782E-2,-7.7247727E-3,-2.9157309E-2,1.9319923E-8,1.9E2,-1.7105734E-3,6.4656446E-3,2.37E2,7.107453E-3,1.9285446E-8,1.16612585E-2,5.447251E-4,1.4578231E-2,-6.308745E-2,-1.1372467E-1,-7.860825E-2,-1.2641946E-2,-2.2278553E-2,-8.7075913E-4,-1.9034432E-4,-2.5080561E-3,-3.9742403E-2,5.5026934E-3,-1.4825091E-2,-7.789331E-2,7.2788517E-3,4.4807132E-2,-6.7335437E-3,-2.5527386E-2,1.703824E-2,-5.3692248E-2,-3.6114696E-2,-7.066407E-4,1.1069712E-2,4.221026E-2,1.3857001E-2,2.6580843E-3,-1.6529592E-3,1.4797968E-4,3.1727653E-2,6.746598E-2],"split_indices":[1,2,2,1,1,1,23,11,0,17,4,2,23,36,0,1,0,0,1,4,0,2,2,49,152,0,5,27,3,25,6,0,0,127,1,6,0,12,0,49,34,0,83,13,1,0,0,0,0,0,36,0,0,0,0,3,0,58,0,0,7,117,0,0,0,26,1,108,2,7,0,3,2,134,73,73,1,0,0,14,0,0,83,76,0,0,0,195,0,0,22,6,3,210,0,0,0,2,1,0,0,0,0,0,0,0,0,0,0,100,0,1,0,39,2,0,0,0,0,0,0,7,0,2,0,0,0,4,0,6,3,0,0,2,0,0,0,7,2,0,0,0,0,0,0,4,0,0,0,0,0,5,0,0,0,0,0,0,0,0,0,0,0,0,0,0,0,0,0,0,0,0,0,0,0,0,0,0,0,0,0,0,0],"split_type":[0,0,0,0,0,0,0,0,0,0,0,0,0,0,0,0,0,0,0,0,0,0,0,0,0,0,0,0,0,0,0,0,0,0,0,0,0,0,0,0,0,0,0,0,0,0,0,0,0,0,0,0,0,0,0,0,0,0,0,0,0,0,0,0,0,0,0,0,0,0,0,0,0,0,0,0,0,0,0,0,0,0,0,0,0,0,0,0,0,0,0,0,0,0,0,0,0,0,0,0,0,0,0,0,0,0,0,0,0,0,0,0,0,0,0,0,0,0,0,0,0,0,0,0,0,0,0,0,0,0,0,0,0,0,0,0,0,0,0,0,0,0,0,0,0,0,0,0,0,0,0,0,0,0,0,0,0,0,0,0,0,0,0,0,0,0,0,0,0,0,0,0,0,0,0,0,0,0,0,0,0,0,0],"sum_hessian":[3.83E2,2.37E2,1.46E2,6.8E1,1.69E2,9.6E1,5E1,2.1E1,4.7E1,3.4E1,1.35E2,6.9E1,2.7E1,3.6E1,1.4E1,1.9E1,2E0,4E0,4.3E1,3.3E1,1E0,7.8E1,5.7E1,3.1E1,3.8E1,1.3E1,1.4E1,3.1E1,5E0,9E0,1E1,3E0,1E0,2.9E1,1.4E1,3.1E1,2E0,3.3E1,4.5E1,4.6E1,1.1E1,1E1,2.1E1,3.5E1,3E0,2E0,1.1E1,1.2E1,2E0,5E0,2.6E1,4E0,1E0,8E0,1E0,9E0,1E0,2.8E1,1E0,2E0,1.2E1,2.2E1,9E0,3E1,3E0,3.9E1,6E0,4.1E1,5E0,8E0,3E0,7E0,3E0,1.1E1,1E1,2.8E1,7E0,1E0,2E0,2.3E1,3E0,1E0,8E0,2.7E1,1E0,2E0,1E1,2E1,2E0,2E0,7E0,2.7E1,3E0,3.4E1,5E0,3E0,3E0,3.8E1,3E0,4E0,1E0,5E0,3E0,1E0,2E0,4E0,3E0,2E0,1E0,9E0,2E0,7E0,3E0,2.4E1,4E0,2E0,5E0,2.2E1,1E0,7E0,1E0,2.5E1,2E0,1.8E1,2E0,1E0,1E0,5E0,2E0,1.7E1,1E1,1E0,2E0,2.9E1,5E0,2E0,1E0,1.2E1,2.6E1,2E0,1E0,1E0,4E0,1E0,1E0,6E0,3E0,1E0,1E0,3E0,4E0,2.2E1,2E0,1E0,3E0,6E0,1.9E1,1.7E1,1E0,4E0,1E0,1E0,1E0,1.4E1,3E0,1E0,9E0,2.6E1,3E0,1E0,4E0,1E1,2E0,1.7E1,9E0,1E0,5E0,2E0,1E0,1E0,2E0,8E0,1.4E1],"tree_param":{"num_deleted":"0","num_feature":"412","num_nodes":"183","size_leaf_vector":"1"}},{"base_weights":[-1.3811464E-3,-4.1806194E-1,6.732543E-1,-1.0142435E0,-2.1140385E-1,3.9126092E-1,1.1963936E0,-1.3003336E0,-6.306255E-1,-5.1196784E-1,-8.6673684E-2,2.3627147E-1,7.647609E-1,1.004297E0,1.7370161E-1,-4.382732E-2,-1.4006659E0,-6.5384805E-1,-1.808271E-4,-6.998323E-1,-2.2397846E-1,-1.08117156E-1,3.6378923E-1,-8.35322E-2,2.7888376E-1,5.7067347E-1,1.057051E-1,1.3692231E-1,8.541822E-1,-1.4743655E0,-5.530269E-2,-6.783078E-1,-8.947666E-4,-1.9367929E-1,-7.8972024E-1,-3.4375656E-1,2.5201842E-1,-8.894798E-2,-6.513709E-1,6.4391576E-2,6.274706E-2,1.5841914E-2,-2.8756106E-2,5.2054083E-1,1.9755584E-1,2.8934702E-2,6.264041E-1,8.842635E-1,2.7866824E-2,-1.5165908E0,-1.8825373E-2,-7.29281E-1,-2.1563454E-2,6.35607E-2,-3.3818945E-1,-1.0753219E0,-6.279027E-1,-4.1181877E-1,1.3382733E-2,-1.4087637E-2,5.609071E-2,2.8778713E-2,-2.0135662E-1,-7.642E-2,-1.5644167E-2,1.3052283E-3,7.496123E-3,1.1915691E-1,-9.143357E-2,6.242697E-1,1.8822908E-1,2.182938E-1,-1.862782E-2,6.6303276E-2,2.5887875E-2,9.089318E-1,3.6749467E-2,-1.5774981E0,-5.2380204E-2,-7.5131285E-1,-1.2229041E-2,1.2474618E-2,-2.9405125E-3,-8.505789E-3,-3.9421402E-2,-2.9197795E-2,-1.145517E-1,-6.5326643E-1,-8.567736E-3,-1.8225696E-2,-5.4149765E-1,-9.884539E-3,3.7195152E-1,-3.764413E-1,-4.1392602E-2,2.5251799E-3,1.4204136E-2,-1.4366817E-3,-1.1233355E-2,1.8036237E-2,6.5062426E-2,3.5090692E-2,2.7862445E-2,3.153633E-1,1.6597079E-1,9.5831436E-1,4.9998563E-2,-1.6191639E0,-3.0959332E-2,-7.731355E-1,-1.4651857E-2,-7.0356375E-1,-3.0133499E-2,-7.939175E-3,1.1321925E-2,-6.049837E-1,-1.4937818E-2,-4.6708114E-2,3.6032815E-2,4.8684627E-2,5.214138E-2,-5.5357116E-1,-1.471185E-1,-6.552206E-4,-6.724944E-2,5.1748886E-4,4.7461153E-3,7.1851954E-2,3.7025347E-1,2.859736E-1,1.2727885E-1,3.9721083E-2,9.92838E-1,-3.155464E-2,-1.6640763E-1,-8.2034506E-2,-3.674086E-2,-7.755285E-2,-3.1177863E-2,-6.824744E-2,-3.1812917E-2,-7.295242E-3,3.887701E-2,-2.9561252E-3,1.0258819E-2,-6.0618605E-2,1.1782588E-2,-2.3010653E-3,-3.087605E-2,9.777302E-3,-1.5203287E-2,1.0627135E-2,-1.5703113E-3,5.1130955E-3,3.9461635E-2,1.1513879E-2,3.85315E-2,2.6320398E-3,1.8873286E-2,1.0139053E-1,2.8574577E-2],"categories":[],"categories_nodes":[],"categories_segments":[],"categories_sizes":[],"default_left":[0,0,0,0,0,0,0,0,0,0,0,0,0,0,0,0,0,0,0,0,0,0,0,0,0,0,0,0,0,0,0,0,0,0,0,0,0,0,0,0,0,0,0,0,0,0,0,0,0,0,0,0,0,0,0,0,0,0,0,0,0,0,0,0,0,0,0,0,0,0,0,0,0,0,0,0,0,0,0,0,0,0,0,0,0,0,0,0,0,0,0,0,0,0,0,0,0,0,0,0,0,0,0,0,0,0,0,0,0,0,0,0,0,0,0,0,0,0,0,0,0,0,0,0,0,0,0,0,0,0,0,0,0,0,0,0,0,0,0,0,0,0,0,0,0,0,0,0,0,0,0,0,0,0,0,0,0,0,0,0,0],"id":2,"left_children":[1,3,5,7,9,11,13,15,17,19,21,23,25,27,-1,-1,29,31,-1,33,35,37,39,41,43,45,-1,-1,47,49,-1,51,-1,53,55,57,59,61,63,-1,65,67,-1,69,71,-1,73,75,-1,77,-1,79,-1,81,83,85,87,89,-1,-1,-1,91,93,-1,-1,-1,-1,95,97,99,101,103,-1,-1,-1,105,-1,107,-1,109,-1,-1,-1,-1,-1,-1,-1,111,-1,113,115,117,119,121,123,-1,-1,-1,-1,-1,-1,125,-1,127,129,131,-1,133,-1,135,-1,137,-1,-1,-1,139,-1,141,-1,143,-1,145,147,149,-1,-1,-1,151,153,155,157,-1,159,-1,-1,-1,-1,-1,-1,-1,-1,-1,-1,-1,-1,-1,-1,-1,-1,-1,-1,-1,-1,-1,-1,-1,-1,-1,-1,-1,-1],"loss_changes":[1.0822678E2,2.9108559E1,2.1217613E1,5.8746834E0,6.6287374E0,5.434497E0,3.5519562E0,2.32687E0,4.0769577E-1,2.6566057E0,1.266087E0,9.772253E-1,9.852047E-1,1.0216713E0,0E0,0E0,1.0587578E0,4.1983032E-1,0E0,1.2574558E0,1.340941E0,1.2125366E0,4.6557546E-1,1.8703221E-1,1.1156788E0,1.1664343E-1,0E0,0E0,2.9026222E-1,1.1807709E0,0E0,4.55925E-1,0E0,2.445383E-1,5.264015E-1,6.4021015E-1,6.858223E-1,1.5805811E0,1.03816986E-1,0E0,1.4495067E-3,8.8477105E-2,0E0,3.9954948E-1,4.2274046E-1,0E0,3.0283928E-2,3.5657883E-2,0E0,7.458725E-1,0E0,2.1570301E-1,0E0,2.0732649E-2,2.3195326E-2,1.054306E-1,2.0533562E-1,8.0678225E-1,0E0,0E0,0E0,7.86499E-1,1.6928604E0,0E0,0E0,0E0,0E0,5.0090663E-3,4.8288964E-3,1.1340141E-2,5.9437856E-2,1.8129134E-1,0E0,0E0,0E0,6.611633E-2,0E0,7.6659393E-1,0E0,1.7708302E-1,0E0,0E0,0E0,0E0,0E0,0E0,0E0,1.0661268E-1,0E0,4.9188513E-2,2.0835781E-1,7.5298816E-1,2.6451242E-1,1.0965366E0,8.4797066E-1,0E0,0E0,0E0,0E0,0E0,0E0,8.646108E-4,0E0,1.7389238E-1,1.1218214E-1,5.1174164E-2,0E0,8.2151794E-1,0E0,1.0083485E-1,0E0,1.8112755E-1,0E0,0E0,0E0,5.1705837E-3,0E0,5.9980285E-1,0E0,1.568583E-2,0E0,6.3663197E-1,2.737498E-1,4.916594E-1,0E0,0E0,0E0,1.3723161E-2,7.311976E-2,7.4432075E-2,1.563443E-1,0E0,2.3107529E-2,0E0,0E0,0E0,0E0,0E0,0E0,0E0,0E0,0E0,0E0,0E0,0E0,0E0,0E0,0E0,0E0,0E0,0E0,0E0,0E0,0E0,0E0,0E0,0E0,0E0,0E0,0E0,0E0],"parents":[2147483647,0,0,1,1,2,2,3,3,4,4,5,5,6,6,7,7,8,8,9,9,10,10,11,11,12,12,13,13,16,16,17,17,19,19,20,20,21,21,22,22,23,23,24,24,25,25,28,28,29,29,31,31,33,33,34,34,35,35,36,36,37,37,38,38,40,40,41,41,43,43,44,44,46,46,47,47,49,49,51,51,53,53,54,54,55,55,56,56,57,57,61,61,62,62,67,67,68,68,69,69,70,70,71,71,75,75,77,77,79,79,87,87,89,89,90,90,91,91,92,92,93,93,94,94,101,101,103,103,104,104,105,105,107,107,109,109,111,111,115,115,117,117,119,119,121,121,122,122,123,123,127,127,128,128,129,129,130,130,132,132],"right_children":[2,4,6,8,10,12,14,16,18,20,22,24,26,28,-1,-1,30,32,-1,34,36,38,40,42,44,46,-1,-1,48,50,-1,52,-1,54,56,58,60,62,64,-1,66,68,-1,70,72,-1,74,76,-1,78,-1,80,-1,82,84,86,88,90,-1,-1,-1,92,94,-1,-1,-1,-1,96,98,100,102,104,-1,-1,-1,106,-1,108,-1,110,-1,-1,-1,-1,-1,-1,-1,112,-1,114,116,118,120,122,124,-1,-1,-1,-1,-1,-1,126,-1,128,130,132,-1,134,-1,136,-1,138,-1,-1,-1,140,-1,142,-1,144,-1,146,148,150,-1,-1,-1,152,154,156,158,-1,160,-1,-1,-1,-1,-1,-1,-1,-1,-1,-1,-1,-1,-1,-1,-1,-1,-1,-1,-1,-1,-1,-1,-1,-1,-1,-1,-1,-1],"split_conditions":[3.4E1,1.2E1,1.1498353E-5,4.656231E-6,5.3327103E-6,6.6E1,9E0,1.564598E-8,6.601963E-6,1E0,4E0,1.8420424E-6,1.02E2,1E0,1.7370161E-1,-4.382732E-2,8.877145E-9,2E0,-1.808271E-4,1.87E2,1E0,7.67E2,2.8E2,6.632012E-8,5.9795935E-2,6.4471237E-6,1.057051E-1,1.3692231E-1,2E0,1E0,-5.530269E-2,1E0,-8.947666E-4,4.8998023E-9,1E0,4.6962937E-3,4.8929355E-6,1E0,7.79E2,6.4391576E-2,3.68E2,1E0,-2.8756106E-2,2E0,4E0,2.8934702E-2,1E0,1E0,2.7866824E-2,1E0,-1.8825373E-2,1E0,-2.1563454E-2,1.58E2,8.9E1,1.94E2,4E0,1E0,1.3382733E-2,-1.4087637E-2,5.609071E-2,1E0,2E0,-7.642E-2,-1.5644167E-2,1.3052283E-3,7.496123E-3,5.7480506E-6,1.16E2,1.8259698E-8,1E0,1E0,-1.862782E-2,6.6303276E-2,2.5887875E-2,1E0,3.6749467E-2,2E0,-5.2380204E-2,1E0,-1.2229041E-2,1.2474618E-2,-2.9405125E-3,-8.505789E-3,-3.9421402E-2,-2.9197795E-2,-1.145517E-1,1E0,-8.567736E-3,4.106038E-6,1E0,1E0,6.4340124E-6,6.5626577E-6,3E0,2.5251799E-3,1.4204136E-2,-1.4366817E-3,-1.1233355E-2,1.8036237E-2,6.5062426E-2,2.42E2,2.7862445E-2,5.925963E-6,2.38E2,1E0,4.9998563E-2,7.7275084E-3,-3.0959332E-2,2E0,-1.4651857E-2,2E0,-3.0133499E-2,-7.939175E-3,1.1321925E-2,1E0,-1.4937818E-2,1E0,3.6032815E-2,2.33E2,5.214138E-2,2E0,1E0,2.8E1,-6.724944E-2,5.1748886E-4,4.7461153E-3,4.1E1,1.82E2,1E0,5.32E2,3.9721083E-2,1E0,-3.155464E-2,-1.6640763E-1,-8.2034506E-2,-3.674086E-2,-7.755285E-2,-3.1177863E-2,-6.824744E-2,-3.1812917E-2,-7.295242E-3,3.887701E-2,-2.9561252E-3,1.0258819E-2,-6.0618605E-2,1.1782588E-2,-2.3010653E-3,-3.087605E-2,9.777302E-3,-1.5203287E-2,1.0627135E-2,-1.5703113E-3,5.1130955E-3,3.9461635E-2,1.1513879E-2,3.85315E-2,2.6320398E-3,1.8873286E-2,1.0139053E-1,2.8574577E-2],"split_indices":[1,1,2,2,2,1,23,5,2,49,23,7,1,83,0,0,11,34,0,0,135,0,0,4,6,2,0,0,154,25,0,195,0,11,83,12,2,83,0,0,0,52,0,83,57,0,300,271,0,210,0,58,0,0,0,0,27,39,0,0,0,261,39,0,0,0,0,2,0,5,51,17,0,0,0,18,0,83,0,43,0,0,0,0,0,0,0,286,0,7,108,82,2,2,22,0,0,0,0,0,0,0,0,2,0,39,0,6,0,49,0,57,0,0,0,127,0,226,0,0,0,36,76,1,0,0,0,1,0,135,0,0,88,0,0,0,0,0,0,0,0,0,0,0,0,0,0,0,0,0,0,0,0,0,0,0,0,0,0,0,0],"split_type":[0,0,0,0,0,0,0,0,0,0,0,0,0,0,0,0,0,0,0,0,0,0,0,0,0,0,0,0,0,0,0,0,0,0,0,0,0,0,0,0,0,0,0,0,0,0,0,0,0,0,0,0,0,0,0,0,0,0,0,0,0,0,0,0,0,0,0,0,0,0,0,0,0,0,0,0,0,0,0,0,0,0,0,0,0,0,0,0,0,0,0,0,0,0,0,0,0,0,0,0,0,0,0,0,0,0,0,0,0,0,0,0,0,0,0,0,0,0,0,0,0,0,0,0,0,0,0,0,0,0,0,0,0,0,0,0,0,0,0,0,0,0,0,0,0,0,0,0,0,0,0,0,0,0,0,0,0,0,0,0,0],"sum_hessian":[3.83E2,2.37E2,1.46E2,6E1,1.77E2,9.6E1,5E1,3.3E1,2.7E1,5.1E1,1.26E2,6.9E1,2.7E1,3.9E1,1.1E1,4E0,2.9E1,2.6E1,1E0,3E1,2.1E1,1.21E2,5E0,8E0,6.1E1,1.8E1,9E0,9E0,3E1,2.6E1,3E0,2.5E1,1E0,5E0,2.5E1,1.7E1,4E0,1.18E2,3E0,2E0,3E0,6E0,2E0,1.4E1,4.7E1,4E0,1.4E1,2.8E1,2E0,2.5E1,1E0,2.2E1,3E0,2E0,3E0,7E0,1.8E1,1.5E1,2E0,2E0,2E0,5.8E1,6E1,2E0,1E0,1E0,2E0,3E0,3E0,1E1,4E0,4.5E1,2E0,1.2E1,2E0,2.6E1,2E0,2.3E1,2E0,2.1E1,1E0,1E0,1E0,1E0,2E0,1E0,6E0,1.7E1,1E0,4E0,1.1E1,5.3E1,5E0,2.8E1,3.2E1,1E0,2E0,1E0,2E0,1E0,9E0,2E0,2E0,1.4E1,3.1E1,2.2E1,4E0,2.2E1,1E0,2E1,1E0,1.4E1,3E0,3E0,1E0,9E0,2E0,4.9E1,4E0,2E0,3E0,1.5E1,1.3E1,3.1E1,1E0,1E0,1E0,3E0,1.1E1,6E0,2.5E1,2E0,2E1,1E0,2.1E1,1.7E1,3E0,1.1E1,3E0,6E0,3E0,4.7E1,2E0,1E0,1E0,1.4E1,1E0,8E0,5E0,1.9E1,1.2E1,2E0,1E0,1E0,1E1,3E0,3E0,1E1,1.5E1,1.9E1,1E0],"tree_param":{"num_deleted":"0","num_feature":"412","num_nodes":"161","size_leaf_vector":"1"}},{"base_weights":[-1.1909996E-3,-3.8045684E-1,6.128665E-1,-9.221233E-1,-1.9269215E-1,3.5651538E-1,1.0884194E0,-1.1820431E0,-5.7357347E-1,-4.6819037E-1,-7.837246E-2,2.1547407E-1,6.963859E-1,9.1439784E-1,1.5777896E-1,-4.0321138E-2,-1.272447E0,-5.9468967E-1,-1.7178575E-4,-6.404805E-1,-2.0413649E-1,-9.828654E-2,3.3960912E-1,-7.7923074E-2,2.5458857E-1,5.199812E-1,9.619164E-1,8.052801E-1,1.3985184E0,-1.3380448E0,-5.115499E-2,-6.169085E-1,-8.500282E-4,-1.8071021E-1,-7.219475E-1,-3.148383E-1,2.3521721E-1,-8.028536E-2,-6.0924983E-1,6.0098797E-2,5.8672696E-2,1.483762E-2,-2.6839033E-2,4.7623506E-1,1.8002014E-1,2.6619926E-2,5.6990975E-1,1.0927462E-1,4.9248513E-2,1.08490996E-1,6.966259E-1,1.5529212E-1,3.1325247E-2,-1.375751E0,-1.7884105E-2,-6.626858E-1,-1.9946193E-2,6.038266E-2,-3.163523E-1,-9.8575836E-1,-5.72872E-1,-3.7761283E-1,1.2490551E-2,-1.31484615E-2,5.2351333E-2,2.8054377E-2,-1.8375683E-1,-7.132535E-2,-1.4861958E-2,1.239967E-3,6.996382E-3,1.1142355E-1,-8.545772E-2,5.347101E-1,6.409812E-2,1.9918577E-1,-1.7385965E-2,6.0182966E-2,2.4162015E-2,7.21E-2,2.5317518E-2,-1.4092146E0,-2.6958108E-2,-6.8224645E-1,-1.1617589E-2,1.1850886E-2,-2.793487E-3,-8.080499E-3,-3.679331E-2,-2.7737904E-2,-1.0473299E-1,-5.956545E-1,-8.139349E-3,-1.5726577E-2,-4.9693105E-1,-5.4551177E-2,1.694615E-1,-3.416252E-1,-3.9455626E-2,2.398921E-3,1.3257193E-2,-1.3648476E-3,-1.0484464E-2,4.508809E-3,5.7175463E-1,4.916144E-4,9.123105E-3,2.874024E-1,1.5160966E-1,-1.0579067E0,-1.7016392E0,-7.0147794E-1,-1.3919266E-2,-6.1595774E-1,-1.2524943E-2,-7.3437365E-3,1.0755829E-2,-5.544914E-2,-1.3941963E-2,-9.702039E-2,3.3069223E-1,2.3245806E-1,-3.070027E-2,-5.012663E-1,-1.3477644E-1,-7.5925956E-4,-6.388697E-2,2.4808299E-2,6.1168063E-2,6.6930965E-2,3.3694267E-1,2.6452556E-1,1.1537809E-1,-2.9976908E-2,-1.0931659E-1,-2.0076048E-1,-8.7176636E-2,-7.191602E-2,-1.7391607E-2,-6.6831015E-2,-2.7873486E-2,-4.790184E-4,-2.9781446E-2,3.943563E-2,6.985006E-3,2.8688276E-2,-1.7157616E-2,-5.4960866E-2,1.1193459E-2,-2.0472372E-2,9.1272695E-3,-4.590992E-3,3.267728E-2,1.2482824E-2,6.0224626E-4,4.857441E-3,3.5874214E-2,3.291489E-2,6.864482E-3,2.3927635E-3,1.7103916E-2],"categories":[],"categories_nodes":[],"categories_segments":[],"categories_sizes":[],"default_left":[0,0,0,0,0,0,0,0,0,0,0,0,0,0,0,0,0,0,0,0,0,0,0,0,0,0,0,0,0,0,0,0,0,0,0,0,0,0,0,0,0,0,0,0,0,0,0,0,0,0,0,0,0,0,0,0,0,0,0,0,0,0,0,0,0,0,0,0,0,0,0,0,0,0,0,0,0,0,0,0,0,0,0,0,0,0,0,0,0,0,0,0,0,0,0,0,0,0,0,0,0,0,0,0,0,0,0,0,0,0,0,0,0,0,0,0,0,0,0,0,0,0,0,0,0,0,0,0,0,0,0,0,0,0,0,0,0,0,0,0,0,0,0,0,0,0,0,0,0,0,0,0,0,0,0,0,0,0,0,0,0],"id":3,"left_children":[1,3,5,7,9,11,13,15,17,19,21,23,25,27,-1,-1,29,31,-1,33,35,37,39,41,43,45,47,49,51,53,-1,55,-1,57,59,61,63,65,67,-1,69,71,-1,73,75,-1,77,-1,-1,-1,79,-1,-1,81,-1,83,-1,85,87,89,91,93,-1,-1,-1,95,97,-1,-1,-1,-1,99,101,103,105,107,-1,-1,-1,-1,-1,109,-1,111,-1,-1,-1,-1,-1,-1,-1,113,-1,115,117,119,121,123,125,-1,-1,-1,-1,-1,127,-1,-1,129,131,133,135,137,-1,139,-1,-1,-1,-1,-1,141,143,145,-1,147,149,151,-1,-1,-1,153,155,157,159,-1,-1,-1,-1,-1,-1,-1,-1,-1,-1,-1,-1,-1,-1,-1,-1,-1,-1,-1,-1,-1,-1,-1,-1,-1,-1,-1,-1],"loss_changes":[8.966332E1,2.4028301E1,1.7532516E1,4.8483086E0,5.569393E0,4.4997187E0,2.9004822E0,1.8808517E0,3.3708954E-1,2.2349367E0,1.090491E0,8.231642E-1,8.113661E-1,9.868469E-1,0E0,0E0,8.129196E-1,3.4641647E-1,0E0,1.0306759E0,1.1440747E0,1.0732348E0,4.0532345E-1,1.6299313E-1,9.3899393E-1,8.903837E-2,7.599449E-2,3.0762482E-1,5.189514E-1,9.3410873E-1,0E0,3.6466885E-1,0E0,2.1531625E-1,4.5780754E-1,5.4405105E-1,5.974275E-1,1.3391535E0,8.562529E-2,0E0,1.2223693E-3,7.733183E-2,0E0,3.2722187E-1,3.601824E-1,0E0,1.1770725E-2,0E0,0E0,0E0,1.2010479E-1,0E0,0E0,5.82531E-1,0E0,1.6661072E-1,0E0,1.8711217E-2,1.886803E-2,5.8420658E-2,1.6426277E-1,6.83059E-1,0E0,0E0,0E0,6.984241E-1,1.3761373E0,0E0,0E0,0E0,0E0,4.216086E-3,4.1376743E-3,2.1001244E-1,4.368836E-3,1.4948916E-1,0E0,0E0,0E0,0E0,0E0,7.6810074E-1,0E0,1.3212204E-1,0E0,0E0,0E0,0E0,0E0,0E0,0E0,9.476519E-2,0E0,4.347313E-2,1.6963482E-1,6.538013E-1,7.3170865E-1,8.900664E-1,7.6495475E-1,0E0,0E0,0E0,0E0,0E0,3.3273697E-3,0E0,0E0,1.4128137E-1,1.0039538E-1,4.654026E-2,1.2967873E0,7.082462E-2,0E0,1.1384392E-1,0E0,0E0,0E0,0E0,0E0,6.467481E-1,3.8879246E-2,4.8901093E-1,0E0,5.358176E-1,2.4004701E-1,4.8822734E-1,0E0,0E0,0E0,1.3353974E-2,5.8009505E-2,6.6014886E-2,1.282534E-1,0E0,0E0,0E0,0E0,0E0,0E0,0E0,0E0,0E0,0E0,0E0,0E0,0E0,0E0,0E0,0E0,0E0,0E0,0E0,0E0,0E0,0E0,0E0,0E0,0E0,0E0,0E0,0E0],"parents":[2147483647,0,0,1,1,2,2,3,3,4,4,5,5,6,6,7,7,8,8,9,9,10,10,11,11,12,12,13,13,16,16,17,17,19,19,20,20,21,21,22,22,23,23,24,24,25,25,26,26,27,27,28,28,29,29,31,31,33,33,34,34,35,35,36,36,37,37,38,38,40,40,41,41,43,43,44,44,46,46,50,50,53,53,55,55,57,57,58,58,59,59,60,60,61,61,65,65,66,66,71,71,72,72,73,73,74,74,75,75,81,81,83,83,91,91,93,93,94,94,95,95,96,96,97,97,98,98,104,104,107,107,108,108,109,109,110,110,111,111,113,113,119,119,120,120,121,121,123,123,124,124,125,125,129,129,130,130,131,131,132,132],"right_children":[2,4,6,8,10,12,14,16,18,20,22,24,26,28,-1,-1,30,32,-1,34,36,38,40,42,44,46,48,50,52,54,-1,56,-1,58,60,62,64,66,68,-1,70,72,-1,74,76,-1,78,-1,-1,-1,80,-1,-1,82,-1,84,-1,86,88,90,92,94,-1,-1,-1,96,98,-1,-1,-1,-1,100,102,104,106,108,-1,-1,-1,-1,-1,110,-1,112,-1,-1,-1,-1,-1,-1,-1,114,-1,116,118,120,122,124,126,-1,-1,-1,-1,-1,128,-1,-1,130,132,134,136,138,-1,140,-1,-1,-1,-1,-1,142,144,146,-1,148,150,152,-1,-1,-1,154,156,158,160,-1,-1,-1,-1,-1,-1,-1,-1,-1,-1,-1,-1,-1,-1,-1,-1,-1,-1,-1,-1,-1,-1,-1,-1,-1,-1,-1,-1],"split_conditions":[3.4E1,1.2E1,1.1498353E-5,4.656231E-6,5.3327103E-6,6.6E1,9E0,1.564598E-8,6.601963E-6,1E0,4E0,1.8420424E-6,1.02E2,3E0,1.5777896E-1,-4.0321138E-2,8.877145E-9,2E0,-1.7178575E-4,1.87E2,1E0,7.67E2,2.8E2,6.632012E-8,5.9795935E-2,6.4471237E-6,9.702391E-2,1E0,2.212773E-1,1E0,-5.115499E-2,1E0,-8.500282E-4,4.8998023E-9,1E0,4.6962937E-3,4.8929355E-6,1E0,7.79E2,6.0098797E-2,3.68E2,1E0,-2.6839033E-2,1E0,4E0,2.6619926E-2,1E0,1.0927462E-1,4.9248513E-2,1.08490996E-1,1E0,1.5529212E-1,3.1325247E-2,5.85E2,-1.7884105E-2,1E0,-1.9946193E-2,1.58E2,8.9E1,1.94E2,4E0,1E0,1.2490551E-2,-1.31484615E-2,5.2351333E-2,7.4584686E-6,2E0,-7.132535E-2,-1.4861958E-2,1.239967E-3,6.996382E-3,5.7480506E-6,1.16E2,2.4312438E-8,2.42E2,1E0,-1.7385965E-2,6.0182966E-2,2.4162015E-2,7.21E-2,2.5317518E-2,2.17E2,-2.6958108E-2,1E0,-1.1617589E-2,1.1850886E-2,-2.793487E-3,-8.080499E-3,-3.679331E-2,-2.7737904E-2,-1.0473299E-1,5.129618E-6,-8.139349E-3,4.106038E-6,1E0,2E0,6.37E2,6.5626577E-6,3E0,2.398921E-3,1.3257193E-2,-1.3648476E-3,-1.0484464E-2,4.508809E-3,1.8802892E-8,4.916144E-4,9.123105E-3,5.925963E-6,2.38E2,7.7275084E-3,1E0,1E0,-1.3919266E-2,1E0,-1.2524943E-2,-7.3437365E-3,1.0755829E-2,-5.544914E-2,-1.3941963E-2,1E0,3.11E2,1E0,-3.070027E-2,2E0,3.3003737E-8,1E0,-6.388697E-2,2.4808299E-2,6.1168063E-2,1.9E2,1.82E2,8.450843E-8,5.32E2,-2.9976908E-2,-1.0931659E-1,-2.0076048E-1,-8.7176636E-2,-7.191602E-2,-1.7391607E-2,-6.6831015E-2,-2.7873486E-2,-4.790184E-4,-2.9781446E-2,3.943563E-2,6.985006E-3,2.8688276E-2,-1.7157616E-2,-5.4960866E-2,1.1193459E-2,-2.0472372E-2,9.1272695E-3,-4.590992E-3,3.267728E-2,1.2482824E-2,6.0224626E-4,4.857441E-3,3.5874214E-2,3.291489E-2,6.864482E-3,2.3927635E-3,1.7103916E-2],"split_indices":[1,1,2,2,2,1,23,5,2,49,23,7,1,36,0,0,11,34,0,0,135,0,0,4,6,2,6,83,3,25,0,195,0,11,83,12,2,83,0,0,0,52,0,73,57,0,300,0,0,0,211,0,0,0,0,58,0,0,0,0,27,39,0,0,0,2,39,0,0,0,0,2,0,4,0,17,0,0,0,0,0,0,0,43,0,0,0,0,0,0,0,2,0,7,108,17,0,2,22,0,0,0,0,0,5,0,0,2,0,6,27,215,0,286,0,0,0,0,0,121,0,294,0,36,4,24,0,0,0,0,0,4,0,0,0,0,0,0,0,0,0,0,0,0,0,0,0,0,0,0,0,0,0,0,0,0,0,0,0,0,0],"split_type":[0,0,0,0,0,0,0,0,0,0,0,0,0,0,0,0,0,0,0,0,0,0,0,0,0,0,0,0,0,0,0,0,0,0,0,0,0,0,0,0,0,0,0,0,0,0,0,0,0,0,0,0,0,0,0,0,0,0,0,0,0,0,0,0,0,0,0,0,0,0,0,0,0,0,0,0,0,0,0,0,0,0,0,0,0,0,0,0,0,0,0,0,0,0,0,0,0,0,0,0,0,0,0,0,0,0,0,0,0,0,0,0,0,0,0,0,0,0,0,0,0,0,0,0,0,0,0,0,0,0,0,0,0,0,0,0,0,0,0,0,0,0,0,0,0,0,0,0,0,0,0,0,0,0,0,0,0,0,0,0,0],"sum_hessian":[3.83E2,2.37E2,1.46E2,6E1,1.77E2,9.6E1,5E1,3.3E1,2.7E1,5.1E1,1.26E2,6.9E1,2.7E1,3.9E1,1.1E1,4E0,2.9E1,2.6E1,1E0,3E1,2.1E1,1.21E2,5E0,8E0,6.1E1,1.8E1,9E0,3.4E1,5E0,2.6E1,3E0,2.5E1,1E0,5E0,2.5E1,1.7E1,4E0,1.18E2,3E0,2E0,3E0,6E0,2E0,1.4E1,4.7E1,4E0,1.4E1,6E0,3E0,7E0,2.7E1,4E0,1E0,2.5E1,1E0,2.2E1,3E0,2E0,3E0,7E0,1.8E1,1.5E1,2E0,2E0,2E0,5.8E1,6E1,2E0,1E0,1E0,2E0,3E0,3E0,1.2E1,2E0,4.5E1,2E0,1.2E1,2E0,2.5E1,2E0,2.4E1,1E0,2.1E1,1E0,1E0,1E0,1E0,2E0,1E0,6E0,1.7E1,1E0,4E0,1.1E1,3.7E1,2.1E1,2.8E1,3.2E1,1E0,2E0,1E0,2E0,1E0,1.1E1,1E0,1E0,1.4E1,3.1E1,1.3E1,1.1E1,2E1,1E0,1.6E1,1E0,3E0,1E0,9E0,2E0,3.4E1,3E0,1.9E1,2E0,1.5E1,1.3E1,3.1E1,1E0,2E0,9E0,3E0,1.1E1,6E0,2.5E1,1E0,1.2E1,7E0,4E0,1.9E1,1E0,1.3E1,3E0,2.4E1,1E1,2E0,1E0,1.7E1,2E0,1.4E1,1E0,1E1,3E0,2.8E1,3E0,1E0,2E0,1E0,1E1,4E0,2E0,1E1,1.5E1],"tree_param":{"num_deleted":"0","num_feature":"412","num_nodes":"161","size_leaf_vector":"1"}},{"base_weights":[-1.3753145E-3,-3.4707114E-1,5.58332E-1,-8.4137595E-1,-1.757247E-1,3.2542324E-1,9.903677E-1,-1.0804137E0,-5.210666E-1,-4.2710096E-1,-7.1415335E-2,1.9639486E-1,6.363719E-1,8.099984E-1,1.3692544E-1,-3.7095446E-2,-1.1626432E0,-5.4024446E-1,-1.6319646E-4,-5.855827E-1,-1.8437219E-1,-8.993419E-2,3.170374E-1,-7.26899E-2,2.322879E-1,4.738233E-1,8.81577E-1,6.9472885E-1,1.2897694E0,-1.2093853E0,-3.3883616E-2,-5.604019E-1,-8.075268E-4,-1.6860858E-1,-6.59285E-1,-2.8632602E-1,2.1953607E-1,-7.3046096E-2,-5.6987166E-1,5.6092214E-2,5.4864515E-2,1.3897692E-2,-2.5049765E-2,4.3528488E-1,1.6401201E-1,5.711907E-2,3.290736E-2,1.09125726E-1,5.59914E-2,9.8486274E-2,6.0452396E-1,1.4286874E-1,2.975898E-2,-1.2415922E0,-1.69899E-2,-6.0141045E-1,-1.845023E-2,5.736353E-2,-2.959355E-1,-9.037414E-1,-5.216568E-1,-3.4397525E-1,1.1657848E-2,-1.2271897E-2,4.8861243E-2,2.5197932E-2,-1.6687153E-1,-6.657032E-2,-1.411886E-2,1.1779686E-3,6.5299566E-3,1.0419523E-1,-7.987427E-2,4.881995E-1,6.089322E-2,1.8172573E-1,-1.62269E-2,6.2557176E-2,2.2761783E-2,-1.3044789E0,-5.5387415E-2,-6.187139E-1,-1.1036709E-2,1.1258342E-2,-2.6538128E-3,-7.6764743E-3,-3.4340423E-2,-2.635101E-2,-9.575587E-2,-5.420462E-1,-7.732381E-3,-1.3471502E-2,-4.5302054E-1,-9.73148E-3,3.35363E-1,-3.0936313E-1,-3.659493E-2,2.278975E-3,1.2373381E-2,-1.2966053E-3,-9.785499E-3,4.2833686E-3,5.2174383E-1,4.6703365E-4,8.666949E-3,1.4510319E-1,2.8506082E-1,-9.620656E-1,-1.6216886E0,-6.3558286E-1,-1.3223303E-2,-5.838569E-1,-2.4974465E-2,-6.7929566E-2,1.0218037E-2,-5.045872E-1,-1.3012499E-2,-4.1733522E-2,3.1223524E-2,5.633721E-2,4.607916E-2,-4.5387512E-1,-1.2210916E-1,1.9436445E-4,-6.069262E-2,3.0253647E-2,5.935305E-2,2.025536E-1,7.639979E-2,3.5144243E-2,8.103243E-2,-2.8478062E-2,-9.922582E-2,-5.95104E-2,-1.7836958E-1,-6.779765E-2,-2.8591594E-2,-6.438779E-2,-2.5782973E-2,-7.674493E-3,-2.0741732E-3,-5.7644874E-2,-2.5268262E-2,-6.5562986E-3,3.5344902E-2,-1.3192467E-3,9.769829E-3,-4.9831185E-2,1.0633785E-2,-1.2634145E-3,-2.6597014E-2,-4.8543597E-3,2.7308807E-2,3.4409275E-3,2.3193007E-2,4.8114124E-4,1.47453565E-2,1.1099908E-2,3.404386E-3],"categories":[],"categories_nodes":[],"categories_segments":[],"categories_sizes":[],"default_left":[0,0,0,0,0,0,0,0,0,0,0,0,0,0,0,0,0,0,0,0,0,0,0,0,0,0,0,0,0,0,0,0,0,0,0,0,0,0,0,0,0,0,0,0,0,0,0,0,0,0,0,0,0,0,0,0,0,0,0,0,0,0,0,0,0,0,0,0,0,0,0,0,0,0,0,0,0,0,0,0,0,0,0,0,0,0,0,0,0,0,0,0,0,0,0,0,0,0,0,0,0,0,0,0,0,0,0,0,0,0,0,0,0,0,0,0,0,0,0,0,0,0,0,0,0,0,0,0,0,0,0,0,0,0,0,0,0,0,0,0,0,0,0,0,0,0,0,0,0,0,0,0,0,0,0,0,0,0,0],"id":4,"left_children":[1,3,5,7,9,11,13,15,17,19,21,23,25,27,-1,-1,29,31,-1,33,35,37,39,41,43,45,47,49,51,53,-1,55,-1,57,59,61,63,65,67,-1,69,71,-1,73,75,-1,-1,-1,-1,-1,77,-1,-1,79,-1,81,-1,83,85,87,89,91,-1,-1,-1,93,95,-1,-1,-1,-1,97,99,101,103,105,-1,-1,-1,107,-1,109,-1,-1,-1,-1,-1,-1,-1,111,-1,113,115,117,119,121,123,-1,-1,-1,-1,-1,125,-1,-1,127,129,131,133,135,-1,137,-1,139,-1,141,-1,143,-1,145,-1,147,149,151,-1,-1,-1,153,155,-1,157,-1,-1,-1,-1,-1,-1,-1,-1,-1,-1,-1,-1,-1,-1,-1,-1,-1,-1,-1,-1,-1,-1,-1,-1,-1,-1,-1,-1],"loss_changes":[7.449336E1,2.0010122E1,1.446957E1,4.107563E0,4.636819E0,3.7667751E0,2.3762245E0,1.5522194E0,2.7804422E-1,1.892375E0,9.421128E-1,6.929641E-1,6.983061E-1,1.1501694E0,0E0,0E0,7.454109E-1,2.8510904E-1,0E0,8.4152985E-1,9.688187E-1,9.472116E-1,3.528651E-1,1.4204484E-1,7.879157E-1,7.9820156E-2,6.3453674E-2,2.4211407E-1,4.0182686E-1,7.264557E-1,0E0,2.8983116E-1,0E0,1.8960992E-1,4.0330315E-1,4.581884E-1,5.204257E-1,1.1011217E0,7.033563E-2,0E0,1.0291608E-3,6.759416E-2,0E0,2.6743388E-1,3.069116E-1,0E0,0E0,0E0,0E0,0E0,7.1801186E-2,0E0,0E0,4.4519043E-1,0E0,1.2713909E-1,0E0,1.6886871E-2,1.5253663E-2,2.3317814E-2,1.3022089E-1,5.705353E-1,0E0,0E0,0E0,6.424627E-1,1.1210414E0,0E0,0E0,0E0,0E0,3.5423264E-3,3.5434403E-3,1.7186522E-1,3.9428733E-3,1.3271892E-1,0E0,0E0,0E0,1.0466347E0,0E0,9.649658E-2,0E0,0E0,0E0,0E0,0E0,0E0,0E0,7.416916E-2,0E0,3.843195E-2,1.3414812E-1,5.694247E-1,1.840272E-1,7.2933054E-1,6.925268E-1,0E0,0E0,0E0,0E0,0E0,9.269476E-3,0E0,0E0,1.2661833E-1,1.2050271E-1,3.7107468E-3,7.6797104E-1,1.1745262E-1,0E0,1.2751627E-1,0E0,7.2089955E-5,0E0,3.5363913E-2,0E0,4.940225E-1,0E0,9.916348E-3,0E0,4.512937E-1,2.1712828E-1,4.388657E-1,0E0,0E0,0E0,8.586973E-2,9.084977E-2,0E0,1.8535219E-3,0E0,0E0,0E0,0E0,0E0,0E0,0E0,0E0,0E0,0E0,0E0,0E0,0E0,0E0,0E0,0E0,0E0,0E0,0E0,0E0,0E0,0E0,0E0,0E0,0E0,0E0,0E0,0E0],"parents":[2147483647,0,0,1,1,2,2,3,3,4,4,5,5,6,6,7,7,8,8,9,9,10,10,11,11,12,12,13,13,16,16,17,17,19,19,20,20,21,21,22,22,23,23,24,24,25,25,26,26,27,27,28,28,29,29,31,31,33,33,34,34,35,35,36,36,37,37,38,38,40,40,41,41,43,43,44,44,50,50,53,53,55,55,57,57,58,58,59,59,60,60,61,61,65,65,66,66,71,71,72,72,73,73,74,74,75,75,79,79,81,81,89,89,91,91,92,92,93,93,94,94,95,95,96,96,102,102,105,105,106,106,107,107,108,108,109,109,111,111,113,113,115,115,117,117,119,119,121,121,122,122,123,123,127,127,128,128,130,130],"right_children":[2,4,6,8,10,12,14,16,18,20,22,24,26,28,-1,-1,30,32,-1,34,36,38,40,42,44,46,48,50,52,54,-1,56,-1,58,60,62,64,66,68,-1,70,72,-1,74,76,-1,-1,-1,-1,-1,78,-1,-1,80,-1,82,-1,84,86,88,90,92,-1,-1,-1,94,96,-1,-1,-1,-1,98,100,102,104,106,-1,-1,-1,108,-1,110,-1,-1,-1,-1,-1,-1,-1,112,-1,114,116,118,120,122,124,-1,-1,-1,-1,-1,126,-1,-1,128,130,132,134,136,-1,138,-1,140,-1,142,-1,144,-1,146,-1,148,150,152,-1,-1,-1,154,156,-1,158,-1,-1,-1,-1,-1,-1,-1,-1,-1,-1,-1,-1,-1,-1,-1,-1,-1,-1,-1,-1,-1,-1,-1,-1,-1,-1,-1,-1],"split_conditions":[3.4E1,1.2E1,1.1498353E-5,4.656231E-6,5.3327103E-6,6.6E1,8E0,1.564598E-8,6.601963E-6,1E0,4E0,1.8420424E-6,1.02E2,3E0,1.3692544E-1,-3.7095446E-2,1E0,2E0,-1.6319646E-4,1.87E2,1E0,7.67E2,2.8E2,6.632012E-8,5.9795935E-2,1.6309446E-2,3.1515983E-6,1E0,2.212773E-1,1E0,-3.3883616E-2,1E0,-8.075268E-4,4.8998023E-9,1E0,4.6962937E-3,4.8929355E-6,1E0,7.79E2,5.6092214E-2,3.68E2,1E0,-2.5049765E-2,1E0,4E0,5.711907E-2,3.290736E-2,1.09125726E-1,5.59914E-2,9.8486274E-2,2E0,1.4286874E-1,2.975898E-2,5.62E2,-1.69899E-2,1E0,-1.845023E-2,1.58E2,8.9E1,1.94E2,4E0,1E0,1.1657848E-2,-1.2271897E-2,4.8861243E-2,1E0,2E0,-6.657032E-2,-1.411886E-2,1.1779686E-3,6.5299566E-3,5.7480506E-6,1.16E2,2.4312438E-8,2.42E2,1.42657735E-8,-1.62269E-2,6.2557176E-2,2.2761783E-2,2.17E2,-5.5387415E-2,1E0,-1.1036709E-2,1.1258342E-2,-2.6538128E-3,-7.6764743E-3,-3.4340423E-2,-2.635101E-2,-9.575587E-2,1E0,-7.732381E-3,4.106038E-6,1E0,1E0,6.4340124E-6,6.5626577E-6,3E0,2.278975E-3,1.2373381E-2,-1.2966053E-3,-9.785499E-3,4.2833686E-3,3.7E1,4.6703365E-4,8.666949E-3,3E0,7.1559164E-8,7.7275084E-3,3.795675E-6,2E0,-1.3223303E-2,1E0,-2.4974465E-2,1.8E1,1.0218037E-2,1E0,-1.3012499E-2,1E0,3.1223524E-2,2.33E2,4.607916E-2,2E0,1E0,1E0,-6.069262E-2,3.0253647E-2,5.935305E-2,2.5034874E-6,4E0,3.5144243E-2,5.36E2,-2.8478062E-2,-9.922582E-2,-5.95104E-2,-1.7836958E-1,-6.779765E-2,-2.8591594E-2,-6.438779E-2,-2.5782973E-2,-7.674493E-3,-2.0741732E-3,-5.7644874E-2,-2.5268262E-2,-6.5562986E-3,3.5344902E-2,-1.3192467E-3,9.769829E-3,-4.9831185E-2,1.0633785E-2,-1.2634145E-3,-2.6597014E-2,-4.8543597E-3,2.7308807E-2,3.4409275E-3,2.3193007E-2,4.8114124E-4,1.47453565E-2,1.1099908E-2,3.404386E-3],"split_indices":[1,1,2,2,2,1,23,5,2,49,23,7,1,36,0,0,286,34,0,0,135,0,0,4,6,12,7,83,3,25,0,195,0,11,83,12,2,83,0,0,0,52,0,73,57,0,0,0,0,0,154,0,0,0,0,58,0,0,0,0,27,39,0,0,0,261,39,0,0,0,0,2,0,4,0,8,0,0,0,0,0,43,0,0,0,0,0,0,0,117,0,7,108,82,2,2,22,0,0,0,0,0,1,0,0,83,11,6,2,49,0,286,0,1,0,127,0,226,0,0,0,36,76,35,0,0,0,7,83,0,0,0,0,0,0,0,0,0,0,0,0,0,0,0,0,0,0,0,0,0,0,0,0,0,0,0,0,0,0],"split_type":[0,0,0,0,0,0,0,0,0,0,0,0,0,0,0,0,0,0,0,0,0,0,0,0,0,0,0,0,0,0,0,0,0,0,0,0,0,0,0,0,0,0,0,0,0,0,0,0,0,0,0,0,0,0,0,0,0,0,0,0,0,0,0,0,0,0,0,0,0,0,0,0,0,0,0,0,0,0,0,0,0,0,0,0,0,0,0,0,0,0,0,0,0,0,0,0,0,0,0,0,0,0,0,0,0,0,0,0,0,0,0,0,0,0,0,0,0,0,0,0,0,0,0,0,0,0,0,0,0,0,0,0,0,0,0,0,0,0,0,0,0,0,0,0,0,0,0,0,0,0,0,0,0,0,0,0,0,0,0],"sum_hessian":[3.83E2,2.37E2,1.46E2,6E1,1.77E2,9.6E1,5E1,3.3E1,2.7E1,5.1E1,1.26E2,6.9E1,2.7E1,3.6E1,1.4E1,4E0,2.9E1,2.6E1,1E0,3E1,2.1E1,1.21E2,5E0,8E0,6.1E1,1.8E1,9E0,3.1E1,5E0,2.7E1,2E0,2.5E1,1E0,5E0,2.5E1,1.7E1,4E0,1.18E2,3E0,2E0,3E0,6E0,2E0,1.4E1,4.7E1,9E0,9E0,4E0,5E0,5E0,2.6E1,4E0,1E0,2.6E1,1E0,2.2E1,3E0,2E0,3E0,7E0,1.8E1,1.5E1,2E0,2E0,2E0,5.8E1,6E1,2E0,1E0,1E0,2E0,3E0,3E0,1.2E1,2E0,4.5E1,2E0,2.4E1,2E0,2.3E1,3E0,2.1E1,1E0,1E0,1E0,1E0,2E0,1E0,6E0,1.7E1,1E0,4E0,1.1E1,5.3E1,5E0,2.8E1,3.2E1,1E0,2E0,1E0,2E0,1E0,1.1E1,1E0,1E0,3.5E1,1E1,1.3E1,1E1,2E1,1E0,1.4E1,3E0,3E0,1E0,9E0,2E0,4.9E1,4E0,2E0,3E0,1.5E1,1.3E1,3.1E1,1E0,4E0,7E0,1.8E1,1.7E1,7E0,3E0,1E0,1.2E1,2E0,8E0,1.7E1,3E0,1.1E1,3E0,2E0,1E0,6E0,3E0,4.7E1,2E0,1E0,1E0,1.4E1,1E0,8E0,5E0,2.7E1,4E0,3E0,1.5E1,9E0,8E0,1E0,2E0],"tree_param":{"num_deleted":"0","num_feature":"412","num_nodes":"159","size_leaf_vector":"1"}},{"base_weights":[-1.4381212E-3,-3.1131396E-1,5.171835E-1,-7.3164415E-1,-1.418683E-1,3.2808715E-1,9.5371014E-1,-1.0991228E0,-5.4797393E-1,-4.2671672E-1,-6.912324E-2,1.8717846E-1,5.812203E-1,7.775224E-1,1.3004878E0,-1.1734787E0,-2.3704207E-2,-1.3573666E-1,-5.823651E-1,-3.6182532E-1,-9.9828325E-2,-1.03725545E-1,1.5487687E-1,2.5388762E-1,2.8963702E-2,4.3396777E-1,8.0836195E-1,7.959958E-1,1.1166078E-2,2.921153E-2,1.4572723E-1,-7.267409E-1,-1.4729241E0,-2.2314794E-2,1.0695425E-2,-6.0116756E-1,-1.2500914E-2,-3.8981286E-1,2.6688823E-2,-2.0042117E-1,-8.476149E-3,-5.4400437E-2,2.5565106E-1,1.7289639E-1,3.7476817E-1,8.651418E-2,-1.7250068E-1,4.99107E-1,2.6994599E-2,8.3793354E-1,2.2675162E-2,8.400401E-1,4.0776614E-2,-7.716223E-2,-1.6140405E-2,-9.3973346E-2,-1.9248061E-1,-6.206382E-1,-1.4116958E-2,-4.6424797E-1,-1.7963085E-1,-3.021126E-1,-4.5968633E-2,-5.1920127E-2,3.4028655E-1,-1.0796492E-1,5.3007184E-3,3.5117796E-1,8.56733E-2,2.8742928E-2,2.3330773E-1,4.3705648E-1,4.7495026E-2,-1.607103E-2,1.4393076E-1,-2.33522E-2,3.5792314E-3,5.562585E-1,2.6212206E-2,9.011008E-2,3.4806497E-2,8.914706E-1,3.343045E-2,-6.6237146E-1,-3.292713E-2,-4.8465273E-1,-7.671504E-4,-2.8828328E-2,-9.1882184E-2,6.163741E-2,-3.9203978E-1,-1.0529339E-1,2.9180968E-1,-4.01185E-4,-4.124954E-1,-9.825253E-3,4.2975184E-2,-3.9626337E-3,-1.4031519E-2,3.8081363E-2,7.186414E-3,1.6866103E-2,2.0141825E-3,-4.106028E-2,1.437128E-1,2.79801E-1,2.8569032E-2,4.9615863E-1,1.5048592E-1,1.4185912E-3,5.3869425E-3,1.8193552E-2,-1.1082927E-2,1.9581256E-2,4.2510096E-2,6.025058E-2,2.1668127E-2,9.360069E-1,2.8255954E-2,-6.754607E-1,-1.1521319E-2,-5.4524577E-1,-2.769183E-1,-1.5113455E-2,-9.659275E-3,2.7118636E-2,-1.1832923E-1,-4.356777E-1,-1.0383246E-2,1.33119E-1,-2.0301798E-1,3.35605E-2,8.021191E-3,-4.5935016E-2,3.4116942E-1,-5.970306E-2,-1.2483638E-1,3.459324E-3,-2.0376584E-3,-2.685592E-3,-9.133133E-3,4.4425223E-3,1.6200026E-2,3.160648E-1,8.292746E-3,4.793774E-3,-3.2268837E-4,5.2212935E-2,1.0524039E-2,3.971525E-3,1.7417107E-2,-7.8082057E-3,4.6798047E-3,6.555007E-3,-2.4824892E-3,9.5558596E-1,2.722131E-2,-6.9767766E-2,-2.2073142E-2,-5.9464604E-2,-2.4838334E-2,-6.8746074E-3,-3.0015597E-2,-1.7715321E-4,-1.6661253E-3,-2.516271E-3,-1.7205266E-2,-5.6006916E-2,-1.8064452E-2,9.707135E-3,-7.855857E-3,2.7451674E-3,2.6485821E-2,-3.207966E-2,-5.7602685E-4,-8.528501E-3,2.859219E-2,3.798866E-3,4.8326265E-2,-1.9686658E-2,4.56271E-3,-2.1867375E-3,1.7391387E-3,3.3677597E-2,2.3409955E-3,1.2961756E-4,-1.7802083E-4,-1.3460036E-3,4.5736434E-4,2.72926E-2,9.7715095E-2],"categories":[],"categories_nodes":[],"categories_segments":[],"categories_sizes":[],"default_left":[0,0,0,0,0,0,0,0,0,0,0,0,0,0,0,0,0,0,0,0,0,0,0,0,0,0,0,0,0,0,0,0,0,0,0,0,0,0,0,0,0,0,0,0,0,0,0,0,0,0,0,0,0,0,0,0,0,0,0,0,0,0,0,0,0,0,0,0,0,0,0,0,0,0,0,0,0,0,0,0,0,0,0,0,0,0,0,0,0,0,0,0,0,0,0,0,0,0,0,0,0,0,0,0,0,0,0,0,0,0,0,0,0,0,0,0,0,0,0,0,0,0,0,0,0,0,0,0,0,0,0,0,0,0,0,0,0,0,0,0,0,0,0,0,0,0,0,0,0,0,0,0,0,0,0,0,0,0,0,0,0,0,0,0,0,0,0,0,0,0,0,0,0,0,0,0,0,0,0,0,0,0,0,0,0,0,0,0,0,0,0],"id":5,"left_children":[1,3,5,7,9,11,13,15,17,19,21,23,25,27,29,31,-1,33,35,37,-1,39,41,43,45,47,49,51,-1,-1,-1,53,55,-1,-1,57,-1,59,-1,61,63,65,67,69,71,73,75,77,-1,79,-1,81,-1,-1,-1,-1,-1,83,-1,85,87,89,91,93,95,97,-1,99,101,103,105,107,109,111,113,-1,-1,115,-1,-1,-1,117,-1,119,-1,121,-1,-1,123,125,127,129,131,133,135,-1,-1,-1,-1,-1,-1,-1,137,139,141,143,145,147,149,-1,-1,151,-1,-1,153,-1,-1,155,-1,157,-1,159,161,-1,163,-1,165,167,169,171,173,-1,-1,175,177,-1,179,-1,-1,181,-1,-1,-1,183,-1,-1,185,-1,-1,-1,-1,187,-1,-1,-1,189,-1,-1,-1,-1,-1,-1,-1,-1,-1,-1,-1,-1,-1,-1,-1,-1,-1,-1,-1,-1,-1,-1,-1,-1,-1,-1,-1,-1,-1,-1,-1,-1,-1,-1,-1],"loss_changes":[6.1872997E1,1.7060974E1,1.1573662E1,4.054859E0,3.5552907E0,3.5294123E0,1.6160545E0,1.1320534E0,6.014633E-1,9.3693733E-1,1.0934427E0,6.9978976E-1,8.532953E-1,2.924404E-1,1.6295719E0,1.6050377E0,0E0,1.2993625E-1,3.0322266E-1,6.8470955E-1,0E0,1.1127353E0,4.1461268E-1,3.9534616E-1,2.5840557E-1,1.2169027E-1,3.358555E-2,1.7043877E-1,0E0,0E0,0E0,1.2918806E-1,8.4152794E-1,0E0,0E0,2.885561E-1,0E0,4.1724396E-1,0E0,9.285023E-1,9.570694E-1,4.5995552E-2,1.8100035E-1,2.545492E-1,3.4617734E-1,1.0244468E-1,7.1909875E-2,7.08971E-2,0E0,5.7682037E-2,0E0,3.782444E-1,0E0,0E0,0E0,0E0,0E0,2.6828766E-1,0E0,2.1055794E-1,6.885296E-2,1.2017605E0,5.31691E-1,1.0401163E0,3.168624E-1,5.493682E-3,0E0,3.88543E-2,4.1316368E-2,8.6153544E-2,1.9190478E-1,1.7938924E-1,8.5116364E-5,2.4744337E-2,4.9556717E-2,0E0,0E0,5.7902813E-2,0E0,0E0,0E0,3.5925102E-1,0E0,1.656828E-1,0E0,1.2593126E-1,0E0,0E0,3.2643463E-2,3.337838E-1,4.784627E-1,5.395981E-1,1.0148466E-2,7.9332244E-1,2.970512E-1,0E0,0E0,0E0,0E0,0E0,0E0,0E0,3.6227722E-3,1.3258673E-2,6.596744E-5,9.5159054E-2,2.8134459E-3,6.687999E-2,3.577225E-3,0E0,0E0,4.8280116E-3,0E0,0E0,9.384254E-3,0E0,0E0,1.2800217E-2,0E0,1.7938995E-1,0E0,8.6940765E-2,1.3227522E-2,0E0,1.9140323E-4,0E0,2.0696819E-2,7.23649E-1,3.6928788E-2,9.017292E-2,3.698759E-1,0E0,0E0,6.120204E-1,2.4012113E-1,0E0,5.8096524E-2,0E0,0E0,2.3058655E-3,0E0,0E0,0E0,7.697308E-2,0E0,0E0,9.386042E-6,0E0,0E0,0E0,0E0,3.4148182E-4,0E0,0E0,0E0,2.7742386E-2,0E0,0E0,0E0,0E0,0E0,0E0,0E0,0E0,0E0,0E0,0E0,0E0,0E0,0E0,0E0,0E0,0E0,0E0,0E0,0E0,0E0,0E0,0E0,0E0,0E0,0E0,0E0,0E0,0E0,0E0,0E0,0E0,0E0,0E0,0E0],"parents":[2147483647,0,0,1,1,2,2,3,3,4,4,5,5,6,6,7,7,8,8,9,9,10,10,11,11,12,12,13,13,14,14,15,15,17,17,18,18,19,19,21,21,22,22,23,23,24,24,25,25,26,26,27,27,31,31,32,32,35,35,37,37,39,39,40,40,41,41,42,42,43,43,44,44,45,45,46,46,47,47,49,49,51,51,57,57,59,59,60,60,61,61,62,62,63,63,64,64,65,65,67,67,68,68,69,69,70,70,71,71,72,72,73,73,74,74,77,77,81,81,83,83,85,85,88,88,89,89,90,90,91,91,92,92,93,93,94,94,102,102,103,103,104,104,105,105,106,106,107,107,108,108,111,111,114,114,117,117,119,119,121,121,122,122,124,124,126,126,127,127,128,128,129,129,130,130,133,133,134,134,136,136,139,139,143,143,146,146,151,151,155,155],"right_children":[2,4,6,8,10,12,14,16,18,20,22,24,26,28,30,32,-1,34,36,38,-1,40,42,44,46,48,50,52,-1,-1,-1,54,56,-1,-1,58,-1,60,-1,62,64,66,68,70,72,74,76,78,-1,80,-1,82,-1,-1,-1,-1,-1,84,-1,86,88,90,92,94,96,98,-1,100,102,104,106,108,110,112,114,-1,-1,116,-1,-1,-1,118,-1,120,-1,122,-1,-1,124,126,128,130,132,134,136,-1,-1,-1,-1,-1,-1,-1,138,140,142,144,146,148,150,-1,-1,152,-1,-1,154,-1,-1,156,-1,158,-1,160,162,-1,164,-1,166,168,170,172,174,-1,-1,176,178,-1,180,-1,-1,182,-1,-1,-1,184,-1,-1,186,-1,-1,-1,-1,188,-1,-1,-1,190,-1,-1,-1,-1,-1,-1,-1,-1,-1,-1,-1,-1,-1,-1,-1,-1,-1,-1,-1,-1,-1,-1,-1,-1,-1,-1,-1,-1,-1,-1,-1,-1,-1,-1,-1],"split_conditions":[3.5E1,4.8634083E-6,1.276035E-5,8E0,1.3E1,6.3E1,1.982874E-8,4.8998023E-9,1.58E2,6.8534916E-8,3E0,5E0,1.02E2,7.923897E-9,1E0,6E0,-2.3704207E-2,1.31E2,1E0,2E0,-9.9828325E-2,6.4669816E-6,2.3098723E-8,9.109929E-6,7.757984E-8,7E0,7.5832524E-8,7.06E2,1.1166078E-2,2.921153E-2,1.4572723E-1,1E0,2.11E2,-2.2314794E-2,1.0695425E-2,1E0,-1.2500914E-2,1.3875648E-1,2.6688823E-2,1.6444704E-1,1E0,2.9E1,1E0,2.4488902E-6,2.9894966E-7,1.4932048E-1,3.61E2,6E0,2.6994599E-2,5E0,2.2675162E-2,2E0,4.0776614E-2,-7.716223E-2,-1.6140405E-2,-9.3973346E-2,-1.9248061E-1,2.2E1,-1.4116958E-2,2E0,3.32E2,5.4834265E-2,1E0,6.79E2,1.8070974E-8,2.1E1,5.3007184E-3,7.924507E-6,2.0782396E-3,1E0,4.9233518E-6,1E0,3.53E2,6.69E2,1E0,-2.33522E-2,3.5792314E-3,2.607119E-1,2.6212206E-2,9.011008E-2,3.4806497E-2,5E0,3.343045E-2,1E0,-3.292713E-2,2.7799098E-8,-7.671504E-4,-2.8828328E-2,3.0893432E-8,3.2473533E-8,1E0,1.7801253E-1,5.4E2,3E0,1.7E1,-9.825253E-3,4.2975184E-2,-3.9626337E-3,-1.4031519E-2,3.8081363E-2,7.186414E-3,1.6866103E-2,1.8E1,4.4E1,1.82E2,1E0,5.01E2,6.24E2,2.02E2,1.4185912E-3,5.3869425E-3,6.106361E-6,-1.1082927E-2,1.9581256E-2,5.2E1,6.025058E-2,2.1668127E-2,1E0,2.8255954E-2,1E0,-1.1521319E-2,2E0,9E0,-1.5113455E-2,4.52E2,2.7118636E-2,2.33E2,1E0,1.6E1,1.7376743E-1,1E0,3.35605E-2,8.021191E-3,7.853247E-6,7.339408E-6,-5.970306E-2,8.26E2,3.459324E-3,-2.0376584E-3,5.508477E-6,-9.133133E-3,4.4425223E-3,1.6200026E-2,3.5300466E-1,8.292746E-3,4.793774E-3,5.32E2,5.2212935E-2,1.0524039E-2,3.971525E-3,1.7417107E-2,5.13E2,4.6798047E-3,6.555007E-3,-2.4824892E-3,1.3E2,2.722131E-2,-6.9767766E-2,-2.2073142E-2,-5.9464604E-2,-2.4838334E-2,-6.8746074E-3,-3.0015597E-2,-1.7715321E-4,-1.6661253E-3,-2.516271E-3,-1.7205266E-2,-5.6006916E-2,-1.8064452E-2,9.707135E-3,-7.855857E-3,2.7451674E-3,2.6485821E-2,-3.207966E-2,-5.7602685E-4,-8.528501E-3,2.859219E-2,3.798866E-3,4.8326265E-2,-1.9686658E-2,4.56271E-3,-2.1867375E-3,1.7391387E-3,3.3677597E-2,2.3409955E-3,1.2961756E-4,-1.7802083E-4,-1.3460036E-3,4.5736434E-4,2.72926E-2,9.7715095E-2],"split_indices":[1,2,2,1,1,1,14,11,0,4,49,39,1,14,191,1,0,0,339,17,0,2,4,2,4,27,5,0,0,0,0,25,0,0,0,256,0,6,0,3,261,1,23,7,13,3,0,83,0,22,0,73,0,0,0,0,0,1,0,34,0,6,36,0,4,1,0,2,12,68,7,167,0,0,258,0,0,3,0,0,0,22,0,58,0,4,0,0,4,4,110,3,0,23,1,0,0,0,0,0,0,0,1,1,0,302,0,0,0,0,0,2,0,0,1,0,0,86,0,178,0,49,1,0,0,0,0,61,1,3,135,0,0,7,2,0,0,0,0,2,0,0,0,3,0,0,0,0,0,0,0,0,0,0,0,0,0,0,0,0,0,0,0,0,0,0,0,0,0,0,0,0,0,0,0,0,0,0,0,0,0,0,0,0,0,0,0,0,0,0,0],"split_type":[0,0,0,0,0,0,0,0,0,0,0,0,0,0,0,0,0,0,0,0,0,0,0,0,0,0,0,0,0,0,0,0,0,0,0,0,0,0,0,0,0,0,0,0,0,0,0,0,0,0,0,0,0,0,0,0,0,0,0,0,0,0,0,0,0,0,0,0,0,0,0,0,0,0,0,0,0,0,0,0,0,0,0,0,0,0,0,0,0,0,0,0,0,0,0,0,0,0,0,0,0,0,0,0,0,0,0,0,0,0,0,0,0,0,0,0,0,0,0,0,0,0,0,0,0,0,0,0,0,0,0,0,0,0,0,0,0,0,0,0,0,0,0,0,0,0,0,0,0,0,0,0,0,0,0,0,0,0,0,0,0,0,0,0,0,0,0,0,0,0,0,0,0,0,0,0,0,0,0,0,0,0,0,0,0,0,0,0,0,0,0],"sum_hessian":[3.83E2,2.4E2,1.43E2,6.8E1,1.72E2,1.01E2,4.2E1,2.1E1,4.7E1,3.4E1,1.38E2,6.6E1,3.5E1,3E1,1.2E1,1.9E1,2E0,4E0,4.3E1,3.2E1,2E0,1.2E2,1.8E1,4.6E1,2E1,2.3E1,1.2E1,2.9E1,1E0,2E0,1E1,9E0,1E1,3E0,1E0,4.1E1,2E0,3.1E1,1E0,5.9E1,6.1E1,6E0,1.2E1,2.9E1,1.7E1,1.6E1,4E0,1.5E1,8E0,1.1E1,1E0,2.5E1,4E0,8E0,1E0,6E0,4E0,3.9E1,2E0,2.2E1,9E0,3.5E1,2.4E1,5.5E1,6E0,4E0,2E0,7E0,5E0,9E0,2E1,1.4E1,3E0,6E0,1E1,3E0,1E0,1.1E1,4E0,9E0,2E0,2.2E1,3E0,3.3E1,6E0,2.1E1,1E0,3E0,6E0,7E0,2.8E1,2.1E1,3E0,4.9E1,6E0,1E0,5E0,2E0,2E0,6E0,1E0,2E0,3E0,6E0,3E0,1.6E1,4E0,1.1E1,3E0,1E0,2E0,5E0,1E0,6E0,4E0,9E0,2E0,2E1,2E0,3.2E1,1E0,1.5E1,6E0,3E0,3E0,3E0,4E0,2.5E1,3E0,6E0,1.5E1,2E0,1E0,4.4E1,5E0,3E0,3E0,1E0,2E0,4E0,2E0,1E0,2E0,1.3E1,3E0,2E0,2E0,1E1,1E0,1E0,2E0,3E0,2E0,3E0,1E0,1.9E1,1E0,3E1,2E0,1.2E1,3E0,1E0,5E0,2E0,1E0,2E0,2E0,1.6E1,9E0,1E0,2E0,4E0,2E0,9E0,6E0,4E1,4E0,2E0,3E0,2E0,1E0,2E0,2E0,1.2E1,1E0,1E0,1E0,2E0,1E0,1E0,1.8E1],"tree_param":{"num_deleted":"0","num_feature":"412","num_nodes":"191","size_leaf_vector":"1"}},{"base_weights":[-1.015693E-3,-2.8335336E-1,4.7151482E-1,-7.027646E-1,-1.4043936E-1,2.994976E-1,8.6859024E-1,-9.038224E-1,-4.3352416E-1,-3.55301E-1,-5.3414397E-2,1.7066418E-1,5.3095156E-1,7.0834625E-1,1.183896E0,-2.9563427E-2,-9.750597E-1,-4.4947234E-1,-1.4617898E-4,-4.8601222E-1,-1.5496695E-1,-9.5588446E-2,7.344838E-2,2.317127E-1,2.5904905E-2,3.962012E-1,7.3887897E-1,7.2488594E-1,1.0607774E-2,2.7264098E-2,1.3247931E0,-1.0158066E0,-2.6973525E-2,-4.661991E-1,-7.287929E-4,-1.9279344E-1,-5.635013E-1,-2.4492845E-1,1.9988784E-1,-1.1853777E-1,2.1968663E-1,1.43554E-1,-2.0745164E-1,1.576107E-1,3.423431E-1,7.8825235E-2,-1.592052E-1,4.559545E-1,2.459508E-2,8.098798E-2,3.766572E-2,7.681927E-1,3.547136E-2,1.3802595E-1,3.8506433E-2,-1.042071E0,-1.5333384E-2,-5.0018424E-1,-1.5423501E-2,-3.3954855E-2,-3.6830697E-2,-8.133528E-2,-4.3503124E-1,-2.9395908E-1,9.821107E-3,-1.0115851E-2,4.3430492E-2,-2.0433281E-1,-4.8612095E-2,-1.994257E-2,3.2277632E-1,-1.1502233E-1,2.3980683E-1,8.746165E-3,-2.7118078E-1,2.6974814E-2,2.12313E-1,3.989592E-1,4.4446908E-2,-1.5505609E-2,1.3168803E-1,-2.1600787E-2,3.40027E-3,5.0745916E-1,2.411523E-2,8.1904835E-1,3.9078932E-2,-1.1005429E0,-4.307216E-2,-5.2297443E-1,-1.7392479E-2,1.0160654E-2,-9.684164E-2,-4.8949346E-1,-1.9553078E-2,-7.855803E-3,-3.8867217E-1,3.2942157E-2,-2.6285228E-1,3.167812E-3,-3.8193548E-1,3.8143944E-2,1.4730264E-3,-3.868362E-2,1.2543322E-1,1.0968918E-1,4.2127218E-2,-3.251828E-2,-1.0878457E-2,-3.8322926E-2,1.3450216E-2,2.5442746E-1,2.6661204E-2,4.5177084E-1,1.4078447E-1,1.3476616E-3,5.0278134E-3,1.7006058E-2,-1.05287805E-2,1.7902862E-2,3.907359E-2,5.4828025E-2,2.0223586E-2,8.613948E-1,2.6372224E-2,-7.581964E-2,-1.2909193E0,-5.58001E-1,-2.3461113E-2,-1.1315347E-2,-2.3953083E-3,-5.388656E-1,-2.3134666E-2,-5.5928645E-3,9.221778E-3,-4.344346E-1,-1.0657347E-2,1.621014E-2,-1.02805525E-1,-4.0278906E-1,-1.3854152E-1,-1.632719E-1,8.108743E-2,-5.522533E-2,-1.16133735E-1,-1.0183556E-4,1.573007E-2,2.347795E-1,-7.537945E-2,6.5617803E-3,-7.3626906E-2,2.8703108E-1,7.67079E-3,4.4741896E-3,-3.065529E-4,4.7466304E-2,9.997837E-3,3.7729486E-3,1.6255965E-2,-7.2495453E-3,4.3678177E-3,6.0633807E-3,-2.3583646E-3,8.821153E-1,2.3385277E-2,-1.5936194E-1,-7.605594E-2,-5.7693463E-2,-1.1806464E-2,-5.614519E-2,-1.5650148E-2,-4.9556643E-2,-2.188452E-2,-1.3865704E-2,-3.2685504E-3,-4.461091E-2,1.018456E-2,-2.2764273E-2,-1.4246539E-3,-2.3254108E-2,2.177462E-3,1.776911E-2,-1.4920971E-2,-1.8374214E-2,4.334574E-3,3.094484E-2,7.1819377E-4,3.9051666E-3,-1.0607601E-2,-1.1224382E-3,1.6231962E-3,-8.524258E-3,-1.9389944E-3,3.0568896E-2,2.223946E-3,1.2313668E-4,-1.6911961E-4,-1.2562701E-3,4.3449606E-4,9.04816E-2,2.3675162E-2],"categories":[],"categories_nodes":[],"categories_segments":[],"categories_sizes":[],"default_left":[0,0,0,0,0,0,0,0,0,0,0,0,0,0,0,0,0,0,0,0,0,0,0,0,0,0,0,0,0,0,0,0,0,0,0,0,0,0,0,0,0,0,0,0,0,0,0,0,0,0,0,0,0,0,0,0,0,0,0,0,0,0,0,0,0,0,0,0,0,0,0,0,0,0,0,0,0,0,0,0,0,0,0,0,0,0,0,0,0,0,0,0,0,0,0,0,0,0,0,0,0,0,0,0,0,0,0,0,0,0,0,0,0,0,0,0,0,0,0,0,0,0,0,0,0,0,0,0,0,0,0,0,0,0,0,0,0,0,0,0,0,0,0,0,0,0,0,0,0,0,0,0,0,0,0,0,0,0,0,0,0,0,0,0,0,0,0,0,0,0,0,0,0,0,0,0,0,0,0,0,0,0,0,0,0,0,0,0,0,0,0,0,0,0,0,0,0,0,0,0,0],"id":6,"left_children":[1,3,5,7,9,11,13,15,17,19,21,23,25,27,29,-1,31,33,-1,35,37,39,41,43,45,47,49,51,-1,-1,53,55,-1,57,-1,59,61,63,65,67,69,71,73,75,77,79,81,83,-1,-1,-1,85,-1,-1,-1,87,-1,89,-1,-1,91,-1,93,95,-1,-1,-1,97,99,-1,101,103,105,-1,107,109,111,113,115,117,119,-1,-1,121,-1,123,-1,125,-1,127,-1,-1,129,131,-1,133,135,137,139,141,143,-1,-1,-1,145,147,-1,-1,-1,149,-1,151,153,155,157,-1,-1,159,-1,-1,161,-1,-1,163,-1,-1,165,167,-1,-1,-1,169,-1,-1,-1,171,-1,-1,173,175,177,179,181,-1,183,-1,-1,185,187,189,191,193,-1,-1,195,-1,-1,-1,-1,197,-1,-1,-1,199,-1,-1,-1,-1,-1,-1,-1,-1,-1,-1,-1,-1,-1,-1,-1,-1,-1,-1,-1,-1,-1,-1,-1,-1,-1,-1,-1,-1,-1,-1,-1,-1,-1,-1,-1,-1,-1],"loss_changes":[5.1364258E1,1.4346781E1,9.575607E0,2.9102764E0,3.365419E0,2.9509249E0,1.3340034E0,1.1848125E0,1.9227982E-1,1.2863517E0,7.025622E-1,5.8609927E-1,7.159128E-1,2.3190784E-1,1.3079185E0,0E0,5.881939E-1,1.9630337E-1,0E0,5.9571934E-1,7.512701E-1,7.351052E-1,6.796386E-1,3.313458E-1,2.1826725E-1,1.03328705E-1,2.9287338E-2,2.0843887E-1,0E0,0E0,4.186821E-2,4.7448158E-1,0E0,1.9851017E-1,0E0,1.706008E-1,4.165287E-1,3.317083E-1,3.9678562E-1,5.420004E-1,3.668129E-1,6.995781E-1,1.5527993E-1,2.0865542E-1,2.8585076E-1,8.681396E-2,6.2218457E-2,5.4638147E-2,0E0,0E0,0E0,1.7894554E-1,0E0,0E0,0E0,4.9113464E-1,0E0,8.00581E-2,0E0,0E0,5.1378485E-2,0E0,1.3907623E-1,4.3051028E-1,0E0,0E0,0E0,5.77952E-1,8.987013E-1,0E0,1.02807045E-1,5.713953E-1,4.260279E-1,0E0,1.7243445E-2,7.536744E-2,1.5740788E-1,1.4091706E-1,4.480034E-5,2.2223314E-2,4.123336E-2,0E0,0E0,3.863287E-2,0E0,2.9018593E-1,0E0,5.854206E-1,0E0,8.119488E-2,0E0,0E0,2.045408E-3,5.3768873E-2,0E0,2.9211722E-2,1.0861504E-1,1.7446256E-1,5.1825356E-1,6.098096E-1,2.527603E-1,0E0,0E0,0E0,2.0308651E-2,3.1865138E-1,0E0,0E0,0E0,1.1575384E-2,0E0,7.6485634E-2,2.4516939E-3,4.9183607E-2,2.842866E-3,0E0,0E0,4.198337E-3,0E0,0E0,8.184485E-3,0E0,0E0,5.377388E-2,0E0,0E0,1.0355186E0,8.181667E-2,0E0,0E0,0E0,7.1299076E-3,0E0,0E0,0E0,2.3341417E-2,0E0,0E0,8.03747E-3,3.7334585E-1,2.0717874E-1,1.9733378E-1,7.384346E-1,0E0,5.109305E-2,0E0,0E0,1.3373318E-1,2.5218293E-2,8.701753E-4,8.6714514E-4,6.2367916E-2,0E0,0E0,8.470893E-6,0E0,0E0,0E0,0E0,3.0099813E-4,0E0,0E0,0E0,6.4136505E-2,0E0,0E0,0E0,0E0,0E0,0E0,0E0,0E0,0E0,0E0,0E0,0E0,0E0,0E0,0E0,0E0,0E0,0E0,0E0,0E0,0E0,0E0,0E0,0E0,0E0,0E0,0E0,0E0,0E0,0E0,0E0,0E0,0E0,0E0,0E0,0E0,0E0],"parents":[2147483647,0,0,1,1,2,2,3,3,4,4,5,5,6,6,7,7,8,8,9,9,10,10,11,11,12,12,13,13,14,14,16,16,17,17,19,19,20,20,21,21,22,22,23,23,24,24,25,25,26,26,27,27,30,30,31,31,33,33,35,35,36,36,37,37,38,38,39,39,40,40,41,41,42,42,43,43,44,44,45,45,46,46,47,47,51,51,55,55,57,57,60,60,62,62,63,63,67,67,68,68,70,70,71,71,72,72,74,74,75,75,76,76,77,77,78,78,79,79,80,80,83,83,85,85,87,87,89,89,92,92,93,93,95,95,96,96,97,97,98,98,99,99,100,100,104,104,105,105,109,109,111,111,112,112,113,113,114,114,117,117,120,120,123,123,126,126,127,127,131,131,135,135,138,138,139,139,140,140,141,141,142,142,144,144,147,147,148,148,149,149,150,150,151,151,154,154,159,159,163,163],"right_children":[2,4,6,8,10,12,14,16,18,20,22,24,26,28,30,-1,32,34,-1,36,38,40,42,44,46,48,50,52,-1,-1,54,56,-1,58,-1,60,62,64,66,68,70,72,74,76,78,80,82,84,-1,-1,-1,86,-1,-1,-1,88,-1,90,-1,-1,92,-1,94,96,-1,-1,-1,98,100,-1,102,104,106,-1,108,110,112,114,116,118,120,-1,-1,122,-1,124,-1,126,-1,128,-1,-1,130,132,-1,134,136,138,140,142,144,-1,-1,-1,146,148,-1,-1,-1,150,-1,152,154,156,158,-1,-1,160,-1,-1,162,-1,-1,164,-1,-1,166,168,-1,-1,-1,170,-1,-1,-1,172,-1,-1,174,176,178,180,182,-1,184,-1,-1,186,188,190,192,194,-1,-1,196,-1,-1,-1,-1,198,-1,-1,-1,200,-1,-1,-1,-1,-1,-1,-1,-1,-1,-1,-1,-1,-1,-1,-1,-1,-1,-1,-1,-1,-1,-1,-1,-1,-1,-1,-1,-1,-1,-1,-1,-1,-1,-1,-1,-1,-1],"split_conditions":[3.5E1,1.2E1,1.276035E-5,4.656231E-6,5.3327103E-6,6.3E1,1.982874E-8,1.564598E-8,6.601963E-6,1E0,1E0,5E0,1.02E2,7.923897E-9,1E0,-2.9563427E-2,1E0,2E0,-1.4617898E-4,2.11E2,1E0,1E0,1E0,9.109929E-6,7.757984E-8,7E0,9.702391E-2,6.6287657E-6,1.0607774E-2,2.7264098E-2,6.36E2,1E0,-2.6973525E-2,1E0,-7.287929E-4,3.3078955E-8,1E0,4.6962937E-3,4.8929355E-6,6.5396466E-6,1.4227226E-1,5.959883E-6,2.7189186E-2,2.4488902E-6,2.9894966E-7,1.4932048E-1,3.61E2,6E0,2.459508E-2,8.098798E-2,3.766572E-2,2E0,3.547136E-2,1.3802595E-1,3.8506433E-2,1E0,-1.5333384E-2,1E0,-1.5423501E-2,-3.3954855E-2,1.4E1,-8.133528E-2,4.063761E-6,1E0,9.821107E-3,-1.0115851E-2,4.3430492E-2,5.378019E-2,6.65E2,-1.994257E-2,3.3E1,1E0,4.093711E-6,8.746165E-3,1E0,1E0,4.9233518E-6,1E0,3.53E2,6.69E2,1E0,-2.1600787E-2,3.40027E-3,2.607119E-1,2.411523E-2,5E0,3.9078932E-2,2.02E2,-4.307216E-2,2E0,-1.7392479E-2,1.0160654E-2,1.82E2,1E0,-1.9553078E-2,4.106038E-6,1E0,5.972404E-6,1.6257216E-1,1E0,1.7E1,3.8143944E-2,1.4730264E-3,-3.868362E-2,1.3E1,1E0,4.2127218E-2,-3.251828E-2,-1.0878457E-2,4.2E1,1.3450216E-2,1E0,5.01E2,6.24E2,2.02E2,1.3476616E-3,5.0278134E-3,6.106361E-6,-1.05287805E-2,1.7902862E-2,5.2E1,5.4828025E-2,2.0223586E-2,1E0,2.6372224E-2,-7.581964E-2,4.27E2,1E0,-2.3461113E-2,-1.1315347E-2,-2.3953083E-3,6.33E2,-2.3134666E-2,-5.5928645E-3,9.221778E-3,1E0,-1.0657347E-2,1.621014E-2,6.139566E-6,1E0,1E0,3.1934665E-8,2.8E1,-5.522533E-2,8.26E2,-1.0183556E-4,1.573007E-2,1E0,7.7E1,1.16E2,4.97E2,3.5300466E-1,7.67079E-3,4.4741896E-3,5.32E2,4.7466304E-2,9.997837E-3,3.7729486E-3,1.6255965E-2,5.13E2,4.3678177E-3,6.0633807E-3,-2.3583646E-3,7.06E2,2.3385277E-2,-1.5936194E-1,-7.605594E-2,-5.7693463E-2,-1.1806464E-2,-5.614519E-2,-1.5650148E-2,-4.9556643E-2,-2.188452E-2,-1.3865704E-2,-3.2685504E-3,-4.461091E-2,1.018456E-2,-2.2764273E-2,-1.4246539E-3,-2.3254108E-2,2.177462E-3,1.776911E-2,-1.4920971E-2,-1.8374214E-2,4.334574E-3,3.094484E-2,7.1819377E-4,3.9051666E-3,-1.0607601E-2,-1.1224382E-3,1.6231962E-3,-8.524258E-3,-1.9389944E-3,3.0568896E-2,2.223946E-3,1.2313668E-4,-1.6911961E-4,-1.2562701E-3,4.3449606E-4,9.04816E-2,2.3675162E-2],"split_indices":[1,1,2,2,2,1,14,5,2,49,36,39,1,14,191,0,286,34,0,0,135,137,76,2,4,27,6,7,0,0,0,25,0,195,0,4,83,12,2,2,3,2,6,7,13,3,0,83,0,0,0,73,0,0,0,34,0,212,0,0,1,0,7,39,0,0,0,6,0,0,1,27,7,0,22,68,7,167,0,0,258,0,0,3,0,22,0,0,0,49,0,0,0,295,0,7,108,2,3,39,1,0,0,0,1,83,0,0,0,1,0,302,0,0,0,0,0,2,0,0,1,0,0,89,0,0,0,43,0,0,0,0,0,0,0,127,0,0,2,66,17,11,1,0,0,0,0,100,0,0,0,3,0,0,0,0,0,0,0,0,0,0,0,0,0,0,0,0,0,0,0,0,0,0,0,0,0,0,0,0,0,0,0,0,0,0,0,0,0,0,0,0,0,0,0,0,0,0,0,0,0],"split_type":[0,0,0,0,0,0,0,0,0,0,0,0,0,0,0,0,0,0,0,0,0,0,0,0,0,0,0,0,0,0,0,0,0,0,0,0,0,0,0,0,0,0,0,0,0,0,0,0,0,0,0,0,0,0,0,0,0,0,0,0,0,0,0,0,0,0,0,0,0,0,0,0,0,0,0,0,0,0,0,0,0,0,0,0,0,0,0,0,0,0,0,0,0,0,0,0,0,0,0,0,0,0,0,0,0,0,0,0,0,0,0,0,0,0,0,0,0,0,0,0,0,0,0,0,0,0,0,0,0,0,0,0,0,0,0,0,0,0,0,0,0,0,0,0,0,0,0,0,0,0,0,0,0,0,0,0,0,0,0,0,0,0,0,0,0,0,0,0,0,0,0,0,0,0,0,0,0,0,0,0,0,0,0,0,0,0,0,0,0,0,0,0,0,0,0,0,0,0,0,0,0],"sum_hessian":[3.83E2,2.4E2,1.43E2,6E1,1.8E2,1.01E2,4.2E1,3.3E1,2.7E1,5.1E1,1.29E2,6.6E1,3.5E1,3E1,1.2E1,4E0,2.9E1,2.6E1,1E0,3E1,2.1E1,9.7E1,3.2E1,4.6E1,2E1,2.3E1,1.2E1,2.9E1,1E0,2E0,1E1,2.7E1,2E0,2.5E1,1E0,7E0,2.3E1,1.7E1,4E0,9.1E1,6E0,2.6E1,6E0,2.9E1,1.7E1,1.6E1,4E0,1.5E1,8E0,9E0,3E0,2.5E1,4E0,9E0,1E0,2.6E1,1E0,2.2E1,3E0,3E0,4E0,6E0,1.7E1,1.5E1,2E0,2E0,2E0,4E1,5.1E1,1E0,5E0,7E0,1.9E1,1E0,5E0,9E0,2E1,1.4E1,3E0,6E0,1E1,3E0,1E0,1.1E1,4E0,2.1E1,4E0,2.3E1,3E0,2E1,2E0,1E0,3E0,1.3E1,4E0,4E0,1.1E1,8E0,3.2E1,4.5E1,6E0,4E0,1E0,3E0,4E0,1.2E1,7E0,3E0,2E0,6E0,3E0,1.6E1,4E0,1.1E1,3E0,1E0,2E0,5E0,1E0,6E0,4E0,9E0,2E0,1.9E1,2E0,1E1,1.3E1,1.7E1,3E0,2E0,1E0,1E1,3E0,3E0,1E0,9E0,2E0,4E0,4E0,1.4E1,1.8E1,1.4E1,3.1E1,3E0,3E0,1E0,3E0,7E0,5E0,3E0,3E0,1.3E1,3E0,2E0,2E0,1E1,1E0,1E0,2E0,3E0,2E0,3E0,1E0,1.8E1,1E0,7E0,6E0,1.6E1,1E0,9E0,1E0,6E0,3E0,2E0,2E0,1.3E1,1E0,1E1,8E0,1E1,4E0,2.2E1,9E0,2E0,1E0,5E0,2E0,1E0,4E0,1E0,2E0,2E0,1E0,1.2E1,1E0,1E0,1E0,2E0,1E0,1.7E1,1E0],"tree_param":{"num_deleted":"0","num_feature":"412","num_nodes":"201","size_leaf_vector":"1"}},{"base_weights":[-1.214925E-3,-2.5891623E-1,4.3008527E-1,-6.415509E-1,-1.2853152E-1,2.7318597E-1,7.9226303E-1,-8.259748E-1,-3.94695E-1,-3.2493737E-1,-4.8980463E-2,1.6020505E-1,4.9443585E-1,6.455462E-1,1.081183E0,-2.7198354E-2,-8.9077425E-1,-4.092105E-1,-1.3887002E-4,-4.449376E-1,-1.4107633E-1,-3.8131986E-2,-4.9552213E-2,2.1685028E-1,2.9333448E-2,3.7149778E-1,6.888642E-1,4.0751103E-1,7.106232E-1,2.544649E-2,1.2083621E-1,-9.274275E-1,-2.5175292E-2,-6.070836E-1,-3.3664462E-1,-1.7820221E-1,-5.153103E-1,-2.2424941E-1,1.8656199E-1,-2.9029792E-2,-5.9705522E-2,1.4461091E-1,3.028432E-1,7.666443E-2,-1.469248E-1,2.729993E-1,4.7224592E-2,7.4104416E-1,2.853094E-2,4.3325644E-2,1.0077386E-2,7.671998E-1,3.5350744E-2,-6.8879235E-1,-1.1168631E0,-7.81719E-2,-1.718753E-2,-3.9225483E-1,-1.614435E-1,-3.140824E-2,-3.385763E-2,-7.4363686E-2,-3.978883E-1,-2.694675E-1,9.166366E-3,-9.4414605E-3,4.0535126E-2,-5.5552024E-2,1.7270635E-1,-1.3016936E-3,2.0304103E-1,3.6502835E-1,8.6542346E-2,9.294157E-2,-1.0002342E-2,-1.9980727E-2,3.2302567E-3,1.06369825E-2,2.9190673E-2,8.1501395E-2,2.9677672E-2,8.278784E-1,3.3268545E-2,-7.171822E-1,-1.4566715E-2,-1.4892181E0,-6.5144455E-1,-4.0764245E-1,-8.072016E-3,-6.923533E-4,-1.8604292E-2,9.652621E-3,-9.058514E-2,-4.4732484E-1,-1.7988832E-1,-6.3444376E-3,-3.566465E-1,-3.055734E-1,-3.6158413E-2,4.3281008E-2,3.877681E-2,4.3967474E-2,-6.888002E-2,2.3136494E-1,3.1904224E-2,4.1022587E-1,3.2430533E-3,1.5644513E-2,1.1808014E-2,1.1749123E-1,-1.6217632E-2,2.7201597E-2,8.878576E-2,-1.9405065E-2,-7.4249613E-1,-1.6301558E0,-3.2179594E-2,-7.5314276E-2,-2.3089996E-2,-4.2410323E-1,-8.859578E-3,-1.056099E-2,-2.275543E-3,-4.800194E-1,-1.6743826E-2,-9.953914E-3,-2.5064254E-2,-5.1733993E-2,8.76069E-3,-3.9813524E-1,-9.946857E-3,-3.882515E-2,-1.7831624E-2,-4.9696907E-2,3.2149747E-2,-1.5790628E-1,2.2899711E-1,6.990497E-2,-5.2716737E-3,-7.955974E-3,-1.8420446E-3,2.6067033E-1,7.095481E-3,4.1759103E-3,1.1697989E-4,4.5311213E-2,1.8973215E-2,2.5073406E-3,-1.6066358E-4,1.4273906E-1,4.3497313E-2,-2.4375317E-3,4.127713E-4,-7.686552E-2,-2.1429403E-2,-4.3376733E-2,-1.7826802E-1,-4.3947097E-2,-1.121614E-2,-2.0354513E-2,-5.1495977E-2,-5.9027397E-3,-1.4926892E-3,-4.530893E-2,-2.0243179E-2,-3.9865095E-3,-5.2627098E-2,-2.1636043E-2,6.7182197E-3,3.600868E-2,7.3430585E-3,1.9969095E-3,7.98939E-3,-1.0663163E-3,2.7556525E-4,2.970892E-2,9.535089E-3,1.683721E-2,6.2196488E-3,-3.4292685E-4,5.608627E-3],"categories":[],"categories_nodes":[],"categories_segments":[],"categories_sizes":[],"default_left":[0,0,0,0,0,0,0,0,0,0,0,0,0,0,0,0,0,0,0,0,0,0,0,0,0,0,0,0,0,0,0,0,0,0,0,0,0,0,0,0,0,0,0,0,0,0,0,0,0,0,0,0,0,0,0,0,0,0,0,0,0,0,0,0,0,0,0,0,0,0,0,0,0,0,0,0,0,0,0,0,0,0,0,0,0,0,0,0,0,0,0,0,0,0,0,0,0,0,0,0,0,0,0,0,0,0,0,0,0,0,0,0,0,0,0,0,0,0,0,0,0,0,0,0,0,0,0,0,0,0,0,0,0,0,0,0,0,0,0,0,0,0,0,0,0,0,0,0,0,0,0,0,0,0,0,0,0,0,0,0,0,0,0,0,0,0,0,0,0,0,0,0,0,0,0,0,0,0,0,0,0],"id":7,"left_children":[1,3,5,7,9,11,13,15,17,19,21,23,25,27,29,-1,31,33,-1,35,37,39,-1,41,43,45,47,49,51,-1,-1,53,-1,55,57,59,61,63,65,67,-1,69,71,73,75,77,-1,79,-1,-1,-1,81,-1,83,85,-1,-1,87,89,-1,91,-1,93,95,-1,-1,-1,97,99,101,103,105,107,109,-1,-1,-1,-1,-1,-1,-1,111,-1,113,-1,115,117,119,-1,-1,-1,-1,121,123,125,127,129,131,133,-1,135,137,139,141,143,145,-1,147,-1,149,151,-1,-1,-1,153,155,-1,-1,-1,157,-1,-1,-1,159,-1,-1,-1,161,-1,163,-1,-1,-1,165,-1,167,169,171,173,-1,-1,175,-1,-1,-1,-1,-1,-1,-1,177,179,-1,-1,-1,-1,-1,-1,-1,-1,-1,-1,-1,-1,-1,-1,-1,-1,-1,-1,-1,-1,-1,-1,-1,-1,-1,-1,-1,-1,-1,-1],"loss_changes":[4.279166E1,1.194096E1,7.966427E0,2.4510841E0,2.8120818E0,2.4704838E0,1.1247921E0,9.7826576E-1,1.5928411E-1,1.0845246E0,6.1086345E-1,5.051533E-1,5.5677795E-1,1.9062138E-1,1.0593519E0,0E0,4.6918297E-1,1.8331766E-1,0E0,4.9006844E-1,6.4135146E-1,6.338582E-1,0E0,2.5438523E-1,1.9479838E-1,9.931874E-2,4.1263103E-2,2.7412653E-2,1.9349098E-1,0E0,0E0,4.9648285E-1,0E0,3.2165837E-1,1.5101838E-1,1.4627445E-1,3.47569E-1,2.8183025E-1,3.4564438E-1,6.8910676E-1,0E0,2.3898363E-1,2.5087416E-1,6.1063834E-2,5.384423E-2,1.305747E-2,0E0,8.674669E-2,0E0,0E0,0E0,2.2552586E-1,0E0,1.2681913E-1,1.456068E0,0E0,0E0,4.3795347E-2,2.5319636E-2,0E0,4.572559E-2,0E0,1.13520384E-1,3.64758E-1,0E0,0E0,0E0,5.3686726E-1,5.0575054E-1,3.0561414E-2,8.956373E-2,2.2721767E-1,1.1568457E-2,4.746239E-2,0E0,0E0,0E0,0E0,0E0,0E0,0E0,2.919321E-1,0E0,4.131317E-2,0E0,6.271601E-1,1.6824841E-1,4.1202784E-2,0E0,0E0,0E0,0E0,1.6733035E-3,4.773712E-2,3.4764707E-3,2.58543E-2,8.8438034E-2,1.4939487E-2,5.2924246E-1,0E0,4.4770437E-1,8.031357E-3,6.9004856E-4,6.141919E-2,1.1626855E-3,4.6416283E-2,0E0,5.2826153E-4,0E0,1.9945815E-2,7.64498E-4,0E0,0E0,0E0,1.490593E-2,3.216009E-1,0E0,0E0,0E0,1.7821789E-2,0E0,0E0,0E0,1.11038685E-2,0E0,0E0,0E0,1.9269995E-4,0E0,1.5827417E-2,0E0,0E0,0E0,4.616357E-1,0E0,9.347971E-2,9.591761E-2,3.9981492E-4,1.592217E-4,0E0,0E0,5.596268E-2,0E0,0E0,0E0,0E0,0E0,0E0,0E0,1.017338E-2,3.1461194E-3,0E0,0E0,0E0,0E0,0E0,0E0,0E0,0E0,0E0,0E0,0E0,0E0,0E0,0E0,0E0,0E0,0E0,0E0,0E0,0E0,0E0,0E0,0E0,0E0,0E0,0E0,0E0,0E0,0E0,0E0],"parents":[2147483647,0,0,1,1,2,2,3,3,4,4,5,5,6,6,7,7,8,8,9,9,10,10,11,11,12,12,13,13,14,14,16,16,17,17,19,19,20,20,21,21,23,23,24,24,25,25,26,26,27,27,28,28,31,31,33,33,34,34,35,35,36,36,37,37,38,38,39,39,41,41,42,42,43,43,44,44,45,45,47,47,51,51,53,53,54,54,57,57,58,58,60,60,62,62,63,63,67,67,68,68,69,69,70,70,71,71,72,72,73,73,81,81,83,83,85,85,86,86,87,87,92,92,93,93,94,94,95,95,96,96,97,97,98,98,100,100,101,101,102,102,103,103,104,104,105,105,107,107,109,109,110,110,114,114,115,115,119,119,123,123,127,127,129,129,133,133,135,135,136,136,137,137,138,138,141,141,149,149,150,150],"right_children":[2,4,6,8,10,12,14,16,18,20,22,24,26,28,30,-1,32,34,-1,36,38,40,-1,42,44,46,48,50,52,-1,-1,54,-1,56,58,60,62,64,66,68,-1,70,72,74,76,78,-1,80,-1,-1,-1,82,-1,84,86,-1,-1,88,90,-1,92,-1,94,96,-1,-1,-1,98,100,102,104,106,108,110,-1,-1,-1,-1,-1,-1,-1,112,-1,114,-1,116,118,120,-1,-1,-1,-1,122,124,126,128,130,132,134,-1,136,138,140,142,144,146,-1,148,-1,150,152,-1,-1,-1,154,156,-1,-1,-1,158,-1,-1,-1,160,-1,-1,-1,162,-1,164,-1,-1,-1,166,-1,168,170,172,174,-1,-1,176,-1,-1,-1,-1,-1,-1,-1,178,180,-1,-1,-1,-1,-1,-1,-1,-1,-1,-1,-1,-1,-1,-1,-1,-1,-1,-1,-1,-1,-1,-1,-1,-1,-1,-1,-1,-1,-1,-1],"split_conditions":[3.5E1,1.2E1,1.276035E-5,4.656231E-6,5.3327103E-6,6.4E1,1.982874E-8,1.564598E-8,6.601963E-6,1E0,2E0,5E0,1.08E2,1E0,1E0,-2.7198354E-2,1E0,7E0,-1.3887002E-4,2.11E2,1E0,1.7313474E-7,-4.9552213E-2,8.415722E-6,7.757984E-8,4E0,5E0,2.5986046E-1,2.7767292E-1,2.544649E-2,1.2083621E-1,2.17E2,-2.5175292E-2,2.65E2,1.1621675E-8,3.3078955E-8,1E0,4.6962937E-3,4.8929355E-6,9.177243E-6,-5.9705522E-2,2.4488902E-6,6.24E2,5.6852805E-6,3.61E2,2.62E2,4.7224592E-2,1E0,2.853094E-2,4.3325644E-2,1.0077386E-2,2E0,3.5350744E-2,1E0,4.27E2,-7.81719E-2,-1.718753E-2,1E0,4.9233818E-6,-3.140824E-2,1.4E1,-7.4363686E-2,4.063761E-6,1E0,9.166366E-3,-9.4414605E-3,4.0535126E-2,1.6350407E-8,4.14E2,1E0,4.9233518E-6,1E0,9.316078E-6,3E0,-1.0002342E-2,-1.9980727E-2,3.2302567E-3,1.06369825E-2,2.9190673E-2,8.1501395E-2,2.9677672E-2,3.0971194E-8,3.3268545E-2,7.7275084E-3,-1.4566715E-2,4.8998023E-9,4.1702697E-6,1E0,-8.072016E-3,-6.923533E-4,-1.8604292E-2,9.652621E-3,1.82E2,1E0,2.7E1,4.106038E-6,1E0,1.9E1,1E0,4.3281008E-2,2E0,4E0,4.97E2,1E0,5.01E2,1E0,3.2430533E-3,6.87E2,1.1808014E-2,1E0,3.81E2,2.7201597E-2,8.878576E-2,-1.9405065E-2,1E0,9.317713E-2,-3.2179594E-2,-7.5314276E-2,-2.3089996E-2,1E0,-8.859578E-3,-1.056099E-2,-2.275543E-3,4.126022E-6,-1.6743826E-2,-9.953914E-3,-2.5064254E-2,1.8E1,8.76069E-3,1E0,-9.946857E-3,-3.882515E-2,-1.7831624E-2,3E0,3.2149747E-2,9.702391E-2,3.0099944E-8,5.7480506E-6,1.16E2,-7.955974E-3,-1.8420446E-3,1E0,7.095481E-3,4.1759103E-3,1.1697989E-4,4.5311213E-2,1.8973215E-2,2.5073406E-3,-1.6066358E-4,1E0,4.7071476E-6,-2.4375317E-3,4.127713E-4,-7.686552E-2,-2.1429403E-2,-4.3376733E-2,-1.7826802E-1,-4.3947097E-2,-1.121614E-2,-2.0354513E-2,-5.1495977E-2,-5.9027397E-3,-1.4926892E-3,-4.530893E-2,-2.0243179E-2,-3.9865095E-3,-5.2627098E-2,-2.1636043E-2,6.7182197E-3,3.600868E-2,7.3430585E-3,1.9969095E-3,7.98939E-3,-1.0663163E-3,2.7556525E-4,2.970892E-2,9.535089E-3,1.683721E-2,6.2196488E-3,-3.4292685E-4,5.608627E-3],"split_indices":[1,1,2,2,2,1,14,5,2,49,76,39,1,27,191,0,286,1,0,0,135,8,0,2,4,23,22,3,3,0,0,0,0,0,11,4,83,12,2,2,0,7,0,7,0,0,0,296,0,0,0,124,0,25,0,0,0,154,2,0,1,0,7,39,0,0,0,4,0,138,7,60,2,22,0,0,0,0,0,0,0,4,0,6,0,11,2,58,0,0,0,0,0,220,1,7,108,1,18,0,23,27,0,302,0,100,0,0,0,258,0,0,0,0,127,3,0,0,0,43,0,0,0,2,0,0,0,1,0,127,0,0,0,22,0,6,11,2,0,0,0,66,0,0,0,0,0,0,0,30,2,0,0,0,0,0,0,0,0,0,0,0,0,0,0,0,0,0,0,0,0,0,0,0,0,0,0,0,0,0,0],"split_type":[0,0,0,0,0,0,0,0,0,0,0,0,0,0,0,0,0,0,0,0,0,0,0,0,0,0,0,0,0,0,0,0,0,0,0,0,0,0,0,0,0,0,0,0,0,0,0,0,0,0,0,0,0,0,0,0,0,0,0,0,0,0,0,0,0,0,0,0,0,0,0,0,0,0,0,0,0,0,0,0,0,0,0,0,0,0,0,0,0,0,0,0,0,0,0,0,0,0,0,0,0,0,0,0,0,0,0,0,0,0,0,0,0,0,0,0,0,0,0,0,0,0,0,0,0,0,0,0,0,0,0,0,0,0,0,0,0,0,0,0,0,0,0,0,0,0,0,0,0,0,0,0,0,0,0,0,0,0,0,0,0,0,0,0,0,0,0,0,0,0,0,0,0,0,0,0,0,0,0,0,0],"sum_hessian":[3.83E2,2.4E2,1.43E2,6E1,1.8E2,1.01E2,4.2E1,3.3E1,2.7E1,5.1E1,1.29E2,6.8E1,3.3E1,3E1,1.2E1,4E0,2.9E1,2.6E1,1E0,3E1,2.1E1,1.27E2,2E0,4.7E1,2.1E1,2.2E1,1.1E1,8E0,2.2E1,2E0,1E1,2.7E1,2E0,5E0,2.1E1,7E0,2.3E1,1.7E1,4E0,1.26E2,1E0,2.7E1,2E1,1.7E1,4E0,1.3E1,9E0,9E0,2E0,7E0,1E0,1.8E1,4E0,1.4E1,1.3E1,3E0,2E0,1.5E1,6E0,3E0,4E0,6E0,1.7E1,1.5E1,2E0,2E0,2E0,1.12E2,1.4E1,8E0,1.9E1,1.5E1,5E0,1.6E1,1E0,3E0,1E0,2E0,1.1E1,7E0,2E0,1.5E1,3E0,1.3E1,1E0,6E0,7E0,1.4E1,1E0,1E0,5E0,1E0,3E0,1.3E1,4E0,4E0,1.1E1,7E0,1.05E2,4E0,1E1,5E0,3E0,1.6E1,3E0,1.3E1,2E0,2E0,3E0,1.3E1,3E0,2E0,1.3E1,1E0,1.2E1,5E0,1E0,5E0,2E0,1.3E1,1E0,2E0,1E0,1.1E1,2E0,3E0,1E0,3E0,1E0,9E0,2E0,3E0,4E0,1.02E2,3E0,5E0,5E0,3E0,2E0,2E0,1E0,1.3E1,3E0,2E0,1E0,1E1,3E0,1E0,1E0,9E0,4E0,2E0,1E0,1.1E1,1E0,1E0,4E0,1.2E1,1E0,2E0,9E0,2E0,1E0,6E0,3E0,1.01E2,1E0,4E0,1E0,2E0,3E0,1E0,2E0,1E0,1E0,1E1,3E0,6E0,3E0,1E0,3E0],"tree_param":{"num_deleted":"0","num_feature":"412","num_nodes":"181","size_leaf_vector":"1"}},{"base_weights":[-2.0479986E-3,-2.376257E-1,3.9223167E-1,-5.892607E-1,-1.1780602E-1,2.4937735E-1,7.219738E-1,-7.591676E-1,-3.6190015E-1,-2.9756752E-1,-4.4995215E-2,1.4608683E-1,4.5166174E-1,5.886693E-1,9.843171E-1,-2.5022482E-2,-8.186858E-1,-3.8760564E-1,-1.107658E-1,-4.0794602E-1,-1.2850842E-1,-3.459535E-2,-4.737244E-2,1.9790925E-1,2.6379421E-2,3.381329E-1,6.316202E-1,6.5422463E-1,3.8558072E-1,2.3750057E-2,1.098511E0,-6.119138E-1,-9.846636E-1,-4.0364596E-1,-1.3192653E-4,-1.4330283E-2,-6.577356E-4,1.9999718E-2,-4.3814915E-1,-2.0543376E-1,1.7412452E-1,-2.5935434E-2,-5.6720246E-2,1.319366E-1,2.7644852E-1,6.990329E-2,-1.355824E-1,4.080485E-1,2.2476599E-2,7.028357E-1,3.1348042E-2,6.881222E-1,2.1016574E-2,4.0714856E-2,9.573516E-3,1.14728354E-1,3.0539298E-2,-6.342569E-1,-1.383838E-2,-1.1748629E0,-5.035543E-1,-6.419107E-1,-3.2389748E-1,-6.170032E-3,9.16999E-3,-6.360116E-1,-3.3248672E-1,-2.4715412E-1,8.555274E-3,-8.812031E-3,3.7832785E-2,4.2366948E-2,-9.1737196E-2,-1.2384662E-3,1.8526855E-1,3.32746E-1,8.024722E-2,8.519434E-2,-9.502225E-3,-1.8482173E-2,3.0687437E-3,4.3481044E-2,1.7390532E-2,7.7772334E-2,2.9381929E-2,7.2695947E-1,2.2572469E-2,-7.191893E-1,-3.869934E-2,-1.4221939E0,-4.483179E-2,-5.937015E-2,-2.1550661E-2,-7.230901E-2,-1.5859658E-2,-3.516414E-1,-1.2501152E-2,-6.6982076E-2,-1.8276915E-2,-1.3060845E-1,-3.7230465E-1,-5.4369434E-3,-3.2727343E-1,1.1565323E-1,-5.3371377E-2,-2.0863938E-1,2.3682283E-3,4.110332E-2,-6.4441524E-2,2.109543E-1,2.9787023E-2,3.7379503E-1,3.0268496E-3,1.4862287E-2,1.0922412E-2,1.07765146E-1,-1.5102059E-2,7.7165276E-1,2.4627542E-2,-1.8434813E-2,-7.58133E-2,-1.5573241E-1,-3.0570615E-2,-3.8453197E-1,-1.4861393E-2,-1.5245172E-2,-2.161766E-3,-4.2189717E-1,-1.6890313E-1,-4.8409455E-2,8.322655E-3,-3.6487693E-1,-9.283734E-3,3.0112093E-2,2.8422615E-1,-1.7091852E-1,9.540753E-2,-2.8043294E-1,-6.566511E-2,3.0209426E-2,-4.9995746E-2,6.5411046E-2,-5.0080894E-3,-7.425575E-3,-1.7499424E-3,2.3740643E-1,6.5633194E-3,3.897516E-3,1.11130816E-4,4.1192014E-2,1.7550223E-2,2.3819734E-3,-1.5263037E-4,1.3077085E-1,4.020072E-2,-2.27503E-3,3.9213282E-4,7.9753643E-1,1.9169882E-2,-4.0116277E-2,-8.416599E-3,-4.686134E-2,-1.9963244E-2,-9.207371E-3,-2.3811042E-2,-5.509224E-3,-1.4180549E-3,-9.90136E-3,-3.8341578E-2,-1.5857442E-3,2.754165E-2,3.6592197E-2,2.9354065E-3,-2.3130117E-2,3.6741056E-2,1.6249841E-2,-9.948224E-4,-3.1602453E-2,1.4730234E-3,-2.1042466E-2,4.7115297E-3,6.506491E-3,-1.9890754E-2,1.8970639E-3,7.456763E-3,-1.0130004E-3,2.6178698E-4,2.5315156E-2,1.6359941E-3,1.539402E-2,5.7531744E-3,-3.257805E-4,5.187981E-3,8.4114365E-2,3.4272637E-2],"categories":[],"categories_nodes":[],"categories_segments":[],"categories_sizes":[],"default_left":[0,0,0,0,0,0,0,0,0,0,0,0,0,0,0,0,0,0,0,0,0,0,0,0,0,0,0,0,0,0,0,0,0,0,0,0,0,0,0,0,0,0,0,0,0,0,0,0,0,0,0,0,0,0,0,0,0,0,0,0,0,0,0,0,0,0,0,0,0,0,0,0,0,0,0,0,0,0,0,0,0,0,0,0,0,0,0,0,0,0,0,0,0,0,0,0,0,0,0,0,0,0,0,0,0,0,0,0,0,0,0,0,0,0,0,0,0,0,0,0,0,0,0,0,0,0,0,0,0,0,0,0,0,0,0,0,0,0,0,0,0,0,0,0,0,0,0,0,0,0,0,0,0,0,0,0,0,0,0,0,0,0,0,0,0,0,0,0,0,0,0,0,0,0,0,0,0,0,0,0,0,0,0,0,0,0,0,0,0,0,0,0,0,0,0],"id":8,"left_children":[1,3,5,7,9,11,13,15,17,19,21,23,25,27,29,-1,31,33,35,37,39,41,-1,43,45,47,49,51,53,-1,55,57,59,61,-1,-1,-1,63,65,67,69,71,-1,73,75,77,79,81,-1,83,-1,85,-1,-1,-1,-1,-1,87,-1,89,91,93,95,-1,-1,97,99,101,-1,-1,-1,103,105,107,109,111,113,115,-1,-1,-1,-1,-1,-1,-1,117,-1,119,-1,121,-1,-1,-1,-1,-1,123,-1,-1,-1,125,127,129,131,133,135,137,139,141,143,145,147,149,-1,151,-1,153,155,157,-1,-1,-1,-1,-1,159,-1,-1,-1,161,163,165,-1,167,-1,169,171,173,175,177,179,181,-1,183,185,-1,-1,187,-1,-1,-1,-1,-1,-1,-1,189,191,-1,-1,193,-1,-1,-1,-1,-1,-1,-1,-1,-1,-1,-1,-1,-1,-1,-1,-1,-1,-1,-1,-1,-1,-1,-1,-1,-1,-1,-1,-1,-1,-1,-1,-1,-1,-1,-1,-1,-1],"loss_changes":[3.5760468E1,1.0084585E1,6.6030865E0,2.0816956E0,2.3556442E0,2.0652122E0,9.243393E-1,8.2505035E-1,1.3782191E-1,9.179201E-1,5.632458E-1,4.228226E-1,4.810648E-1,1.6046238E-1,8.4776783E-1,0E0,4.2705917E-1,1.5437102E-1,1.2617379E-2,4.0944815E-1,5.479343E-1,5.7566804E-1,0E0,2.1223569E-1,1.6456018E-1,9.058523E-2,5.1552296E-2,1.8653584E-1,2.3534894E-2,0E0,7.513428E-2,8.1510544E-2,7.8099155E-1,2.481165E-1,0E0,0E0,0E0,2.3231637E-2,3.948264E-1,2.3966587E-1,3.0109468E-1,5.746775E-1,0E0,1.9909912E-1,2.0525634E-1,5.348926E-2,4.6606764E-2,5.8436394E-3,0E0,4.7162533E-2,0E0,1.9507313E-1,0E0,0E0,0E0,0E0,0E0,3.6688805E-2,0E0,1.1593761E0,2.7853608E-2,8.1496E-2,6.6398144E-2,0E0,0E0,1.5491247E-2,1.20179415E-1,3.0808014E-1,0E0,0E0,0E0,4.4819987E-1,7.155675E-1,2.6733933E-2,7.3589385E-2,1.8734825E-1,9.744596E-3,4.0111586E-2,0E0,0E0,0E0,0E0,0E0,0E0,0E0,1.96661E-1,0E0,6.8526745E-2,0E0,5.8001614E-1,0E0,0E0,0E0,0E0,0E0,5.6374073E-2,0E0,0E0,0E0,8.607939E-3,1.00222826E-1,2.3079416E-2,7.1913004E-2,5.1055855E-1,5.05986E-1,2.7925968E-1,5.325613E-1,7.052766E-3,5.4337084E-4,4.9767196E-2,1.0105919E-3,3.354621E-2,0E0,4.7675584E-4,0E0,1.650405E-2,6.7119295E-4,8.729458E-2,0E0,0E0,0E0,0E0,0E0,3.6170006E-2,0E0,0E0,0E0,4.1433096E-2,4.6620816E-3,1.3373885E-4,0E0,1.1324763E-2,0E0,2.8628066E-1,2.3912245E-1,6.0507417E-1,9.35059E-2,2.0425618E-1,1.8950066E-1,3.0043724E-1,0E0,2.863463E-4,1.4369757E-4,0E0,0E0,4.4584155E-2,0E0,0E0,0E0,0E0,0E0,0E0,0E0,8.11258E-3,2.7067931E-3,0E0,0E0,9.212494E-3,0E0,0E0,0E0,0E0,0E0,0E0,0E0,0E0,0E0,0E0,0E0,0E0,0E0,0E0,0E0,0E0,0E0,0E0,0E0,0E0,0E0,0E0,0E0,0E0,0E0,0E0,0E0,0E0,0E0,0E0,0E0,0E0,0E0,0E0,0E0,0E0,0E0],"parents":[2147483647,0,0,1,1,2,2,3,3,4,4,5,5,6,6,7,7,8,8,9,9,10,10,11,11,12,12,13,13,14,14,16,16,17,17,18,18,19,19,20,20,21,21,23,23,24,24,25,25,26,26,27,27,28,28,30,30,31,31,32,32,33,33,37,37,38,38,39,39,40,40,41,41,43,43,44,44,45,45,46,46,47,47,49,49,51,51,57,57,59,59,60,60,61,61,62,62,65,65,66,66,67,67,71,71,72,72,73,73,74,74,75,75,76,76,77,77,85,85,87,87,89,89,95,95,99,99,100,100,101,101,102,102,103,103,104,104,105,105,106,106,107,107,108,108,109,109,110,110,111,111,113,113,115,115,116,116,117,117,123,123,127,127,128,128,129,129,131,131,133,133,134,134,135,135,136,136,137,137,138,138,139,139,141,141,142,142,145,145,153,153,154,154,157,157],"right_children":[2,4,6,8,10,12,14,16,18,20,22,24,26,28,30,-1,32,34,36,38,40,42,-1,44,46,48,50,52,54,-1,56,58,60,62,-1,-1,-1,64,66,68,70,72,-1,74,76,78,80,82,-1,84,-1,86,-1,-1,-1,-1,-1,88,-1,90,92,94,96,-1,-1,98,100,102,-1,-1,-1,104,106,108,110,112,114,116,-1,-1,-1,-1,-1,-1,-1,118,-1,120,-1,122,-1,-1,-1,-1,-1,124,-1,-1,-1,126,128,130,132,134,136,138,140,142,144,146,148,150,-1,152,-1,154,156,158,-1,-1,-1,-1,-1,160,-1,-1,-1,162,164,166,-1,168,-1,170,172,174,176,178,180,182,-1,184,186,-1,-1,188,-1,-1,-1,-1,-1,-1,-1,190,192,-1,-1,194,-1,-1,-1,-1,-1,-1,-1,-1,-1,-1,-1,-1,-1,-1,-1,-1,-1,-1,-1,-1,-1,-1,-1,-1,-1,-1,-1,-1,-1,-1,-1,-1,-1,-1,-1,-1,-1],"split_conditions":[3.5E1,1.2E1,1.276035E-5,4.656231E-6,5.3327103E-6,6.4E1,1.982874E-8,1.564598E-8,1E0,1E0,1E0,5E0,1.08E2,4.8449565E-2,1E0,-2.5022482E-2,2.3E2,6.601963E-6,3.32E2,1.58E2,1E0,1.7313474E-7,-4.737244E-2,8.415722E-6,7.757984E-8,1.6309446E-2,9.702391E-2,1E0,1.7466235E-5,2.3750057E-2,6.36E2,1E0,4.93E2,7E0,-1.3192653E-4,-1.4330283E-2,-6.577356E-4,8.9E1,1E0,4.6962937E-3,4.8929355E-6,1E0,-5.6720246E-2,2.4488902E-6,6.24E2,5.6852805E-6,3.61E2,1.4190373E-1,2.2476599E-2,1E0,3.1348042E-2,3E0,2.1016574E-2,4.0714856E-2,9.573516E-3,1.14728354E-1,3.0539298E-2,1E0,-1.383838E-2,1E0,4.1702697E-6,2.65E2,1E0,-6.170032E-3,9.16999E-3,1E0,2.0201708E-6,1E0,8.555274E-3,-8.812031E-3,3.7832785E-2,4.28E2,2E0,1E0,4.9233518E-6,1E0,9.316078E-6,3E0,-9.502225E-3,-1.8482173E-2,3.0687437E-3,4.3481044E-2,1.7390532E-2,7.7772334E-2,2.9381929E-2,2E0,2.2572469E-2,7.7275084E-3,-3.869934E-2,4.8998023E-9,-4.483179E-2,-5.937015E-2,-2.1550661E-2,-7.230901E-2,-1.5859658E-2,5.6959035E-8,-1.2501152E-2,-6.6982076E-2,-1.8276915E-2,2.8E1,4.063761E-6,4.106038E-6,1E0,1E0,2.0679989E-4,5.190704E-6,3E0,4E0,4.97E2,1E0,5.01E2,1E0,3.0268496E-3,6.87E2,1.0922412E-2,1E0,3.81E2,1E0,2.4627542E-2,-1.8434813E-2,-7.58133E-2,-1.5573241E-1,-3.0570615E-2,1E0,-1.4861393E-2,-1.5245172E-2,-2.161766E-3,1E0,2.7E1,1.8E1,8.322655E-3,9.3852155E-2,-9.283734E-3,5.397796E-6,4.8998023E-9,1E0,1E0,2.6E1,1.7531534E-8,1E0,-4.9995746E-2,5.7480506E-6,1.16E2,-7.425575E-3,-1.7499424E-3,3.5300466E-1,6.5633194E-3,3.897516E-3,1.11130816E-4,4.1192014E-2,1.7550223E-2,2.3819734E-3,-1.5263037E-4,1E0,4.7071476E-6,-2.27503E-3,3.9213282E-4,1E0,1.9169882E-2,-4.0116277E-2,-8.416599E-3,-4.686134E-2,-1.9963244E-2,-9.207371E-3,-2.3811042E-2,-5.509224E-3,-1.4180549E-3,-9.90136E-3,-3.8341578E-2,-1.5857442E-3,2.754165E-2,3.6592197E-2,2.9354065E-3,-2.3130117E-2,3.6741056E-2,1.6249841E-2,-9.948224E-4,-3.1602453E-2,1.4730234E-3,-2.1042466E-2,4.7115297E-3,6.506491E-3,-1.9890754E-2,1.8970639E-3,7.456763E-3,-1.0130004E-3,2.6178698E-4,2.5315156E-2,1.6359941E-3,1.539402E-2,5.7531744E-3,-3.257805E-4,5.187981E-3,8.4114365E-2,3.4272637E-2],"split_indices":[1,1,2,2,2,1,14,5,199,49,350,39,1,6,191,0,0,2,0,0,135,8,0,2,4,12,6,256,2,0,0,25,0,1,0,0,0,0,83,12,2,83,0,7,0,7,0,6,0,60,0,110,0,0,0,0,0,39,0,27,2,0,195,0,0,25,7,39,0,0,0,0,39,138,7,60,2,22,0,0,0,0,0,0,0,73,0,6,0,11,0,0,0,0,0,11,0,0,0,1,7,7,108,36,12,7,22,27,0,302,0,100,0,0,0,258,0,86,0,0,0,0,0,58,0,0,0,295,1,1,0,3,0,7,11,104,144,1,5,66,0,2,0,0,0,3,0,0,0,0,0,0,0,30,2,0,0,207,0,0,0,0,0,0,0,0,0,0,0,0,0,0,0,0,0,0,0,0,0,0,0,0,0,0,0,0,0,0,0,0,0,0,0,0,0],"split_type":[0,0,0,0,0,0,0,0,0,0,0,0,0,0,0,0,0,0,0,0,0,0,0,0,0,0,0,0,0,0,0,0,0,0,0,0,0,0,0,0,0,0,0,0,0,0,0,0,0,0,0,0,0,0,0,0,0,0,0,0,0,0,0,0,0,0,0,0,0,0,0,0,0,0,0,0,0,0,0,0,0,0,0,0,0,0,0,0,0,0,0,0,0,0,0,0,0,0,0,0,0,0,0,0,0,0,0,0,0,0,0,0,0,0,0,0,0,0,0,0,0,0,0,0,0,0,0,0,0,0,0,0,0,0,0,0,0,0,0,0,0,0,0,0,0,0,0,0,0,0,0,0,0,0,0,0,0,0,0,0,0,0,0,0,0,0,0,0,0,0,0,0,0,0,0,0,0,0,0,0,0,0,0,0,0,0,0,0,0,0,0,0,0,0,0],"sum_hessian":[3.83E2,2.4E2,1.43E2,6E1,1.8E2,1.01E2,4.2E1,3.3E1,2.7E1,5.1E1,1.29E2,6.8E1,3.3E1,3E1,1.2E1,4E0,2.9E1,2.4E1,3E0,3E1,2.1E1,1.27E2,2E0,4.7E1,2.1E1,2.2E1,1.1E1,2.1E1,9E0,2E0,1E1,1.5E1,1.4E1,2.3E1,1E0,2E0,1E0,2E0,2.8E1,1.7E1,4E0,1.26E2,1E0,2.7E1,2E1,1.7E1,4E0,1.2E1,1E1,8E0,3E0,1.9E1,2E0,8E0,1E0,9E0,1E0,1.4E1,1E0,9E0,5E0,4E0,1.9E1,1E0,1E0,8E0,2E1,1.5E1,2E0,2E0,2E0,6.2E1,6.4E1,8E0,1.9E1,1.5E1,5E0,1.6E1,1E0,3E0,1E0,1E1,2E0,6E0,2E0,1.7E1,2E0,9E0,5E0,6E0,3E0,3E0,2E0,3E0,1E0,1.6E1,3E0,7E0,1E0,4E0,1.6E1,4E0,1.1E1,3.5E1,2.7E1,2.8E1,3.6E1,5E0,3E0,1.6E1,3E0,1.3E1,2E0,2E0,3E0,1.3E1,3E0,1.5E1,2E0,1E0,8E0,5E0,1E0,1.3E1,3E0,3E0,1E0,1.2E1,4E0,3E0,1E0,9E0,2E0,2.4E1,1.1E1,1.5E1,1.2E1,1.8E1,1E1,3.5E1,1E0,3E0,2E0,2E0,1E0,1.3E1,3E0,2E0,1E0,1E1,3E0,1E0,1E0,9E0,4E0,2E0,1E0,1.4E1,1E0,1.2E1,1E0,9E0,3E0,3E0,1E0,2E0,1E0,1E0,8E0,2.1E1,3E0,8E0,3E0,1.4E1,1E0,7E0,5E0,1.6E1,2E0,4E0,6E0,3.1E1,4E0,1E0,2E0,1E0,1E0,1.2E1,1E0,6E0,3E0,1E0,3E0,1.2E1,2E0],"tree_param":{"num_deleted":"0","num_feature":"412","num_nodes":"195","size_leaf_vector":"1"}},{"base_weights":[-2.4751876E-3,-2.2163756E-1,3.5237598E-1,-5.412043E-1,-1.10877976E-1,2.2317909E-1,6.5966195E-1,-6.9748217E-1,-3.3210957E-1,-2.720043E-1,-4.4031925E-2,1.3043201E-1,4.1302058E-1,5.9176815E-1,1.1736845E-1,-2.3020685E-1,-7.52112E-1,-3.443171E-1,-1.253302E-4,-3.735872E-1,-1.16500996E-1,-9.719793E-2,3.4518994E-2,4.279393E-2,1.9201173E-1,3.0794343E-1,5.8000004E-1,4.4430298E-1,7.651444E-1,-2.5347838E-2,-6.856039E-3,-5.598965E-1,-9.0700096E-1,-5.2108234E-1,-2.8045762E-1,1.8999727E-2,-4.013173E-1,-1.875335E-1,1.625162E-1,-1.7427866E-1,1.4234298E-2,-2.1768028E-2,2.2395639E-1,-5.018591E-2,8.9459844E-2,2.146776E-1,-7.6983385E-2,2.2389871E-1,3.9481172E-1,6.893391E-1,3.557712E-2,4.761607E-1,1.659741E-2,7.9010427E-1,1.8289378E-2,-5.796944E-1,-1.314646E-2,-1.1547482E0,-5.458786E-1,-6.688583E-2,-1.5035363E-2,-3.2697102E-1,-1.3407592E-1,-5.861531E-3,8.71149E-3,-5.818836E-1,-3.0482137E-1,-2.2594692E-1,7.984923E-3,-8.224561E-3,3.5310596E-2,-2.3079653E-1,7.743684E-2,-3.121969E-2,2.1640486E-1,1.4997462E-2,-3.6559817E-1,3.5353276E-1,-1.2357954E-1,-1.1122532E-1,8.44394E-2,1.9239077E-2,6.1616316E-2,2.4419014E-1,6.979271E-2,1.0819633E-3,-1.098576E-2,8.429411E-3,2.4014166E-2,1.0972977E-2,4.142953E-2,1.9229293E-2,7.401313E-2,5.003951E-1,1.6395595E-2,8.333155E-2,3.2508355E-2,-6.566952E-1,-3.5474397E-2,-1.3927876E0,-2.9375345E-2,-6.272684E-2,-2.011395E-2,-3.3937794E-1,-7.0433575E-3,-3.2195196E-2,-1.6838918E-2,-6.1121143E-2,-1.736307E-2,-9.504161E-2,-3.345046E-1,-4.6141744E-3,-2.9933998E-1,-2.6408443E-1,2.3449443E-2,-1.9601116E-1,2.4682936E-1,-8.8969804E-2,1.464906E-1,6.6976096E-3,2.7437523E-2,-3.9895453E-2,1.7268717E-1,-4.1921563E-2,-1.02372905E-2,3.8235754E-2,6.1467327E-3,-2.515589E-2,-2.0942524E-2,-4.1192446E-2,-1.7096011E-2,2.9796672E-3,1.2418378E-2,2.4655173E-2,1.3142941E-2,2.685423E-1,5.8980174E-2,9.97048E-3,3.1904496E-2,3.711769E-2,6.02729E-1,-1.7513072E-2,-6.907434E-2,-3.896631E-2,-1.5154798E-1,-3.521967E-1,-7.995768E-3,-4.2044306E-3,-6.248489E-4,-1.1303096E-2,-2.0536778E-3,-1.2733551E-2,-3.6744937E-1,-4.5300327E-2,7.906522E-3,-3.332135E-1,-8.664818E-3,-4.0537283E-1,-1.9135414E-1,-2.3912612E-2,-3.3333146E-3,5.2457646E-2,3.309008E-2,-1.14039026E-1,2.0620732E-2,1.8274618E-2,3.7234467E-3,6.8317726E-2,-1.2029991E-1,-5.5612296E-2,2.3671357E-1,-4.077657E-4,-3.365618E-3,-9.6235046E-4,-4.6678805E-3,-1.57608E-2,3.8356043E-2,2.257956E-1,4.2001784E-2,2.4869764E-4,7.248173E-3,9.6678344E-4,3.5046705E-3,6.9510244E-2,3.1348668E-2,-3.659818E-2,-8.64952E-3,-4.599754E-2,-2.2899216E-2,-5.1419423E-3,-1.3471522E-3,-3.813889E-2,-1.656033E-2,-4.8307013E-2,-1.4863506E-2,-2.6912794E-2,-6.7903153E-3,7.6776217E-3,1.9102525E-4,-1.4639352E-2,1.1810097E-2,2.194623E-2,-2.3242338E-3,-2.0828494E-3,-2.2960171E-2,-6.8543106E-4,-7.6564136E-3,1.9089122E-3,3.6347043E-2,-1.8951123E-3,-3.0949147E-4,3.187337E-4,4.6749804E-3,2.3573888E-2,-1.4499873E-4],"categories":[],"categories_nodes":[],"categories_segments":[],"categories_sizes":[],"default_left":[0,0,0,0,0,0,0,0,0,0,0,0,0,0,0,0,0,0,0,0,0,0,0,0,0,0,0,0,0,0,0,0,0,0,0,0,0,0,0,0,0,0,0,0,0,0,0,0,0,0,0,0,0,0,0,0,0,0,0,0,0,0,0,0,0,0,0,0,0,0,0,0,0,0,0,0,0,0,0,0,0,0,0,0,0,0,0,0,0,0,0,0,0,0,0,0,0,0,0,0,0,0,0,0,0,0,0,0,0,0,0,0,0,0,0,0,0,0,0,0,0,0,0,0,0,0,0,0,0,0,0,0,0,0,0,0,0,0,0,0,0,0,0,0,0,0,0,0,0,0,0,0,0,0,0,0,0,0,0,0,0,0,0,0,0,0,0,0,0,0,0,0,0,0,0,0,0,0,0,0,0,0,0,0,0,0,0,0,0,0,0,0,0,0,0,0,0,0,0,0,0,0,0,0,0,0,0,0,0,0,0,0,0,0,0],"id":9,"left_children":[1,3,5,7,9,11,13,15,17,19,21,23,25,27,-1,29,31,33,-1,35,37,39,41,43,45,47,49,51,53,-1,-1,55,57,59,61,63,65,67,69,71,73,75,77,79,81,83,85,87,89,91,-1,93,-1,95,-1,97,-1,99,101,-1,-1,103,105,-1,-1,107,109,111,-1,-1,-1,113,115,117,119,121,123,125,127,129,131,-1,133,135,137,-1,-1,-1,-1,-1,-1,-1,-1,139,-1,-1,-1,141,-1,143,-1,-1,-1,145,-1,147,-1,-1,-1,149,151,153,155,157,-1,159,161,163,165,-1,-1,167,169,-1,-1,-1,-1,171,-1,173,-1,-1,-1,175,-1,177,179,-1,181,-1,183,-1,-1,-1,-1,185,-1,-1,-1,-1,-1,-1,187,189,-1,191,-1,193,195,-1,-1,197,-1,199,-1,-1,-1,201,203,205,207,-1,-1,-1,-1,209,211,213,-1,-1,-1,-1,-1,-1,-1,-1,-1,-1,-1,-1,-1,-1,-1,-1,-1,-1,-1,-1,-1,-1,-1,-1,-1,-1,-1,-1,-1,-1,-1,-1,-1,-1,-1,-1,-1],"loss_changes":[2.9941792E1,8.364021E0,5.688732E0,1.7616482E0,1.9052005E0,1.7948895E0,8.0610657E-1,6.9478416E-1,1.1265826E-1,7.7789307E-1,5.337374E-1,3.803475E-1,4.1794777E-1,6.82724E-1,0E0,1.4302135E-3,3.85334E-1,1.5863848E-1,0E0,3.4510612E-1,4.6650165E-1,6.552659E-1,5.593442E-1,1.389983E-1,2.7260077E-1,7.952094E-2,4.8956394E-2,1.3377571E-1,1.0255337E-1,0E0,0E0,5.950308E-2,7.1165276E-1,2.2814333E-1,1.0595274E-1,2.096655E-2,3.2792282E-1,2.0292121E-1,2.622869E-1,6.58061E-1,3.008188E-1,5.237675E-1,5.8407885E-1,9.978375E-2,4.833077E-2,1.497184E-1,1.2734439E-2,1.1503696E-2,1.0083556E-2,3.4400463E-2,0E0,7.684517E-2,0E0,5.0608635E-2,0E0,2.6862144E-2,0E0,1.2304678E0,9.8297596E-2,0E0,0E0,2.7021885E-2,1.904969E-2,0E0,0E0,1.6334057E-3,9.897375E-2,2.5852746E-1,0E0,0E0,0E0,6.350031E-1,4.652617E-1,2.9012856E-1,3.3598036E-2,3.3581924E-1,1.3537586E-2,5.2265882E-2,2.8528713E-2,2.642493E-2,4.9867015E-3,0E0,4.3206282E-2,1.2848961E-1,5.885493E-3,0E0,0E0,0E0,0E0,0E0,0E0,0E0,0E0,2.7525902E-2,0E0,0E0,0E0,4.2994022E-2,0E0,1.4792824E-1,0E0,0E0,0E0,2.1720767E-2,0E0,5.0394237E-4,0E0,0E0,0E0,3.0398853E-3,7.606292E-2,2.0604642E-2,5.7583094E-2,2.8208828E-1,0E0,2.0084605E-2,8.068842E-2,1.7891273E-1,2.0923555E-2,0E0,0E0,2.6054248E-1,1.5933612E-1,0E0,0E0,0E0,0E0,4.0027464E-4,0E0,4.1677803E-4,0E0,0E0,0E0,7.803064E-3,0E0,8.646393E-2,3.6334693E-3,0E0,1.0535121E-5,0E0,2.2559404E-2,0E0,0E0,0E0,0E0,1.9622445E-2,0E0,0E0,0E0,0E0,0E0,0E0,8.683276E-2,8.635502E-5,0E0,1.7587662E-2,0E0,1.4762485E-1,2.2175664E-1,0E0,0E0,3.541058E-3,0E0,1.6750467E-1,0E0,0E0,0E0,1.850053E-1,1.8004861E-1,2.5399132E-3,2.1374476E-1,0E0,0E0,0E0,0E0,1.02980994E-4,2.802969E-3,5.457151E-2,0E0,0E0,0E0,0E0,0E0,0E0,0E0,0E0,0E0,0E0,0E0,0E0,0E0,0E0,0E0,0E0,0E0,0E0,0E0,0E0,0E0,0E0,0E0,0E0,0E0,0E0,0E0,0E0,0E0,0E0,0E0,0E0,0E0,0E0,0E0,0E0,0E0],"parents":[2147483647,0,0,1,1,2,2,3,3,4,4,5,5,6,6,7,7,8,8,9,9,10,10,11,11,12,12,13,13,15,15,16,16,17,17,19,19,20,20,21,21,22,22,23,23,24,24,25,25,26,26,27,27,28,28,31,31,32,32,33,33,34,34,35,35,36,36,37,37,38,38,39,39,40,40,41,41,42,42,43,43,44,44,45,45,46,46,47,47,48,48,49,49,51,51,53,53,55,55,57,57,58,58,61,61,62,62,65,65,66,66,67,67,71,71,72,72,73,73,74,74,75,75,76,76,77,77,78,78,79,79,80,80,82,82,83,83,84,84,93,93,97,97,99,99,103,103,105,105,109,109,110,110,111,111,112,112,113,113,115,115,116,116,117,117,118,118,121,121,122,122,127,127,129,129,133,133,135,135,136,136,138,138,140,140,145,145,152,152,153,153,155,155,157,157,158,158,161,161,163,163,167,167,168,168,169,169,170,170,175,175,176,176,177,177],"right_children":[2,4,6,8,10,12,14,16,18,20,22,24,26,28,-1,30,32,34,-1,36,38,40,42,44,46,48,50,52,54,-1,-1,56,58,60,62,64,66,68,70,72,74,76,78,80,82,84,86,88,90,92,-1,94,-1,96,-1,98,-1,100,102,-1,-1,104,106,-1,-1,108,110,112,-1,-1,-1,114,116,118,120,122,124,126,128,130,132,-1,134,136,138,-1,-1,-1,-1,-1,-1,-1,-1,140,-1,-1,-1,142,-1,144,-1,-1,-1,146,-1,148,-1,-1,-1,150,152,154,156,158,-1,160,162,164,166,-1,-1,168,170,-1,-1,-1,-1,172,-1,174,-1,-1,-1,176,-1,178,180,-1,182,-1,184,-1,-1,-1,-1,186,-1,-1,-1,-1,-1,-1,188,190,-1,192,-1,194,196,-1,-1,198,-1,200,-1,-1,-1,202,204,206,208,-1,-1,-1,-1,210,212,214,-1,-1,-1,-1,-1,-1,-1,-1,-1,-1,-1,-1,-1,-1,-1,-1,-1,-1,-1,-1,-1,-1,-1,-1,-1,-1,-1,-1,-1,-1,-1,-1,-1,-1,-1,-1,-1],"split_conditions":[3.4E1,1.2E1,1.276035E-5,4.656231E-6,5.3327103E-6,6.4E1,1.1E1,1.564598E-8,6.601963E-6,1E0,3.0644994E-8,7.0892966E-6,1.08E2,2E0,1.1736845E-1,5.68E2,2.3E2,7E0,-1.253302E-4,1.58E2,1E0,2E0,7.818468E-6,1E0,1E0,4E0,1.2E1,6.78E2,7.67E2,-2.5347838E-2,-6.856039E-3,1E0,4.27E2,2.65E2,1.1621675E-8,8.9E1,1E0,4.6962937E-3,4.8929355E-6,1E0,1.2168064E-1,5E0,2E0,3.81E2,1E0,3.1980636E-7,3.5E1,2.62E2,1.14E2,5.6587744E-8,3.557712E-2,3E0,1.659741E-2,4E0,1.8289378E-2,1E0,-1.314646E-2,1E0,4.1702697E-6,-6.688583E-2,-1.5035363E-2,1E0,4.6954924E-8,-5.861531E-3,8.71149E-3,1E0,2.11E2,1E0,7.984923E-3,-8.224561E-3,3.5310596E-2,2E0,3.68E2,8.355617E-8,4.8917186E-6,1E0,6.5E2,5.619481E-6,5.13E2,2.939023E-1,4.97E2,1.9239077E-2,1E0,1E0,8.415722E-6,1.0819633E-3,-1.098576E-2,8.429411E-3,2.4014166E-2,1.0972977E-2,4.142953E-2,1.9229293E-2,7.401313E-2,1E0,1.6395595E-2,8.333155E-2,3.2508355E-2,7.7275084E-3,-3.5474397E-2,9.317713E-2,-2.9375345E-2,-6.272684E-2,-2.011395E-2,1E0,-7.0433575E-3,2.07E2,-1.6838918E-2,-6.1121143E-2,-1.736307E-2,2.8E1,9.280238E-2,4.106038E-6,1E0,1.7351686E-8,2.3449443E-2,3.53E2,1E0,1E0,1.5180363E-1,6.6976096E-3,2.7437523E-2,3.2763793E-8,2.9029483E-2,-4.1921563E-2,-1.02372905E-2,3.8235754E-2,6.1467327E-3,2.82E2,-2.0942524E-2,1.16E2,-1.7096011E-2,2.9796672E-3,1.2418378E-2,5.4774114E-6,1.3142941E-2,5.1E1,7.3011183E-6,9.97048E-3,3.53E2,3.711769E-2,1E0,-1.7513072E-2,-6.907434E-2,-3.896631E-2,-1.5154798E-1,1E0,-7.995768E-3,-4.2044306E-3,-6.248489E-4,-1.1303096E-2,-2.0536778E-3,-1.2733551E-2,1E0,1.8E1,7.906522E-3,1E0,-8.664818E-3,1E0,4.61E2,-2.3912612E-2,-3.3333146E-3,4.13E2,3.309008E-2,1E0,2.0620732E-2,1.8274618E-2,3.7234467E-3,1.462823E-1,1E0,2.33E2,1E0,-4.077657E-4,-3.365618E-3,-9.6235046E-4,-4.6678805E-3,5.04E2,1.7929011E-8,3E0,4.2001784E-2,2.4869764E-4,7.248173E-3,9.6678344E-4,3.5046705E-3,6.9510244E-2,3.1348668E-2,-3.659818E-2,-8.64952E-3,-4.599754E-2,-2.2899216E-2,-5.1419423E-3,-1.3471522E-3,-3.813889E-2,-1.656033E-2,-4.8307013E-2,-1.4863506E-2,-2.6912794E-2,-6.7903153E-3,7.6776217E-3,1.9102525E-4,-1.4639352E-2,1.1810097E-2,2.194623E-2,-2.3242338E-3,-2.0828494E-3,-2.2960171E-2,-6.8543106E-4,-7.6564136E-3,1.9089122E-3,3.6347043E-2,-1.8951123E-3,-3.0949147E-4,3.187337E-4,4.6749804E-3,2.3573888E-2,-1.4499873E-4],"split_indices":[1,1,2,2,2,1,36,5,2,49,4,2,1,58,0,0,0,1,0,0,135,39,2,49,152,23,39,0,0,0,0,25,0,0,11,0,83,12,2,135,6,39,34,0,83,13,1,0,0,11,0,135,0,77,0,39,0,83,2,0,0,154,11,0,0,25,0,39,0,0,0,36,0,11,7,34,0,7,0,3,0,0,73,73,2,0,0,0,0,0,0,0,0,121,0,0,0,6,0,3,0,0,0,58,0,0,0,0,0,1,3,7,108,5,0,0,23,174,3,0,0,5,6,0,0,0,0,0,0,0,0,0,0,2,0,1,2,0,0,0,137,0,0,0,0,43,0,0,0,0,0,0,57,1,0,127,0,110,0,0,0,0,0,113,0,0,0,3,235,0,49,0,0,0,0,0,4,117,0,0,0,0,0,0,0,0,0,0,0,0,0,0,0,0,0,0,0,0,0,0,0,0,0,0,0,0,0,0,0,0,0,0,0,0,0],"split_type":[0,0,0,0,0,0,0,0,0,0,0,0,0,0,0,0,0,0,0,0,0,0,0,0,0,0,0,0,0,0,0,0,0,0,0,0,0,0,0,0,0,0,0,0,0,0,0,0,0,0,0,0,0,0,0,0,0,0,0,0,0,0,0,0,0,0,0,0,0,0,0,0,0,0,0,0,0,0,0,0,0,0,0,0,0,0,0,0,0,0,0,0,0,0,0,0,0,0,0,0,0,0,0,0,0,0,0,0,0,0,0,0,0,0,0,0,0,0,0,0,0,0,0,0,0,0,0,0,0,0,0,0,0,0,0,0,0,0,0,0,0,0,0,0,0,0,0,0,0,0,0,0,0,0,0,0,0,0,0,0,0,0,0,0,0,0,0,0,0,0,0,0,0,0,0,0,0,0,0,0,0,0,0,0,0,0,0,0,0,0,0,0,0,0,0,0,0,0,0,0,0,0,0,0,0,0,0,0,0,0,0,0,0,0,0],"sum_hessian":[3.83E2,2.37E2,1.46E2,6E1,1.77E2,1.04E2,4.2E1,3.3E1,2.7E1,5.1E1,1.26E2,7.1E1,3.3E1,3.9E1,3E0,4E0,2.9E1,2.6E1,1E0,3E1,2.1E1,7.5E1,5.1E1,3E1,4.1E1,2.2E1,1.1E1,2.3E1,1.6E1,3E0,1E0,1.5E1,1.4E1,5E0,2.1E1,2E0,2.8E1,1.7E1,4E0,4.4E1,3.1E1,4E1,1.1E1,1E1,2E1,3.8E1,3E0,1.3E1,9E0,6E0,5E0,2E1,3E0,1.5E1,1E0,1.4E1,1E0,7E0,7E0,3E0,2E0,1.5E1,6E0,1E0,1E0,8E0,2E1,1.5E1,2E0,2E0,2E0,3.6E1,8E0,2.6E1,5E0,3.7E1,3E0,8E0,3E0,7E0,3E0,3E0,1.7E1,3.1E1,7E0,1E0,2E0,2E0,1.1E1,1E0,8E0,1E0,5E0,1.8E1,2E0,1.3E1,2E0,9E0,5E0,5E0,2E0,5E0,2E0,1.4E1,1E0,2E0,4E0,7E0,1E0,3E0,1.7E1,4E0,1.1E1,3.4E1,2E0,3E0,5E0,2E1,6E0,2E0,3E0,2.8E1,9E0,2E0,1E0,7E0,1E0,2E0,1E0,4E0,3E0,2E0,1E0,1.2E1,5E0,2.7E1,4E0,3E0,4E0,1E1,8E0,1E0,8E0,1E0,4E0,1.3E1,1E0,1E0,1E0,2E0,1E0,3E0,1.4E1,3E0,1E0,9E0,2E0,1E1,2.4E1,2E0,1E0,2E0,3E0,1.9E1,1E0,4E0,2E0,1.2E1,1.6E1,2E0,7E0,1E0,1E0,1E0,3E0,3E0,9E0,2.3E1,4E0,1E0,3E0,1E0,3E0,5E0,3E0,1.2E1,1E0,7E0,7E0,2E0,1E0,6E0,3E0,7E0,3E0,1.4E1,1E1,1E0,1E0,1.7E1,2E0,4E0,8E0,9E0,7E0,1E0,1E0,3E0,4E0,2E0,1E0,2E0,7E0,2.2E1,1E0],"tree_param":{"num_deleted":"0","num_feature":"412","num_nodes":"215","size_leaf_vector":"1"}},{"base_weights":[-2.4463786E-3,-2.0294198E-1,3.221822E-1,-4.9747965E-1,-1.008648E-1,2.0389903E-1,6.035206E-1,-6.415616E-1,-3.047558E-1,-2.486019E-1,-3.9579805E-2,1.1885143E-1,3.7800282E-1,5.4021883E-1,1.0856581E-1,-1.5659684E-2,-6.8344223E-1,-2.610168E-1,-5.0193574E-2,-3.4173235E-1,