{"learner":{"attributes":{"best_iteration":"5","best_score":"0.18466982837857257"},"feature_names":[],"feature_types":[],"gradient_booster":{"model":{"gbtree_model_param":{"num_parallel_tree":"1","num_trees":"56"},"iteration_indptr":[0,1,2,3,4,5,6,7,8,9,10,11,12,13,14,15,16,17,18,19,20,21,22,23,24,25,26,27,28,29,30,31,32,33,34,35,36,37,38,39,40,41,42,43,44,45,46,47,48,49,50,51,52,53,54,55,56],"tree_info":[0,0,0,0,0,0,0,0,0,0,0,0,0,0,0,0,0,0,0,0,0,0,0,0,0,0,0,0,0,0,0,0,0,0,0,0,0,0,0,0,0,0,0,0,0,0,0,0,0,0,0,0,0,0,0,0],"trees":[{"base_weights":[2.8311054E-9,-9.1256864E-2,4.3232942E-1,-1.2306099E-1,9.83923E-1,-1.282018E-1,1.2082997E-2,1.113333E-1,2.395612E-2,-1.3925105E-1,-7.1216114E-2,-1.4502116E-1,-9.24277E-2,9.108019E-3,-8.714453E-2,-1.0973212E-2,-4.8283977E-3,-8.791875E-3,-2.5413381E-2,4.710187E-3,-3.4578345E-3,-9.822157E-2,9.227649E-4,1.4730451E-3,-4.967385E-3,-1.07556E-1,-3.5922027E-3,-1.144102E-1,-3.8948911E-3,-9.477934E-3,-4.5923754E-3],"categories":[],"categories_nodes":[],"categories_segments":[],"categories_sizes":[],"default_left":[0,0,0,0,0,0,0,0,0,0,0,0,0,0,0,0,0,0,0,0,0,0,0,0,0,0,0,0,0,0,0],"id":0,"left_children":[1,3,-1,5,7,9,-1,-1,-1,11,13,15,17,19,21,-1,-1,-1,23,-1,-1,25,-1,-1,-1,27,-1,29,-1,-1,-1],"loss_changes":[2.0252551E2,1.3081045E1,0E0,5.5970764E-1,3.1844482E0,2.1864653E-1,0E0,0E0,0E0,6.8459034E-2,7.883933E-2,1.8424511E-2,5.68448E-2,3.550613E-2,5.7389557E-2,0E0,0E0,0E0,2.1530187E-2,0E0,0E0,1.6457468E-2,0E0,0E0,0E0,8.546293E-3,0E0,1.3254434E-2,0E0,0E0,0E0],"parents":[2147483647,0,0,1,1,3,3,4,4,5,5,9,9,10,10,11,11,12,12,13,13,14,14,18,18,21,21,25,25,27,27],"right_children":[2,4,-1,6,8,10,-1,-1,-1,12,14,16,18,20,22,-1,-1,-1,24,-1,-1,26,-1,-1,-1,28,-1,30,-1,-1,-1],"split_conditions":[1E0,7.6302765E-3,4.3232942E-1,2.63E2,1.7895409E-6,7.209237E-8,1.2082997E-2,1.113333E-1,2.395612E-2,5.7E1,0E0,1E0,1E0,3.8756657E-6,1E0,-1.0973212E-2,-4.8283977E-3,-8.791875E-3,1E0,4.710187E-3,-3.4578345E-3,1E0,9.227649E-4,1.4730451E-3,-4.967385E-3,1E0,-3.5922027E-3,1E0,-3.8948911E-3,-9.477934E-3,-4.5923754E-3],"split_indices":[424,15,0,1,7,4,0,0,0,1,422,174,19,7,283,0,0,0,108,0,0,174,0,0,0,288,0,167,0,0,0],"split_type":[0,0,0,0,0,0,0,0,0,0,0,0,0,0,0,0,0,0,0,0,0,0,0,0,0,0,0,0,0,0,0],"sum_hessian":[3.83E2,3.78E2,5E0,3.68E2,1E1,3.62E2,6E0,5E0,5E0,3.02E2,6E1,2.67E2,3.5E1,1E1,5E1,2.62E2,5E0,2.5E1,1E1,5E0,5E0,4.5E1,5E0,5E0,5E0,3.7E1,8E0,3.2E1,5E0,2.5E1,7E0],"tree_param":{"num_deleted":"0","num_feature":"443","num_nodes":"31","size_leaf_vector":"1"}},{"base_weights":[1.3860235E-3,-8.4149E-2,4.0530884E-1,-1.1392731E-1,9.2242783E-1,-1.18717425E-1,1.1306234E-2,1.0437497E-1,2.245886E-2,-1.2889992E-1,-6.619265E-2,-1.0287662E-2,-9.94167E-2,-5.3340737E-3,-8.5921876E-2,-1.0774341E-1,-2.9011564E-3,-5.8538467E-3,7.4482253E-3,-1.0007737E-1,-1.2455534E-3,-1.1414996E-1,-3.151077E-3,-1.105982E-1,-3.509962E-3,-4.5227963E-3,-8.96345E-3,-7.9263784E-2,-9.130866E-3,-3.7628587E-3,-7.135912E-3],"categories":[],"categories_nodes":[],"categories_segments":[],"categories_sizes":[],"default_left":[0,0,0,0,0,0,0,0,0,0,0,0,0,0,0,0,0,0,0,0,0,0,0,0,0,0,0,0,0,0,0],"id":1,"left_children":[1,3,-1,5,7,9,-1,-1,-1,11,13,-1,15,17,19,21,-1,-1,-1,23,-1,25,-1,27,-1,-1,-1,29,-1,-1,-1],"loss_changes":[1.779099E2,1.1465295E1,0E0,4.857278E-1,2.798831E0,1.8561172E-1,0E0,0E0,0E0,6.0233116E-2,7.278392E-2,0E0,3.1232655E-2,1.2950167E-1,4.347229E-2,2.0890951E-2,0E0,0E0,0E0,1.612407E-2,0E0,8.674681E-3,0E0,1.1775792E-3,0E0,0E0,0E0,3.0881166E-4,0E0,0E0,0E0],"parents":[2147483647,0,0,1,1,3,3,4,4,5,5,9,9,10,10,12,12,13,13,14,14,15,15,19,19,21,21,23,23,27,27],"right_children":[2,4,-1,6,8,10,-1,-1,-1,12,14,-1,16,18,20,22,-1,-1,-1,24,-1,26,-1,28,-1,-1,-1,30,-1,-1,-1],"split_conditions":[1E0,7.6302765E-3,4.0530884E-1,2.63E2,1.7895409E-6,7.209237E-8,1.1306234E-2,1.0437497E-1,2.245886E-2,4.2E1,1.35E2,-1.0287662E-2,1E0,2.4893054E-6,7E0,1E0,-2.9011564E-3,-5.8538467E-3,7.4482253E-3,4.727298E-6,-1.2455534E-3,4.4E1,-3.151077E-3,4.5756256E-4,-3.509962E-3,-4.5227963E-3,-8.96345E-3,1E0,-9.130866E-3,-3.7628587E-3,-7.135912E-3],"split_indices":[424,15,0,1,7,4,0,0,0,1,0,0,38,7,27,253,0,0,0,7,0,1,0,12,0,0,0,35,0,0,0],"split_type":[0,0,0,0,0,0,0,0,0,0,0,0,0,0,0,0,0,0,0,0,0,0,0,0,0,0,0,0,0,0,0],"sum_hessian":[3.83E2,3.78E2,5E0,3.68E2,1E1,3.62E2,6E0,5E0,5E0,3.02E2,6E1,2.33E2,6.9E1,1.5E1,4.5E1,6E1,9E0,9E0,6E0,3.7E1,8E0,5.4E1,6E0,3E1,7E0,6E0,4.8E1,1E1,2E1,5E0,5E0],"tree_param":{"num_deleted":"0","num_feature":"443","num_nodes":"31","size_leaf_vector":"1"}},{"base_weights":[2.5592363E-3,-7.8173585E-2,3.8263172E-1,-1.039128E-1,8.463538E-2,-1.0971074E-1,1.6056085E-2,-1.19256966E-1,-5.903737E-2,-1.2120483E-1,-1.384659E-3,-8.41205E-2,3.811861E-2,-1.2301692E-1,-6.2248006E-2,-9.106218E-3,-4.1765753E-2,-3.9370833E-3,9.246461E-3,-1.24261834E-1,-4.7584274E-3,-7.5720064E-3,-9.870947E-4,-5.8560055E-2,1.3782866E-3,-9.456579E-3,-7.258953E-3,-7.2615325E-2,-1.2003318E-3,-3.754393E-3,-7.0760925E-3],"categories":[],"categories_nodes":[],"categories_segments":[],"categories_sizes":[],"default_left":[0,0,0,0,0,0,0,0,0,0,0,0,0,0,0,0,0,0,0,0,0,0,0,0,0,0,0,0,0,0,0],"id":2,"left_children":[1,3,-1,5,-1,7,-1,9,11,13,-1,15,17,19,21,-1,23,-1,-1,25,-1,-1,-1,27,-1,-1,-1,29,-1,-1,-1],"loss_changes":[1.584811E2,1.1888283E1,0E0,7.093463E-1,0E0,1.7000818E-1,0E0,5.8036804E-2,1.4942512E-1,2.450037E-2,0E0,7.075223E-2,1.0679661E-1,1.36966705E-2,1.9573983E-2,0E0,2.5317557E-2,0E0,0E0,2.043724E-3,0E0,0E0,0E0,1.0202318E-2,0E0,0E0,0E0,2.1401048E-3,0E0,0E0,0E0],"parents":[2147483647,0,0,1,1,3,3,5,5,7,7,8,8,9,9,11,11,12,12,13,13,14,14,16,16,19,19,23,23,27,27],"right_children":[2,4,-1,6,-1,8,-1,10,12,14,-1,16,18,20,22,-1,24,-1,-1,26,-1,-1,-1,28,-1,-1,-1,30,-1,-1,-1],"split_conditions":[5E0,1.2511011E-2,3.8263172E-1,1.6666667E-1,8.463538E-2,2.445256E-1,1.6056085E-2,1.41E2,1E0,2E0,-1.384659E-3,4.1E1,1E0,1E0,1.9502052E-8,-9.106218E-3,1E0,-3.9370833E-3,9.246461E-3,7.3E1,-4.7584274E-3,-7.5720064E-3,-9.870947E-4,1E0,1.3782866E-3,-9.456579E-3,-7.258953E-3,3.22E2,-1.2003318E-3,-3.754393E-3,-7.0760925E-3],"split_indices":[422,15,0,423,0,3,0,1,138,191,0,1,127,128,5,0,144,0,0,1,0,0,0,278,0,0,0,0,0,0,0],"split_type":[0,0,0,0,0,0,0,0,0,0,0,0,0,0,0,0,0,0,0,0,0,0,0,0,0,0,0,0,0,0,0],"sum_hessian":[3.83E2,3.78E2,5E0,3.71E2,7E0,3.65E2,6E0,3.06E2,5.9E1,3E2,6E0,4.7E1,1.2E1,2.9E2,1E1,2.4E1,2.3E1,6E0,6E0,2.83E2,7E0,5E0,5E0,1.8E1,5E0,2.62E2,2.1E1,1.3E1,5E0,8E0,5E0],"tree_param":{"num_deleted":"0","num_feature":"443","num_nodes":"31","size_leaf_vector":"1"}},{"base_weights":[3.5064982E-3,-7.31781E-2,3.6351243E-1,-9.7727515E-2,7.569958E-1,-1.0186389E-1,9.805077E-3,8.596916E-2,1.811777E-2,-1.10482305E-1,-5.738451E-2,-8.797357E-3,-8.4230214E-2,1.2350737E-2,-7.297328E-2,-9.630688E-2,-4.3755885E-2,-5.450816E-3,6.26008E-3,-8.1097595E-2,-8.611042E-4,-1.0263828E-1,-2.457769E-3,-6.2740347E-3,-1.4388499E-2,-8.983948E-2,-1.6542226E-3,-8.034152E-3,-4.1730236E-3,-3.8179706E-3,1.839552E-3,-8.077969E-3,-5.5263363E-2,2.251426E-4,-6.3522146E-3],"categories":[],"categories_nodes":[],"categories_segments":[],"categories_sizes":[],"default_left":[0,0,0,0,0,0,0,0,0,0,0,0,0,0,0,0,0,0,0,0,0,0,0,0,0,0,0,0,0,0,0,0,0,0,0],"id":3,"left_children":[1,3,-1,5,7,9,-1,-1,-1,11,13,-1,15,17,19,21,23,-1,-1,25,-1,27,-1,-1,29,31,-1,-1,-1,-1,-1,-1,33,-1,-1],"loss_changes":[1.4297554E2,7.798107E0,0E0,3.6202383E-1,1.9300766E0,1.3281322E-1,0E0,0E0,0E0,4.4335365E-2,6.721358E-2,0E0,2.804643E-2,7.86297E-2,2.4047881E-2,1.6750306E-2,1.87152E-2,0E0,0E0,2.072826E-2,0E0,3.522396E-3,0E0,0E0,1.688092E-2,1.7522812E-2,0E0,0E0,0E0,0E0,0E0,0E0,2.5977924E-2,0E0,0E0],"parents":[2147483647,0,0,1,1,3,3,4,4,5,5,9,9,10,10,12,12,13,13,14,14,15,15,16,16,19,19,21,21,24,24,25,25,32,32],"right_children":[2,4,-1,6,8,10,-1,-1,-1,12,14,-1,16,18,20,22,24,-1,-1,26,-1,28,-1,-1,30,32,-1,-1,-1,-1,-1,-1,34,-1,-1],"split_conditions":[1E0,7.6302765E-3,3.6351243E-1,2.63E2,1.7895409E-6,7.209237E-8,9.805077E-3,8.596916E-2,1.811777E-2,4.3E1,6.706885E-9,-8.797357E-3,1E0,2.4893054E-6,1E0,2.3794346E-1,7.2185486E-8,-5.450816E-3,6.26008E-3,7E0,-8.611042E-4,1.3248185E-5,-2.457769E-3,-6.2740347E-3,1E0,1E0,-1.6542226E-3,-8.034152E-3,-4.1730236E-3,-3.8179706E-3,1.839552E-3,-8.077969E-3,9.968315E-6,2.251426E-4,-6.3522146E-3],"split_indices":[424,15,0,1,7,4,0,0,0,1,11,0,437,7,310,3,11,0,0,27,0,2,0,0,144,167,0,0,0,0,0,0,2,0,0],"split_type":[0,0,0,0,0,0,0,0,0,0,0,0,0,0,0,0,0,0,0,0,0,0,0,0,0,0,0,0,0,0,0,0,0,0,0],"sum_hessian":[3.83E2,3.78E2,5E0,3.68E2,1E1,3.62E2,6E0,5E0,5E0,3.02E2,6E1,2.37E2,6.5E1,1.1E1,4.9E1,4.9E1,1.6E1,5E0,6E0,4.3E1,6E0,4.4E1,5E0,6E0,1E1,3.7E1,6E0,3.9E1,5E0,5E0,5E0,2.3E1,1.4E1,5E0,9E0],"tree_param":{"num_deleted":"0","num_feature":"443","num_nodes":"35","size_leaf_vector":"1"}},{"base_weights":[4.3627312E-3,-6.796732E-2,3.4293628E-1,-8.93592E-2,7.0143834E-2,-9.431781E-2,1.3700315E-2,-1.0255277E-1,-5.0610296E-2,-1.04250856E-1,-1.1163546E-3,-7.300686E-2,3.5977814E-2,-1.0576623E-1,-5.468511E-2,-7.893954E-3,-3.637547E-2,-3.488163E-3,8.499359E-3,-1.0682918E-1,-4.110799E-3,-6.768307E-3,-7.508958E-4,-5.1668353E-2,1.3585926E-3,-8.119731E-3,-5.9718457E-3,-6.4144365E-2,-1.0459697E-3,-3.059478E-3,-6.125109E-3],"categories":[],"categories_nodes":[],"categories_segments":[],"categories_sizes":[],"default_left":[0,0,0,0,0,0,0,0,0,0,0,0,0,0,0,0,0,0,0,0,0,0,0,0,0,0,0,0,0,0,0],"id":4,"left_children":[1,3,-1,5,-1,7,-1,9,11,13,-1,15,17,19,21,-1,23,-1,-1,25,-1,-1,-1,27,-1,-1,-1,29,-1,-1,-1],"loss_changes":[1.2718915E2,8.217191E0,0E0,5.190165E-1,0E0,1.2654424E-1,0E0,4.415059E-2,1.18983194E-1,1.6824484E-2,0E0,5.286947E-2,8.82118E-2,9.905815E-3,1.6570333E-2,0E0,2.0935386E-2,0E0,0E0,2.458334E-3,0E0,0E0,0E0,8.047231E-3,0E0,0E0,0E0,2.397351E-3,0E0,0E0,0E0],"parents":[2147483647,0,0,1,1,3,3,5,5,7,7,8,8,9,9,11,11,12,12,13,13,14,14,16,16,19,19,23,23,27,27],"right_children":[2,4,-1,6,-1,8,-1,10,12,14,-1,16,18,20,22,-1,24,-1,-1,26,-1,-1,-1,28,-1,-1,-1,30,-1,-1,-1],"split_conditions":[5E0,1.2511011E-2,3.4293628E-1,1.6666667E-1,7.0143834E-2,2.445256E-1,1.3700315E-2,1.41E2,1E0,2E0,-1.1163546E-3,4.1E1,1E0,1E0,1.9502052E-8,-7.893954E-3,1E0,-3.488163E-3,8.499359E-3,1E0,-4.110799E-3,-6.768307E-3,-7.508958E-4,1E0,1.3585926E-3,-8.119731E-3,-5.9718457E-3,1E0,-1.0459697E-3,-3.059478E-3,-6.125109E-3],"split_indices":[422,15,0,423,0,3,0,1,138,191,0,1,127,128,5,0,144,0,0,228,0,0,0,278,0,0,0,65,0,0,0],"split_type":[0,0,0,0,0,0,0,0,0,0,0,0,0,0,0,0,0,0,0,0,0,0,0,0,0,0,0,0,0,0,0],"sum_hessian":[3.83E2,3.78E2,5E0,3.71E2,7E0,3.65E2,6E0,3.06E2,5.9E1,3E2,6E0,4.7E1,1.2E1,2.9E2,1E1,2.4E1,2.3E1,6E0,6E0,2.83E2,7E0,5E0,5E0,1.8E1,5E0,2.66E2,1.7E1,1.3E1,5E0,7E0,6E0],"tree_param":{"num_deleted":"0","num_feature":"443","num_nodes":"31","size_leaf_vector":"1"}},{"base_weights":[5.046432E-3,-6.275037E-2,3.2150277E-1,-8.275306E-2,6.564139E-2,-8.735756E-2,1.5951073E-2,-9.579416E-2,-4.6686027E-2,-9.839978E-2,-4.2906012E-2,-5.676537E-2,4.6416293E-3,-9.974524E-2,-2.2604961E-3,-5.309614E-3,2.2984603E-4,-6.674673E-2,3.3143468E-3,-7.6206154E-3,-6.677681E-2,-7.488883E-2,-7.163041E-4,-2.8769171E-3,-6.8199476E-3,-8.3780676E-2,-5.186886E-2,-6.7306273E-3,-3.149937E-3,-5.6204945E-3,-1.457273E-3],"categories":[],"categories_nodes":[],"categories_segments":[],"categories_sizes":[],"default_left":[0,0,0,0,0,0,0,0,0,0,0,0,0,0,0,0,0,0,0,0,0,0,0,0,0,0,0,0,0,0,0],"id":5,"left_children":[1,3,-1,5,-1,7,-1,9,11,13,15,17,-1,19,-1,-1,-1,21,-1,-1,23,25,-1,-1,-1,27,29,-1,-1,-1,-1],"loss_changes":[1.11737526E2,7.183187E0,0E0,5.246203E-1,0E0,1.21456385E-1,0E0,3.7533045E-2,7.464641E-2,2.3443699E-2,2.0730037E-2,6.34107E-2,0E0,1.053524E-2,0E0,0E0,0E0,2.4898052E-2,0E0,0E0,8.868173E-3,5.4795146E-3,0E0,0E0,0E0,4.449919E-3,1.0518167E-2,0E0,0E0,0E0,0E0],"parents":[2147483647,0,0,1,1,3,3,5,5,7,7,8,8,9,9,10,10,11,11,13,13,17,17,20,20,21,21,25,25,26,26],"right_children":[2,4,-1,6,-1,8,-1,10,12,14,16,18,-1,20,-1,-1,-1,22,-1,-1,24,26,-1,-1,-1,28,30,-1,-1,-1,-1],"split_conditions":[5E0,5E0,3.2150277E-1,3E0,6.564139E-2,6.8534916E-8,1.5951073E-2,9.2E1,1.982874E-8,1E0,1E0,1E0,4.6416293E-3,1E0,-2.2604961E-3,-5.309614E-3,2.2984603E-4,7E0,3.3143468E-3,-7.6206154E-3,4.38E2,1E0,-7.163041E-4,-2.8769171E-3,-6.8199476E-3,1E0,4.1143067E-2,-6.7306273E-3,-3.149937E-3,-5.6204945E-3,-1.457273E-3],"split_indices":[422,110,0,131,0,4,0,1,14,253,38,213,0,220,0,0,0,27,0,0,0,167,0,0,0,154,6,0,0,0,0],"split_type":[0,0,0,0,0,0,0,0,0,0,0,0,0,0,0,0,0,0,0,0,0,0,0,0,0,0,0,0,0,0,0],"sum_hessian":[3.83E2,3.78E2,5E0,3.71E2,7E0,3.66E2,5E0,3.02E2,6.4E1,2.87E2,1.5E1,5.9E1,5E0,2.81E2,6E0,9E0,6E0,5.4E1,5E0,2.64E2,1.7E1,4.7E1,7E0,9E0,8E0,3.2E1,1.5E1,2.7E1,5E0,8E0,7E0],"tree_param":{"num_deleted":"0","num_feature":"443","num_nodes":"31","size_leaf_vector":"1"}},{"base_weights":[5.628155E-3,-6.0256816E-2,3.1248182E-1,-8.116045E-2,4.524153E-1,-8.876624E-2,-4.255847E-2,3.0340957E-3,5.419206E-2,-9.108777E-2,-4.4215232E-2,3.946319E-3,-5.36955E-2,-9.2325754E-2,-2.1151786E-3,-1.0173242E-3,-5.7751476E-3,-6.455684E-2,1.4656598E-3,-9.333402E-2,-2.9536316E-3,-7.1704164E-2,-8.5720926E-4,-7.0739426E-3,-6.81594E-2,-8.346005E-2,-4.4195842E-2,-3.0759217E-3,-5.901316E-3,-6.681018E-3,-3.5301948E-3,-5.2457945E-3,-3.5831E-4],"categories":[],"categories_nodes":[],"categories_segments":[],"categories_sizes":[],"default_left":[0,0,0,0,0,0,0,0,0,0,0,0,0,0,0,0,0,0,0,0,0,0,0,0,0,0,0,0,0,0,0,0,0],"id":6,"left_children":[1,3,-1,5,7,9,11,-1,-1,13,15,-1,17,19,-1,-1,-1,21,-1,23,-1,25,-1,-1,27,29,31,-1,-1,-1,-1,-1,-1],"loss_changes":[1.05518486E2,4.0983505E0,0E0,1.03385925E-1,1.6401088E0,2.7414322E-2,6.8544015E-2,0E0,0E0,1.9816875E-2,1.6039558E-2,0E0,4.5807257E-2,1.137805E-2,0E0,0E0,0E0,1.7786667E-2,0E0,4.1675568E-4,0E0,1.02169365E-2,0E0,0E0,7.73035E-4,1.7382354E-3,1.4890062E-2,0E0,0E0,0E0,0E0,0E0,0E0],"parents":[2147483647,0,0,1,1,3,3,4,4,5,5,6,6,9,9,10,10,12,12,13,13,17,17,19,19,21,21,24,24,25,25,26,26],"right_children":[2,4,-1,6,8,10,12,-1,-1,14,16,-1,18,20,-1,-1,-1,22,-1,24,-1,26,-1,-1,28,30,32,-1,-1,-1,-1,-1,-1],"split_conditions":[1E0,1.1111111E-1,3.1248182E-1,6.8534916E-8,1.1576535E-7,9.2E1,7.368276E-8,3.0340957E-3,5.419206E-2,1E0,4.6159207E-6,3.946319E-3,1E0,1E0,-2.1151786E-3,-1.0173242E-3,-5.7751476E-3,7E0,1.4656598E-3,1E0,-2.9536316E-3,1E0,-8.5720926E-4,-7.0739426E-3,7.425047E-6,7.1E1,4.1143067E-2,-3.0759217E-3,-5.901316E-3,-6.681018E-3,-3.5301948E-3,-5.2457945E-3,-3.5831E-4],"split_indices":[424,412,0,4,16,1,4,0,0,253,7,0,159,174,0,0,0,27,0,228,0,167,0,0,2,1,6,0,0,0,0,0,0],"split_type":[0,0,0,0,0,0,0,0,0,0,0,0,0,0,0,0,0,0,0,0,0,0,0,0,0,0,0,0,0,0,0,0,0],"sum_hessian":[3.83E2,3.78E2,5E0,3.64E2,1.4E1,3.03E2,6.1E1,6E0,8E0,2.87E2,1.6E1,6E0,5.5E1,2.81E2,6E0,9E0,7E0,4.8E1,7E0,2.75E2,6E0,4.2E1,6E0,2.62E2,1.3E1,2.8E1,1.4E1,5E0,8E0,2.3E1,5E0,8E0,6E0],"tree_param":{"num_deleted":"0","num_feature":"443","num_nodes":"33","size_leaf_vector":"1"}},{"base_weights":[6.066809E-3,-5.5689923E-2,2.929517E-1,-7.402236E-2,4.661328E-1,-7.678785E-2,5.9379446E-3,-1.1868166E-3,5.770005E-2,-8.220986E-2,-4.5127034E-2,-8.3860494E-2,-4.1674566E-2,-5.5863135E-2,3.8896257E-3,-8.485237E-2,-5.0628457E-2,-5.536751E-3,-6.2513E-4,-6.7286395E-2,2.7393078E-4,-6.4795013E-3,-4.907403E-3,-5.3049815E-3,-1.6564315E-3,-5.5855187E-3,-8.813249E-4],"categories":[],"categories_nodes":[],"categories_segments":[],"categories_sizes":[],"default_left":[0,0,0,0,0,0,0,0,0,0,0,0,0,0,0,0,0,0,0,0,0,0,0,0,0,0,0],"id":7,"left_children":[1,3,-1,5,7,9,-1,-1,-1,11,13,15,17,19,-1,21,23,-1,-1,25,-1,-1,-1,-1,-1,-1,-1],"loss_changes":[9.2703354E1,3.6601257E0,0E0,1.6156244E-1,1.9118631E0,5.8261156E-2,0E0,0E0,0E0,1.7046452E-2,6.0167596E-2,5.394697E-3,1.4390215E-2,3.423883E-2,0E0,2.846241E-3,4.7500487E-3,0E0,0E0,1.5888885E-2,0E0,0E0,0E0,0E0,0E0,0E0,0E0],"parents":[2147483647,0,0,1,1,3,3,4,4,5,5,9,9,10,10,11,11,12,12,13,13,15,15,16,16,19,19],"right_children":[2,4,-1,6,8,10,-1,-1,-1,12,14,16,18,20,-1,22,24,-1,-1,26,-1,-1,-1,-1,-1,-1,-1],"split_conditions":[1E0,5.192493E-3,2.929517E-1,2.63E2,5.8E1,1E0,5.9379446E-3,-1.1868166E-3,5.770005E-2,1E0,3.504853E-1,1E0,1E0,8E0,3.8896257E-3,6.9E1,2.2664773E-8,-5.536751E-3,-6.2513E-4,1.1E1,2.7393078E-4,-6.4795013E-3,-4.907403E-3,-5.3049815E-3,-1.6564315E-3,-5.5855187E-3,-8.813249E-4],"split_indices":[424,15,0,1,1,19,0,0,0,67,3,310,127,27,0,1,5,0,0,39,0,0,0,0,0,0,0],"split_type":[0,0,0,0,0,0,0,0,0,0,0,0,0,0,0,0,0,0,0,0,0,0,0,0,0,0,0],"sum_hessian":[3.83E2,3.78E2,5E0,3.66E2,1.2E1,3.6E2,6E0,5E0,7E0,3.06E2,5.4E1,2.93E2,1.3E1,4.9E1,5E0,2.83E2,1E1,6E0,7E0,4.1E1,8E0,2.59E2,2.4E1,5E0,5E0,3.6E1,5E0],"tree_param":{"num_deleted":"0","num_feature":"443","num_nodes":"27","size_leaf_vector":"1"}},{"base_weights":[6.467502E-3,-5.1905442E-2,2.7694604E-1,-6.899007E-2,3.9844298E-1,-7.229043E-2,2.6188226E-2,-1.8407425E-3,4.7712177E-2,-8.008976E-2,-5.5168226E-2,-3.8600827E-3,9.4023645E-3,-8.083759E-2,-3.6153367E-3,-6.555156E-2,-3.508202E-2,-6.1088246E-3,-3.6982682E-3,-7.1556844E-2,-2.8561141E-2,-4.268592E-2,5.9618923E-4,-5.683924E-3,-1.4064211E-3,-1.5894738E-4,-4.0987325E-3,-2.2536248E-2,-5.667136E-2,1.4324735E-5,-3.3965528E-3,-5.1409355E-3,-1.8619928E-3],"categories":[],"categories_nodes":[],"categories_segments":[],"categories_sizes":[],"default_left":[0,0,0,0,0,0,0,0,0,0,0,0,0,0,0,0,0,0,0,0,0,0,0,0,0,0,0,0,0,0,0,0,0],"id":8,"left_children":[1,3,-1,5,7,9,11,-1,-1,13,15,-1,-1,17,-1,19,21,-1,-1,23,25,27,-1,-1,-1,-1,-1,29,31,-1,-1,-1,-1],"loss_changes":[8.281742E1,2.9435272E0,0E0,1.1686206E-1,1.4233418E0,4.28555E-2,1.0657382E-1,0E0,0E0,1.8497705E-3,2.1476328E-2,0E0,0E0,5.0890446E-4,0E0,1.4394492E-2,1.3754714E-2,0E0,0E0,1.26467645E-2,8.162156E-3,8.585915E-3,0E0,0E0,0E0,0E0,0E0,8.281773E-3,5.8610216E-3,0E0,0E0,0E0,0E0],"parents":[2147483647,0,0,1,1,3,3,4,4,5,5,6,6,9,9,10,10,13,13,15,15,16,16,19,19,20,20,21,21,27,27,28,28],"right_children":[2,4,-1,6,8,10,12,-1,-1,14,16,-1,-1,18,-1,20,22,-1,-1,24,26,28,-1,-1,-1,-1,-1,30,32,-1,-1,-1,-1],"split_conditions":[1E1,5.192493E-3,2.7694604E-1,3.6274862E-1,2E0,3.9E1,1E0,-1.8407425E-3,4.7712177E-2,1E0,2.2331136E-1,-3.8600827E-3,9.4023645E-3,1E0,-3.6153367E-3,1E0,1E0,-6.1088246E-3,-3.6982682E-3,4.9581344E-4,2E0,1.0227697E-5,5.9618923E-4,-5.683924E-3,-1.4064211E-3,-1.5894738E-4,-4.0987325E-3,1E0,7E0,1.4324735E-5,-3.3965528E-3,-5.1409355E-3,-1.8619928E-3],"split_indices":[425,15,0,3,127,1,121,0,0,228,3,0,0,101,0,220,420,0,0,15,135,2,0,0,0,0,0,210,61,0,0,0,0],"split_type":[0,0,0,0,0,0,0,0,0,0,0,0,0,0,0,0,0,0,0,0,0,0,0,0,0,0,0,0,0,0,0,0,0],"sum_hessian":[3.83E2,3.78E2,5E0,3.65E2,1.3E1,3.53E2,1.2E1,5E0,8E0,2.4E2,1.13E2,7E0,5E0,2.33E2,7E0,7.3E1,4E1,2.27E2,6E0,6.2E1,1.1E1,3.4E1,6E0,5.7E1,5E0,6E0,5E0,1.5E1,1.9E1,8E0,7E0,1.3E1,6E0],"tree_param":{"num_deleted":"0","num_feature":"443","num_nodes":"33","size_leaf_vector":"1"}},{"base_weights":[6.7475466E-3,-4.942705E-2,2.6654887E-1,-6.420975E-2,4.0802816E-1,-6.5976985E-2,4.0057013E-3,6.5110223E-3,4.6879888E-2,-7.0223205E-2,-3.2744132E-2,-7.422615E-2,-5.452799E-2,-5.336845E-2,4.811873E-3,-7.308233E-2,-8.184987E-3,-6.545628E-2,-2.6432078E-2,-5.270507E-3,-1.3702371E-2,-7.3620364E-2,-2.9333557E-3,-5.8845244E-3,-3.870153E-2,2.3515886E-3,-5.1637016E-2,6.9587765E-4,-2.8672128E-3,-7.410148E-2,-3.1699755E-3,-4.334927E-3,-1.3232722E-3,-4.566163E-3,-2.071669E-3,-5.623315E-3,-3.8515672E-3],"categories":[],"categories_nodes":[],"categories_segments":[],"categories_sizes":[],"default_left":[0,0,0,0,0,0,0,0,0,0,0,0,0,0,0,0,0,0,0,0,0,0,0,0,0,0,0,0,0,0,0,0,0,0,0,0,0],"id":9,"left_children":[1,3,-1,5,7,9,-1,-1,-1,11,13,15,17,19,-1,21,-1,23,25,-1,27,29,-1,-1,31,-1,33,-1,-1,35,-1,-1,-1,-1,-1,-1,-1],"loss_changes":[7.6693275E1,2.5891588E0,0E0,8.0016136E-2,7.82321E-1,4.8925042E-2,0E0,0E0,0E0,1.6120195E-2,8.936153E-2,2.1258593E-3,1.9455642E-2,2.3177035E-2,0E0,1.6534328E-3,0E0,1.4011532E-2,3.2205716E-2,0E0,7.118528E-3,5.335808E-4,0E0,0E0,6.2189717E-3,0E0,1.6486011E-3,0E0,0E0,8.9251995E-4,0E0,0E0,0E0,0E0,0E0,0E0,0E0],"parents":[2147483647,0,0,1,1,3,3,4,4,5,5,9,9,10,10,11,11,12,12,13,13,15,15,17,17,18,18,20,20,21,21,24,24,26,26,29,29],"right_children":[2,4,-1,6,8,10,-1,-1,-1,12,14,16,18,20,-1,22,-1,24,26,-1,28,30,-1,-1,32,-1,34,-1,-1,36,-1,-1,-1,-1,-1,-1,-1],"split_conditions":[2.7888222E-2,3E0,2.6654887E-1,3E0,4E0,5.8785368E-8,4.0057013E-3,6.5110223E-3,4.6879888E-2,3E0,1E0,1.2995231E-7,1E0,1E0,4.811873E-3,1E0,-8.184987E-3,1E0,1E0,-5.270507E-3,1E0,1E0,-2.9333557E-3,-5.8845244E-3,1E0,2.3515886E-3,1E0,6.9587765E-4,-2.8672128E-3,1E0,-3.1699755E-3,-4.334927E-3,-1.3232722E-3,-4.566163E-3,-2.071669E-3,-5.623315E-3,-3.8515672E-3],"split_indices":[9,131,0,120,110,5,0,0,0,23,138,16,437,19,0,131,0,278,22,0,210,148,0,0,127,0,240,0,0,228,0,0,0,0,0,0,0],"split_type":[0,0,0,0,0,0,0,0,0,0,0,0,0,0,0,0,0,0,0,0,0,0,0,0,0,0,0,0,0,0,0,0,0,0,0,0,0],"sum_hessian":[3.83E2,3.78E2,5E0,3.67E2,1.1E1,3.62E2,5E0,5E0,6E0,3.2E2,4.2E1,2.52E2,6.8E1,3.5E1,7E0,2.47E2,5E0,4.8E1,2E1,2.4E1,1.1E1,2.42E2,5E0,3.1E1,1.7E1,6E0,1.4E1,6E0,5E0,2.37E2,5E0,8E0,9E0,9E0,5E0,2.26E2,1.1E1],"tree_param":{"num_deleted":"0","num_feature":"443","num_nodes":"37","size_leaf_vector":"1"}},{"base_weights":[6.9751353E-3,-4.647723E-2,2.5366652E-1,-5.83472E-2,3.8346455E-2,-6.1057005E-2,6.875427E-3,-9.174365E-3,-6.418849E-2,-4.9774732E-2,6.3702823E-3,-6.541653E-2,1.2073863E-3,-4.773801E-3,-1.7130953E-3,-7.065377E-2,-5.3351745E-2,-6.8962984E-2,-7.894564E-3,-5.564611E-2,-9.4692165E-4,-5.2656024E-3,-5.170342E-2,-6.131544E-2,-3.7837014E-2,-4.6063573E-3,-1.5313945E-3,-4.9710046E-3,-2.4404656E-3,-3.4971454E-3,-4.542723E-4],"categories":[],"categories_nodes":[],"categories_segments":[],"categories_sizes":[],"default_left":[0,0,0,0,0,0,0,0,0,0,0,0,0,0,0,0,0,0,0,0,0,0,0,0,0,0,0,0,0,0,0],"id":10,"left_children":[1,3,-1,5,-1,7,-1,9,11,13,-1,15,-1,-1,-1,17,19,21,-1,23,-1,-1,25,27,29,-1,-1,-1,-1,-1,-1],"loss_changes":[6.9436485E1,2.5390518E0,0E0,1.5682411E-1,0E0,5.8874965E-2,0E0,8.8288836E-2,3.5068512E-2,4.525773E-3,0E0,1.7713785E-2,0E0,0E0,0E0,6.43301E-3,9.295583E-3,1.2265444E-3,0E0,7.8775585E-3,0E0,0E0,4.520446E-3,8.557886E-3,7.261295E-3,0E0,0E0,0E0,0E0,0E0,0E0],"parents":[2147483647,0,0,1,1,3,3,5,5,7,7,8,8,9,9,11,11,15,15,16,16,17,17,19,19,22,22,23,23,24,24],"right_children":[2,4,-1,6,-1,8,-1,10,12,14,-1,16,-1,-1,-1,18,20,22,-1,24,-1,-1,26,28,30,-1,-1,-1,-1,-1,-1],"split_conditions":[5E0,1.2511011E-2,2.5366652E-1,4E0,3.8346455E-2,1.35E2,6.875427E-3,2.522621E-6,1.8E1,8.888763E-8,6.3702823E-3,3.7E1,1.2073863E-3,-4.773801E-3,-1.7130953E-3,1.8796765E-8,1E0,2E0,-7.894564E-3,9.22775E-2,-9.4692165E-4,-5.2656024E-3,6.3761267E-6,1E0,3.836907E-8,-4.6063573E-3,-1.5313945E-3,-4.9710046E-3,-2.4404656E-3,-3.4971454E-3,-4.542723E-4],"split_indices":[422,15,0,44,0,0,0,7,27,4,0,1,0,0,0,8,128,22,0,6,0,0,2,235,4,0,0,0,0,0,0],"split_type":[0,0,0,0,0,0,0,0,0,0,0,0,0,0,0,0,0,0,0,0,0,0,0,0,0,0,0,0,0,0,0],"sum_hessian":[3.83E2,3.78E2,5E0,3.71E2,7E0,3.65E2,6E0,2.1E1,3.44E2,1.5E1,6E0,3.39E2,5E0,9E0,6E0,2.33E2,1.06E2,2.25E2,8E0,1E2,6E0,2.07E2,1.8E1,7.4E1,2.6E1,1.3E1,5E0,6.2E1,1.2E1,2E1,6E0],"tree_param":{"num_deleted":"0","num_feature":"443","num_nodes":"31","size_leaf_vector":"1"}},{"base_weights":[7.150884E-3,-4.3952502E-2,2.4254924E-1,-5.504854E-2,2.7824713E-2,-5.7633612E-2,5.1847687E-3,-8.491588E-3,-6.0626276E-2,-4.6447057E-2,5.960764E-3,-6.1611194E-2,3.598162E-4,-4.4515696E-3,-1.6029676E-3,-6.0265776E-2,-9.434183E-3,-6.1170615E-2,-7.137543E-4,-6.0001753E-2,-7.939925E-3,-4.561179E-3,-1.1188489E-3],"categories":[],"categories_nodes":[],"categories_segments":[],"categories_sizes":[],"default_left":[0,0,0,0,0,0,0,0,0,0,0,0,0,0,0,0,0,0,0,0,0,0,0],"id":11,"left_children":[1,3,-1,5,-1,7,-1,9,11,13,-1,15,-1,-1,-1,17,-1,19,-1,21,-1,-1,-1],"loss_changes":[6.346466E1,1.765447E0,0E0,1.2275851E-1,0E0,5.2869916E-2,0E0,7.7146895E-2,2.2333026E-2,3.9096214E-3,0E0,2.1517873E-2,0E0,0E0,0E0,1.46631E-2,0E0,1.0679007E-2,0E0,1.0835648E-2,0E0,0E0,0E0],"parents":[2147483647,0,0,1,1,3,3,5,5,7,7,8,8,9,9,11,11,15,15,17,17,19,19],"right_children":[2,4,-1,6,-1,8,-1,10,12,14,-1,16,-1,-1,-1,18,-1,20,-1,22,-1,-1,-1],"split_conditions":[1E0,3E0,2.4254924E-1,2E0,2.7824713E-2,1.35E2,5.1847687E-3,2.522621E-6,1E0,8.888763E-8,5.960764E-3,3.728491E-3,3.598162E-4,-4.4515696E-3,-1.6029676E-3,2E0,-9.434183E-3,3.8134232E-3,-7.137543E-4,1.6E1,-7.939925E-3,-4.561179E-3,-1.1188489E-3],"split_indices":[424,131,0,38,0,0,0,7,169,4,0,15,0,0,0,51,0,9,0,27,0,0,0],"split_type":[0,0,0,0,0,0,0,0,0,0,0,0,0,0,0,0,0,0,0,0,0,0,0],"sum_hessian":[3.83E2,3.78E2,5E0,3.69E2,9E0,3.62E2,7E0,2.1E1,3.41E2,1.5E1,6E0,3.36E2,5E0,9E0,6E0,3.31E2,5E0,3.25E2,6E0,3.19E2,6E0,3.13E2,6E0],"tree_param":{"num_deleted":"0","num_feature":"443","num_nodes":"23","size_leaf_vector":"1"}},{"base_weights":[7.270965E-3,-4.183744E-2,2.3310553E-1,-5.0708488E-2,2.8192198E-2,7.174195E-3,-5.525923E-2,-4.4127163E-2,1.5197528E-2,-5.683115E-2,-2.363603E-3,-4.8665465E-3,2.1817318E-4,-6.3619755E-2,-5.091431E-2,1.7174162E-3,-2.0424118E-3,-4.617069E-3,-7.7593494E-3,-4.913217E-2,-7.169681E-3,-5.0534215E-2,-9.6350367E-4,-5.40124E-2,-3.4828268E-2,-4.161264E-3,-2.2115035E-3,-3.1898294E-3,-6.529474E-4],"categories":[],"categories_nodes":[],"categories_segments":[],"categories_sizes":[],"default_left":[0,0,0,0,0,0,0,0,0,0,0,0,0,0,0,0,0,0,0,0,0,0,0,0,0,0,0,0,0],"id":12,"left_children":[1,3,-1,5,-1,7,9,11,-1,13,15,-1,-1,17,19,-1,-1,-1,-1,21,-1,23,-1,25,27,-1,-1,-1,-1],"loss_changes":[5.8603813E1,1.4235338E0,0E0,9.838474E-2,0E0,2.8970712E-1,2.8551579E-2,2.2647697E-2,0E0,1.0216832E-2,7.5342427E-3,0E0,0E0,6.098151E-3,9.95481E-3,0E0,0E0,0E0,0E0,8.457214E-3,0E0,7.514864E-3,0E0,3.3791065E-3,6.471023E-3,0E0,0E0,0E0,0E0],"parents":[2147483647,0,0,1,1,3,3,5,5,6,6,7,7,9,9,10,10,13,13,14,14,19,19,21,21,23,23,24,24],"right_children":[2,4,-1,6,-1,8,10,12,-1,14,16,-1,-1,18,20,-1,-1,-1,-1,22,-1,24,-1,26,28,-1,-1,-1,-1],"split_conditions":[1E1,2E0,2.3310553E-1,1.45E2,2.8192198E-2,2E0,1.6E1,4.6E1,1.5197528E-2,6.222881E-6,1E0,-4.8665465E-3,2.1817318E-4,7.923897E-9,6.526266E-7,1.7174162E-3,-2.0424118E-3,-4.617069E-3,-7.7593494E-3,1E0,-7.169681E-3,1E0,-9.6350367E-4,1E0,2E0,-4.161264E-3,-2.2115035E-3,-3.1898294E-3,-6.529474E-4],"split_indices":[425,427,0,0,0,127,27,1,0,2,96,0,0,14,10,0,0,0,0,116,0,19,0,310,34,0,0,0,0],"split_type":[0,0,0,0,0,0,0,0,0,0,0,0,0,0,0,0,0,0,0,0,0,0,0,0,0,0,0,0,0],"sum_hessian":[3.83E2,3.78E2,5E0,3.71E2,7E0,2.7E1,3.44E2,2.2E1,5E0,3.34E2,1E1,1.5E1,7E0,1.51E2,1.83E2,5E0,5E0,1.46E2,5E0,1.78E2,5E0,1.71E2,7E0,1.38E2,3.3E1,1.29E2,9E0,2.5E1,8E0],"tree_param":{"num_deleted":"0","num_feature":"443","num_nodes":"29","size_leaf_vector":"1"}},{"base_weights":[7.352717E-3,-3.993655E-2,2.2449245E-1,-4.9123365E-2,2.27977E-2,-4.668927E-2,-1.4175787E-2,-4.8758894E-2,3.0445228E-3,-1.0233787E-2,-5.101488E-2,-4.349017E-2,6.0116653E-3,-5.4005735E-2,-2.9309856E-2,-3.9093867E-3,-1.5308253E-3,-5.2867528E-2,-7.5013554E-3,-4.0548574E-2,2.5711441E-3,-5.359149E-2,-1.19572E-3,-3.6466594E-3,6.951337E-4,-4.152891E-3,-3.1511008E-3],"categories":[],"categories_nodes":[],"categories_segments":[],"categories_sizes":[],"default_left":[0,0,0,0,0,0,0,0,0,0,0,0,0,0,0,0,0,0,0,0,0,0,0,0,0,0,0],"id":13,"left_children":[1,3,-1,5,-1,7,-1,9,-1,11,13,15,-1,17,19,-1,-1,21,-1,23,-1,25,-1,-1,-1,-1,-1],"loss_changes":[5.4340366E1,1.2123449E0,0E0,1.171599E-1,0E0,6.791401E-2,0E0,3.0505598E-2,0E0,6.6612445E-2,2.0293951E-2,2.1246858E-3,0E0,1.0161936E-2,3.212175E-2,0E0,0E0,6.8978667E-3,0E0,1.5332054E-2,0E0,3.5271645E-3,0E0,0E0,0E0,0E0,0E0],"parents":[2147483647,0,0,1,1,3,3,5,5,7,7,9,9,10,10,11,11,13,13,14,14,17,17,19,19,21,21],"right_children":[2,4,-1,6,-1,8,-1,10,-1,12,14,16,-1,18,20,-1,-1,22,-1,24,-1,26,-1,-1,-1,-1,-1],"split_conditions":[2.7888222E-2,4E0,2.2449245E-1,2E0,2.27977E-2,2E0,-1.4175787E-2,1.35E2,3.0445228E-3,1E0,1E0,4E1,6.0116653E-3,3.2472643E-3,2E0,-3.9093867E-3,-1.5308253E-3,1.9614856E-5,-7.5013554E-3,6.18E2,2.5711441E-3,1E0,-1.19572E-3,-3.6466594E-3,6.951337E-4,-4.152891E-3,-3.1511008E-3],"split_indices":[9,110,0,425,0,24,0,0,0,34,437,1,0,15,191,0,0,2,0,0,0,134,0,0,0,0,0],"split_type":[0,0,0,0,0,0,0,0,0,0,0,0,0,0,0,0,0,0,0,0,0,0,0,0,0,0,0],"sum_hessian":[3.83E2,3.78E2,5E0,3.69E2,9E0,3.64E2,5E0,3.56E2,8E0,2E1,3.36E2,1.5E1,5E0,2.94E2,4.2E1,1E1,5E0,2.89E2,5E0,3.6E1,6E0,2.83E2,6E0,3.1E1,5E0,2.42E2,4.1E1],"tree_param":{"num_deleted":"0","num_feature":"443","num_nodes":"27","size_leaf_vector":"1"}},{"base_weights":[7.37509E-3,-3.861007E-2,2.1831565E-1,-4.6329133E-2,2.438645E-2,-4.4063363E-2,-1.32898E-2,-4.622768E-2,5.538624E-3,-5.018085E-2,-2.426374E-2,-4.850577E-2,-9.417862E-3,-3.2118324E-2,2.7321565E-3,-4.9737386E-2,-1.1626216E-2,-4.020433E-2,9.4028004E-4,-5.0825976E-2,-3.1535618E-2,-3.3238356E-3,1.7252307E-3,-4.448642E-2,-5.858307E-4,3.2248518E-3,-3.0955633E-3,-3.8617577E-3,-1.9273213E-3,-3.2910616E-3,1.8943443E-4,-3.7452374E-3,-2.2068669E-3],"categories":[],"categories_nodes":[],"categories_segments":[],"categories_sizes":[],"default_left":[0,0,0,0,0,0,0,0,0,0,0,0,0,0,0,0,0,0,0,0,0,0,0,0,0,0,0,0,0,0,0,0,0],"id":14,"left_children":[1,3,-1,5,-1,7,-1,9,-1,11,13,15,-1,17,-1,19,21,23,25,27,29,-1,-1,31,-1,-1,-1,-1,-1,-1,-1,-1,-1],"loss_changes":[5.1383274E1,1.0792613E0,0E0,1.02496564E-1,0E0,9.707165E-2,0E0,3.0126989E-2,0E0,3.242618E-2,2.8342739E-2,1.3048172E-2,0E0,1.3670716E-2,0E0,4.1432977E-3,1.3472399E-2,5.3396523E-3,2.1304602E-2,3.2160878E-3,8.100238E-3,0E0,0E0,1.4857426E-3,0E0,0E0,0E0,0E0,0E0,0E0,0E0,0E0,0E0],"parents":[2147483647,0,0,1,1,3,3,5,5,7,7,9,9,10,10,11,11,13,13,15,15,16,16,17,17,18,18,19,19,20,20,23,23],"right_children":[2,4,-1,6,-1,8,-1,10,-1,12,14,16,-1,18,-1,20,22,24,26,28,30,-1,-1,32,-1,-1,-1,-1,-1,-1,-1,-1,-1],"split_conditions":[3E0,1.2511011E-2,2.1831565E-1,2E0,2.438645E-2,5.192493E-3,-1.32898E-2,1E0,5.538624E-3,1.3052532E-7,3.504853E-1,1E0,-9.417862E-3,8E0,2.7321565E-3,1E0,1E0,1E1,1E0,2.4E1,2.107646E-1,-3.3238356E-3,1.7252307E-3,1E0,-5.858307E-4,3.2248518E-3,-3.0955633E-3,-3.8617577E-3,-1.9273213E-3,-3.2910616E-3,1.8943443E-4,-3.7452374E-3,-2.2068669E-3],"split_indices":[106,15,0,425,0,15,0,19,0,8,3,67,0,27,0,105,127,39,258,419,3,0,0,134,0,0,0,0,0,0,0,0,0],"split_type":[0,0,0,0,0,0,0,0,0,0,0,0,0,0,0,0,0,0,0,0,0,0,0,0,0,0,0,0,0,0,0,0,0],"sum_hessian":[3.83E2,3.78E2,5E0,3.71E2,7E0,3.66E2,5E0,3.6E2,6E0,3.04E2,5.6E1,2.99E2,5E0,5E1,6E0,2.89E2,1E1,4E1,1E1,2.71E2,1.8E1,5E0,5E0,3.5E1,5E0,5E0,5E0,2.63E2,8E0,1.3E1,5E0,2.4E1,1.1E1],"tree_param":{"num_deleted":"0","num_feature":"443","num_nodes":"33","size_leaf_vector":"1"}},{"base_weights":[7.372392E-3,-3.6343127E-2,2.0756306E-1,-4.1726056E-2,1.6387945E-2,6.0393973E-3,-4.548173E-2,-3.92357E-2,1.3394054E-2,-4.388295E-2,-9.637409E-3,-4.0869974E-3,-2.8620366E-4,-4.5052674E-2,1.3648847E-3,-5.2615073E-2,-4.033671E-2,-3.7584377E-3,-6.2213303E-3,-4.3019947E-2,-2.7059423E-2,-4.4378404E-2,-7.0908514E-4,-3.3018798E-2,7.670284E-4,-3.4520398E-3,-2.0414817E-3,-2.8934607E-3,-1.1743857E-4],"categories":[],"categories_nodes":[],"categories_segments":[],"categories_sizes":[],"default_left":[0,0,0,0,0,0,0,0,0,0,0,0,0,0,0,0,0,0,0,0,0,0,0,0,0,0,0,0,0],"id":15,"left_children":[1,3,-1,5,-1,7,9,11,-1,13,-1,-1,-1,15,-1,17,19,-1,-1,21,23,25,-1,27,-1,-1,-1,-1,-1],"loss_changes":[4.6434307E1,5.2904254E-1,0E0,6.700826E-2,0E0,2.2574656E-1,4.0151417E-2,1.2221683E-2,0E0,2.5510013E-2,0E0,0E0,0E0,9.789467E-3,0E0,5.3328574E-3,6.317377E-3,0E0,0E0,7.46876E-3,8.781442E-3,3.4434795E-3,0E0,5.71128E-3,0E0,0E0,0E0,0E0,0E0],"parents":[2147483647,0,0,1,1,3,3,5,5,6,6,7,7,9,9,13,13,15,15,16,16,19,19,20,20,21,21,23,23],"right_children":[2,4,-1,6,-1,8,10,12,-1,14,-1,-1,-1,16,-1,18,20,-1,-1,22,24,26,-1,28,-1,-1,-1,-1,-1],"split_conditions":[1E1,2E0,2.0756306E-1,1.45E2,1.6387945E-2,2E0,7.182689E-7,4.6E1,1.3394054E-2,1.8E1,-9.637409E-3,-4.0869974E-3,-2.8620366E-4,5.8102437E-6,1.3648847E-3,2E0,1E0,-3.7584377E-3,-6.2213303E-3,1E0,7.5439897E-7,1E0,-7.0908514E-4,2E0,7.670284E-4,-3.4520398E-3,-2.0414817E-3,-2.8934607E-3,-1.1743857E-4],"split_indices":[425,427,0,0,0,127,10,1,0,27,0,0,0,2,0,61,19,0,0,116,13,105,0,36,0,0,0,0,0],"split_type":[0,0,0,0,0,0,0,0,0,0,0,0,0,0,0,0,0,0,0,0,0,0,0,0,0,0,0,0,0],"sum_hessian":[3.83E2,3.78E2,5E0,3.71E2,7E0,2.7E1,3.44E2,2.2E1,5E0,3.39E2,5E0,1.5E1,7E0,3.33E2,6E0,1.24E2,2.09E2,1.17E2,7E0,1.72E2,3.7E1,1.65E2,7E0,3.2E1,5E0,1.49E2,1.6E1,2.7E1,5E0],"tree_param":{"num_deleted":"0","num_feature":"443","num_nodes":"29","size_leaf_vector":"1"}},{"base_weights":[7.3566325E-3,-3.536701E-2,2.0286304E-1,-4.1857526E-2,2.0314714E-2,-3.8564324E-2,-1.7723646E-2,-4.045026E-2,4.815393E-3,-3.8988028E-2,-9.03507E-3,-4.220015E-2,-2.0242453E-2,-4.332246E-2,-1.3831556E-2,-2.7294219E-2,3.0540535E-3,-4.212136E-2,-6.773797E-2,-3.068705E-3,1.142167E-3,-3.4692653E-2,7.0818444E-4,-3.2136294E-3,-1.5335116E-3,-3.210272E-3,-6.415379E-3,-2.9158518E-3,-6.6072884E-4],"categories":[],"categories_nodes":[],"categories_segments":[],"categories_sizes":[],"default_left":[0,0,0,0,0,0,0,0,0,0,0,0,0,0,0,0,0,0,0,0,0,0,0,0,0,0,0,0,0],"id":16,"left_children":[1,3,-1,5,-1,7,-1,9,-1,11,-1,13,15,17,19,21,-1,23,25,-1,-1,27,-1,-1,-1,-1,-1,-1,-1],"loss_changes":[4.4350254E1,7.6463413E-1,0E0,2.2911108E-1,0E0,7.3727846E-2,0E0,3.754157E-2,0E0,2.0581603E-2,0E0,9.047806E-3,2.4325931E-2,5.680561E-3,1.085525E-2,1.3645485E-2,0E0,3.5361648E-3,1.6647466E-3,0E0,0E0,4.0990114E-3,0E0,0E0,0E0,0E0,0E0,0E0,0E0],"parents":[2147483647,0,0,1,1,3,3,5,5,7,7,9,9,11,11,12,12,13,13,14,14,15,15,17,17,18,18,21,21],"right_children":[2,4,-1,6,-1,8,-1,10,-1,12,-1,14,16,18,20,22,-1,24,26,-1,-1,28,-1,-1,-1,-1,-1,-1,-1],"split_conditions":[6E0,1.2511011E-2,2.0286304E-1,1.5E0,2.0314714E-2,5.192493E-3,-1.7723646E-2,7.182689E-7,4.815393E-3,1E0,-9.03507E-3,2E0,3.504853E-1,1.1308749E-7,2.4748363E-8,8E0,3.0540535E-3,1E0,2E0,-3.068705E-3,1.142167E-3,1E0,7.0818444E-4,-3.2136294E-3,-1.5335116E-3,-3.210272E-3,-6.415379E-3,-2.9158518E-3,-6.6072884E-4],"split_indices":[440,15,0,435,0,15,0,10,0,19,0,30,3,5,5,27,0,131,39,0,0,170,0,0,0,0,0,0,0],"split_type":[0,0,0,0,0,0,0,0,0,0,0,0,0,0,0,0,0,0,0,0,0,0,0,0,0,0,0,0,0],"sum_hessian":[3.83E2,3.78E2,5E0,3.71E2,7E0,3.66E2,5E0,3.6E2,6E0,3.55E2,5E0,3.02E2,5.3E1,2.9E2,1.2E1,4.8E1,5E0,2.79E2,1.1E1,6E0,6E0,4E1,8E0,2.69E2,1E1,6E0,5E0,3.4E1,6E0],"tree_param":{"num_deleted":"0","num_feature":"443","num_nodes":"29","size_leaf_vector":"1"}},{"base_weights":[7.2869696E-3,1.9407895E-1,-3.3583425E-2,-4.010666E-2,1.7928774E-2,-3.6066942E-2,-2.0988382E-2,9.968133E-3,-3.904002E-2,-2.8480561E-2,7.6439637E-3,-4.192509E-2,-1.9438375E-2,-3.0471974E-3,4.227562E-5,-4.037084E-2,-8.332197E-3,-2.9701404E-2,1.9540675E-3,-3.90241E-2,-7.3882667E-3,-2.7378073E-3,9.497727E-4,-3.9888162E-2,-5.7826674E-4,-2.9232034E-3,-4.9606613E-3],"categories":[],"categories_nodes":[],"categories_segments":[],"categories_sizes":[],"default_left":[0,0,0,0,0,0,0,0,0,0,0,0,0,0,0,0,0,0,0,0,0,0,0,0,0,0,0],"id":17,"left_children":[1,-1,3,5,-1,7,-1,9,11,13,-1,15,17,-1,-1,19,-1,21,-1,23,-1,-1,-1,25,-1,-1,-1],"loss_changes":[4.0584805E1,0E0,6.8362164E-1,3.4921145E-1,0E0,5.0482094E-2,0E0,8.4217176E-2,1.8638968E-2,6.0213646E-3,0E0,2.7660191E-2,2.2250876E-2,0E0,0E0,1.917547E-2,0E0,1.1413731E-2,0E0,7.5119436E-3,0E0,0E0,0E0,4.151076E-3,0E0,0E0,0E0],"parents":[2147483647,0,0,2,2,3,3,5,5,7,7,8,8,9,9,11,11,12,12,15,15,17,17,19,19,23,23],"right_children":[2,-1,4,6,-1,8,-1,10,12,14,-1,16,18,-1,-1,20,-1,22,-1,24,-1,-1,-1,26,-1,-1,-1],"split_conditions":[1.6194213E-7,1.9407895E-1,4E0,2E0,1.7928774E-2,1.35E2,-2.0988382E-2,1E0,1E0,4.6E1,7.6439637E-3,1E0,2E0,-3.0471974E-3,4.227562E-5,3.2472643E-3,-8.332197E-3,6.35E2,1.9540675E-3,1E0,-7.3882667E-3,-2.7378073E-3,9.497727E-4,7.66E2,-5.7826674E-4,-2.9232034E-3,-4.9606613E-3],"split_indices":[7,0,110,435,0,0,0,34,437,1,0,29,191,0,0,15,0,0,0,148,0,0,0,0,0,0,0],"split_type":[0,0,0,0,0,0,0,0,0,0,0,0,0,0,0,0,0,0,0,0,0,0,0,0,0,0,0],"sum_hessian":[3.83E2,5E0,3.78E2,3.7E2,8E0,3.65E2,5E0,2.2E1,3.43E2,1.6E1,6E0,2.98E2,4.5E1,1.1E1,5E0,2.93E2,5E0,3.7E1,8E0,2.88E2,5E0,3.2E1,5E0,2.8E2,8E0,2.73E2,7E0],"tree_param":{"num_deleted":"0","num_feature":"443","num_nodes":"27","size_leaf_vector":"1"}},{"base_weights":[7.187432E-3,-3.2612205E-2,1.8900001E-1,-3.7289936E-2,1.6597712E-2,-3.2515638E-2,-2.1170428E-2,-3.398222E-2,4.6040635E-3,-3.6678415E-2,-1.8911747E-2,-3.480147E-2,-6.1778646E-2,-2.5582692E-2,2.4294392E-3,-3.580574E-2,-8.803141E-3,-4.012088E-2,-7.9219965E-3,-2.9876117E-2,8.698015E-4,-3.69587E-2,-1.722673E-2,-2.605714E-3,1.7195283E-3,-3.489408E-3,-1.9616173E-3,-3.31907E-2,-5.000709E-4,-2.836019E-3,-1.2158344E-3,-2.7073831E-3,1.1103631E-4,-2.7180722E-3,-1.0225216E-3],"categories":[],"categories_nodes":[],"categories_segments":[],"categories_sizes":[],"default_left":[0,0,0,0,0,0,0,0,0,0,0,0,0,0,0,0,0,0,0,0,0,0,0,0,0,0,0,0,0,0,0,0,0,0,0],"id":18,"left_children":[1,3,-1,5,-1,7,-1,9,-1,11,13,15,17,19,-1,21,23,25,-1,27,-1,29,31,-1,-1,-1,-1,33,-1,-1,-1,-1,-1,-1,-1],"loss_changes":[3.8485653E1,4.58408E-1,0E0,4.2708957E-1,0E0,5.262813E-2,0E0,1.4015436E-2,0E0,1.2266219E-2,2.0336816E-2,7.1781874E-3,1.4755152E-2,8.487605E-3,0E0,5.275458E-3,1.0673412E-2,1.2482144E-4,0E0,3.3173189E-3,0E0,3.9808154E-3,6.408112E-3,0E0,0E0,0E0,0E0,1.8920712E-3,0E0,0E0,0E0,0E0,0E0,0E0,0E0],"parents":[2147483647,0,0,1,1,3,3,5,5,7,7,9,9,10,10,11,11,12,12,13,13,15,15,16,16,17,17,19,19,21,21,22,22,27,27],"right_children":[2,4,-1,6,-1,8,-1,10,-1,12,14,16,18,20,-1,22,24,26,-1,28,-1,30,32,-1,-1,-1,-1,34,-1,-1,-1,-1,-1,-1,-1],"split_conditions":[2.7888222E-2,1.2511011E-2,1.8900001E-1,2.125E0,1.6597712E-2,5.192493E-3,-2.1170428E-2,1E0,4.6040635E-3,2.8777328E-1,3.504853E-1,2E0,1E0,3.2373905E-2,2.4294392E-3,2.445256E-1,2.4748363E-8,2E0,-7.9219965E-3,2.8777328E-1,8.698015E-4,1E0,6.8534916E-8,-2.605714E-3,1.7195283E-3,-3.489408E-3,-1.9616173E-3,1E0,-5.000709E-4,-2.836019E-3,-1.2158344E-3,-2.7073831E-3,1.1103631E-4,-2.7180722E-3,-1.0225216E-3],"split_indices":[9,15,0,435,0,15,0,19,0,3,3,30,57,12,0,3,5,83,0,3,0,220,4,0,0,0,0,170,0,0,0,0,0,0,0],"split_type":[0,0,0,0,0,0,0,0,0,0,0,0,0,0,0,0,0,0,0,0,0,0,0,0,0,0,0,0,0,0,0,0,0,0,0],"sum_hessian":[3.83E2,3.78E2,5E0,3.72E2,6E0,3.66E2,6E0,3.61E2,5E0,3.05E2,5.6E1,2.86E2,1.9E1,5E1,6E0,2.75E2,1.1E1,1.4E1,5E0,4.5E1,5E0,2.58E2,1.7E1,6E0,5E0,8E0,6E0,3.9E1,6E0,2.47E2,1.1E1,8E0,9E0,3.3E1,6E0],"tree_param":{"num_deleted":"0","num_feature":"443","num_nodes":"35","size_leaf_vector":"1"}},{"base_weights":[7.0837447E-3,-3.0976545E-2,1.8075335E-1,-3.367933E-2,8.810139E-3,-3.1184163E-2,-1.3582722E-2,1.2170164E-2,-3.3842985E-2,-2.4695635E-2,8.594618E-3,-8.380234E-3,-3.2377478E-2,-2.7882955E-3,-7.1025273E-4,-3.3154104E-2,3.1432416E-4,-3.2163635E-2,-6.157818E-3,-3.2814942E-2,6.3571136E-4,-2.7018278E-3,-1.8843368E-3],"categories":[],"categories_nodes":[],"categories_segments":[],"categories_sizes":[],"default_left":[0,0,0,0,0,0,0,0,0,0,0,0,0,0,0,0,0,0,0,0,0,0,0],"id":19,"left_children":[1,3,-1,5,-1,7,-1,9,11,13,-1,-1,15,-1,-1,17,-1,19,-1,21,-1,-1,-1],"loss_changes":[3.5194294E1,1.5601683E-1,0E0,1.3155916E-1,0E0,4.283181E-2,0E0,8.5901335E-2,3.5993487E-2,2.8786175E-3,0E0,0E0,9.8517835E-3,0E0,0E0,1.36012435E-2,0E0,9.012908E-3,0E0,7.1165264E-3,0E0,0E0,0E0],"parents":[2147483647,0,0,1,1,3,3,5,5,7,7,8,8,9,9,12,12,15,15,17,17,19,19],"right_children":[2,4,-1,6,-1,8,-1,10,12,14,-1,-1,16,-1,-1,18,-1,20,-1,22,-1,-1,-1],"split_conditions":[1E1,1.2511011E-2,1.8075335E-1,1.0371819E-2,8.810139E-3,1.34E2,-1.3582722E-2,1E0,7.2272755E-3,1E0,8.594618E-3,-8.380234E-3,2.890885E-6,-2.7882955E-3,-7.1025273E-4,3.55628E-1,3.1432416E-4,1E0,-6.157818E-3,1.7934956E-1,6.3571136E-4,-2.7018278E-3,-1.8843368E-3],"split_indices":[425,15,0,9,0,0,0,34,6,135,0,0,13,0,0,3,0,169,0,3,0,0,0],"split_type":[0,0,0,0,0,0,0,0,0,0,0,0,0,0,0,0,0,0,0,0,0,0,0],"sum_hessian":[3.83E2,3.78E2,5E0,3.72E2,6E0,3.67E2,5E0,2.1E1,3.46E2,1.6E1,5E0,5E0,3.41E2,8E0,8E0,3.34E2,7E0,3.29E2,5E0,3.24E2,5E0,2.26E2,9.8E1],"tree_param":{"num_deleted":"0","num_feature":"443","num_nodes":"23","size_leaf_vector":"1"}},{"base_weights":[6.9766887E-3,-2.994075E-2,1.7533241E-1,-3.4252133E-2,1.5305371E-2,-2.9811937E-2,-2.2565665E-2,-3.168629E-2,4.387111E-3,-2.9705629E-2,-1.0794342E-2,-2.8641045E-2,-6.5274606E-3,-2.9702831E-2,2.8021564E-3,-3.0470988E-2,8.8881573E-4,-2.370678E-3,-2.779523E-4],"categories":[],"categories_nodes":[],"categories_segments":[],"categories_sizes":[],"default_left":[0,0,0,0,0,0,0,0,0,0,0,0,0,0,0,0,0,0,0],"id":20,"left_children":[1,3,-1,5,-1,7,-1,9,-1,11,-1,13,-1,15,-1,17,-1,-1,-1],"loss_changes":[3.3111946E1,3.8936934E-1,0E0,4.326102E-1,0E0,6.276417E-2,0E0,7.597712E-2,0E0,1.9233793E-2,0E0,2.5708258E-2,0E0,1.1405319E-2,0E0,1.0239184E-2,0E0,0E0,0E0],"parents":[2147483647,0,0,1,1,3,3,5,5,7,7,9,9,11,11,13,13,15,15],"right_children":[2,4,-1,6,-1,8,-1,10,-1,12,-1,14,-1,16,-1,18,-1,-1,-1],"split_conditions":[6E0,4E0,1.7533241E-1,3E0,1.5305371E-2,1E0,-2.2565665E-2,4.2268195E-7,4.387111E-3,2.4834316E-7,-1.0794342E-2,2.5139358E-3,-6.5274606E-3,1E0,2.8021564E-3,1E0,8.8881573E-4,-2.370678E-3,-2.779523E-4],"split_indices":[440,124,0,434,0,299,0,10,0,16,0,15,0,149,0,174,0,0,0],"split_type":[0,0,0,0,0,0,0,0,0,0,0,0,0,0,0,0,0,0,0],"sum_hessian":[3.83E2,3.78E2,5E0,3.72E2,6E0,3.67E2,5E0,3.6E2,7E0,3.55E2,5E0,3.5E2,5E0,3.45E2,5E0,3.39E2,6E0,3.25E2,1.4E1],"tree_param":{"num_deleted":"0","num_feature":"443","num_nodes":"19","size_leaf_vector":"1"}},{"base_weights":[6.860155E-3,-3.2258704E-2,1.588724E-1,-2.646826E-2,-2.9014127E-2,-2.9016547E-2,8.318698E-3,-2.664159E-2,-1.256021E-2,-2.8383475E-2,3.1520676E-2,-2.7137667E-2,-7.177666E-3,-2.5098738E-3,6.843967E-3,-2.954307E-2,-1.259761E-2,-2.743003E-2,-5.0512467E-2,-1.9280564E-2,3.0553478E-3,-2.1618553E-3,-1.20930716E-4,-2.5947012E-3,-6.1499993E-3,-1.8306619E-3,1.423198E-3],"categories":[],"categories_nodes":[],"categories_segments":[],"categories_sizes":[],"default_left":[0,0,0,0,0,0,0,0,0,0,0,0,0,0,0,0,0,0,0,0,0,0,0,0,0,0,0],"id":21,"left_children":[1,3,-1,5,-1,7,-1,9,-1,11,13,15,-1,-1,-1,17,19,21,23,25,-1,-1,-1,-1,-1,-1,-1],"loss_changes":[3.1785608E1,7.65897E-1,0E0,1.338036E-1,0E0,1.1621511E-1,0E0,3.7569612E-2,0E0,2.6923805E-2,4.5752883E-2,1.17640495E-2,0E0,0E0,0E0,1.17743015E-2,1.8963851E-2,9.747684E-3,1.0193534E-2,9.487895E-3,0E0,0E0,0E0,0E0,0E0,0E0,0E0],"parents":[2147483647,0,0,1,1,3,3,5,5,7,7,9,9,10,10,11,11,15,15,16,16,17,17,18,18,19,19],"right_children":[2,4,-1,6,-1,8,-1,10,-1,12,14,16,-1,-1,-1,18,20,22,24,26,-1,-1,-1,-1,-1,-1,-1],"split_conditions":[9.384744E-2,1.12E1,1.588724E-1,5E0,-2.9014127E-2,7.182689E-7,8.318698E-3,1E0,-1.256021E-2,5.192493E-3,1.6226907E-1,1E0,-7.177666E-3,-2.5098738E-3,6.843967E-3,2.7159846E-1,1.0064117E-7,2.445256E-1,1E0,1E0,3.0553478E-3,-2.1618553E-3,-1.20930716E-4,-2.5947012E-3,-6.1499993E-3,-1.8306619E-3,1.423198E-3],"split_indices":[12,439,0,127,0,10,0,40,0,15,3,19,0,0,0,3,5,3,57,38,0,0,0,0,0,0,0],"split_type":[0,0,0,0,0,0,0,0,0,0,0,0,0,0,0,0,0,0,0,0,0,0,0,0,0,0,0],"sum_hessian":[3.83E2,3.77E2,6E0,3.72E2,5E0,3.66E2,6E0,3.61E2,5E0,3.51E2,1E1,3.46E2,5E0,5E0,5E0,2.96E2,5E1,2.71E2,2.5E1,4.5E1,5E0,2.57E2,1.4E1,1.8E1,7E0,4E1,5E0],"tree_param":{"num_deleted":"0","num_feature":"443","num_nodes":"27","size_leaf_vector":"1"}},{"base_weights":[6.643541E-3,-2.803547E-2,1.6470703E-1,-2.1580437E-2,-1.9805113E-2,-2.575322E-2,1.4886547E-2,2.937348E-3,-2.7429817E-2,-2.5026686E-2,5.776391E-3,-2.6481327E-2,-5.7335873E-3,-3.2664773E-3,-4.3335615E-4,-2.553296E-2,-5.614516E-3,-2.4528984E-2,-5.7246583E-3,-2.5951458E-2,-3.4993954E-3,-2.045806E-3,-5.605622E-4,8.8354637E-4,-1.488778E-3],"categories":[],"categories_nodes":[],"categories_segments":[],"categories_sizes":[],"default_left":[0,0,0,0,0,0,0,0,0,0,0,0,0,0,0,0,0,0,0,0,0,0,0,0,0],"id":22,"left_children":[1,3,-1,5,-1,7,-1,9,11,13,-1,15,-1,-1,-1,17,-1,19,-1,21,23,-1,-1,-1,-1],"loss_changes":[2.9217909E1,5.717453E-1,0E0,3.4488094E-1,0E0,1.7589867E-2,0E0,4.5431312E-2,1.3969183E-2,5.4540476E-3,0E0,1.3642237E-2,0E0,0E0,0E0,1.5160978E-2,0E0,9.750918E-3,0E0,7.342145E-3,5.7303994E-3,0E0,0E0,0E0,0E0],"parents":[2147483647,0,0,1,1,3,3,5,5,7,7,8,8,9,9,11,11,15,15,17,17,19,19,20,20],"right_children":[2,4,-1,6,-1,8,-1,10,12,14,-1,16,-1,-1,-1,18,-1,20,-1,22,24,-1,-1,-1,-1],"split_conditions":[2.7888222E-2,2.82E2,1.6470703E-1,3E0,-1.9805113E-2,1.34E2,1.4886547E-2,1E0,2.4834316E-7,1E0,5.776391E-3,3.55628E-1,-5.7335873E-3,-3.2664773E-3,-4.3335615E-4,1E0,-5.614516E-3,8E0,-5.7246583E-3,1E0,4.51E2,-2.045806E-3,-5.605622E-4,8.8354637E-4,-1.488778E-3],"split_indices":[9,1,0,131,0,0,0,138,16,135,0,3,0,0,0,309,0,27,0,220,0,0,0,0,0],"split_type":[0,0,0,0,0,0,0,0,0,0,0,0,0,0,0,0,0,0,0,0,0,0,0,0,0],"sum_hessian":[3.83E2,3.78E2,5E0,3.69E2,9E0,3.63E2,6E0,2E1,3.43E2,1.5E1,5E0,3.38E2,5E0,7E0,8E0,3.33E2,5E0,3.28E2,5E0,3.07E2,2.1E1,2.86E2,2.1E1,1.1E1,1E1],"tree_param":{"num_deleted":"0","num_feature":"443","num_nodes":"25","size_leaf_vector":"1"}},{"base_weights":[6.5139737E-3,-2.735332E-2,1.6085345E-1,-2.1595214E-2,-1.78251E-2,-2.568881E-2,1.4576769E-2,-2.389255E-2,-9.666277E-3,-2.2866545E-2,-6.0333507E-3,-2.3808684E-2,2.6809205E-3,-2.3012161E-2,-4.913091E-3,-2.4071459E-2,1.8265324E-3,2.7619586E-5,-1.8927319E-3,2.4124973E-3,-1.6480703E-3],"categories":[],"categories_nodes":[],"categories_segments":[],"categories_sizes":[],"default_left":[0,0,0,0,0,0,0,0,0,0,0,0,0,0,0,0,0,0,0,0,0],"id":23,"left_children":[1,3,-1,5,-1,7,-1,9,-1,11,-1,13,-1,15,-1,17,19,-1,-1,-1,-1],"loss_changes":[2.7866022E1,4.53842E-1,0E0,3.3208066E-1,0E0,6.4393535E-2,0E0,1.8990666E-2,0E0,2.0399183E-2,0E0,1.0084331E-2,0E0,9.095147E-3,0E0,9.404868E-3,1.1538618E-2,0E0,0E0,0E0,0E0],"parents":[2147483647,0,0,1,1,3,3,5,5,7,7,9,9,11,11,13,13,15,15,16,16],"right_children":[2,4,-1,6,-1,8,-1,10,-1,12,-1,14,-1,16,-1,18,20,-1,-1,-1,-1],"split_conditions":[3E0,1.8E1,1.6085345E-1,3E0,-1.78251E-2,1.4796994E-7,1.4576769E-2,6.975056E-3,-9.666277E-3,3.201679E-3,-6.0333507E-3,1E0,2.6809205E-3,1E0,-4.913091E-3,0E0,1E0,2.7619586E-5,-1.8927319E-3,2.4124973E-3,-1.6480703E-3],"split_indices":[106,23,0,131,0,8,0,15,0,15,0,309,0,174,0,437,108,0,0,0,0],"split_type":[0,0,0,0,0,0,0,0,0,0,0,0,0,0,0,0,0,0,0,0,0],"sum_hessian":[3.83E2,3.78E2,5E0,3.69E2,9E0,3.63E2,6E0,3.58E2,5E0,3.53E2,5E0,3.48E2,5E0,3.43E2,5E0,3.29E2,1.4E1,1.5E1,3.14E2,6E0,8E0],"tree_param":{"num_deleted":"0","num_feature":"443","num_nodes":"21","size_leaf_vector":"1"}},{"base_weights":[6.3862917E-3,-2.5868747E-2,1.5320739E-1,-2.0676274E-2,-1.9770093E-1,-2.484117E-2,1.4869283E-2,-2.311056E-2,-4.073319E-3,-2.3163056E-2,-9.062136E-3,-2.1510817E-2,-6.9010064E-2,3.7412706E-3,-2.3066727E-2,-1.1422276E-3,-9.018911E-3,-2.3864493E-2,4.677151E-3,-2.1514507E-2,-4.2647634E-2,-2.151824E-3,-8.8821916E-4,-2.2640804E-2,3.513584E-3,-5.3239428E-3,-2.2801498E-2,-1.7477797E-3,5.7590764E-4,-1.7022827E-3,1.5447733E-3,-2.104257E-3,-7.681862E-4],"categories":[],"categories_nodes":[],"categories_segments":[],"categories_sizes":[],"default_left":[0,0,0,0,0,0,0,0,0,0,0,0,0,0,0,0,0,0,0,0,0,0,0,0,0,0,0,0,0,0,0,0,0],"id":24,"left_children":[1,3,-1,5,7,9,-1,-1,-1,11,-1,13,15,17,19,-1,-1,21,-1,23,25,-1,-1,27,29,-1,31,-1,-1,-1,-1,-1,-1],"loss_changes":[2.5275301E1,3.3406904E-1,0E0,3.41392E-1,1.5746027E-1,5.567245E-2,0E0,0E0,0E0,2.5634125E-2,0E0,1.3719931E-2,3.123841E-2,3.5471916E-2,9.021267E-3,0E0,0E0,5.305456E-4,0E0,8.677214E-3,1.1316732E-2,0E0,0E0,6.0480237E-3,6.7362357E-3,0E0,7.026419E-4,0E0,0E0,0E0,0E0,0E0,0E0],"parents":[2147483647,0,0,1,1,3,3,4,4,5,5,9,9,11,11,12,12,13,13,14,14,17,17,19,19,20,20,23,23,24,24,26,26],"right_children":[2,4,-1,6,8,10,-1,-1,-1,12,-1,14,16,18,20,-1,-1,22,-1,24,26,-1,-1,28,30,-1,32,-1,-1,-1,-1,-1,-1],"split_conditions":[1E0,1.8E1,1.5320739E-1,2E0,2E0,1.4796994E-7,1.4869283E-2,-2.311056E-2,-4.073319E-3,1E0,-9.062136E-3,1.35E2,4.23E2,2.522621E-6,2E0,-1.1422276E-3,-9.018911E-3,1E0,4.677151E-3,1E0,4E0,-2.151824E-3,-8.8821916E-4,1E0,3.3606E-2,-5.3239428E-3,1E0,-1.7477797E-3,5.7590764E-4,-1.7022827E-3,1.5447733E-3,-2.104257E-3,-7.681862E-4],"split_indices":[424,23,0,131,34,8,0,0,0,164,0,0,0,7,286,0,0,286,0,67,27,0,0,310,6,0,425,0,0,0,0,0,0],"split_type":[0,0,0,0,0,0,0,0,0,0,0,0,0,0,0,0,0,0,0,0,0,0,0,0,0,0,0,0,0,0,0,0,0],"sum_hessian":[3.83E2,3.78E2,5E0,3.68E2,1E1,3.62E2,6E0,5E0,5E0,3.57E2,5E0,3.46E2,1.1E1,2E1,3.26E2,6E0,5E0,1.4E1,6E0,3.04E2,2.2E1,9E0,5E0,2.91E2,1.3E1,8E0,1.4E1,2.85E2,6E0,5E0,8E0,9E0,5E0],"tree_param":{"num_deleted":"0","num_feature":"443","num_nodes":"33","size_leaf_vector":"1"}},{"base_weights":[6.203629E-3,-2.7894055E-2,1.3849443E-1,-2.1158466E-2,-2.863933E-2,-1.7428756E-2,-1.598598E-2,-2.0304222E-2,1.1886247E-2,-1.876387E-2,-6.0094886E-2,-2.1382282E-2,-4.6821414E-3,-8.619204E-3,-8.596615E-4,-2.4592524E-2,-1.1142469E-2,-1.4080226E-2,5.6986455E-3,-2.3515528E-2,-4.471846E-3,-1.4447873E-2,1.2830063E-3,-1.8545521E-2,1.6875304E-3,-1.8321789E-3,-6.3444616E-4,-1.3435902E-3,3.1491628E-4,-1.9670934E-3,-1.8763465E-4],"categories":[],"categories_nodes":[],"categories_segments":[],"categories_sizes":[],"default_left":[0,0,0,0,0,0,0,0,0,0,0,0,0,0,0,0,0,0,0,0,0,0,0,0,0,0,0,0,0,0,0],"id":25,"left_children":[1,3,-1,5,-1,7,-1,9,-1,11,13,15,17,-1,-1,19,21,23,-1,25,-1,27,-1,29,-1,-1,-1,-1,-1,-1,-1],"loss_changes":[2.4148659E1,8.931308E-1,0E0,2.6265916E-1,0E0,1.8835141E-1,0E0,2.0998672E-2,0E0,1.2768127E-2,3.334629E-2,9.390429E-3,4.3522764E-2,0E0,0E0,7.0115626E-3,6.9701634E-3,8.747789E-3,0E0,2.7917698E-3,0E0,4.2769527E-3,0E0,5.6040753E-3,0E0,0E0,0E0,0E0,0E0,0E0,0E0],"parents":[2147483647,0,0,1,1,3,3,5,5,7,7,9,9,10,10,11,11,12,12,15,15,16,16,17,17,19,19,21,21,23,23],"right_children":[2,4,-1,6,-1,8,-1,10,-1,12,14,16,18,-1,-1,20,22,24,-1,26,-1,28,-1,30,-1,-1,-1,-1,-1,-1,-1],"split_conditions":[9.384744E-2,1.1E1,1.3849443E-1,1.0371819E-2,-2.863933E-2,3E0,-1.598598E-2,1E0,1.1886247E-2,1E0,2E0,4E1,5.8785368E-8,-8.619204E-3,-8.596615E-4,1.12170875E-2,2E0,1E0,5.6986455E-3,2E0,-4.471846E-3,1.1154817E-1,1.2830063E-3,4.6555147E-6,1.6875304E-3,-1.8321789E-3,-6.3444616E-4,-1.3435902E-3,3.1491628E-4,-1.9670934E-3,-1.8763465E-4],"split_indices":[12,439,0,9,0,131,0,164,0,138,23,1,5,0,0,12,30,113,0,22,0,6,0,7,0,0,0,0,0,0,0],"split_type":[0,0,0,0,0,0,0,0,0,0,0,0,0,0,0,0,0,0,0,0,0,0,0,0,0,0,0,0,0,0,0],"sum_hessian":[3.83E2,3.77E2,6E0,3.71E2,6E0,3.65E2,6E0,3.6E2,5E0,3.48E2,1.2E1,2.93E2,5.5E1,5E0,7E0,2.22E2,7.1E1,5E1,5E0,2.17E2,5E0,6.4E1,7E0,4.5E1,5E0,2.04E2,1.3E1,5.4E1,1E1,3E1,1.5E1],"tree_param":{"num_deleted":"0","num_feature":"443","num_nodes":"31","size_leaf_vector":"1"}},{"base_weights":[5.9852907E-3,1.4680627E-1,-2.4923876E-2,-1.8880472E-2,-1.845281E-2,-2.2200357E-2,1.39669515E-2,-1.9739088E-2,-1.2463233E-2,-1.8325169E-2,-7.507965E-3,-1.6829813E-2,-5.3545624E-2,-1.927249E-2,-1.8302895E-3,-1.6918638E-3,-6.832689E-3,-2.1263536E-2,-3.931206E-3,-1.3335255E-2,5.1828404E-3,-1.5197175E-3,-4.518502E-3,-1.0310422E-3,2.3187208E-3,-1.7626713E-3,5.5820234E-5],"categories":[],"categories_nodes":[],"categories_segments":[],"categories_sizes":[],"default_left":[0,0,0,0,0,0,0,0,0,0,0,0,0,0,0,0,0,0,0,0,0,0,0,0,0,0,0],"id":26,"left_children":[1,-1,3,5,-1,7,-1,9,-1,11,-1,13,15,17,19,-1,-1,21,23,25,-1,-1,-1,-1,-1,-1,-1],"loss_changes":[2.3210564E1,0E0,5.018044E-1,2.5607842E-1,0E0,1.2606266E-1,0E0,3.907329E-2,0E0,1.7795667E-2,0E0,1.2495264E-2,1.4237981E-2,8.896694E-3,4.091056E-2,0E0,0E0,8.92131E-3,1.2397243E-2,6.172809E-3,0E0,0E0,0E0,0E0,0E0,0E0,0E0],"parents":[2147483647,0,0,2,2,3,3,5,5,7,7,9,9,11,11,12,12,13,13,14,14,17,17,18,18,19,19],"right_children":[2,-1,4,6,-1,8,-1,10,-1,12,-1,14,16,18,20,-1,-1,22,24,26,-1,-1,-1,-1,-1,-1,-1],"split_conditions":[1.6194213E-7,1.4680627E-1,2.63E2,3E0,-1.845281E-2,4.965527E-7,1.39669515E-2,2.6E1,-1.2463233E-2,7.2E2,-7.507965E-3,2.445256E-1,9.246285E-2,1E0,1E0,-1.6918638E-3,-6.832689E-3,2.5097094E-3,1E0,5E1,5.1828404E-3,-1.5197175E-3,-4.518502E-3,-1.0310422E-3,2.3187208E-3,-1.7626713E-3,5.5820234E-5],"split_indices":[7,0,1,131,0,10,0,39,0,0,0,3,6,437,138,0,0,15,184,1,0,0,0,0,0,0,0],"split_type":[0,0,0,0,0,0,0,0,0,0,0,0,0,0,0,0,0,0,0,0,0,0,0,0,0,0,0],"sum_hessian":[3.83E2,5E0,3.78E2,3.69E2,9E0,3.64E2,5E0,3.59E2,5E0,3.54E2,5E0,3.41E2,1.3E1,2.93E2,4.8E1,8E0,5E0,2.59E2,3.4E1,4.2E1,6E0,2.54E2,5E0,2.7E1,7E0,2.4E1,1.8E1],"tree_param":{"num_deleted":"0","num_feature":"443","num_nodes":"27","size_leaf_vector":"1"}},{"base_weights":[5.8294963E-3,-2.3968287E-2,1.4153135E-1,-1.8285878E-2,-1.9166E-2,-1.5508397E-2,-1.3849847E-2,-1.8624915E-2,1.30940145E-2,-1.664368E-2,-6.654237E-2,-1.5148179E-2,-5.40164E-2,-9.074047E-3,-7.938952E-4,-1.6645558E-2,8.10516E-3,-7.887733E-3,-6.6744944E-4,-1.748254E-2,1.3322656E-3,-6.987758E-3,3.5251563E-3,-1.3865487E-3,5.1131455E-4,-1.3379883E-3,1.055427E-3],"categories":[],"categories_nodes":[],"categories_segments":[],"categories_sizes":[],"default_left":[0,0,0,0,0,0,0,0,0,0,0,0,0,0,0,0,0,0,0,0,0,0,0,0,0,0,0],"id":27,"left_children":[1,3,-1,5,-1,7,-1,9,-1,11,13,15,17,-1,-1,19,21,-1,-1,23,-1,25,-1,-1,-1,-1,-1],"loss_changes":[2.1571207E1,4.9406192E-1,0E0,1.6858041E-1,0E0,2.2008303E-1,0E0,3.3164263E-2,0E0,1.8631816E-2,4.137144E-2,1.1834122E-2,2.9066633E-2,0E0,0E0,9.411283E-3,1.2656867E-2,0E0,0E0,7.670611E-3,0E0,3.907788E-3,0E0,0E0,0E0,0E0,0E0],"parents":[2147483647,0,0,1,1,3,3,5,5,7,7,9,9,10,10,11,11,12,12,15,15,16,16,19,19,21,21],"right_children":[2,4,-1,6,-1,8,-1,10,-1,12,14,16,18,-1,-1,20,22,-1,-1,24,-1,26,-1,-1,-1,-1,-1],"split_conditions":[6E0,2E0,1.4153135E-1,1.5659639E-6,-1.9166E-2,3E0,-1.3849847E-2,3E0,1.30940145E-2,1E0,1E0,1E0,2E0,-9.074047E-3,-7.938952E-4,1E0,1E0,-7.887733E-3,-6.6744944E-4,1E0,1.3322656E-3,2E0,3.5251563E-3,-1.3865487E-3,5.1131455E-4,-1.3379883E-3,1.055427E-3],"split_indices":[440,414,0,10,0,131,0,286,0,164,295,60,23,0,0,40,82,0,0,174,0,27,0,0,0,0,0],"split_type":[0,0,0,0,0,0,0,0,0,0,0,0,0,0,0,0,0,0,0,0,0,0,0,0,0,0,0],"sum_hessian":[3.83E2,3.78E2,5E0,3.7E2,8E0,3.65E2,5E0,3.6E2,5E0,3.47E2,1.3E1,3.35E2,1.2E1,6E0,7E0,3.15E2,2E1,5E0,7E0,3.08E2,7E0,1.5E1,5E0,2.96E2,1.2E1,1E1,5E0],"tree_param":{"num_deleted":"0","num_feature":"443","num_nodes":"27","size_leaf_vector":"1"}},{"base_weights":[5.6706346E-3,-2.3003917E-2,1.3620012E-1,-1.6419364E-2,-3.222053E-2,-1.4152574E-2,-1.1481782E-2,-1.7244391E-2,9.5640905E-3,-6.6059884E-3,-1.580312E-2,-1.3855345E-2,-6.6128634E-2,-1.480817E-2,3.17164E-3,-1.392949E-3,-8.888638E-3,-1.7401876E-2,2.9769463E-3,-1.239679E-3,-4.2625107E-3,-6.106478E-4,4.052236E-3],"categories":[],"categories_nodes":[],"categories_segments":[],"categories_sizes":[],"default_left":[0,0,0,0,0,0,0,0,0,0,0,0,0,0,0,0,0,0,0,0,0,0,0],"id":28,"left_children":[1,3,-1,5,-1,7,-1,9,-1,-1,11,13,15,17,-1,-1,-1,19,21,-1,-1,-1,-1],"loss_changes":[1.997538E1,1.0076429E0,0E0,1.1370034E-1,0E0,1.6383186E-1,0E0,3.556578E-2,0E0,0E0,3.3979878E-2,1.9028597E-2,3.0185666E-2,1.5689656E-2,0E0,0E0,0E0,9.247974E-3,2.5416624E-2,0E0,0E0,0E0,0E0],"parents":[2147483647,0,0,1,1,3,3,5,5,7,7,10,10,11,11,12,12,13,13,17,17,18,18],"right_children":[2,4,-1,6,-1,8,-1,10,-1,-1,12,14,16,18,-1,-1,-1,20,22,-1,-1,-1,-1],"split_conditions":[2.7888222E-2,5E0,1.3620012E-1,9E0,-3.222053E-2,3.3333334E-1,-1.1481782E-2,5.111442E-7,9.5640905E-3,-6.6059884E-3,2.1184199E-1,4.591642E-3,2.9828637E-8,2.3841731E-1,3.17164E-3,-1.392949E-3,-8.888638E-3,2.4834316E-7,1E0,-1.239679E-3,-4.2625107E-3,-6.106478E-4,4.052236E-3],"split_indices":[9,26,0,57,0,412,0,7,0,0,6,9,11,3,0,0,0,16,138,0,0,0,0],"split_type":[0,0,0,0,0,0,0,0,0,0,0,0,0,0,0,0,0,0,0,0,0,0,0],"sum_hessian":[3.83E2,3.78E2,5E0,3.73E2,5E0,3.68E2,5E0,3.61E2,7E0,6E0,3.55E2,3.43E2,1.2E1,3.38E2,5E0,7E0,5E0,2.95E2,4.3E1,2.9E2,5E0,3.6E1,7E0],"tree_param":{"num_deleted":"0","num_feature":"443","num_nodes":"23","size_leaf_vector":"1"}},{"base_weights":[5.470035E-3,-2.4369368E-2,1.2120123E-1,-1.7762285E-2,-3.232861E-2,-1.32540725E-2,-1.8868798E-2,-1.5452076E-2,7.6495158E-3,-6.1813165E-3,-1.4088103E-2,-1.4999608E-2,2.5027113E-3,-1.3400476E-2,-4.744399E-2,-1.4519401E-2,1.7833957E-2,-1.4914033E-3,-6.0026795E-3,-1.031429E-3,-3.9563463E-3,3.4258545E-3,-1.3217364E-3],"categories":[],"categories_nodes":[],"categories_segments":[],"categories_sizes":[],"default_left":[0,0,0,0,0,0,0,0,0,0,0,0,0,0,0,0,0,0,0,0,0,0,0],"id":29,"left_children":[1,3,-1,5,-1,7,-1,9,-1,-1,11,13,-1,15,17,19,21,-1,-1,-1,-1,-1,-1],"loss_changes":[1.8493553E1,1.0080146E0,0E0,3.898514E-1,0E0,9.454249E-2,0E0,3.1812303E-2,0E0,0E0,1.5857048E-2,1.7471336E-2,0E0,1.19318925E-2,1.2779385E-2,8.746333E-3,1.2652246E-2,0E0,0E0,0E0,0E0,0E0,0E0],"parents":[2147483647,0,0,1,1,3,3,5,5,7,7,10,10,11,11,13,13,14,14,15,15,16,16],"right_children":[2,4,-1,6,-1,8,-1,10,-1,-1,12,14,-1,16,18,20,22,-1,-1,-1,-1,-1,-1],"split_conditions":[9.384744E-2,1.12E1,1.2120123E-1,1.0371819E-2,-3.232861E-2,3.3333334E-1,-1.8868798E-2,5.111442E-7,7.6495158E-3,-6.1813165E-3,2.890885E-6,6.95E2,2.5027113E-3,9.9194885E-8,1E0,3.8588453E-8,1.5157254E-7,-1.4914033E-3,-6.0026795E-3,-1.031429E-3,-3.9563463E-3,3.4258545E-3,-1.3217364E-3],"split_indices":[12,439,0,9,0,412,0,7,0,0,13,0,0,14,117,14,14,0,0,0,0,0,0],"split_type":[0,0,0,0,0,0,0,0,0,0,0,0,0,0,0,0,0,0,0,0,0,0,0],"sum_hessian":[3.83E2,3.77E2,6E0,3.72E2,5E0,3.66E2,6E0,3.6E2,6E0,6E0,3.54E2,3.48E2,6E0,3.33E2,1.5E1,3.22E2,1.1E1,9E0,6E0,3.17E2,5E0,6E0,5E0],"tree_param":{"num_deleted":"0","num_feature":"443","num_nodes":"23","size_leaf_vector":"1"}},{"base_weights":[5.225399E-3,-2.1978637E-2,1.2920572E-1,-1.7455738E-2,-2.2518218E-2,-1.4675583E-2,-1.3914453E-2,-1.2144076E-2,-1.243558E-2,-1.42136905E-2,7.15776E-3,-1.2963193E-2,-6.406178E-3,-5.19142E-3,-1.1956016E-2,-1.0860646E-2,-3.900616E-3,-9.0938644E-4,1.4587787E-3],"categories":[],"categories_nodes":[],"categories_segments":[],"categories_sizes":[],"default_left":[0,0,0,0,0,0,0,0,0,0,0,0,0,0,0,0,0,0,0],"id":30,"left_children":[1,3,-1,5,-1,7,-1,9,-1,11,-1,13,-1,-1,15,17,-1,-1,-1],"loss_changes":[1.7979652E1,4.717537E-1,0E0,1.7203312E-1,0E0,1.3916288E-1,0E0,8.2401454E-2,0E0,3.0768327E-2,0E0,1.917322E-2,0E0,0E0,1.4702607E-2,1.3267528E-2,0E0,0E0,0E0],"parents":[2147483647,0,0,1,1,3,3,5,5,7,7,9,9,11,11,14,14,15,15],"right_children":[2,4,-1,6,-1,8,-1,10,-1,12,-1,14,-1,-1,16,18,-1,-1,-1],"split_conditions":[1E1,5E0,1.2920572E-1,1.545539E-6,-2.2518218E-2,7.7412866E-2,-1.3914453E-2,3.3333334E-1,-1.243558E-2,6.975056E-3,7.15776E-3,1.2457809E-8,-6.406178E-3,-5.19142E-3,7.66E2,3.889634E-8,-3.900616E-3,-9.0938644E-4,1.4587787E-3],"split_indices":[425,26,0,10,0,12,0,412,0,15,0,5,0,0,0,14,0,0,0],"split_type":[0,0,0,0,0,0,0,0,0,0,0,0,0,0,0,0,0,0,0],"sum_hessian":[3.83E2,3.78E2,5E0,3.73E2,5E0,3.68E2,5E0,3.63E2,5E0,3.57E2,6E0,3.52E2,5E0,5E0,3.47E2,3.39E2,8E0,3.26E2,1.3E1],"tree_param":{"num_deleted":"0","num_feature":"443","num_nodes":"19","size_leaf_vector":"1"}},{"base_weights":[5.0224173E-3,-2.1532377E-2,1.2611724E-1,-1.592536E-2,-2.3792269E-2,-1.2642061E-2,-1.6098512E-2,-1.54922735E-2,6.0534164E-2,-1.3726644E-2,-8.692893E-3,1.2175908E-2,-1.0549526E-3,-1.2462701E-2,-4.5533296E-2,-1.1401903E-2,-4.109653E-3,-3.3358182E-4,-6.9543854E-3,-1.21697495E-2,2.4163555E-3,-9.7192643E-4,1.2802476E-3],"categories":[],"categories_nodes":[],"categories_segments":[],"categories_sizes":[],"default_left":[0,0,0,0,0,0,0,0,0,0,0,0,0,0,0,0,0,0,0,0,0,0,0],"id":31,"left_children":[1,3,-1,5,-1,7,-1,9,11,13,-1,-1,-1,15,17,19,-1,-1,-1,21,-1,-1,-1],"loss_changes":[1.7131964E1,6.2332356E-1,0E0,2.406548E-1,0E0,7.7690735E-2,0E0,6.1347663E-2,1.0861552E-1,1.35031715E-2,0E0,0E0,0E0,1.4553592E-2,2.4793308E-2,1.147842E-2,0E0,0E0,0E0,7.74464E-3,0E0,0E0,0E0],"parents":[2147483647,0,0,1,1,3,3,5,5,7,7,8,8,9,9,13,13,14,14,15,15,19,19],"right_children":[2,4,-1,6,-1,8,-1,10,12,14,-1,-1,-1,16,18,20,-1,-1,-1,22,-1,-1,-1],"split_conditions":[6E0,1.65E2,1.2611724E-1,1.5659639E-6,-2.3792269E-2,1.0955158E-7,-1.6098512E-2,2.6E1,3.4E2,1E0,-8.692893E-3,1.2175908E-2,-1.0549526E-3,1E0,5.32E2,1.6631066E-7,-4.109653E-3,-3.3358182E-4,-6.9543854E-3,2E0,2.4163555E-3,-9.7192643E-4,1.2802476E-3],"split_indices":[440,419,0,10,0,14,0,39,0,164,0,0,0,281,0,10,0,0,0,138,0,0,0],"split_type":[0,0,0,0,0,0,0,0,0,0,0,0,0,0,0,0,0,0,0,0,0,0,0],"sum_hessian":[3.83E2,3.78E2,5E0,3.72E2,6E0,3.67E2,5E0,3.54E2,1.3E1,3.49E2,5E0,5E0,8E0,3.37E2,1.2E1,3.3E2,7E0,7E0,5E0,3.25E2,5E0,3.17E2,8E0],"tree_param":{"num_deleted":"0","num_feature":"443","num_nodes":"23","size_leaf_vector":"1"}},{"base_weights":[4.854023E-3,-2.069421E-2,1.2133814E-1,-1.5550208E-2,-2.5341595E-2,-1.2910625E-2,-1.3146967E-2,-1.5240117E-2,8.230092E-3,-1.3524636E-2,-8.629286E-3,-1.1509404E-2,-6.612047E-2,-4.7669895E-3,-1.05598075E-2,-1.0127532E-3,-9.394239E-3,-1.3550423E-2,1.8727151E-3,-9.573465E-4,-3.4989894E-3,-3.5007106E-4,2.4178645E-3],"categories":[],"categories_nodes":[],"categories_segments":[],"categories_sizes":[],"default_left":[0,0,0,0,0,0,0,0,0,0,0,0,0,0,0,0,0,0,0,0,0,0,0],"id":32,"left_children":[1,3,-1,5,-1,7,-1,9,-1,11,-1,13,15,-1,17,-1,-1,19,21,-1,-1,-1,-1],"loss_changes":[1.585773E1,6.1313915E-1,0E0,1.5543547E-1,0E0,1.07096046E-1,0E0,6.0601912E-2,0E0,3.7184425E-2,0E0,1.643052E-2,3.875898E-2,0E0,1.27040595E-2,0E0,0E0,6.557867E-3,1.3456691E-2,0E0,0E0,0E0,0E0],"parents":[2147483647,0,0,1,1,3,3,5,5,7,7,9,9,11,11,12,12,14,14,17,17,18,18],"right_children":[2,4,-1,6,-1,8,-1,10,-1,12,-1,14,16,-1,18,-1,-1,20,22,-1,-1,-1,-1],"split_conditions":[1E0,5E0,1.2133814E-1,9E0,-2.5341595E-2,3E0,-1.3146967E-2,1.4796994E-7,8.230092E-3,2.1184199E-1,-8.629286E-3,1.2457809E-8,3.4164783E-1,-4.7669895E-3,3.6443573E-8,-1.0127532E-3,-9.394239E-3,2.4834316E-7,2E0,-9.573465E-4,-3.4989894E-3,-3.5007106E-4,2.4178645E-3],"split_indices":[424,26,0,57,0,131,0,8,0,6,0,5,3,0,5,0,0,16,127,0,0,0,0],"split_type":[0,0,0,0,0,0,0,0,0,0,0,0,0,0,0,0,0,0,0,0,0,0,0],"sum_hessian":[3.83E2,3.78E2,5E0,3.73E2,5E0,3.68E2,5E0,3.62E2,6E0,3.57E2,5E0,3.45E2,1.2E1,5E0,3.4E2,7E0,5E0,2.74E2,6.6E1,2.69E2,5E0,5.5E1,1.1E1],"tree_param":{"num_deleted":"0","num_feature":"443","num_nodes":"23","size_leaf_vector":"1"}},{"base_weights":[4.6589444E-3,-2.0380694E-2,1.18916474E-1,-1.4804788E-2,-2.7341157E-2,-1.05228685E-2,-1.7834734E-2,-8.374036E-3,-1.0408005E-2,-1.0251521E-2,7.878366E-3,-4.241288E-3,-9.301679E-3,-1.0186234E-2,2.2505582E-3,-1.3852263E-2,-3.107453E-3,-9.6457364E-4,-3.6165696E-3,-5.327097E-4,1.7292368E-3],"categories":[],"categories_nodes":[],"categories_segments":[],"categories_sizes":[],"default_left":[0,0,0,0,0,0,0,0,0,0,0,0,0,0,0,0,0,0,0,0,0],"id":33,"left_children":[1,3,-1,5,-1,7,-1,9,-1,11,-1,-1,13,15,-1,17,19,-1,-1,-1,-1],"loss_changes":[1.5232961E1,7.2192246E-1,0E0,3.5460502E-1,0E0,1.00254595E-1,0E0,7.837491E-2,0E0,1.5217651E-2,0E0,0E0,1.2545073E-2,8.910056E-3,0E0,7.1134903E-3,1.2603302E-2,0E0,0E0,0E0,0E0],"parents":[2147483647,0,0,1,1,3,3,5,5,7,7,9,9,12,12,13,13,15,15,16,16],"right_children":[2,4,-1,6,-1,8,-1,10,-1,12,-1,-1,14,16,-1,18,20,-1,-1,-1,-1],"split_conditions":[3E0,1.1E1,1.18916474E-1,1.0371819E-2,-2.7341157E-2,7.7412866E-2,-1.7834734E-2,3E0,-1.0408005E-2,9.235529E-3,7.878366E-3,-4.241288E-3,1E0,1.7934956E-1,2.2505582E-3,3.728491E-3,1E0,-9.6457364E-4,-3.6165696E-3,-5.327097E-4,1.7292368E-3],"split_indices":[106,439,0,9,0,12,0,110,0,6,0,0,299,3,0,15,261,0,0,0,0],"split_type":[0,0,0,0,0,0,0,0,0,0,0,0,0,0,0,0,0,0,0,0,0],"sum_hessian":[3.83E2,3.78E2,5E0,3.73E2,5E0,3.67E2,6E0,3.62E2,5E0,3.57E2,5E0,6E0,3.51E2,3.44E2,7E0,2.26E2,1.18E2,2.21E2,5E0,1.03E2,1.5E1],"tree_param":{"num_deleted":"0","num_feature":"443","num_nodes":"21","size_leaf_vector":"1"}},{"base_weights":[4.4809678E-3,-2.178322E-2,1.0665803E-1,-1.46829E-2,-3.446669E-2,-1.1992233E-2,-1.1523988E-2,-1.4141663E-2,8.976658E-3,-1.1699729E-2,-1.1780987E-2,-1.014399E-2,-5.3045903E-3,-1.0960634E-2,2.8775716E-3,-4.3678083E-3,-1.0091544E-2,-8.008253E-4,1.8163557E-3],"categories":[],"categories_nodes":[],"categories_segments":[],"categories_sizes":[],"default_left":[0,0,0,0,0,0,0,0,0,0,0,0,0,0,0,0,0,0,0],"id":34,"left_children":[1,3,-1,5,-1,7,-1,9,-1,11,-1,13,-1,15,-1,-1,17,-1,-1],"loss_changes":[1.432837E1,1.1681995E0,0E0,1.3763055E-1,0E0,1.0556797E-1,0E0,1.24516726E-1,0E0,3.2066703E-2,0E0,1.4246769E-2,0E0,1.35465E-2,0E0,0E0,7.075805E-3,0E0,0E0],"parents":[2147483647,0,0,1,1,3,3,5,5,7,7,9,9,11,11,13,13,16,16],"right_children":[2,4,-1,6,-1,8,-1,10,-1,12,-1,14,-1,16,-1,-1,18,-1,-1],"split_conditions":[1E0,5E0,1.0665803E-1,2E0,-3.446669E-2,6E0,-1.1523988E-2,5.6628883E-3,8.976658E-3,3.6274862E-1,-1.1780987E-2,1E0,-5.3045903E-3,1.2457809E-8,2.8775716E-3,-4.3678083E-3,1E0,-8.008253E-4,1.8163557E-3],"split_indices":[180,26,0,414,0,76,0,9,0,3,0,299,0,5,0,0,169,0,0],"split_type":[0,0,0,0,0,0,0,0,0,0,0,0,0,0,0,0,0,0,0],"sum_hessian":[3.83E2,3.77E2,6E0,3.72E2,5E0,3.66E2,6E0,3.61E2,5E0,3.56E2,5E0,3.48E2,8E0,3.43E2,5E0,5E0,3.38E2,3.33E2,5E0],"tree_param":{"num_deleted":"0","num_feature":"443","num_nodes":"19","size_leaf_vector":"1"}},{"base_weights":[4.2805257E-3,-1.927131E-2,1.1184437E-1,-1.2062809E-2,-3.4904197E-2,-9.485922E-3,-1.2639823E-2,-1.1370545E-2,5.037182E-3,-9.301997E-3,-7.075568E-2,-7.299213E-3,-5.7500033E-3,-9.876613E-3,-6.314912E-4,1.8962495E-2,-9.258276E-3,-1.1395084E-2,7.0736934E-3,-1.0494885E-2,1.834345E-2,-1.7521268E-3,8.060226E-4,-7.248557E-4,-3.7689637E-3,-1.1469828E-4,3.3821515E-3],"categories":[],"categories_nodes":[],"categories_segments":[],"categories_sizes":[],"default_left":[0,0,0,0,0,0,0,0,0,0,0,0,0,0,0,0,0,0,0,0,0,0,0,0,0,0,0],"id":35,"left_children":[1,3,-1,5,-1,7,-1,9,-1,11,13,15,-1,-1,-1,17,19,21,-1,23,25,-1,-1,-1,-1,-1,-1],"loss_changes":[1.3476823E1,1.2131901E0,0E0,1.4919847E-1,0E0,5.4066945E-2,0E0,4.3687455E-2,0E0,4.6661306E-2,4.44705E-2,1.7719435E-2,0E0,0E0,0E0,5.597587E-2,1.1046667E-2,5.020441E-3,0E0,9.580769E-3,7.5118425E-3,0E0,0E0,0E0,0E0,0E0,0E0],"parents":[2147483647,0,0,1,1,3,3,5,5,7,7,9,9,10,10,11,11,15,15,16,16,17,17,19,19,20,20],"right_children":[2,4,-1,6,-1,8,-1,10,-1,12,14,16,-1,-1,-1,18,20,22,-1,24,26,-1,-1,-1,-1,-1,-1],"split_conditions":[2.7888222E-2,5E0,1.1184437E-1,9E0,-3.4904197E-2,3E0,-1.2639823E-2,3E0,5.037182E-3,5E0,1.0764598E-5,1.35E2,-5.7500033E-3,-9.876613E-3,-6.314912E-4,2E0,8E0,4.6E1,7.0736934E-3,2E0,6.3970394E-2,-1.7521268E-3,8.060226E-4,-7.248557E-4,-3.7689637E-3,-1.1469828E-4,3.3821515E-3],"split_indices":[9,26,0,57,0,191,0,286,0,57,2,0,0,0,0,127,27,1,0,73,6,0,0,0,0,0,0],"split_type":[0,0,0,0,0,0,0,0,0,0,0,0,0,0,0,0,0,0,0,0,0,0,0,0,0,0,0],"sum_hessian":[3.83E2,3.78E2,5E0,3.73E2,5E0,3.68E2,5E0,3.6E2,8E0,3.49E2,1.1E1,3.4E2,9E0,5E0,6E0,2.3E1,3.17E2,1.7E1,6E0,3.04E2,1.3E1,1.1E1,6E0,2.99E2,5E0,8E0,5E0],"tree_param":{"num_deleted":"0","num_feature":"443","num_nodes":"27","size_leaf_vector":"1"}},{"base_weights":[4.1104737E-3,-1.8619314E-2,1.0793928E-1,-1.3476629E-2,-2.5205761E-2,-1.0311837E-2,-1.5439893E-2,-8.099582E-3,-1.0710252E-2,-9.945487E-3,6.5596784E-3,-7.8160465E-3,-6.585633E-2,-9.695855E-3,1.6708534E-2,-6.57615E-4,-9.824834E-3,-8.477454E-3,-4.234382E-3,5.1427335E-3,3.9357333E-3,1.124633E-3,-7.400109E-4,-3.6802673E-4,2.2057502E-3],"categories":[],"categories_nodes":[],"categories_segments":[],"categories_sizes":[],"default_left":[0,0,0,0,0,0,0,0,0,0,0,0,0,0,0,0,0,0,0,0,0,0,0,0,0],"id":36,"left_children":[1,3,-1,5,-1,7,-1,9,-1,11,-1,13,15,17,19,-1,-1,21,-1,23,-1,-1,-1,-1,-1],"loss_changes":[1.2552517E1,6.142201E-1,0E0,2.255945E-1,0E0,1.0699914E-1,0E0,6.507884E-2,0E0,4.2108316E-2,0E0,1.611313E-2,4.719584E-2,1.786751E-2,1.0072239E-2,0E0,0E0,1.0420665E-2,0E0,5.0219186E-3,0E0,0E0,0E0,0E0,0E0],"parents":[2147483647,0,0,1,1,3,3,5,5,7,7,9,9,11,11,12,12,13,13,14,14,17,17,19,19],"right_children":[2,4,-1,6,-1,8,-1,10,-1,12,-1,14,16,18,20,-1,-1,22,-1,24,-1,-1,-1,-1,-1],"split_conditions":[1E1,5E0,1.0793928E-1,1.545539E-6,-2.5205761E-2,1.05E2,-1.5439893E-2,2E0,-1.0710252E-2,2.1184199E-1,6.5596784E-3,8E0,2.9828637E-8,3E0,1.8090397E-8,-6.57615E-4,-9.824834E-3,1.35E2,-4.234382E-3,1.0746231E-1,3.9357333E-3,1.124633E-3,-7.400109E-4,-3.6802673E-4,2.2057502E-3],"split_indices":[425,26,0,10,0,430,0,131,0,6,0,27,11,286,8,0,0,0,0,6,0,0,0,0,0],"split_type":[0,0,0,0,0,0,0,0,0,0,0,0,0,0,0,0,0,0,0,0,0,0,0,0,0],"sum_hessian":[3.83E2,3.78E2,5E0,3.73E2,5E0,3.68E2,5E0,3.63E2,5E0,3.57E2,6E0,3.45E2,1.2E1,3.21E2,2.4E1,7E0,5E0,3.14E2,7E0,1.9E1,5E0,1.7E1,2.97E2,1.4E1,5E0],"tree_param":{"num_deleted":"0","num_feature":"443","num_nodes":"25","size_leaf_vector":"1"}},{"base_weights":[3.944333E-3,1.0723329E-1,-1.8638626E-2,-1.2696671E-2,-2.8943554E-2,-8.390523E-3,-1.7794745E-2,-6.3001155E-3,-1.0009629E-2,-8.707679E-3,5.4338977E-2,-7.166482E-3,-5.1520843E-2,1.0172651E-2,-4.4221999E-4,-7.891446E-3,2.1258665E-3,-2.7056067E-5,-7.696561E-3,-8.487506E-3,1.5810296E-3,-6.9655944E-4,8.6616364E-4],"categories":[],"categories_nodes":[],"categories_segments":[],"categories_sizes":[],"default_left":[0,0,0,0,0,0,0,0,0,0,0,0,0,0,0,0,0,0,0,0,0,0,0],"id":37,"left_children":[1,-1,3,5,-1,7,-1,9,-1,11,13,15,17,-1,-1,19,-1,-1,-1,21,-1,-1,-1],"loss_changes":[1.2391267E1,0E0,8.2220465E-1,3.5967362E-1,0E0,9.537266E-2,0E0,5.3468432E-2,0E0,2.2725E-2,6.935644E-2,8.951059E-3,3.133433E-2,0E0,0E0,5.9294757E-3,0E0,0E0,0E0,5.3484607E-3,0E0,0E0,0E0],"parents":[2147483647,0,0,2,2,3,3,5,5,7,7,9,9,10,10,11,11,12,12,15,15,19,19],"right_children":[2,-1,4,6,-1,8,-1,10,-1,12,14,16,18,-1,-1,20,-1,-1,-1,22,-1,-1,-1],"split_conditions":[1.6194213E-7,1.0723329E-1,1.1E1,1.0371819E-2,-2.8943554E-2,7.7412866E-2,-1.7794745E-2,1.31E2,-1.0009629E-2,1E0,4.0470195E-6,3.2472643E-3,7.5060676E-8,1.0172651E-2,-4.4221999E-4,3.6274862E-1,2.1258665E-3,-2.7056067E-5,-7.696561E-3,1E0,1.5810296E-3,-6.9655944E-4,8.6616364E-4],"split_indices":[7,0,439,9,0,12,0,1,0,164,7,15,11,0,0,3,0,0,0,174,0,0,0],"split_type":[0,0,0,0,0,0,0,0,0,0,0,0,0,0,0,0,0,0,0,0,0,0,0],"sum_hessian":[3.83E2,5E0,3.78E2,3.73E2,5E0,3.67E2,6E0,3.62E2,5E0,3.49E2,1.3E1,3.38E2,1.1E1,5E0,8E0,3.32E2,6E0,6E0,5E0,3.26E2,6E0,3.14E2,1.2E1],"tree_param":{"num_deleted":"0","num_feature":"443","num_nodes":"23","size_leaf_vector":"1"}},{"base_weights":[3.7952985E-3,-1.7778186E-2,1.02441594E-1,-1.1456112E-2,-2.6408603E-2,-7.9555055E-3,-1.6818797E-2,-9.6792085E-3,7.3240823E-3,-8.071888E-3,-7.7977087E-3,-5.150778E-3,-7.0189056E-3,-5.815686E-3,-3.927183E-3,-8.416538E-3,7.473117E-3,-1.0989866E-3,-3.0204127E-4,-2.7219481E-5,4.163569E-3],"categories":[],"categories_nodes":[],"categories_segments":[],"categories_sizes":[],"default_left":[0,0,0,0,0,0,0,0,0,0,0,0,0,0,0,0,0,0,0,0,0],"id":38,"left_children":[1,3,-1,5,-1,7,-1,9,-1,11,-1,-1,13,15,-1,17,19,-1,-1,-1,-1],"loss_changes":[1.1308155E1,7.9705864E-1,0E0,2.7606738E-1,0E0,6.793598E-2,0E0,5.4175094E-2,0E0,2.2364149E-2,0E0,0E0,1.8954528E-2,1.1986857E-2,0E0,7.852223E-3,2.1477934E-2,0E0,0E0,0E0,0E0],"parents":[2147483647,0,0,1,1,3,3,5,5,7,7,9,9,12,12,13,13,15,15,16,16],"right_children":[2,4,-1,6,-1,8,-1,10,-1,12,-1,-1,14,16,-1,18,20,-1,-1,-1,-1],"split_conditions":[6E0,1.65E2,1.02441594E-1,1.5659639E-6,-2.6408603E-2,5E0,-1.6818797E-2,2E0,7.3240823E-3,1.2457809E-8,-7.7977087E-3,-5.150778E-3,7.66E2,1E0,-3.927183E-3,5.8102437E-6,2.3567489E-1,-1.0989866E-3,-3.0204127E-4,-2.7219481E-5,4.163569E-3],"split_indices":[440,419,0,10,0,76,0,142,0,5,0,0,0,138,0,2,3,0,0,0,0],"split_type":[0,0,0,0,0,0,0,0,0,0,0,0,0,0,0,0,0,0,0,0,0],"sum_hessian":[3.83E2,3.78E2,5E0,3.72E2,6E0,3.67E2,5E0,3.62E2,5E0,3.57E2,5E0,5E0,3.52E2,3.44E2,8E0,2.88E2,5.6E1,1.18E2,1.7E2,4.9E1,7E0],"tree_param":{"num_deleted":"0","num_feature":"443","num_nodes":"21","size_leaf_vector":"1"}},{"base_weights":[3.6471083E-3,-1.8942041E-2,9.172051E-2,-1.0570304E-2,-4.0217105E-2,-6.4128335E-3,-1.7027287E-2,-8.178239E-3,4.853982E-3,-5.990107E-3,-6.733459E-3,-5.7393326E-3,-4.7452906E-3,-6.66569E-3,1.9678583E-3,-7.5417696E-3,1.783597E-2,-9.742678E-4,-3.1247098E-4,-1.7841294E-3,4.75688E-3],"categories":[],"categories_nodes":[],"categories_segments":[],"categories_sizes":[],"default_left":[0,0,0,0,0,0,0,0,0,0,0,0,0,0,0,0,0,0,0,0,0],"id":39,"left_children":[1,3,-1,5,-1,7,-1,9,-1,-1,11,13,-1,15,-1,17,19,-1,-1,-1,-1],"loss_changes":[1.0599597E1,1.6312921E0,0E0,3.342167E-1,0E0,4.6616364E-2,0E0,3.664601E-2,0E0,0E0,1.9477231E-2,1.0483536E-2,0E0,7.411288E-3,0E0,5.978208E-3,2.4280183E-2,0E0,0E0,0E0,0E0],"parents":[2147483647,0,0,1,1,3,3,5,5,7,7,10,10,11,11,13,13,15,15,16,16],"right_children":[2,4,-1,6,-1,8,-1,10,-1,-1,12,14,-1,16,-1,18,20,-1,-1,-1,-1],"split_conditions":[9.384744E-2,1.12E1,9.172051E-2,1.0371819E-2,-4.0217105E-2,3E0,-1.7027287E-2,5.111442E-7,4.853982E-3,-5.990107E-3,1E0,3.55628E-1,-4.7452906E-3,1.0955158E-7,1.9678583E-3,5.8102437E-6,2E0,-9.742678E-4,-3.1247098E-4,-1.7841294E-3,4.75688E-3],"split_indices":[12,439,0,9,0,191,0,7,0,0,162,3,0,14,0,2,49,0,0,0,0],"split_type":[0,0,0,0,0,0,0,0,0,0,0,0,0,0,0,0,0,0,0,0,0],"sum_hessian":[3.83E2,3.77E2,6E0,3.72E2,5E0,3.66E2,6E0,3.58E2,8E0,6E0,3.52E2,3.47E2,5E0,3.38E2,9E0,3.27E2,1.1E1,1.24E2,2.03E2,6E0,5E0],"tree_param":{"num_deleted":"0","num_feature":"443","num_nodes":"21","size_leaf_vector":"1"}},{"base_weights":[3.4575574E-3,-1.7058076E-2,9.740892E-2,-1.1370007E-2,-2.7657857E-2,-8.424012E-3,-1.4299031E-2,-5.725119E-3,-9.712193E-3,-7.308814E-3,6.7094206E-3,-6.2936824E-3,-4.9233804E-3,-4.497416E-3,-5.189646E-3,-6.0104863E-3,1.7243735E-3,-3.8434708E-4,-2.8294292E-3],"categories":[],"categories_nodes":[],"categories_segments":[],"categories_sizes":[],"default_left":[0,0,0,0,0,0,0,0,0,0,0,0,0,0,0,0,0,0,0],"id":40,"left_children":[1,3,-1,5,-1,7,-1,9,-1,11,-1,13,-1,-1,15,17,-1,-1,-1],"loss_changes":[1.0226753E1,7.54023E-1,0E0,1.9592917E-1,0E0,1.1983308E-1,0E0,5.522264E-2,0E0,2.0728024E-2,0E0,2.0546809E-2,0E0,0E0,8.141983E-3,9.274761E-3,0E0,0E0,0E0],"parents":[2147483647,0,0,1,1,3,3,5,5,7,7,9,9,11,11,14,14,15,15],"right_children":[2,4,-1,6,-1,8,-1,10,-1,12,-1,14,-1,-1,16,18,-1,-1,-1],"split_conditions":[1E0,1.1E1,9.740892E-2,1.0371819E-2,-2.7657857E-2,2E0,-1.4299031E-2,3E0,-9.712193E-3,4E0,6.7094206E-3,9.235529E-3,-4.9233804E-3,-4.497416E-3,1.31E2,2E0,1.7243735E-3,-3.8434708E-4,-2.8294292E-3],"split_indices":[424,439,0,9,0,142,0,110,0,76,0,6,0,0,1,73,0,0,0],"split_type":[0,0,0,0,0,0,0,0,0,0,0,0,0,0,0,0,0,0,0],"sum_hessian":[3.83E2,3.78E2,5E0,3.73E2,5E0,3.68E2,5E0,3.61E2,7E0,3.56E2,5E0,3.51E2,5E0,6E0,3.45E2,3.36E2,9E0,3.28E2,8E0],"tree_param":{"num_deleted":"0","num_feature":"443","num_nodes":"19","size_leaf_vector":"1"}},{"base_weights":[3.3064117E-3,-1.655714E-2,9.431023E-2,-8.878674E-3,-2.242535E-2,-6.411066E-3,-1.1813384E-2,-4.491427E-3,-9.039067E-3,-6.0387575E-3,5.580069E-3,-4.708996E-3,-3.8483746E-3,-6.570305E-3,6.9447365E-3,-5.455803E-3,-2.8591785E-3,-5.975529E-3,2.5331885E-2,-4.7804063E-4,2.4329945E-3,-9.1759826E-4,2.9333268E-4,6.5000314E-4,4.7079637E-3],"categories":[],"categories_nodes":[],"categories_segments":[],"categories_sizes":[],"default_left":[0,0,0,0,0,0,0,0,0,0,0,0,0,0,0,0,0,0,0,0,0,0,0,0,0],"id":41,"left_children":[1,3,-1,5,-1,7,-1,9,-1,11,-1,13,-1,15,17,19,-1,21,23,-1,-1,-1,-1,-1,-1],"loss_changes":[9.587081E0,8.193066E-1,0E0,1.3469449E-1,0E0,7.941181E-2,0E0,4.4395402E-2,0E0,2.1069944E-2,0E0,7.529092E-3,0E0,1.0271134E-2,1.155458E-2,1.0261365E-2,0E0,1.8424159E-3,1.1935167E-2,0E0,0E0,0E0,0E0,0E0,0E0],"parents":[2147483647,0,0,1,1,3,3,5,5,7,7,9,9,11,11,13,13,14,14,15,15,17,17,18,18],"right_children":[2,4,-1,6,-1,8,-1,10,-1,12,-1,14,-1,16,18,20,-1,22,24,-1,-1,-1,-1,-1,-1],"split_conditions":[3E0,2.63E2,9.431023E-2,6.526266E-7,-2.242535E-2,7.7412866E-2,-1.1813384E-2,2E0,-9.039067E-3,3E0,5.580069E-3,1E0,-3.8483746E-3,1.3973201E-7,2E0,3.889634E-8,-2.8591785E-3,1E0,2E0,-4.7804063E-4,2.4329945E-3,-9.1759826E-4,2.9333268E-4,6.5000314E-4,4.7079637E-3],"split_indices":[106,1,0,10,0,12,0,131,0,286,0,19,0,16,17,16,0,134,34,0,0,0,0,0,0],"split_type":[0,0,0,0,0,0,0,0,0,0,0,0,0,0,0,0,0,0,0,0,0,0,0,0,0],"sum_hessian":[3.83E2,3.78E2,5E0,3.69E2,9E0,3.64E2,5E0,3.59E2,5E0,3.53E2,6E0,3.44E2,9E0,2.97E2,4.7E1,2.88E2,9E0,2.8E1,1.9E1,2.82E2,6E0,1.7E1,1.1E1,1.4E1,5E0],"tree_param":{"num_deleted":"0","num_feature":"443","num_nodes":"25","size_leaf_vector":"1"}},{"base_weights":[3.2058146E-3,-1.789345E-2,8.565812E-2,-9.80414E-3,-3.3391975E-2,-6.1117294E-3,-1.51097905E-2,-7.879196E-3,7.593707E-3,-5.5238362E-3,-7.050544E-2,-3.1395003E-3,-4.261539E-2,-4.3853748E-4,-1.0872418E-2,-3.9516436E-3,3.092962E-3,-7.0442664E-3,-9.7776875E-3,-4.6557644E-3,2.145005E-3,-1.235467E-3,5.573642E-4,-3.0265495E-4,-2.7181627E-3],"categories":[],"categories_nodes":[],"categories_segments":[],"categories_sizes":[],"default_left":[0,0,0,0,0,0,0,0,0,0,0,0,0,0,0,0,0,0,0,0,0,0,0,0,0],"id":42,"left_children":[1,3,-1,5,-1,7,-1,9,-1,11,13,15,17,-1,-1,19,-1,21,-1,23,-1,-1,-1,-1,-1],"loss_changes":[9.247957E0,1.3023161E0,0E0,2.6202804E-1,0E0,7.0248894E-2,0E0,5.2860685E-2,0E0,3.0731324E-2,6.1740376E-2,1.2020817E-2,6.4633146E-2,0E0,0E0,7.5593404E-3,0E0,2.3062075E-3,0E0,6.084988E-3,0E0,0E0,0E0,0E0,0E0],"parents":[2147483647,0,0,1,1,3,3,5,5,7,7,9,9,10,10,11,11,12,12,15,15,17,17,19,19],"right_children":[2,4,-1,6,-1,8,-1,10,-1,12,14,16,18,-1,-1,20,-1,22,-1,24,-1,-1,-1,-1,-1],"split_conditions":[1E0,1.1E1,8.565812E-2,1.0371819E-2,-3.3391975E-2,3E0,-1.51097905E-2,2.1184199E-1,7.593707E-3,3.2E1,3.4164783E-1,3.6274862E-1,2.1272066E-7,-4.3853748E-4,-1.0872418E-2,1.4E1,3.092962E-3,1E0,-9.7776875E-3,2.4834316E-7,2.145005E-3,-1.235467E-3,5.573642E-4,-3.0265495E-4,-2.7181627E-3],"split_indices":[180,439,0,9,0,131,0,6,0,430,3,3,11,0,0,27,0,73,0,16,0,0,0,0,0],"split_type":[0,0,0,0,0,0,0,0,0,0,0,0,0,0,0,0,0,0,0,0,0,0,0,0,0],"sum_hessian":[3.83E2,3.77E2,6E0,3.71E2,6E0,3.65E2,6E0,3.6E2,5E0,3.48E2,1.2E1,3.28E2,2E1,7E0,5E0,3.23E2,5E0,1.5E1,5E0,3.17E2,6E0,9E0,6E0,3.12E2,5E0],"tree_param":{"num_deleted":"0","num_feature":"443","num_nodes":"25","size_leaf_vector":"1"}},{"base_weights":[3.0310068E-3,-1.6054288E-2,9.060603E-2,-8.428861E-3,-3.6652267E-2,-5.5933106E-3,-1.3605783E-2,-7.432532E-3,8.018876E-3,-5.385249E-3,-7.3397607E-3,-6.6448734E-3,5.2057696E-3,-4.5216796E-3,-5.7581857E-2,1.5237812E-2,-5.8744694E-3,-1.1340798E-2,8.426486E-4,-4.5408015E-4,4.629668E-3,-3.9014156E-4,-2.9986312E-3],"categories":[],"categories_nodes":[],"categories_segments":[],"categories_sizes":[],"default_left":[0,0,0,0,0,0,0,0,0,0,0,0,0,0,0,0,0,0,0,0,0,0,0],"id":43,"left_children":[1,3,-1,5,-1,7,-1,9,-1,11,-1,13,-1,15,17,19,21,-1,-1,-1,-1,-1,-1],"loss_changes":[8.850904E0,1.3618352E0,0E0,1.8243158E-1,0E0,7.715326E-2,0E0,6.686312E-2,0E0,3.409571E-2,0E0,3.780811E-2,0E0,9.151133E-3,9.1904655E-2,2.2151493E-2,7.0869215E-3,0E0,0E0,0E0,0E0,0E0,0E0],"parents":[2147483647,0,0,1,1,3,3,5,5,7,7,9,9,11,11,13,13,14,14,15,15,16,16],"right_children":[2,4,-1,6,-1,8,-1,10,-1,12,-1,14,-1,16,18,20,22,-1,-1,-1,-1,-1,-1],"split_conditions":[2.7888222E-2,5E0,9.060603E-2,1.4033333E2,-3.6652267E-2,1.2E0,-1.3605783E-2,1E0,8.018876E-3,4.591642E-3,-7.3397607E-3,3E0,5.2057696E-3,1.35E2,1.0764598E-5,1E0,3.728491E-3,-1.1340798E-2,8.426486E-4,-4.5408015E-4,4.629668E-3,-3.9014156E-4,-2.9986312E-3],"split_indices":[9,26,0,419,0,435,0,296,0,9,0,286,0,0,2,34,15,0,0,0,0,0,0],"split_type":[0,0,0,0,0,0,0,0,0,0,0,0,0,0,0,0,0,0,0,0,0,0,0],"sum_hessian":[3.83E2,3.78E2,5E0,3.73E2,5E0,3.68E2,5E0,3.63E2,5E0,3.56E2,7E0,3.51E2,5E0,3.38E2,1.3E1,2.1E1,3.17E2,5E0,8E0,1.5E1,6E0,3.12E2,5E0],"tree_param":{"num_deleted":"0","num_feature":"443","num_nodes":"23","size_leaf_vector":"1"}},{"base_weights":[2.898792E-3,-1.5762953E-2,8.8591196E-2,-1.0351246E-2,-2.6284916E-2,-7.155197E-3,-1.5388728E-2,-9.0924995E-3,8.3675245E-3,-7.3906593E-3,-8.205289E-3,-5.713389E-3,-7.883838E-3,-4.2755287E-3,-4.6336107E-2,-2.9315162E-3,-4.5142216E-3,-2.7026292E-5,-6.9188857E-3,-2.7666637E-4,2.950394E-3],"categories":[],"categories_nodes":[],"categories_segments":[],"categories_sizes":[],"default_left":[0,0,0,0,0,0,0,0,0,0,0,0,0,0,0,0,0,0,0,0,0],"id":44,"left_children":[1,3,-1,5,-1,7,-1,9,-1,11,-1,13,-1,15,17,19,-1,-1,-1,-1,-1],"loss_changes":[8.46257E0,6.828596E-1,0E0,2.3141861E-1,0E0,8.588469E-2,0E0,6.1331287E-2,0E0,5.824487E-2,0E0,2.0478953E-2,0E0,2.5599742E-2,2.5298864E-2,1.0901839E-2,0E0,0E0,0E0,0E0,0E0],"parents":[2147483647,0,0,1,1,3,3,5,5,7,7,9,9,11,11,13,13,14,14,15,15],"right_children":[2,4,-1,6,-1,8,-1,10,-1,12,-1,14,-1,16,18,20,-1,-1,-1,-1,-1],"split_conditions":[1E1,5E0,8.8591196E-2,1.6960863E-2,-2.6284916E-2,5E0,-1.5388728E-2,2E0,8.3675245E-3,6.526266E-7,-8.205289E-3,5E0,-7.883838E-3,3E0,1E0,5.192493E-3,-4.5142216E-3,-2.7026292E-5,-6.9188857E-3,-2.7666637E-4,2.950394E-3],"split_indices":[425,26,0,15,0,76,0,142,0,10,0,17,0,286,134,15,0,0,0,0,0],"split_type":[0,0,0,0,0,0,0,0,0,0,0,0,0,0,0,0,0,0,0,0,0],"sum_hessian":[3.83E2,3.78E2,5E0,3.73E2,5E0,3.68E2,5E0,3.63E2,5E0,3.58E2,5E0,3.53E2,5E0,3.42E2,1.1E1,3.35E2,7E0,6E0,5E0,3.3E2,5E0],"tree_param":{"num_deleted":"0","num_feature":"443","num_nodes":"21","size_leaf_vector":"1"}},{"base_weights":[2.7605759E-3,-1.5292192E-2,8.569753E-2,-8.941571E-3,-2.6362872E-2,-5.3902436E-3,-1.6894955E-2,-3.5324928E-3,-6.6410596E-3,-6.5066814E-3,4.0458046E-2,-4.1792663E-3,-6.199553E-3,7.6914434E-3,1.7512202E-2,1.5772233E-2,-5.517338E-3,4.92335E-3,3.140201E-3,-5.082796E-3,4.3656304E-3,-4.8927595E-3,-2.726039E-3,1.0855948E-3,-6.474152E-4,4.5793116E-4,-1.716243E-3,-2.947284E-4,-1.6531651E-3],"categories":[],"categories_nodes":[],"categories_segments":[],"categories_sizes":[],"default_left":[0,0,0,0,0,0,0,0,0,0,0,0,0,0,0,0,0,0,0,0,0,0,0,0,0,0,0,0,0],"id":45,"left_children":[1,3,-1,5,-1,7,-1,9,-1,11,13,15,-1,-1,17,19,21,23,-1,25,-1,27,-1,-1,-1,-1,-1,-1,-1],"loss_changes":[7.919373E0,8.0608255E-1,0E0,2.8533897E-1,0E0,5.6537833E-2,0E0,4.74951E-2,0E0,5.9739575E-2,3.0974742E-2,8.896876E-3,0E0,0E0,5.313175E-3,1.888102E-2,5.7914164E-3,1.8080889E-3,0E0,3.127135E-3,0E0,4.9506775E-3,0E0,0E0,0E0,0E0,0E0,0E0,0E0],"parents":[2147483647,0,0,1,1,3,3,5,5,7,7,9,9,10,10,11,11,14,14,15,15,16,16,17,17,19,19,21,21],"right_children":[2,4,-1,6,-1,8,-1,10,-1,12,14,16,-1,-1,18,20,22,24,-1,26,-1,28,-1,-1,-1,-1,-1,-1,-1],"split_conditions":[6E0,1.65E2,8.569753E-2,1.5659639E-6,-2.6362872E-2,1E0,-1.6894955E-2,8E0,-6.6410596E-3,3E0,6.3579584E-8,1.35E2,-6.199553E-3,7.6914434E-3,1.41E2,1E0,3.728491E-3,1E0,3.140201E-3,1.0064117E-7,4.3656304E-3,1E0,-2.726039E-3,1.0855948E-3,-6.474152E-4,4.5793116E-4,-1.716243E-3,-2.947284E-4,-1.6531651E-3],"split_indices":[440,419,0,10,0,296,0,27,0,286,11,0,0,0,1,34,15,110,0,5,0,432,0,0,0,0,0,0,0],"split_type":[0,0,0,0,0,0,0,0,0,0,0,0,0,0,0,0,0,0,0,0,0,0,0,0,0,0,0,0,0],"sum_hessian":[3.83E2,3.78E2,5E0,3.72E2,6E0,3.67E2,5E0,3.6E2,7E0,3.38E2,2.2E1,3.29E2,9E0,5E0,1.7E1,2E1,3.09E2,1.2E1,5E0,1.4E1,6E0,3.04E2,5E0,7E0,5E0,9E0,5E0,2.89E2,1.5E1],"tree_param":{"num_deleted":"0","num_feature":"443","num_nodes":"29","size_leaf_vector":"1"}},{"base_weights":[2.6558866E-3,-1.8233098E-2,7.40038E-2,-1.0426136E-2,-3.7441947E-2,-6.4483425E-3,-1.6268883E-2,-3.8968062E-3,-1.1916829E-2,-5.939112E-3,5.123101E-2,-4.718365E-3,-5.620406E-3,8.505092E-3,-1.3503904E-4,-3.6215202E-3,-4.2754696E-3,-2.633062E-3,-3.304972E-3,-2.4580557E-4,2.0744342E-3],"categories":[],"categories_nodes":[],"categories_segments":[],"categories_sizes":[],"default_left":[0,0,0,0,0,0,0,0,0,0,0,0,0,0,0,0,0,0,0,0,0],"id":46,"left_children":[1,3,-1,5,-1,7,-1,9,-1,11,13,15,-1,-1,-1,17,-1,19,-1,-1,-1],"loss_changes":[7.9115114E0,1.410465E0,0E0,3.0415595E-1,0E0,1.4174134E-1,0E0,4.094849E-2,0E0,2.904306E-2,4.306493E-2,1.952254E-2,0E0,0E0,0E0,1.3396526E-2,0E0,6.551315E-3,0E0,0E0,0E0],"parents":[2147483647,0,0,1,1,3,3,5,5,7,7,9,9,10,10,11,11,15,15,17,17],"right_children":[2,4,-1,6,-1,8,-1,10,-1,12,14,16,-1,-1,-1,18,-1,20,-1,-1,-1],"split_conditions":[1E0,1.1E1,7.40038E-2,1.0371819E-2,-3.7441947E-2,7.1689524E-2,-1.6268883E-2,1.31E2,-1.1916829E-2,4E0,4.2758925E-6,1E0,-5.620406E-3,8.505092E-3,-1.3503904E-4,2E0,-4.2754696E-3,3.2472643E-3,-3.304972E-3,-2.4580557E-4,2.0744342E-3],"split_indices":[269,439,0,9,0,12,0,1,0,76,7,161,0,0,0,73,0,15,0,0,0],"split_type":[0,0,0,0,0,0,0,0,0,0,0,0,0,0,0,0,0,0,0,0,0],"sum_hessian":[3.83E2,3.76E2,7E0,3.71E2,5E0,3.65E2,6E0,3.6E2,5E0,3.48E2,1.2E1,3.43E2,5E0,5E0,7E0,3.37E2,6E0,3.3E2,7E0,3.24E2,6E0],"tree_param":{"num_deleted":"0","num_feature":"443","num_nodes":"21","size_leaf_vector":"1"}},{"base_weights":[2.4706903E-3,-1.7563445E-2,7.097029E-2,-8.5729975E-3,-2.8816523E-2,-6.1760577E-3,-1.144189E-2,-4.2628786E-3,-6.808475E-3,-2.2662487E-3,-5.6922458E-2,-3.6173677E-3,4.1326364E-3,8.686179E-4,-1.0408057E-2,-2.8566436E-3,-3.3926002E-3,-3.5639794E-3,2.294561E-3,1.2611724E-3,-3.345956E-4],"categories":[],"categories_nodes":[],"categories_segments":[],"categories_sizes":[],"default_left":[0,0,0,0,0,0,0,0,0,0,0,0,0,0,0,0,0,0,0,0,0],"id":47,"left_children":[1,3,-1,5,-1,7,-1,9,-1,11,13,15,-1,-1,-1,17,-1,19,-1,-1,-1],"loss_changes":[7.277374E0,1.2394522E0,0E0,1.2640883E-1,0E0,5.853072E-2,0E0,3.740659E-2,0E0,2.694065E-2,7.450038E-2,1.057162E-2,0E0,0E0,0E0,7.988133E-3,0E0,6.054711E-3,0E0,0E0,0E0],"parents":[2147483647,0,0,1,1,3,3,5,5,7,7,9,9,10,10,11,11,15,15,17,17],"right_children":[2,4,-1,6,-1,8,-1,10,-1,12,14,16,-1,-1,-1,18,-1,20,-1,-1,-1],"split_conditions":[2E1,2.63E2,7.097029E-2,5.109259E-3,-2.8816523E-2,1E0,-1.144189E-2,3E0,-6.808475E-3,1E0,1E0,6.975056E-3,4.1326364E-3,8.686179E-4,-1.0408057E-2,2.5097094E-3,-3.3926002E-3,0E0,2.294561E-3,1.2611724E-3,-3.345956E-4],"split_indices":[27,1,0,9,0,296,0,286,0,434,235,15,0,0,0,15,0,437,0,0,0],"split_type":[0,0,0,0,0,0,0,0,0,0,0,0,0,0,0,0,0,0,0,0,0],"sum_hessian":[3.83E2,3.76E2,7E0,3.68E2,8E0,3.63E2,5E0,3.56E2,7E0,3.44E2,1.2E1,3.37E2,7E0,7E0,5E0,3.32E2,5E0,3.26E2,6E0,1.3E1,3.13E2],"tree_param":{"num_deleted":"0","num_feature":"443","num_nodes":"21","size_leaf_vector":"1"}},{"base_weights":[2.3331062E-3,-1.4616154E-2,8.044295E-2,-9.130103E-3,-2.65608E-2,-6.001873E-3,-1.4999593E-2,-7.773784E-3,7.6870783E-3,-6.0796654E-3,-8.088218E-3,-4.4422206E-3,-7.6256744E-3,-3.3866535E-3,-4.2213285E-3,-2.3718784E-3,-3.936139E-3,-2.2674851E-4,2.5959276E-3],"categories":[],"categories_nodes":[],"categories_segments":[],"categories_sizes":[],"default_left":[0,0,0,0,0,0,0,0,0,0,0,0,0,0,0,0,0,0,0],"id":48,"left_children":[1,3,-1,5,-1,7,-1,9,-1,11,-1,13,-1,15,-1,17,-1,-1,-1],"loss_changes":[6.981347E0,7.027174E-1,0E0,2.2210306E-1,0E0,7.173543E-2,0E0,6.105288E-2,0E0,5.5743746E-2,0E0,1.918128E-2,0E0,1.7213082E-2,0E0,8.344392E-3,0E0,0E0,0E0],"parents":[2147483647,0,0,1,1,3,3,5,5,7,7,9,9,11,11,13,13,15,15],"right_children":[2,4,-1,6,-1,8,-1,10,-1,12,-1,14,-1,16,-1,18,-1,-1,-1],"split_conditions":[1E1,5E0,8.044295E-2,1.6960863E-2,-2.65608E-2,3E0,-1.4999593E-2,4.965527E-7,7.6870783E-3,7.1689524E-2,-8.088218E-3,1E0,-7.6256744E-3,1E0,-4.2213285E-3,5.192493E-3,-3.936139E-3,-2.2674851E-4,2.5959276E-3],"split_indices":[425,26,0,15,0,110,0,10,0,12,0,296,0,161,0,15,0,0,0],"split_type":[0,0,0,0,0,0,0,0,0,0,0,0,0,0,0,0,0,0,0],"sum_hessian":[3.83E2,3.78E2,5E0,3.73E2,5E0,3.68E2,5E0,3.63E2,5E0,3.58E2,5E0,3.53E2,5E0,3.47E2,6E0,3.41E2,6E0,3.36E2,5E0],"tree_param":{"num_deleted":"0","num_feature":"443","num_nodes":"19","size_leaf_vector":"1"}},{"base_weights":[2.2234032E-3,7.834181E-2,-1.4283794E-2,-7.4039847E-3,-2.493071E-2,-3.910016E-3,-1.41773205E-2,-2.3798898E-3,-7.1490696E-3,-3.8326853E-3,6.316198E-3,-2.3313623E-3,-4.6676334E-2,-1.167588E-3,-2.4716677E-2,5.133046E-5,-7.0613357E-3,-2.3548685E-3,1.550741E-2,-3.9141937E-3,-2.0021685E-5,-2.4604885E-4,1.5565868E-3,8.511145E-5,4.023389E-3],"categories":[],"categories_nodes":[],"categories_segments":[],"categories_sizes":[],"default_left":[0,0,0,0,0,0,0,0,0,0,0,0,0,0,0,0,0,0,0,0,0,0,0,0,0],"id":49,"left_children":[1,-1,3,5,-1,7,-1,9,-1,11,-1,13,15,17,19,-1,-1,21,23,-1,-1,-1,-1,-1,-1],"loss_changes":[6.622029E0,0E0,8.2703483E-1,2.3533165E-1,0E0,5.0965644E-2,0E0,4.573877E-2,0E0,2.278987E-2,0E0,8.958892E-3,2.7045742E-2,6.5500266E-3,1.1404912E-2,0E0,0E0,6.6575147E-3,1.1998171E-2,0E0,0E0,0E0,0E0,0E0,0E0],"parents":[2147483647,0,0,2,2,3,3,5,5,7,7,9,9,11,11,12,12,13,13,14,14,17,17,18,18],"right_children":[2,-1,4,6,-1,8,-1,10,-1,12,-1,14,16,18,20,-1,-1,22,24,-1,-1,-1,-1,-1,-1],"split_conditions":[1.6194213E-7,7.834181E-2,1.4033333E2,1.0371819E-2,-2.493071E-2,7.1689524E-2,-1.41773205E-2,3E0,-7.1490696E-3,1E0,6.316198E-3,1E0,7.5060676E-8,1E0,5.05E2,5.133046E-5,-7.0613357E-3,1E0,2E0,-3.9141937E-3,-2.0021685E-5,-2.4604885E-4,1.5565868E-3,8.511145E-5,4.023389E-3],"split_indices":[7,0,419,9,0,12,0,131,0,164,0,432,11,60,0,0,0,174,34,0,0,0,0,0,0],"split_type":[0,0,0,0,0,0,0,0,0,0,0,0,0,0,0,0,0,0,0,0,0,0,0,0,0],"sum_hessian":[3.83E2,5E0,3.78E2,3.71E2,7E0,3.65E2,6E0,3.6E2,5E0,3.55E2,5E0,3.44E2,1.1E1,3.28E2,1.6E1,6E0,5E0,3.07E2,2.1E1,7E0,9E0,2.96E2,1.1E1,1.6E1,5E0],"tree_param":{"num_deleted":"0","num_feature":"443","num_nodes":"25","size_leaf_vector":"1"}},{"base_weights":[2.1422624E-3,-1.400965E-2,7.665358E-2,-5.463542E-3,-3.5054535E-2,-3.0146046E-3,-1.1606582E-2,-4.6490137E-3,7.2277193E-3,-2.604992E-3,-6.356833E-3,-3.796112E-3,5.0483393E-3,-4.7988486E-3,-2.7383517E-3,-1.7549332E-3,-2.1609312E-2,-3.0989476E-4,4.8689297E-4,-2.2463201E-4,-3.5829889E-3],"categories":[],"categories_nodes":[],"categories_segments":[],"categories_sizes":[],"default_left":[0,0,0,0,0,0,0,0,0,0,0,0,0,0,0,0,0,0,0,0,0],"id":50,"left_children":[1,3,-1,5,-1,7,-1,9,-1,11,-1,13,-1,-1,15,17,19,-1,-1,-1,-1],"loss_changes":[6.340113E0,1.4659461E0,0E0,1.3590378E-1,0E0,6.0223892E-2,0E0,5.9218295E-2,0E0,2.9819416E-2,0E0,2.2107556E-2,0E0,0E0,6.3646054E-3,6.4761154E-3,8.136256E-3,0E0,0E0,0E0,0E0],"parents":[2147483647,0,0,1,1,3,3,5,5,7,7,9,9,11,11,14,14,15,15,16,16],"right_children":[2,4,-1,6,-1,8,-1,10,-1,12,-1,14,-1,-1,16,18,20,-1,-1,-1,-1],"split_conditions":[2.7888222E-2,1.12E1,7.665358E-2,7.7412866E-2,-3.5054535E-2,3.4732008E-7,-1.1606582E-2,2E0,7.2277193E-3,1E0,-6.356833E-3,1.2457809E-8,5.0483393E-3,-4.7988486E-3,1E0,3.6443573E-8,1.5443085E-1,-3.0989476E-4,4.8689297E-4,-2.2463201E-4,-3.5829889E-3],"split_indices":[9,439,0,12,0,8,0,44,0,414,0,5,0,0,432,5,3,0,0,0,0],"split_type":[0,0,0,0,0,0,0,0,0,0,0,0,0,0,0,0,0,0,0,0,0],"sum_hessian":[3.83E2,3.78E2,5E0,3.72E2,6E0,3.67E2,5E0,3.62E2,5E0,3.54E2,8E0,3.49E2,5E0,5E0,3.44E2,3.28E2,1.6E1,2.55E2,7.3E1,1E1,6E0],"tree_param":{"num_deleted":"0","num_feature":"443","num_nodes":"21","size_leaf_vector":"1"}},{"base_weights":[2.0531637E-3,-1.6229201E-2,6.4751476E-2,-8.971993E-3,-3.4760345E-2,-5.085709E-3,-1.5816554E-2,-2.7633456E-3,-9.284626E-3,-4.232586E-3,4.680922E-3,-3.177142E-3,-4.8557166E-3,-1.7842225E-3,-3.7559553E-3,-5.1562986E-3,4.104105E-3,-5.1783666E-4,6.3570397E-4,3.2032914E-3,1.334334E-4],"categories":[],"categories_nodes":[],"categories_segments":[],"categories_sizes":[],"default_left":[0,0,0,0,0,0,0,0,0,0,0,0,0,0,0,0,0,0,0,0,0],"id":51,"left_children":[1,3,-1,5,-1,7,-1,9,-1,11,-1,13,-1,15,-1,17,19,-1,-1,-1,-1],"loss_changes":[6.0607047E0,1.2194815E0,0E0,2.9083607E-1,0E0,1.0055904E-1,0E0,3.4737278E-2,0E0,2.2338718E-2,0E0,2.264586E-2,0E0,6.7523075E-3,0E0,5.206222E-3,1.1054218E-2,0E0,0E0,0E0,0E0],"parents":[2147483647,0,0,1,1,3,3,5,5,7,7,9,9,11,11,13,13,15,15,16,16],"right_children":[2,4,-1,6,-1,8,-1,10,-1,12,-1,14,-1,16,-1,18,20,-1,-1,-1,-1],"split_conditions":[1E0,1.1E1,6.4751476E-2,1.0371819E-2,-3.4760345E-2,2E0,-1.5816554E-2,2E0,-9.284626E-3,4E0,4.680922E-3,3E0,-4.8557166E-3,3.2458644E-8,-3.7559553E-3,1E0,0E0,-5.1783666E-4,6.3570397E-4,3.2032914E-3,1.334334E-4],"split_indices":[269,439,0,9,0,142,0,131,0,76,0,286,0,4,0,204,437,0,0,0,0],"split_type":[0,0,0,0,0,0,0,0,0,0,0,0,0,0,0,0,0,0,0,0,0],"sum_hessian":[3.83E2,3.76E2,7E0,3.71E2,5E0,3.65E2,6E0,3.59E2,6E0,3.52E2,7E0,3.47E2,5E0,3.38E2,9E0,2.15E2,1.23E2,1.91E2,2.4E1,6E0,1.17E2],"tree_param":{"num_deleted":"0","num_feature":"443","num_nodes":"21","size_leaf_vector":"1"}},{"base_weights":[1.9106657E-3,-1.3573266E-2,7.347454E-2,-8.342456E-3,-2.5302365E-2,-5.1413057E-3,-1.5286709E-2,-6.7855897E-3,7.160163E-3,-5.108209E-3,-7.951348E-3,-3.3210018E-3,-6.23301E-3,-1.254887E-3,-5.311328E-2,-1.8330353E-3,2.335339E-3,8.4130367E-4,-1.0556781E-2,-2.2615682E-4,9.6764317E-4],"categories":[],"categories_nodes":[],"categories_segments":[],"categories_sizes":[],"default_left":[0,0,0,0,0,0,0,0,0,0,0,0,0,0,0,0,0,0,0,0,0],"id":52,"left_children":[1,3,-1,5,-1,7,-1,9,-1,11,-1,13,-1,15,17,19,-1,-1,-1,-1,-1],"loss_changes":[5.826831E0,6.390948E-1,0E0,2.3298702E-1,0E0,6.1692096E-2,0E0,6.004643E-2,0E0,4.9768463E-2,0E0,3.61459E-2,0E0,6.405805E-3,8.051348E-2,5.857998E-3,0E0,0E0,0E0,0E0,0E0],"parents":[2147483647,0,0,1,1,3,3,5,5,7,7,9,9,11,11,13,13,14,14,15,15],"right_children":[2,4,-1,6,-1,8,-1,10,-1,12,-1,14,-1,16,18,20,-1,-1,-1,-1,-1],"split_conditions":[1E1,5E0,7.347454E-2,1.6960863E-2,-2.5302365E-2,3E0,-1.5286709E-2,4.965527E-7,7.160163E-3,1E0,-7.951348E-3,3E0,-6.23301E-3,5.192493E-3,2.8777328E-1,1E0,2.335339E-3,8.4130367E-4,-1.0556781E-2,-2.2615682E-4,9.6764317E-4],"split_indices":[425,26,0,15,0,110,0,10,0,296,0,286,0,15,3,220,0,0,0,0,0],"split_type":[0,0,0,0,0,0,0,0,0,0,0,0,0,0,0,0,0,0,0,0,0],"sum_hessian":[3.83E2,3.78E2,5E0,3.73E2,5E0,3.68E2,5E0,3.63E2,5E0,3.58E2,5E0,3.51E2,7E0,3.38E2,1.3E1,3.33E2,5E0,8E0,5E0,3.09E2,2.4E1],"tree_param":{"num_deleted":"0","num_feature":"443","num_nodes":"21","size_leaf_vector":"1"}},{"base_weights":[1.8174218E-3,-1.3319578E-2,7.182513E-2,-6.9944393E-3,-2.6134228E-2,-3.6439628E-3,-1.5849344E-2,-1.9937812E-3,-5.8239684E-3,-6.3857864E-5,-4.982375E-2,-2.094504E-3,3.520862E-2,7.8521663E-4,-9.8969815E-3,-3.5810892E-3,9.774432E-3,8.031668E-3,1.8878808E-3,-2.4664E-3,-2.053597E-2,-2.7433126E-3,3.6081675E-2,1.3796451E-3,-1.2935551E-3,2.0690039E-3,-2.3402016E-4,-2.1950093E-3,-1.9763595E-4,-7.121059E-4,1.0225691E-3,5.182473E-3,1.9695323E-4],"categories":[],"categories_nodes":[],"categories_segments":[],"categories_sizes":[],"default_left":[0,0,0,0,0,0,0,0,0,0,0,0,0,0,0,0,0,0,0,0,0,0,0,0,0,0,0,0,0,0,0,0,0],"id":53,"left_children":[1,3,-1,5,-1,7,-1,9,-1,11,13,15,17,-1,-1,19,21,-1,23,25,27,29,31,-1,-1,-1,-1,-1,-1,-1,-1,-1,-1],"loss_changes":[5.5687423E0,8.0096185E-1,0E0,2.54587E-1,0E0,4.4788353E-2,0E0,3.332007E-2,0E0,2.4999563E-2,7.071306E-2,5.857585E-3,4.5304805E-2,0E0,0E0,5.5057816E-3,1.2283356E-2,0E0,4.7394997E-3,5.529348E-3,2.7360767E-3,3.0043267E-3,1.3074179E-2,0E0,0E0,0E0,0E0,0E0,0E0,0E0,0E0,0E0,0E0],"parents":[2147483647,0,0,1,1,3,3,5,5,7,7,9,9,10,10,11,11,12,12,15,15,16,16,18,18,19,19,20,20,21,21,22,22],"right_children":[2,4,-1,6,-1,8,-1,10,-1,12,14,16,18,-1,-1,20,22,-1,24,26,28,30,32,-1,-1,-1,-1,-1,-1,-1,-1,-1,-1],"split_conditions":[6E0,1.65E2,7.182513E-2,1.5659639E-6,-2.6134228E-2,1E0,-1.5849344E-2,3E0,-5.8239684E-3,8E0,2.8777328E-1,1E0,1.3590834E-2,7.8521663E-4,-9.8969815E-3,1E0,2E0,8.031668E-3,1E0,8.2E1,1E0,1E0,4.192943E-6,1.3796451E-3,-1.2935551E-3,2.0690039E-3,-2.3402016E-4,-2.1950093E-3,-1.9763595E-4,-7.121059E-4,1.0225691E-3,5.182473E-3,1.9695323E-4],"split_indices":[440,419,0,10,0,296,0,286,0,27,3,261,12,0,0,132,49,0,154,0,437,22,7,0,0,0,0,0,0,0,0,0,0],"split_type":[0,0,0,0,0,0,0,0,0,0,0,0,0,0,0,0,0,0,0,0,0,0,0,0,0,0,0,0,0,0,0,0,0],"sum_hessian":[3.83E2,3.78E2,5E0,3.72E2,6E0,3.67E2,5E0,3.6E2,7E0,3.47E2,1.3E1,3.29E2,1.8E1,8E0,5E0,2.93E2,3.6E1,5E0,1.3E1,2.76E2,1.7E1,2.5E1,1.1E1,7E0,6E0,5E0,2.71E2,1.1E1,6E0,1.8E1,7E0,5E0,6E0],"tree_param":{"num_deleted":"0","num_feature":"443","num_nodes":"33","size_leaf_vector":"1"}},{"base_weights":[1.7544401E-3,-1.4276049E-2,6.5036274E-2,-6.3261935E-3,-3.7958458E-2,-2.8243384E-3,-1.417648E-2,-5.570137E-3,-1.4311712E-3,-2.5925057E-3,5.0784904E-3,-1.5995741E-3,-3.8901542E-3,-2.415137E-3,2.3754148E-2,-1.4422124E-3,-2.0815868E-2,2.2003773E-4,3.0461575E-3,-2.1771726E-4,7.220813E-4,-3.3641097E-3,3.726438E-5],"categories":[],"categories_nodes":[],"categories_segments":[],"categories_sizes":[],"default_left":[0,0,0,0,0,0,0,0,0,0,0,0,0,0,0,0,0,0,0,0,0,0,0],"id":54,"left_children":[1,3,-1,5,-1,7,-1,-1,9,11,-1,13,-1,15,17,19,21,-1,-1,-1,-1,-1,-1],"loss_changes":[5.339503E0,1.4747899E0,0E0,2.3809896E-1,0E0,3.6422558E-2,0E0,0E0,2.9163755E-2,1.7335366E-2,0E0,7.294513E-3,0E0,6.056837E-3,3.74247E-3,5.2669374E-3,8.731982E-3,0E0,0E0,0E0,0E0,0E0,0E0],"parents":[2147483647,0,0,1,1,3,3,5,5,8,8,9,9,11,11,13,13,14,14,15,15,16,16],"right_children":[2,4,-1,6,-1,8,-1,-1,10,12,-1,14,-1,16,18,20,22,-1,-1,-1,-1,-1,-1],"split_conditions":[9.384744E-2,1.12E1,6.5036274E-2,1.0371819E-2,-3.7958458E-2,5.111442E-7,-1.417648E-2,-5.570137E-3,3E0,4E0,5.0784904E-3,1E0,-3.8901542E-3,1E0,1E0,1E0,5.05E2,2.2003773E-4,3.0461575E-3,-2.1771726E-4,7.220813E-4,-3.3641097E-3,3.726438E-5],"split_indices":[12,439,0,9,0,7,0,0,131,76,0,283,0,432,108,261,0,0,0,0,0,0,0],"split_type":[0,0,0,0,0,0,0,0,0,0,0,0,0,0,0,0,0,0,0,0,0,0,0],"sum_hessian":[3.83E2,3.77E2,6E0,3.72E2,5E0,3.66E2,6E0,6E0,3.6E2,3.55E2,5E0,3.49E2,6E0,3.39E2,1E1,3.23E2,1.6E1,5E0,5E0,2.86E2,3.7E1,7E0,9E0],"tree_param":{"num_deleted":"0","num_feature":"443","num_nodes":"23","size_leaf_vector":"1"}},{"base_weights":[1.6462037E-3,-1.4995296E-2,5.892533E-2,-8.086779E-3,-3.306181E-2,-4.352748E-3,-1.7635293E-2,-2.7193308E-3,-7.6632593E-3,-5.212056E-3,-1.3987056E-3,-2.7753802E-3,4.412517E-3,-1.6319095E-3,-4.380672E-3,-5.0010746E-3,4.9187946E-3,-2.9987984E-4,-3.0949956E-3,1.5711098E-4,3.6747295E-3],"categories":[],"categories_nodes":[],"categories_segments":[],"categories_sizes":[],"default_left":[0,0,0,0,0,0,0,0,0,0,0,0,0,0,0,0,0,0,0,0,0],"id":55,"left_children":[1,3,-1,5,-1,7,-1,9,-1,-1,11,13,-1,15,-1,17,19,-1,-1,-1,-1],"loss_changes":[5.0219636E0,1.1055107E0,0E0,3.1436312E-1,0E0,5.836414E-2,0E0,3.182555E-2,0E0,0E0,2.9682882E-2,2.210644E-2,0E0,7.5947475E-3,0E0,8.089311E-3,1.4460859E-2,0E0,0E0,0E0,0E0],"parents":[2147483647,0,0,1,1,3,3,5,5,7,7,10,10,11,11,13,13,15,15,16,16],"right_children":[2,4,-1,6,-1,8,-1,10,-1,-1,12,14,-1,16,-1,18,20,-1,-1,-1,-1],"split_conditions":[2E1,1.12E1,5.892533E-2,1.0371819E-2,-3.306181E-2,5.9297927E-2,-1.7635293E-2,5.111442E-7,-7.6632593E-3,-5.212056E-3,3E0,4E0,4.412517E-3,1E0,-4.380672E-3,2E0,1E0,-2.9987984E-4,-3.0949956E-3,1.5711098E-4,3.6747295E-3],"split_indices":[27,439,0,9,0,12,0,7,0,0,191,76,0,127,0,73,213,0,0,0,0],"split_type":[0,0,0,0,0,0,0,0,0,0,0,0,0,0,0,0,0,0,0,0,0],"sum_hessian":[3.83E2,3.76E2,7E0,3.71E2,5E0,3.66E2,5E0,3.61E2,5E0,6E0,3.55E2,3.48E2,7E0,3.42E2,6E0,2.26E2,1.16E2,2.21E2,5E0,1.1E2,6E0],"tree_param":{"num_deleted":"0","num_feature":"443","num_nodes":"21","size_leaf_vector":"1"}}]},"name":"gbtree"},"learner_model_param":{"base_score":"3.0936689E-9","boost_from_average":"1","num_class":"0","num_feature":"443","num_target":"1"},"objective":{"name":"reg:squarederror","reg_loss_param":{"scale_pos_weight":"1"}}},"version":[2,0,3]}